-2.103327307850122452e-03
-8.326594531536102295e-02
9.857880324125289917e-02
-7.953603565692901611e-02
8.570244908332824707e-02
-3.736570477485656738e-03
-1.124467551708221436e-01
3.350839763879776001e-02
9.412291646003723145e-02
-5.332540720701217651e-02
3.261117963120341301e-03
1.839268207550048828e-01
8.106823079288005829e-03
1.017848253250122070e-01
-6.763706356287002563e-02
-1.004743799567222595e-01
2.110080979764461517e-02
1.200911477208137512e-01
1.191450655460357666e-01
5.816823989152908325e-02
-2.926958957687020302e-03
2.551322430372238159e-02
1.346304267644882202e-01
-4.047764837741851807e-02
-3.123514121398329735e-03
-1.155473962426185608e-01
-8.886561542749404907e-02
1.970138996839523315e-01
-1.201716661453247070e-01
5.386599898338317871e-02
-2.283811569213867188e-02
-9.446600824594497681e-02
2.627415060997009277e-01
6.219227612018585205e-02
-1.828362583182752132e-03
-8.974786847829818726e-02
-1.673709452152252197e-01
1.676779538393020630e-01
6.231816858053207397e-02
6.956439756322652102e-05
1.312079111812636256e-04
-1.970183104276657104e-02
1.302754878997802734e-01
6.512647867202758789e-02
1.469486299902200699e-02
-1.138081625103950500e-01
-2.308184094727039337e-02
2.306219488382339478e-01
1.614467948675155640e-01
-1.677246242761611938e-01
-1.807558834552764893e-01
-1.518590450286865234e-01
-7.911615073680877686e-02
1.557839959859848022e-01
-2.249852865934371948e-01
-1.101298779249191284e-01
3.705361625179648399e-03
-1.848441809415817261e-01
1.475355178117752075e-01
2.686804719269275665e-02
4.215020686388015747e-03
1.777894422411918640e-02
2.005310207605361938e-01
3.688076511025428772e-02
-5.104291439056396484e-02
-1.435045246034860611e-02
9.067931771278381348e-02
1.247772425413131714e-01
1.020965501666069031e-01
-3.017875738441944122e-02
7.026802003383636475e-02
4.590275511145591736e-02
1.054937317967414856e-01
1.576698422431945801e-01
1.966323703527450562e-01
-3.082165420055389404e-01
1.273789852857589722e-01
6.519957631826400757e-02
3.753684088587760925e-02
-1.027447823435068130e-02
4.976864904165267944e-02
1.177509650588035583e-01
9.610955417156219482e-02
1.007189303636550903e-01
-1.082931458950042725e-01
-1.872099637985229492e-01
6.549555808305740356e-02
3.891923651099205017e-02
-1.928355544805526733e-01
-4.958000406622886658e-02
-1.975264251232147217e-01
1.060250177979469299e-01
1.617421209812164307e-01
1.742239668965339661e-02
-3.348977863788604736e-01
-2.783112600445747375e-02
8.630188554525375366e-02
1.196417734026908875e-01
8.229263126850128174e-02
-1.404494196176528931e-01
-3.855581283569335938e-01
-1.936729997396469116e-02
7.977093011140823364e-02
1.840665489435195923e-01
-2.243703007698059082e-01
-4.407810978591442108e-03
-2.261661589145660400e-01
3.419691324234008789e-02
5.484241247177124023e-02
-1.063359975814819336e-01
-1.512720733880996704e-01
8.834363892674446106e-03
-7.331306487321853638e-02
2.636612057685852051e-01
-5.924466252326965332e-02
1.226706244051456451e-02
-2.815867066383361816e-01
4.784622788429260254e-02
1.117315143346786499e-01
2.084906399250030518e-02
-3.871421515941619873e-02
-1.429049968719482422e-01
3.896938264369964600e-02
3.998805582523345947e-02
4.624007269740104675e-02
2.490843087434768677e-02
-8.038577437400817871e-02
4.137474298477172852e-02
5.033943802118301392e-02
1.564456522464752197e-02
1.106890887022018433e-01
1.882564127445220947e-01
6.608294695615768433e-02
1.262757331132888794e-01
5.215936526656150818e-02
-2.869337983429431915e-02
-3.881233930587768555e-02
1.667781770229339600e-01
9.781163930892944336e-02
-1.057027503848075867e-01
5.675637349486351013e-02
5.921644717454910278e-02
3.915609419345855713e-02
5.865816026926040649e-02
-1.731415092945098877e-01
-5.697110667824745178e-03
-4.306459799408912659e-02
1.639106869697570801e-01
-6.971659511327743530e-02
-8.269631303846836090e-03
-1.022592484951019287e-01
-6.028826907277107239e-02
2.825979292392730713e-01
1.780483499169349670e-02
-7.176857907325029373e-03
-1.034920811653137207e-01
-6.226805970072746277e-02
1.483118534088134766e-01
5.226514860987663269e-02
-1.737550050020217896e-01
-1.144921109080314636e-01
-2.343744225800037384e-02
-4.221719503402709961e-02
1.010586544871330261e-01
-2.953574992716312408e-03
-2.269725948572158813e-01
-2.652729861438274384e-02
1.482677906751632690e-01
-2.531844191253185272e-02
-2.718912065029144287e-01
-8.310861140489578247e-02
-1.043122485280036926e-01
-1.008688136935234070e-01
4.554113000631332397e-02
1.302218735218048096e-01
-2.173399627208709717e-01
-2.720473334193229675e-02
7.983459159731864929e-03
1.025871187448501587e-01
3.924523666501045227e-02
1.475617587566375732e-01
-1.481594890356063843e-01
-2.091521024703979492e-01
-8.961921930313110352e-02
-6.028709188103675842e-02
8.072373270988464355e-02
6.812468171119689941e-02
6.738881766796112061e-02
8.212067186832427979e-03
-7.096155313774943352e-04
9.842137992382049561e-02
-3.595374152064323425e-02
-4.264704510569572449e-02
1.527081336826086044e-02
3.849058225750923157e-02
-1.896644011139869690e-03
4.712902009487152100e-02
1.407735198736190796e-01
-3.987456113100051880e-02
1.852261275053024292e-01
9.193354845046997070e-02
-8.809202909469604492e-02
-2.705693840980529785e-01
-1.909534931182861328e-01
6.405480951070785522e-02
-9.816025197505950928e-02
-2.399181276559829712e-01
-5.965854600071907043e-02
-2.209901809692382812e-01
-2.074221894145011902e-02
-2.152949199080467224e-02
7.080444693565368652e-02
1.164888888597488403e-01
6.212419643998146057e-02
-7.722756359726190567e-03
-1.437399089336395264e-01
3.678260743618011475e-02
1.380539685487747192e-01
2.192947268486022949e-02
-2.536775171756744385e-01
-2.208700478076934814e-01
-6.966009736061096191e-02
-8.074032142758369446e-03
-3.046700060367584229e-01
-1.219171062111854553e-01
-2.521452009677886963e-01
-2.180106341838836670e-01
2.391685396432876587e-01
-2.707815766334533691e-01
-2.095906883478164673e-01
2.287580072879791260e-02
-1.602078974246978760e-02
-1.088134050369262695e-01
-1.732636094093322754e-01
-3.213794203475117683e-03
-3.413023427128791809e-02
-3.444233536720275879e-02
-3.617192618548870087e-03
-1.153690293431282043e-01
-8.945726603269577026e-02
-1.453378796577453613e-02
-1.832415610551834106e-01
-2.808399796485900879e-01
1.357154101133346558e-01
-4.474908486008644104e-02
2.153977565467357635e-02
4.091420397162437439e-02
7.661810517311096191e-02
2.549531310796737671e-02
8.869913965463638306e-02
1.576433181762695312e-01
1.549515575170516968e-01
9.453742764890193939e-03
-1.371571514755487442e-02
1.060751453042030334e-01
2.050944976508617401e-02
2.071593105792999268e-01
-1.738968938589096069e-01
5.926230177283287048e-02
6.506623327732086182e-02
-5.292171984910964966e-02
1.469857692718505859e-01
-1.439520120620727539e-01
1.044856607913970947e-01
1.221200227737426758e-01
-1.231320053339004517e-01
-1.855889335274696350e-03
-6.132274121046066284e-02
-2.029265910387039185e-01
4.855060949921607971e-02
8.516824990510940552e-02
6.560581922531127930e-02
-1.175964716821908951e-02
7.013546675443649292e-02
8.209574036300182343e-03
-1.394188702106475830e-01
-1.376363784074783325e-01
7.970692962408065796e-02
-1.369727402925491333e-02
-2.756944298744201660e-01
2.052951045334339142e-02
-4.615837708115577698e-03
-4.254284780472517014e-03
-1.143352687358856201e-01
-1.931717153638601303e-03
-2.406592853367328644e-02
1.095632016658782959e-01
1.394177041947841644e-02
-1.623729467391967773e-01
-2.525307796895503998e-02
-1.021002754569053650e-01
7.721221446990966797e-02
1.821543276309967041e-01
1.126549020409584045e-01
1.147249341011047363e-01
-1.274260729551315308e-01
-2.316015958786010742e-01
-1.224287971854209900e-01
1.881152577698230743e-02
-9.560503065586090088e-02
1.759641915559768677e-01
-7.406713813543319702e-02
-2.446865439414978027e-01
-1.097979396581649780e-01
-7.986449450254440308e-02
5.350096896290779114e-02
-3.343699872493743896e-02
3.137126564979553223e-02
2.406330592930316925e-02
8.500937372446060181e-02
1.389400660991668701e-01
-1.199737489223480225e-01
-1.655786782503128052e-01
-2.569834329187870026e-02
9.045405685901641846e-02
8.638474345207214355e-02
6.220450252294540405e-02
3.498172760009765625e-02
1.543691009283065796e-01
5.719927698373794556e-02
-2.137248367071151733e-01
1.194068938493728638e-01
2.766974270343780518e-02
-1.004587393254041672e-02
5.207527801394462585e-02
-2.234723418951034546e-02
1.401960402727127075e-01
-1.032941043376922607e-01
8.935007452964782715e-02
-7.643665373325347900e-02
1.873840838670730591e-01
6.319508701562881470e-02
-2.129810600308701396e-04
1.777578294277191162e-01
-1.148186475038528442e-01
1.337585598230361938e-01
1.085795238614082336e-01
-4.171843454241752625e-02
1.428672224283218384e-01
-1.281160712242126465e-01
1.901441365480422974e-01
2.856152690947055817e-02
6.512685865163803101e-02
-6.889507919549942017e-02
-2.621806040406227112e-02
3.148305714130401611e-01
3.876857459545135498e-03
1.149692013859748840e-01
-1.923397183418273926e-01
-2.512663789093494415e-02
7.373971492052078247e-02
9.534286707639694214e-02
2.562828361988067627e-01
-9.006760269403457642e-02
6.976405531167984009e-02
2.046291530132293701e-02
3.614318370819091797e-02
2.048370093107223511e-01
-7.075592130422592163e-02
-7.062476128339767456e-02
-4.003133997321128845e-02
-2.529883384704589844e-02
-3.170020282268524170e-01
-8.777564764022827148e-02
-8.253150433301925659e-02
-2.785436995327472687e-02
-1.199496239423751831e-01
-2.298698723316192627e-01
-5.827526003122329712e-02
-4.352024942636489868e-02
2.147530019283294678e-01
-2.133393436670303345e-01
-9.973453730344772339e-02
7.359716296195983887e-02
-1.021578460931777954e-01
1.746536493301391602e-01
-4.405253008008003235e-02
-1.860189437866210938e-02
-8.958750218152999878e-02
-1.570512950420379639e-01
1.559369713068008423e-01
-1.265374869108200073e-01
8.098109625279903412e-03
-6.386230885982513428e-02
4.410852119326591492e-02
5.702216550707817078e-02
2.445101439952850342e-01
-6.297654937952756882e-03
-4.999567940831184387e-02
7.902539521455764771e-02
1.608205139636993408e-01
4.003477096557617188e-02
5.952629819512367249e-02
9.398552030324935913e-02
1.893892139196395874e-01
-2.036564052104949951e-01
8.198428153991699219e-02
5.191596597433090210e-02
-7.345563918352127075e-02
-1.474220752716064453e-01
2.730307579040527344e-01
-9.669510275125503540e-02
1.237361412495374680e-02
1.111669167876243591e-01
-1.519706547260284424e-01
-1.283133286051452160e-03
-1.314782500267028809e-01
3.052099049091339111e-01
-1.981609016656875610e-01
8.115417324006557465e-03
-3.069975413382053375e-02
-2.463056445121765137e-01
1.204955577850341797e-01
-3.010362088680267334e-01
4.281910136342048645e-02
-2.837263047695159912e-01
1.817800998687744141e-01
5.822702124714851379e-02
-8.312135189771652222e-02
-5.483597889542579651e-02
-1.345564126968383789e-01
1.360299736261367798e-01
-2.655448913574218750e-01
-1.765563338994979858e-01
-9.238702803850173950e-02
5.220792815089225769e-02
1.603310182690620422e-02
-3.352677524089813232e-01
7.485603541135787964e-02
-3.773072361946105957e-02
-1.491010487079620361e-01
2.482940070331096649e-02
-3.309162557125091553e-01
-6.735571473836898804e-02
-3.320018202066421509e-02
1.074347048997879028e-01
3.043701685965061188e-02
-1.673880368471145630e-01
-6.311137229204177856e-02
1.682707518339157104e-01
-2.882992662489414215e-02
2.725773304700851440e-02
-3.010740969330072403e-03
8.363344520330429077e-02
3.474599216133356094e-03
1.640752106904983521e-01
-6.292044371366500854e-02
-1.132838726043701172e-01
-2.487745434045791626e-01
1.158759817481040955e-01
1.792839616537094116e-01
7.150392234325408936e-02
-4.143998026847839355e-03
-1.767473071813583374e-01
3.504169732332229614e-02
-1.820841133594512939e-01
-1.714304685592651367e-01
9.039822034537792206e-03
1.644449532032012939e-01
1.200914531946182251e-01
-2.459450252354145050e-02
2.971739694476127625e-02
1.057758927345275879e-01
6.099631264805793762e-02
1.014711856842041016e-01
1.592606902122497559e-01
1.019542366266250610e-01
1.331761926412582397e-01
-1.844652891159057617e-01
-9.316604584455490112e-02
1.755041480064392090e-01
-3.312397748231887817e-02
3.579999553039669991e-03
-2.302173525094985962e-01
-1.497319783084094524e-03
-9.054902195930480957e-02
2.115635424852371216e-01
-3.027034923434257507e-02
3.464169055223464966e-02
-7.796147465705871582e-02
-6.882716435939073563e-03
-2.109284996986389160e-01
3.489617630839347839e-02
-2.809183895587921143e-01
-3.440087735652923584e-01
-2.436746358871459961e-01
-5.917113274335861206e-03
-2.888503670692443848e-01
-4.665822163224220276e-02
-3.260463476181030273e-01
-1.281683444976806641e-01
1.312036663293838501e-01
-2.727543413639068604e-01
-3.403174877166748047e-02
6.793534010648727417e-02
3.877260955050587654e-03
8.672396093606948853e-02
-1.765160858631134033e-01
1.686501204967498779e-01
-2.482085488736629486e-03
-1.522221509367227554e-02
-1.395905762910842896e-01
-2.422076612710952759e-01
-5.113199353218078613e-02
1.183142438530921936e-01
2.094893753528594971e-01
-3.069751197472214699e-03
-9.218674153089523315e-02
8.569005131721496582e-02
-6.175801903009414673e-02
1.903066486120223999e-01
3.532478585839271545e-02
-4.233869165182113647e-02
3.595446422696113586e-02
-1.505157053470611572e-01
3.664090111851692200e-02
1.515061408281326294e-01
-2.126211524009704590e-01
6.633196026086807251e-02
-5.503599531948566437e-03
-2.703885361552238464e-02
9.119221568107604980e-02
-6.342073902487754822e-05
9.208553470671176910e-03
2.118038684129714966e-01
-3.142178431153297424e-02
-1.925045251846313477e-01
5.416026338934898376e-02
3.965419251471757889e-03
-6.912561506032943726e-02
-3.976003825664520264e-02
9.649734199047088623e-02
1.821962743997573853e-01
-2.256209850311279297e-01
1.186270862817764282e-01
1.863191276788711548e-01
4.895162209868431091e-02
3.008435852825641632e-02
-2.641455233097076416e-01
-5.706616118550300598e-02
2.151042222976684570e-01
-9.593438357114791870e-02
-3.594752028584480286e-02
-7.264396641403436661e-03
-3.990002721548080444e-02
2.736541926860809326e-01
-7.870052009820938110e-02
1.847193092107772827e-01
-1.947700083255767822e-01
-2.315409928560256958e-01
1.417883485555648804e-01
-3.587199002504348755e-02
-7.088897284120321274e-03
-2.431713193655014038e-01
1.271889209747314453e-01
-1.260131895542144775e-01
-4.276232048869132996e-02
-3.073450624942779541e-01
9.578958898782730103e-02
2.776207923889160156e-01
7.421820610761642456e-02
7.995807379484176636e-02
-1.432279795408248901e-01
6.210754811763763428e-02
5.423646420240402222e-02
1.516674160957336426e-01
2.650533616542816162e-01
-9.713106602430343628e-02
4.149470850825309753e-02
1.334255337715148926e-01
3.552258759737014771e-02
-6.468388438224792480e-02
-7.015907019376754761e-02
1.691664569079875946e-02
-2.520824037492275238e-02
1.695269942283630371e-01
-2.922245301306247711e-02
-1.219582110643386841e-01
-5.658507579937577248e-04
5.154183879494667053e-02
4.636999592185020447e-02
1.035314947366714478e-01
-1.853174120187759399e-01
-5.357437953352928162e-02
1.309611797332763672e-01
9.286689572036266327e-03
-1.080952771008014679e-02
3.968327865004539490e-02
1.591261625289916992e-01
1.173628568649291992e-01
1.692319810390472412e-01
9.036371856927871704e-02
-9.339131414890289307e-02
1.276632994413375854e-01
1.956874430179595947e-01
4.274654202163219452e-03
2.345512434840202332e-02
2.626344263553619385e-01
-1.529765278100967407e-01
-1.539357602596282959e-01
7.118698954582214355e-02
-6.997309625148773193e-02
3.860716149210929871e-02
-7.995459437370300293e-02
-1.223595440387725830e-01
2.710691392421722412e-01
8.649513125419616699e-02
-4.762313887476921082e-02
2.757859043776988983e-02
-1.864356547594070435e-01
2.126537114381790161e-01
5.681591853499412537e-02
2.802854776382446289e-01
-2.432413697242736816e-01
-7.100550830364227295e-02
-3.049695789813995361e-01
4.230200499296188354e-02
-5.848483741283416748e-02
-9.838782250881195068e-02
7.828013598918914795e-02
1.521019190549850464e-01
-9.919112175703048706e-02
-1.996481865644454956e-01
-1.935489922761917114e-01
8.088284730911254883e-02
1.137217506766319275e-01
7.747384160757064819e-02
-7.698436081409454346e-02
-1.122746840119361877e-01
-1.651190072298049927e-01
1.443822085857391357e-01
5.775357037782669067e-02
-1.862487047910690308e-01
-5.916414782404899597e-02
2.114965021610260010e-02
-1.323731839656829834e-01
2.491362094879150391e-01
-2.071663504466414452e-03
5.119392275810241699e-02
-2.826121868565678596e-03
8.564431220293045044e-02
-3.990957140922546387e-02
-1.098724361509084702e-02
-3.452015668153762817e-02
-1.601701378822326660e-01
1.279661208391189575e-01
4.401943087577819824e-02
1.354562938213348389e-01
-8.277101814746856689e-02
-1.624279916286468506e-01
-4.000452905893325806e-02
-1.635783314704895020e-01
2.893808670341968536e-02
7.351345568895339966e-02
-2.680040299892425537e-01
5.573567375540733337e-02
8.972121775150299072e-02
5.669764056801795959e-02
1.184315457940101624e-01
1.987985521554946899e-01
-8.967159315943717957e-03
-1.231778226792812347e-02
2.492317110300064087e-01
3.861490264534950256e-02
-1.158877909183502197e-01
1.129799187183380127e-01
5.323688313364982605e-02
2.931134998798370361e-01
-8.019705116748809814e-02
1.415042858570814133e-02
1.321562975645065308e-01
1.171690970659255981e-02
1.946659535169601440e-01
-3.942913608625531197e-04
1.328727882355451584e-02
3.119305074214935303e-01
-1.899069757200777531e-03
3.340046405792236328e-01
-4.591906815767288208e-02
-3.806827589869499207e-03
-1.538200527429580688e-01
2.001974731683731079e-01
-2.613550722599029541e-01
-9.557764977216720581e-02
-2.572201192378997803e-01
1.299109426327049732e-03
7.436978816986083984e-02
-2.148280888795852661e-01
-1.388359367847442627e-01
-6.507530063390731812e-02
2.621054649353027344e-01
5.387058481574058533e-02
-2.004281580448150635e-01
4.963262751698493958e-02
1.678692735731601715e-02
-4.238799586892127991e-02
1.612884104251861572e-01
-9.261241555213928223e-02
1.759151071310043335e-01
1.709705218672752380e-02
2.176173031330108643e-02
1.523270159959793091e-01
-1.272556483745574951e-01
-2.428864315152168274e-02
-1.990593224763870239e-02
-1.548781245946884155e-01
1.266903709620237350e-02
-1.112934574484825134e-01
-1.092844754457473755e-01
-2.037732601165771484e-01
4.185071587562561035e-02
-3.523480892181396484e-02
1.986263878643512726e-02
1.352156996726989746e-01
-2.365059703588485718e-01
1.241255085915327072e-02
-3.647664561867713928e-02
-9.282907843589782715e-02
1.168935969471931458e-01
1.500146687030792236e-01
3.551946021616458893e-03
-2.122267931699752808e-01
1.921587996184825897e-02
4.447806254029273987e-02
7.986316829919815063e-02
-3.836839227005839348e-03
-3.960370644927024841e-02
8.187877386808395386e-02
1.431715339422225952e-01
3.859497234225273132e-02
4.250542726367712021e-03
7.171831093728542328e-03
4.340095818042755127e-02
-1.072763353586196899e-01
8.626923710107803345e-02
6.013510376214981079e-02
4.822656512260437012e-02
4.543543606996536255e-02
1.365448534488677979e-01
-3.666845336556434631e-02
2.042375877499580383e-02
-8.286977559328079224e-02
1.588792726397514343e-02
-1.492807418107986450e-01
1.035066843032836914e-01
8.012111298739910126e-03
-8.051134645938873291e-03
-4.336312040686607361e-02
1.055144965648651123e-01
-1.154766883701086044e-03
3.704774659126996994e-03
3.748608231544494629e-01
-1.198529675602912903e-01
-4.748398438096046448e-03
1.824644021689891815e-02
-8.738733828067779541e-02
1.552140414714813232e-01
-7.388344034552574158e-03
6.397061794996261597e-02
4.861636832356452942e-02
7.852278649806976318e-02
2.901836298406124115e-02
-2.373211085796356201e-01
7.501830160617828369e-02
1.388333141803741455e-01
1.395676285028457642e-01
7.449317723512649536e-02
-1.220906451344490051e-01
4.299185704439878464e-03
9.392517805099487305e-02
-7.408846169710159302e-02
-1.521798074245452881e-01
-4.196130111813545227e-02
-1.238909438252449036e-01
2.819383703172206879e-02
1.078993231058120728e-01
-1.506367921829223633e-01
-2.751358598470687866e-02
-5.373664200305938721e-03
6.402716040611267090e-02
2.362960577011108398e-02
-1.708084493875503540e-01
1.432773917913436890e-01
2.118429988622665405e-01
1.535675525665283203e-01
3.892185911536216736e-02
-2.853418588638305664e-01
-1.087584570050239563e-01
1.125535592436790466e-01
9.346284717321395874e-02
-2.803068235516548157e-02
3.650755388662219048e-03
4.554390907287597656e-02
-1.858987510204315186e-01
5.534909199923276901e-03
1.212479639798402786e-02
4.361349716782569885e-02
1.821404136717319489e-02
8.757987618446350098e-02
6.375804543495178223e-02
-7.472507655620574951e-02
-8.766844868659973145e-03
1.436997056007385254e-01
5.627672746777534485e-02
3.531577438116073608e-02
8.252762258052825928e-03
5.762345716357231140e-02
-1.390304323285818100e-02
1.050034165382385254e-01
-3.171568214893341064e-01
-1.845006085932254791e-02
2.035070508718490601e-01
4.859808832406997681e-02
-2.057198286056518555e-01
9.347756393253803253e-03
-1.907349377870559692e-01
-1.267371326684951782e-01
-5.759263038635253906e-02
8.783708512783050537e-02
1.008691340684890747e-01
1.366640627384185791e-01
-3.050167858600616455e-02
-1.032035946846008301e-01
-1.664684265851974487e-01
-1.092655807733535767e-01
5.705341696739196777e-03
-2.005190402269363403e-01
1.174658685922622681e-01
2.174653857946395874e-01
-1.944232732057571411e-01
7.323237508535385132e-02
-4.358504340052604675e-02
7.165691256523132324e-02
-1.021789480000734329e-02
9.202740341424942017e-02
8.513283729553222656e-02
-1.035313005559146404e-03
8.617080748081207275e-02
4.377088975161314011e-03
-1.121694073081016541e-01
7.367013394832611084e-02
9.002225100994110107e-02
-5.403270944952964783e-02
-1.351347863674163818e-01
-1.812740862369537354e-01
