-3.141289344057440758e-03
1.280414611101150513e-01
9.373819082975387573e-02
-4.175637662410736084e-02
6.146755442023277283e-02
-1.718524545431137085e-01
1.394144594669342041e-01
1.010103709995746613e-02
1.608944386243820190e-01
1.574125140905380249e-01
-8.934865146875381470e-02
-2.320806384086608887e-01
7.636380195617675781e-02
8.057516068220138550e-02
-8.288955688476562500e-02
-1.368001010268926620e-02
2.831561677157878876e-02
-1.690096408128738403e-02
-6.227678386494517326e-04
-9.994423389434814453e-02
-1.243799850344657898e-01
-1.345122903585433960e-01
-1.703207939863204956e-01
-2.073635309934616089e-01
-1.361923068761825562e-01
-8.146739751100540161e-02
5.130461882799863815e-03
-1.191193088889122009e-01
-7.459700852632522583e-02
2.150608599185943604e-02
-7.594181597232818604e-02
-7.926175743341445923e-02
8.667430281639099121e-02
1.731704175472259521e-02
-1.573697775602340698e-01
-1.530830115079879761e-01
5.267981439828872681e-02
-6.870730966329574585e-02
-1.138453036546707153e-01
-7.226435933262109756e-03
1.124995499849319458e-01
-8.637872338294982910e-02
-1.124139223247766495e-02
7.006160169839859009e-02
-1.716803610324859619e-01
-7.699713110923767090e-02
-2.023126929998397827e-01
3.996644169092178345e-02
-3.817304968833923340e-02
-1.445982884615659714e-02
1.856515258550643921e-01
-1.089734025299549103e-02
-1.783135533332824707e-01
4.133781418204307556e-02
8.820827305316925049e-02
1.503392457962036133e-01
1.312237232923507690e-01
-1.144625712186098099e-02
-1.162752136588096619e-01
1.677899658679962158e-01
6.241513788700103760e-02
1.105360407382249832e-02
-9.538992494344711304e-02
1.216589361429214478e-01
-3.615991398692131042e-02
-8.588388562202453613e-02
2.476658858358860016e-02
-9.771165996789932251e-02
9.469572454690933228e-02
1.472052782773971558e-01
-8.723420649766921997e-02
1.238927692174911499e-01
-8.547494560480117798e-02
8.762449771165847778e-02
-1.939001381397247314e-01
-1.192153170704841614e-01
-1.671372950077056885e-01
-1.006179600954055786e-01
1.399432420730590820e-01
1.078845188021659851e-01
-4.738243296742439270e-02
7.835867255926132202e-02
-1.795969456434249878e-01
1.130227028625085950e-04
3.080662339925765991e-02
-1.468527019023895264e-01
1.415061652660369873e-01
2.760682255029678345e-02
-9.115484356880187988e-02
-1.781023442745208740e-01
-1.208678111433982849e-01
-1.339611858129501343e-01
5.219583213329315186e-02
-1.217024028301239014e-01
-1.471784561872482300e-01
4.961733147501945496e-02
-8.705598860979080200e-02
8.569516986608505249e-02
-1.421218365430831909e-01
-1.159199997782707214e-01
