-7.405255455523729324e-04
9.292268077842891216e-04
-6.416167132556438446e-03
3.801794350147247314e-02
-6.211528088897466660e-04
-6.664113141596317291e-03
-8.792305365204811096e-03
8.704171516001224518e-03
-4.087693232577294111e-04
1.422547921538352966e-02
2.795165870338678360e-03
-3.426998481154441833e-02
-5.326161044649779797e-04
-4.181968048214912415e-03
-5.121591500937938690e-03
4.528118006419390440e-04
9.276052005589008331e-03
1.274738344363868237e-03
3.461884567514061928e-03
1.293171779252588749e-03
7.521024090237915516e-04
6.725744344294071198e-03
2.511177211999893188e-03
4.390262532979249954e-03
7.089280989021062851e-03
7.329608313739299774e-03
-2.457149326801300049e-03
1.038566138595342636e-02
3.785030683502554893e-03
-1.747002010233700275e-03
-7.327909115701913834e-03
-6.691453047096729279e-03
2.495662774890661240e-03
1.330714789219200611e-03
5.120980786159634590e-04
3.052561171352863312e-02
2.697513438761234283e-03
-2.041310537606477737e-03
1.369277108460664749e-02
-2.785357646644115448e-03
-5.875175818800926208e-03
8.686160668730735779e-03
1.075941324234008789e-02
-5.656344443559646606e-02
1.990400953218340874e-03
-3.330579493194818497e-03
-5.792826996184885502e-04
-2.876311354339122772e-02
4.004260408692061901e-04
8.072542259469628334e-04
3.026977647095918655e-03
-1.821270585060119629e-02
-8.761767297983169556e-03
-7.586191873997449875e-03
-4.331791307777166367e-03
1.949872821569442749e-03
1.225758693180978298e-03
-2.054791199043393135e-03
4.021187312901020050e-03
-2.347221132367849350e-03
-3.811636706814169884e-03
-1.093972707167267799e-03
7.130770012736320496e-03
6.566192489117383957e-03
5.576313473284244537e-03
9.628095664083957672e-03
-1.219353731721639633e-02
-9.334765374660491943e-03
6.170887965708971024e-03
4.911953583359718323e-03
2.188545651733875275e-02
-5.868606269359588623e-03
-6.176194641739130020e-03
-5.121066700667142868e-03
-6.270910613238811493e-03
-4.033922031521797180e-02
-2.099731005728244781e-03
3.285516425967216492e-02
5.092903506010770798e-03
-1.120306085795164108e-02
-2.494195709004998207e-03
4.893090575933456421e-03
2.611748408526182175e-03
1.625123806297779083e-02
9.347462095320224762e-03
-9.182437323033809662e-03
-8.635121397674083710e-03
-1.602938398718833923e-02
3.097925800830125809e-03
6.320927292108535767e-03
7.854256778955459595e-03
4.208830185234546661e-03
-6.489492952823638916e-03
1.381791103631258011e-02
-7.085263729095458984e-03
-1.241496996954083443e-03
-1.678747357800602913e-03
-1.195886288769543171e-03
-1.817738637328147888e-03
1.976396422833204269e-03
-9.292581118643283844e-03
1.195892877876758575e-02
-8.016875945031642914e-03
3.481748048216104507e-03
8.275411091744899750e-03
-1.219643559306859970e-02
-1.678998814895749092e-03
6.327526643872261047e-03
-8.284755051136016846e-03
-6.225563120096921921e-03
-1.312987413257360458e-02
6.202399730682373047e-03
-1.371824415400624275e-03
3.900895826518535614e-03
4.976991564035415649e-03
1.401087082922458649e-02
-1.436744816601276398e-03
-1.124023646116256714e-02
4.646070301532745361e-03
-1.427691429853439331e-02
-7.912737317383289337e-03
3.903059521690011024e-03
-7.334141992032527924e-03
3.579433634877204895e-02
-4.797637462615966797e-03
-4.854444880038499832e-03
2.047724835574626923e-02
1.744047179818153381e-02
-3.416179679334163666e-04
1.013576611876487732e-02
2.760695526376366615e-03
4.832364618778228760e-02
5.127476528286933899e-03
-1.642840332351624966e-03
1.093721133656799793e-03
2.803679788485169411e-03
9.639197960495948792e-03
-1.499399542808532715e-03
2.553764497861266136e-04
-2.510145073756575584e-03
7.018952630460262299e-03
-2.352131996303796768e-03
8.324376307427883148e-03
9.057560004293918610e-03
-2.852326724678277969e-03
7.816002704203128815e-03
2.832001075148582458e-02
1.827475056052207947e-02
2.193284407258033752e-02
-5.348202306777238846e-03
-1.372881932184100151e-03
-9.677406400442123413e-03
1.088078785687685013e-02
-2.772758714854717255e-03
-6.149715278297662735e-03
3.022871166467666626e-02
5.418754182755947113e-03
2.664668951183557510e-03
1.443343516439199448e-02
-1.776892319321632385e-02
-1.624852605164051056e-02
5.892998073250055313e-03
1.118729449808597565e-02
-7.110285013914108276e-02
-3.265656763687729836e-03
-8.786024525761604309e-03
1.677897386252880096e-02
-2.212945558130741119e-02
-1.365622210869332775e-05
-2.077749464660882950e-03
1.144395396113395691e-02
2.751234546303749084e-02
-3.279739990830421448e-03
1.417809166014194489e-03
5.472745280712842941e-03
5.857653450220823288e-03
-1.320541632594540715e-04
-7.622400880791246891e-04
1.975919120013713837e-03
-8.976348675787448883e-03
5.198009312152862549e-04
-9.513834491372108459e-03
1.682918891310691833e-02
8.319764398038387299e-03
-3.872593864798545837e-03
4.827330354601144791e-03
-2.152998698875308037e-03
-3.776207566261291504e-03
2.107735956087708473e-03
2.592351520434021950e-03
2.897637337446212769e-02
-7.480754982680082321e-03
-1.113104284740984440e-03
-1.184203382581472397e-02
-1.499684341251850128e-02
-4.971252754330635071e-02
-1.139223459176719189e-03
2.723855897784233093e-02
5.932230502367019653e-03
-2.610925212502479553e-02
-1.307525951415300369e-02
9.822930209338665009e-03
4.673607647418975830e-03
1.830188371241092682e-02
2.647696295753121376e-03
-1.583154872059822083e-02
-2.888696908485144377e-04
-9.847128763794898987e-03
4.513857129495590925e-04
3.025603014975786209e-03
2.986069209873676300e-02
2.137899026274681091e-02
-3.073748433962464333e-03
3.772564977407455444e-02
-1.211026901728473604e-04
-3.571748966351151466e-03
-5.999681539833545685e-03
-7.705926429480314255e-03
2.195278648287057877e-04
-7.366942008957266808e-04
-5.247951485216617584e-03
5.555750802159309387e-03
-4.145061131566762924e-03
6.142734549939632416e-03
4.729378502815961838e-03
-4.097322747111320496e-02
4.837555810809135437e-03
9.618733078241348267e-03
-3.675153851509094238e-02
-1.071688532829284668e-02
-1.193570531904697418e-02
5.280803889036178589e-03
5.905118305236101151e-04
1.276840572245419025e-03
-4.035225138068199158e-03
7.400262169539928436e-03
-3.402690170332789421e-03
-3.024066053330898285e-02
5.107543547637760639e-04
-3.739562630653381348e-02
-4.404508508741855621e-03
4.768930841237306595e-03
-1.238945499062538147e-02
2.140942774713039398e-02
-3.035948146134614944e-03
-4.539260640740394592e-03
2.553542703390121460e-02
1.893193274736404419e-02
-1.164094195701181889e-03
8.898890577256679535e-03
5.982220638543367386e-03
4.739266261458396912e-02
6.091109011322259903e-03
-3.142772475257515907e-03
-1.741852494888007641e-03
1.431011594831943512e-03
1.237103529274463654e-02
3.136516083031892776e-03
-4.347455687820911407e-04
-4.397899378091096878e-03
4.174793139100074768e-03
-4.800847731530666351e-03
1.717582717537879944e-02
1.605192897841334343e-03
-8.826692937873303890e-04
1.332761067897081375e-02
3.370934352278709412e-02
9.397523477673530579e-03
2.441699989140033722e-02
-7.670802064239978790e-03
-6.468154024332761765e-03
-1.149126328527927399e-02
4.722226411104202271e-03
-1.938017434440553188e-03
-8.184301666915416718e-03
4.576764255762100220e-02
5.729230586439371109e-03
-7.255931268446147442e-04
1.317802630364894867e-02
-3.024034434929490089e-03
-1.103400345891714096e-02
4.703814738604705781e-06
5.327598191797733307e-03
-8.538053184747695923e-02
-7.894155569374561310e-04
-4.884656053036451340e-03
2.760275639593601227e-02
-2.370321936905384064e-02
1.405965187586843967e-03
-4.765032324939966202e-03
8.855692110955715179e-03
2.093456126749515533e-02
-1.307366881519556046e-03
-8.836420602165162563e-04
4.556966479867696762e-03
6.378141231834888458e-03
3.579938129405491054e-05
3.315631765872240067e-03
3.955105319619178772e-03
-9.889174252748489380e-03
-6.229083519428968430e-03
-1.200859621167182922e-02
2.120768465101718903e-02
4.613432567566633224e-03
-3.733191872015595436e-03
1.079761330038309097e-02
-5.249407258816063404e-04
-8.104152046144008636e-03
1.449916604906320572e-02
2.521257614716887474e-03
2.602697536349296570e-02
-7.596334442496299744e-03
-5.272903013974428177e-03
-9.500051848590373993e-03
-9.085832163691520691e-03
-2.335928380489349365e-02
-4.275836050510406494e-03
2.742559276521205902e-02
-6.147254607640206814e-04
-7.212678901851177216e-03
-1.192426588386297226e-02
2.758662682026624680e-03
3.308039857074618340e-03
-2.275998005643486977e-03
7.598320953547954559e-03
-1.462418306618928909e-02
1.240711100399494171e-02
-9.114539250731468201e-03
2.975685289129614830e-03
4.146154504269361496e-03
2.534692548215389252e-02
1.732023432850837708e-02
1.708784373477101326e-03
3.366733342409133911e-02
1.632363069802522659e-03
-3.294996218755841255e-03
-5.438031628727912903e-03
-1.339438371360301971e-03
1.040598726831376553e-03
-2.935768570750951767e-03
-1.505062449723482132e-02
2.496710047125816345e-03
4.039443098008632660e-03
4.263835027813911438e-03
1.264402992092072964e-03
-3.497805818915367126e-02
7.085551973432302475e-03
7.007570937275886536e-03
-3.130636736750602722e-02
-1.385923195630311966e-02
-1.188903395086526871e-02
3.326680511236190796e-03
3.086060169152915478e-04
6.617848295718431473e-03
-1.871609245426952839e-03
2.565855532884597778e-02
-1.892106047307606786e-05
-3.584731742739677429e-02
-7.091130246408283710e-04
-2.305013872683048248e-02
1.747526810504496098e-03
6.023265887051820755e-04
-7.102146279066801071e-03
3.547295928001403809e-02
-1.653706887736916542e-03
-6.763818091712892056e-04
2.953475108370184898e-03
8.204483427107334137e-03
-6.414906587451696396e-03
7.166788913309574127e-03
7.238680263981223106e-04
1.913866959512233734e-02
3.745157970115542412e-03
-8.822522358968853951e-04
-5.150908138602972031e-03
-7.278842967934906483e-04
9.748635813593864441e-03
-2.112094080075621605e-03
1.707477495074272156e-04
-2.422233344987034798e-03
2.136549679562449455e-03
3.780326573178172112e-03
6.784557364881038666e-03
6.866232142783701420e-04
1.784993684850633144e-03
6.610223557800054550e-03
3.438330441713333130e-02
2.246852219104766846e-02
1.155688986182212830e-02
7.560857920907437801e-04
-3.569782245904207230e-03
-1.158804912120103836e-02
1.510511618107557297e-03
-5.030784523114562035e-04
-5.091741331852972507e-04
3.283210471272468567e-02
-2.704897429794073105e-03
-3.405648982152342796e-03
7.034680806100368500e-03
-4.055309575051069260e-03
-6.581882014870643616e-03
2.122689504176378250e-03
1.266264077275991440e-02
-5.768600478768348694e-02
3.256834112107753754e-03
1.359079382382333279e-03
1.273574493825435638e-02
-1.826893724501132965e-02
-4.591395612806081772e-03
-5.554450210183858871e-03
-1.539336633868515491e-03
5.671055056154727936e-03
-7.958125323057174683e-03
-2.369994530454277992e-03
-8.990198839455842972e-04
4.431422799825668335e-03
-3.688393160700798035e-03
1.522584061603993177e-04
-1.523728249594569206e-03
-8.451728150248527527e-03
-9.894103743135929108e-03
-1.058772671967744827e-02
1.150424219667911530e-02
1.178286736831068993e-03
5.401378148235380650e-04
1.695503108203411102e-02
-1.458674669265747070e-03
3.763281274586915970e-03
1.273360010236501694e-02
1.269228849560022354e-02
1.723248139023780823e-02
-6.862416397780179977e-03
-7.191607262939214706e-03
-5.437843967229127884e-03
-5.907913204282522202e-03
-2.130309864878654480e-02
-4.801902920007705688e-03
3.286830708384513855e-02
-8.168663829565048218e-03
5.582825397141277790e-04
-2.990705193951725960e-03
-1.084045739844441414e-03
4.276432562619447708e-03
1.145641691982746124e-02
9.462990798056125641e-03
-8.960795588791370392e-03
1.320049352943897247e-02
6.817794055677950382e-04
-3.463133936747908592e-03
6.060441955924034119e-03
1.118881721049547195e-02
3.224739804863929749e-02
-5.380326416343450546e-03
2.099025063216686249e-02
-1.628310128580778837e-04
-5.097331944853067398e-03
-6.205578800290822983e-03
-3.993694670498371124e-03
2.781091257929801941e-03
2.108415355905890465e-03
-1.818830519914627075e-02
-1.562909572385251522e-03
-4.958322737365961075e-03
-1.577407936565577984e-03
7.590963505208492279e-03
-1.743718981742858887e-02
4.308780189603567123e-03
2.686430141329765320e-02
-7.364016026258468628e-03
-6.078912876546382904e-03
-1.314908824861049652e-02
-2.017581835389137268e-03
-1.549767563119530678e-03
-2.939912956207990646e-04
4.115764517337083817e-03
3.147019818425178528e-02
1.520701334811747074e-03
-2.851668745279312134e-02
-4.078097175806760788e-03
-2.870841650292277336e-03
3.961778245866298676e-03
4.934513010084629059e-03
6.334361387416720390e-04
3.359053283929824829e-02
-9.385214187204837799e-03
1.019883551634848118e-03
-1.993579976260662079e-02
1.314028073102235794e-02
-4.130670800805091858e-03
-4.131045192480087280e-03
1.508432440459728241e-02
-2.728054672479629517e-02
4.187451209872961044e-03
9.751818724907934666e-04
-2.607155183795839548e-04
4.343899432569742203e-03
1.143035478889942169e-02
-4.841371439397335052e-03
1.323706586845219135e-03
-7.821527309715747833e-03
-9.944632183760404587e-04
8.511812193319201469e-04
2.397466683760285378e-03
9.215664118528366089e-03
7.536886725574731827e-03
-8.334656246006488800e-03
1.924090203829109669e-03
1.405610609799623489e-02
-1.681635528802871704e-02
-3.441347740590572357e-03
1.205766107887029648e-03
-6.949016824364662170e-03
1.237902324646711349e-04
-2.664780477061867714e-03
-7.620612450409680605e-06
4.696448333561420441e-03
2.449076389893889427e-03
-8.048670366406440735e-03
3.083193150814622641e-04
5.059635805082507432e-05
-1.178745529614388943e-03
2.238587709143757820e-03
2.114558592438697815e-02
-4.320186004042625427e-02
-2.037483500316739082e-03
5.042041186243295670e-03
-4.606820177286863327e-03
-9.671922773122787476e-03
-1.381660811603069305e-03
-1.229546684771776199e-02
-6.426484324038028717e-04
-2.749885618686676025e-02
-5.414440762251615524e-03
-1.994079939322546124e-04
2.961160382255911827e-03
1.042714249342679977e-02
3.496001241728663445e-03
-2.600573003292083740e-03
2.105092164129018784e-03
-8.110946044325828552e-03
-8.926683105528354645e-03
-7.476452738046646118e-03
3.309747437015175819e-03
7.392384577542543411e-03
6.197292357683181763e-03
1.118196453899145126e-02
-1.977989822626113892e-02
-4.420758632477372885e-04
-2.826627809554338455e-03
1.164791267365217209e-02
1.692538335919380188e-02
-3.717229468747973442e-03
-2.612689975649118423e-03
-3.384124254807829857e-03
-4.736256320029497147e-03
-3.544767200946807861e-02
-5.171961151063442230e-03
2.097651176154613495e-02
-1.543669030070304871e-02
1.217973511666059494e-02
-3.483159933239221573e-03
4.753257613629102707e-03
1.577294245362281799e-02
1.691907271742820740e-02
4.030582029372453690e-03
-9.556057862937450409e-03
-1.420942833647131920e-03
5.606080405414104462e-03
-3.394125087652355433e-04
2.169997198507189751e-03
1.721578650176525116e-02
1.355422660708427429e-03
-4.583605565130710602e-03
2.102338708937168121e-02
1.626807614229619503e-03
2.644268679432570934e-04
-5.088771693408489227e-03
-7.062848657369613647e-03
5.753776524215936661e-03
2.940415404736995697e-03
-1.618735119700431824e-02
2.159587311325594783e-04
-1.149850524961948395e-02
1.222559250891208649e-03
9.797587059438228607e-03
-2.742313593626022339e-02
-9.967632591724395752e-03
1.828990690410137177e-02
-1.703999936580657959e-02
-7.950006984174251556e-03
-1.665827259421348572e-02
3.205055603757500648e-03
-2.057891106233000755e-03
2.684245817363262177e-03
4.928442183881998062e-03
1.835023611783981323e-02
1.987869618460536003e-03
-3.299858048558235168e-02
-7.770475000143051147e-03
5.902843084186315536e-03
-9.624276310205459595e-03
4.859900567680597305e-03
-1.682133413851261139e-02
4.052666574716567993e-02
6.915783975273370743e-03
-7.256380282342433929e-03
1.374823693186044693e-02
2.239757217466831207e-02
2.919196849688887596e-04
1.150337886065244675e-02
4.670502967201173306e-04
-5.427524913102388382e-03
-4.525280382949858904e-04
-1.203778386116027832e-02
-2.521671121940016747e-03
3.454464953392744064e-03
7.614511530846357346e-03
-1.736433827318251133e-03
3.473249962553381920e-04
2.523353090509772301e-03
1.073470711708068848e-02
2.080782316625118256e-03
2.965727820992469788e-03
7.343000266700983047e-03
5.220938008278608322e-03
8.123271167278289795e-03
1.282923668622970581e-02
1.732570864260196686e-02
1.256789639592170715e-02
-6.273139268159866333e-03
-9.191756136715412140e-03
-8.699644356966018677e-03
5.765398032963275909e-03
-1.807670574635267258e-03
-1.867087674327194691e-03
2.533965744078159332e-02
5.180574487894773483e-03
-2.927280438598245382e-04
2.056832425296306610e-02
-1.286801695823669434e-02
-1.443399768322706223e-02
7.879178039729595184e-03
-1.999569358304142952e-03
-7.891683280467987061e-02
3.511484246701002121e-03
-8.497901144437491894e-04
5.955947097390890121e-03
-1.906392723321914673e-02
2.007513074204325676e-03
-8.457358926534652710e-03
5.215000361204147339e-03
-1.208821684122085571e-02
-1.427589729428291321e-02
-1.221857219934463501e-02
-1.609111553989350796e-03
5.561396013945341110e-03
-5.540113430470228195e-03
-4.687387030571699142e-03
-3.422896610572934151e-03
-6.126879714429378510e-03
1.291181426495313644e-03
-6.397621706128120422e-03
1.001106016337871552e-02
7.980981841683387756e-03
-3.371823549969121814e-05
1.531313755549490452e-03
-1.986868493258953094e-02
-1.470461208373308182e-02
-3.005261300131678581e-03
-9.268548339605331421e-03
2.902359515428543091e-02
-6.489522289484739304e-03
-7.995713502168655396e-03
-1.238701026886701584e-02
-7.651758845895528793e-03
-5.681232735514640808e-02
5.702930968254804611e-03
3.460424393415451050e-02
1.209891028702259064e-02
-2.904150635004043579e-02
-8.763198740780353546e-03
1.817072182893753052e-02
-1.588241942226886749e-02
2.780684456229209900e-02
3.457889193668961525e-03
-1.173203927464783192e-03
-1.151407603174448013e-02
2.119028195738792419e-02
3.399801440536975861e-03
3.316974325571209192e-04
1.937235519289970398e-02
-2.227466786280274391e-03
-4.299393389374017715e-03
2.199366129934787750e-02
-7.523156236857175827e-03
-1.548251137137413025e-03
-1.052455627359449863e-03
-5.932870786637067795e-03
-9.197307750582695007e-03
-1.260531367734074593e-03
1.083434559404850006e-03
1.985183218494057655e-03
3.583223791792988777e-03
1.263591833412647247e-02
1.868376508355140686e-03
-3.005527704954147339e-02
-3.288981691002845764e-02
-2.173386700451374054e-02
-4.793090000748634338e-02
-2.164794690907001495e-02
-2.111278707161545753e-03
-5.163980647921562195e-03
-3.584515303373336792e-03
-7.992161437869071960e-03
1.930717029608786106e-03
9.416167624294757843e-03
6.728797685354948044e-03
-2.192632295191287994e-02
1.159846130758523941e-02
-3.946815058588981628e-02
-1.292807329446077347e-02
6.442879792302846909e-03
-2.373426966369152069e-02
4.155808687210083008e-02
-3.100330708548426628e-03
-4.325179848819971085e-03
3.916165977716445923e-02
3.196221962571144104e-02
5.267824511975049973e-03
1.195873948745429516e-03
2.932409988716244698e-03
8.309111744165420532e-02
4.321992397308349609e-03
-6.370823830366134644e-03
7.149167358875274658e-04
5.633146967738866806e-03
1.215033978223800659e-02
-6.504953373223543167e-03
-2.398140029981732368e-03
-7.356605026870965958e-03
1.493080984801054001e-02
-6.114219315350055695e-03
1.002661790698766708e-02
3.857644507661461830e-03
-2.105511724948883057e-03
1.371073629707098007e-02
5.787023529410362244e-02
1.974844373762607574e-02
2.936625108122825623e-02
-1.484812516719102859e-02
-2.279178705066442490e-03
-1.767066679894924164e-02
1.247016806155443192e-02
-1.028178445994853973e-02
-1.032261271029710770e-02
2.048627659678459167e-02
6.837154272943735123e-03
1.299120765179395676e-02
2.052639052271842957e-02
-2.206961251795291901e-02
-1.610706374049186707e-02
1.197544764727354050e-02
-8.337324485182762146e-03
-9.373296052217483521e-02
-1.765068736858665943e-03
-5.533960182219743729e-03
2.681368589401245117e-02
-1.887035742402076721e-02
8.916679769754409790e-03
-1.514767389744520187e-02
1.586948148906230927e-02
3.962975367903709412e-02
-3.826333209872245789e-03
2.774108666926622391e-03
5.236924160271883011e-03
7.062432821840047836e-03
-1.634644868317991495e-04
-4.598398692905902863e-03
-5.136858671903610229e-04
-1.243679225444793701e-02
5.246001295745372772e-03
-1.867035217583179474e-02
1.529617793858051300e-02
7.913357578217983246e-03
-1.079702749848365784e-02
-4.128999542444944382e-03
7.881051860749721527e-03
-1.465108897536993027e-02
-6.854618899524211884e-03
-1.148574892431497574e-02
3.576045110821723938e-02
-1.375331729650497437e-02
2.412452595308423042e-03
-1.961368136107921600e-02
-1.859589293599128723e-02
-7.104200124740600586e-02
3.714784979820251465e-03
4.180112481117248535e-02
6.412312854081392288e-03
-4.298701882362365723e-02
-1.243971753865480423e-02
2.263945341110229492e-02
-2.065276540815830231e-02
3.408421576023101807e-02
-1.154678873717784882e-02
-3.974931780248880386e-03
-1.235529547557234764e-03
2.369365468621253967e-02
8.079295977950096130e-03
-9.637272916734218597e-03
4.862568899989128113e-02
2.460014447569847107e-02
6.390804424881935120e-03
4.527791589498519897e-02
4.118036944419145584e-03
4.327149130403995514e-03
3.310205414891242981e-03
-1.173882093280553818e-02
-1.098172459751367569e-02
-1.496676821261644363e-02
6.895670201629400253e-03
-7.564386818557977676e-03
3.839076729491353035e-03
1.441847439855337143e-02
-3.195927478373050690e-03
-6.188157200813293457e-02
-1.600602827966213226e-02
-2.259649336338043213e-02
-8.346587419509887695e-02
-2.700460888445377350e-02
1.101803500205278397e-02
-1.295501459389925003e-02
2.427714178338646889e-03
-1.366782281547784805e-02
-8.477360010147094727e-03
-3.277657087892293930e-03
6.443030200898647308e-03
-3.370523080229759216e-02
5.495133344084024429e-03
-5.872759595513343811e-02
-7.280168589204549789e-03
7.408388890326023102e-03
-2.609410881996154785e-02
3.113114647567272186e-02
-1.547490130178630352e-03
-1.389537588693201542e-03
4.634504392743110657e-02
3.736421838402748108e-02
3.238686360418796539e-03
4.385581705719232559e-03
4.129189532250165939e-03
6.729765236377716064e-02
1.063910871744155884e-02
-1.120864320546388626e-02
-6.943625630810856819e-04
4.649432376027107239e-03
1.688210479915142059e-02
-1.544052269309759140e-03
-4.481486044824123383e-03
-3.355544758960604668e-03
9.592819958925247192e-03
-9.248797781765460968e-03
1.662207953631877899e-02
7.912823348306119442e-04
-9.055236587300896645e-04
1.602451875805854797e-02
5.546829849481582642e-02
1.154133956879377365e-02
3.674668073654174805e-02
-1.066594105213880539e-02
-5.059201736003160477e-03
-1.925894990563392639e-02
1.017731707543134689e-02
-6.669035181403160095e-03
-5.379158537834882736e-03
4.955178126692771912e-02
9.240570478141307831e-03
9.284549392759799957e-03
1.587738282978534698e-02
-6.346915848553180695e-03
-1.290487311780452728e-02
8.972643874585628510e-03
-7.964823395013809204e-03
-9.974055737257003784e-02
1.983946887776255608e-03
2.471464453265070915e-03
4.267925396561622620e-02
-1.167081203311681747e-02
3.469489747658371925e-03
-1.357019320130348206e-02
1.764297857880592346e-02
1.907571591436862946e-02
-2.610867377370595932e-03
-3.490225644782185555e-03
4.984447266906499863e-03
8.227055892348289490e-03
4.035493824630975723e-03
-1.484463689848780632e-03
2.019713865593075752e-03
-1.084388326853513718e-02
-1.089326542569324374e-04
-1.789865642786026001e-02
1.922472752630710602e-02
3.978727385401725769e-03
-9.168910793960094452e-03
1.517990254797041416e-03
2.185052027925848961e-03
-2.479703165590763092e-02
-1.729051728034391999e-04
-7.414772175252437592e-03
3.011976182460784912e-02
-7.483346387743949890e-03
3.316203597933053970e-03
-1.151793915778398514e-02
-1.188933383673429489e-02
-3.844222426414489746e-02
3.801845945417881012e-03
3.894696757197380066e-02
2.680864650756120682e-03
-2.384706400334835052e-02
-9.233462624251842499e-03
1.433213055133819580e-02
-1.852941699326038361e-02
2.197354845702648163e-02
-6.493495311588048935e-03
1.645688462303951383e-04
1.228445861488580704e-02
3.057897277176380157e-02
4.363758023828268051e-03
-1.018658373504877090e-02
5.109246447682380676e-02
-1.840511220507323742e-03
1.071851979941129684e-02
4.101591557264328003e-02
4.614752251654863358e-03
1.988157862797379494e-03
6.711966358125209808e-03
-1.092988532036542892e-02
-7.786925882101058960e-03
-9.124753065407276154e-03
-4.837312735617160797e-03
-1.326718181371688843e-02
9.957082569599151611e-03
1.196095440536737442e-02
-4.059680504724383354e-04
-6.348075717687606812e-02
-2.526020072400569916e-02
-3.348252922296524048e-02
-7.922141999006271362e-02
-2.716903202235698700e-02
1.630381215363740921e-03
-1.009420026093721390e-02
3.635126864537596703e-03
-9.154781699180603027e-03
-2.639735117554664612e-03
2.438003569841384888e-02
6.413294002413749695e-03
-4.143112897872924805e-02
1.042709685862064362e-03
-4.163569957017898560e-02
1.510709058493375778e-03
4.236155655235052109e-03
-1.679398491978645325e-02
5.236408486962318420e-02
-6.658877246081829071e-03
7.051406428217887878e-04
2.151499502360820770e-02
3.303616493940353394e-02
-4.174844361841678619e-03
3.521174890920519829e-03
-5.777580197900533676e-03
1.515294145792722702e-02
7.282453123480081558e-03
-1.652954705059528351e-02
-1.527648768387734890e-03
4.423289792612195015e-04
1.321099977940320969e-02
3.576377057470381260e-04
-3.168251598253846169e-03
-5.609236541204154491e-04
9.054692462086677551e-03
-1.251197536475956440e-03
9.046562947332859039e-03
-3.035529050976037979e-03
4.107922781258821487e-03
1.173198502510786057e-02
4.580718651413917542e-02
1.544800680130720139e-02
2.524195797741413116e-02
-9.610486216843128204e-03
-8.840623311698436737e-03
-1.268824748694896698e-02
5.734775681048631668e-03
-6.815962493419647217e-03
-1.338759437203407288e-03
5.479181557893753052e-02
1.771341660059988499e-03
4.700608551502227783e-03
6.639244034886360168e-03
6.227500736713409424e-03
-7.015912793576717377e-03
2.055850578472018242e-03
3.746746224351227283e-04
-6.587406247854232788e-02
-7.575292256660759449e-04
8.031706325709819794e-03
2.283441834151744843e-02
-1.948442659340798855e-03
2.516988897696137428e-03
-1.473095174878835678e-02
7.170516764745116234e-04
-2.255280874669551849e-02
-4.557508043944835663e-03
-8.453570306301116943e-03
5.918057868257164955e-04
3.272663336247205734e-03
5.676800501532852650e-04
1.776637160219252110e-03
7.894510054029524326e-04
-6.645296700298786163e-03
-7.434570579789578915e-04
-1.249324530363082886e-02
1.021513156592845917e-02
1.651126658543944359e-04
-1.859285985119640827e-03
1.753879524767398834e-02
-1.412245631217956543e-02
-1.746033690869808197e-02
-3.340887633385136724e-05
3.803740954026579857e-03
1.846889406442642212e-02
-4.235393833369016647e-03
-3.792040050029754639e-03
-1.291962899267673492e-02
-9.335906244814395905e-03
-1.667704991996288300e-02
6.668877904303371906e-05
3.938848152756690979e-02
-9.723405353724956512e-03
2.896351506933569908e-04
-4.081855993717908859e-03
1.180678233504295349e-02
-1.298501528799533844e-02
4.240563511848449707e-02
-7.086233701556921005e-03
7.252356153912842274e-04
8.282118476927280426e-03
4.896013438701629639e-02
-2.585248323157429695e-03
-2.388629363849759102e-03
2.783810719847679138e-02
-2.816791273653507233e-02
4.124029073864221573e-03
2.028943784534931183e-02
1.308122067712247372e-03
-1.114745042286813259e-03
-6.713959737680852413e-05
-4.675838164985179901e-03
-4.381921142339706421e-03
-4.019401036202907562e-03
-4.111532587558031082e-03
-1.008116733282804489e-02
2.056084573268890381e-03
4.115378484129905701e-03
2.680431585758924484e-03
-3.556141257286071777e-02
-3.649672120809555054e-02
-1.237863581627607346e-02
-5.209899693727493286e-02
-2.067664638161659241e-02
-5.482296459376811981e-03
-8.654318749904632568e-03
4.389623645693063736e-03
-8.801137097179889679e-03
-1.421837718226015568e-03
5.257457494735717773e-02
9.348803199827671051e-03
-3.481106087565422058e-02
-4.647709429264068604e-03
-7.056127302348613739e-03
2.296954626217484474e-03
2.970319939777255058e-03
-1.381778065115213394e-02
4.569901153445243835e-02
-1.013136841356754303e-02
-2.179380971938371658e-03
-4.991625901311635971e-04
3.218737244606018066e-02
-2.066056476905941963e-03
-4.292691592127084732e-04
7.692335639148950577e-03
-3.025842085480690002e-02
9.779387153685092926e-03
-1.125193201005458832e-02
4.144125618040561676e-03
1.148709561675786972e-03
9.608159773051738739e-03
-8.052026852965354919e-03
-9.271168964914977551e-04
-4.867302253842353821e-03
3.188141854479908943e-03
2.245209412649273872e-03
6.435050163418054581e-03
4.256708081811666489e-03
5.259460769593715668e-03
-5.961135029792785645e-03
2.309992350637912750e-02
7.843387313187122345e-03
-3.187226364389061928e-03
-7.153514772653579712e-03
-1.045738346874713898e-03
-1.044701039791107178e-02
7.633670233190059662e-03
-5.008200183510780334e-03
-6.810299120843410492e-03
2.361929416656494141e-02
4.274735692888498306e-03
-9.387423051521182060e-04
9.700838709250092506e-04
6.867411080747842789e-03
-8.749992703087627888e-04
5.589555017650127411e-03
5.789208225905895233e-03
-5.380038172006607056e-02
-5.648706573992967606e-03
5.298992618918418884e-03
6.256430409848690033e-03
6.366661749780178070e-03
3.472665557637810707e-03
-1.893026195466518402e-02
2.691976958885788918e-03
-4.814276471734046936e-02
-5.492091178894042969e-03
-6.113289855420589447e-03
7.117853965610265732e-03
6.179220974445343018e-03
5.164355505257844925e-03
-2.167720580473542213e-03
1.275795861147344112e-03
-9.514592587947845459e-03
-1.244899933226406574e-03
-8.939278312027454376e-03
1.156263425946235657e-02
6.638871040195226669e-03
2.153590903617441654e-04
8.539033122360706329e-03
-3.007570095360279083e-02
-1.885429024696350098e-02
-1.537119038403034210e-02
1.079868641681969166e-03
1.952989958226680756e-02
-3.900383831933140755e-03
-5.340829375199973583e-04
-1.112975925207138062e-02
-7.320762146264314651e-03
-2.834624983370304108e-02
1.896642846986651421e-03
3.300469741225242615e-02
-1.390391774475574493e-02
4.765317309647798538e-03
-3.609329869505017996e-04
1.481956988573074341e-02
-5.101236980408430099e-03
4.176530241966247559e-02
-1.242677122354507446e-02
-1.174743752926588058e-03
-2.250774530693888664e-03
5.453012138605117798e-02
4.248606273904442787e-04
-1.532631111331284046e-03
3.045971691608428955e-02
-4.818891361355781555e-02
9.061451070010662079e-03
2.549573965370655060e-02
4.540706984698772430e-03
9.737117798067629337e-04
6.908555515110492706e-03
-7.273124065250158310e-03
-3.553903661668300629e-03
-2.547349780797958374e-03
-6.667993962764739990e-03
-6.369189824908971786e-03
2.366666914895176888e-03
8.929264731705188751e-03
5.818272009491920471e-03
-4.401331394910812378e-02
-4.579211398959159851e-02
-1.840455085039138794e-02
-5.952694639563560486e-02
-1.788909733295440674e-02
-3.717565443366765976e-03
-7.214328274130821228e-03
4.530725535005331039e-03
-7.782189175486564636e-03
-5.177578888833522797e-03
4.176544398069381714e-02
1.150928251445293427e-02
-3.614281490445137024e-02
-7.122154347598552704e-03
1.243175589479506016e-03
-8.119541220366954803e-03
8.233344182372093201e-03
-1.960805803537368774e-02
4.283720254898071289e-02
-4.792087245732545853e-03
-7.006099331192672253e-04
9.775139391422271729e-03
1.787455007433891296e-02
1.840074663050472736e-03
1.223940216004848480e-02
-6.065565627068281174e-03
-2.080505527555942535e-02
1.143882516771554947e-02
-1.895255222916603088e-02
1.285871607251465321e-03
9.202287532389163971e-03
4.720696713775396347e-03
-6.553785409778356552e-03
-4.899157676845788956e-03
-9.110557148233056068e-04
5.769462790340185165e-03
-7.309218053705990314e-04
6.720792967826128006e-03
5.499468650668859482e-03
-3.523642895743250847e-03
-2.309797564521431923e-03
2.104493416845798492e-02
2.212324179708957672e-02
4.042121767997741699e-02
-2.971454290673136711e-03
-5.972913932055234909e-03
-1.246191374957561493e-02
8.659870363771915436e-03
3.917095091310329735e-05
1.938986861205194145e-05
-1.747663831338286400e-03
5.047956015914678574e-03
7.225476671010255814e-03
1.494962256401777267e-02
8.399699814617633820e-03
-1.515133865177631378e-02
1.131202094256877899e-02
-3.921737428754568100e-03
-8.505456894636154175e-02
5.915570538491010666e-03
-2.222700743004679680e-03
-2.222141949459910393e-03
-3.130362927913665771e-02
7.845037616789340973e-03
-8.292125537991523743e-03
-7.860305719077587128e-03
-2.401812560856342316e-02
-7.600317709147930145e-03
-1.999324560165405273e-02
2.969043562188744545e-03
1.037294231355190277e-02
-5.504243075847625732e-03
-3.654416184872388840e-03
-3.275626571848988533e-03
-6.551646627485752106e-03
-3.086920187342911959e-04
-7.693482562899589539e-03
1.551537308841943741e-02
4.434358794242143631e-03
-9.014876559376716614e-03
-7.781210355460643768e-03
-3.922323230654001236e-03
-1.595130749046802521e-02
2.292354963719844818e-02
-1.238877302967011929e-03
2.844361774623394012e-02
-2.358313649892807007e-03
-1.623176853172481060e-03
-4.445909988135099411e-03
-6.048613693565130234e-03
-8.005470782518386841e-02
4.462337587028741837e-03
3.951716050505638123e-02
9.929276071488857269e-03
-8.772076107561588287e-03
-1.045429147779941559e-02
1.339467428624629974e-02
-1.622759923338890076e-02
3.403525054454803467e-02
2.641497645527124405e-03
2.002067398279905319e-03
-1.808671653270721436e-02
6.908712908625602722e-03
6.237791385501623154e-03
1.741136307828128338e-03
5.222816835157573223e-04
-5.157693289220333099e-03
1.312028383836150169e-03
1.722376421093940735e-02
-2.975782612338662148e-03
1.103118062019348145e-03
-1.109860721044242382e-03
-3.628312842920422554e-03
-1.023867074400186539e-02
-3.201302752131596208e-05
-4.583684261888265610e-03
-1.923168194480240345e-03
1.468372764065861702e-03
9.964293800294399261e-03
-7.253856863826513290e-03
-4.077617079019546509e-02
-1.667084358632564545e-02
-1.269179396331310272e-02
-2.454829029738903046e-02
-1.692310161888599396e-02
-6.692374590784311295e-03
1.317932736128568649e-03
-4.601242020726203918e-03
-7.310527143999934196e-04
4.480371251702308655e-03
-1.004766300320625305e-02
5.880782846361398697e-03
-1.790584251284599304e-02
1.196768321096897125e-02
-1.550697442144155502e-02
-6.899224594235420227e-03
1.194458734244108200e-02
-2.428131178021430969e-02
5.870721116662025452e-02
-9.285859763622283936e-03
-2.505273791030049324e-03
2.722907066345214844e-02
2.078692242503166199e-02
6.999905686825513840e-03
9.741224930621683598e-04
-6.429482251405715942e-03
5.869859829545021057e-02
1.632368005812168121e-02
-2.159441821277141571e-02
5.973432213068008423e-03
8.264400996267795563e-03
1.249549351632595062e-02
-3.632805077359080315e-03
-8.526595309376716614e-03
-3.352422267198562622e-03
1.907062344253063202e-02
-8.744566701352596283e-03
1.472071930766105652e-02
2.255524508655071259e-03
-9.638443589210510254e-03
9.604399092495441437e-03
6.484203040599822998e-02
2.380705624818801880e-02
6.815626472234725952e-02
-9.281507693231105804e-03
2.777385525405406952e-04
-1.791560463607311249e-02
1.831357739865779877e-02
-4.429608583450317383e-03
-5.968805402517318726e-03
-9.623958729207515717e-03
8.730405941605567932e-03
2.230275422334671021e-02
2.141358889639377594e-02
8.556051179766654968e-03
-1.342597324401140213e-02
1.215151418000459671e-02
-4.928952082991600037e-03
-8.715123683214187622e-02
-1.567034749314188957e-03
-5.724681541323661804e-03
6.633501965552568436e-03
-3.376951813697814941e-02
1.097834017127752304e-02
-1.506651286035776138e-02
5.791908595710992813e-03
2.164724282920360565e-02
-3.842527279630303383e-03
-7.321476936340332031e-03
1.126835774630308151e-02
1.110899262130260468e-02
-9.973857086151838303e-04
-3.936988301575183868e-03
-5.852179136127233505e-03
-9.799095802009105682e-03
1.481914240866899490e-02
-1.628661155700683594e-02
1.829277165234088898e-02
1.218399847857654095e-03
-1.484141871333122253e-02
-9.142130613327026367e-03
2.001411467790603638e-02
-2.110448479652404785e-02
2.717811055481433868e-02
-1.839331933297216892e-03
3.104485198855400085e-02
-8.666501380503177643e-03
6.273299455642700195e-03
-1.004044804722070694e-02
-1.445384416729211807e-02
-9.874055534601211548e-02
3.536051837727427483e-03
5.308998003602027893e-02
1.248268410563468933e-02
-1.387392822653055191e-02
-9.137976914644241333e-03
2.128607966005802155e-02
-1.987640745937824249e-02
4.467880725860595703e-02
-1.408728864043951035e-02
-7.375094108283519745e-03
-2.658746764063835144e-02
9.616586030460894108e-04
7.541649974882602692e-03
-7.217421662062406540e-03
3.309933096170425415e-02
1.432596053928136826e-02
8.676189929246902466e-03
3.406642377376556396e-02
5.701877642422914505e-03
3.873551264405250549e-03
3.278786316514015198e-04
-1.049069315195083618e-02
-1.399837899953126907e-02
-6.485497113317251205e-03
6.926678121089935303e-03
-8.397143334150314331e-03
6.050903815776109695e-03
6.930097006261348724e-03
-8.360153064131736755e-03
-7.150977104902267456e-02
-6.000138819217681885e-03
-1.988199725747108459e-02
-5.072927102446556091e-02
-2.156839519739151001e-02
7.599748671054840088e-03
-7.989283651113510132e-03
8.513921871781349182e-03
-5.241347476840019226e-03
-8.198988623917102814e-03
-3.640009090304374695e-02
9.597700089216232300e-03
-2.679643034934997559e-02
8.543708361685276031e-03
-3.134717419743537903e-02
2.710585482418537140e-03
1.340470463037490845e-02
-2.082966454327106476e-02
6.206968799233436584e-02
-1.169399544596672058e-02
-1.744218519888818264e-03
3.228800743818283081e-02
3.302992507815361023e-02
3.234047908335924149e-03
5.016062874346971512e-03
-2.882425207644701004e-03
5.283789336681365967e-02
1.868729107081890106e-02
-2.641266398131847382e-02
5.944788921624422073e-03
7.803711108863353729e-03
1.637948863208293915e-02
-3.602337557822465897e-03
-7.744168397039175034e-03
-1.550725544802844524e-03
1.335600297898054123e-02
-1.096932590007781982e-02
1.482880488038063049e-02
1.277338247746229172e-03
-9.503935463726520538e-03
1.983789168298244476e-02
6.397849321365356445e-02
1.005235780030488968e-02
6.803464144468307495e-02
-5.096655339002609253e-03
-2.214384265244007111e-03
-1.623977720737457275e-02
1.723090000450611115e-02
-3.708308096975088120e-03
-7.532143965363502502e-03
7.875679060816764832e-03
9.966313838958740234e-03
1.488083600997924805e-02
1.705970242619514465e-02
2.565396390855312347e-02
-7.571905385702848434e-03
9.737171232700347900e-03
-9.406991302967071533e-04
-8.494093269109725952e-02
-1.542757381685078144e-03
7.428190292557701468e-05
1.229710504412651062e-02
-2.333492226898670197e-02
4.738189745694398880e-03
-1.169954240322113037e-02
3.603813238441944122e-03
3.584199585020542145e-03
-1.735180412651970983e-04
-1.224318146705627441e-02
7.105976808816194534e-03
1.094122882932424545e-02
5.267496686428785324e-03
-2.815559972077608109e-03
-8.340586908161640167e-03
-8.838900364935398102e-03
9.992521256208419800e-03
-1.823059283196926117e-02
1.675896346569061279e-02
3.124444978311657906e-03
-1.158073637634515762e-02
3.453803947195410728e-03
8.922788314521312714e-03
-3.076834604144096375e-02
2.734804153442382812e-02
-1.480590552091598511e-03
2.669070474803447723e-02
-3.638117108494043350e-03
3.166500944644212723e-03
-1.046796236187219620e-02
-6.036166567355394363e-03
-7.590179145336151123e-02
1.891181687824428082e-03
5.139996111392974854e-02
7.439184118993580341e-04
5.505733191967010498e-03
-6.150729022920131683e-03
1.816038601100444794e-02
-1.918369717895984650e-02
4.281307756900787354e-02
-1.213901210576295853e-02
-6.227851845324039459e-03
-1.642258651554584503e-02
9.355216287076473236e-03
6.953762378543615341e-03
2.045358298346400261e-03
3.726693242788314819e-02
7.261000428115949035e-05
1.282600779086351395e-02
2.700671181082725525e-02
8.308606222271919250e-03
7.660510484129190445e-03
4.881493747234344482e-03
-7.962295785546302795e-03
-1.215631607919931412e-02
-8.319485001266002655e-03
5.377660971134901047e-03
-7.197123486548662186e-03
2.711388282477855682e-03
8.360617794096469879e-03
-7.068543694913387299e-03
-6.409043073654174805e-02
-1.487422455102205276e-02
-3.376119956374168396e-02
-5.092821270227432251e-02
-2.393919229507446289e-02
2.248167293146252632e-04
-3.283288795500993729e-03
9.174961596727371216e-03
-6.499811541289091110e-03
-3.308176528662443161e-03
-9.989676065742969513e-03
6.980159785598516464e-03
-3.620541468262672424e-02
2.868949435651302338e-03
-2.055301889777183533e-02
8.562519215047359467e-03
5.535672418773174286e-03
-1.721964776515960693e-02
6.792270392179489136e-02
-1.363054383546113968e-02
-2.278964268043637276e-03
1.010985113680362701e-02
3.046469204127788544e-02
-6.601749337278306484e-04
5.411728285253047943e-03
-1.631269976496696472e-02
2.801483497023582458e-03
1.492177881300449371e-02
-2.525124512612819672e-02
2.735246904194355011e-03
5.711288191378116608e-03
1.496469415724277496e-02
-2.373115625232458115e-03
-8.741964586079120636e-03
-2.813797676935791969e-03
1.518465392291545868e-02
-5.809743306599557400e-04
1.194511353969573975e-02
2.050844341283664107e-04
-4.679935052990913391e-03
1.889950595796108246e-02
4.677512869238853455e-02
8.148818276822566986e-03
5.052380636334419250e-02
-1.532673020847141743e-03
-6.025205831974744797e-03
-1.417960785329341888e-02
1.181314140558242798e-02
-6.077525205910205841e-03
-3.188036615028977394e-03
1.794857904314994812e-02
3.336923895403742790e-03
1.585269719362258911e-02
1.027080416679382324e-02
2.694894559681415558e-02
8.155635441653430462e-04
2.641047118231654167e-03
3.272433532401919365e-03
-6.887715309858322144e-02
-1.453591044992208481e-03
2.017580205574631691e-03
-6.138677126727998257e-04
-1.416451111435890198e-02
1.867124228738248348e-03
-1.083721965551376343e-02
-1.006756164133548737e-02
-3.187792375683784485e-02
-7.313804235309362411e-03
-1.499448902904987335e-02
5.892289336770772934e-03
6.006349809467792511e-03
4.519931972026824951e-03
-2.011270844377577305e-04
-5.540840793401002884e-03
-5.539150442928075790e-03
7.082402706146240234e-03
-9.579067118465900421e-03
1.051970571279525757e-02
-2.318242331966757774e-04
-8.760055527091026306e-03
1.743458583950996399e-02
-1.057803910225629807e-02
-2.660839818418025970e-02
2.469522878527641296e-02
1.017065811902284622e-02
1.475782226771116257e-02
2.881547203287482262e-03
-6.433361559174954891e-04
-1.186794415116310120e-02
-7.465902715921401978e-03
-5.418536067008972168e-02
-3.006684826686978340e-03
5.437018722295761108e-02
-6.820372305810451508e-03
1.743044145405292511e-02
1.074710744433104992e-03
8.753047324717044830e-03
-1.155639998614788055e-02
4.923189431428909302e-02
-9.782886132597923279e-03
-5.136602092534303665e-03
-9.468596428632736206e-03
3.186533972620964050e-02
3.838293254375457764e-03
5.870813038200139999e-03
1.377364527434110641e-02
-3.020444884896278381e-02
8.736304938793182373e-03
1.615401171147823334e-02
1.970984041690826416e-03
-7.761015440337359905e-04
5.683173425495624542e-03
-7.778766565024852753e-03
-8.368620648980140686e-03
-2.481258939951658249e-03
1.531242392957210541e-03
-6.282022222876548767e-03
-2.882745815441012383e-03
5.272067617624998093e-03
-7.023760583251714706e-03
-3.960283100605010986e-02
-3.546240553259849548e-02
-1.593568734824657440e-02
-3.020150773227214813e-02
-1.108746137470006943e-02
-4.986901767551898956e-03
-6.640860810875892639e-04
6.436147261410951614e-03
-9.661777876317501068e-03
-1.431643730029463768e-03
1.844546571373939514e-02
1.028301939368247986e-02
-3.020028211176395416e-02
3.447271883487701416e-04
9.642791002988815308e-03
2.909319009631872177e-03
9.924669750034809113e-03
-1.283263042569160461e-02
4.658342897891998291e-02
-1.602031849324703217e-02
-5.047364160418510437e-03
-6.323101930320262909e-03
2.366124279797077179e-02
1.193488715216517448e-03
7.983313989825546741e-04
-8.913706988096237183e-03
-3.430946171283721924e-02
1.944057457149028778e-02
-1.986923068761825562e-02
4.600782413035631180e-03
8.290153928101062775e-03
1.524323318153619766e-02
-4.984654486179351807e-03
-4.925861489027738571e-03
-5.898788571357727051e-03
1.113730296492576599e-02
-3.594381501898169518e-03
6.973053794354200363e-03
4.342455416917800903e-03
-5.610402207821607590e-03
2.438026480376720428e-03
2.460409700870513916e-02
3.659320529550313950e-03
2.155249752104282379e-02
-6.071835290640592575e-03
-7.962587405927479267e-04
-1.444084290415048599e-02
8.022682741284370422e-03
-3.783831198234111071e-04
-9.001394733786582947e-03
-4.242817813064903021e-04
-6.095463049859972671e-07
1.113466545939445496e-02
6.225810851901769638e-03
2.135905250906944275e-02
1.746954047121107578e-03
3.480075625702738762e-03
6.337861996144056320e-03
-6.060496717691421509e-02
-8.987646549940109253e-03
-1.238362980075180531e-03
-9.953318163752555847e-03
-7.035251241177320480e-03
4.645632579922676086e-03
-8.805938065052032471e-03
-1.129549834877252579e-02
-5.625567957758903503e-02
-6.626832182519137859e-04
-1.848711445927619934e-02
6.776918657124042511e-03
1.015341468155384064e-02
4.875789862126111984e-03
-2.618486061692237854e-03
-5.005743354558944702e-03
-5.950216669589281082e-03
4.511628299951553345e-03
-9.133369661867618561e-03
6.680852733552455902e-03
4.205241333693265915e-03
-8.598406799137592316e-03
1.253235246986150742e-02
-2.695985883474349976e-02
-2.464737556874752045e-02
6.406174506992101669e-03
8.387710899114608765e-03
1.878523454070091248e-02
1.907483208924531937e-03
-1.810412271879613400e-03
-2.875766716897487640e-03
-1.003407780081033707e-02
-5.387468636035919189e-02
-1.295230234973132610e-03
5.090270563960075378e-02
-8.141634985804557800e-03
1.785859651863574982e-02
6.125816726125776768e-04
9.558932855725288391e-03
-2.257521031424403191e-03
4.120949655771255493e-02
-1.622895896434783936e-02
-1.355838868767023087e-02
-2.076815627515316010e-02
3.502368554472923279e-02
4.736571107059717178e-03
8.494094014167785645e-03
1.272860635071992874e-02
-4.794349521398544312e-02
1.056447438895702362e-02
1.502256654202938080e-02
3.301764605566859245e-03
3.807533532381057739e-03
7.328252773731946945e-03
-9.782132692635059357e-03
-8.491747081279754639e-03
-5.752861965447664261e-03
2.141595119610428810e-03
5.582659505307674408e-04
-3.500100225210189819e-03
7.186119910329580307e-03
-1.848934800364077091e-03
-4.041574150323867798e-02
-4.618316888809204102e-02
-2.016555704176425934e-02
-4.223632439970970154e-02
-1.171618606895208359e-02
-1.254868134856224060e-02
3.322475531604140997e-04
5.306808277964591980e-03
-4.141513723880052567e-03
-3.882244694977998734e-03
2.418092079460620880e-02
7.481788285076618195e-03
-2.279402129352092743e-02
-3.543955273926258087e-03
1.043591927736997604e-02
-5.501671694219112396e-03
-5.330344196408987045e-03
-2.102340012788772583e-02
4.179558157920837402e-02
3.359876573085784912e-04
-2.578310668468475342e-03
1.492077484726905823e-02
6.971492432057857513e-03
4.999343771487474442e-03
1.891324110329151154e-02
-1.091365609318017960e-02
-2.246968634426593781e-02
6.688225083053112030e-03
-1.782580278813838959e-02
2.078354358673095703e-03
2.758228918537497520e-03
8.328950032591819763e-03
1.084356917999684811e-03
-2.462624805048108101e-03
2.016202779486775398e-03
3.491905954433605075e-05
1.095609477488324046e-04
3.672290360555052757e-03
5.790018476545810699e-03
-3.180108498781919479e-03
4.928054288029670715e-03
1.099585276097059250e-02
1.687260717153549194e-02
1.180331455543637276e-03
4.767974838614463806e-03
-6.352242082357406616e-03
-2.579280408099293709e-03
7.510517723858356476e-03
-2.574666868895292282e-03
1.358585199341177940e-03
3.923010826110839844e-02
6.726230029016733170e-03
-4.634630400687456131e-03
1.249285601079463959e-02
-1.607617712579667568e-03
-8.449641056358814240e-03
-1.196471159346401691e-03
-1.150739192962646484e-02
-8.565632253885269165e-02
5.627665203064680099e-03
-5.941646173596382141e-03
-3.648981219157576561e-03
-4.327605292201042175e-02
3.613555803894996643e-03
-6.954499403946101665e-04
-8.416092954576015472e-03
-2.058594301342964172e-02
-9.158393368124961853e-03
-2.172096073627471924e-02
3.957330249249935150e-03
6.137131713330745697e-03
2.058706886600703001e-04
5.833366303704679012e-04
-2.702664816752076149e-03
-1.049741823226213455e-02
-2.901370869949460030e-03
-7.286855019629001617e-03
1.195474620908498764e-02
7.367080543190240860e-04
-1.095055229961872101e-02
-6.151088513433933258e-03
2.118041506037116051e-03
-1.554861199110746384e-02
-1.473563723266124725e-03
2.305240835994482040e-03
1.818075217306613922e-02
4.219626076519489288e-03
-3.140552202239632607e-03
-5.255574826151132584e-03
-3.938533831387758255e-03
-4.467891529202461243e-02
6.502754520624876022e-03
3.205892816185951233e-02
2.206925069913268089e-03
-1.334401872009038925e-02
-4.737955983728170395e-03
1.159521751105785370e-02
-2.484073862433433533e-02
3.647736459970474243e-02
-2.575411926954984665e-03
-5.394027102738618851e-03
-1.345888432115316391e-02
-1.938016340136528015e-02
2.482605923432856798e-04
1.020254287868738174e-02
1.578836585395038128e-03
-5.237710662186145782e-03
2.901613013818860054e-03
1.346171367913484573e-02
1.350363600067794323e-03
3.308346495032310486e-03
6.546411896124482155e-04
-2.607309492304921150e-03
-1.411198521964251995e-03
-3.343724412843585014e-03
-8.934785611927509308e-03
3.484920365735888481e-03
6.847172509878873825e-03
5.014932248741388321e-03
-2.455309266224503517e-03
-3.397493436932563782e-02
3.798526944592595100e-03
-3.127496223896741867e-03
-1.139637548476457596e-02
-1.167254243046045303e-02
-1.712944544851779938e-02
7.108352147042751312e-03
2.221732633188366890e-03
-1.951152691617608070e-03
1.966958632692694664e-03
1.079098228365182877e-02
1.853606954682618380e-04
-2.824953757226467133e-02
5.211489275097846985e-03
-1.306977868080139160e-02
-6.225905381143093109e-03
-3.424722235649824142e-04
-1.712938584387302399e-02
5.061280727386474609e-02
-7.845228537917137146e-03
2.112679183483123779e-03
2.133311890065670013e-02
3.691673045977950096e-04
1.105859503149986267e-02
1.715441420674324036e-02
-1.560164242982864380e-02
3.849315270781517029e-02
1.188836712390184402e-02
-2.282432839274406433e-02
4.793412983417510986e-03
1.857299357652664185e-03
9.416280314326286316e-03
-7.098843343555927277e-03
-6.350690033286809921e-03
-2.117512980476021767e-03
1.432612352073192596e-02
-6.606515031307935715e-03
6.546055898070335388e-03
-6.874666432850062847e-04
-4.972910042852163315e-03
1.559163536876440048e-02
3.755808249115943909e-02
2.049693278968334198e-02
2.710529603064060211e-02
-2.458507427945733070e-03
-2.886329777538776398e-03
-6.552945356816053391e-03
1.201181113719940186e-02
-1.498056459240615368e-03
2.964551094919443130e-04
1.652590557932853699e-02
1.057453826069831848e-02
5.770599935203790665e-03
1.365686208009719849e-02
6.756007671356201172e-03
-1.293489150702953339e-02
3.506856271997094154e-03
-8.357202634215354919e-03
-9.451410919427871704e-02
-1.978228334337472916e-03
-7.083239033818244934e-03
-8.889740332961082458e-03
-6.055741384625434875e-02
9.939180687069892883e-03
-9.512885473668575287e-03
-3.691906109452247620e-03
6.690820679068565369e-03
-6.352051161229610443e-03
-1.220175251364707947e-02
6.088134832680225372e-03
4.064003936946392059e-03
-2.589884214103221893e-03
-1.119258720427751541e-02
-7.942510768771171570e-03
-8.696421049535274506e-03
1.092832069844007492e-02
-1.031985599547624588e-02
1.176885887980461121e-02
1.967596355825662613e-03
-1.165299583226442337e-02
-5.590584129095077515e-03
9.458596818149089813e-03
-2.225298993289470673e-02
2.493093721568584442e-03
2.020585234276950359e-04
2.690804004669189453e-02
1.134540070779621601e-03
5.526845779968425632e-05
-7.369316648691892624e-03
-1.378874480724334717e-02
-7.692120224237442017e-02
8.291407488286495209e-03
4.401036724448204041e-02
6.962283077882602811e-05
-1.220612600445747375e-02
-7.209719624370336533e-03
1.554580591619014740e-02
-2.200430259108543396e-02
4.397206753492355347e-02
-1.266168989241123199e-02
-7.522328291088342667e-03
-3.860623389482498169e-02
-3.794246912002563477e-02
6.680914666503667831e-03
6.623764988034963608e-03
2.806644700467586517e-02
-4.466490354388952255e-04
8.676297031342983246e-03
2.625625766813755035e-02
7.117419037967920303e-03
1.401814050041139126e-03
-2.171276370063424110e-03
-1.095702499151229858e-02
-5.226347595453262329e-03
-9.236631914973258972e-03
6.303833331912755966e-03
-4.186004400253295898e-03
2.692144829779863358e-03
5.712871905416250229e-03
-4.573617130517959595e-03
-6.101410463452339172e-02
1.083978172391653061e-02
-8.507692255079746246e-03
-3.263008967041969299e-02
-1.937512122094631195e-02
-1.460267580114305019e-03
3.686161013320088387e-03
6.036302540451288223e-03
-7.298957556486129761e-03
-4.465782083570957184e-03
-2.627524174749851227e-02
7.789772935211658478e-03
-3.093292377889156342e-02
2.274910686537623405e-03
-2.526003867387771606e-02
3.594762180000543594e-03
-2.367594046518206596e-03
-1.726191490888595581e-02
5.924807116389274597e-02
-1.178965903818607330e-02
-2.610846189782023430e-03
2.287106215953826904e-02
2.816710062325000763e-02
7.438551168888807297e-03
2.206786721944808960e-02
-1.371215377002954483e-02
4.902309179306030273e-02
1.791616715490818024e-02
-2.465406619012355804e-02
7.179822772741317749e-03
1.349317142739892006e-03
1.341696735471487045e-02
-4.563306458294391632e-03
-5.163116846233606339e-03
-3.793663810938596725e-03
1.696078293025493622e-02
-9.052276611328125000e-03
1.372218783944845200e-02
2.491798950359225273e-03
-8.862425573170185089e-03
3.762925416231155396e-02
3.171352297067642212e-02
1.473267003893852234e-02
2.965522743761539459e-02
1.716718659736216068e-03
-4.466943908482789993e-03
-5.228534806519746780e-03
8.735839277505874634e-03
-3.352745843585580587e-04
-3.372617531567811966e-03
9.173042140901088715e-03
1.038242224603891373e-02
-1.983383204787969589e-03
6.821007933467626572e-03
2.305834554135799408e-02
-5.494043231010437012e-03
-5.107606284582288936e-06
-6.215372122824192047e-04
-8.508764952421188354e-02
-6.544749718159437180e-03
-3.280715784057974815e-03
-6.026254035532474518e-03
-2.944150939583778381e-02
5.366815254092216492e-03
-1.243638456799089909e-03
1.688280608505010605e-03
6.004163529723882675e-03
-4.834476392716169357e-03
-1.614031381905078888e-02
8.091190829873085022e-03
6.969842128455638885e-03
1.803600927814841270e-03
-7.483930326998233795e-03
-3.845026483759284019e-03
-1.033761817961931229e-02
1.629193499684333801e-02
-1.435791701078414917e-02
1.682909578084945679e-02
1.962633570656180382e-03
-1.782774366438388824e-02
1.992584951221942902e-02
-4.520368296653032303e-03
-2.711057662963867188e-02
5.454778671264648438e-03
5.941909737884998322e-03
1.890455372631549835e-02
7.893446832895278931e-03
4.052064032293856144e-04
-3.731055650860071182e-03
-6.332717835903167725e-03
-7.465710490942001343e-02
7.131228689104318619e-03
4.102545976638793945e-02
-2.552011283114552498e-03
9.576738812029361725e-03
-4.531731829047203064e-03
1.453756075352430344e-02
-1.503291819244623184e-02
4.181011393666267395e-02
-1.479821186512708664e-02
-8.597655221819877625e-03
-3.070987015962600708e-02
-1.478804368525743484e-02
8.313149213790893555e-03
1.471646316349506378e-02
3.288191556930541992e-02
1.778314705006778240e-03
1.267083361744880676e-02
2.437539212405681610e-02
1.018180418759584427e-02
2.616982208564877510e-03
-5.096623790450394154e-04
-1.424029655754566193e-02
-6.223076488822698593e-03
-7.957456633448600769e-03
1.050947047770023346e-02
-5.282999482005834579e-03
2.536156447604298592e-03
6.226686760783195496e-03
-5.231689196079969406e-03
-4.467558115720748901e-02
-3.229295136407017708e-03
-1.641899161040782928e-02
-3.363525867462158203e-02
-1.443150267004966736e-02
-3.942023962736129761e-03
4.957517609000205994e-03
8.404318243265151978e-03
-2.154677873477339745e-03
1.688413613010197878e-04
-2.118417806923389435e-02
7.399901747703552246e-03
-3.660709783434867859e-02
-5.679414607584476471e-05
-6.398524157702922821e-03
8.183531463146209717e-03
-4.702435806393623352e-03
7.228383328765630722e-04
5.756220966577529907e-02
-8.218917064368724823e-03
-1.361520844511687756e-03
1.588271558284759521e-02
1.358848717063665390e-02
6.200931966304779053e-03
1.383419521152973175e-02
-1.945198141038417816e-02
3.347052261233329773e-02
1.266173925250768661e-02
-2.271266095340251923e-02
3.011831315234303474e-03
1.909811981022357941e-03
5.636062007397413254e-03
-3.272715490311384201e-03
-5.261474289000034332e-03
-2.571251243352890015e-03
1.358850300312042236e-02
-5.731457844376564026e-03
4.718563519418239594e-03
-3.519408928696066141e-04
-1.070384634658694267e-03
2.964403666555881500e-02
2.053470723330974579e-02
1.582549512386322021e-02
2.320437319576740265e-02
1.046206057071685791e-02
-1.649414654821157455e-03
-8.787830360233783722e-03
2.728621941059827805e-03
1.284546218812465668e-03
2.032775664702057838e-03
1.558273099362850189e-02
-1.335684675723314285e-03
-7.849381305277347565e-03
-3.280378005001693964e-04
4.953747149556875229e-03
-4.091080918442457914e-04
-7.792993448674678802e-03
1.537011563777923584e-02
-8.024199306964874268e-02
9.828718611970543861e-04
-4.082198254764080048e-03
-2.390210516750812531e-03
-2.457374334335327148e-02
7.789671421051025391e-03
-7.068391423672437668e-03
-1.259694993495941162e-02
-1.091665122658014297e-02
-3.092939266934990883e-03
-1.852958090603351593e-02
5.450693424791097641e-03
5.597796291112899780e-03
4.491618368774652481e-03
-2.203193027526140213e-03
-6.064947228878736496e-03
-8.801404386758804321e-03
8.534236811101436615e-03
-8.309350349009037018e-03
7.780770771205425262e-03
7.177074166975216940e-06
-1.066299807280302048e-02
2.482586726546287537e-02
-1.566587388515472412e-02
-1.750602014362812042e-02
1.405899133533239365e-02
1.595124043524265289e-02
1.569309085607528687e-02
6.416875403374433517e-03
-6.649026647210121155e-03
-2.659652847796678543e-03
-3.027799306437373161e-03
-5.322464182972908020e-02
-3.674328036140650511e-04
4.019625112414360046e-02
-9.877048432826995850e-03
2.131882356479763985e-03
6.518931477330625057e-04
7.772717159241437912e-03
2.717604627832770348e-03
4.304652288556098938e-02
-9.583243168890476227e-03
-1.385783497244119644e-02
-1.174932066351175308e-02
7.728051859885454178e-03
5.084385164082050323e-03
1.729059778153896332e-02
1.578755117952823639e-02
-8.119474165141582489e-03
3.515675198286771774e-03
1.273176260292530060e-02
3.872813656926155090e-03
-1.081607886590063572e-03
1.458909362554550171e-03
-8.787966333329677582e-03
-3.171167336404323578e-03
-4.594303667545318604e-03
3.144792746752500534e-03
-4.524763673543930054e-03
-2.821055706590414047e-03
-2.015582052990794182e-03
-2.112138317897915840e-03
-2.339233644306659698e-02
-2.051180042326450348e-02
2.015199745073914528e-03
-1.134008076041936874e-02
-4.857603053096681833e-04
-1.167922560125589371e-02
5.599823780357837677e-03
-5.623914767056703568e-04
-4.132919944822788239e-03
2.195254899561405182e-03
1.310991030186414719e-02
2.767725847661495209e-03
-3.262875229120254517e-02
-8.554567582905292511e-03
7.971602492034435272e-03
9.791187476366758347e-04
-8.949199109338223934e-04
1.393337268382310867e-03
3.595072776079177856e-02
-1.112477015703916550e-02
-9.545312263071537018e-03
6.241020746529102325e-03
1.939069852232933044e-02
9.695300832390785217e-03
1.346992421895265579e-02
-1.430503465235233307e-02
1.025345176458358765e-02
1.516757626086473465e-02
-1.427597831934690475e-02
2.409918233752250671e-03
6.323603913187980652e-03
1.186638884246349335e-02
-4.164435900747776031e-03
-9.274556301534175873e-03
-5.486445967108011246e-03
8.082584477961063385e-03
-3.108686301857233047e-03
5.875328555703163147e-03
3.239333396777510643e-03
-5.692056845873594284e-03
1.482392940670251846e-02
1.196134556084871292e-02
7.901824079453945160e-03
2.359796315431594849e-03
5.125112831592559814e-03
2.755809342488646507e-03
-6.743057630956172943e-03
-1.200064434669911861e-03
2.140518045052886009e-03
2.173171233152970672e-04
1.232077274471521378e-02
-1.890546758659183979e-03
-7.830201648175716400e-03
1.397656393237411976e-03
5.195051897317171097e-03
-4.697619937360286713e-03
-5.808228626847267151e-03
1.737931370735168457e-02
-7.944446057081222534e-02
-2.902521810028702021e-04
-5.541946273297071457e-03
-7.165595889091491699e-03
-1.033669151365756989e-02
1.043683104217052460e-02
-5.220902618020772934e-03
-1.377246249467134476e-02
-1.979982666671276093e-02
-6.937930826097726822e-03
-1.338684652000665665e-02
6.229101680219173431e-03
9.070017375051975250e-03
2.941870130598545074e-03
-5.554322618991136551e-03
-7.184454239904880524e-03
-6.051766686141490936e-03
6.938819307833909988e-03
-2.763449447229504585e-03
5.863506346940994263e-03
5.523197352886199951e-03
-8.729009889066219330e-03
2.127701230347156525e-02
-1.448111981153488159e-02
-1.578096300363540649e-02
3.329560160636901855e-03
1.748488657176494598e-02
1.435200776904821396e-02
8.946845307946205139e-03
-7.083005271852016449e-03
-5.681930924765765667e-04
-5.777663085609674454e-03
-3.614915907382965088e-02
-2.648098627105355263e-03
4.588959366083145142e-02
-7.401282899081707001e-03
4.600868094712495804e-03
-2.525797812268137932e-03
5.292171146720647812e-03
7.833503186702728271e-03
3.150721639394760132e-02
-1.026350352913141251e-02
-1.712744310498237610e-02
-1.745549589395523071e-02
1.824793778359889984e-02
4.755698144435882568e-03
1.830098219215869904e-02
1.422040723264217377e-02
-1.568843238055706024e-02
8.664222434163093567e-03
1.133191119879484177e-02
5.705743562430143356e-03
7.556828204542398453e-04
4.865471739321947098e-03
-1.141537539660930634e-02
-4.555524326860904694e-03
-4.034109413623809814e-03
-3.231498703826218843e-04
3.835069481283426285e-03
-4.161131102591753006e-03
-5.555034149438142776e-04
-1.968116732314229012e-03
-2.989294379949569702e-02
-2.135540172457695007e-02
-1.254954258911311626e-04
-1.767200045287609100e-02
-3.078923793509602547e-03
-1.263274718075990677e-02
8.673829026520252228e-03
-3.102433867752552032e-03
-9.982147021219134331e-04
6.967533845454454422e-03
3.093340434134006500e-02
2.234472893178462982e-03
-3.084517084062099457e-02
-1.282834215089678764e-03
1.502333395183086395e-02
9.892450645565986633e-03
-5.945179145783185959e-03
4.296393133699893951e-03
3.919797018170356750e-02
-5.879516713321208954e-03
4.166363738477230072e-03
6.748155690729618073e-03
1.607923582196235657e-02
4.000887274742126465e-03
2.289322391152381897e-02
-1.022384408861398697e-02
-3.039600700139999390e-02
1.304429955780506134e-02
-2.231165952980518341e-02
7.537256926298141479e-03
7.911895518191158772e-04
1.058046985417604446e-02
-3.944054245948791504e-03
-3.572758520022034645e-03
-5.890082102268934250e-04
-2.381676342338323593e-03
-3.975550178438425064e-03
-2.295861719176173210e-03
7.742380723357200623e-03
-1.769612194038927555e-03
7.582452613860368729e-03
-2.012421464314684272e-04
1.430358737707138062e-02
-1.887617073953151703e-02
4.541784524917602539e-03
1.491041947156190872e-02
-8.781781420111656189e-03
7.435242179781198502e-03
4.290592332836240530e-04
-6.398399709723889828e-04
5.412993952631950378e-02
1.139202341437339783e-02
-4.257686901837587357e-03
9.995913133025169373e-03
1.864960975944995880e-02
8.040575194172561169e-04
-4.488028120249509811e-03
4.888373892754316330e-03
-7.784125953912734985e-02
3.960744012147188187e-03
-1.991860568523406982e-03
-1.184054650366306305e-02
-3.114898316562175751e-02
2.795943990349769592e-03
-3.938999958336353302e-03
-1.397588383406400681e-02
-2.980274520814418793e-02
-3.883196273818612099e-03
-2.486675418913364410e-02
4.919263068586587906e-03
5.303031764924526215e-03
-1.112623256631195545e-03
-3.609058214351534843e-03
-3.246477339416742325e-03
-9.230916388332843781e-03
-1.015178975649178028e-03
-5.644510965794324875e-03
6.078125908970832825e-03
3.778487909585237503e-03
-7.565085776150226593e-03
-2.159008989110589027e-03
2.140966476872563362e-03
-1.767877861857414246e-02
-1.151545625180006027e-02
5.682939197868108749e-03
3.229461982846260071e-02
3.558530006557703018e-03
-1.506643369793891907e-03
-3.855949908029288054e-04
-6.778741721063852310e-03
-1.622192934155464172e-02
8.061663247644901276e-03
3.648665547370910645e-02
1.173622673377394676e-03
1.110868249088525772e-02
8.452480658888816833e-03
6.540037225931882858e-03
-1.029683928936719894e-02
3.751312568783760071e-02
-6.409696768969297409e-03
-3.117292420938611031e-03
-2.407088130712509155e-02
-1.729996316134929657e-02
2.152244793251156807e-03
1.090772077441215515e-02
-2.300923224538564682e-03
-8.317478001117706299e-03
6.475244648754596710e-03
7.402345538139343262e-03
2.280268585309386253e-03
-1.824766979552805424e-03
2.426599385216832161e-03
-5.845473497174680233e-04
-5.036897026002407074e-03
-6.762076169252395630e-03
-9.961066767573356628e-03
-3.928196616470813751e-03
-9.098552982322871685e-04
4.518472589552402496e-03
-3.523620544001460075e-04
-3.220298886299133301e-02
5.603745579719543457e-03
-1.827671891078352928e-03
-2.049711905419826508e-02
-1.048934645950794220e-02
-2.411471912637352943e-03
6.943267770111560822e-03
8.302594069391489029e-04
1.392181846313178539e-03
6.213674205355346203e-04
2.990138158202171326e-02
5.002974532544612885e-03
-2.736146189272403717e-02
2.389225875958800316e-03
5.984767805784940720e-03
1.570473890751600266e-03
-4.112265538424253464e-03
9.542711079120635986e-03
4.484446346759796143e-02
-1.622250117361545563e-02
5.160544067621231079e-03
1.049520447850227356e-02
5.095612723380327225e-03
8.479798212647438049e-03
1.556449290364980698e-02
-2.027766965329647064e-02
1.264268346130847931e-02
1.904725283384323120e-02
-2.439652569591999054e-02
1.127798296511173248e-02
2.329399343580007553e-03
1.440123748034238815e-02
-6.928255781531333923e-03
-8.309272117912769318e-03
-1.626255922019481659e-03
7.349718827754259109e-03
-7.503139786422252655e-03
-4.540641384664922953e-04
8.578944951295852661e-03
-2.580293687060475349e-03
2.958919107913970947e-02
1.683570444583892822e-02
1.549203507602214813e-02
4.854177590459585190e-03
-1.155506237410008907e-03
1.452084816992282867e-02
-9.039347060024738312e-03
8.998827077448368073e-03
-1.938540139235556126e-03
-4.588682670146226883e-03
4.207973182201385498e-02
1.640129089355468750e-02
2.385767642408609390e-03
9.794633835554122925e-03
1.998068951070308685e-02
-4.535642452538013458e-03
-2.751735737547278404e-03
1.397318765521049500e-02
-8.856191486120223999e-02
-1.051009725779294968e-02
-1.862351433373987675e-03
-1.864253729581832886e-02
-4.938550665974617004e-02
7.081052754074335098e-03
-6.161042023450136185e-03
-8.703125640749931335e-03
-1.391204632818698883e-02
-1.241987687535583973e-03
-1.765868067741394043e-02
1.043696049600839615e-02
3.458200022578239441e-03
3.613729495555162430e-03
-7.839361205697059631e-03
-3.534679301083087921e-03
-1.327641122043132782e-02
1.158785633742809296e-02
-8.908229880034923553e-03
6.780471652746200562e-03
1.003967225551605225e-02
-1.086939685046672821e-02
9.164147777482867241e-04
-1.857050578109920025e-03
-2.367559447884559631e-02
-1.493133231997489929e-02
6.764662102796137333e-04
3.415028378367424011e-02
2.620546612888574600e-03
-9.568301611579954624e-04
-5.859198980033397675e-03
-1.423561479896306992e-02
-4.552540555596351624e-02
1.463602948933839798e-02
4.365846142172813416e-02
6.533493869937956333e-04
3.261397825554013252e-03
-2.903868735302239656e-04
1.533062662929296494e-02
-2.492450177669525146e-03
3.792240470647811890e-02
-2.239449694752693176e-02
-4.456839524209499359e-03
-4.167187213897705078e-02
-3.369107097387313843e-02
7.988767698407173157e-03
1.256840955466032028e-02
2.587176114320755005e-02
-1.662472076714038849e-02
1.482242811471223831e-02
2.325987629592418671e-02
5.329823121428489685e-03
-5.228461232036352158e-04
1.650840742513537407e-03
-8.952019736170768738e-03
-1.135364873334765434e-03
-7.258080411702394485e-03
5.189806688576936722e-03
-4.611457232385873795e-03
-2.410336397588253021e-03
9.966663084924221039e-03
-2.127774059772491455e-03
-5.337141826748847961e-02
2.389666391536593437e-03
-9.128032252192497253e-03
-4.296858981251716614e-02
-1.680742949247360229e-02
6.578765343874692917e-03
5.869998130947351456e-03
8.010569028556346893e-03
-3.222352359443902969e-03
-6.681165657937526703e-03
-8.808330632746219635e-03
1.059802249073982239e-02
-3.165644779801368713e-02
-4.659827332943677902e-03
-6.298069376498460770e-03
8.083921857178211212e-03
2.382058184593915939e-03
1.628956571221351624e-02
3.979381918907165527e-02
-1.566029153764247894e-02
3.937658388167619705e-03
1.466367021203041077e-02
2.724388241767883301e-02
9.317765012383460999e-03
1.634336449205875397e-02
-2.045075222849845886e-02
2.597627229988574982e-02
2.015241421759128571e-02
-2.541361562907695770e-02
1.255417894572019577e-02
-1.697846339084208012e-03
1.309813652187585831e-02
-2.984289778396487236e-03
-5.555153358727693558e-03
-1.525344909168779850e-03
1.265231892466545105e-02
-1.307803485542535782e-02
9.028858505189418793e-03
8.599107153713703156e-03
-4.982433747500181198e-03
3.869545459747314453e-02
4.542634822428226471e-03
1.596479676663875580e-02
1.257365290075540543e-02
2.497403183951973915e-03
6.507530342787504196e-03
-6.142939906567335129e-03
1.186268310993909836e-02
-3.481494495645165443e-04
-1.799227786250412464e-03
2.427429705858230591e-02
1.560847181826829910e-02
-1.120784319937229156e-03
4.160529468208551407e-03
2.843328006565570831e-02
1.566316699609160423e-03
-4.255506675690412521e-03
2.255569025874137878e-02
-9.891355037689208984e-02
-1.060208678245544434e-02
-1.690970850177109241e-03
-1.755413971841335297e-02
-2.503688260912895203e-02
6.498654372990131378e-03
-1.381296897307038307e-03
-8.021541871130466461e-03
-1.274076383560895920e-02
-4.497585818171501160e-03
-1.937302947044372559e-02
7.945478893816471100e-03
4.720238503068685532e-03
5.509883165359497070e-03
-6.864768452942371368e-03
-5.688186734914779663e-03
-7.244079839438199997e-03
1.580066047608852386e-02
-1.323104463517665863e-02
9.872364811599254608e-03
8.739681914448738098e-03
-1.684553362429141998e-02
2.345168590545654297e-02
-1.904708519577980042e-02
-1.823934353888034821e-02
-6.393864285200834274e-03
4.200201947242021561e-03
2.569563686847686768e-02
7.222240790724754333e-03
4.625317174941301346e-03
-2.335637575015425682e-03
-9.517647325992584229e-03
-5.609219148755073547e-02
1.395101565867662430e-02
4.793038219213485718e-02
-6.225913297384977341e-03
1.348937861621379852e-02
2.565894974395632744e-03
1.779263094067573547e-02
6.511508487164974213e-03
2.349216677248477936e-02
-1.698005571961402893e-02
-1.090441364794969559e-02
-4.037870466709136963e-02
-1.699800416827201843e-02
4.539117682725191116e-03
1.331710536032915115e-02
2.482217364013195038e-02
-1.247300021350383759e-02
1.495274528861045837e-02
2.390689030289649963e-02
1.140322815626859665e-02
2.911318093538284302e-03
2.736395224928855896e-03
-8.989087305963039398e-03
-3.271876601502299309e-03
-6.873270962387323380e-03
5.301125813275575638e-03
-2.690226072445511818e-03
1.247749605681747198e-04
9.653634391725063324e-03
-2.899834653362631798e-03
-3.714709356427192688e-02
-1.088021229952573776e-02
-5.066401325166225433e-03
-3.787755221128463745e-02
-2.009025029838085175e-02
4.001769120804965496e-04
3.249502507969737053e-03
8.347815833985805511e-03
3.740119282156229019e-03
-4.775931593030691147e-03
-1.335271447896957397e-02
8.615595288574695587e-03
-3.074702434241771698e-02
-8.501643314957618713e-03
4.198004025965929031e-03
1.439623814076185226e-02
2.053671516478061676e-03
2.790853939950466156e-02
5.307115986943244934e-02
-9.669706225395202637e-03
2.199546666815876961e-03
5.193329881876707077e-03
2.624702453613281250e-02
5.568423774093389511e-03
1.377963181585073471e-02
-1.846669614315032959e-02
2.311565354466438293e-02
1.803583838045597076e-02
-2.307883091270923615e-02
1.407552789896726608e-02
1.813597278669476509e-03
6.156219169497489929e-03
-2.877530176192522049e-03
-6.648411508649587631e-03
-1.177066587843000889e-03
9.524675086140632629e-03
-5.390997044742107391e-03
5.368628073483705521e-03
3.195482306182384491e-03
-1.353849307633936405e-03
3.295050188899040222e-02
5.240794736891984940e-03
2.366833016276359558e-02
6.759175565093755722e-03
1.138269156217575073e-02
7.876238785684108734e-03
-1.196246966719627380e-02
8.960640989243984222e-03
-1.958203938556835055e-04
-3.553435904905200005e-03
1.485424395650625229e-02
4.537200089544057846e-03
-1.386070996522903442e-02
-4.799668211489915848e-03
4.109594505280256271e-03
7.556119933724403381e-03
-4.511633422225713730e-03
3.294673189520835876e-02
-7.995059341192245483e-02
-1.421610009856522083e-03
-4.227706231176853180e-03
-1.543891150504350662e-02
-1.423950027674436569e-02
5.792324896901845932e-03
-5.333545617759227753e-03
-1.265269145369529724e-02
-2.157297357916831970e-02
-6.298470310866832733e-03
-1.839004643261432648e-02
1.080924179404973984e-02
8.597958832979202271e-03
8.669200178701430559e-05
-5.653139669448137283e-03
-8.261950686573982239e-03
-5.745157133787870407e-03
1.222233846783638000e-02
-2.678165910765528679e-03
4.953550174832344055e-03
3.967300988733768463e-03
-1.011903584003448486e-02
2.415150403976440430e-02
-1.752415299415588379e-02
-7.110434584319591522e-03
5.868486128747463226e-03
1.550570316612720490e-02
2.598076872527599335e-02
5.717249121516942978e-03
-2.226857002824544907e-03
5.401934613473713398e-04
-2.463080920279026031e-03
-4.438157752156257629e-02
2.235952764749526978e-03
3.856687247753143311e-02
-1.073007006198167801e-02
6.209474056959152222e-03
5.544269457459449768e-03
1.030480023473501205e-02
2.104010619223117828e-02
3.246385231614112854e-02
-7.706418633460998535e-03
-1.145842205733060837e-02
-2.543926052749156952e-02
1.223896816372871399e-02
2.037044381722807884e-03
1.599518209695816040e-02
1.469803322106599808e-02
-1.315238885581493378e-02
1.238024514168500900e-02
9.655827656388282776e-03
1.037473417818546295e-02
7.208254537545144558e-04
1.575091504491865635e-03
-1.108518801629543304e-02
-5.378521047532558441e-03
-5.424721632152795792e-03
4.640417639166116714e-03
9.899146389216184616e-04
-3.071243176236748695e-03
4.245529882609844208e-03
-3.899622941389679909e-03
-2.436632849276065826e-02
-1.303699612617492676e-02
1.436120178550481796e-02
-1.320532523095607758e-02
-4.581034649163484573e-03
-7.987603894434869289e-04
6.357150617986917496e-03
8.086660876870155334e-03
-3.796000964939594269e-04
-5.831829621456563473e-04
9.102091193199157715e-03
4.150580614805221558e-03
-3.633882105350494385e-02
-1.093942113220691681e-02
1.437330618500709534e-02
7.943294942378997803e-03
-1.279774354770779610e-03
2.744728699326515198e-02
3.749943152070045471e-02
-1.234807539731264114e-02
-2.153781242668628693e-03
3.384236013516783714e-03
1.256882771849632263e-02
8.286292664706707001e-03
1.572965644299983978e-02
-1.733941584825515747e-02
1.245870813727378845e-02
2.062804251909255981e-02
-1.253492105752229691e-02
8.319763466715812683e-03
2.178608207032084465e-03
5.960739683359861374e-03
-5.013621412217617035e-03
-8.499490097165107727e-03
-3.785785054787993431e-03
8.887501433491706848e-03
-1.997367711737751961e-03
2.948026172816753387e-03
6.146735511720180511e-03
-1.959431916475296021e-03
1.813924312591552734e-02
6.921052467077970505e-03
1.606425829231739044e-02
-5.784060806035995483e-03
1.067276671528816223e-02
1.995799504220485687e-02
-8.145382627844810486e-03
5.179888568818569183e-03
3.243603510782122612e-03
-4.149800632148981094e-03
9.388416074216365814e-03
4.131248220801353455e-03
-4.566083662211894989e-03
-3.038909053429961205e-03
9.038655087351799011e-03
5.531782750040292740e-03
-7.115174084901809692e-03
3.601229935884475708e-02
-7.731921225786209106e-02
2.664996427483856678e-04
-3.875456284731626511e-03
-9.893070906400680542e-03
-1.424209587275981903e-02
1.126025151461362839e-02
-2.169218380004167557e-03
-1.662459224462509155e-02
-1.979495584964752197e-02
-3.800155362114310265e-03
-1.789570972323417664e-02
1.204344909638166428e-02
1.168286986649036407e-02
2.391805406659841537e-03
-9.259586222469806671e-03
-8.554616011679172516e-03
-6.197107024490833282e-03
1.201589591801166534e-02
3.346127341501414776e-04
4.569025710225105286e-03
3.286068094894289970e-03
-8.657142519950866699e-03
1.635427214205265045e-02
-9.323153644800186157e-03
-9.242910891771316528e-03
4.342125612311065197e-05
1.948441751301288605e-02
2.734714560210704803e-02
6.413145922124385834e-03
-3.829059191048145294e-03
2.864086301997303963e-03
-7.988808676600456238e-03
-2.920492924749851227e-02
7.717980042798444629e-05
4.539512097835540771e-02
-9.931289590895175934e-03
1.262665539979934692e-02
3.109924029558897018e-03
1.081935223191976547e-02
2.507859282195568085e-02
1.888455450534820557e-02
-5.869362503290176392e-03
-1.513086445629596710e-02
-2.299358323216438293e-02
1.114697102457284927e-02
5.531444679945707321e-03
1.997886411845684052e-02
1.046423241496086121e-02
-1.841955259442329407e-02
1.361348852515220642e-02
1.248958706855773926e-02
7.905561476945877075e-03
4.144434817135334015e-03
3.986155614256858826e-03
-1.355000026524066925e-02
-6.037627346813678741e-03
-5.432108417153358459e-03
-3.151592391077429056e-04
6.108613684773445129e-03
-9.838176891207695007e-03
2.710178261622786522e-03
1.889516948722302914e-03
-2.809097990393638611e-02
-1.432155724614858627e-02
1.319087669253349304e-02
-1.328816171735525131e-02
-3.360277274623513222e-03
7.666250457987189293e-04
9.043500758707523346e-03
3.171327989548444748e-03
2.815702231600880623e-03
2.963558072224259377e-03
2.895799279212951660e-02
1.060075825080275536e-03
-2.412628009915351868e-02
-6.889469455927610397e-03
2.353478595614433289e-02
