-2.296678489074110985e-03
-8.637747727334499359e-03
-1.170207839459180832e-02
1.644325442612171173e-02
-1.404299866408109665e-02
1.913345651701092720e-03
-1.217478234320878983e-02
-2.210446400567889214e-03
1.425119955092668533e-02
1.870911009609699249e-02
1.331891748122870922e-03
1.628139405511319637e-03
-3.419153857976198196e-03
1.704711467027664185e-02
-3.735502250492572784e-03
8.449750021100044250e-03
2.533535659313201904e-02
-1.415463630110025406e-02
-4.712251015007495880e-03
-1.329782884567975998e-02
-1.964333932846784592e-03
1.722376607358455658e-02
3.971147164702415466e-02
2.550228964537382126e-03
2.642887644469738007e-03
1.918574236333370209e-02
3.701024223119020462e-03
3.920481540262699127e-03
1.497759297490119934e-02
6.832629442214965820e-03
9.350758045911788940e-03
-3.798136021941900253e-03
1.553305052220821381e-02
-5.829046014696359634e-03
-3.660343820229172707e-03
-7.547784131020307541e-03
3.799918573349714279e-03
-1.372934901155531406e-03
-3.592607332393527031e-03
1.511365547776222229e-02
