-5.536522716283798218e-02
-8.423903957009315491e-03
4.656203463673591614e-02
1.114271059632301331e-01
1.946069486439228058e-02
3.344373404979705811e-02
-7.572813332080841064e-02
-5.302197113633155823e-02
6.451912224292755127e-02
7.796867936849594116e-02
4.246216639876365662e-02
-2.667315071448683739e-03
3.951237350702285767e-02
1.043350994586944580e-01
8.042466640472412109e-02
-1.521904207766056061e-02
1.537187676876783371e-02
4.589339718222618103e-02
4.208185151219367981e-02
-8.253566920757293701e-03
-7.851061411201953888e-03
-5.333470925688743591e-02
6.418018043041229248e-02
8.376851910725235939e-04
2.244879119098186493e-02
7.017607986927032471e-02
3.025965578854084015e-02
-1.116820424795150757e-02
-1.088495403528213501e-01
-7.683524489402770996e-02
-1.965337432920932770e-02
2.628120593726634979e-02
-6.191818416118621826e-02
1.184922922402620316e-02
4.206265881657600403e-02
-7.375345379114151001e-02
6.290556490421295166e-02
8.832553029060363770e-02
5.876488983631134033e-02
1.060653626918792725e-01
-1.157869100570678711e-01
8.894928544759750366e-02
3.746714815497398376e-02
1.064826995134353638e-01
1.073184162378311157e-01
1.165226288139820099e-02
-4.693082347512245178e-02
-4.028909280896186829e-02
2.844792604446411133e-02
2.298487164080142975e-02
-2.278004307299852371e-03
5.895669385790824890e-02
5.563057959079742432e-02
5.954141169786453247e-02
3.810547292232513428e-02
-4.588647186756134033e-02
-1.418201252818107605e-02
8.898066729307174683e-02
6.145593151450157166e-02
-1.009374558925628662e-01
5.950112827122211456e-03
-4.082587361335754395e-02
3.938304632902145386e-02
-2.206273935735225677e-02
-4.889031499624252319e-02
4.953354969620704651e-02
-6.255539506673812866e-02
2.092033252120018005e-02
-9.647779166698455811e-02
-3.578078374266624451e-02
-6.668175756931304932e-02
-7.214883808046579361e-03
-8.819920010864734650e-03
-1.624954119324684143e-02
1.074222549796104431e-01
-1.233010739088058472e-02
7.345282286405563354e-02
5.391695071011781693e-03
1.536961086094379425e-02
1.454581599682569504e-02
-8.019170910120010376e-02
6.730620563030242920e-02
-2.768294885754585266e-02
6.185943260788917542e-02
3.372454643249511719e-02
3.025547415018081665e-02
-6.431365758180618286e-02
-8.637089282274246216e-03
8.434482663869857788e-02
-2.215958572924137115e-02
5.480125918984413147e-02
9.096617251634597778e-02
9.450821578502655029e-02
3.346141800284385681e-02
7.262539863586425781e-02
-3.938349336385726929e-02
2.003958262503147125e-02
7.465588301420211792e-02
5.228679627180099487e-02
-6.984561681747436523e-02
2.850373275578022003e-03
-7.998666912317276001e-02
6.201360747218132019e-02
-3.763689473271369934e-02
3.603275865316390991e-03
6.222595646977424622e-02
4.941250383853912354e-02
6.241465359926223755e-02
-5.464108660817146301e-02
-1.992412842810153961e-02
-6.186551973223686218e-02
5.533485487103462219e-02
-8.496237918734550476e-03
7.404246926307678223e-02
-1.882654242217540741e-02
-7.359259761869907379e-03
4.243735224008560181e-02
4.751374945044517517e-02
2.689296938478946686e-02
-4.015633463859558105e-02
-9.692238271236419678e-02
3.467223048210144043e-02
1.095048636198043823e-01
3.756891936063766479e-02
8.981520682573318481e-02
4.499238729476928711e-02
-1.042966824024915695e-02
8.944586664438247681e-02
-2.580230310559272766e-02
2.857074327766895294e-02
5.539476498961448669e-02
3.192205354571342468e-02
5.044914782047271729e-02
6.782772392034530640e-02
3.770889714360237122e-02
3.586772829294204712e-02
9.163295850157737732e-03
4.939970746636390686e-02
8.900399506092071533e-02
5.878997221589088440e-02
2.909828908741474152e-03
-3.459743410348892212e-02
5.040968582034111023e-02
1.889675110578536987e-02
-1.955670304596424103e-02
1.415831744670867920e-01
4.730666801333427429e-02
8.004648238420486450e-02
-8.699519187211990356e-02
-7.585971057415008545e-02
-2.882625162601470947e-02
-1.166688837110996246e-02
-3.454362973570823669e-02
5.481623858213424683e-02
6.170108541846275330e-02
-2.733777277171611786e-02
1.163700893521308899e-01
4.563813656568527222e-02
4.357763752341270447e-02
3.779910132288932800e-02
-2.993701212108135223e-02
8.025491982698440552e-02
9.870488196611404419e-02
6.495177000761032104e-02
1.210371106863021851e-01
7.442383468151092529e-02
-1.317610144615173340e-01
1.485433802008628845e-02
3.025029972195625305e-02
6.945876032114028931e-02
-4.710412025451660156e-02
8.984611183404922485e-02
2.800188772380352020e-02
1.217115893959999084e-01
-4.017943050712347031e-03
4.957969114184379578e-02
2.803337015211582184e-02
1.032231226563453674e-01
1.632779650390148163e-02
-1.005149260163307190e-01
-2.578544802963733673e-02
-7.002554833889007568e-02
8.877998590469360352e-02
7.667890749871730804e-03
2.675192058086395264e-02
7.486176490783691406e-02
2.792600356042385101e-02
1.138857305049896240e-01
-1.982658728957176208e-02
2.762925066053867340e-02
-6.577827036380767822e-02
9.332673624157905579e-03
-5.243568494915962219e-02
5.947408452630043030e-02
6.697846204042434692e-02
-5.267007276415824890e-02
3.813963010907173157e-02
3.807296231389045715e-02
-4.766320064663887024e-02
6.873896718025207520e-02
-9.851311892271041870e-02
4.893605038523674011e-02
-1.979124918580055237e-02
-5.220874678343534470e-03
3.819045051932334900e-02
3.598861023783683777e-02
1.793997734785079956e-02
2.107538655400276184e-02
1.138545013964176178e-02
9.310775250196456909e-02
3.973473981022834778e-02
5.702969059348106384e-02
1.031649187207221985e-01
6.063399091362953186e-02
1.990446448326110840e-02
3.314062207937240601e-02
-3.167385235428810120e-02
1.307025700807571411e-01
2.599928900599479675e-02
2.251715585589408875e-02
7.670481503009796143e-02
-8.561892807483673096e-02
7.716651260852813721e-02
2.494276314973831177e-02
-5.781079828739166260e-02
9.462841600179672241e-02
2.723438851535320282e-02
1.413470208644866943e-01
-1.366278808563947678e-02
7.822068035602569580e-02
-1.404690146446228027e-01
1.783839054405689240e-02
-4.395728185772895813e-02
4.406902939081192017e-02
-1.517206802964210510e-02
2.134187147021293640e-03
4.033831506967544556e-02
2.145283110439777374e-02
-1.043190956115722656e-01
-3.557866811752319336e-02
-1.127953454852104187e-01
2.076692320406436920e-02
7.971519976854324341e-02
2.772011607885360718e-02
6.997908651828765869e-02
2.643669024109840393e-02
-7.172465324401855469e-02
-2.393708191812038422e-02
1.517908275127410889e-02
3.885132074356079102e-02
2.060151472687721252e-02
-4.264838062226772308e-03
3.310916572809219360e-02
1.357251554727554321e-01
6.455969810485839844e-02
6.575169414281845093e-02
-2.772911451756954193e-02
2.559073641896247864e-02
2.874786220490932465e-02
6.449426710605621338e-02
-2.361724711954593658e-02
-7.111587375402450562e-02
4.689842835068702698e-02
-1.723913289606571198e-02
-2.716385573148727417e-02
8.720827102661132812e-02
3.223301097750663757e-02
3.411114215850830078e-02
-7.340977340936660767e-02
-3.937147557735443115e-02
-4.838583245873451233e-02
5.946480110287666321e-02
-2.192638069391250610e-02
3.216086700558662415e-02
3.969874605536460876e-02
-7.725416868925094604e-02
4.954103380441665649e-02
1.031682267785072327e-01
4.745729267597198486e-02
-9.879483841359615326e-03
-4.466777294874191284e-02
-6.882355362176895142e-02
1.474610157310962677e-02
3.571122512221336365e-02
7.365551590919494629e-02
9.940072894096374512e-02
-1.096647828817367554e-01
8.441801765002310276e-04
-2.354210428893566132e-02
1.793859899044036865e-02
1.672845333814620972e-03
3.659373521804809570e-02
1.436289958655834198e-02
1.373993307352066040e-01
9.091812372207641602e-02
1.006617993116378784e-01
-5.386588722467422485e-02
-1.197483111172914505e-02
1.194552183151245117e-01
-6.777038425207138062e-02
-6.031923741102218628e-02
-1.207648217678070068e-01
1.001540198922157288e-01
5.874809622764587402e-02
-4.134165123105049133e-02
1.162316352128982544e-01
1.925161806866526604e-03
-8.556826971471309662e-03
-2.328420057892799377e-02
4.877684637904167175e-02
-3.707529231905937195e-02
2.629986964166164398e-02
-6.498870253562927246e-02
-9.114048443734645844e-03
4.409984871745109558e-02
-8.602517098188400269e-02
2.843519300222396851e-02
-7.790920324623584747e-03
-3.801719844341278076e-02
-2.652453817427158356e-02
-1.422362327575683594e-01
-5.992573499679565430e-02
-8.883450180292129517e-02
-1.611229265108704567e-03
8.241680264472961426e-02
6.689967215061187744e-02
-7.767202705144882202e-02
-5.941047519445419312e-02
-3.158416226506233215e-02
2.934963069856166840e-02
-1.677048578858375549e-02
6.672049313783645630e-02
1.077750846743583679e-01
1.210303232073783875e-01
5.802315473556518555e-02
9.104186296463012695e-02
3.877466171979904175e-02
1.313284337520599365e-01
6.083688139915466309e-02
4.886965826153755188e-02
4.337130114436149597e-02
-6.892492622137069702e-02
4.058877006173133850e-02
-3.031161054968833923e-02
-3.500851988792419434e-02
5.129802972078323364e-02
-6.247953698039054871e-02
8.394256234169006348e-02
-5.153489857912063599e-02
4.988814890384674072e-02
-8.744541555643081665e-02
1.017967313528060913e-01
4.374512936919927597e-03
3.501688316464424133e-02
1.527794450521469116e-02
-4.730002209544181824e-02
-3.655887395143508911e-02
3.391975909471511841e-02
1.065294444561004639e-02
-9.752882272005081177e-02
-1.247445773333311081e-02
-5.043899267911911011e-02
1.294020414352416992e-01
-2.913350425660610199e-02
2.563803270459175110e-02
5.849818140268325806e-02
-8.719733357429504395e-02
-3.998485952615737915e-02
-7.534735649824142456e-02
1.459591742604970932e-02
-3.064283728599548340e-02
6.314659118652343750e-02
1.217807978391647339e-01
8.981779962778091431e-02
3.216568753123283386e-02
1.342309117317199707e-01
-6.146876513957977295e-02
1.325755938887596130e-02
4.621395468711853027e-02
3.954055905342102051e-02
2.543006651103496552e-02
-3.796063363552093506e-02
1.225680559873580933e-01
-4.229263588786125183e-02
-3.015348687767982483e-03
8.793241530656814575e-02
5.075966194272041321e-02
-3.239247947931289673e-03
-9.880262613296508789e-02
-4.475977271795272827e-03
-4.239530488848686218e-02
7.992212474346160889e-02
-1.049471348524093628e-01
1.431220490485429764e-02
3.675169870257377625e-02
-2.364091202616691589e-02
7.969664037227630615e-02
5.191473662853240967e-02
5.039402469992637634e-02
3.270248696208000183e-02
-8.677814900875091553e-02
-4.195506125688552856e-02
-6.783225573599338531e-03
8.825553953647613525e-02
3.788534551858901978e-02
4.135097190737724304e-02
-1.367307901382446289e-01
-4.468962550163269043e-02
-5.559966340661048889e-02
8.363936096429824829e-03
-1.195746809244155884e-01
1.059212535619735718e-01
1.034887060523033142e-01
1.005067750811576843e-01
4.798187315464019775e-02
9.140323847532272339e-02
-1.001436263322830200e-01
2.722581848502159119e-02
6.084096431732177734e-02
2.400576323270797729e-02
4.959171637892723083e-02
-1.549946218729019165e-01
6.390393525362014771e-02
-2.185555733740329742e-02
-4.450736194849014282e-02
4.189828410744667053e-02
-3.594287484884262085e-02
-3.062248975038528442e-02
6.149732507765293121e-03
-2.505558729171752930e-02
-2.673500031232833862e-02
8.393862098455429077e-02
-3.180578723549842834e-02
5.244361609220504761e-02
-1.811975799500942230e-02
-8.689479529857635498e-02
5.378539487719535828e-02
5.090950801968574524e-02
1.973641663789749146e-02
4.185128491371870041e-03
-1.461143046617507935e-02
-3.468574211001396179e-02
1.537461020052433014e-02
6.798870116472244263e-02
3.682396840304136276e-03
1.305793761275708675e-03
-2.420276030898094177e-02
-5.908669531345367432e-02
-6.661969702690839767e-03
2.161619253456592560e-02
5.155506357550621033e-02
1.104469150304794312e-01
5.719717219471931458e-02
3.747198358178138733e-02
4.623420163989067078e-02
4.276342689990997314e-02
2.943446114659309387e-02
-8.332950063049793243e-03
-1.657883450388908386e-02
7.701482623815536499e-02
5.513706803321838379e-02
-8.728019148111343384e-02
1.265842765569686890e-01
-3.636879846453666687e-02
-2.179376780986785889e-02
1.092265322804450989e-01
-1.539967139251530170e-03
4.826447740197181702e-02
6.747358944267034531e-03
3.694630786776542664e-02
-1.177684590220451355e-01
1.087967380881309509e-01
-1.797478646039962769e-02
6.910385936498641968e-02
-4.459138214588165283e-02
-9.663104265928268433e-02
6.172534450888633728e-02
2.897097729146480560e-02
-1.467749197036027908e-02
-8.630774915218353271e-02
-6.813859939575195312e-02
1.701661199331283569e-02
1.263313591480255127e-01
3.136995062232017517e-02
6.896174699068069458e-02
5.598483979701995850e-02
-6.566410511732101440e-02
-1.542488299310207367e-02
-8.434207178652286530e-03
6.817777454853057861e-02
6.393841654062271118e-02
3.534083953127264977e-03
1.359554678201675415e-01
6.892051547765731812e-02
2.628332935273647308e-02
8.830954134464263916e-02
-6.346842646598815918e-02
-5.497085675597190857e-02
3.987204283475875854e-02
1.996425539255142212e-02
-2.887725830078125000e-03
-8.763123303651809692e-02
9.102114289999008179e-02
4.535590484738349915e-02
-8.745243772864341736e-03
8.226920664310455322e-02
-3.787046298384666443e-04
-6.250777840614318848e-02
1.275566685944795609e-02
-6.259497255086898804e-02
1.900936290621757507e-02
6.332351267337799072e-02
-5.917605012655258179e-02
5.156258121132850647e-02
3.970578685402870178e-02
1.580443605780601501e-02
3.576299175620079041e-02
4.340410605072975159e-02
1.219603419303894043e-02
6.955759972333908081e-02
-5.155068822205066681e-03
5.312210880219936371e-03
7.380170375108718872e-02
-1.727378368377685547e-02
7.793153822422027588e-02
8.209482580423355103e-02
-1.588124632835388184e-01
-7.522156834602355957e-02
-1.365333423018455505e-02
2.060999907553195953e-02
-4.836888238787651062e-02
6.113099306821823120e-02
9.588620811700820923e-02
6.110258027911186218e-02
1.112217903137207031e-01
5.514210835099220276e-02
-1.443546563386917114e-01
-3.060847707092761993e-02
7.740102708339691162e-02
1.703041605651378632e-02
-3.729517757892608643e-02
-4.322520643472671509e-02
7.562030106782913208e-02
1.053098496049642563e-02
-1.582305133342742920e-02
1.964466460049152374e-02
-5.293077230453491211e-02
-3.415229544043540955e-02
-3.009097650647163391e-02
1.511275395750999451e-02
-8.638803660869598389e-02
6.662956625223159790e-02
-1.129346787929534912e-01
5.934903025627136230e-02
4.675840586423873901e-02
1.334665715694427490e-02
3.333218023180961609e-02
7.687361538410186768e-02
-2.247074432671070099e-02
5.825430527329444885e-02
-7.836420834064483643e-02
2.104350551962852478e-02
2.120475657284259796e-02
3.021061234176158905e-02
-2.755676396191120148e-02
-2.116827480494976044e-02
-6.452686339616775513e-02
-4.733062535524368286e-02
7.111077010631561279e-02
4.660188406705856323e-02
9.151673875749111176e-03
8.775627613067626953e-02
9.525147080421447754e-02
6.210656091570854187e-02
7.930686324834823608e-02
1.498589385300874710e-02
-3.834623098373413086e-02
-7.694766856729984283e-03
2.995651587843894958e-02
-6.412258953787386417e-04
6.350567936897277832e-02
-4.465135931968688965e-02
5.395312234759330750e-02
1.968836411833763123e-02
-2.478371560573577881e-02
7.470341026782989502e-02
1.565605588257312775e-02
-1.811743527650833130e-02
-2.274424582719802856e-02
4.626363515853881836e-02
-2.805911470204591751e-03
1.276661455631256104e-01
-1.236138865351676941e-01
2.392588555812835693e-02
-1.950401067733764648e-02
-3.751953318715095520e-02
2.747345156967639923e-02
8.253873884677886963e-02
-6.699107121676206589e-03
-3.144147619605064392e-02
-3.797337785363197327e-02
5.652278289198875427e-02
7.286901026964187622e-02
8.920556306838989258e-02
7.447893917560577393e-02
1.486761588603258133e-02
-4.771280288696289062e-02
2.601157687604427338e-02
8.771773427724838257e-02
1.137492340058088303e-02
6.130311265587806702e-02
3.691799566149711609e-02
1.095239594578742981e-01
4.456913098692893982e-02
1.501499582082033157e-02
7.656185422092676163e-03
3.589728847146034241e-02
9.546668082475662231e-02
2.752155810594558716e-02
-1.576644740998744965e-02
-1.072902791202068329e-02
3.011373057961463928e-02
6.882475316524505615e-02
2.890167012810707092e-02
7.863700389862060547e-02
2.624276094138622284e-02
-6.027435883879661560e-03
3.363568102940917015e-03
-1.214893981814384460e-01
-3.699738904833793640e-02
-5.896260216832160950e-02
4.813453927636146545e-02
-3.557552769780158997e-02
-1.694576442241668701e-02
2.474427409470081329e-02
-5.919189751148223877e-02
4.314290732145309448e-02
3.793823719024658203e-02
4.089321941137313843e-02
4.858783632516860962e-02
-4.052655398845672607e-02
1.032341048121452332e-01
-1.273909024894237518e-02
6.955369561910629272e-02
9.589762985706329346e-02
3.878311440348625183e-02
-8.823521435260772705e-02
5.131923826411366463e-04
5.737522989511489868e-02
5.390771478414535522e-02
2.129341941326856613e-03
-2.253223210573196411e-02
7.037644088268280029e-02
9.727972000837326050e-02
6.739614158868789673e-02
-1.980413310229778290e-02
-5.872087925672531128e-02
6.119678169488906860e-02
1.055477634072303772e-01
-9.140692651271820068e-02
-8.884697407484054565e-02
-1.192362755537033081e-01
1.012327056378126144e-02
3.385830298066139221e-02
2.294846251606941223e-02
8.329877257347106934e-02
-2.179589495062828064e-02
4.157027974724769592e-02
-8.541590720415115356e-02
-3.288844227790832520e-02
-2.504146285355091095e-02
5.017618462443351746e-02
-9.640505909919738770e-02
-3.140680491924285889e-03
1.182369366288185120e-01
-6.161199882626533508e-02
3.980936855077743530e-02
2.369104139506816864e-02
1.692011952400207520e-02
4.604667052626609802e-02
-8.684253692626953125e-02
6.283146142959594727e-02
-7.589107006788253784e-02
1.142954360693693161e-02
1.009643301367759705e-01
-3.712679818272590637e-02
3.334174677729606628e-02
5.687863007187843323e-02
4.386597871780395508e-02
5.537984892725944519e-02
8.924103528261184692e-02
1.266845762729644775e-01
5.041946470737457275e-02
3.463805839419364929e-02
5.810775235295295715e-02
5.037815496325492859e-02
3.549343720078468323e-02
1.106108352541923523e-01
-1.751785725355148315e-02
1.882279664278030396e-02
5.922007188200950623e-02
-2.409928664565086365e-02
1.109926030039787292e-01
-3.756890364456921816e-04
-1.847775280475616455e-02
5.185686424374580383e-02
3.487810865044593811e-02
7.000510394573211670e-02
-1.980162691324949265e-03
2.650256827473640442e-02
-4.569226503372192383e-02
5.668501183390617371e-02
-4.478185251355171204e-02
4.118240624666213989e-02
-5.446050781756639481e-03
-7.546596974134445190e-02
6.477877497673034668e-02
4.065530002117156982e-02
-1.507681887596845627e-02
-6.133542954921722412e-02
-1.055076122283935547e-01
2.771157771348953247e-02
5.158139392733573914e-02
3.613789379596710205e-02
6.409939378499984741e-02
1.073257997632026672e-01
-4.958877712488174438e-02
5.783715471625328064e-02
5.487773194909095764e-02
5.292948707938194275e-02
6.789431720972061157e-02
5.004124715924263000e-02
1.136580035090446472e-01
9.221669286489486694e-02
1.116608306765556335e-01
3.381418436765670776e-02
5.173838511109352112e-02
9.055700153112411499e-02
4.309954494237899780e-02
4.964018985629081726e-02
-2.337007410824298859e-02
-2.942498959600925446e-02
9.962616860866546631e-02
5.359928309917449951e-02
-1.369386445730924606e-02
9.272933751344680786e-02
1.438532918691635132e-01
3.200588002800941467e-02
-2.742952667176723480e-02
-7.622490823268890381e-02
-4.722211882472038269e-02
8.344969898462295532e-02
-4.139566048979759216e-02
5.739671178162097931e-03
5.021296441555023193e-02
-7.956328988075256348e-02
7.166453450918197632e-02
7.511056028306484222e-04
5.018222332000732422e-02
4.901909455657005310e-02
-7.766041904687881470e-02
2.264680154621601105e-02
7.834591716527938843e-02
7.623165100812911987e-02
7.791393995285034180e-02
5.881798639893531799e-02
-6.949391216039657593e-02
1.260986831039190292e-02
8.919211477041244507e-02
3.892374411225318909e-02
-2.862237766385078430e-02
-1.134379860013723373e-02
7.577806711196899414e-02
8.204680681228637695e-02
4.202664643526077271e-02
-9.967426769435405731e-03
-3.014836087822914124e-02
9.171674400568008423e-02
1.379784289747476578e-02
-1.345547940582036972e-02
-7.811756338924169540e-03
-4.635459184646606445e-02
2.992236614227294922e-02
4.701329395174980164e-02
-6.797501444816589355e-02
1.162285134196281433e-01
5.869007669389247894e-03
1.454517245292663574e-01
-1.090922877192497253e-01
-7.129543274641036987e-02
-7.834191620349884033e-02
1.068386733531951904e-01
-6.672287359833717346e-03
9.464637190103530884e-02
7.828986644744873047e-02
-3.506677225232124329e-02
4.858416318893432617e-02
6.156108528375625610e-02
-4.498072341084480286e-02
2.652301639318466187e-02
-1.205023527145385742e-01
1.224244385957717896e-02
-2.212511934340000153e-02
5.313641205430030823e-02
1.239141896367073059e-01
3.882031887769699097e-02
4.787792265415191650e-02
3.145483508706092834e-02
9.335467964410781860e-02
-2.549784258008003235e-02
3.768385574221611023e-02
1.227238550782203674e-01
8.445185422897338867e-02
2.532816305756568909e-02
3.710146993398666382e-02
7.773642241954803467e-02
3.804233670234680176e-02
3.264362365007400513e-02
9.041388519108295441e-03
-1.225815806537866592e-02
-1.390264253132045269e-03
-1.299189031124114990e-01
5.720197781920433044e-02
-3.988239448517560959e-03
1.585282012820243835e-02
4.696458205580711365e-02
-4.748845845460891724e-02
7.565668970346450806e-02
-2.305364049971103668e-02
5.275479052215814590e-04
-1.278951615095138550e-01
9.297126531600952148e-02
-2.978640981018543243e-02
1.317625194787979126e-01
-3.523787111043930054e-02
-4.294804111123085022e-02
9.224678575992584229e-02
-2.012144774198532104e-02
-6.878332793712615967e-02
-9.224718064069747925e-02
-7.905326038599014282e-02
1.102019450627267361e-03
3.556522727012634277e-02
2.476027421653270721e-02
7.180838286876678467e-02
1.124783232808113098e-01
-1.288233101367950439e-01
-7.470706943422555923e-03
2.592861838638782501e-02
7.362017035484313965e-02
1.323889940977096558e-02
6.736764335073530674e-04
5.039982870221138000e-02
7.963322103023529053e-02
5.743071436882019043e-02
1.201156303286552429e-01
7.822075858712196350e-03
1.503854524344205856e-02
4.130500368773937225e-03
9.458646923303604126e-02
5.713088437914848328e-03
-4.405929893255233765e-02
1.326570212841033936e-01
4.810650274157524109e-02
-2.640882506966590881e-02
6.600508093833923340e-02
6.794094294309616089e-02
8.594334125518798828e-02
-5.042163282632827759e-02
-1.125333532691001892e-01
-4.974042996764183044e-02
1.059102490544319153e-01
-1.101973280310630798e-01
3.439764678478240967e-02
-1.401757262647151947e-02
-4.953231662511825562e-02
9.407091140747070312e-02
4.924740176647901535e-03
-3.474422544240951538e-02
3.974509611725807190e-02
-9.970062226057052612e-02
1.503157801926136017e-02
5.871524661779403687e-02
3.793605789542198181e-02
1.132330447435379028e-01
1.168503984808921814e-01
-5.755198374390602112e-02
1.419252529740333557e-02
5.158853530883789062e-02
2.853943780064582825e-02
-1.111873760819435120e-01
4.876052215695381165e-02
5.688326060771942139e-02
4.276943579316139221e-02
4.598485305905342102e-02
5.862283334136009216e-02
-3.327777981758117676e-02
6.215634942054748535e-02
4.383848980069160461e-02
-1.775706745684146881e-02
-3.547291457653045654e-02
-4.184630140662193298e-02
5.755210667848587036e-02
8.667695522308349609e-02
-7.427045609802007675e-03
5.263718217611312866e-02
1.220613811165094376e-02
1.228579804301261902e-01
-5.833365023136138916e-02
5.404414236545562744e-02
-8.898911625146865845e-02
1.172687951475381851e-02
-6.446486711502075195e-02
1.062609255313873291e-01
-1.464376319199800491e-02
-1.703204773366451263e-02
-8.115197415463626385e-04
5.021018534898757935e-02
-4.229053854942321777e-02
3.770316764712333679e-02
-8.634836226701736450e-02
1.415695878677070141e-03
-7.536611706018447876e-02
6.078993529081344604e-02
4.533684626221656799e-02
-2.844693697988986969e-02
-8.029727265238761902e-03
1.973651535809040070e-02
4.698343202471733093e-02
4.498700797557830811e-02
7.712423056364059448e-02
5.058825388550758362e-02
7.325053215026855469e-02
1.090307608246803284e-01
1.726048439741134644e-02
7.781454920768737793e-02
2.486807852983474731e-02
8.981329947710037231e-02
3.213115781545639038e-02
1.396465022116899490e-02
9.516418725252151489e-02
-7.882338762283325195e-02
1.249923557043075562e-01
2.284049615263938904e-02
-9.469615668058395386e-02
1.377353519201278687e-01
-1.814405992627143860e-02
5.413433164358139038e-02
7.341479882597923279e-03
1.605462841689586639e-02
-2.384069561958312988e-02
3.260425478219985962e-02
-5.038630962371826172e-02
1.284856535494327545e-02
1.460647489875555038e-02
-2.301094122231006622e-02
2.422289364039897919e-02
5.466912686824798584e-02
-1.066809222102165222e-01
-6.245187669992446899e-02
9.533165954053401947e-03
-6.681424379348754883e-02
9.860714524984359741e-02
7.065109908580780029e-02
1.511245965957641602e-02
4.274460673332214355e-02
-1.069014891982078552e-01
-1.939650624990463257e-02
2.822757139801979065e-02
6.246835365891456604e-02
-1.170556992292404175e-02
4.440025985240936279e-02
7.004763931035995483e-02
1.142300069332122803e-01
2.417881414294242859e-02
1.529888212680816650e-01
3.419625340029597282e-03
-3.890874236822128296e-02
4.327338933944702148e-02
1.018353998661041260e-01
-2.915508113801479340e-02
-6.980773061513900757e-02
1.365658938884735107e-01
-3.614062443375587463e-02
4.334741458296775818e-02
1.129998490214347839e-01
-1.771551929414272308e-02
1.503938343375921249e-02
-4.803216457366943359e-02
-4.089350253343582153e-02
-5.622522905468940735e-02
6.855190731585025787e-03
-7.585560530424118042e-02
2.299191243946552277e-02
8.086316287517547607e-02
-6.680185347795486450e-02
4.581467807292938232e-02
8.341239392757415771e-02
1.904641650617122650e-02
7.494281977415084839e-02
-6.023844704031944275e-02
-4.173100460320711136e-03
1.068257540464401245e-01
1.613104529678821564e-02
-3.276195004582405090e-02
1.123531833291053772e-01
-3.451627492904663086e-02
-6.806395947933197021e-02
2.638529799878597260e-02
1.246513612568378448e-02
-6.301467120647430420e-02
9.574375301599502563e-02
6.135379523038864136e-02
8.848652988672256470e-02
3.655928745865821838e-02
8.230105042457580566e-02
-4.734836146235466003e-02
2.243536151945590973e-02
1.543260738253593445e-02
4.907991364598274231e-02
-4.477845039218664169e-03
-3.587853163480758667e-02
8.638159930706024170e-02
4.010093212127685547e-02
-8.413919247686862946e-03
4.003774374723434448e-02
-8.620674908161163330e-02
8.044593781232833862e-02
-5.192876607179641724e-02
6.066213920712471008e-02
-9.056121855974197388e-02
2.048218809068202972e-02
-8.296895027160644531e-02
5.910011380910873413e-02
-1.150856446474790573e-02
-6.958680599927902222e-02
9.420791268348693848e-02
4.899371042847633362e-02
1.938070729374885559e-02
5.761526152491569519e-02
-4.515815898776054382e-02
-7.289651781320571899e-02
-4.616835713386535645e-02
8.640381507575511932e-03
-3.410553187131881714e-02
1.868643052875995636e-02
-8.172693662345409393e-03
8.431378751993179321e-03
5.060821026563644409e-02
-9.821081534028053284e-03
1.028346735984086990e-02
8.369226753711700439e-02
7.226859033107757568e-02
3.253362327814102173e-02
7.034207880496978760e-02
5.037208274006843567e-02
-7.188194990158081055e-02
-1.406004000455141068e-02
-7.122606504708528519e-03
4.322095587849617004e-02
-2.819047681987285614e-02
-5.929008871316909790e-02
7.531915605068206787e-02
-3.019692376255989075e-02
-7.591356337070465088e-02
1.110189557075500488e-01
-6.477353628724813461e-03
1.119618769735097885e-02
-1.864836551249027252e-02
4.612859338521957397e-02
-8.890195190906524658e-02
8.639623969793319702e-02
-1.258544507436454296e-03
1.693318970501422882e-02
-5.157233402132987976e-02
-4.866511374711990356e-02
3.233399614691734314e-02
7.189372554421424866e-03
-7.188336551189422607e-02
-6.871882081031799316e-02
-3.062685206532478333e-02
-3.320729359984397888e-02
5.412414669990539551e-02
-6.405737251043319702e-03
5.233064666390419006e-02
1.683709770441055298e-02
-7.318145036697387695e-02
-9.387709200382232666e-02
-2.654037438333034515e-02
1.193376332521438599e-01
3.543944656848907471e-02
3.211636096239089966e-02
7.672992348670959473e-02
2.919931523501873016e-02
5.156712979078292847e-02
1.270316243171691895e-01
-2.440224215388298035e-02
-3.879751637578010559e-02
3.008505329489707947e-02
7.222571969032287598e-02
6.806397438049316406e-02
-2.128970995545387268e-02
6.087308749556541443e-02
-4.266248643398284912e-02
-6.420316174626350403e-03
4.705380648374557495e-02
5.916173756122589111e-02
-1.526373066008090973e-02
-2.000899612903594971e-02
-2.593570621684193611e-03
-8.855157345533370972e-02
9.949906915426254272e-02
-5.880980193614959717e-02
-1.335513126105070114e-02
3.604101017117500305e-02
-8.423801511526107788e-02
4.541054368019104004e-02
5.701523274183273315e-02
8.746317774057388306e-02
7.970635779201984406e-03
-6.136650219559669495e-03
3.257657634094357491e-03
1.136879995465278625e-01
2.816120162606239319e-02
-4.003994911909103394e-02
-1.380303595215082169e-02
-1.018812060356140137e-01
-1.851101219654083252e-02
-5.190292000770568848e-02
1.705916412174701691e-02
-1.377573795616626740e-02
1.083740517497062683e-01
1.132906302809715271e-01
4.641032963991165161e-02
1.798599213361740112e-02
1.166845113039016724e-01
-9.729274362325668335e-02
-4.050023853778839111e-02
2.899827668443322182e-03
6.292666774243116379e-03
3.175144270062446594e-02
-1.165985018014907837e-01
8.606757968664169312e-02
-9.774577803909778595e-03
-5.797895416617393494e-02
8.069670200347900391e-02
-3.377095237374305725e-02
3.304943814873695374e-02
-1.817067712545394897e-02
1.787851750850677490e-02
-6.307599693536758423e-02
1.170595288276672363e-01
-1.376575697213411331e-02
-3.171571530401706696e-03
7.540470361709594727e-02
1.893896795809268951e-02
5.304064229130744934e-02
5.929188802838325500e-03
2.965960279107093811e-02
8.239444345235824585e-02
3.676976263523101807e-02
-1.367007102817296982e-02
-4.025155678391456604e-02
5.219766497611999512e-02
-1.717943325638771057e-02
-2.711975947022438049e-02
-2.130374312400817871e-02
-9.402957558631896973e-02
8.606212586164474487e-02
6.260100752115249634e-02
1.125720515847206116e-02
7.181461155414581299e-02
7.492253929376602173e-02
1.010296940803527832e-01
7.944756001234054565e-02
1.674038916826248169e-02
-6.595968455076217651e-02
6.548806279897689819e-02
-5.828826222568750381e-03
6.984833627939224243e-02
7.842167466878890991e-02
-1.676708012819290161e-01
1.089945882558822632e-01
3.724475204944610596e-02
-4.833852872252464294e-02
5.441826209425926208e-02
-1.365774217993021011e-02
5.201596021652221680e-02
3.283295407891273499e-02
4.473629966378211975e-02
-3.124218620359897614e-02
8.650235831737518311e-02
-4.390127211809158325e-02
3.193028643727302551e-02
-2.053431794047355652e-02
-3.509416058659553528e-02
1.950730010867118835e-02
1.136249769479036331e-02
-8.983378112316131592e-02
-3.932888060808181763e-02
-6.978214532136917114e-02
3.835540497675538063e-03
5.001344531774520874e-02
4.749000817537307739e-02
1.212588101625442505e-01
-2.661436051130294800e-02
2.962773665785789490e-02
-3.969663288444280624e-03
5.829439684748649597e-02
8.755158632993698120e-02
-1.490360591560602188e-02
4.792530089616775513e-02
1.037977412343025208e-01
8.902776986360549927e-02
6.074442341923713684e-02
2.074909955263137817e-02
8.758680522441864014e-02
-3.225913736969232559e-03
-3.952844999730587006e-03
-3.639263659715652466e-02
1.772586628794670105e-02
1.244148984551429749e-02
3.612383082509040833e-02
1.119032222777605057e-02
3.341538086533546448e-02
1.311666220426559448e-01
1.010370254516601562e-01
1.005444079637527466e-01
-9.414231032133102417e-02
-8.279430679976940155e-03
-1.302144955843687057e-02
8.965756744146347046e-02
-7.794651389122009277e-02
1.359664741903543472e-02
9.836962074041366577e-02
-7.541531324386596680e-02
6.545208394527435303e-02
3.855507075786590576e-02
4.366696625947952271e-02
7.352387160062789917e-02
-1.513477996923029423e-03
5.923317000269889832e-02
-1.031058561056852341e-02
7.712642848491668701e-02
1.074063405394554138e-01
3.948406502604484558e-02
-2.054912783205509186e-02
1.894344761967658997e-02
2.858129516243934631e-02
1.061977595090866089e-01
1.025095488876104355e-02
6.334879435598850250e-03
7.209237664937973022e-02
5.059920996427536011e-02
3.724547475576400757e-02
1.094122696667909622e-02
2.273455029353499413e-03
1.103829145431518555e-01
4.109010472893714905e-02
-6.213983520865440369e-02
-2.737859822809696198e-02
-2.479411661624908447e-02
-1.027532387524843216e-02
7.745575904846191406e-02
-1.007417589426040649e-02
5.274574831128120422e-02
-4.145676642656326294e-02
6.681675463914871216e-02
-5.168228968977928162e-02
-7.024955470114946365e-03
-9.269788116216659546e-02
1.590015366673469543e-02
-1.707673422060906887e-03
2.899139933288097382e-02
7.253694534301757812e-02
-8.093992620706558228e-02
5.020256340503692627e-02
-2.675547823309898376e-02
1.776398904621601105e-02
4.245371744036674500e-02
-4.834137111902236938e-02
6.929917144589126110e-04
-6.452257186174392700e-02
5.744250863790512085e-02
3.632457554340362549e-02
-4.027186706662178040e-02
-1.995520107448101044e-02
5.830134265124797821e-03
5.878822505474090576e-02
9.500580281019210815e-02
2.243017777800559998e-02
1.297622621059417725e-01
1.238974332809448242e-01
3.255774825811386108e-02
6.498524546623229980e-02
9.187426418066024780e-03
1.051252242177724838e-02
9.077271819114685059e-02
1.756209321320056915e-02
-5.103856790810823441e-03
2.512226253747940063e-02
-1.313895434141159058e-01
1.030691638588905334e-01
-5.251455307006835938e-02
1.463134959340095520e-02
4.753238335251808167e-02
6.100716814398765564e-02
9.547195583581924438e-02
-7.419393211603164673e-02
3.185063600540161133e-02
-6.418564170598983765e-02
-6.430441513657569885e-03
-5.802463367581367493e-02
7.183733582496643066e-02
-6.191675364971160889e-02
-5.137051641941070557e-02
1.860315352678298950e-02
-1.917038112878799438e-02
-4.269417375326156616e-02
-6.606663018465042114e-02
-2.423070371150970459e-02
-3.257210180163383484e-02
9.583757817745208740e-02
7.752297818660736084e-02
8.348546922206878662e-02
4.657284589484333992e-04
1.197911519557237625e-02
2.803175523877143860e-02
-3.442623466253280640e-02
6.291419267654418945e-02
5.077581852674484253e-02
2.015483938157558441e-02
3.408032283186912537e-02
8.205017447471618652e-02
3.134616836905479431e-02
5.100173503160476685e-02
7.897923141717910767e-02
6.559173110872507095e-03
3.376595850568264723e-04
-4.231638833880424500e-02
-1.998100802302360535e-02
-7.636178284883499146e-02
3.083853982388973236e-02
9.994158893823623657e-02
2.538206055760383606e-02
4.036447778344154358e-02
1.202721521258354187e-01
4.042807500809431076e-03
-5.140263587236404419e-02
-4.566440358757972717e-02
-1.122030988335609436e-01
1.288480013608932495e-01
-2.196632698178291321e-02
2.857491746544837952e-02
2.619150653481483459e-02
-1.667926274240016937e-02
1.027914881706237793e-01
9.374026954174041748e-02
4.509539157152175903e-02
7.772470265626907349e-02
-6.751717627048492432e-02
4.011842608451843262e-02
1.420918665826320648e-02
6.425620615482330322e-02
9.470134228467941284e-02
2.376518398523330688e-02
-2.001741342246532440e-02
-1.247075269930064678e-03
4.761239048093557358e-03
2.656896971166133881e-02
-7.140612602233886719e-02
7.244740426540374756e-02
1.572091504931449890e-02
6.196529418230056763e-02
3.779963403940200806e-02
2.406457811594009399e-02
-3.497713804244995117e-02
1.023426279425621033e-01
-1.982216909527778625e-02
-1.061573997139930725e-01
-1.088991239666938782e-01
-6.287328898906707764e-02
3.370599076151847839e-02
4.622940719127655029e-02
-2.335484139621257782e-02
9.107551723718643188e-02
-2.604604698717594147e-02
9.587261080741882324e-02
-5.426992103457450867e-02
-3.229169547557830811e-02
-6.291663646697998047e-02
9.937865287065505981e-02
8.759798482060432434e-03
1.205710768699645996e-01
3.961154073476791382e-02
-1.089704036712646484e-01
6.904126703739166260e-02
-4.448838904500007629e-02
3.187284106388688087e-03
4.564239457249641418e-02
-6.525680422782897949e-02
1.777263730764389038e-02
-1.971392706036567688e-02
5.726129189133644104e-02
2.256194129586219788e-02
-8.556167036294937134e-02
4.051817953586578369e-02
-1.623980142176151276e-02
1.733961887657642365e-02
4.565314948558807373e-02
3.702705353498458862e-02
1.002047806978225708e-01
4.954813048243522644e-02
7.665474712848663330e-02
3.996837884187698364e-02
8.306717872619628906e-02
1.944079995155334473e-02
1.144463270902633667e-01
2.065899549052119255e-03
-4.753335565328598022e-02
-2.360500581562519073e-02
-1.295888721942901611e-01
1.095693707466125488e-01
4.471703991293907166e-02
1.995843835175037384e-03
1.187004055827856064e-02
2.079252153635025024e-02
8.775122463703155518e-02
-3.570166230201721191e-02
2.100523561239242554e-02
-5.138993635773658752e-02
1.174345612525939941e-01
-3.851389139890670776e-02
5.377451330423355103e-02
-1.371083967387676239e-02
-1.873948727734386921e-03
2.009233867283910513e-04
6.033128011040389538e-04
-2.934669703245162964e-02
2.613551728427410126e-02
-5.911824479699134827e-02
-7.494891062378883362e-03
7.167315483093261719e-02
1.397228389978408813e-01
4.508319497108459473e-02
3.947695251554250717e-03
-4.716757312417030334e-02
-6.886688619852066040e-02
-1.233220193535089493e-02
1.409059762954711914e-01
-1.073454879224300385e-02
9.111593663692474365e-02
-2.741715684533119202e-02
8.710060268640518188e-02
3.129458799958229065e-02
6.723814457654953003e-02
3.956002369523048401e-02
-1.987481117248535156e-02
2.904711663722991943e-02
5.021643638610839844e-02
-4.565551504492759705e-02
-7.082023471593856812e-02
1.010156124830245972e-01
6.273277103900909424e-02
-2.609311603009700775e-02
5.837351828813552856e-02
8.429992944002151489e-02
6.021979451179504395e-02
-4.442976042628288269e-02
-4.285228624939918518e-02
-8.919356390833854675e-03
6.231198087334632874e-02
-3.585516661405563354e-02
5.340619385242462158e-02
-5.177295301109552383e-03
-3.148062899708747864e-02
8.740050345659255981e-02
2.688382938504219055e-02
4.494547098875045776e-02
6.792040169239044189e-02
-4.222679138183593750e-02
-7.250201702117919922e-02
2.956567332148551941e-02
3.071824088692665100e-02
9.199365973472595215e-02
-1.699139829725027084e-03
-6.424633413553237915e-02
-5.600371584296226501e-02
2.528956159949302673e-02
5.865543708205223083e-02
-6.684472411870956421e-02
4.251717776060104370e-02
2.304261922836303711e-02
1.053076460957527161e-01
6.836545467376708984e-02
8.763990551233291626e-02
-2.583446726202964783e-02
7.999533414840698242e-02
-4.616530612111091614e-02
-4.736836068332195282e-03
-8.745213970541954041e-03
-9.075087308883666992e-02
6.223376095294952393e-02
6.398288160562515259e-02
-2.244334109127521515e-02
1.068631634116172791e-01
-8.292050100862979889e-03
2.403074689209461212e-02
-2.626888640224933624e-02
-1.751809380948543549e-03
-9.858828037977218628e-02
9.308224171400070190e-02
-1.638304069638252258e-02
4.465365782380104065e-02
8.541607856750488281e-02
-1.162457987666130066e-01
8.790487051010131836e-02
-3.658482804894447327e-02
7.057897280901670456e-03
6.483290344476699829e-02
-6.197997555136680603e-02
-3.703352808952331543e-02
-7.454056292772293091e-02
1.250430196523666382e-02
9.389336919412016869e-04
-2.510397881269454956e-02
1.078743673861026764e-02
-7.192035764455795288e-02
4.355733841657638550e-02
2.276078611612319946e-02
3.737107291817665100e-02
5.246137455105781555e-02
2.009322866797447205e-02
1.498677209019660950e-02
4.879937320947647095e-02
6.911372393369674683e-02
3.686477616429328918e-02
6.957922875881195068e-02
1.412788638845086098e-03
1.016957219690084457e-02
1.331105455756187439e-02
-2.741334587335586548e-02
8.758825808763504028e-02
5.261484161019325256e-02
-1.601225882768630981e-02
6.577722728252410889e-02
-2.925666980445384979e-02
1.150356307625770569e-01
-6.802132725715637207e-02
-2.912369184195995331e-02
-6.582333892583847046e-02
3.310426324605941772e-02
-8.384469151496887207e-02
1.154040619730949402e-01
-1.315035670995712280e-02
-1.484467089176177979e-02
5.413987860083580017e-02
5.324989091604948044e-03
-3.803130984306335449e-02
-8.129841648042201996e-03
3.656924515962600708e-02
-7.606414705514907837e-02
7.998958975076675415e-02
6.631673127412796021e-02
7.999380677938461304e-02
3.966254740953445435e-02
-1.937430538237094879e-02
-1.793918199837207794e-02
4.517804831266403198e-02
1.179564278572797775e-02
-1.238015294075012207e-02
5.522466450929641724e-02
1.260382831096649170e-01
3.718188032507896423e-02
5.568214505910873413e-02
8.865907043218612671e-02
2.672712318599224091e-03
-5.601403489708900452e-02
-4.282771050930023193e-02
7.852748967707157135e-03
-1.500172726809978485e-02
-1.005967855453491211e-01
9.420707076787948608e-02
5.049427226185798645e-02
-1.426823250949382782e-02
7.206159085035324097e-02
7.093285024166107178e-02
3.575715422630310059e-02
-5.493550002574920654e-02
-2.158620208501815796e-02
-8.871863246895372868e-04
3.698497265577316284e-02
-6.327007710933685303e-02
-8.810533210635185242e-03
6.184558197855949402e-02
-2.250996418297290802e-02
9.600636363029479980e-02
3.309667110443115234e-02
7.133118063211441040e-02
3.151689097285270691e-02
3.852684795856475830e-02
-2.635300531983375549e-02
8.269505202770233154e-02
5.105549097061157227e-02
2.034050785005092621e-02
3.398681432008743286e-02
9.522858075797557831e-03
-6.157876178622245789e-02
1.685206778347492218e-02
5.157779529690742493e-02
-9.516642242670059204e-02
2.486511133611202240e-02
1.040601879358291626e-01
2.011006884276866913e-02
7.385342568159103394e-02
1.352692544460296631e-01
-1.855082251131534576e-02
-6.467662751674652100e-02
-4.734104126691818237e-02
3.509256616234779358e-02
-6.313706189393997192e-02
-1.113487854599952698e-01
3.607059270143508911e-02
9.476529806852340698e-02
4.326795693486928940e-03
8.998712152242660522e-02
1.419469248503446579e-03
-2.519306959584355354e-03
-4.656293615698814392e-02
-3.360316529870033264e-02
-7.144974172115325928e-02
6.686431169509887695e-02
-1.045199781656265259e-01
6.716482341289520264e-02
6.809335201978683472e-02
-7.424517720937728882e-02
2.089352719485759735e-02
2.389419823884963989e-02
-6.009204313158988953e-02
6.402615457773208618e-02
1.699602790176868439e-02
-6.921430677175521851e-02
4.296072199940681458e-02
2.477989718317985535e-02
-3.835547249764204025e-03
1.425479911267757416e-02
-1.039840048179030418e-03
-6.153588369488716125e-02
4.003570601344108582e-02
7.394396513700485229e-02
-2.529069222509860992e-02
1.424787938594818115e-01
2.968662604689598083e-02
-1.904977113008499146e-02
1.826695352792739868e-02
7.195086777210235596e-02
-2.430497109889984131e-02
3.067840449512004852e-02
5.465687252581119537e-03
4.226318001747131348e-02
3.628094121813774109e-02
-3.249348700046539307e-02
1.068994849920272827e-01
5.141954869031906128e-02
-1.964465947821736336e-03
8.268580585718154907e-02
-2.130784466862678528e-02
5.542673170566558838e-02
-3.783944994211196899e-02
2.432122640311717987e-02
-4.642653465270996094e-02
6.905039399862289429e-02
-9.799242764711380005e-02
6.217723712325096130e-02
-5.264571681618690491e-02
-1.113733928650617599e-02
-2.043069899082183838e-02
-3.159328177571296692e-02
-8.535439521074295044e-02
-7.011368125677108765e-02
2.496517635881900787e-02
-1.108802109956741333e-01
4.594275355339050293e-02
1.182600576430559158e-02
1.526241935789585114e-02
4.904583096504211426e-02
-3.794753178954124451e-02
-8.508995920419692993e-02
-5.045243725180625916e-02
1.106934323906898499e-01
-5.841819569468498230e-03
5.684367939829826355e-02
5.413302034139633179e-02
7.776902616024017334e-02
6.608320027589797974e-02
8.907977491617202759e-02
-2.508983388543128967e-02
-5.318459123373031616e-02
-4.894836619496345520e-02
7.211808860301971436e-02
1.686866581439971924e-02
-1.113930866122245789e-01
1.088989526033401489e-01
6.759815663099288940e-02
-6.049157679080963135e-02
7.669674605131149292e-02
5.743345245718955994e-02
2.903333306312561035e-02
6.616431288421154022e-03
-2.431327477097511292e-02
-9.766038507223129272e-02
5.760451778769493103e-02
-8.048412948846817017e-02
1.266767177730798721e-02
3.113050945103168488e-02
-3.161004930734634399e-02
1.109838411211967468e-01
4.295323789119720459e-02
1.822138391435146332e-02
9.917486459016799927e-02
4.712520539760589600e-02
1.691947877407073975e-02
5.845649167895317078e-02
4.848751798272132874e-02
-3.604950150474905968e-03
-5.013913661241531372e-02
-1.231884807348251343e-01
-5.989043042063713074e-03
2.808820270001888275e-02
8.101002126932144165e-02
-1.278132200241088867e-01
4.398409277200698853e-02
7.735596597194671631e-02
7.769915461540222168e-02
-1.291252789087593555e-03
5.456265807151794434e-02
-1.334594190120697021e-01
2.687468938529491425e-02
-3.528675436973571777e-02
6.710405647754669189e-02
3.393935039639472961e-02
-1.545389294624328613e-01
7.444424927234649658e-02
-2.588022872805595398e-02
-1.311992388218641281e-02
5.997581034898757935e-02
-9.481237828731536865e-02
8.047238737344741821e-02
-1.711261272430419922e-02
-1.933714561164379120e-02
-9.945452958345413208e-02
7.910636067390441895e-02
-6.330110877752304077e-02
1.314770313911139965e-03
6.216924265027046204e-02
6.848931778222322464e-03
4.814546555280685425e-02
2.596251294016838074e-02
4.322535917162895203e-02
3.867463907226920128e-03
-6.745505332946777344e-02
-8.956161327660083771e-03
-3.060420788824558258e-02
4.132317751646041870e-02
-9.844835847616195679e-03
-2.795993722975254059e-02
-8.394346386194229126e-02
-6.163384765386581421e-02
1.848149672150611877e-02
6.630991399288177490e-02
-3.091657767072319984e-03
8.526464551687240601e-02
6.768468767404556274e-02
6.897689402103424072e-02
6.667146831750869751e-02
9.055332839488983154e-02
-4.990864545106887817e-02
-2.149340696632862091e-02
-3.686456009745597839e-02
3.526814281940460205e-02
2.105167321860790253e-02
-8.658406138420104980e-02
7.047741860151290894e-02
6.555325351655483246e-03
-6.568805128335952759e-02
4.919737204909324646e-02
1.365887559950351715e-02
4.878879711031913757e-02
-1.394133316352963448e-03
2.208407595753669739e-02
-6.459385901689529419e-02
9.799356758594512939e-02
-6.079780310392379761e-02
9.577732533216476440e-02
7.722767535597085953e-03
-6.141119822859764099e-02
9.637800976634025574e-03
3.874527290463447571e-02
-6.226314231753349304e-02
-6.949613243341445923e-02
-9.469591826200485229e-02
3.557511046528816223e-02
5.818428471684455872e-02
8.107759803533554077e-02
8.486156910657882690e-02
-4.618698731064796448e-02
-3.530872985720634460e-02
5.072734132409095764e-02
-2.655043080449104309e-02
4.930486902594566345e-02
-1.026273611932992935e-02
8.257318288087844849e-03
3.787307068705558777e-02
9.007988125085830688e-02
-3.287570551037788391e-02
1.156197488307952881e-01
-3.344129025936126709e-02
7.703419774770736694e-02
-5.750906188040971756e-03
-5.285527557134628296e-02
2.220203913748264313e-02
-3.462208062410354614e-02
-1.840652339160442352e-02
7.819065451622009277e-02
-3.729204088449478149e-02
1.213811337947845459e-01
1.009093690663576126e-02
-2.469895035028457642e-02
-9.877645969390869141e-02
1.206884626299142838e-02
-1.632391288876533508e-02
6.499506533145904541e-02
-5.074698477983474731e-02
-3.006946109235286713e-02
5.765901133418083191e-02
-2.232853509485721588e-02
2.453353628516197205e-02
1.220035925507545471e-02
7.561023533344268799e-02
4.742213711142539978e-02
-3.019249706994742155e-04
6.381449755281209946e-03
1.979810558259487152e-02
4.338570684194564819e-02
5.465052090585231781e-03
1.795443147420883179e-02
4.531972855329513550e-02
9.928215295076370239e-03
1.077658962458372116e-02
9.121887385845184326e-02
-7.734107971191406250e-02
1.155441906303167343e-02
9.303958714008331299e-02
7.019324600696563721e-02
1.026903837919235229e-01
4.956183210015296936e-02
-6.537445634603500366e-02
6.437499076128005981e-02
2.391198650002479553e-02
-6.696718186140060425e-02
-1.083653122186660767e-01
-1.127124354243278503e-01
6.227275356650352478e-02
1.769025623798370361e-02
-6.246207747608423233e-03
1.025426164269447327e-01
-3.269853442907333374e-02
5.677679926156997681e-02
-5.735981836915016174e-02
-5.098939687013626099e-02
-3.730572387576103210e-02
2.971813641488552094e-02
2.674528164789080620e-03
5.963715910911560059e-02
6.922705471515655518e-02
-5.862990766763687134e-02
7.590240985155105591e-02
3.193221241235733032e-02
9.708204120397567749e-02
5.705067515373229980e-02
6.985418032854795456e-03
1.115211192518472672e-02
-4.120979923754930496e-03
2.624532766640186310e-02
-8.188253268599510193e-03
1.124934526160359383e-03
6.630109250545501709e-02
-3.391463309526443481e-02
9.788241982460021973e-02
1.254038885235786438e-02
1.042626202106475830e-01
1.565337181091308594e-02
1.238873228430747986e-01
1.112292483448982239e-01
1.063992734998464584e-02
1.650132983922958374e-02
-4.142155870795249939e-02
7.683106511831283569e-02
-7.118549197912216187e-02
-1.247478555887937546e-02
1.716256514191627502e-02
-1.010046154260635376e-01
-1.865224726498126984e-02
1.208589971065521240e-02
-2.892417833209037781e-03
6.019499525427818298e-02
-1.235128659754991531e-02
2.987135387957096100e-02
9.784158319234848022e-03
7.525592576712369919e-03
-4.207634180784225464e-02
6.871364265680313110e-02
4.537107888609170914e-03
5.320862308144569397e-02
-4.877341166138648987e-02
-3.650201857089996338e-02
-4.703235346823930740e-03
1.270580757409334183e-02
3.073502331972122192e-02
-6.575360894203186035e-02
-7.785622775554656982e-02
-1.764494366943836212e-02
2.957371436059474945e-02
5.915644392371177673e-02
8.488036692142486572e-02
-2.765810303390026093e-02
1.486503798514604568e-02
-6.580598652362823486e-02
-4.502004012465476990e-02
5.948085710406303406e-02
5.296566523611545563e-03
2.437252365052700043e-02
2.307993918657302856e-02
7.275272160768508911e-02
1.607225858606398106e-03
1.230964669957756996e-03
1.129999756813049316e-01
-1.487995963543653488e-02
-9.483710676431655884e-02
-6.756447721272706985e-03
-2.262148819863796234e-02
-7.094760984182357788e-02
1.168677583336830139e-02
1.929929293692111969e-02
1.318289060145616531e-02
5.558772757649421692e-02
7.477501779794692993e-02
1.842449605464935303e-02
-6.627502292394638062e-02
-9.933016449213027954e-02
-6.238116417080163956e-03
1.277098357677459717e-01
-1.706325821578502655e-02
2.457385696470737457e-02
7.356363814324140549e-03
-8.279853500425815582e-03
9.461525827646255493e-02
1.326095014810562134e-01
4.875662550330162048e-02
1.256500780582427979e-01
-9.907018393278121948e-02
1.230146083980798721e-02
6.417046487331390381e-02
1.233206763863563538e-01
-1.229924429208040237e-02
5.018423870205879211e-02
4.558069258928298950e-02
7.747758179903030396e-03
1.491430029273033142e-02
5.053017288446426392e-03
-5.258951708674430847e-02
6.349556497298181057e-04
8.181370049715042114e-02
4.528245702385902405e-02
7.360246032476425171e-03
-1.738994964398443699e-03
-1.023687142878770828e-02
-1.541849109344184399e-03
-4.862991347908973694e-02
-7.812529057264328003e-02
-9.517716616392135620e-02
-6.064213067293167114e-02
2.641096897423267365e-02
1.120038330554962158e-01
3.036725334823131561e-02
1.317824125289916992e-01
-7.007210701704025269e-02
1.608859375119209290e-02
-7.832144200801849365e-02
5.018991231918334961e-02
-1.996835879981517792e-02
7.084018737077713013e-02
-7.225352805107831955e-03
5.578804016113281250e-02
5.476476252079010010e-02
-1.180721372365951538e-01
1.158279180526733398e-02
6.071835383772850037e-02
4.195744916796684265e-02
-1.106700394302606583e-02
-1.400642842054367065e-01
-2.209782600402832031e-02
-5.171489343047142029e-02
4.037522897124290466e-02
2.704826369881629944e-02
1.237934827804565430e-02
6.579925864934921265e-02
-6.611052155494689941e-02
-3.218400990590453148e-03
9.687876328825950623e-03
1.167457029223442078e-01
6.945765018463134766e-02
8.018042892217636108e-02
1.239231601357460022e-01
7.641436159610748291e-02
8.672104775905609131e-02
1.553050056099891663e-02
6.117446720600128174e-02
-4.341316968202590942e-02
-6.714077293872833252e-02
9.012681245803833008e-02
-5.509077385067939758e-02
-1.531969290226697922e-02
6.310363858938217163e-02
-5.354234203696250916e-02
6.046873703598976135e-02
-4.368671681731939316e-03
5.069635063409805298e-02
2.843217458575963974e-03
-3.689384087920188904e-02
1.674318686127662659e-02
4.700773209333419800e-02
-4.200946167111396790e-02
2.427520416676998138e-02
3.181223198771476746e-02
-6.864086538553237915e-02
7.540210336446762085e-02
8.718165010213851929e-02
9.396231733262538910e-03
-5.157753080129623413e-02
-3.799458593130111694e-02
-7.128340750932693481e-02
3.034611232578754425e-02
8.149790018796920776e-02
7.794774323701858521e-02
2.618832699954509735e-02
-5.473809316754341125e-02
-1.387911848723888397e-02
-4.252490773797035217e-02
3.720359131693840027e-02
4.751784726977348328e-02
-2.443115413188934326e-02
7.016202434897422791e-03
8.390700817108154297e-02
7.028438150882720947e-02
1.216886788606643677e-01
8.473522961139678955e-02
-7.709171622991561890e-02
-1.245912984013557434e-01
2.946268208324909210e-02
1.982923783361911774e-02
-7.391027361154556274e-02
4.863101989030838013e-02
3.674478083848953247e-02
-5.719862412661314011e-03
7.862532883882522583e-02
5.981545150279998779e-02
7.929727435111999512e-02
-6.531285494565963745e-02
-1.244751587510108948e-01
2.162032388150691986e-02
1.043825820088386536e-01
-1.068146079778671265e-01
-1.008917484432458878e-02
2.400822751224040985e-02
2.016017772257328033e-02
8.781718462705612183e-02
5.567146092653274536e-02
4.961887374520301819e-02
5.956351384520530701e-02
-4.609096050262451172e-02
-2.504328452050685883e-02
3.621245548129081726e-02
1.072482541203498840e-01
1.773624494671821594e-02
2.754058502614498138e-02
-2.479465678334236145e-02
-4.016052931547164917e-02
-4.144172742962837219e-02
2.712804079055786133e-02
-7.541550695896148682e-02
3.887993842363357544e-02
-8.240128867328166962e-03
2.987974695861339569e-02
7.991519570350646973e-02
9.960009157657623291e-02
1.740659214556217194e-02
3.379307314753532410e-02
-6.924983114004135132e-02
-4.845406860113143921e-02
-6.623771041631698608e-02
-1.096495315432548523e-01
3.119419328868389130e-02
-1.385544240474700928e-02
-3.912679105997085571e-02
4.711189121007919312e-02
-7.071504741907119751e-02
3.818409144878387451e-02
2.693970128893852234e-02
2.119206637144088745e-02
-2.451189234852790833e-02
9.740410745143890381e-02
-4.574870690703392029e-02
-1.658944995142519474e-03
-1.559051871299743652e-02
-5.277598649263381958e-02
2.820196375250816345e-02
2.110929973423480988e-02
-2.199273370206356049e-02
6.541535258293151855e-02
-3.060872480273246765e-02
-8.690079301595687866e-02
-5.412782728672027588e-02
5.387180298566818237e-02
-3.013893775641918182e-02
-1.756777614355087280e-02
5.203716456890106201e-02
-9.811741858720779419e-02
2.860803902149200439e-02
3.300585597753524780e-02
5.299054458737373352e-02
1.281003057956695557e-01
7.106266915798187256e-02
5.558698996901512146e-02
5.014385655522346497e-02
9.553181007504463196e-03
4.873660206794738770e-02
8.807840757071971893e-03
-3.408176079392433167e-02
2.618538215756416321e-02
3.398381546139717102e-02
-7.797819375991821289e-02
9.468826651573181152e-02
2.013759501278400421e-02
-6.964749842882156372e-02
7.720134407281875610e-02
-5.044961813837289810e-03
2.901619672775268555e-02
-2.974750101566314697e-02
-9.727314114570617676e-03
-7.014440000057220459e-02
1.078472062945365906e-01
-7.338535040616989136e-02
6.485499441623687744e-02
-2.888534590601921082e-02
-6.892745848745107651e-03
6.365349143743515015e-02
7.648269832134246826e-02
-6.191407889127731323e-02
-5.137883871793746948e-02
-2.359282970428466797e-02
-7.336038351058959961e-02
9.965044260025024414e-02
2.831480652093887329e-02
5.230094492435455322e-02
8.703499101102352142e-03
-3.539638221263885498e-02
-5.093196406960487366e-02
-7.503216713666915894e-02
1.093263924121856689e-01
-1.624073460698127747e-02
2.789652720093727112e-02
5.177281051874160767e-02
1.017320230603218079e-01
-3.331885964144021273e-04
1.237812563776969910e-01
-1.376606430858373642e-02
-1.697602868080139160e-02
-1.132901757955551147e-01
-4.961889982223510742e-02
1.939683780074119568e-02
-6.060423702001571655e-02
4.228273034095764160e-02
2.579605579376220703e-02
-5.230201408267021179e-02
6.957577168941497803e-02
5.175485089421272278e-02
-1.174010802060365677e-02
-2.767005190253257751e-02
-7.559349387884140015e-02
3.043079003691673279e-02
2.949024178087711334e-02
-3.354219347238540649e-02
-3.005257807672023773e-02
3.958526998758316040e-02
-2.638206817209720612e-02
9.848400950431823730e-02
4.070099070668220520e-02
2.972497232258319855e-02
1.235607638955116272e-02
-2.992290630936622620e-02
-2.469519525766372681e-02
3.841750696301460266e-02
1.078193113207817078e-01
4.730293154716491699e-02
-2.411942742764949799e-02
-8.398377394769340754e-05
-8.858043700456619263e-02
-5.154316872358322144e-02
-4.132739733904600143e-03
-7.864800840616226196e-02
-1.324983313679695129e-02
6.200889125466346741e-02
6.232266128063201904e-02
9.702756255865097046e-02
1.986570283770561218e-02
-5.967864766716957092e-03
1.246290653944015503e-02
-1.160915289074182510e-02
-4.455792903900146484e-02
-8.724306710064411163e-03
-6.588111817836761475e-02
2.236380428075790405e-02
7.692341506481170654e-02
1.375625375658273697e-02
4.959167912602424622e-02
-2.593377605080604553e-02
3.454680368304252625e-02
-5.444520711898803711e-02
-3.816866874694824219e-02
1.590165123343467712e-02
3.782673180103302002e-02
-4.009113088250160217e-02
6.585292983800172806e-03
1.219251528382301331e-01
-8.966598659753799438e-03
9.527213871479034424e-03
3.411998972296714783e-02
-7.640580646693706512e-03
7.290845364332199097e-02
2.721086889505386353e-02
-7.260790467262268066e-02
-4.915131255984306335e-02
9.112183749675750732e-02
5.558874830603599548e-02
-2.501813508570194244e-02
-1.130798645317554474e-02
-5.661575868725776672e-02
2.673554606735706329e-02
7.987509667873382568e-02
4.575514048337936401e-02
1.923084445297718048e-02
1.279166340827941895e-01
1.507571339607238770e-02
8.507712185382843018e-02
-1.081375591456890106e-02
-1.470848824828863144e-02
4.365524277091026306e-02
-1.139843720011413097e-03
-4.070499911904335022e-02
4.131991043686866760e-02
-6.690423190593719482e-02
7.728201895952224731e-02
2.279264479875564575e-02
-6.726512219756841660e-03
7.667220383882522583e-02
-4.648551810532808304e-03
1.629251055419445038e-02
-2.361003495752811432e-02
4.474142938852310181e-02
-4.166720807552337646e-02
3.044018149375915527e-02
-6.417148746550083160e-03
-8.030516095459461212e-03
4.215485602617263794e-02
1.243614777922630310e-02
2.647467143833637238e-02
9.999914094805717468e-03
-1.674828119575977325e-02
-4.601141810417175293e-02
2.128894813358783722e-02
-1.028624176979064941e-01
6.251781433820724487e-02
1.686712354421615601e-02
5.470196530222892761e-02
-1.865484751760959625e-02
-6.674977485090494156e-03
-6.143212690949440002e-02
-9.118830412626266479e-02
1.225245371460914612e-01
3.535665571689605713e-02
5.883622914552688599e-02
2.938115037977695465e-02
9.217888116836547852e-02
6.485196948051452637e-02
8.198690414428710938e-02
-1.783183775842189789e-02
-5.662473291158676147e-02
-8.458841592073440552e-02
4.523880407214164734e-02
6.616790592670440674e-02
-6.685864925384521484e-02
9.403314441442489624e-02
4.012459143996238708e-02
-6.408025324344635010e-02
6.212085485458374023e-02
7.663957774639129639e-02
3.933846950531005859e-02
-2.497687935829162598e-02
-1.052490323781967163e-01
-8.818913251161575317e-03
7.589168101549148560e-02
-6.613543629646301270e-02
1.248981896787881851e-02
4.160749167203903198e-02
2.426060289144515991e-02
5.669812113046646118e-02
1.062742844223976135e-01
9.986301511526107788e-02
4.167831316590309143e-02
1.523004379123449326e-02
6.309115560725331306e-04
3.432332538068294525e-03
-5.845197010785341263e-03
1.102865952998399734e-02
-6.219773739576339722e-02
-1.030626446008682251e-01
-4.858532175421714783e-02
-9.537551552057266235e-02
8.538761734962463379e-02
-8.207541704177856445e-02
1.070409268140792847e-02
8.843931555747985840e-02
-3.833338152617216110e-03
4.760656878352165222e-02
7.993068546056747437e-02
-1.240061409771442413e-02
1.117119006812572479e-02
-3.133457154035568237e-03
-2.920703776180744171e-02
1.023851218633353710e-04
-1.486473679542541504e-01
8.696350455284118652e-02
3.335031121969223022e-02
-3.248289227485656738e-02
5.262866988778114319e-02
-7.199523597955703735e-02
2.318451181054115295e-02
-9.815604239702224731e-02
-9.654580615460872650e-03
-2.719422429800033569e-02
1.240915209054946899e-01
-4.857794940471649170e-02
-2.023506909608840942e-02
8.722239732742309570e-02
-5.306106805801391602e-02
1.064386814832687378e-01
5.239000171422958374e-02
2.574804797768592834e-02
6.315053254365921021e-02
-7.825609296560287476e-03
-9.715544432401657104e-02
1.584395952522754669e-02
5.702746659517288208e-02
3.301419317722320557e-02
-4.668636247515678406e-02
-5.478922277688980103e-02
-1.257591694593429565e-01
-2.311438322067260742e-02
-6.941572297364473343e-03
1.432004664093255997e-02
3.974087536334991455e-03
4.576390609145164490e-02
5.542894452810287476e-02
8.069942891597747803e-02
-2.419583732262253761e-03
-1.953818649053573608e-02
6.292773038148880005e-02
-6.514767557382583618e-02
2.796562388539314270e-02
1.109179407358169556e-01
-1.631666272878646851e-01
4.672877490520477295e-02
-4.056002572178840637e-02
7.500449661165475845e-03
1.187555864453315735e-01
5.390983074903488159e-02
-2.924841362982988358e-03
-4.316110629588365555e-03
2.631062269210815430e-02
1.580648683011531830e-02
3.125773370265960693e-02
-5.674044042825698853e-02
6.195124611258506775e-02
-4.457121714949607849e-02
-2.581025287508964539e-02
2.828115411102771759e-02
-1.676788739860057831e-02
-2.718271687626838684e-02
-1.983701065182685852e-02
-6.174243614077568054e-02
1.263623312115669250e-02
2.500559203326702118e-02
2.264155447483062744e-02
2.527360338717699051e-03
-7.131570577621459961e-02
-3.023041784763336182e-02
-8.270239084959030151e-02
-5.621240660548210144e-02
4.368314519524574280e-02
2.280350029468536377e-02
-4.213389381766319275e-02
9.203634411096572876e-02
5.537771061062812805e-02
2.809882909059524536e-02
1.188487038016319275e-01
4.997565597295761108e-02
-1.144849229604005814e-02
-2.998332306742668152e-02
-1.653217524290084839e-02
1.933119446039199829e-02
-6.114929914474487305e-02
-4.842320457100868225e-02
6.359446048736572266e-02
1.041193399578332901e-02
1.092831790447235107e-01
-2.423789165914058685e-02
9.627532958984375000e-02
-6.281153112649917603e-02
-4.109469056129455566e-02
-6.411238107830286026e-03
1.053780242800712585e-01
-7.751831412315368652e-02
-2.831279858946800232e-02
8.746663480997085571e-02
-2.469638548791408539e-02
7.457232475280761719e-02
6.083658710122108459e-02
1.215354055166244507e-01
1.338518410921096802e-01
-6.435061246156692505e-02
8.261129260063171387e-02
-2.096674032509326935e-02
7.688032090663909912e-02
4.584744106978178024e-03
3.577242791652679443e-02
-2.679074881598353386e-03
-5.071677640080451965e-02
-7.767136674374341965e-03
7.331109046936035156e-02
8.354618214070796967e-03
2.721930667757987976e-02
9.242051839828491211e-02
6.822193413972854614e-02
4.335829615592956543e-02
1.667601615190505981e-02
3.127457574009895325e-02
-1.003168430179357529e-02
-1.005431823432445526e-02
-1.080838963389396667e-01
-1.319525018334388733e-02
-5.557496473193168640e-02
1.067670434713363647e-02
7.396006584167480469e-02
4.272137593943625689e-04
4.569662362337112427e-02
-9.070298075675964355e-02
-3.416351228952407837e-02
-5.212850496172904968e-02
-3.886028379201889038e-02
-3.764212504029273987e-02
2.092866413295269012e-02
-6.040062755346298218e-02
3.981413319706916809e-02
2.195779234170913696e-02
-3.463126346468925476e-02
4.715831205248832703e-02
4.051207751035690308e-02
2.771885693073272705e-02
1.159982457756996155e-01
-8.206246793270111084e-02
7.074337918311357498e-03
-1.642134226858615875e-02
1.578461937606334686e-02
-3.155947104096412659e-02
-7.834118604660034180e-02
2.168898843228816986e-02
-5.044384300708770752e-02
2.990927360951900482e-02
4.452884569764137268e-02
8.244551718235015869e-02
9.234783798456192017e-02
9.373489767313003540e-02
8.587048202753067017e-02
4.252839460968971252e-02
-1.872486434876918793e-03
-1.240317244082689285e-02
6.041616201400756836e-02
-3.221517801284790039e-02
-5.368095636367797852e-02
6.390488892793655396e-02
-7.160626351833343506e-02
-3.106435202062129974e-02
4.134328663349151611e-02
1.201548706740140915e-02
7.802691310644149780e-02
-4.069469496607780457e-02
-1.515057682991027832e-02
2.153969369828701019e-02
5.126316472887992859e-02
-2.650100365281105042e-02
4.953255504369735718e-02
-9.678675269242376089e-05
3.294940665364265442e-02
-5.378405377268791199e-02
-1.281029134988784790e-01
-1.985910348594188690e-02
3.291616588830947876e-02
1.996044255793094635e-02
-2.960658259689807892e-02
-4.443275183439254761e-02
-4.336125776171684265e-02
4.285959899425506592e-02
6.898560374975204468e-02
3.152960911393165588e-02
-5.398144572973251343e-02
-2.782396227121353149e-02
-4.374894127249717712e-02
-7.936915755271911621e-02
4.025939479470252991e-02
-2.315567061305046082e-02
-1.669460535049438477e-02
7.134132832288742065e-02
1.645961254835128784e-01
8.185996115207672119e-02
3.019225224852561951e-02
-1.556487753987312317e-02
-6.760936230421066284e-02
-8.068104833364486694e-02
1.327937841415405273e-02
4.332354664802551270e-02
-9.039356559514999390e-02
-1.214251480996608734e-02
2.236324176192283630e-02
-6.452003028243780136e-03
7.951258867979049683e-02
-3.976402431726455688e-02
3.704715520143508911e-02
-7.846882939338684082e-02
-5.293018370866775513e-02
5.657387897372245789e-02
3.686465695500373840e-02
-2.971246279776096344e-02
5.324564501643180847e-02
-3.717791289091110229e-02
1.641023345291614532e-02
1.179710775613784790e-01
4.692877456545829773e-02
4.625893011689186096e-02
7.109546661376953125e-02
-5.832828953862190247e-02
-6.277172360569238663e-03
-3.587203472852706909e-02
3.718048706650733948e-02
-4.019663855433464050e-02
-3.206375986337661743e-02
-1.732970401644706726e-02
-6.542406976222991943e-02
1.875611953437328339e-02
2.461111545562744141e-02
-1.816362887620925903e-02
2.638489566743373871e-02
2.611891552805900574e-02
9.047745913267135620e-02
7.495907694101333618e-02
-1.950442232191562653e-02
-4.026553407311439514e-02
6.098435074090957642e-02
-8.522014319896697998e-02
-6.230986118316650391e-02
-5.578169971704483032e-02
-7.158821821212768555e-02
6.376707926392555237e-03
8.805255591869354248e-02
2.837283350527286530e-02
3.920532763004302979e-02
-1.018978804349899292e-01
2.904659695923328400e-02
-4.814462363719940186e-02
2.143942192196846008e-02
-1.530964625999331474e-03
5.827084556221961975e-02
-1.369269751012325287e-02
-2.093740925192832947e-02
5.036401376128196716e-02
4.180209361948072910e-04
7.953255623579025269e-02
-2.537818392738699913e-03
2.827256731688976288e-02
6.089918315410614014e-02
-5.090476945042610168e-02
-7.137781381607055664e-02
-6.009244918823242188e-02
5.525149032473564148e-02
-4.078640788793563843e-02
-7.293421775102615356e-03
5.470310151576995850e-02
-8.194924145936965942e-02
1.296520000323653221e-03
2.582100778818130493e-02
1.318118870258331299e-01
-8.041474036872386932e-03
1.576894074678421021e-01
8.817820996046066284e-02
3.903911262750625610e-02
4.259586706757545471e-02
-1.403560582548379898e-02
6.201180443167686462e-02
-9.784751385450363159e-02
-4.980584979057312012e-02
7.752300053834915161e-02
-7.142710685729980469e-02
4.479799419641494751e-02
-1.315102446824312210e-02
-2.976336143910884857e-02
5.853642895817756653e-02
-4.406463354825973511e-02
7.602761685848236084e-02
-5.868061911314725876e-03
-2.283696644008159637e-02
-1.998125948011875153e-02
4.533521458506584167e-02
-2.200913615524768829e-02
8.619537949562072754e-02
-7.802362740039825439e-02
-1.274323612451553345e-01
7.664312422275543213e-02
7.841092348098754883e-02
-5.092447251081466675e-02
-8.695872500538825989e-03
-9.811269491910934448e-02
-8.028490096330642700e-02
6.409864127635955811e-02
8.703124523162841797e-02
-1.196814049035310745e-02
-3.729968518018722534e-02
-4.911632835865020752e-02
-6.165486201643943787e-02
4.012855887413024902e-02
8.485867828130722046e-02
-2.342091407626867294e-03
-1.348182279616594315e-02
1.123457327485084534e-01
1.147205531597137451e-01
7.226115465164184570e-02
5.643596500158309937e-02
1.450796704739332199e-02
-6.782214343547821045e-02
-9.073431789875030518e-02
5.660906434059143066e-02
1.621911302208900452e-02
-7.341964542865753174e-02
3.820608928799629211e-02
1.834930106997489929e-02
-7.237784564495086670e-02
8.888100087642669678e-02
5.014241114258766174e-02
3.796515287831425667e-03
-1.034081578254699707e-01
-1.761236414313316345e-02
7.582806795835494995e-02
4.051691293716430664e-02
-8.771041780710220337e-02
4.603108018636703491e-02
4.484415694605559111e-04
-4.405031725764274597e-02
8.005145192146301270e-02
1.229192018508911133e-01
-5.272498237900435925e-04
3.279540687799453735e-02
6.361845415085554123e-03
-2.131853066384792328e-02
2.099873311817646027e-02
9.440757334232330322e-02
-3.939760848879814148e-02
2.828582376241683960e-02
3.897468093782663345e-03
-1.205169260501861572e-01
2.869732119143009186e-02
9.198773652315139771e-02
-9.057748317718505859e-02
-2.958337031304836273e-02
6.301155686378479004e-02
1.218533590435981750e-01
8.248054981231689453e-02
6.632483750581741333e-02
-8.822313696146011353e-02
-7.739789783954620361e-02
4.430382978171110153e-03
-5.131527036428451538e-02
1.130698947235941887e-03
-6.376551836729049683e-02
7.503876090049743652e-02
8.209022134542465210e-02
-9.708626568317413330e-02
9.038089774549007416e-03
-4.216905310750007629e-02
5.377458035945892334e-02
-4.416923969984054565e-02
1.706689409911632538e-02
4.818250238895416260e-02
7.672328501939773560e-02
-3.509514778852462769e-02
-4.788188729435205460e-03
-4.490632563829421997e-02
-9.356731921434402466e-02
5.672695487737655640e-02
8.897284418344497681e-02
1.574843935668468475e-02
6.748452037572860718e-02
1.357839064439758658e-04
-2.218650653958320618e-02
-8.962503075599670410e-02
-2.441169135272502899e-02
3.213108330965042114e-02
-8.009786158800125122e-02
2.990704588592052460e-02
-1.680386811494827271e-01
5.663149058818817139e-03
1.167100518941879272e-01
9.807693213224411011e-02
6.961271166801452637e-02
8.560498803853988647e-02
8.979955315589904785e-02
3.926432132720947266e-02
-2.462756820023059845e-02
-5.777400359511375427e-02
1.068711560219526291e-02
-5.367024987936019897e-02
-1.856407150626182556e-03
6.882884353399276733e-02
-5.808029696345329285e-02
4.613691940903663635e-02
7.067994028329849243e-02
-9.752148762345314026e-03
5.186777561902999878e-02
-4.472883045673370361e-02
1.204839870333671570e-01
-4.365154355764389038e-02
-2.340061031281948090e-02
-4.923481494188308716e-03
5.942128226161003113e-02
-1.146376430988311768e-01
-4.880061373114585876e-02
-6.222580000758171082e-02
-9.453155845403671265e-02
2.356769517064094543e-02
1.130132819525897503e-03
4.765645717270672321e-04
-1.266028173267841339e-02
-5.278673395514488220e-02
-7.678224146366119385e-02
1.506304554641246796e-02
7.888809591531753540e-02
5.118161439895629883e-02
-2.330667153000831604e-02
1.858483999967575073e-02
-6.927030533552169800e-02
3.385928645730018616e-02
7.824213057756423950e-02
-4.941310361027717590e-02
1.755451224744319916e-02
6.729393452405929565e-02
1.100741848349571228e-01
1.769175939261913300e-02
8.388055860996246338e-02
1.531314197927713394e-02
-3.737538680434226990e-02
-3.931628912687301636e-02
9.331526234745979309e-03
5.721542984247207642e-02
-6.521637551486492157e-03
9.151437133550643921e-02
1.949700526893138885e-02
-9.718648344278335571e-02
7.137776166200637817e-02
4.608537536114454269e-03
2.377260290086269379e-02
-7.303506135940551758e-02
-2.042931877076625824e-02
4.153744876384735107e-02
1.311277896165847778e-01
-7.295962423086166382e-02
-2.134769968688488007e-02
4.648746922612190247e-02
-5.127957090735435486e-02
9.532447159290313721e-02
1.254020333290100098e-01
1.206231415271759033e-01
9.606675803661346436e-02
-4.390958324074745178e-02
-2.868699468672275543e-02
3.817552328109741211e-02
5.746700614690780640e-02
-2.657313644886016846e-02
-5.184876546263694763e-02
8.074719808064401150e-04
-9.219015389680862427e-02
-3.177145868539810181e-02
2.693859674036502838e-02
-1.080761775374412537e-01
3.529171645641326904e-02
7.038753014057874680e-03
6.434788554906845093e-02
-7.988298311829566956e-03
5.073243007063865662e-02
-4.663105681538581848e-02
-4.462227597832679749e-02
-9.153583645820617676e-02
-9.614549344405531883e-05
4.156094044446945190e-02
-9.679827839136123657e-02
5.701106041669845581e-02
1.314148423261940479e-03
-1.089585479348897934e-02
1.117581501603126526e-01
-9.126106649637222290e-02
2.565986476838588715e-02
-5.719870328903198242e-02
3.315332159399986267e-02
-3.442813875153660774e-03
8.329351246356964111e-02
-2.878338843584060669e-02
8.060833439230918884e-03
6.483566015958786011e-02
-2.871253527700901031e-02
3.576930612325668335e-02
1.071987897157669067e-01
1.245864480733871460e-02
-4.950772039592266083e-03
-7.951917499303817749e-02
-3.899827599525451660e-02
-5.508790910243988037e-02
6.547404080629348755e-02
5.194548983126878738e-03
-8.116489648818969727e-02
1.893784478306770325e-02
-1.010704338550567627e-01
1.128561422228813171e-02
3.909375146031379700e-02
3.179958090186119080e-02
2.301661483943462372e-02
8.986808359622955322e-02
8.838178962469100952e-02
8.404234796762466431e-02
9.897011332213878632e-03
-2.582014538347721100e-02
-1.038282760418951511e-03
5.667534470558166504e-02
-4.282006993889808655e-02
5.618328601121902466e-02
-6.646595895290374756e-02
2.609938569366931915e-02
-6.136820837855339050e-02
8.130511268973350525e-03
6.151591241359710693e-02
-5.318761337548494339e-03
-2.828152664005756378e-02
-1.891503110527992249e-02
-3.159395232796669006e-02
-4.331473261117935181e-02
1.191741228103637695e-02
1.426854450255632401e-02
-1.917248032987117767e-02
-6.098527461290359497e-02
-7.781272381544113159e-02
-3.087802231311798096e-02
1.142240967601537704e-02
-4.905486851930618286e-02
-3.021608572453260422e-03
-5.368174239993095398e-02
-3.939802199602127075e-02
7.832515239715576172e-02
9.914560243487358093e-03
4.689320549368858337e-02
-5.458876118063926697e-02
1.620575931156054139e-04
-9.337610006332397461e-02
-9.703278541564941406e-02
3.280622512102127075e-02
-1.405316870659589767e-02
2.524079754948616028e-02
8.444337546825408936e-02
8.793239295482635498e-02
5.941079184412956238e-02
4.147374629974365234e-02
-2.907664701342582703e-02
-7.034982740879058838e-02
2.005873247981071472e-02
-3.170409426093101501e-02
1.118835061788558960e-01
-8.550788462162017822e-02
8.397188037633895874e-02
2.545154839754104614e-02
-9.958857297897338867e-02
1.134229600429534912e-01
9.082262963056564331e-02
-3.967110067605972290e-02
-9.406368434429168701e-02
2.072655223309993744e-02
5.446059256792068481e-02
3.495217114686965942e-02
-4.466628655791282654e-02
8.959741331636905670e-03
1.018823385238647461e-01
-8.051997050642967224e-03
8.161905407905578613e-02
3.030044026672840118e-02
1.080534756183624268e-01
3.249175474047660828e-02
2.761345542967319489e-02
4.303017631173133850e-03
3.105705231428146362e-02
6.105463206768035889e-02
-5.388747528195381165e-02
8.529235608875751495e-03
-1.116399616003036499e-01
-1.018563657999038696e-01
-5.793588981032371521e-02
7.877869904041290283e-02
-5.566664785146713257e-02
2.658408135175704956e-02
7.519672811031341553e-02
3.133936971426010132e-02
-2.157246507704257965e-02
4.586509987711906433e-02
-7.852118462324142456e-02
-3.697606548666954041e-02
1.245969999581575394e-02
-6.539180874824523926e-02
5.484001338481903076e-02
-9.776996076107025146e-02
8.235387504100799561e-02
-4.737600311636924744e-02
-5.110358819365501404e-02
7.919131964445114136e-02
-7.713835686445236206e-02
1.554680150002241135e-02
-2.371843717992305756e-02
-3.017597645521163940e-02
-8.738200180232524872e-03
3.569778800010681152e-02
-2.917605265974998474e-02
5.400511249899864197e-02
7.289795577526092529e-02
-1.304305065423250198e-02
3.377802297472953796e-02
4.694718867540359497e-02
3.902729600667953491e-02
6.483067572116851807e-02
-6.371282041072845459e-02
-7.679101079702377319e-02
-7.395011372864246368e-03
4.798019677400588989e-02
2.700270712375640869e-02
1.422324404120445251e-02
-3.432183340191841125e-02
-1.034379079937934875e-01
7.857810705900192261e-02
6.749364733695983887e-02
-5.963179748505353928e-03
4.069433361291885376e-02
1.002641692757606506e-01
1.019188463687896729e-01
3.546027466654777527e-02
3.196401894092559814e-02
-6.816821545362472534e-02
-1.595772802829742432e-03
7.588013261556625366e-02
4.465992376208305359e-02
1.037154868245124817e-01
-9.683918952941894531e-02
1.652727834880352020e-02
-2.740185149013996124e-02
-1.180125400424003601e-02
6.612709164619445801e-02
-2.478978410363197327e-02
2.143974974751472473e-02
-6.901292502880096436e-02
-5.101683363318443298e-02
-1.556071266531944275e-02
8.920335210859775543e-03
-6.805860251188278198e-02
3.175285831093788147e-02
8.728831307962536812e-04
-1.143048629164695740e-01
3.973236307501792908e-02
6.854137033224105835e-02
-5.874786525964736938e-02
-6.397871673107147217e-02
