-2.025521993637084961e-01
2.584419250488281250e-01
-3.673133673146367073e-03
1.629891246557235718e-01
-4.936340823769569397e-02
-2.020722627639770508e-01
2.264132648706436157e-01
7.734256237745285034e-02
-2.973134815692901611e-02
-2.337127178907394409e-01
-7.842338830232620239e-02
-1.921501010656356812e-01
7.646337896585464478e-02
7.594233006238937378e-02
-1.678456813097000122e-01
1.607913970947265625e-01
-2.438434660434722900e-01
1.772985160350799561e-01
5.523001775145530701e-02
-7.445879280567169189e-02
1.218273267149925232e-01
5.553743243217468262e-02
-1.251850128173828125e-01
-2.437430024147033691e-01
1.085703745484352112e-01
2.455150038003921509e-01
1.164958700537681580e-01
1.443607658147811890e-01
-2.366565167903900146e-01
-2.504371106624603271e-01
2.003973871469497681e-01
7.219558954238891602e-02
-2.309639900922775269e-01
-2.655394673347473145e-01
7.113941758871078491e-02
5.231432616710662842e-02
-1.489679068326950073e-01
-2.120589315891265869e-01
-2.267604023218154907e-01
1.375238150358200073e-01
-3.374612331390380859e-02
-1.861948221921920776e-01
1.523434072732925415e-01
-4.535697773098945618e-02
-1.185153238475322723e-02
9.186119586229324341e-02
2.260375022888183594e-01
1.018948256969451904e-01
-2.154974825680255890e-02
1.582298874855041504e-01
-2.110894322395324707e-01
1.835701167583465576e-01
4.574747011065483093e-02
-9.896561503410339355e-02
7.399794459342956543e-02
2.048382461071014404e-01
2.290134429931640625e-01
1.941872760653495789e-02
5.994784832000732422e-02
1.801957041025161743e-01
2.143122106790542603e-01
1.757106035947799683e-01
1.802165210247039795e-01
-2.628101706504821777e-01
2.056299448013305664e-01
1.551441997289657593e-01
-2.600558102130889893e-01
-6.330949068069458008e-02
6.345768272876739502e-02
-2.682470083236694336e-01
2.574422359466552734e-01
-2.291607558727264404e-01
1.118404194712638855e-01
3.769330680370330811e-02
-2.611698508262634277e-01
1.746559739112854004e-01
1.298416107892990112e-01
-9.094630926847457886e-02
-2.715391218662261963e-01
2.318851649761199951e-01
-4.216105118393898010e-02
-6.090212985873222351e-02
9.021697938442230225e-02
-2.090231478214263916e-01
2.683672308921813965e-01
1.500289980322122574e-02
-1.386857777833938599e-01
2.901683747768402100e-02
-4.821478202939033508e-02
1.277953684329986572e-01
-6.276629120111465454e-02
4.667101055383682251e-02
-1.228282675147056580e-01
-1.584828048944473267e-01
1.285325288772583008e-01
-2.309876978397369385e-01
1.608355194330215454e-01
4.133890196681022644e-02
-2.031989246606826782e-01
-2.148802727460861206e-01
2.371987104415893555e-01
1.995435953140258789e-01
2.457158714532852173e-01
1.217439472675323486e-01
-1.793133020401000977e-01
2.437127828598022461e-01
-2.161910980939865112e-01
-8.854715526103973389e-02
-1.288624554872512817e-01
2.514729201793670654e-01
9.642111137509346008e-03
9.492393583059310913e-03
-3.706168150529265404e-03
7.516315579414367676e-02
1.767108887434005737e-01
-1.085019782185554504e-01
-1.158120259642601013e-01
1.775669902563095093e-01
1.762662231922149658e-01
-1.128114666789770126e-02
7.992146909236907959e-02
-2.063357681035995483e-01
-1.510147154331207275e-01
1.226498838514089584e-02
-6.497780978679656982e-02
1.426718290895223618e-02
-1.019570156931877136e-01
1.784513145685195923e-01
2.406787127256393433e-01
-5.515805259346961975e-02
-2.697932124137878418e-01
-1.089641973376274109e-01
-2.085824124515056610e-02
-1.494800150394439697e-01
-1.530181709676980972e-02
9.870227426290512085e-02
-1.791358143091201782e-01
-2.711344659328460693e-01
1.980349421501159668e-01
-1.363044679164886475e-01
-1.871936917304992676e-01
1.796435862779617310e-01
2.680342793464660645e-01
1.886134780943393707e-02
1.109561771154403687e-01
5.800596252083778381e-02
-1.500639319419860840e-01
-2.252229303121566772e-01
-2.369076758623123169e-01
-2.154962345957756042e-02
1.013824120163917542e-01
-1.720710396766662598e-01
2.273043394088745117e-01
2.623004913330078125e-01
1.198936849832534790e-01
-9.084281325340270996e-02
2.876384882256388664e-03
-1.200010068714618683e-02
1.191599294543266296e-01
8.056338131427764893e-02
-1.144097447395324707e-01
1.157444901764392853e-02
9.115982055664062500e-02
-1.337165758013725281e-02
-1.846635490655899048e-01
2.282290458679199219e-01
1.641388982534408569e-01
-1.342081427574157715e-01
-2.329927682876586914e-01
-1.273070871829986572e-01
-2.617180943489074707e-01
2.377556860446929932e-01
-4.409348219633102417e-02
-2.416165620088577271e-01
-2.321000695228576660e-01
1.659878194332122803e-01
-1.328376829624176025e-01
6.385922431945800781e-02
2.161987572908401489e-01
2.424268871545791626e-01
-1.736754328012466431e-01
8.867741376161575317e-02
-2.360324859619140625e-01
1.792729198932647705e-01
1.681778430938720703e-01
1.605849340558052063e-02
-1.651118546724319458e-01
-8.268067985773086548e-02
-2.288136482238769531e-01
-9.837885200977325439e-02
4.212085157632827759e-02
1.014168560504913330e-01
1.711202412843704224e-02
1.937751173973083496e-01
1.637247651815414429e-01
-7.121594250202178955e-02
-1.386671960353851318e-01
-1.308638155460357666e-01
2.603339254856109619e-01
-2.482624500989913940e-01
-3.251514630392193794e-03
-4.514767602086067200e-02
-2.198577225208282471e-01
-1.669093817472457886e-01
1.505775749683380127e-01
-1.742805093526840210e-01
1.836788207292556763e-01
-2.144671529531478882e-01
2.107002288103103638e-01
-2.574578523635864258e-01
2.539321780204772949e-01
-2.397674508392810822e-02
-1.246374025940895081e-01
-2.347513847053050995e-02
1.401423662900924683e-01
1.997426450252532959e-01
-9.654991328716278076e-02
2.724385559558868408e-01
7.587388157844543457e-03
-2.588281631469726562e-01
-1.898285597562789917e-01
8.805098943412303925e-03
5.057213827967643738e-02
-2.297932207584381104e-01
1.200770065188407898e-01
1.273459047079086304e-01
-1.622402518987655640e-01
1.777050942182540894e-01
1.405305415391921997e-01
-5.978314951062202454e-02
9.330108016729354858e-02
9.370342642068862915e-02
1.688714325428009033e-01
-8.844958245754241943e-02
-1.930380165576934814e-01
1.873518377542495728e-01
-1.823251694440841675e-01
2.294706255197525024e-01
8.487549424171447754e-02
-1.012963149696588516e-02
1.398050338029861450e-01
5.889382213354110718e-03
-1.081331744790077209e-01
-1.951218843460083008e-01
1.026659384369850159e-01
9.590444713830947876e-02
2.041853070259094238e-01
-3.796160966157913208e-02
2.232872508466243744e-02
7.622507214546203613e-02
-8.616604655981063843e-02
1.890216022729873657e-01
-1.522502452135086060e-01
1.969576627016067505e-02
8.664817549288272858e-03
-2.652520239353179932e-01
2.077858150005340576e-01
1.557367295026779175e-01
-2.676182687282562256e-01
7.092705368995666504e-02
-2.204577066004276276e-02
4.701662063598632812e-02
1.678630113601684570e-01
-2.538937032222747803e-01
2.371784150600433350e-01
2.453101985156536102e-02
2.265119738876819611e-02
-2.659687399864196777e-01
-2.686066925525665283e-01
1.367665082216262817e-01
2.004245817661285400e-01
2.720878720283508301e-01
4.538971185684204102e-02
-1.140272989869117737e-01
1.722100377082824707e-01
-7.625405490398406982e-02
-1.429257839918136597e-01
-1.635552197694778442e-01
-2.646410465240478516e-01
1.608220785856246948e-01
-2.200708091259002686e-01
-2.525834441184997559e-01
-1.017860099673271179e-01
1.481327787041664124e-02
4.392090439796447754e-02
-9.675550460815429688e-02
1.039558723568916321e-01
2.241293042898178101e-01
-1.464570164680480957e-01
2.308790683746337891e-01
-2.470392137765884399e-01
-1.336487978696823120e-01
1.386142671108245850e-01
5.435838550329208374e-02
3.166457265615463257e-02
-2.356073260307312012e-01
-1.918713562190532684e-02
-5.859121680259704590e-02
-2.324007749557495117e-01
1.063419580459594727e-01
-9.565780311822891235e-02
-1.962533891201019287e-01
-1.394510865211486816e-01
9.147191792726516724e-02
-4.326235130429267883e-02
8.813116699457168579e-02
2.247650735080242157e-02
-7.683145254850387573e-02
-1.907088756561279297e-01
1.188144460320472717e-01
8.713559061288833618e-02
3.060889616608619690e-02
-1.863200813531875610e-01
1.695195138454437256e-01
1.300237774848937988e-01
-5.653335526585578918e-02
-1.906214058399200439e-01
-2.002495806664228439e-03
2.171977907419204712e-01
2.109784930944442749e-01
-2.224411964416503906e-01
1.178575530648231506e-01
-2.273944318294525146e-01
1.182398647069931030e-01
2.704767584800720215e-01
8.288288116455078125e-02
-1.809146404266357422e-01
1.114229634404182434e-01
1.913424283266067505e-01
3.657545521855354309e-02
2.444436997175216675e-01
-1.251807212829589844e-01
-1.675523221492767334e-01
-1.184325963258743286e-01
1.543725430965423584e-01
8.251262479461729527e-04
9.932184219360351562e-02
2.029179483652114868e-01
3.065272979438304901e-02
2.025316059589385986e-01
-6.274385750293731689e-02
-2.659784257411956787e-01
-1.583970487117767334e-01
2.610777914524078369e-01
-2.500181496143341064e-01
-1.301104575395584106e-01
-2.335881143808364868e-01
-2.053651958703994751e-01
1.941898316144943237e-01
2.261566668748855591e-01
-1.451116800308227539e-01
1.712731719017028809e-01
2.613766193389892578e-01
2.087222933769226074e-01
2.249851524829864502e-01
1.348035633563995361e-01
2.230861783027648926e-01
-3.807697072625160217e-02
1.951884329319000244e-01
-5.280871689319610596e-02
2.707611918449401855e-01
-1.609531193971633911e-01
2.687170803546905518e-01
-1.379324793815612793e-01
-1.329047530889511108e-01
9.094621986150741577e-02
-9.591110050678253174e-03
-1.685767918825149536e-01
1.968946680426597595e-02
-1.452100872993469238e-01
1.983435153961181641e-01
2.660850286483764648e-01
-1.006764546036720276e-01
-1.536996383219957352e-02
1.089417114853858948e-01
2.715548314154148102e-02
1.166541576385498047e-01
2.718278765678405762e-01
3.550945967435836792e-02
-2.335339337587356567e-01
4.168500192463397980e-03
-2.119818329811096191e-01
-7.129671424627304077e-02
1.288325488567352295e-01
2.100906968116760254e-01
-1.858487278223037720e-01
6.331159919500350952e-02
-1.519481837749481201e-01
-2.253102660179138184e-01
2.571971416473388672e-01
7.826927304267883301e-02
-1.175920218229293823e-01
-1.298851072788238525e-01
-9.907947853207588196e-03
1.585479527711868286e-01
4.158491268754005432e-02
-1.822450459003448486e-01
-2.139013558626174927e-01
-7.901988178491592407e-02
2.248134762048721313e-01
-6.754086911678314209e-02
-8.650209009647369385e-02
2.015260159969329834e-01
2.431496232748031616e-01
2.631151080131530762e-01
2.315632253885269165e-01
-9.757067263126373291e-02
1.214287355542182922e-01
-1.366405487060546875e-01
1.570394337177276611e-01
-1.178520247340202332e-01
-2.379191368818283081e-01
-5.476123839616775513e-02
-2.346127033233642578e-01
-1.953219771385192871e-01
2.722798883914947510e-01
1.142506301403045654e-01
1.928364783525466919e-01
-3.737516701221466064e-02
-8.496715128421783447e-02
-2.043168395757675171e-01
-1.662541627883911133e-01
5.319720879197120667e-02
-1.362294424325227737e-02
1.660585254430770874e-01
1.263376176357269287e-01
-1.317020356655120850e-01
-8.707466535270214081e-03
1.219527199864387512e-01
-3.131415462121367455e-03
3.349402174353599548e-02
1.797462999820709229e-01
-4.878188297152519226e-02
1.884817779064178467e-01
-3.152207238599658012e-03
-1.083246544003486633e-01
7.579915970563888550e-02
-7.646840810775756836e-02
8.003755658864974976e-02
2.690189778804779053e-01
-1.146805807948112488e-01
6.426558643579483032e-02
-9.167340397834777832e-02
-2.459898889064788818e-01
1.564925312995910645e-01
-1.298191584646701813e-02
1.707557886838912964e-01
7.532150298357009888e-02
-8.990961313247680664e-02
-2.462601847946643829e-02
-2.283091843128204346e-02
2.204931378364562988e-01
-2.454836070537567139e-01
-1.051028072834014893e-01
-1.540656834840774536e-01
4.946618899703025818e-02
2.186098694801330566e-01
2.342782765626907349e-01
2.143916636705398560e-01
9.385181963443756104e-02
2.521603405475616455e-01
1.984035819768905640e-01
-4.913800582289695740e-02
-6.249405443668365479e-02
2.513375878334045410e-01
-2.538300454616546631e-01
-2.112334072589874268e-01
-2.039640694856643677e-01
-1.991205960512161255e-01
-1.800413616001605988e-02
-2.590795755386352539e-01
1.895072311162948608e-01
-2.571368962526321411e-02
1.960124820470809937e-01
2.455866709351539612e-02
-1.532780677080154419e-01
2.671588659286499023e-01
1.952528506517410278e-01
9.789346717298030853e-03
-1.957624256610870361e-01
-7.939631491899490356e-02
4.760495200753211975e-02
-1.729627400636672974e-01
1.374668926000595093e-01
2.366618514060974121e-01
1.482402086257934570e-01
-2.322180382907390594e-02
-3.394429758191108704e-02
-2.190641611814498901e-01
-2.596648931503295898e-01
2.121273130178451538e-01
-2.819323167204856873e-02
-1.286363303661346436e-01
-1.337421387434005737e-01
1.833240874111652374e-02
2.272346764802932739e-01
1.898876875638961792e-01
-2.368654906749725342e-01
1.501647084951400757e-01
-1.660874187946319580e-01
-3.909574821591377258e-02
3.278431296348571777e-02
-1.793531179428100586e-01
5.914924666285514832e-02
1.654920578002929688e-01
1.393372099846601486e-02
1.406769305467605591e-01
-3.386324271559715271e-02
1.572261005640029907e-01
1.777750849723815918e-01
-3.180890530347824097e-02
-2.435933053493499756e-01
1.162092685699462891e-01
-2.105510383844375610e-01
2.449656277894973755e-01
-1.397503912448883057e-01
-6.071520969271659851e-03
-1.077696159482002258e-01
-6.225890945643186569e-03
1.606361269950866699e-01
2.381515502929687500e-01
1.363705843687057495e-01
-2.575594484806060791e-01
1.140633895993232727e-01
1.014715135097503662e-01
1.781349629163742065e-01
-1.389808487147092819e-02
-2.362754940986633301e-01
2.786643430590629578e-02
1.246784478425979614e-01
4.009266197681427002e-02
-2.168004214763641357e-01
-2.679808437824249268e-01
-1.308300048112869263e-01
1.057743374258279800e-02
-6.459524482488632202e-02
1.966487318277359009e-01
2.668297588825225830e-01
-2.656214870512485504e-02
1.893582046031951904e-01
-4.494276270270347595e-02
-1.516363769769668579e-01
-2.597248852252960205e-01
2.534665465354919434e-01
-1.425358355045318604e-01
2.687342092394828796e-02
2.524101436138153076e-01
1.995621323585510254e-01
1.219824478030204773e-01
1.594884246587753296e-01
-1.665492802858352661e-01
2.554017603397369385e-01
9.497381746768951416e-02
3.356071934103965759e-02
1.192450076341629028e-01
2.215934097766876221e-01
-1.408311575651168823e-01
4.570042341947555542e-02
-5.366082116961479187e-02
1.479162424802780151e-01
-2.841289900243282318e-02
2.647291719913482666e-01
-1.322915703058242798e-01
2.385253012180328369e-01
-1.035357192158699036e-01
1.670828908681869507e-01
-2.586962282657623291e-01
-1.088268756866455078e-01
-2.936199866235256195e-02
-2.517077326774597168e-01
-6.236976757645606995e-02
1.370091885328292847e-01
4.114221408963203430e-02
-3.966899961233139038e-02
-2.510415613651275635e-01
2.580881714820861816e-01
-1.601233780384063721e-01
1.253899633884429932e-01
-1.292327791452407837e-01
5.734437704086303711e-02
-1.336311399936676025e-01
-1.982025057077407837e-01
1.699368283152580261e-02
1.069868206977844238e-01
-2.349822074174880981e-01
2.677503824234008789e-01
-6.155002489686012268e-02
1.234440803527832031e-01
1.125783920288085938e-01
6.525424122810363770e-02
6.893718242645263672e-02
-2.518098354339599609e-01
-7.603128999471664429e-02
-1.379241347312927246e-01
-1.664090752601623535e-01
2.240035533905029297e-01
2.344066090881824493e-02
-1.208346411585807800e-01
2.164899110794067383e-01
2.192891985177993774e-01
2.328998409211635590e-02
-2.349977940320968628e-01
2.579477131366729736e-01
-1.631038486957550049e-01
9.463282674551010132e-02
1.858308166265487671e-02
-2.868917584419250488e-02
2.358243614435195923e-01
5.791433900594711304e-02
-2.690330147743225098e-01
1.936198794282972813e-03
-2.262465059757232666e-01
1.478874534368515015e-01
1.672059297561645508e-02
-9.108637273311614990e-02
-1.714015007019042969e-01
-2.252194285392761230e-01
2.321346551179885864e-01
-2.307488322257995605e-01
-9.016789495944976807e-02
9.594487957656383514e-03
1.787941157817840576e-01
-9.326730668544769287e-02
3.977347165346145630e-02
1.456938982009887695e-01
1.878952682018280029e-01
-2.721363306045532227e-01
-1.287536621093750000e-01
-1.142549142241477966e-01
-2.470337301492691040e-01
-3.109788708388805389e-02
-1.737434417009353638e-01
1.050565671175718307e-02
2.142380625009536743e-01
-2.026187479496002197e-01
-1.156717538833618164e-01
2.292316406965255737e-01
-1.475997567176818848e-01
-2.324396222829818726e-01
9.081251174211502075e-02
1.243477463722229004e-01
1.312737017869949341e-01
1.424936503171920776e-01
-2.237550318241119385e-01
1.552536487579345703e-01
-1.548864543437957764e-01
2.015796452760696411e-01
2.679087519645690918e-01
-2.277211695909500122e-01
-6.930926442146301270e-02
1.063567698001861572e-01
1.442568302154541016e-01
-1.559300720691680908e-01
-2.140153497457504272e-01
2.186383157968521118e-01
1.750124394893646240e-01
1.377763897180557251e-01
-7.661400735378265381e-02
-1.410586237907409668e-01
9.660358726978302002e-02
-1.206994708627462387e-02
8.906576782464981079e-02
-1.166879609227180481e-01
1.277109384536743164e-01
-9.813743084669113159e-02
2.250140905380249023e-01
2.295957952737808228e-01
7.333922386169433594e-02
1.692128926515579224e-01
1.470965445041656494e-01
-4.473861772567033768e-03
1.719018965959548950e-01
-8.223091065883636475e-02
7.925951480865478516e-02
-1.368103921413421631e-01
-4.279711470007896423e-02
2.705795504152774811e-02
-9.126337245106697083e-03
6.542163342237472534e-02
-1.845333129167556763e-01
-1.584006398916244507e-01
-2.002824693918228149e-01
5.244120210409164429e-02
2.537747323513031006e-01
-1.458886712789535522e-01
-3.359307721257209778e-02
-7.059944421052932739e-02
-7.889649271965026855e-02
2.709720432758331299e-01
2.594562172889709473e-01
1.734867542982101440e-01
-6.959732621908187866e-02
-2.100361585617065430e-01
-2.653686702251434326e-02
1.541556417942047119e-01
5.479605123400688171e-02
1.308163553476333618e-01
-8.761402964591979980e-02
1.014895290136337280e-01
-1.689973473548889160e-01
2.132841199636459351e-01
1.210000067949295044e-01
1.309452205896377563e-01
1.747454553842544556e-01
-5.891540274024009705e-02
9.747846424579620361e-02
-1.542068272829055786e-01
-1.374934315681457520e-01
1.149427741765975952e-01
-1.896939575672149658e-01
2.499654144048690796e-01
1.888894662261009216e-02
2.467061281204223633e-01
-1.254328638315200806e-01
-2.367246150970458984e-02
1.619510650634765625e-01
1.167147420346736908e-02
5.153660103678703308e-02
-1.540414243936538696e-01
1.496633738279342651e-01
1.198125854134559631e-01
-7.419672608375549316e-02
2.560978233814239502e-01
-1.600268110632896423e-02
-1.295392811298370361e-01
1.866479665040969849e-01
-1.487196236848831177e-02
-2.235127985477447510e-01
-2.522893249988555908e-01
-4.098254255950450897e-03
-2.326785027980804443e-01
-2.417359799146652222e-01
-2.301843762397766113e-01
2.130600363016128540e-01
-1.936702802777290344e-02
1.156037449836730957e-01
2.227661609649658203e-01
-2.327233999967575073e-01
2.210140824317932129e-01
1.163353249430656433e-01
1.743708178400993347e-02
2.636606991291046143e-01
1.203465908765792847e-01
-1.033268719911575317e-01
8.258799463510513306e-02
-1.469970792531967163e-01
-2.561854124069213867e-01
-1.316017359495162964e-01
1.441623736172914505e-02
6.442832201719284058e-02
-1.741991341114044189e-01
2.257577478885650635e-01
2.248077541589736938e-01
-2.311356514692306519e-01
2.536788582801818848e-01
-2.704491913318634033e-01
2.715125083923339844e-01
2.559971809387207031e-01
-1.768696159124374390e-01
2.024625986814498901e-01
1.193912103772163391e-01
9.832321107387542725e-02
1.704854220151901245e-01
2.096026539802551270e-01
2.192715257406234741e-01
-1.487016975879669189e-01
9.509432315826416016e-02
1.651061177253723145e-01
-1.691638827323913574e-01
-2.571377158164978027e-01
-6.811465322971343994e-02
5.012899264693260193e-02
1.085498631000518799e-01
-4.247464984655380249e-02
4.664382338523864746e-02
1.884820498526096344e-02
-2.689557969570159912e-01
1.181814298033714294e-01
1.008324623107910156e-01
9.204163402318954468e-02
3.828279674053192139e-02
2.024235874414443970e-01
-1.850178688764572144e-01
-3.519680351018905640e-02
-2.513836920261383057e-01
7.752434909343719482e-02
-1.887305378913879395e-01
5.339818447828292847e-02
1.493175514042377472e-02
-1.289758235216140747e-01
2.332834750413894653e-01
-1.269517540931701660e-01
6.069030612707138062e-02
5.273890495300292969e-02
9.721427410840988159e-02
6.386070698499679565e-02
-8.358203619718551636e-02
7.873357087373733521e-02
2.666524350643157959e-01
7.746280729770660400e-02
1.719900518655776978e-01
2.343771904706954956e-01
1.034072265028953552e-01
-2.501997947692871094e-01
1.316891312599182129e-01
1.030204892158508301e-01
-2.297709435224533081e-01
1.245371624827384949e-01
-2.009978890419006348e-01
-8.187238126993179321e-02
2.927796542644500732e-02
1.777274459600448608e-01
2.893689274787902832e-02
-2.348383814096450806e-01
-1.112591177225112915e-01
8.900733292102813721e-02
-3.612301126122474670e-02
1.293833851814270020e-01
-5.472427234053611755e-03
-2.083166986703872681e-01
9.493530727922916412e-03
2.584927529096603394e-02
-2.571112513542175293e-01
6.849252432584762573e-02
-1.298065930604934692e-01
3.815563023090362549e-02
-2.693107128143310547e-01
-1.718126535415649414e-01
2.689784169197082520e-01
9.953158348798751831e-02
1.736365556716918945e-01
-2.015242129564285278e-01
7.311664521694183350e-02
2.445364594459533691e-01
-3.052573651075363159e-02
-2.281101346015930176e-01
2.104846574366092682e-02
-1.950832903385162354e-01
2.188958674669265747e-01
-1.550218760967254639e-01
-9.439275600016117096e-03
5.818088352680206299e-02
-6.198843196034431458e-02
7.750921696424484253e-02
1.898512095212936401e-01
-5.218383669853210449e-02
1.122781187295913696e-01
-5.732737481594085693e-02
2.280657291412353516e-01
-2.541277408599853516e-01
-1.349131911993026733e-01
2.402350157499313354e-01
-1.655979603528976440e-01
-1.584837138652801514e-01
-3.872522339224815369e-02
-4.025771468877792358e-02
1.085146069526672363e-01
2.175346761941909790e-01
4.501915350556373596e-02
-1.199887692928314209e-01
1.926057934761047363e-01
-2.432281076908111572e-01
-1.088326424360275269e-01
1.917361617088317871e-01
-2.032043635845184326e-01
1.405751854181289673e-01
-2.405960857868194580e-01
-1.457741409540176392e-01
-8.495956659317016602e-02
-1.625645607709884644e-01
5.613397434353828430e-02
-1.971236169338226318e-01
-9.172097779810428619e-03
2.477506101131439209e-01
-2.918934915214776993e-03
2.337857484817504883e-01
3.769063204526901245e-02
-2.227828055620193481e-01
-1.255156695842742920e-01
1.030254885554313660e-01
9.264156967401504517e-02
2.027126848697662354e-01
2.280815541744232178e-01
8.688908815383911133e-02
1.369732022285461426e-01
2.702331244945526123e-01
-2.266674637794494629e-01
1.297282129526138306e-01
-1.501427739858627319e-01
2.479775696992874146e-01
1.425287127494812012e-01
2.800601907074451447e-02
-1.198141798377037048e-01
-9.767697751522064209e-02
-1.440282166004180908e-01
-1.149832084774971008e-02
1.313120312988758087e-02
-2.493888735771179199e-01
-1.199363246560096741e-01
-2.049014270305633545e-01
1.060900613665580750e-01
-2.202214859426021576e-02
5.042326450347900391e-02
3.075717203319072723e-02
-1.221357062458992004e-01
1.878902912139892578e-01
2.519676387310028076e-01
-7.749676704406738281e-02
7.022798527032136917e-03
2.379249781370162964e-01
2.028559446334838867e-01
-2.472364008426666260e-01
-2.672292292118072510e-02
1.908032447099685669e-01
-9.091794490814208984e-02
-1.406623236835002899e-02
-5.245746299624443054e-02
-1.427162140607833862e-01
1.236568912863731384e-01
-1.743549406528472900e-01
-2.634333074092864990e-01
-1.734841801226139069e-02
9.043854661285877228e-03
2.602021098136901855e-01
-2.120753675699234009e-01
-2.617092728614807129e-01
-2.273577004671096802e-01
8.265950530767440796e-02
-7.609901577234268188e-02
1.975773274898529053e-01
-4.154040291905403137e-02
-1.595958769321441650e-01
-3.655981644988059998e-02
2.543098628520965576e-01
1.531838327646255493e-01
-2.521452605724334717e-01
-2.039218842983245850e-01
-5.102764070034027100e-02
4.280057176947593689e-02
5.063189566135406494e-02
-8.557508885860443115e-02
4.284600913524627686e-02
-2.648943662643432617e-01
-2.063982933759689331e-01
4.312016814947128296e-02
7.732434663921594620e-03
1.981111317873001099e-01
-2.551320008933544159e-03
1.016909629106521606e-01
2.347016781568527222e-01
1.326580196619033813e-01
-1.499928534030914307e-01
-6.766373664140701294e-02
-3.663257881999015808e-02
-1.403598785400390625e-01
4.149448499083518982e-02
1.860308051109313965e-01
-2.374156378209590912e-02
9.415268898010253906e-02
-2.559014558792114258e-01
2.217873185873031616e-01
9.208758175373077393e-02
-2.098793536424636841e-01
-2.702018022537231445e-01
-2.426123172044754028e-01
1.285042893141508102e-02
1.556967347860336304e-01
-2.269143760204315186e-01
-1.077438816428184509e-01
2.028070241212844849e-01
-1.060051750391721725e-02
4.255587980151176453e-02
-1.260730773210525513e-01
-2.168709486722946167e-01
1.592353731393814087e-01
1.395204812288284302e-01
2.603758573532104492e-01
1.732739657163619995e-01
-1.425784677267074585e-01
-7.976413518190383911e-02
1.092950031161308289e-01
-2.314724773168563843e-01
-1.671325117349624634e-01
-1.351789087057113647e-01
2.395690828561782837e-01
-8.631940931081771851e-02
1.062649786472320557e-01
1.689616292715072632e-01
2.429019510746002197e-01
-2.463368140161037445e-02
6.021349225193262100e-03
-4.586897790431976318e-02
-2.034832686185836792e-01
2.581156790256500244e-01
8.152481168508529663e-03
-1.361779868602752686e-02
-1.347135454416275024e-01
-1.917967945337295532e-01
-1.117057800292968750e-01
2.044804245233535767e-01
-7.128058373928070068e-02
2.226055264472961426e-01
-1.223808228969573975e-01
1.798823177814483643e-01
2.540622949600219727e-01
-7.674243301153182983e-03
2.284724116325378418e-01
8.473298698663711548e-02
2.521641850471496582e-01
-3.128504753112792969e-02
4.504962638020515442e-02
-2.478691488504409790e-01
2.270573079586029053e-01
-3.129745647311210632e-02
-1.072503277100622654e-03
-9.930667281150817871e-02
2.504580318927764893e-01
2.365593798458576202e-02
1.688975095748901367e-01
-7.000036537647247314e-02
4.723084345459938049e-02
2.100348323583602905e-01
1.484989076852798462e-01
7.314888294786214828e-03
