-3.818607365246862173e-04
-4.931401344947516918e-04
-2.868355659302324057e-04
1.304128527408465743e-04
-5.680280737578868866e-04
1.654694206081330776e-03
2.103804436046630144e-04
-4.898790502920746803e-04
-4.256454412825405598e-04
1.219707541167736053e-03
2.752338303253054619e-03
1.567911589518189430e-03
8.440030505880713463e-04
-1.454167999327182770e-03
-1.518716744612902403e-04
1.596477668499574065e-04
-1.594220288097858429e-03
-1.094803214073181152e-03
1.686974719632416964e-04
2.796918619424104691e-03
-1.443393761292099953e-03
-1.787223300198093057e-04
2.459768147673457861e-04
3.190405433997511864e-03
-2.916775702033191919e-04
-9.558051242493093014e-04
6.709560693707317114e-05
-1.271971501410007477e-03
-8.846694836392998695e-04
-6.807554746046662331e-04
-1.297413400607183576e-04
-1.108641154132783413e-03
-5.922198761254549026e-04
1.871676417067646980e-03
-2.047627931460738182e-03
5.408505909144878387e-03
-1.122019748436287045e-04
5.260637262836098671e-04
8.884112467058002949e-04
2.147208899259567261e-03
2.074734307825565338e-03
1.210662769153714180e-03
1.648456323891878128e-03
3.786489542108029127e-04
2.114143688231706619e-03
9.422602015547454357e-04
-2.469927712809294462e-04
1.075007137842476368e-03
-3.716016944963485003e-04
-3.252122405683621764e-05
-6.513498374260962009e-04
1.880064839497208595e-03
9.788225870579481125e-04
-8.886506111593917012e-05
-1.180913764983415604e-03
8.614262915216386318e-04
1.775509444996714592e-03
1.382009708322584629e-03
-3.760945401154458523e-04
1.798618322936818004e-04
1.393169746734201908e-03
-6.385663291439414024e-04
-4.677586912293918431e-05
-5.005639395676553249e-04
4.593785852193832397e-04
2.852632431313395500e-03
2.250566176371648908e-04
4.396887379698455334e-04
1.660008332692086697e-03
-9.347313898615539074e-04
-1.050383507390506566e-04
-2.723260695347562432e-05
-5.542309372685849667e-04
-1.311624539084732533e-03
3.156788006890565157e-04
1.918462337926030159e-03
-9.524251072434708476e-05
-3.984690993092954159e-04
2.710032276809215546e-04
-2.355061005800962448e-03
-1.396771054714918137e-03
-1.523821265436708927e-03
-5.817195051349699497e-04
5.481810308992862701e-03
-2.287093084305524826e-03
7.941669537103734910e-06
3.213823219994083047e-05
-1.687513547949492931e-03
-9.644551901146769524e-04
-5.175663391128182411e-04
-3.569212742149829865e-03
2.108569606207311153e-04
-1.962740439921617508e-03
-1.497745979577302933e-03
-2.545812094467692077e-05
1.571698812767863274e-03
-1.512961112894117832e-03
3.672644379548728466e-04
7.574795163236558437e-04
-1.156390993855893612e-03
-9.963083357433788478e-06
1.498084864579141140e-03
1.319608563790097833e-04
2.114940116371144541e-07
-1.418715401086956263e-04
-1.264929742319509387e-04
3.170186653733253479e-03
9.082778706215322018e-05
2.097607793984934688e-04
5.339959752745926380e-04
6.388621870428323746e-03
-1.971457459148950875e-05
5.121584981679916382e-04
1.987651223316788673e-03
-8.199596777558326721e-04
-2.870504977181553841e-04
1.726678339764475822e-03
1.890553859993815422e-03
3.247543063480407000e-04
1.089510915335267782e-04
-4.579918459057807922e-04
-2.666151616722345352e-03
1.820383840822614729e-05
-3.958685265388339758e-04
2.395999385043978691e-03
9.405433665961027145e-04
8.716179872862994671e-04
-2.242988441139459610e-03
