3.625792669481597841e-05
1.539778662845492363e-03
2.443979838062659837e-06
0.000000000000000000e+00
-6.233569583855569363e-04
-2.321395839999240707e-07
1.090222736820578575e-03
3.307507839053869247e-03
3.294210728199686855e-06
2.089173765853047371e-03
2.307264134287834167e-03
1.673058432061225176e-04
2.465112811478320509e-05
6.314570782706141472e-05
-1.119880122132599354e-03
-3.210164431948214769e-04
-1.500758575275540352e-03
-7.365826750174164772e-04
-1.001962300506420434e-05
-2.430021122563630342e-04
8.440091187367215753e-05
-2.991018991451710463e-04
-3.674554754979908466e-04
5.173474084585905075e-03
4.875594167970120907e-04
3.784579166676849127e-05
5.250152898952364922e-04
-2.045217202976346016e-03
2.954528099508024752e-05
-1.859098323620855808e-03
-1.737425685860216618e-03
-6.713215261697769165e-04
1.734577235765755177e-03
0.000000000000000000e+00
-1.782653271220624447e-03
4.061859101057052612e-03
-5.304642854753183201e-06
-7.882036152295768261e-04
1.498361118137836456e-03
8.862165850587189198e-04
-2.028931630775332451e-03
6.180029013194143772e-04
0.000000000000000000e+00
-6.139062315924093127e-05
7.010604604147374630e-04
-3.401460708118975163e-05
1.339453039690852165e-03
4.320330917835235596e-04
6.529125384986400604e-04
9.926826460286974907e-04
6.057185601093806326e-06
5.265573854558169842e-04
2.211004495620727539e-03
-3.779291582759469748e-04
-1.385982264764606953e-03
1.692425110377371311e-03
-5.198310129344463348e-03
-9.404218872077763081e-04
2.465712837874889374e-03
-1.874730223789811134e-04
5.523861618712544441e-04
1.788747176760807633e-04
-1.895574619993567467e-03
1.399001462232263293e-06
5.481888656504452229e-04
1.164726447314023972e-03
1.113068428821861744e-03
0.000000000000000000e+00
3.467293456196784973e-03
1.060527847585035488e-05
-1.750763389281928539e-03
3.773630887735635042e-04
-2.511478494852781296e-03
4.624797611540998332e-07
2.585454785730689764e-04
-1.758668622642289847e-05
2.570176366134546697e-05
-1.611479237908497453e-04
-8.220600284403190017e-05
-1.267629908397793770e-03
-1.403651316650211811e-03
-9.111717808991670609e-04
-5.008507287129759789e-04
3.143533831462264061e-03
1.413061632774770260e-03
-1.511482521891593933e-03
3.228963760193437338e-05
1.491913571953773499e-03
-1.648762030526995659e-03
-7.841463084332644939e-04
-1.428495124855544418e-06
6.909870426170527935e-04
-1.371889724396169186e-03
1.151756805484183133e-06
1.793625182472169399e-03
1.069062505848705769e-03
1.959272660315036774e-03
-1.827329397201538086e-03
-4.563263792078942060e-04
-5.856283241882920265e-04
1.813863491406664252e-04
-7.090155268087983131e-04
-7.171536562964320183e-04
1.089207711629569530e-03
2.986834715557051823e-06
-3.547480082488618791e-05
2.006761496886610985e-03
-8.871236350387334824e-04
-1.721762819215655327e-04
-1.387076685205101967e-03
-9.240600775228813291e-06
5.278753582388162613e-03
9.368903120048344135e-04
-3.833776107057929039e-03
-5.242976476438343525e-04
1.055053318850696087e-03
-1.540020224638283253e-03
3.762760024983435869e-04
-1.521456055343151093e-03
-2.041709143668413162e-03
-3.013480454683303833e-05
-1.204933621920645237e-03
2.581097069196403027e-04
1.237176591530442238e-03
2.476054942235350609e-03
1.034042914398014545e-03
1.636158913242979906e-06
-1.144981360994279385e-03
