-5.656504631042480469e-02
-3.417670726776123047e-02
5.300097540020942688e-02
2.732489444315433502e-02
1.329606678336858749e-02
-1.920315250754356384e-02
-2.027145773172378540e-02
-3.257447481155395508e-02
-4.492979496717453003e-02
-2.875076048076152802e-02
1.709263026714324951e-02
3.947894647717475891e-02
-3.873541206121444702e-02
-6.387851387262344360e-02
-5.302038416266441345e-02
-1.227956265211105347e-02
-3.056053444743156433e-02
2.677901461720466614e-02
-6.423191726207733154e-02
-3.596629202365875244e-02
-7.474385667592287064e-03
-4.159912467002868652e-02
-3.944265097379684448e-02
-4.791339114308357239e-02
-6.421866267919540405e-02
-9.948193095624446869e-03
1.912126317620277405e-02
5.775991827249526978e-02
-4.275838658213615417e-02
-1.211919635534286499e-02
6.286965310573577881e-02
-5.254220589995384216e-02
4.026659764349460602e-03
6.011196598410606384e-02
5.159394443035125732e-02
-1.909983530640602112e-02
1.080444827675819397e-02
-5.433505028486251831e-02
6.042799353599548340e-02
3.620015829801559448e-02
-3.252982720732688904e-02
-3.340684249997138977e-02
-5.355752259492874146e-02
-5.377509444952011108e-02
-4.418499022722244263e-02
1.637037098407745361e-02
-1.717636175453662872e-02
-3.839727723971009254e-03
-1.206101477146148682e-02
3.552660718560218811e-02
-4.293356463313102722e-02
-4.637236893177032471e-02
-4.485069308429956436e-03
1.917933672666549683e-02
4.450806975364685059e-02
-2.691205032169818878e-02
-2.529689576476812363e-03
1.693616993725299835e-02
-4.904096946120262146e-02
-8.967088651843369007e-04
-9.339271113276481628e-03
4.097703099250793457e-02
3.862732648849487305e-02
-8.793613524176180363e-04
-6.447088718414306641e-02
-2.398914098739624023e-02
-2.428178861737251282e-02
-7.618336938321590424e-03
3.546876134350895882e-03
3.246897459030151367e-02
5.621477589011192322e-02
-6.134124472737312317e-02
-2.858878672122955322e-02
-1.095963455736637115e-02
-5.251366645097732544e-02
5.979939177632331848e-02
5.597738921642303467e-02
6.270971149206161499e-02
5.811592936515808105e-02
-1.278186216950416565e-02
9.308270178735256195e-03
-1.210924051702022552e-02
1.488720765337347984e-03
4.115971177816390991e-02
-5.437304079532623291e-02
-1.868729852139949799e-02
-6.208984553813934326e-02
-1.710607856512069702e-02
2.130133286118507385e-02
5.476968735456466675e-02
1.293678302317857742e-02
-5.500319972634315491e-02
-3.978934884071350098e-02
3.726610681042075157e-03
1.441043056547641754e-02
-5.640390515327453613e-02
-4.949916154146194458e-02
-5.594860762357711792e-02
-1.692099310457706451e-02
-6.449396908283233643e-02
-4.485160112380981445e-02
2.709189988672733307e-02
2.904789522290229797e-02
-1.694438420236110687e-02
3.176847845315933228e-02
5.758349597454071045e-02
9.091363288462162018e-03
-6.300325691699981689e-02
5.226188525557518005e-02
3.326342627406120300e-02
-6.292005628347396851e-02
2.549046277999877930e-02
-4.160995036363601685e-02
6.422105431556701660e-02
-4.666839167475700378e-02
3.471507877111434937e-02
-2.604185603559017181e-02
3.511911630630493164e-02
-4.608565475791692734e-03
3.059177473187446594e-02
4.545024037361145020e-02
5.613500252366065979e-02
-2.923711389303207397e-02
-5.452791601419448853e-02
-4.683685675263404846e-02
-6.289643794298171997e-02
5.102904886007308960e-02
-3.430186957120895386e-02
-5.698407441377639771e-02
2.829606272280216217e-02
-5.693955346941947937e-02
3.204846009612083435e-02
-1.884695142507553101e-02
-5.021223425865173340e-02
-4.904450383037328720e-03
3.860953450202941895e-02
-6.223580241203308105e-02
2.952678874135017395e-02
-2.989105647429823875e-03
2.004620805382728577e-02
-4.553367942571640015e-02
-5.548853054642677307e-02
4.698787257075309753e-02
5.943140015006065369e-02
4.766607284545898438e-02
6.270080059766769409e-02
-1.081745047122240067e-02
-6.179302930831909180e-02
1.373347267508506775e-02
-3.418691083788871765e-02
-3.717242553830146790e-02
8.190876804292201996e-03
-8.098687976598739624e-03
5.257590115070343018e-02
4.962935298681259155e-02
4.860434681177139282e-02
-2.807783335447311401e-02
-4.913743212819099426e-02
-1.926658675074577332e-02
-2.787259221076965332e-02
5.060638114809989929e-02
7.845642976462841034e-03
5.721588432788848877e-02
-5.847800150513648987e-02
-4.046387597918510437e-02
3.717358410358428955e-02
1.249188557267189026e-02
5.762564390897750854e-02
4.870290681719779968e-02
-8.795589674264192581e-04
-4.219770058989524841e-02
7.922807708382606506e-03
3.039795346558094025e-02
1.458089426159858704e-02
3.222947195172309875e-02
-6.056019663810729980e-02
-7.981170900166034698e-03
-3.951812162995338440e-02
6.168909370899200439e-02
-1.114799268543720245e-02
-6.094493344426155090e-02
3.240231424570083618e-02
-5.318991094827651978e-02
4.664580337703227997e-03
7.588072912767529488e-04
3.868647664785385132e-02
-1.616992871277034283e-03
-5.242665857076644897e-02
2.546002389863133430e-03
-4.281654953956604004e-02
-2.081120572984218597e-02
-4.701964929699897766e-02
2.382071316242218018e-02
-4.415725171566009521e-02
-1.302190963178873062e-02
4.015523195266723633e-02
-3.045057319104671478e-02
-3.897570818662643433e-02
4.694075137376785278e-02
-6.328967213630676270e-02
3.114025853574275970e-02
5.550573021173477173e-02
-2.407152764499187469e-02
-3.677488490939140320e-02
3.177340701222419739e-02
3.654296323657035828e-02
4.194667562842369080e-02
2.986907027661800385e-02
-3.557454422116279602e-02
4.762197658419609070e-02
-4.182634875178337097e-02
-3.223294392228126526e-02
-4.655821621417999268e-02
2.542242407798767090e-02
4.638404026627540588e-02
-6.382113695144653320e-02
-2.133893780410289764e-02
-5.747115239500999451e-02
-1.681210659444332123e-02
-7.594112306833267212e-03
-4.523336142301559448e-02
-2.334427088499069214e-02
-5.924328044056892395e-02
-5.533016845583915710e-02
-2.212899550795555115e-02
2.227061195299029350e-03
-3.528560698032379150e-02
-4.741607699543237686e-03
4.971408843994140625e-02
-3.393230214715003967e-02
-3.555374220013618469e-02
4.168946295976638794e-02
2.076354436576366425e-02
6.351689249277114868e-02
4.864882677793502808e-02
-2.216747216880321503e-02
9.687824174761772156e-03
-3.181222826242446899e-03
-6.627164781093597412e-03
-2.584688179194927216e-02
3.349049389362335205e-02
1.548322848975658417e-02
7.594840135425329208e-03
-1.048352103680372238e-03
-3.224152326583862305e-02
5.042822286486625671e-02
3.495400026440620422e-02
4.896282032132148743e-02
-5.339850857853889465e-02
-1.599917747080326080e-02
5.103892832994461060e-02
-2.304105274379253387e-02
-5.805814266204833984e-02
-1.760486327111721039e-02
1.676208525896072388e-02
8.262299932539463043e-03
-2.380852587521076202e-02
2.539026364684104919e-02
-4.804513975977897644e-02
3.017452731728553772e-02
-6.059688329696655273e-02
4.120818525552749634e-02
-5.808005109429359436e-02
3.937635198235511780e-02
-1.419650018215179443e-02
1.697310805320739746e-02
3.494510799646377563e-02
-3.949480131268501282e-03
1.473869569599628448e-02
3.232834860682487488e-02
-1.155784819275140762e-02
-1.195446029305458069e-02
1.633078232407569885e-02
6.233629956841468811e-02
5.075901374220848083e-02
3.671009838581085205e-02
4.346446692943572998e-02
6.428464502096176147e-02
1.117323152720928192e-02
2.733613178133964539e-02
2.487482689321041107e-02
2.863895893096923828e-02
3.653267398476600647e-02
-5.397932231426239014e-02
2.821998670697212219e-02
-2.009437046945095062e-02
-4.628171026706695557e-02
2.456790395081043243e-02
-4.335391800850629807e-03
3.366598859429359436e-02
2.189259044826030731e-02
1.899119280278682709e-02
-3.032135963439941406e-02
-7.028425112366676331e-03
-2.268075384199619293e-02
-1.924181729555130005e-02
-3.342073410749435425e-02
3.190639987587928772e-02
-3.781409189105033875e-02
-1.174245867878198624e-02
-1.583938114345073700e-02
-5.432848632335662842e-02
-5.350241810083389282e-02
-1.267859525978565216e-02
-5.711297690868377686e-02
5.979510396718978882e-02
-4.695759341120719910e-02
1.824042759835720062e-02
-2.104731649160385132e-02
-6.186321377754211426e-02
-3.274857252836227417e-02
-4.150296375155448914e-02
-5.009813606739044189e-02
-5.443478748202323914e-02
-9.510536678135395050e-03
-5.017663165926933289e-02
-1.530600129626691341e-03
-3.508800268173217773e-02
5.989601090550422668e-02
3.055135160684585571e-02
1.108521595597267151e-02
4.274972155690193176e-02
2.759226784110069275e-02
-1.781681366264820099e-02
-4.239840805530548096e-02
-5.292843282222747803e-02
5.299635976552963257e-02
-3.863533213734626770e-02
4.918347299098968506e-02
7.511506788432598114e-03
2.858476340770721436e-02
-5.298052355647087097e-02
-2.426725625991821289e-02
5.894690752029418945e-02
-2.387524023652076721e-02
-2.645894885063171387e-02
-4.637529700994491577e-02
3.847854956984519958e-02
2.904208190739154816e-02
6.295216828584671021e-02
1.513405051082372665e-02
-4.396748915314674377e-02
1.461343560367822647e-02
-2.030234970152378082e-02
6.000526621937751770e-02
-1.579576358199119568e-02
-1.060016546398401260e-02
3.980936110019683838e-02
-3.264426440000534058e-02
2.294483222067356110e-02
-3.959166258573532104e-02
-3.087072633206844330e-02
3.475903719663619995e-02
3.945972770452499390e-02
-1.195320021361112595e-02
-6.133911386132240295e-02
5.702482163906097412e-02
-6.224966794252395630e-02
-1.479709334671497345e-02
-1.849970780313014984e-02
-4.898543003946542740e-03
2.755607664585113525e-02
-5.961924046277999878e-02
-5.629857629537582397e-02
1.985450275242328644e-02
2.226981148123741150e-02
-5.031349882483482361e-02
6.634403020143508911e-03
-3.769882395863533020e-02
-3.234383836388587952e-02
-3.193505480885505676e-02
6.557165179401636124e-03
-1.396340318024158478e-02
1.462009083479642868e-02
4.414019733667373657e-02
1.667817868292331696e-02
4.869871959090232849e-02
-8.967557922005653381e-03
5.512868985533714294e-02
-3.505977615714073181e-02
-3.695122525095939636e-02
-4.589771851897239685e-02
4.777096584439277649e-02
3.896534815430641174e-02
-4.659650474786758423e-02
-4.110003262758255005e-02
1.973480731248855591e-02
5.213227868080139160e-02
1.500598154962062836e-02
1.112440321594476700e-02
-2.672107890248298645e-02
2.020896784961223602e-02
1.452366262674331665e-02
-2.666241303086280823e-02
-9.404107928276062012e-03
-3.711353987455368042e-03
6.344374269247055054e-02
5.188314616680145264e-02
3.356191515922546387e-02
2.263774722814559937e-02
4.057214409112930298e-02
1.231790333986282349e-02
-5.772613734006881714e-02
-4.181384295225143433e-02
-3.100692108273506165e-02
4.780039191246032715e-03
2.792453765869140625e-02
6.012946367263793945e-02
2.143313735723495483e-02
-4.384455084800720215e-02
-6.418789178133010864e-02
-4.818484187126159668e-03
5.219481885433197021e-03
5.892408639192581177e-02
2.258864045143127441e-02
1.430677622556686401e-02
5.496369302272796631e-02
3.827074915170669556e-02
-1.438712328672409058e-02
-2.085071057081222534e-02
2.586497366428375244e-02
6.328120082616806030e-02
-1.491463556885719299e-02
3.220824152231216431e-02
-5.129314959049224854e-02
2.629852108657360077e-02
-3.791730478405952454e-02
-6.021426245570182800e-02
-2.714594453573226929e-02
2.661402104422450066e-03
-1.390825584530830383e-02
-5.784886423498392105e-03
-1.846411451697349548e-02
-3.531198948621749878e-02
-6.114387139678001404e-02
-4.384575039148330688e-02
6.092642992734909058e-02
-1.538769900798797607e-02
-2.969464287161827087e-02
2.961872704327106476e-02
-1.391537254676222801e-03
5.695594102144241333e-02
5.837430059909820557e-02
-1.277733827009797096e-03
-5.422796308994293213e-02
-8.969958871603012085e-03
-4.578205943107604980e-02
-3.864903002977371216e-02
-3.485572338104248047e-02
-3.319955989718437195e-02
1.149742305278778076e-02
-2.418838441371917725e-03
-9.664352983236312866e-03
-1.509630773216485977e-02
-2.621287479996681213e-02
2.696065604686737061e-02
3.132158517837524414e-02
-3.941433038562536240e-03
4.276073724031448364e-02
5.686803162097930908e-02
1.551657170057296753e-02
1.113928481936454773e-02
2.377197891473770142e-02
-5.231975764036178589e-02
2.347357571125030518e-02
8.835623040795326233e-03
4.678128752857446671e-03
6.171555072069168091e-02
2.695550024509429932e-02
-7.559570949524641037e-03
5.733036994934082031e-02
1.847681403160095215e-02
-3.502759709954261780e-02
5.128183960914611816e-02
2.736208960413932800e-02
3.226331667974591255e-03
1.886975765228271484e-02
-4.136284440755844116e-02
-4.421389102935791016e-02
1.283698482438921928e-03
-2.495204657316207886e-02
1.011483650654554367e-02
2.171317487955093384e-02
-1.316945254802703857e-02
-8.399007492698729038e-04
7.421878981404006481e-04
-2.488657832145690918e-02
6.449043005704879761e-02
-1.276723667979240417e-02
4.000665992498397827e-02
4.451094567775726318e-02
-6.288859993219375610e-02
-2.527729421854019165e-02
-6.165876984596252441e-02
-3.122231923043727875e-03
-3.947535902261734009e-02
1.982861012220382690e-02
-2.470891550183296204e-02
-6.076011061668395996e-02
-5.914303660392761230e-02
1.242826343514025211e-03
-5.463257431983947754e-03
-4.280156642198562622e-02
-5.080798268318176270e-02
9.557879529893398285e-03
-2.816813997924327850e-02
-6.211834028363227844e-02
1.206751912832260132e-02
4.448621720075607300e-02
1.038201712071895599e-02
-1.600245595909655094e-03
5.148667842149734497e-02
2.601749449968338013e-02
5.589763168245553970e-03
-2.737720310688018799e-02
-4.370353370904922485e-02
8.721614256501197815e-03
8.828848600387573242e-03
-7.552586495876312256e-03
2.434836700558662415e-02
-4.961182922124862671e-02
-1.529054809361696243e-02
2.695949748158454895e-02
5.832549929618835449e-02
-7.718459237366914749e-04
4.092173650860786438e-02
-4.680579155683517456e-02
-3.406462445855140686e-02
5.291150137782096863e-02
-2.078327350318431854e-02
-3.394318744540214539e-02
7.327318657189607620e-03
2.882504835724830627e-02
-3.014261275529861450e-02
4.246677272021770477e-03
1.799863413907587528e-03
5.467064678668975830e-02
3.444793820381164551e-02
-8.424354717135429382e-03
2.128849737346172333e-02
-5.609764531254768372e-02
-2.859142422676086426e-02
4.973020404577255249e-02
3.612124919891357422e-02
-1.686158031225204468e-02
7.033933885395526886e-03
-1.380135398358106613e-02
2.852499019354581833e-03
1.308114826679229736e-02
3.890698403120040894e-02
-5.509069561958312988e-02
-4.262847453355789185e-02
-3.652637079358100891e-02
4.716482479125261307e-03
2.748902142047882080e-02
-1.738558150827884674e-02
-5.185614898800849915e-02
1.344451680779457092e-02
5.225469544529914856e-02
4.566184058785438538e-02
-1.366006396710872650e-02
-3.629072755575180054e-02
-4.420167207717895508e-02
-1.758155040442943573e-02
-4.793019592761993408e-02
1.756470091640949249e-02
4.757111892104148865e-02
6.162834540009498596e-02
4.525301977992057800e-02
-6.098530068993568420e-02
4.448968544602394104e-02
6.092939525842666626e-02
5.381119623780250549e-02
-9.371850639581680298e-03
-1.794430613517761230e-02
1.623044162988662720e-02
-4.408765211701393127e-02
-4.452818632125854492e-02
2.868762426078319550e-02
2.990645170211791992e-02
-5.107118748128414154e-03
-7.702376693487167358e-03
1.576694659888744354e-02
4.357279464602470398e-02
-1.752303354442119598e-02
-2.624396048486232758e-02
3.466542065143585205e-02
-5.935801565647125244e-02
3.415960818529129028e-02
4.045709222555160522e-02
-4.368696734309196472e-02
-4.598214477300643921e-02
3.867851942777633667e-02
5.728818848729133606e-02
3.339959308505058289e-02
1.791722699999809265e-02
-6.019525602459907532e-02
-2.404205501079559326e-02
-4.626183584332466125e-02
-4.743823409080505371e-02
-4.317118320614099503e-03
-2.687190845608711243e-02
-2.419842965900897980e-02
5.949651077389717102e-02
-5.783883854746818542e-02
-4.683607816696166992e-02
-3.789224475622177124e-02
4.247398674488067627e-02
-4.288128763437271118e-02
-4.085125029087066650e-02
-2.967064501717686653e-03
-6.259065866470336914e-02
-1.042317692190408707e-02
1.331753190606832504e-02
4.655776172876358032e-02
-4.397965967655181885e-02
4.521732404828071594e-02
-1.904889941215515137e-02
3.381343185901641846e-02
5.729269981384277344e-02
-4.737684503197669983e-02
1.723848655819892883e-02
5.311211943626403809e-02
3.823658078908920288e-02
1.791030541062355042e-02
-5.380643904209136963e-02
5.574176833033561707e-02
-6.086530163884162903e-02
2.031678892672061920e-02
1.880031451582908630e-02
2.633687108755111694e-02
-2.509940229356288910e-02
-4.483677446842193604e-02
1.484112115576863289e-03
6.283222138881683350e-02
-3.575398027896881104e-02
-1.230615453096106648e-04
-5.615685135126113892e-02
-2.956033125519752502e-02
-5.415860563516616821e-02
-5.878373235464096069e-02
3.772950917482376099e-02
-5.156298354268074036e-02
-1.461730059236288071e-02
-3.199824830517172813e-03
2.428304031491279602e-02
-1.797149516642093658e-02
1.225398387759923935e-03
-6.031759828329086304e-02
-8.573129773139953613e-03
-3.205862268805503845e-02
-3.612171486020088196e-02
1.983606442809104919e-02
7.246359717100858688e-03
3.494498552754521370e-03
-5.860670004040002823e-03
-7.930156774818897247e-03
1.270886883139610291e-02
6.080498173832893372e-02
1.984461210668087006e-02
5.656271055340766907e-02
-2.683523809537291527e-03
4.859980195760726929e-02
4.283319041132926941e-02
2.325723133981227875e-02
4.118499159812927246e-02
-3.485349938273429871e-02
-7.507496979087591171e-03
4.733844473958015442e-02
4.764834418892860413e-02
-6.449631601572036743e-02
-5.080795846879482269e-03
-5.044175311923027039e-02
3.804551810026168823e-02
-6.410829722881317139e-02
2.593143470585346222e-02
2.920160256326198578e-02
4.564533382654190063e-02
4.376034811139106750e-02
5.963268876075744629e-02
-7.854089140892028809e-03
2.349410578608512878e-02
-5.725603923201560974e-02
6.376884132623672485e-02
-5.533242970705032349e-02
-3.919059038162231445e-02
2.625025436282157898e-02
-5.345367267727851868e-02
-5.092467740178108215e-02
-2.417141757905483246e-02
-4.590169712901115417e-02
1.288455259054899216e-02
1.309052389115095139e-02
-5.788773670792579651e-02
-1.842083036899566650e-02
4.816910251975059509e-03
5.905104428529739380e-02
2.310147508978843689e-02
3.481837734580039978e-02
5.116501823067665100e-03
-4.206006228923797607e-02
-2.431601285934448242e-03
-2.724299766123294830e-02
1.393906492739915848e-02
-1.926204934716224670e-02
1.464532315731048584e-02
-2.114209905266761780e-02
-3.881492093205451965e-02
1.410846365615725517e-03
4.917961731553077698e-02
4.616328701376914978e-02
-2.519860677421092987e-02
4.036361351609230042e-02
6.235178187489509583e-02
-2.434218116104602814e-02
3.378726914525032043e-02
-3.096609562635421753e-02
-4.892855137586593628e-02
1.715116389095783234e-02
-3.992008045315742493e-02
1.310816034674644470e-02
3.282351791858673096e-02
4.343227297067642212e-02
-6.238304078578948975e-02
5.534153059124946594e-02
3.302973508834838867e-02
1.751426979899406433e-02
5.326904729008674622e-02
-3.462476655840873718e-02
1.298250537365674973e-02
2.337614260613918304e-02
-4.302921518683433533e-02
1.770845614373683929e-02
-3.334064409136772156e-02
-1.471472345292568207e-02
-1.794460345990955830e-03
-4.421015735715627670e-03
3.877783194184303284e-02
-1.253430452197790146e-02
-3.044597804546356201e-02
-4.846477881073951721e-02
5.799518153071403503e-02
5.817996338009834290e-02
5.441313609480857849e-02
-4.019239544868469238e-02
4.106932133436203003e-02
3.227528929710388184e-02
-5.628245323896408081e-02
-3.366380697116255760e-03
-6.783494260162115097e-03
-6.284756958484649658e-02
-2.887663431465625763e-02
6.109356880187988281e-02
-2.728029340505599976e-02
4.390200227499008179e-02
-1.856600493192672729e-02
-1.153574921772815287e-04
-4.430092871189117432e-02
5.958927050232887268e-02
-4.494117945432662964e-02
6.172694638371467590e-02
-3.462144359946250916e-02
-3.870894387364387512e-02
-5.167176946997642517e-02
2.777391485869884491e-02
3.060358949005603790e-02
-6.291854381561279297e-02
9.796238504350185394e-03
4.979097470641136169e-02
3.237734362483024597e-02
-5.942607671022415161e-02
-1.794853620231151581e-02
3.313045576214790344e-02
-2.938581444323062897e-02
1.281035784631967545e-02
3.320847824215888977e-02
-4.691274091601371765e-02
2.750043198466300964e-02
3.442730382084846497e-02
-2.422483079135417938e-02
-5.857338756322860718e-02
-2.656533569097518921e-02
3.558622300624847412e-02
-4.824732989072799683e-02
3.566649556159973145e-02
-7.948704995214939117e-03
3.990838304162025452e-02
4.724906757473945618e-02
4.065823927521705627e-02
-4.626262933015823364e-02
2.663341537117958069e-02
-4.567580297589302063e-02
-2.867858856916427612e-02
-3.170408681035041809e-02
3.696943446993827820e-02
5.205626040697097778e-02
4.388888180255889893e-02
1.414208859205245972e-02
4.126288369297981262e-02
-4.431291297078132629e-02
6.217774376273155212e-02
-3.877834603190422058e-02
4.772819578647613525e-02
-3.274900838732719421e-02
4.932061769068241119e-03
-1.777938887244090438e-04
-3.421135619282722473e-02
-3.018809109926223755e-02
-3.236497193574905396e-02
3.405337780714035034e-02
-2.784867025911808014e-02
2.151458710432052612e-02
5.619036033749580383e-03
-4.459443315863609314e-02
-2.405881322920322418e-02
-2.694628434255719185e-03
5.056981369853019714e-02
1.191250327974557877e-02
-4.831599071621894836e-02
-2.196888439357280731e-02
-4.982168972492218018e-02
-2.417107112705707550e-02
-4.929716140031814575e-02
-3.505227714776992798e-02
2.700852975249290466e-02
3.747808933258056641e-02
-5.022350698709487915e-02
-3.969959914684295654e-02
-1.802863553166389465e-02
-3.390130400657653809e-02
3.870136663317680359e-02
-4.876515269279479980e-02
1.013899501413106918e-02
4.216776043176651001e-02
-3.253591805696487427e-02
-2.168462378904223442e-03
5.409519071690738201e-04
-2.476867847144603729e-02
-2.994869090616703033e-02
-3.746000677347183228e-02
-5.647820979356765747e-02
3.628940321505069733e-03
3.315163403749465942e-02
-4.060973599553108215e-02
-6.133500114083290100e-02
-1.224273815751075745e-02
5.641373619437217712e-02
-5.823836103081703186e-02
-2.358396723866462708e-02
-4.044933617115020752e-02
-3.466633707284927368e-02
-3.278793022036552429e-02
-3.410175815224647522e-02
7.534439675509929657e-03
3.936822060495615005e-03
-6.068801879882812500e-02
4.763292148709297180e-02
6.158961728215217590e-02
7.701990194618701935e-03
-4.776391759514808655e-02
4.214285314083099365e-02
6.230368837714195251e-02
-2.373838238418102264e-02
1.276643015444278717e-02
3.475005552172660828e-02
-3.351653739809989929e-02
2.969157695770263672e-02
-9.670071303844451904e-04
-5.963291972875595093e-03
-2.690603723749518394e-03
3.798228502273559570e-02
6.190822273492813110e-02
2.302053943276405334e-02
1.977100782096385956e-02
-1.826166547834873199e-02
-5.404743552207946777e-02
5.847176909446716309e-02
5.464361608028411865e-02
2.656023949384689331e-03
-4.121113196015357971e-02
3.713515773415565491e-02
-1.957356184720993042e-02
6.087386235594749451e-02
3.196241706609725952e-02
-5.799911171197891235e-02
5.830402299761772156e-02
1.242700219154357910e-02
2.478897757828235626e-02
6.262858211994171143e-02
2.395476214587688446e-02
2.330950088798999786e-02
-2.163411676883697510e-02
6.946241046534851193e-05
-3.968974947929382324e-02
-1.343942829407751560e-03
6.335591524839401245e-02
-1.389096304774284363e-02
-4.681684076786041260e-02
-1.479849778115749359e-02
-4.801199957728385925e-02
-3.329646214842796326e-02
4.740669578313827515e-02
4.266902431845664978e-02
5.176119133830070496e-02
-3.276935219764709473e-02
-3.350063413381576538e-02
-4.766437783837318420e-02
2.818695269525051117e-02
2.871181070804595947e-02
2.223270200192928314e-02
5.819961056113243103e-02
4.221726581454277039e-02
-4.294789209961891174e-02
1.247016992419958115e-02
-8.682641200721263885e-03
6.074704229831695557e-02
-2.986310608685016632e-02
-6.294630467891693115e-02
3.548077866435050964e-02
-1.296930853277444839e-02
-5.297716706991195679e-02
2.737627923488616943e-02
6.389766931533813477e-02
-5.374072585254907608e-03
-4.661250486969947815e-02
6.144877057522535324e-03
-4.305416718125343323e-02
-1.927650533616542816e-02
5.068099871277809143e-02
2.074346132576465607e-02
1.477140933275222778e-02
-1.649901270866394043e-02
2.323289960622787476e-02
2.899210527539253235e-02
-5.984046310186386108e-02
5.827230215072631836e-02
-3.477232297882437706e-03
2.670225687325000763e-02
1.960610412061214447e-02
-1.136629609391093254e-03
5.040554329752922058e-02
-3.353402763605117798e-02
1.369186118245124817e-02
-2.007336169481277466e-02
-4.802768677473068237e-02
2.531871665269136429e-03
2.167647145688533783e-02
4.958856478333473206e-02
-2.300669439136981964e-02
-2.804509550333023071e-02
-5.044022947549819946e-02
-2.352861501276493073e-02
-2.096069790422916412e-02
-2.278278023004531860e-02
-3.154762461781501770e-02
2.724442817270755768e-02
-2.061916887760162354e-02
3.911276161670684814e-02
-4.468222707509994507e-02
1.293003465980291367e-02
5.416056886315345764e-02
1.599622704088687897e-02
1.136639248579740524e-02
1.507441513240337372e-02
-4.621849209070205688e-02
-2.274826169013977051e-03
4.408398643136024475e-02
6.236575543880462646e-02
2.765926718711853027e-02
1.436022482812404633e-02
-2.802759781479835510e-02
2.009198814630508423e-02
1.607246138155460358e-02
-6.162149086594581604e-02
4.136556386947631836e-02
5.472294241189956665e-02
-5.699199438095092773e-02
1.476047467440366745e-02
-1.129503455013036728e-02
1.397722586989402771e-02
2.506159991025924683e-02
-4.687784984707832336e-02
7.357276044785976410e-03
-1.207404211163520813e-02
5.095461383461952209e-02
5.152814462780952454e-02
2.472413145005702972e-02
4.386207088828086853e-02
-3.682696074247360229e-02
-7.858455181121826172e-03
-2.965707704424858093e-02
-1.390095241367816925e-02
-2.292313426733016968e-02
-1.465905271470546722e-02
-5.046208854764699936e-03
3.009978495538234711e-02
-3.319793939590454102e-02
2.512211911380290985e-02
-3.834207355976104736e-02
4.469615407288074493e-03
4.213401675224304199e-02
4.690472409129142761e-02
-5.830029025673866272e-02
-2.858198806643486023e-02
-6.142318621277809143e-02
-1.199689786881208420e-02
-4.674421995878219604e-02
1.640731096267700195e-02
7.651151157915592194e-03
-4.511106014251708984e-02
-2.053838782012462616e-02
1.428287290036678314e-02
-1.529169175773859024e-02
5.799817666411399841e-02
3.425238281488418579e-02
-5.361991375684738159e-02
1.536367181688547134e-02
2.158461883664131165e-02
6.463163066655397415e-03
-5.577326565980911255e-02
-3.505446016788482666e-02
-6.394797563552856445e-02
2.379887364804744720e-02
2.556483447551727295e-02
6.416974216699600220e-02
-6.326196342706680298e-02
-3.323901072144508362e-02
-2.931287745013833046e-03
5.078129097819328308e-02
5.651178583502769470e-02
4.479422792792320251e-02
4.829553421586751938e-03
2.018928714096546173e-02
-3.869255259633064270e-02
-1.568158902227878571e-02
5.879214406013488770e-02
3.289924189448356628e-02
-1.390461903065443039e-02
-2.400699816644191742e-02
5.514605343341827393e-02
-4.203991964459419250e-03
3.246518597006797791e-02
-1.103854388929903507e-03
1.602271571755409241e-02
-3.884048387408256531e-02
3.995704650878906250e-02
4.773902148008346558e-02
-2.033371292054653168e-02
4.095065221190452576e-02
1.803918858058750629e-03
-3.361105918884277344e-02
-2.120226807892322540e-02
-2.450007013976573944e-03
9.773314232006669044e-04
5.174616724252700806e-02
-1.483599189668893814e-03
-5.847107619047164917e-02
-5.079792439937591553e-02
-1.117664854973554611e-02
3.423370048403739929e-02
-1.243468746542930603e-02
-1.447229878976941109e-04
7.172353565692901611e-03
6.012469157576560974e-02
7.322902325540781021e-03
2.811980620026588440e-02
2.613125927746295929e-02
3.214003890752792358e-02
-6.357399374246597290e-02
-4.338596388697624207e-02
-4.891308397054672241e-02
1.272443216294050217e-02
-2.297247573733329773e-02
-1.255267299711704254e-02
-2.477687783539295197e-02
1.127918157726526260e-02
-2.426681481301784515e-02
2.112261392176151276e-02
-5.824158340692520142e-02
8.889644406735897064e-03
-4.134396836161613464e-02
-1.074851583689451218e-02
4.473433271050453186e-02
-1.281942706555128098e-02
2.094113081693649292e-02
-4.592889919877052307e-02
1.031677518039941788e-02
-6.078127771615982056e-03
4.150392860174179077e-02
-5.180584266781806946e-02
-2.718303166329860687e-02
4.543544258922338486e-03
2.474405616521835327e-02
-5.750335287302732468e-03
-3.000224940478801727e-02
3.297474235296249390e-02
4.513671621680259705e-02
-6.119140237569808960e-02
-5.007538199424743652e-02
-3.242328763008117676e-02
-5.811123922467231750e-02
3.886703774333000183e-02
1.519819255918264389e-02
-2.092291042208671570e-02
6.449385732412338257e-02
-5.864567309617996216e-02
-3.523685783147811890e-02
-4.222117736935615540e-02
-1.828300952911376953e-02
1.753581874072551727e-02
-2.958169579505920410e-02
1.523912418633699417e-02
-1.261664461344480515e-02
-3.311103582382202148e-02
-6.143921241164207458e-02
2.018106169998645782e-03
-5.432647466659545898e-02
-2.962272800505161285e-02
5.001865699887275696e-02
-1.918439567089080811e-02
1.309258863329887390e-02
-2.346894703805446625e-02
-2.901767753064632416e-02
4.226760193705558777e-02
2.523701451718807220e-02
9.499933570623397827e-03
1.577736251056194305e-02
3.534182161092758179e-02
-3.987047076225280762e-02
-3.922021016478538513e-03
-8.171982131898403168e-03
3.831327706575393677e-02
1.421279925853013992e-02
2.740644477307796478e-02
-5.334812402725219727e-02
-2.454083785414695740e-02
-1.186215598136186600e-02
-5.766284093260765076e-02
3.438473865389823914e-02
-2.800961723551154137e-03
-1.776393130421638489e-02
1.625290699303150177e-02
4.184027016162872314e-02
-5.071585997939109802e-02
-3.606021776795387268e-02
-5.177637562155723572e-02
6.230392679572105408e-02
-2.323264628648757935e-02
4.312064126133918762e-02
3.483685106039047241e-02
4.336114600300788879e-02
5.628596246242523193e-02
-2.621510066092014313e-02
6.160292774438858032e-02
4.159736260771751404e-02
3.565111011266708374e-02
-2.218820527195930481e-02
-1.511295326054096222e-02
-4.333911463618278503e-02
5.073865130543708801e-02
-2.588414819911122322e-03
2.486086264252662659e-02
3.729138523340225220e-02
-7.051371037960052490e-03
1.901946030557155609e-02
5.732208117842674255e-02
2.006859332323074341e-02
2.225882001221179962e-02
-4.571608453989028931e-02
-5.730225145816802979e-02
-3.004191070795059204e-02
2.085031196475028992e-02
-2.656589448451995850e-02
-1.516880560666322708e-02
-2.010343782603740692e-02
-1.734121888875961304e-02
-5.081034451723098755e-02
-2.342228591442108154e-02
-1.910749822854995728e-02
6.019487045705318451e-03
-5.697732418775558472e-02
3.923483565449714661e-02
-1.809904165565967560e-02
3.513534367084503174e-02
1.808779314160346985e-02
2.812997624278068542e-02
-6.437513232231140137e-02
4.010397940874099731e-02
-4.798557981848716736e-02
-5.140971764922142029e-02
2.823421359062194824e-02
-2.295184694230556488e-02
-3.181924112141132355e-03
-5.030702799558639526e-02
-2.630552276968955994e-02
3.917908295989036560e-02
1.734468340873718262e-02
2.380162477493286133e-03
6.439127773046493530e-02
6.060406193137168884e-02
5.501269549131393433e-02
-5.246711522340774536e-02
1.051329914480447769e-02
-2.124332822859287262e-02
-1.514214556664228439e-02
6.066812947392463684e-02
-1.605376601219177246e-02
2.346090599894523621e-02
2.163182385265827179e-02
-3.282072022557258606e-02
1.902053877711296082e-02
-5.509671196341514587e-02
3.075972944498062134e-02
1.021780539304018021e-02
2.357001788914203644e-02
-3.602220490574836731e-02
-4.201910644769668579e-02
-4.147758334875106812e-02
-6.199209392070770264e-02
1.849384605884552002e-02
2.243302529677748680e-03
-3.049429506063461304e-02
2.364361658692359924e-02
5.981467291712760925e-02
4.522460326552391052e-02
-4.303808137774467468e-02
5.118657276034355164e-02
5.395194888114929199e-02
-4.718078300356864929e-02
5.788457021117210388e-02
-4.913684353232383728e-02
-1.474158838391304016e-02
9.247751906514167786e-03
-2.626972086727619171e-02
4.692346230149269104e-02
1.297813840210437775e-02
-1.163706276565790176e-02
-3.133745491504669189e-02
-4.028391838073730469e-02
1.705654524266719818e-02
-6.268804520368576050e-02
-2.167055569589138031e-02
-4.751686379313468933e-02
5.649402365088462830e-02
-5.064713209867477417e-02
-3.321114927530288696e-02
-5.221477895975112915e-02
-3.072833828628063202e-02
-4.768857359886169434e-02
-3.578872233629226685e-02
6.201717630028724670e-02
-2.156414650380611420e-02
-2.462448738515377045e-02
-3.556546755135059357e-03
-1.867562159895896912e-02
6.979556288570165634e-03
3.342114016413688660e-02
-4.756226390600204468e-02
-5.124686658382415771e-02
-6.175199151039123535e-02
3.493810072541236877e-02
2.206312865018844604e-02
1.169213838875293732e-02
7.520681712776422501e-03
9.164943476207554340e-04
-7.437297026626765728e-04
3.251890838146209717e-02
-3.095798380672931671e-02
3.170007467269897461e-02
5.085304006934165955e-02
1.187418121844530106e-03
-1.575873605906963348e-02
-5.210754275321960449e-02
6.175886839628219604e-03
-4.061854630708694458e-02
2.847760356962680817e-02
-6.340970098972320557e-02
2.355770580470561981e-02
-1.420713495463132858e-02
-3.538594022393226624e-02
2.872069738805294037e-02
-9.961283765733242035e-03
5.957082286477088928e-02
3.839382901787757874e-02
1.247768383473157883e-02
2.090421272441744804e-03
5.936188623309135437e-02
-1.568706706166267395e-02
-2.917998703196644783e-03
1.961717195808887482e-02
-2.490071579813957214e-03
6.287496536970138550e-02
4.314732924103736877e-02
-2.044672518968582153e-02
6.322669982910156250e-02
-2.996517531573772430e-02
5.307216942310333252e-02
-1.778752729296684265e-02
2.591930562630295753e-03
9.981767274439334869e-03
6.014676764607429504e-02
-3.266076743602752686e-02
3.835199028253555298e-02
3.577408567070960999e-02
-2.964761480689048767e-02
2.595114149153232574e-02
-3.524290770292282104e-02
-3.956563770771026611e-03
-1.133015193045139313e-02
-1.457826793193817139e-02
-5.467621143907308578e-03
5.401362851262092590e-02
-4.268610477447509766e-02
3.272549062967300415e-02
-3.873490169644355774e-02
5.071576312184333801e-02
5.428101494908332825e-02
1.372890453785657883e-02
2.313371002674102783e-02
3.626998141407966614e-02
3.621711209416389465e-02
2.228897064924240112e-02
2.483678609132766724e-02
-4.703329503536224365e-02
5.320584774017333984e-02
6.161633133888244629e-02
-4.056736454367637634e-02
4.480681568384170532e-02
-2.561268210411071777e-02
1.586283184587955475e-02
-1.872960291802883148e-02
1.995223201811313629e-02
5.373151227831840515e-02
-4.208929464221000671e-02
-4.096683487296104431e-02
4.170075803995132446e-02
-6.314842402935028076e-02
3.282934427261352539e-02
4.856675118207931519e-02
-6.348989903926849365e-02
5.418814346194267273e-02
-4.433203488588333130e-02
3.573978692293167114e-02
-3.151086345314979553e-02
-3.798875585198402405e-02
6.338299065828323364e-02
3.437768295407295227e-02
3.581400588154792786e-02
4.536620527505874634e-02
-1.519971154630184174e-02
7.660450064577162266e-04
-4.230392351746559143e-02
-6.422668695449829102e-03
7.972451858222484589e-03
-4.996839910745620728e-03
-9.298702701926231384e-03
2.361520379781723022e-02
-3.405983746051788330e-02
1.132838148623704910e-02
-4.239315167069435120e-02
-2.959356643259525299e-03
2.831150405108928680e-02
-2.980599552392959595e-02
4.730145260691642761e-02
-4.836394637823104858e-02
8.123392239212989807e-03
-4.710904136300086975e-02
4.993860423564910889e-02
-6.230661645531654358e-03
-5.622173473238945007e-02
3.050376474857330322e-02
-1.059793960303068161e-02
3.194551914930343628e-02
2.263318374752998352e-02
-5.906386300921440125e-02
3.043420612812042236e-02
3.904319182038307190e-02
-1.822340674698352814e-02
3.628659993410110474e-02
-4.658135771751403809e-02
4.437818005681037903e-02
-4.788618069142103195e-03
3.533197194337844849e-02
-3.992100059986114502e-02
-3.143775835633277893e-02
-6.052291020750999451e-02
1.131563447415828705e-02
3.135617822408676147e-02
5.044990032911300659e-02
-1.091596577316522598e-02
-2.341866120696067810e-02
-1.952489651739597321e-02
5.373654421418905258e-03
-7.329761050641536713e-03
-5.285380035638809204e-02
6.445704400539398193e-02
-5.427539721131324768e-02
1.851550489664077759e-02
-1.682607084512710571e-02
5.168754979968070984e-02
6.194079667329788208e-02
-3.317918255925178528e-02
3.617615997791290283e-02
-5.532701499760150909e-03
3.023124858736991882e-02
1.275069732218980789e-02
8.222314529120922089e-03
1.710580982035025954e-04
3.345068171620368958e-02
-2.122429944574832916e-02
1.996106468141078949e-02
6.421711295843124390e-02
-1.348640304058790207e-02
-4.488465934991836548e-02
-2.362036705017089844e-02
-5.914133414626121521e-02
8.227124810218811035e-03
2.066610194742679596e-02
4.951895028352737427e-02
-3.376977145671844482e-02
6.901728920638561249e-03
3.144707903265953064e-02
-7.185399997979402542e-03
-6.296467781066894531e-02
3.209048137068748474e-02
3.398136422038078308e-02
-3.972856700420379639e-02
4.849876835942268372e-02
-2.504022046923637390e-02
2.371794730424880981e-02
4.654414951801300049e-02
-4.000891000032424927e-02
3.872571885585784912e-02
3.598907217383384705e-02
-6.146757304668426514e-02
1.165727712213993073e-02
2.329346723854541779e-02
-1.212119869887828827e-02
-3.483695536851882935e-02
5.365550145506858826e-02
-1.491488795727491379e-02
3.725645318627357483e-02
-1.710201986134052277e-02
5.357341095805168152e-02
6.384653598070144653e-02
6.416607648134231567e-02
1.955720968544483185e-02
-2.360268728807568550e-03
1.241221441887319088e-03
2.892116270959377289e-02
-4.921353608369827271e-02
-5.851147696375846863e-02
-5.995739996433258057e-02
-1.534872222691774368e-02
-3.681526333093643188e-02
-3.060977905988693237e-02
-3.286131098866462708e-02
3.852010518312454224e-02
-1.929091103374958038e-02
-3.227384015917778015e-02
2.868986874818801880e-02
-6.143161654472351074e-02
-1.526998472400009632e-03
-5.622354894876480103e-02
2.571708336472511292e-02
-4.739086702466011047e-02
1.592020131647586823e-02
-4.092279821634292603e-02
-4.053485393524169922e-02
1.697354367934167385e-03
-3.311640024185180664e-02
-2.147106453776359558e-02
4.770944360643625259e-03
-3.598726540803909302e-02
1.860125735402107239e-02
7.010328583419322968e-03
-4.990850389003753662e-02
-1.542748068459331989e-03
-6.104917824268341064e-02
3.321403264999389648e-02
-4.852784052491188049e-02
5.968637391924858093e-02
-2.020598389208316803e-02
-1.111340150237083435e-02
-1.051238086074590683e-02
-9.208066388964653015e-03
-1.916074939072132111e-02
-2.641295827925205231e-02
1.676803827285766602e-02
6.035122275352478027e-02
-3.629759326577186584e-02
-5.227889493107795715e-02
6.358879059553146362e-02
2.440098673105239868e-02
5.538515746593475342e-02
-5.129698663949966431e-02
3.220700472593307495e-02
3.369747474789619446e-02
3.563619684427976608e-03
-2.452877350151538849e-02
-1.396035496145486832e-02
3.622010350227355957e-02
2.138596586883068085e-02
1.154038775712251663e-02
3.805635124444961548e-02
-1.842216216027736664e-02
-1.218270277604460716e-03
2.951796725392341614e-02
-6.359566748142242432e-02
-4.926387220621109009e-02
4.036221653223037720e-02
-3.770191106013953686e-04
3.269419074058532715e-02
-3.456146456301212311e-03
5.018061026930809021e-02
6.343062967061996460e-02
3.401417657732963562e-02
1.313599385321140289e-02
-5.955280736088752747e-02
-7.004967425018548965e-03
7.483547553420066833e-03
6.229949742555618286e-02
5.567756667733192444e-02
3.695841878652572632e-02
-1.953482860699295998e-03
-3.430886566638946533e-02
-2.736215479671955109e-02
-2.977653965353965759e-02
-4.437801614403724670e-02
-5.595871806144714355e-02
-1.566387899219989777e-02
2.027607895433902740e-02
4.316028207540512085e-02
-2.454041317105293274e-02
-2.414366789162158966e-02
3.310314565896987915e-02
6.391990184783935547e-02
4.128517955541610718e-02
-5.772012751549482346e-03
-1.706599630415439606e-02
2.554820850491523743e-03
5.659759417176246643e-02
-5.215336568653583527e-03
5.141627043485641479e-02
2.950599417090415955e-02
-3.663301467895507812e-02
4.659489914774894714e-02
4.992252215743064880e-02
-2.951297722756862640e-02
2.883001044392585754e-02
2.054139599204063416e-02
4.266477376222610474e-02
-1.501849386841058731e-02
-5.959815531969070435e-02
5.715689063072204590e-02
-8.532285690307617188e-03
-4.539992287755012512e-02
4.813667386770248413e-02
-1.307788863778114319e-02
5.924985930323600769e-02
2.261463925242424011e-02
-5.633887648582458496e-02
3.208929300308227539e-02
-1.038700528442859650e-02
-1.830870658159255981e-02
-1.042860746383666992e-02
3.327205404639244080e-02
2.528812922537326813e-02
-2.229125425219535828e-02
2.097529172897338867e-02
-2.711892500519752502e-02
-5.854340270161628723e-02
5.385016556829214096e-03
5.877188406884670258e-03
1.532126404345035553e-02
2.643763646483421326e-02
4.660294856876134872e-03
1.738283783197402954e-02
-6.086945533752441406e-02
-2.470546402037143707e-02
5.535827577114105225e-02
6.232099980115890503e-02
-2.799520827829837799e-02
1.669564470648765564e-02
3.353213891386985779e-02
4.223753139376640320e-02
4.023688286542892456e-02
2.112021856009960175e-02
-5.774722248315811157e-02
-1.237120758742094040e-02
5.421453714370727539e-02
4.814392328262329102e-02
4.944271966814994812e-02
-5.802490934729576111e-02
-3.791122883558273315e-02
-2.995848096907138824e-02
-3.199202567338943481e-02
5.770529061555862427e-02
-5.124884843826293945e-02
-4.126850143074989319e-02
-4.871329292654991150e-02
3.142279386520385742e-02
-3.675468638539314270e-02
-4.964147508144378662e-02
-5.375172942876815796e-02
-5.928539112210273743e-02
-2.334441989660263062e-02
-8.288948796689510345e-03
-3.449428081512451172e-02
-1.703855209052562714e-02
-1.868248544633388519e-02
-3.413457423448562622e-02
-1.915268786251544952e-02
4.140545427799224854e-02
6.173438206315040588e-02
-4.900844395160675049e-02
-6.366821378469467163e-02
-3.110524034127593040e-03
-1.233406737446784973e-02
-2.299968339502811432e-02
5.925805121660232544e-02
5.204361677169799805e-02
-4.137282446026802063e-02
6.340102851390838623e-02
-3.281898424029350281e-02
-5.363528151065111160e-03
5.239934846758842468e-02
-4.290882498025894165e-02
4.449759796261787415e-02
3.178220987319946289e-02
-1.737687923014163971e-02
1.316422689706087112e-02
1.687207445502281189e-02
-5.645348131656646729e-02
1.103275362402200699e-02
4.727412387728691101e-02
2.398012764751911163e-02
5.981474742293357849e-02
1.640248112380504608e-02
1.255661156028509140e-02
4.433864727616310120e-03
-5.498365685343742371e-02
2.611169777810573578e-02
2.310894243419170380e-02
-4.832047596573829651e-02
-4.899830743670463562e-02
4.000134300440549850e-03
-3.591928258538246155e-02
4.644012078642845154e-02
-6.205558776855468750e-02
-5.192388780415058136e-03
4.621947929263114929e-02
3.983418270945549011e-02
-2.476841770112514496e-02
3.361686319112777710e-02
-6.076348200440406799e-02
1.720981486141681671e-02
5.867858231067657471e-02
1.222734060138463974e-02
-5.298399180173873901e-02
2.071971446275711060e-02
-1.892875507473945618e-02
3.379557654261589050e-02
-4.765707533806562424e-03
-5.283631617203354836e-04
-3.946219570934772491e-03
-3.423477336764335632e-02
-2.679659798741340637e-02
1.862873695790767670e-02
-2.628026530146598816e-02
-2.197261527180671692e-02
3.434979915618896484e-02
3.902933001518249512e-02
-3.840359300374984741e-02
1.750632375478744507e-02
-4.453832656145095825e-02
4.917039722204208374e-02
1.828081905841827393e-02
1.909425109624862671e-02
5.411356687545776367e-04
-4.231215268373489380e-02
3.803789615631103516e-02
-9.627950494177639484e-04
5.631761252880096436e-02
7.173546589910984039e-03
-1.828663796186447144e-02
-2.739038318395614624e-02
-2.507834881544113159e-02
-3.257791977375745773e-03
-3.852248191833496094e-02
2.094765193760395050e-02
-6.177578121423721313e-03
5.801842361688613892e-02
-1.465892791748046875e-02
-3.184866905212402344e-02
1.907844841480255127e-02
2.529270201921463013e-02
-1.151882205158472061e-02
3.908006846904754639e-02
-5.912313610315322876e-02
-3.650756180286407471e-02
-2.427089214324951172e-02
-6.297998875379562378e-02
1.054200530052185059e-02
-3.910954296588897705e-02
6.293817609548568726e-02
3.594937175512313843e-02
-5.580914765596389771e-02
-4.922809079289436340e-02
-5.162503803148865700e-04
-4.186532646417617798e-02
6.349638849496841431e-02
5.161475390195846558e-02
-3.516675438731908798e-03
5.809432268142700195e-02
5.113441497087478638e-02
-6.027882173657417297e-02
-2.642620727419853210e-02
3.011598438024520874e-02
-6.022072583436965942e-02
1.746622473001480103e-02
1.259531825780868530e-02
-1.758818700909614563e-02
-3.927458077669143677e-02
3.340101242065429688e-02
3.525722771883010864e-02
-3.980122506618499756e-03
-2.495189011096954346e-02
1.377296634018421173e-02
7.152184844017028809e-03
6.010680645704269409e-02
-1.892410218715667725e-02
5.704355239868164062e-02
-1.315889507532119751e-02
-6.274720281362533569e-02
-6.274612247943878174e-02
6.076607853174209595e-02
5.691912770271301270e-02
-2.478775754570960999e-02
1.957224309444427490e-02
1.408826839178800583e-02
-1.684808731079101562e-02
2.017335593700408936e-02
1.435450394637882710e-04
6.219442933797836304e-02
1.135892001911997795e-03
-5.146131291985511780e-02
3.300376981496810913e-02
-5.322500690817832947e-02
-6.233670562505722046e-02
5.707756429910659790e-02
2.811382710933685303e-02
1.768091320991516113e-02
3.315343707799911499e-02
4.768849164247512817e-02
4.718209058046340942e-02
4.153141379356384277e-02
2.067910134792327881e-02
-2.740861847996711731e-02
-1.550309360027313232e-03
1.430125534534454346e-02
4.340162873268127441e-02
-6.244317442178726196e-02
-4.007382318377494812e-02
-5.333758145570755005e-02
-1.334778964519500732e-02
2.705049514770507812e-02
5.986626446247100830e-02
3.170107956975698471e-03
-3.139114379882812500e-02
-1.358453184366226196e-02
3.746422380208969116e-02
-3.962361067533493042e-02
-5.436970293521881104e-02
-1.679768413305282593e-02
2.875309437513351440e-02
-3.326777368783950806e-03
-4.465444386005401611e-02
-2.574360743165016174e-02
-3.998217731714248657e-02
-3.911943733692169189e-02
1.439692545682191849e-02
3.093463182449340820e-02
1.807457534596323967e-03
6.591017358005046844e-03
-4.840947687625885010e-02
-1.941180601716041565e-02
-4.784029908478260040e-03
-2.137161046266555786e-02
-6.183952093124389648e-02
-3.311670199036598206e-02
-3.452756628394126892e-02
5.528283119201660156e-02
2.755147218704223633e-02
2.127692103385925293e-02
-5.366280674934387207e-04
2.258735150098800659e-02
1.000273972749710083e-02
-3.799274563789367676e-02
5.320946127176284790e-02
-4.508300498127937317e-02
-1.568084582686424255e-02
-1.518105715513229370e-02
-5.734008550643920898e-02
6.159052252769470215e-03
-1.833285391330718994e-02
6.446123868227005005e-02
-1.518392190337181091e-02
-2.114715054631233215e-02
-1.045709848403930664e-02
-7.271230220794677734e-03
4.138037562370300293e-02
-2.718312665820121765e-02
5.672916769981384277e-02
-3.786436468362808228e-02
4.938817769289016724e-02
7.725752890110015869e-03
-2.723571658134460449e-02
-2.502956613898277283e-02
-5.761266872286796570e-02
-2.067072689533233643e-02
3.616621345281600952e-02
-4.131063073873519897e-02
-1.373110339045524597e-02
4.938930273056030273e-03
5.261524766683578491e-02
-5.814287811517715454e-02
5.470696836709976196e-02
-2.254676446318626404e-02
2.018905431032180786e-02
2.737502753734588623e-02
-5.755264684557914734e-02
-1.750435680150985718e-02
-2.115930989384651184e-02
-4.854928702116012573e-03
-5.075661092996597290e-02
-3.848925465717911720e-03
-3.936035186052322388e-02
-3.030454367399215698e-02
-1.657822728157043457e-02
2.545657008886337280e-02
-4.935194924473762512e-02
-2.967913076281547546e-02
-4.776477813720703125e-02
1.715192943811416626e-02
4.043999314308166504e-02
-4.710748046636581421e-02
2.968087047338485718e-02
1.910141110420227051e-02
-5.114960670471191406e-02
1.766736805438995361e-02
-6.306378543376922607e-02
8.106835186481475830e-03
-5.200151354074478149e-02
2.512482553720474243e-02
4.003442823886871338e-02
-3.109670430421829224e-02
4.611779004335403442e-02
4.317860305309295654e-02
1.165191829204559326e-02
4.678952693939208984e-02
3.001406043767929077e-02
6.315160542726516724e-02
2.705851942300796509e-02
1.835589110851287842e-02
4.893037676811218262e-02
-1.056194677948951721e-02
1.168226450681686401e-02
2.979798614978790283e-02
6.361512094736099243e-02
4.748817533254623413e-02
1.070617884397506714e-02
-4.747509583830833435e-02
5.985407531261444092e-02
-6.983023136854171753e-03
-3.562927991151809692e-02
-1.063374057412147522e-02
9.611330926418304443e-03
3.773406893014907837e-02
5.228320509195327759e-02
2.641083300113677979e-02
1.430940628051757812e-02
2.652316540479660034e-02
-3.540857136249542236e-02
-4.348284378647804260e-02
-2.170286327600479126e-02
-5.322996154427528381e-02
-3.183250874280929565e-02
-3.531773341819643974e-03
-3.136019408702850342e-02
4.135534912347793579e-02
-1.447859033942222595e-02
5.218792706727981567e-02
-2.342812716960906982e-02
1.835615187883377075e-02
5.444351583719253540e-02
2.198316156864166260e-02
2.862437069416046143e-02
2.882028371095657349e-02
1.836218684911727905e-02
-3.030182048678398132e-02
1.190997660160064697e-02
-2.846554154530167580e-03
3.746061027050018311e-02
6.117401272058486938e-02
-3.348201513290405273e-03
6.390535086393356323e-02
1.847741007804870605e-02
3.338424116373062134e-02
5.488059669733047485e-02
6.279736757278442383e-03
1.956949383020401001e-02
-6.085498631000518799e-02
-1.518470700830221176e-02
-1.996053010225296021e-02
-7.566113024950027466e-03
-1.977480575442314148e-02
1.125706080347299576e-02
4.929519444704055786e-02
1.528356969356536865e-02
2.787646278738975525e-02
5.495946481823921204e-02
5.013922974467277527e-02
-4.176595807075500488e-02
3.079420514404773712e-02
-1.227468438446521759e-02
5.593821406364440918e-02
-3.642460331320762634e-02
3.981510177254676819e-02
2.416059747338294983e-02
-4.499138798564672470e-03
6.173534318804740906e-02
-3.057534247636795044e-02
-3.503772604744881392e-04
-5.321751162409782410e-02
-2.206011861562728882e-02
-2.017342112958431244e-02
3.894977644085884094e-02
-1.794212125241756439e-02
4.205910861492156982e-02
1.656634360551834106e-02
1.451697386801242828e-02
-4.698758199810981750e-02
-1.775781810283660889e-02
-4.861764609813690186e-02
5.649888515472412109e-02
2.471404336392879486e-02
-6.014640256762504578e-02
-4.008596017956733704e-02
6.273840088397264481e-03
1.513828430324792862e-02
6.237227097153663635e-02
3.964870795607566833e-02
-5.685931071639060974e-02
4.370696842670440674e-02
-5.536299943923950195e-02
-3.699040040373802185e-02
-3.636208921670913696e-02
-1.600812375545501709e-02
6.119779124855995178e-02
-2.833596803247928619e-02
-2.910134755074977875e-02
-3.713033220265060663e-04
6.037287786602973938e-02
-4.609419032931327820e-02
4.046466574072837830e-02
-3.615560708567500114e-03
5.155877023935317993e-02
7.570613641291856766e-03
-1.283144671469926834e-02
-1.324237696826457977e-02
5.171163473278284073e-03
-5.044391378760337830e-02
1.074885111302137375e-02
-5.377832800149917603e-03
-2.118242671713232994e-03
5.798840522766113281e-02
-2.729277126491069794e-02
-6.253416091203689575e-02
3.596017137169837952e-02
4.907824844121932983e-02
-1.262265723198652267e-02
-4.931139573454856873e-02
5.576332099735736847e-03
-6.439413130283355713e-02
-1.289247651584446430e-03
2.342874184250831604e-02
4.859844595193862915e-02
3.223657608032226562e-02
5.501045659184455872e-02
1.058228313922882080e-02
3.402617573738098145e-02
1.522833108901977539e-02
-7.518862839788198471e-03
-5.142733827233314514e-02
-3.206164762377738953e-02
5.826094001531600952e-02
1.695748418569564819e-02
3.696895018219947815e-02
-9.305837564170360565e-03
-1.293628290295600891e-02
-5.000666528940200806e-02
-2.600557403638958931e-03
-2.874824218451976776e-02
4.384822398424148560e-02
3.003396280109882355e-02
6.433489173650741577e-02
-5.834680795669555664e-02
4.220408946275711060e-02
3.037000261247158051e-02
-5.082708224654197693e-02
5.869053676724433899e-02
4.876647889614105225e-02
-1.164115685969591141e-02
5.793858319520950317e-02
6.252168864011764526e-02
1.547128148376941681e-02
-1.131651364266872406e-02
-6.366153061389923096e-02
3.659112006425857544e-02
-3.435573726892471313e-02
-1.833300106227397919e-02
7.041069329716265202e-04
3.797250241041183472e-02
5.081418901681900024e-02
-2.808178029954433441e-02
4.455337673425674438e-02
7.763945031911134720e-03
4.415646195411682129e-02
5.470131337642669678e-02
-4.621314629912376404e-02
3.266924619674682617e-02
3.096384555101394653e-02
3.121008165180683136e-02
-1.414072979241609573e-02
-5.250430479645729065e-02
4.868088662624359131e-02
5.471009761095046997e-02
4.781983327120542526e-03
5.328690633177757263e-02
6.086470559239387512e-02
2.295977808535099030e-02
-6.011230126023292542e-02
3.752981871366500854e-02
4.973884299397468567e-02
-5.215668352320790291e-04
4.424655064940452576e-02
2.860245853662490845e-02
4.250383004546165466e-02
-1.447936799377202988e-02
-2.418627403676509857e-02
3.826446086168289185e-02
1.815096661448478699e-02
5.762173235416412354e-02
-5.689608678221702576e-02
1.896110596135258675e-03
5.791157856583595276e-02
-3.664992004632949829e-02
2.967609465122222900e-02
-3.734537214040756226e-02
-4.365259036421775818e-02
-4.919975623488426208e-02
-4.389959201216697693e-02
-3.940057381987571716e-02
1.788339950144290924e-02
-5.748583376407623291e-02
6.352890282869338989e-03
-3.566448763012886047e-02
8.003314957022666931e-03
3.807295113801956177e-02
1.728603802621364594e-02
2.231141924858093262e-02
-1.162620261311531067e-02
2.345933951437473297e-02
-5.309578031301498413e-02
-1.123871406889520586e-04
-1.807879097759723663e-02
-1.764401607215404510e-02
5.104555562138557434e-02
3.325486928224563599e-02
-2.686855010688304901e-02
-4.917292296886444092e-02
6.086150184273719788e-02
2.230619266629219055e-02
-2.956676669418811798e-02
2.752672694623470306e-02
2.002692222595214844e-02
3.089845366775989532e-02
-3.869324177503585815e-02
1.700725965201854706e-02
-1.276290044188499451e-02
-4.011543467640876770e-02
-4.282018542289733887e-02
1.617467147298157215e-03
-4.115071520209312439e-02
-5.850172042846679688e-02
2.260054647922515869e-02
5.206633731722831726e-02
-2.706447616219520569e-02
3.666364122182130814e-03
2.334706857800483704e-02
-1.044327672570943832e-02
2.128737978637218475e-02
-1.402282807976007462e-02
-2.346755750477313995e-02
1.327356323599815369e-02
4.419218003749847412e-02
-6.270252168178558350e-02
2.755825594067573547e-02
4.572676122188568115e-02
-4.290374740958213806e-02
6.406899541616439819e-02
-1.980295404791831970e-02
-2.254817262291908264e-02
-3.137194365262985229e-02
-4.281036555767059326e-02
-4.655575752258300781e-02
1.581037044525146484e-02
5.415118858218193054e-02
-6.696822820231318474e-04
-3.677377477288246155e-02
5.278917402029037476e-02
6.452447734773159027e-03
2.617890015244483948e-02
-4.691708087921142578e-02
-2.164065092802047729e-02
-3.756560012698173523e-02
3.262060880661010742e-02
-4.432544857263565063e-02
5.397307127714157104e-02
1.580490171909332275e-02
-1.539314165711402893e-02
5.259020254015922546e-03
-9.407709352672100067e-03
1.696310937404632568e-02
2.760433964431285858e-02
3.501365333795547485e-02
4.877481609582901001e-02
3.396586515009403229e-03
-5.522537231445312500e-02
-2.865752391517162323e-02
4.129467532038688660e-02
5.958180874586105347e-02
5.004589445888996124e-03
3.494267165660858154e-02
-1.027988363057374954e-02
-1.705803908407688141e-03
-1.094555389136075974e-02
1.717547513544559479e-02
1.467867195606231689e-02
-4.877689760178327560e-03
-6.346442550420761108e-02
2.937079221010208130e-02
4.188736528158187866e-02
-5.256065726280212402e-02
-1.643189927563071251e-03
3.416693583130836487e-02
4.084081575274467468e-02
-3.907967358827590942e-02
4.061919637024402618e-03
3.578022820875048637e-03
-3.143151756376028061e-03
7.281857542693614960e-04
-3.169601410627365112e-02
-2.433527028188109398e-03
-4.200164973735809326e-02
5.281775444746017456e-02
5.434473976492881775e-02
-2.259640209376811981e-02
4.115423932671546936e-02
-4.732640460133552551e-02
4.124664701521396637e-03
-2.247821167111396790e-02
-5.350576713681221008e-02
1.608278835192322731e-04
3.531334549188613892e-02
-3.036103211343288422e-02
3.788506984710693359e-02
5.708558857440948486e-02
3.381038457155227661e-02
1.164961606264114380e-02
4.067747667431831360e-02
-3.636015579104423523e-02
-4.167555645108222961e-02
-6.382036022841930389e-03
-1.453107688575983047e-04
2.212188765406608582e-02
-3.342073410749435425e-02
4.233822599053382874e-02
3.942735865712165833e-02
4.177131503820419312e-02
-1.180443214252591133e-03
-5.841407924890518188e-02
-1.567466557025909424e-02
3.261740878224372864e-02
1.914149615913629532e-03
3.732529655098915100e-02
-1.764746382832527161e-02
5.031570047140121460e-02
3.094736021012067795e-03
-4.975910857319831848e-02
6.105364859104156494e-02
4.872171953320503235e-02
-2.179362066090106964e-02
1.874676672741770744e-03
2.116264589130878448e-02
3.150999918580055237e-02
4.345811530947685242e-02
-3.701535984873771667e-02
-5.202711001038551331e-02
-8.158517070114612579e-03
4.034127295017242432e-02
1.170847285538911819e-02
7.861771620810031891e-03
-3.053628094494342804e-02
6.388058513402938843e-02
6.289804354310035706e-03
-2.669693715870380402e-02
-3.390914946794509888e-02
1.519494969397783279e-02
-3.773409873247146606e-03
2.760597877204418182e-02
-5.093566700816154480e-02
-4.523808881640434265e-02
2.721463143825531006e-02
-5.381809547543525696e-02
3.355346992611885071e-02
-6.647852715104818344e-03
4.860030114650726318e-02
-4.754007607698440552e-02
-3.974718600511550903e-02
-4.043952503707259893e-04
1.061213482171297073e-02
5.922851338982582092e-02
3.660203889012336731e-02
-6.045936048030853271e-02
-2.331012114882469177e-02
4.801265895366668701e-02
1.269608736038208008e-02
9.200788917951285839e-04
-4.815973713994026184e-02
1.119508966803550720e-02
-1.637052162550389767e-03
-4.939389973878860474e-02
2.550471015274524689e-02
5.326877161860466003e-02
-3.170011937618255615e-02
-5.663565546274185181e-02
-7.922478951513767242e-03
1.649468578398227692e-02
-4.167634621262550354e-02
-6.191607192158699036e-02
-2.020424604415893555e-02
-2.784472145140171051e-02
-2.573041711002588272e-03
-1.097474526613950729e-02
5.780763924121856689e-02
5.940897390246391296e-02
-4.454745352268218994e-02
-1.289920043200254440e-02
-1.901528425514698029e-02
6.422570440918207169e-03
-3.232295438647270203e-02
-3.919276408851146698e-03
1.944795623421669006e-02
2.305331267416477203e-02
3.539448231458663940e-02
4.183359444141387939e-02
-1.736955717206001282e-02
2.111974358558654785e-02
3.938451781868934631e-02
-3.005089610815048218e-02
9.247276000678539276e-03
3.753937780857086182e-02
6.215217709541320801e-02
-2.937430702149868011e-02
-5.042461305856704712e-02
4.435597732663154602e-02
3.331014141440391541e-02
-4.827316477894783020e-02
7.378653623163700104e-03
-4.852559044957160950e-02
-2.815619669854640961e-02
-3.954126685857772827e-02
4.118059948086738586e-02
-4.468201845884323120e-02
-2.181356772780418396e-02
4.264074936509132385e-02
6.409501284360885620e-02
1.345574483275413513e-02
4.387705586850643158e-03
1.468132436275482178e-02
-6.066373363137245178e-02
-3.752855956554412842e-02
4.289103671908378601e-03
3.519250079989433289e-02
3.752499073743820190e-02
2.564837224781513214e-02
5.455779656767845154e-02
-1.392628997564315796e-02
4.367526993155479431e-02
-6.210283935070037842e-02
4.565130546689033508e-02
-1.366588845849037170e-02
6.163090839982032776e-02
4.446824267506599426e-02
-5.995598062872886658e-02
-3.478399664163589478e-02
-2.016999199986457825e-02
2.634542807936668396e-02
-2.940995246171951294e-02
-6.253876537084579468e-02
-2.387744374573230743e-02
-1.804657652974128723e-02
-5.966857541352510452e-03
2.269318513572216034e-02
1.778193004429340363e-02
7.059216499328613281e-03
-3.806731849908828735e-02
-5.528161767870187759e-03
3.177038580179214478e-02
2.992402575910091400e-02
5.373723432421684265e-02
6.169729307293891907e-02
3.643305739387869835e-03
-2.524853125214576721e-02
-1.549086067825555801e-02
4.774359986186027527e-02
3.429375216364860535e-02
2.997164241969585419e-02
4.049284383654594421e-02
-1.601972244679927826e-02
-1.468976773321628571e-02
6.028309091925621033e-02
-5.647276528179645538e-03
-3.360057994723320007e-02
5.396474897861480713e-02
-1.788027212023735046e-02
6.352044641971588135e-02
3.811102360486984253e-02
6.071917340159416199e-02
2.627022005617618561e-02
5.725752189755439758e-02
4.647227178793400526e-04
2.809853293001651764e-02
-5.843774974346160889e-02
5.680867284536361694e-02
-4.272510483860969543e-02
-5.833122506737709045e-02
-5.784666538238525391e-02
4.552284628152847290e-02
-4.139673337340354919e-02
-3.664924576878547668e-02
4.676820337772369385e-02
3.007630072534084320e-02
-3.861098363995552063e-02
-5.890327319502830505e-02
6.137090921401977539e-02
4.979252442717552185e-02
-3.603926673531532288e-02
-3.523027151823043823e-02
-2.587932534515857697e-02
-2.826807089149951935e-02
2.116944454610347748e-02
-2.472789585590362549e-02
3.771535307168960571e-02
3.000249899923801422e-02
-5.561500787734985352e-02
7.855852134525775909e-03
-5.644751340150833130e-02
2.992888167500495911e-02
3.636252880096435547e-02
8.535582572221755981e-03
1.000911835581064224e-02
6.180690601468086243e-02
-5.222092941403388977e-02
-5.546733364462852478e-02
5.908946692943572998e-02
2.786861173808574677e-02
-4.382122308015823364e-02
1.217031572014093399e-02
2.448769100010395050e-02
-3.981462121009826660e-02
-5.704678967595100403e-02
5.651425942778587341e-02
5.697977542877197266e-02
3.316544741392135620e-02
5.262023583054542542e-02
-1.573663204908370972e-02
4.378023371100425720e-02
-3.057293407618999481e-02
3.602108731865882874e-02
7.149327080696821213e-03
4.462670162320137024e-02
-2.840033918619155884e-02
5.273879691958427429e-02
5.421175807714462280e-02
6.433670222759246826e-02
5.745869129896163940e-02
2.667932957410812378e-02
1.917284913361072540e-02
-5.264725908637046814e-02
-4.107192903757095337e-02
4.242703318595886230e-02
8.911858312785625458e-03
-3.723000362515449524e-02
2.485028281807899475e-02
-4.109257832169532776e-03
1.661478169262409210e-02
6.453834474086761475e-02
-6.113366037607192993e-02
-4.111687466502189636e-02
1.726322434842586517e-02
5.030461400747299194e-02
2.998971007764339447e-02
5.366704612970352173e-02
-2.650186233222484589e-02
1.737354509532451630e-02
-4.462071880698204041e-02
-1.116581726819276810e-02
-3.318889066576957703e-02
2.846374921500682831e-02
-4.878878593444824219e-02
-1.935448870062828064e-02
-5.414034053683280945e-02
-4.931252449750900269e-02
1.916133984923362732e-02
4.355783108621835709e-03
3.830978274345397949e-02
-3.900847956538200378e-02
9.282387793064117432e-03
3.462153673171997070e-02
1.399534381926059723e-02
-4.941516742110252380e-02
4.695414379239082336e-02
-6.081444397568702698e-02
-6.330963224172592163e-02
-4.233151674270629883e-02
4.693994671106338501e-02
-1.946355588734149933e-02
-1.752112247049808502e-02
-5.056392773985862732e-02
4.575585573911666870e-02
-2.552584558725357056e-02
5.009257700294256210e-03
-2.261393889784812927e-02
1.762349531054496765e-02
-5.861971527338027954e-02
2.072819322347640991e-02
-3.113151900470256805e-02
3.146426007151603699e-02
-3.346239775419235229e-02
1.409265585243701935e-02
-4.616279900074005127e-02
5.444595590233802795e-02
5.966357886791229248e-02
-3.103754483163356781e-02
-1.006959471851587296e-02
-5.714181065559387207e-02
-2.124192006886005402e-02
-2.659155800938606262e-02
2.198527380824089050e-02
-4.386944696307182312e-02
7.050876156426966190e-04
6.008623540401458740e-02
-4.972695186734199524e-02
-5.835757125169038773e-03
-8.533431217074394226e-03
8.255956694483757019e-03
6.218494102358818054e-02
-2.286527492105960846e-02
-5.645828694105148315e-02
-6.365869939327239990e-02
-1.515299826860427856e-02
-9.646497666835784912e-03
1.699405349791049957e-02
-5.380498245358467102e-03
-1.701270602643489838e-02
2.189979888498783112e-02
3.471632301807403564e-02
-1.592814177274703979e-02
1.095624640583992004e-02
5.765070021152496338e-02
-4.654645547270774841e-02
-3.328578919172286987e-02
-4.852172732353210449e-02
1.178549323230981827e-02
-2.120949327945709229e-03
2.765846997499465942e-02
2.512731961905956268e-02
7.065988145768642426e-03
-3.015803173184394836e-02
3.106858208775520325e-02
-7.780997548252344131e-03
-2.244170941412448883e-02
5.241156741976737976e-02
3.926793485879898071e-02
-1.605738513171672821e-02
-4.129064083099365234e-02
-2.587666548788547516e-02
-2.228725887835025787e-02
-5.133644863963127136e-02
5.100695043802261353e-02
-2.022251859307289124e-02
4.002605378627777100e-02
-5.170927569270133972e-02
-6.064976379275321960e-02
4.514066874980926514e-02
3.654079884290695190e-02
2.831969223916530609e-02
-4.385381191968917847e-02
5.508569628000259399e-02
-4.765281453728675842e-02
1.084533799439668655e-02
1.990937255322933197e-02
-2.467841655015945435e-02
-3.763529285788536072e-02
3.148280829191207886e-02
-2.483556419610977173e-02
-5.324804410338401794e-02
-2.672576718032360077e-02
6.164766848087310791e-02
7.393193896859884262e-03
-3.066408680751919746e-03
5.548519641160964966e-02
-3.411875339224934578e-03
-1.546985376626253128e-02
-2.904280554503202438e-03
6.587214302271604538e-03
-8.561043068766593933e-03
-4.785287380218505859e-02
2.476405166089534760e-02
2.168964780867099762e-02
-5.593965202569961548e-02
2.969421446323394775e-03
-1.633138768374919891e-02
-5.251340568065643311e-03
3.613181412220001221e-03
-5.621774867177009583e-02
-5.716830119490623474e-02
3.316629678010940552e-02
6.335481256246566772e-02
9.211625903844833374e-03
-3.795409947633743286e-02
-4.616509005427360535e-02
-1.366601791232824326e-02
6.418056786060333252e-02
-2.878727018833160400e-02
1.092593744397163391e-02
-5.261861160397529602e-02
2.597396448254585266e-02
-2.599845407530665398e-03
6.246919184923171997e-02
3.318320494145154953e-03
3.825515508651733398e-03
1.730731502175331116e-02
-5.926807224750518799e-02
-7.849872112274169922e-03
1.439493335783481598e-02
3.911278396844863892e-02
-3.553333505988121033e-02
-6.150604225695133209e-03
2.117569372057914734e-02
-2.831055596470832825e-02
5.674146488308906555e-02
3.822697699069976807e-02
-3.785117343068122864e-02
4.951916262507438660e-02
-6.321331113576889038e-02
-3.817365318536758423e-02
-2.914331294596195221e-02
-4.944468848407268524e-03
5.687451362609863281e-02
1.354236854240298271e-03
-6.457952316850423813e-03
5.063029378652572632e-02
-8.995788171887397766e-03
-2.903584949672222137e-02
-6.497753318399190903e-03
-3.453011158853769302e-03
1.348566357046365738e-02
2.024213597178459167e-02
5.623839423060417175e-02
-6.157967075705528259e-02
-2.448053332045674324e-03
-5.091920495033264160e-02
4.558298364281654358e-02
1.668901182711124420e-02
1.851741597056388855e-02
-1.723799854516983032e-02
6.387535482645034790e-02
-5.869843438267707825e-02
-5.432941764593124390e-02
3.582005575299263000e-02
2.917828224599361420e-02
-2.858769893646240234e-02
6.196901574730873108e-02
5.319549143314361572e-02
-2.832257002592086792e-02
-4.015001654624938965e-02
-4.781840741634368896e-02
6.252517551183700562e-02
3.354470804333686829e-02
5.719214305281639099e-02
-5.370971187949180603e-02
-3.725432604551315308e-02
-5.146880075335502625e-02
1.481409650295972824e-02
-3.959646075963973999e-02
-8.167421445250511169e-03
-3.391679748892784119e-02
-1.074691955000162125e-02
1.332271471619606018e-02
2.217030152678489685e-02
1.407762803137302399e-02
-6.306271255016326904e-02
-5.884020030498504639e-02
3.822805732488632202e-02
-2.370772138237953186e-02
2.196070738136768341e-02
1.676939986646175385e-02
1.439979765564203262e-02
4.400563240051269531e-02
-1.143986918032169342e-02
-2.331674844026565552e-02
3.625839576125144958e-02
-7.770896423608064651e-03
1.255811285227537155e-02
-3.070709481835365295e-02
5.053484812378883362e-02
1.327754277735948563e-02
-2.840532362461090088e-02
7.508238777518272400e-03
2.074455097317695618e-02
-2.269253507256507874e-02
6.304365396499633789e-02
-4.598630219697952271e-02
5.175995081663131714e-02
4.970965534448623657e-02
1.405752822756767273e-02
-4.124657437205314636e-02
-2.126167155802249908e-02
-2.105655521154403687e-02
-5.588264763355255127e-02
-1.919996109791100025e-03
5.260134115815162659e-02
-1.535150408744812012e-02
2.764846757054328918e-02
6.417781859636306763e-02
-3.906459081918001175e-03
3.769006580114364624e-02
5.016775429248809814e-02
4.951601382344961166e-03
-5.052656866610050201e-03
-3.065859712660312653e-02
-4.047732334583997726e-03
-3.263925900682806969e-03
-1.315814210101962090e-03
-4.001992195844650269e-02
-1.620171777904033661e-02
1.198083814233541489e-02
-4.280902817845344543e-02
2.315098233520984650e-02
4.198674112558364868e-02
-5.652269721031188965e-02
-1.851270906627178192e-02
1.945092156529426575e-02
5.676300451159477234e-02
-2.392256259918212891e-02
-1.737679168581962585e-02
1.364858169108629227e-02
1.394344400614500046e-02
5.296079814434051514e-02
1.062416378408670425e-02
-1.508395839482545853e-02
-3.774824738502502441e-02
-5.714121088385581970e-02
-2.177425287663936615e-02
5.164822190999984741e-02
2.426368929445743561e-02
-2.696078643202781677e-02
-2.501096017658710480e-02
2.260643243789672852e-02
3.987572342157363892e-02
-2.314503304660320282e-02
5.033903196454048157e-02
3.130365163087844849e-02
-3.390675038099288940e-02
-5.475933849811553955e-02
1.280500367283821106e-02
-4.984825104475021362e-02
-6.427536904811859131e-02
9.215989150106906891e-03
-4.449839890003204346e-02
-3.308508917689323425e-02
-5.671716481447219849e-02
-4.248971119523048401e-02
-5.337882041931152344e-02
4.198241978883743286e-02
-3.822827339172363281e-02
-1.408227905631065369e-02
5.391317605972290039e-02
-2.557099796831607819e-02
-3.821704164147377014e-02
-6.059349328279495239e-02
2.748595736920833588e-02
-4.771157354116439819e-02
6.258923560380935669e-02
1.224532537162303925e-02
-3.218429163098335266e-02
1.735660061240196228e-02
3.729144111275672913e-02
-1.656554825603961945e-02
-5.634261295199394226e-03
2.928199619054794312e-02
5.792680382728576660e-02
-6.166837736964225769e-02
-3.615245921537280083e-03
-3.219858929514884949e-02
2.680032514035701752e-02
-1.446323562413454056e-02
3.750438243150711060e-02
-4.107873886823654175e-02
-5.376284569501876831e-02
3.708576038479804993e-02
3.517666831612586975e-02
-2.124156802892684937e-02
-4.494766891002655029e-02
-5.586990341544151306e-02
-2.748659998178482056e-02
-2.551915310323238373e-02
1.306704798480495811e-04
4.170623421669006348e-02
1.112106442451477051e-02
8.433108218014240265e-03
-2.283014729619026184e-02
5.083929747343063354e-02
-3.601631522178649902e-02
5.179004371166229248e-02
5.719467997550964355e-02
-5.181287601590156555e-02
-2.701416239142417908e-02
1.045379228889942169e-02
3.853782266378402710e-02
-3.562964498996734619e-03
4.962987080216407776e-02
2.693401277065277100e-02
1.150021981447935104e-02
1.506845466792583466e-02
-4.257950559258460999e-02
-2.277470566332340240e-02
-4.306143149733543396e-03
5.634315684437751770e-02
-1.249119546264410019e-02
-4.301512613892555237e-02
-5.843365564942359924e-02
5.783411487936973572e-02
-4.018497187644243240e-03
-2.118856646120548248e-02
-1.262843329459428787e-02
4.888896271586418152e-02
3.755229525268077850e-03
-3.457164019346237183e-02
6.281647831201553345e-02
5.014423280954360962e-02
-1.749277487397193909e-02
-1.914525032043457031e-02
-2.748385816812515259e-02
4.698770120739936829e-02
-5.241648852825164795e-02
-2.680420689284801483e-02
4.353136941790580750e-02
-4.939066246151924133e-02
-3.501106798648834229e-02
4.863120615482330322e-02
3.522877395153045654e-02
-2.727288007736206055e-02
1.449895091354846954e-02
5.144501104950904846e-02
5.339490622282028198e-02
-5.910925567150115967e-02
4.211866296827793121e-03
4.823398590087890625e-02
-3.278665244579315186e-02
-2.477559819817543030e-02
-2.384962514042854309e-02
2.978295460343360901e-02
-6.594763137400150299e-03
8.708555251359939575e-03
5.996622890233993530e-02
-1.724024116992950439e-02
1.945325732231140137e-02
-5.702254921197891235e-02
8.405941538512706757e-03
4.525040090084075928e-02
4.542196169495582581e-02
-9.349931962788105011e-03
-4.036881029605865479e-02
-8.662279695272445679e-03
6.329917907714843750e-02
1.062351558357477188e-02
3.115090541541576385e-02
4.067813232541084290e-02
6.008991226553916931e-02
5.388646945357322693e-02
-3.525850921869277954e-02
3.373144939541816711e-02
-2.759912796318531036e-02
-4.001542553305625916e-02
5.215082690119743347e-02
-2.461699768900871277e-02
2.391951531171798706e-02
-2.024246938526630402e-02
4.891739040613174438e-02
-1.487909629940986633e-02
-2.860412746667861938e-02
-5.663518980145454407e-02
5.103118717670440674e-02
1.249545253813266754e-02
-5.133611336350440979e-02
4.710379615426063538e-02
4.097634181380271912e-02
3.680003061890602112e-02
2.094510383903980255e-02
1.269493065774440765e-02
-4.207899048924446106e-02
3.490747511386871338e-02
-3.915126621723175049e-02
-3.173676133155822754e-02
-2.512056380510330200e-02
-4.842644929885864258e-02
-3.953978791832923889e-02
4.414784908294677734e-02
1.806406117975711823e-02
-1.275238697417080402e-03
3.817890956997871399e-02
7.595569361001253128e-03
-1.892908662557601929e-02
7.321708835661411285e-04
4.778792709112167358e-02
-2.047132328152656555e-02
-6.306993216276168823e-02
-1.777900569140911102e-02
-2.227831073105335236e-02
-2.395163662731647491e-02
2.685763128101825714e-02
-6.263311207294464111e-02
-5.968262907117605209e-03
4.086177423596382141e-02
4.397528246045112610e-03
-4.591609537601470947e-02
-1.570775359869003296e-02
2.746309526264667511e-02
7.666471414268016815e-03
6.075588986277580261e-02
3.691594675183296204e-02
4.286134243011474609e-02
8.282594382762908936e-03
2.507386542856693268e-02
-5.226124823093414307e-02
1.683994755148887634e-02
-4.030439071357250214e-03
3.543410450220108032e-02
3.250044584274291992e-02
2.638576366007328033e-02
1.296835672110319138e-02
5.322808027267456055e-02
-2.884261682629585266e-02
1.100439857691526413e-02
-1.770858094096183777e-02
-6.278508342802524567e-03
1.049625501036643982e-02
6.254237145185470581e-02
2.055091224610805511e-02
-1.757671870291233063e-02
2.525666728615760803e-02
-1.461798604577779770e-02
4.158223047852516174e-02
-8.252659812569618225e-03
4.493420943617820740e-03
-3.647677600383758545e-02
-3.612853959202766418e-02
-2.151055261492729187e-02
-1.693433732725679874e-03
-8.940782863646745682e-04
2.317965961992740631e-02
-3.228883072733879089e-02
3.667028248310089111e-02
-9.720763191580772400e-03
-3.080157749354839325e-02
-1.994280889630317688e-02
1.415126398205757141e-02
-2.398739941418170929e-02
-6.143942102789878845e-02
-1.825303025543689728e-02
-1.684303767979145050e-02
5.391135811805725098e-02
1.266013458371162415e-02
-5.608768761157989502e-02
-6.289877742528915405e-02
-2.519486844539642334e-02
1.479449216276407242e-02
-5.718380957841873169e-02
-1.986641250550746918e-02
-5.752905458211898804e-02
-6.051874905824661255e-02
-4.797256737947463989e-02
3.652489045634865761e-03
-4.269757494330406189e-02
1.877672597765922546e-02
4.230314400047063828e-03
-2.106640674173831940e-02
-1.568127609789371490e-02
-1.194525230675935745e-02
1.780966483056545258e-02
-2.515873312950134277e-02
3.761847317218780518e-02
2.494758367538452148e-02
4.171819612383842468e-02
-2.671242691576480865e-02
6.761427968740463257e-03
5.290995910763740540e-02
4.843258112668991089e-02
7.416238076984882355e-03
1.820786483585834503e-02
1.029380131512880325e-02
1.810253970324993134e-02
4.109027609229087830e-02
4.526199400424957275e-02
-4.298176616430282593e-02
5.843309313058853149e-02
4.240956157445907593e-02
-2.928115241229534149e-02
-6.267681717872619629e-02
9.447442367672920227e-03
4.245359450578689575e-02
1.239818148314952850e-02
6.103712692856788635e-02
-3.877783194184303284e-03
2.464610524475574493e-02
4.922025650739669800e-02
5.754118040204048157e-02
6.271589081734418869e-03
3.182859346270561218e-02
4.473224654793739319e-02
5.064423754811286926e-02
-3.231593966484069824e-02
1.441056095063686371e-02
6.387393921613693237e-02
-2.848110394552350044e-03
2.852400206029415131e-02
1.936716027557849884e-02
-3.215617686510086060e-02
-2.581190131604671478e-02
5.700175464153289795e-02
-5.691894795745611191e-03
2.255110157420858741e-04
-3.227207809686660767e-02
4.677074030041694641e-02
2.870062738656997681e-02
5.004692077636718750e-02
-2.774188481271266937e-02
-1.822882518172264099e-02
4.768446087837219238e-02
1.338865607976913452e-02
2.943494357168674469e-02
3.232413204386830330e-03
-1.074319519102573395e-02
-2.466947771608829498e-02
2.129980362951755524e-02
-6.323695182800292969e-02
1.833602972328662872e-02
6.373284850269556046e-04
-6.378909107297658920e-03
4.866093397140502930e-02
-4.288151115179061890e-02
2.586475200951099396e-02
-4.018623009324073792e-02
-5.230265110731124878e-02
-4.604671616107225418e-03
-4.087444022297859192e-02
-5.532591044902801514e-02
2.620719932019710541e-02
4.203851893544197083e-02
6.350474804639816284e-02
4.563982039690017700e-02
1.173118222504854202e-02
2.733490243554115295e-02
-3.376925131306052208e-03
-5.922336131334304810e-02
1.449581515043973923e-02
4.969831928610801697e-02
2.942910604178905487e-02
-4.113468155264854431e-02
5.997892841696739197e-02
3.861349448561668396e-02
5.568933114409446716e-02
-1.066532358527183533e-02
5.912596359848976135e-02
-6.758342962712049484e-03
-3.108937293291091919e-02
-5.970170721411705017e-02
-1.660006120800971985e-02
-1.862174645066261292e-02
4.028677474707365036e-03
-1.166385412216186523e-02
-1.486222539097070694e-02
1.865362562239170074e-02
-4.335158318281173706e-02
3.697435557842254639e-02
4.960581287741661072e-02
-7.276962511241436005e-03
-6.513186264783143997e-03
-5.672625452280044556e-02
-5.758721753954887390e-02
1.449792739003896713e-02
2.318101190030574799e-02
-1.911498978734016418e-02
5.956403538584709167e-02
-4.327046498656272888e-02
2.905204147100448608e-02
-1.254831068217754364e-02
6.195195019245147705e-02
1.563720405101776123e-02
2.463272772729396820e-03
3.061019815504550934e-03
-4.270254168659448624e-03
-2.339304890483617783e-03
-4.561299085617065430e-02
1.080915611237287521e-02
-2.677994081750512123e-03
3.839939832687377930e-02
1.596156507730484009e-02
-5.318209901452064514e-02
1.967987976968288422e-02
3.755892068147659302e-02
-1.229553297162055969e-02
1.504114829003810883e-02
3.678108751773834229e-02
1.633146032691001892e-02
-8.407735265791416168e-03
3.356707841157913208e-02
-4.068864881992340088e-02
-5.230749398469924927e-02
5.861956253647804260e-02
5.748293176293373108e-02
-2.993336692452430725e-02
2.828862145543098450e-02
4.015056043863296509e-02
6.016878411173820496e-02
-2.743195800576359034e-04
-1.941745541989803314e-02
-5.648072436451911926e-02
-2.076083049178123474e-02
5.040587112307548523e-02
-1.225718110799789429e-02
-2.765887789428234100e-02
9.192801080644130707e-03
-3.168845176696777344e-02
2.576167322695255280e-02
-3.130269423127174377e-02
-3.267508745193481445e-02
2.978169545531272888e-02
-2.575785666704177856e-02
-3.560414165258407593e-02
-3.951790183782577515e-02
4.300910606980323792e-02
2.169083058834075928e-02
3.938482142984867096e-03
-6.245923414826393127e-02
5.497631803154945374e-02
-5.946805700659751892e-03
-4.756812751293182373e-02
1.539096515625715256e-02
-3.791908174753189087e-02
5.326914414763450623e-02
-1.292375568300485611e-02
4.723729938268661499e-02
-4.893553443253040314e-03
-5.538190901279449463e-02
-4.462075885385274887e-03
4.692928399890661240e-03
6.391939520835876465e-02
6.044324114918708801e-02
3.452108800411224365e-02
-5.016653239727020264e-02
-1.680119521915912628e-02
1.300057768821716309e-02
2.770751714706420898e-02
1.674686931073665619e-02
4.850498586893081665e-02
5.272668972611427307e-02
6.047492381185293198e-03
-6.307711452245712280e-02
-2.137481421232223511e-02
-8.590184152126312256e-03
2.481772750616073608e-02
6.174883991479873657e-02
-9.601751342415809631e-03
-5.394477397203445435e-02
2.807721495628356934e-02
-3.383494913578033447e-02
3.232520073652267456e-02
-4.206122457981109619e-02
1.692816428840160370e-02
6.333296000957489014e-02
-6.235894560813903809e-02
-2.851913496851921082e-02
-1.223476370796561241e-03
-5.052483826875686646e-02
4.221142083406448364e-02
1.951940543949604034e-02
4.977560788393020630e-02
4.549406468868255615e-02
-5.016133189201354980e-02
4.213437438011169434e-02
3.423038870096206665e-02
5.694343894720077515e-02
-1.723200548440217972e-04
3.502956125885248184e-03
4.588279500603675842e-02
-1.404007896780967712e-02
-5.016632005572319031e-02
-6.879962515085935593e-03
-9.271994233131408691e-03
-3.956229891628026962e-03
-4.079497978091239929e-02
-4.038963839411735535e-02
2.173614129424095154e-02
-3.139957785606384277e-02
-4.041437804698944092e-02
-1.118438690900802612e-02
-3.066323697566986084e-02
-1.154309976845979691e-02
5.006594955921173096e-02
-3.680829703807830811e-02
7.192662451416254044e-03
2.537231519818305969e-02
-1.453640963882207870e-02
2.501606941223144531e-04
-3.803015500307083130e-02
-4.017668589949607849e-02
-6.435860879719257355e-03
-3.075050190091133118e-02
4.290340095758438110e-02
-5.366558581590652466e-02
-5.585737898945808411e-02
3.646547347307205200e-02
8.301824331283569336e-03
-3.033640794456005096e-02
5.498299747705459595e-02
-9.702301584184169769e-03
-1.939909905195236206e-02
-4.673593118786811829e-02
-5.101913213729858398e-02
6.835352978669106960e-04
4.456657916307449341e-02
-5.747939273715019226e-02
-1.007713144645094872e-03
6.152408942580223083e-02
5.293141305446624756e-02
-3.092175535857677460e-02
-1.369528658688068390e-02
-5.983649939298629761e-02
6.159602664411067963e-03
4.640290141105651855e-02
4.854083061218261719e-03
-3.814925253391265869e-02
-5.318294465541839600e-02
-6.081150099635124207e-02
6.246514618396759033e-03
2.618206292390823364e-02
-2.987856604158878326e-02
-6.304265558719635010e-02
-6.114069744944572449e-02
-3.794063627719879150e-02
1.728489808738231659e-02
-5.683637410402297974e-02
-3.348235413432121277e-02
-3.983182460069656372e-02
4.120042175054550171e-02
1.550366263836622238e-02
3.191206371411681175e-03
-3.860804066061973572e-02
-1.813875883817672729e-02
-5.307826399803161621e-02
-2.093255333602428436e-02
-2.572048397269099951e-04
-5.766107141971588135e-02
-3.914203122258186340e-02
2.555900812149047852e-02
5.172101780772209167e-02
-3.901438415050506592e-02
-5.005115270614624023e-02
3.068838641047477722e-02
5.089224874973297119e-02
9.418819099664688110e-03
-6.173835322260856628e-02
2.530832402408123016e-02
-5.196347087621688843e-02
-5.950366333127021790e-02
5.824792757630348206e-02
3.190168738365173340e-02
-3.880145028233528137e-02
5.025129765272140503e-03
2.398530580103397369e-02
4.693691805005073547e-02
5.929960403591394424e-03
4.113867878913879395e-02
3.464230522513389587e-02
1.105896104127168655e-02
-4.702881909906864166e-03
-6.358312070369720459e-02
-5.422376468777656555e-02
-1.089961919933557510e-02
5.627533048391342163e-02
3.649045526981353760e-02
5.643812566995620728e-02
4.752178862690925598e-02
-2.049110084772109985e-02
3.420135006308555603e-02
-3.963689133524894714e-02
7.999937050044536591e-03
4.273315891623497009e-02
3.840365260839462280e-02
1.447728089988231659e-02
4.731606226414442062e-03
5.692882463335990906e-02
2.549002412706613541e-03
-5.409854464232921600e-03
-2.503463812172412872e-02
5.258409678936004639e-02
6.295503675937652588e-02
5.388957262039184570e-02
3.427786007523536682e-02
-1.891801506280899048e-02
3.591347485780715942e-02
2.072807773947715759e-02
2.728024683892726898e-02
-8.851643651723861694e-03
4.097748175263404846e-02
-7.311599794775247574e-03
-1.586525514721870422e-02
1.590028405189514160e-02
-5.332277715206146240e-02
-1.605220511555671692e-02
5.615549534559249878e-02
-1.379863359034061432e-02
-6.250157952308654785e-02
4.293064400553703308e-02
-2.124613896012306213e-02
6.133108586072921753e-02
-2.573111653327941895e-02
9.352530352771282196e-03
6.146311387419700623e-02
6.063591316342353821e-02
4.468207433819770813e-02
-4.560454562306404114e-02
-5.360442399978637695e-02
7.278363220393657684e-03
-6.071896106004714966e-02
-5.629610270261764526e-02
2.171169780194759369e-02
-2.663875184953212738e-02
4.046993702650070190e-02
-2.298547327518463135e-02
-2.653012610971927643e-02
3.260477632284164429e-02
4.210183396935462952e-02
-3.637496009469032288e-02
1.346353907138109207e-02
5.797157436609268188e-02
-2.477528154850006104e-02
-3.738120570778846741e-02
6.379540264606475830e-02
-3.538762405514717102e-02
1.969663798809051514e-02
3.187909349799156189e-02
-2.705851383507251740e-02
2.349494397640228271e-02
2.980247139930725098e-02
2.500495128333568573e-02
3.045697696506977081e-02
4.893027618527412415e-02
-1.512491516768932343e-02
3.775750845670700073e-02
-2.048118412494659424e-02
-5.123353749513626099e-02
-3.063333593308925629e-02
3.710670024156570435e-02
-2.748158015310764313e-02
-1.143144536763429642e-02
3.325530141592025757e-02
6.218828260898590088e-02
-6.050734594464302063e-02
-3.073499910533428192e-02
-1.999222114682197571e-02
-4.193600639700889587e-02
1.962436363101005554e-03
-4.940301179885864258e-02
-5.247166752815246582e-02
-4.385092481970787048e-02
5.768157169222831726e-02
3.849026933312416077e-02
-1.292036287486553192e-02
-2.649451047182083130e-02
-5.342021584510803223e-02
-3.564102575182914734e-02
1.905123703181743622e-02
-3.326583653688430786e-02
4.934930801391601562e-02
-4.224296193569898605e-03
-2.534088119864463806e-02
4.252532869577407837e-02
-3.461093455553054810e-02
4.622874036431312561e-02
2.965283580124378204e-02
4.227127134799957275e-02
-4.254180192947387695e-02
-6.319599598646163940e-02
5.771572515368461609e-02
3.025908581912517548e-02
5.958739668130874634e-02
-2.041101828217506409e-02
6.259688735008239746e-02
1.994009129703044891e-02
6.146066635847091675e-02
3.444156795740127563e-02
-3.198431059718132019e-02
-1.102285925298929214e-03
3.682480007410049438e-02
6.279308348894119263e-02
3.881458565592765808e-02
-1.901068352162837982e-02
6.329443305730819702e-02
2.299482934176921844e-02
4.561319947242736816e-02
6.423614174127578735e-02
-2.551375515758991241e-02
2.459382638335227966e-03
4.981458932161331177e-02
2.776524052023887634e-02
-4.647840932011604309e-02
1.978820562362670898e-02
-1.695467717945575714e-02
4.500790312886238098e-02
3.963660448789596558e-02
-3.535455465316772461e-02
-3.430731222033500671e-02
-2.731108979787677526e-04
1.165727153420448303e-02
3.459487855434417725e-02
3.315280377864837646e-02
6.050356477499008179e-02
-1.268085185438394547e-02
-5.699341744184494019e-02
8.550341241061687469e-03
-5.120806396007537842e-02
3.012146428227424622e-02
-6.447841227054595947e-02
6.289292126893997192e-03
-2.075506746768951416e-02
-9.762180037796497345e-03
-6.414246559143066406e-02
-2.645664103329181671e-02
8.292690850794315338e-03
-5.711319670081138611e-02
8.841872215270996094e-03
-2.469661086797714233e-02
5.115205422043800354e-02
3.702170681208372116e-03
3.499475494027137756e-02
1.019579544663429260e-02
3.996985405683517456e-02
1.758922822773456573e-02
-1.499298587441444397e-02
4.891547188162803650e-02
6.244053691625595093e-02
-4.313537850975990295e-02
-3.312550485134124756e-02
4.098885506391525269e-02
-2.868980169296264648e-02
1.100761163979768753e-02
1.963275298476219177e-02
-2.973780967295169830e-02
3.250484913587570190e-02
-3.954774886369705200e-02
4.843643680214881897e-02
6.422945111989974976e-02
8.016737177968025208e-03
-2.738718688488006592e-02
2.098025754094123840e-03
-2.473098458722233772e-03
6.502648349851369858e-03
3.192149475216865540e-02
-3.232054784893989563e-02
5.350945866666734219e-04
5.576135590672492981e-03
1.689000241458415985e-02
2.875622175633907318e-02
-2.037202753126621246e-02
4.399553686380386353e-02
5.134228244423866272e-02
5.667798221111297607e-02
-1.319492585025727749e-03
-4.292784631252288818e-02
-4.594655334949493408e-02
5.518295243382453918e-02
6.086302921175956726e-02
-3.745179250836372375e-02
5.452005192637443542e-02
-2.864052355289459229e-02
3.960695862770080566e-02
1.876503415405750275e-02
-1.103672431781888008e-03
3.799999505281448364e-02
-5.476659163832664490e-02
4.767997935414314270e-02
-4.668773338198661804e-02
2.140831056749448180e-04
-4.025400057435035706e-02
4.451303742825984955e-03
-1.151617430150508881e-02
3.675113245844841003e-02
3.055180609226226807e-02
6.185301393270492554e-02
-4.824132472276687622e-02
-6.271272152662277222e-02
2.931721741333603859e-03
4.844851046800613403e-02
-5.374208092689514160e-02
-4.705731756985187531e-03
-6.171853467822074890e-02
-6.121173501014709473e-03
-1.756674423813819885e-02
-3.547354415059089661e-02
2.620803378522396088e-02
-3.947839140892028809e-02
-2.219662256538867950e-02
-4.950057715177536011e-02
-1.456997264176607132e-02
4.333640635013580322e-02
-2.786014974117279053e-02
-5.497273802757263184e-02
1.909664948470890522e-03
-4.275120329111814499e-03
-3.246695920825004578e-02
-5.336720123887062073e-02
3.829147666692733765e-02
-1.346308272331953049e-02
-3.686877340078353882e-02
6.033153831958770752e-02
6.406600773334503174e-02
-5.524314567446708679e-02
4.547860100865364075e-02
6.220960617065429688e-02
6.107032299041748047e-02
1.351237669587135315e-02
-5.993847921490669250e-02
4.511121660470962524e-02
-5.934008583426475525e-02
3.847796469926834106e-02
5.726955085992813110e-02
5.516560375690460205e-02
-2.649169787764549255e-02
-8.937303908169269562e-03
-6.185609474778175354e-02
3.231250867247581482e-02
-2.570145018398761749e-02
6.012853235006332397e-02
-1.722480356693267822e-02
-3.125377744436264038e-02
1.759673282504081726e-02
-7.182157132774591446e-03
3.633842989802360535e-02
-1.769459247589111328e-02
-2.580636739730834961e-02
-4.546177759766578674e-02
6.144936755299568176e-02
3.954545035958290100e-02
3.922283276915550232e-02
4.566780757158994675e-03
2.875418961048126221e-02
1.641521230340003967e-02
-4.790783673524856567e-02
4.634180292487144470e-02
-3.524301573634147644e-02
-4.098670557141304016e-02
-5.729112401604652405e-02
-1.514407712966203690e-02
1.462890300899744034e-02
-3.617954440414905548e-03
-6.069901213049888611e-02
5.875756219029426575e-02
1.743847504258155823e-02
-3.380093351006507874e-02
1.418090704828500748e-02
4.181280359625816345e-02
-6.061181426048278809e-02
2.595961652696132660e-02
5.585860460996627808e-02
6.352965254336595535e-03
-1.712019438855350018e-03
5.180937238037586212e-03
-1.398971490561962128e-02
6.260894984006881714e-02
-4.159357398748397827e-02
-6.246282905340194702e-02
1.486652414314448833e-03
-1.123457448557019234e-03
-2.338292263448238373e-02
6.109603121876716614e-02
6.119057652540504932e-04
-2.813878841698169708e-02
4.531655460596084595e-02
-4.132059589028358459e-02
1.364147383719682693e-02
-4.940577596426010132e-02
-1.795878051780164242e-03
3.033364191651344299e-02
-2.446739003062248230e-02
-6.897314451634883881e-03
4.500374570488929749e-02
-1.205846946686506271e-02
2.006420306861400604e-02
2.770317159593105316e-02
6.065580248832702637e-02
5.375300720334053040e-02
-3.055643662810325623e-02
1.395073253661394119e-02
2.680456452071666718e-02
4.032700136303901672e-02
2.674281410872936249e-02
-4.518739506602287292e-02
-1.036945264786481857e-03
1.349224802106618881e-02
3.319730609655380249e-02
-3.165829926729202271e-03
1.895025954581797123e-03
5.585727840662002563e-02
-4.445914179086685181e-02
5.048224702477455139e-02
-3.681984916329383850e-02
-2.725560776889324188e-02
-2.520632185041904449e-02
-3.868445381522178650e-02
-1.123273652046918869e-02
-6.030039489269256592e-02
-4.650468379259109497e-02
9.034171700477600098e-03
2.245867811143398285e-02
1.253193709999322891e-03
-2.828608453273773193e-02
5.668422952294349670e-02
-2.309050038456916809e-02
2.817819267511367798e-02
1.486742962151765823e-02
4.435128346085548401e-02
6.124879047274589539e-02
2.654915116727352142e-02
-2.870645187795162201e-02
-4.146611317992210388e-03
-6.092463433742523193e-02
4.953486844897270203e-02
4.909941926598548889e-02
-5.593016371130943298e-02
-4.663239419460296631e-02
3.636497631669044495e-02
7.194079924374818802e-03
3.324253484606742859e-02
-4.501174017786979675e-02
-2.697610482573509216e-02
6.144168227910995483e-02
-4.959555808454751968e-03
-1.937440223991870880e-02
-2.257363684475421906e-02
2.579629048705101013e-02
1.608053967356681824e-02
5.564496293663978577e-02
-2.168748900294303894e-02
-7.382163312286138535e-03
-3.751285746693611145e-02
5.726670846343040466e-02
-1.918727159500122070e-02
-3.850649297237396240e-02
-5.569944158196449280e-02
4.888352751731872559e-02
5.300991982221603394e-02
-2.688406407833099365e-02
3.545014187693595886e-02
1.723881065845489502e-02
6.303194165229797363e-02
-3.411883115768432617e-02
3.264329209923744202e-02
-2.291358634829521179e-02
1.824846491217613220e-02
2.963138557970523834e-02
1.221781969070434570e-02
3.870866820216178894e-02
2.419219352304935455e-02
5.580539256334304810e-02
5.496684461832046509e-02
2.025555819272994995e-02
-1.800947077572345734e-02
1.963293552398681641e-02
-3.500448539853096008e-02
2.511896006762981415e-02
-2.248099073767662048e-02
6.268660724163055420e-02
-4.612581059336662292e-02
-3.673171624541282654e-02
-7.626282982528209686e-03
-4.426242038607597351e-02
2.200662158429622650e-03
-2.913080528378486633e-02
-5.791159346699714661e-02
5.547784268856048584e-02
2.121491916477680206e-02
3.318339120596647263e-03
3.851584717631340027e-02
3.228229656815528870e-02
-5.711264908313751221e-02
-5.801632534712553024e-03
4.008287563920021057e-02
-3.789542242884635925e-02
-3.213656321167945862e-02
2.792929671704769135e-02
-6.431122869253158569e-02
-3.412385284900665283e-02
4.842264205217361450e-02
4.258392751216888428e-02
7.970592938363552094e-03
1.465050037950277328e-02
3.708289563655853271e-02
7.665771991014480591e-03
2.717240341007709503e-02
-4.507609084248542786e-02
4.014169052243232727e-02
1.860569976270198822e-02
2.516833879053592682e-02
-1.798057928681373596e-02
4.531002789735794067e-02
5.376959219574928284e-02
-1.909720152616500854e-02
1.500944979488849640e-02
5.148137360811233521e-02
-3.929860517382621765e-02
4.201506450772285461e-02
-4.208732768893241882e-02
-3.610712662339210510e-02
-1.453749090433120728e-02
5.142553895711898804e-02
-1.409693062305450439e-02
4.994391649961471558e-02
5.404689535498619080e-02
2.949886396527290344e-02
3.264439478516578674e-02
3.969449549913406372e-02
-3.116085566580295563e-02
-4.360443726181983948e-02
5.734600499272346497e-02
3.601318597793579102e-02
-6.328147649765014648e-02
-2.105512842535972595e-02
-3.197396919131278992e-02
1.721943169832229614e-02
6.351028382778167725e-02
3.873031586408615112e-03
-1.580921374261379242e-02
8.352311328053474426e-03
3.861583769321441650e-02
6.233669444918632507e-02
2.817429229617118835e-02
6.398569792509078979e-02
-3.056068159639835358e-02
-5.139717087149620056e-02
3.325305134057998657e-02
-2.711883746087551117e-02
6.412698328495025635e-02
-4.306453838944435120e-02
4.230523854494094849e-02
5.354074761271476746e-02
-5.835301056504249573e-02
-4.420680925250053406e-02
5.013414844870567322e-02
6.270644813776016235e-02
1.158008119091391563e-03
-1.614899188280105591e-02
-1.673057302832603455e-02
-1.160999387502670288e-02
-8.999121375381946564e-03
-1.739426143467426300e-02
1.131493039429187775e-02
1.562258414924144745e-02
4.713287949562072754e-02
-4.213637486100196838e-02
-4.322779923677444458e-02
1.830407883971929550e-03
-5.397084355354309082e-02
-3.864573081955313683e-03
-5.774367228150367737e-02
-1.860247552394866943e-02
-1.484746020287275314e-02
-8.585558272898197174e-03
-5.498051643371582031e-02
-5.543367937207221985e-02
1.367840543389320374e-02
2.713995426893234253e-02
-3.592034056782722473e-02
2.059897407889366150e-02
-8.263034746050834656e-03
-1.148186903446912766e-02
3.270145133137702942e-02
-3.496928513050079346e-02
4.879787936806678772e-02
5.106159299612045288e-02
9.124555625021457672e-03
4.305621236562728882e-02
-6.860916502773761749e-03
5.121437087655067444e-02
-1.969801448285579681e-02
5.709163099527359009e-02
-2.574552316218614578e-03
6.684940308332443237e-03
-5.126143246889114380e-02
1.618395373225212097e-02
4.006522521376609802e-02
-1.712212525308132172e-02
-2.146425098180770874e-02
-9.404032607562839985e-04
4.149739816784858704e-02
6.078963354229927063e-02
6.265461444854736328e-03
-1.814974471926689148e-02
-3.356826677918434143e-02
-2.943621715530753136e-03
-4.066529683768749237e-03
-1.262015546672046185e-03
5.326106399297714233e-02
2.397207729518413544e-02
1.589483208954334259e-02
-3.571361303329467773e-02
-2.498397231101989746e-02
-2.786136791110038757e-02
1.216786354780197144e-02
4.346171021461486816e-02
3.744458407163619995e-02
-3.281959565356373787e-03
8.675644174218177795e-03
4.046050086617469788e-02
4.355119913816452026e-02
-5.809314921498298645e-02
-7.108300458639860153e-03
-6.321268528699874878e-02
-4.116948693990707397e-02
4.378049075603485107e-02
-6.080429628491401672e-02
-5.346157774329185486e-02
-1.630530925467610359e-03
-3.956641256809234619e-02
-4.390114545822143555e-02
3.024237789213657379e-02
-5.982236191630363464e-02
-9.749998338520526886e-03
1.279573515057563782e-02
-5.517717450857162476e-02
5.572651699185371399e-02
2.041428349912166595e-02
1.475733239203691483e-02
5.900733172893524170e-02
3.716100007295608521e-02
-5.456013977527618408e-02
-1.838458329439163208e-02
5.740472674369812012e-02
2.100658370181918144e-03
-2.283003367483615875e-02
1.955898664891719818e-02
-3.332079946994781494e-02
4.059208557009696960e-03
3.798976168036460876e-02
5.113934352993965149e-02
-1.981393992900848389e-02
4.724778234958648682e-02
-3.994279354810714722e-02
-5.784519016742706299e-02
-5.039855465292930603e-02
-1.407323963940143585e-02
-2.885634452104568481e-02
3.302526194602251053e-03
3.716064617037773132e-03
4.393549263477325439e-02
4.841099493205547333e-03
-3.935869038105010986e-02
1.696897856891155243e-02
-1.105293910950422287e-02
2.711556851863861084e-02
-1.098671089857816696e-02
-3.382030501961708069e-02
-3.017439693212509155e-02
-3.038013912737369537e-02
-3.260489925742149353e-02
1.146895997226238251e-02
-2.704772539436817169e-02
4.556597396731376648e-02
5.306097213178873062e-03
-2.247961983084678650e-02
2.746391482651233673e-02
1.251622568815946579e-02
3.277906449511647224e-03
-1.980442181229591370e-02
-6.988603621721267700e-03
-2.065807953476905823e-02
5.578590556979179382e-02
-3.833413869142532349e-02
-4.780961945652961731e-02
5.357299814932048321e-04
2.937440574169158936e-02
5.331488326191902161e-02
-3.502963483333587646e-02
-1.556334830820560455e-02
-3.877345100045204163e-02
5.248569324612617493e-02
-1.355177909135818481e-02
-3.098102845251560211e-02
2.587505243718624115e-02
-3.455256670713424683e-02
-6.045551970601081848e-02
-1.626255922019481659e-02
5.029818788170814514e-02
4.898985847830772400e-02
-3.961075097322463989e-02
-4.948856309056282043e-02
3.430409356951713562e-02
4.211012646555900574e-02
4.836561903357505798e-02
4.667394980788230896e-02
3.090163879096508026e-02
-9.800565429031848907e-03
-5.038956552743911743e-02
1.504809595644474030e-02
2.228617668151855469e-03
-2.983373776078224182e-02
-5.897765606641769409e-02
-2.299076318740844727e-02
4.310782253742218018e-02
2.989941835403442383e-02
-1.631893217563629150e-03
-5.074696242809295654e-02
-4.622772336006164551e-03
1.031986624002456665e-02
3.547730296850204468e-02
-2.214678376913070679e-02
-4.858482629060745239e-02
-5.795297026634216309e-02
4.308920353651046753e-02
-3.723939508199691772e-02
-4.783234000205993652e-02
2.643296867609024048e-02
-4.880737885832786560e-02
-1.940495893359184265e-02
5.534886568784713745e-02
-1.545084267854690552e-02
3.957214206457138062e-02
-3.992398828268051147e-02
-3.671970963478088379e-02
1.548779755830764771e-02
3.845530003309249878e-02
1.354587078094482422e-02
2.116262912750244141e-04
-2.629557996988296509e-02
-2.207083255052566528e-02
3.707922995090484619e-03
5.871998518705368042e-02
-8.376680314540863037e-03
-1.358182355761528015e-02
-6.092599779367446899e-02
4.709333181381225586e-02
5.339546501636505127e-02
-1.546688005328178406e-02
-1.694444194436073303e-02
-3.287991136312484741e-02
1.158549636602401733e-02
2.851703017950057983e-02
-4.645210132002830505e-02
-2.989380434155464172e-02
-4.818384349346160889e-02
-3.763698041439056396e-03
4.269108176231384277e-04
-1.344309747219085693e-02
5.998379737138748169e-02
-3.051161393523216248e-02
4.513211548328399658e-03
-3.632057458162307739e-02
-2.975163236260414124e-02
5.201458930969238281e-03
-3.820549696683883667e-02
1.648034900426864624e-02
5.618909001350402832e-02
-2.737352997064590454e-02
4.374524205923080444e-02
9.428806602954864502e-03
-3.910971060395240784e-02
4.110400378704071045e-02
7.454872131347656250e-03
-6.288915872573852539e-02
6.428869813680648804e-02
5.878274142742156982e-02
5.642420053482055664e-02
5.341607332229614258e-02
1.260018348693847656e-02
-3.538998216390609741e-02
-3.217650577425956726e-02
1.654726266860961914e-02
-7.931575179100036621e-03
3.173464536666870117e-02
-3.223903477191925049e-02
5.458023399114608765e-02
1.340483874082565308e-02
-6.436754018068313599e-02
2.832122147083282471e-02
-6.293912976980209351e-02
