1.739543825387954712e-01
1.276886016130447388e-01
-2.793936245143413544e-02
-1.778454035520553589e-01
-3.975550830364227295e-02
-7.627394795417785645e-02
1.748338192701339722e-01
1.165818348526954651e-01
1.226606816053390503e-01
-7.092668116092681885e-02
1.897968500852584839e-01
-1.640157848596572876e-01
1.579664945602416992e-01
-1.097161099314689636e-01
-1.649191677570343018e-01
-3.096241503953933716e-02
6.569680571556091309e-02
1.637749671936035156e-01
1.324309855699539185e-01
-3.817538917064666748e-02
-1.543469429016113281e-01
-1.291867345571517944e-01
4.895438253879547119e-02
-1.111142113804817200e-01
1.129873916506767273e-01
-1.156307682394981384e-01
-1.825759112834930420e-01
1.046257838606834412e-01
-1.697025299072265625e-01
1.745138615369796753e-01
1.533530056476593018e-01
1.582134366035461426e-01
-1.122008860111236572e-01
8.149439096450805664e-02
6.319934129714965820e-02
-6.338196247816085815e-02
1.068092286586761475e-01
-3.357630968093872070e-02
2.093318104743957520e-02
2.934081479907035828e-03
-1.667537093162536621e-01
3.285670280456542969e-02
7.544663734734058380e-03
1.878952383995056152e-01
1.830021142959594727e-01
-7.931750267744064331e-02
1.715396344661712646e-01
-1.730978786945343018e-01
-2.139128185808658600e-02
-1.636022180318832397e-01
2.642092294991016388e-02
1.263761073350906372e-01
-1.454772055149078369e-01
-1.688429713249206543e-01
8.641173131763935089e-03
-2.721146680414676666e-02
3.047798946499824524e-02
-7.820685207843780518e-02
1.743177883327007294e-03
3.834067285060882568e-02
9.192445129156112671e-02
-4.046119377017021179e-02
1.890082806348800659e-01
2.489145472645759583e-02
4.484251141548156738e-02
-1.229598969221115112e-01
1.822777837514877319e-02
1.905003935098648071e-01
-7.920453697443008423e-02
9.437593817710876465e-02
4.964615777134895325e-02
9.506151825189590454e-02
-6.201897747814655304e-03
-8.795030415058135986e-02
7.816734164953231812e-02
-1.325920820236206055e-01
4.406970459967851639e-03
1.606710702180862427e-01
1.118963956832885742e-02
-8.576425164937973022e-02
-9.462590515613555908e-02
-1.522448062896728516e-01
-2.525439485907554626e-02
-1.272831857204437256e-01
4.433134105056524277e-03
-5.676315724849700928e-02
-1.359232701361179352e-02
-3.866533935070037842e-02
-1.721082329750061035e-01
-1.608490757644176483e-02
-1.701820045709609985e-01
-1.492433696985244751e-01
-1.142363920807838440e-01
1.864653974771499634e-01
-3.545594960451126099e-02
-4.974487423896789551e-02
-1.486195921897888184e-01
1.492387354373931885e-01
7.958846539258956909e-02
4.776894673705101013e-02
-1.361276358366012573e-01
-1.722790598869323730e-01
-1.806181371212005615e-01
1.501953601837158203e-01
1.412156373262405396e-01
-1.066419258713722229e-01
1.059979572892189026e-01
-1.348567306995391846e-01
1.090975403785705566e-01
1.178839281201362610e-01
4.559291526675224304e-03
-4.792450368404388428e-02
9.239920228719711304e-02
-6.350272148847579956e-02
-1.719152480363845825e-01
1.585411876440048218e-01
1.043103933334350586e-01
-8.998750150203704834e-02
-2.332383766770362854e-02
-1.494887620210647583e-01
-1.265304833650588989e-01
-1.559797674417495728e-01
7.567381113767623901e-02
-4.806537926197052002e-02
1.619146764278411865e-01
1.125336885452270508e-01
1.281970143318176270e-01
-1.605019569396972656e-01
1.100489348173141479e-01
-3.398660197854042053e-02
-7.224603742361068726e-02
-1.303369402885437012e-01
7.848218083381652832e-02
1.878988146781921387e-01
7.054352760314941406e-02
9.857176989316940308e-02
1.749047264456748962e-02
5.788164213299751282e-02
3.677067533135414124e-02
-1.872012317180633545e-01
-1.758123934268951416e-01
8.326455205678939819e-02
-4.511571954935789108e-03
-5.783078446984291077e-02
1.306888908147811890e-01
9.355196356773376465e-02
1.480583548545837402e-01
-1.034654155373573303e-01
-4.691465198993682861e-02
-6.813162565231323242e-02
1.359394788742065430e-01
-1.664517670869827271e-01
-1.535625904798507690e-01
-2.296284213662147522e-02
-6.151659041643142700e-02
-3.091577673330903053e-03
2.409993670880794525e-02
1.555272489786148071e-01
9.677577018737792969e-02
3.691347688436508179e-02
-1.582479104399681091e-02
-4.621788114309310913e-02
-5.432126671075820923e-02
-2.078060060739517212e-02
2.349444851279258728e-02
7.312098983675241470e-03
1.545344106853008270e-02
1.412986516952514648e-01
1.189651712775230408e-01
1.918725669384002686e-01
8.808786422014236450e-02
1.142717376351356506e-01
-7.192440330982208252e-03
5.707584321498870850e-02
1.726390421390533447e-01
-1.111210286617279053e-01
1.887559294700622559e-01
4.671709612011909485e-02
-1.729664951562881470e-01
1.160821840167045593e-01
1.674345880746841431e-01
2.322052977979183197e-02
-1.900783330202102661e-01
1.458597630262374878e-01
1.263632029294967651e-01
-3.936220705509185791e-02
-9.114371240139007568e-02
1.635843366384506226e-01
1.451939642429351807e-01
6.129713356494903564e-02
-4.695590119808912277e-03
1.657431721687316895e-01
-1.270301043987274170e-01
1.462921947240829468e-01
-1.512852460145950317e-01
-4.321398958563804626e-02
-3.953026235103607178e-02
1.621808409690856934e-01
2.134016156196594238e-02
-1.096848994493484497e-01
1.803484112024307251e-01
1.762539893388748169e-01
7.210078090429306030e-02
5.788053944706916809e-02
-7.299239933490753174e-02
-1.588865071535110474e-01
1.351714730262756348e-01
1.382745802402496338e-01
1.664705425500869751e-01
-2.383598126471042633e-03
-6.601361930370330811e-02
-1.581594944000244141e-01
1.674974411725997925e-01
1.129985451698303223e-01
-1.701726913452148438e-01
7.161899935454130173e-03
1.918839663267135620e-01
1.522011309862136841e-02
-8.567708730697631836e-02
1.421418040990829468e-02
1.851471513509750366e-01
3.783512115478515625e-02
2.697151340544223785e-02
3.182500228285789490e-02
-1.432048827409744263e-01
6.091932952404022217e-02
5.615898966789245605e-02
7.937207818031311035e-02
-1.234078034758567810e-01
1.719388663768768311e-01
-8.407059311866760254e-02
6.822203099727630615e-02
1.045957878232002258e-01
6.718643009662628174e-02
-1.147063598036766052e-01
-2.405896037817001343e-02
-1.550358813256025314e-02
1.243235543370246887e-01
-3.489128872752189636e-02
-5.189331620931625366e-02
-6.650528311729431152e-02
5.864182114601135254e-02
-6.248405575752258301e-02
1.237320080399513245e-01
7.594157010316848755e-02
-4.455983266234397888e-02
-5.291613936424255371e-02
-4.154040291905403137e-02
-9.647608548402786255e-02
-5.777070298790931702e-02
-1.782394200563430786e-01
1.836699247360229492e-01
9.789055585861206055e-02
-1.615850776433944702e-01
1.357455551624298096e-01
2.082563005387783051e-02
-1.786870658397674561e-01
-6.636542826890945435e-02
-1.622816771268844604e-01
-6.038265302777290344e-02
1.039089635014533997e-01
1.227510571479797363e-01
7.045024633407592773e-02
-1.830838322639465332e-01
9.772349148988723755e-02
-6.513679027557373047e-02
1.374219059944152832e-01
1.096217259764671326e-01
1.121797319501638412e-02
8.955124765634536743e-02
7.095516473054885864e-02
1.519897300750017166e-02
1.421187669038772583e-01
-9.367186576128005981e-02
-2.722381241619586945e-02
-6.544382870197296143e-02
-1.348533853888511658e-02
-2.483753114938735962e-02
-3.034463338553905487e-02
-1.829863637685775757e-01
-2.552714757621288300e-02
-1.576096862554550171e-01
-1.897013336420059204e-01
2.425821870565414429e-02
8.457735180854797363e-02
-1.236806139349937439e-01
1.705008745193481445e-01
1.283612102270126343e-01
-5.946202576160430908e-02
-1.747792959213256836e-01
-1.261999607086181641e-01
-6.851799041032791138e-02
7.754910737276077271e-02
1.217700839042663574e-01
9.502140432596206665e-02
5.466228723526000977e-02
1.393184531480073929e-02
-7.614151388406753540e-02
1.317054331302642822e-01
1.048615872859954834e-01
4.940856620669364929e-02
1.193180978298187256e-01
-6.394185870885848999e-02
-1.202028170228004456e-01
-1.461152732372283936e-01
-3.707765787839889526e-02
-7.395114004611968994e-02
8.114452660083770752e-02
-1.574881821870803833e-01
1.733045578002929688e-01
5.287408363074064255e-03
1.014696434140205383e-01
6.456656754016876221e-02
-6.816808134317398071e-02
-1.335526704788208008e-01
1.910432279109954834e-01
-1.437635719776153564e-01
7.340361922979354858e-02
2.739908918738365173e-02
-1.172831580042839050e-01
-7.285133749246597290e-02
8.629018813371658325e-02
-1.098960414528846741e-01
1.635002344846725464e-01
7.730292528867721558e-02
-1.318501532077789307e-01
-3.315066546201705933e-02
1.319164633750915527e-01
1.135708764195442200e-01
-1.686249524354934692e-01
1.698187887668609619e-01
1.570429801940917969e-01
9.208401292562484741e-02
9.452938288450241089e-02
1.344792097806930542e-01
1.241313219070434570e-01
-2.100614458322525024e-02
1.825338751077651978e-01
-9.338356554508209229e-02
1.435536146163940430e-01
-1.385009661316871643e-02
-7.610818743705749512e-02
-7.187900692224502563e-02
1.429820898920297623e-02
1.526820957660675049e-01
9.313948452472686768e-02
4.639933630824089050e-02
1.916400156915187836e-02
-1.141634210944175720e-01
1.568159759044647217e-01
8.887171745300292969e-02
-2.252496406435966492e-02
2.464457601308822632e-02
-1.847015768289566040e-01
-1.817556172609329224e-01
1.676345914602279663e-01
-1.484193354845046997e-01
-1.931155622005462646e-01
3.467688336968421936e-02
-1.584222465753555298e-01
1.381262540817260742e-01
3.120013326406478882e-02
-1.372276525944471359e-02
1.385217458009719849e-01
-1.489662826061248779e-01
-1.667171716690063477e-01
-1.713686883449554443e-01
1.027955561876296997e-01
-1.434938311576843262e-01
-4.402761906385421753e-02
-1.449496448040008545e-01
-9.973364323377609253e-02
6.019581854343414307e-02
6.269684433937072754e-02
6.081859022378921509e-02
-5.764795932918787003e-03
-2.842169813811779022e-02
-4.648533836007118225e-02
4.821146279573440552e-02
1.929575204849243164e-01
-4.034505039453506470e-02
1.636948883533477783e-01
1.062037497758865356e-01
-4.209703207015991211e-02
8.146064355969429016e-03
7.592306286096572876e-02
-6.102866306900978088e-02
-5.968974903225898743e-02
-4.824949800968170166e-02
-1.601388007402420044e-01
-8.884659409523010254e-02
-1.256242245435714722e-01
-1.618935167789459229e-01
4.453718662261962891e-02
-5.694863572716712952e-02
1.738308072090148926e-01
-6.043497473001480103e-02
-1.878350675106048584e-01
-6.470950692892074585e-02
6.254997104406356812e-02
1.102005764842033386e-01
-1.072720587253570557e-01
-2.669237740337848663e-02
-2.778342738747596741e-02
-4.781131073832511902e-02
-1.599809974431991577e-01
-1.168840005993843079e-01
-1.264056116342544556e-01
6.160278245806694031e-02
9.894559532403945923e-02
-1.010296493768692017e-01
1.744537428021430969e-02
1.372393965721130371e-01
1.194095704704523087e-02
-1.338227540254592896e-01
-8.175963163375854492e-02
8.464407920837402344e-02
1.325279772281646729e-01
8.652719855308532715e-02
4.091300815343856812e-02
-7.756896782666444778e-03
-1.384827792644500732e-01
-8.503550291061401367e-02
3.870494663715362549e-02
2.802833542227745056e-02
-1.016541495919227600e-01
-1.217485144734382629e-01
-1.430253386497497559e-01
1.809814572334289551e-01
1.184418573975563049e-01
3.124520368874073029e-02
8.754405379295349121e-02
7.953362539410591125e-03
-7.779920101165771484e-02
-7.744131237268447876e-02
-7.459235191345214844e-02
-1.536420919001102448e-02
1.480371057987213135e-01
-1.262812167406082153e-01
1.188257932662963867e-01
1.663127243518829346e-01
-1.392836570739746094e-01
-5.659954994916915894e-02
2.541867783293128014e-03
1.418203115463256836e-01
-1.409538239240646362e-01
-1.539491564035415649e-01
8.015263080596923828e-02
-8.220960199832916260e-02
1.581047773361206055e-01
9.375361353158950806e-02
-8.661980926990509033e-02
3.779162093997001648e-02
1.575787365436553955e-02
-9.358500689268112183e-02
-1.176207587122917175e-01
4.919628426432609558e-02
9.174475073814392090e-02
-1.194448545575141907e-01
2.421523444354534149e-02
-5.000790581107139587e-02
-4.087115451693534851e-02
-8.774241060018539429e-02
7.975257188081741333e-02
-1.303337961435317993e-01
1.793541163206100464e-01
-1.549467816948890686e-02
1.603852808475494385e-01
6.552702188491821289e-02
-1.067138165235519409e-01
-8.560026437044143677e-02
1.577686220407485962e-01
-1.567014902830123901e-01
1.027136519551277161e-01
-1.458632797002792358e-01
1.410408318042755127e-01
1.191727668046951294e-01
-1.417177766561508179e-01
-6.969082355499267578e-02
-1.258270740509033203e-01
7.172638922929763794e-02
1.808448135852813721e-01
2.080352790653705597e-02
9.423983842134475708e-02
3.465586528182029724e-02
1.159419044852256775e-01
-4.021958261728286743e-02
1.855907887220382690e-01
-2.515596523880958557e-02
3.492847084999084473e-02
-6.346746534109115601e-02
8.334416151046752930e-02
1.084505096077919006e-01
-7.410579919815063477e-02
-1.946731843054294586e-02
1.112423092126846313e-01
-1.222499758005142212e-01
-4.961493238806724548e-02
-1.217340677976608276e-01
-1.898201853036880493e-01
8.593708276748657227e-02
-7.159151881933212280e-02
2.562273479998111725e-02
-4.605750367045402527e-02
2.843859791755676270e-02
1.113777682185173035e-01
-8.933927165344357491e-04
-5.976738035678863525e-02
1.384966820478439331e-01
2.883572131395339966e-02
-1.457736045122146606e-01
-9.150002896785736084e-02
6.625456362962722778e-02
-1.377343982458114624e-01
3.790481016039848328e-02
-1.926625967025756836e-01
-1.088988855481147766e-01
5.428207665681838989e-02
-1.844578087329864502e-01
-1.528214383870363235e-02
-9.161178022623062134e-02
1.579775810241699219e-01
-1.926494091749191284e-01
7.183720171451568604e-02
-2.170796506106853485e-03
1.037543714046478271e-01
-1.784205883741378784e-01
-1.091609522700309753e-01
1.222377046942710876e-01
-6.607849150896072388e-02
-1.638405025005340576e-01
6.471888720989227295e-02
-1.223532706499099731e-01
-1.302544400095939636e-02
-6.949058920145034790e-02
7.307277619838714600e-02
9.320178627967834473e-02
1.015094071626663208e-01
-1.403024606406688690e-02
1.406660825014114380e-01
1.843074560165405273e-01
6.698760390281677246e-02
-3.314002533443272114e-04
-7.128567248582839966e-02
6.557847559452056885e-02
-5.011835694313049316e-02
1.230971440672874451e-01
-2.685951068997383118e-02
6.130238249897956848e-02
-1.305809766054153442e-01
-3.751125931739807129e-02
-1.462905257940292358e-01
3.558672219514846802e-02
1.723569929599761963e-01
1.576440632343292236e-01
1.233274713158607483e-01
7.784847170114517212e-02
-1.235374659299850464e-01
-7.384166866540908813e-02
-1.839936375617980957e-01
1.921422034502029419e-01
-1.573210060596466064e-01
1.513693034648895264e-01
1.858613938093185425e-01
-1.180545315146446228e-01
-1.270927786827087402e-01
-1.322116255760192871e-01
1.199110001325607300e-01
3.540496155619621277e-02
-1.449187248945236206e-01
-6.694447249174118042e-02
6.339618004858493805e-03
7.386542856693267822e-02
-1.007344946265220642e-01
-8.739557862281799316e-02
-9.117497503757476807e-02
1.714522689580917358e-01
1.727327704429626465e-01
1.594351977109909058e-01
-5.335735529661178589e-02
-2.789803082123398781e-03
9.914954751729965210e-02
-1.618159711360931396e-01
5.066855624318122864e-02
-6.421489268541336060e-02
7.442556321620941162e-02
-1.287497729063034058e-01
6.275998800992965698e-02
-1.126544326543807983e-01
-9.184083342552185059e-02
-4.209027066826820374e-02
-5.621233955025672913e-02
-2.845464507117867470e-03
-3.616245090961456299e-02
1.278359144926071167e-01
-4.146945849061012268e-02
-7.615636289119720459e-02
1.837668567895889282e-02
-1.417891383171081543e-01
6.660471856594085693e-02
-1.791241466999053955e-01
-1.819683462381362915e-01
1.173887476325035095e-01
1.442638337612152100e-01
9.598181396722793579e-02
1.469617038965225220e-01
9.360413253307342529e-02
1.348869055509567261e-01
-1.477555632591247559e-01
8.721858263015747070e-02
-1.449262499809265137e-01
-1.819860488176345825e-01
5.952975153923034668e-02
1.389379203319549561e-01
-3.819981217384338379e-02
7.413378357887268066e-02
-5.844558775424957275e-02
-1.251827627420425415e-01
8.028489351272583008e-02
1.456499695777893066e-01
1.498689353466033936e-01
6.358671188354492188e-02
3.224791586399078369e-02
7.874342799186706543e-02
-1.900352537631988525e-02
-1.460702419281005859e-01
-8.409541100263595581e-02
1.397847533226013184e-01
2.484910190105438232e-02
-1.007665470242500305e-01
-3.619822859764099121e-02
8.110487461090087891e-02
-1.374824196100234985e-01
4.558731615543365479e-02
4.246288537979125977e-02
9.856078028678894043e-02
1.073783338069915771e-01
1.146745681762695312e-01
1.701829731464385986e-01
-1.660249084234237671e-01
-1.700203865766525269e-01
1.146829649806022644e-01
9.528926759958267212e-02
-1.155726425349712372e-02
-6.933781504631042480e-02
-9.208118915557861328e-02
-1.933142244815826416e-01
1.919290721416473389e-01
-2.033906802535057068e-02
1.157215014100074768e-01
-5.432850494980812073e-02
-5.176939442753791809e-02
-5.277324002236127853e-03
5.916360020637512207e-02
-1.004666090011596680e-01
1.760563701391220093e-01
1.384636908769607544e-01
-1.697542965412139893e-01
-6.519901007413864136e-02
7.111775875091552734e-02
-8.774883300065994263e-02
4.617054760456085205e-02
-1.662158966064453125e-01
-8.772410452365875244e-02
-4.793659225106239319e-02
-1.201473027467727661e-01
-7.589132338762283325e-02
-1.083617731928825378e-01
-1.243468001484870911e-01
-6.887740641832351685e-02
1.311720162630081177e-01
4.550971835851669312e-02
1.515886932611465454e-01
8.694753050804138184e-02
-6.501717865467071533e-02
8.041635900735855103e-02
2.305132523179054260e-02
1.353197395801544189e-01
3.446103632450103760e-02
-7.796109467744827271e-02
-8.135268092155456543e-02
-2.806166745722293854e-02
-3.837913647294044495e-02
-1.074690520763397217e-01
5.655132979154586792e-02
3.527142805978655815e-03
2.655472047626972198e-02
1.208322048187255859e-01
-1.103256195783615112e-01
6.169781461358070374e-02
1.776653826236724854e-01
1.316939592361450195e-01
1.516715437173843384e-01
-3.883779793977737427e-02
1.870396360754966736e-02
-8.173032850027084351e-02
-1.574924737215042114e-01
-1.202822104096412659e-02
-4.961869865655899048e-02
1.297956258058547974e-01
-1.858098953962326050e-01
1.257963925600051880e-01
-1.432050615549087524e-01
6.161839142441749573e-02
1.234804019331932068e-01
8.472210913896560669e-02
-1.398473978042602539e-01
-7.208199799060821533e-02
1.132628768682479858e-01
-5.435158684849739075e-02
4.815339297056198120e-02
9.700155258178710938e-02
-1.572176516056060791e-01
6.123814266175031662e-03
2.739491686224937439e-02
4.246006906032562256e-02
1.272620111703872681e-01
-5.658694729208946228e-02
-1.769610643386840820e-01
-1.059115957468748093e-02
1.756978221237659454e-02
-2.086045965552330017e-02
1.623116731643676758e-01
-9.372323006391525269e-02
5.364241451025009155e-02
-9.492553770542144775e-03
9.564154595136642456e-02
1.864266693592071533e-01
1.768786013126373291e-01
1.602824926376342773e-01
1.257412284612655640e-01
4.151204228401184082e-02
-2.590279839932918549e-02
-1.123303323984146118e-01
1.625304073095321655e-01
2.550468593835830688e-02
1.474216207861900330e-02
-1.787629276514053345e-01
3.067003190517425537e-02
7.995808124542236328e-02
6.939886510372161865e-02
-1.755680441856384277e-01
1.725521981716156006e-01
8.028744906187057495e-02
-1.068245172500610352e-01
-1.127702891826629639e-01
-4.158048331737518311e-02
-1.545238029211759567e-02
-6.051026657223701477e-02
-3.464039415121078491e-02
-3.405601158738136292e-02
-1.000499073415994644e-02
1.162729635834693909e-01
1.000494509935379028e-01
-1.874091327190399170e-01
-1.139839366078376770e-01
4.131487384438514709e-02
1.573921740055084229e-01
-1.526493728160858154e-01
9.038021415472030640e-02
-2.908108290284872055e-03
-1.199601367115974426e-01
1.727118194103240967e-01
-1.458055526018142700e-01
-1.747503131628036499e-02
-3.538685385137796402e-03
1.862679123878479004e-01
1.378572285175323486e-01
-1.249702423810958862e-01
-9.361612051725387573e-02
5.302170757204294205e-03
6.829924136400222778e-02
-1.862350702285766602e-01
-1.777104884386062622e-01
1.440212875604629517e-02
1.687838137149810791e-01
-1.391712874174118042e-01
-1.200172230601310730e-01
8.721695095300674438e-02
-1.552984677255153656e-02
-1.098371744155883789e-01
1.923091858625411987e-01
-1.645295619964599609e-01
9.028317034244537354e-02
-4.781611636281013489e-02
1.068470031023025513e-01
-1.679386198520660400e-01
1.424696743488311768e-01
-2.632446400821208954e-02
-9.701122343540191650e-02
5.780474841594696045e-02
-1.465547531843185425e-01
1.860351860523223877e-01
-3.694545710459351540e-03
1.394566744565963745e-01
-1.081807017326354980e-01
9.124667942523956299e-02
3.888639435172080994e-02
5.655437335371971130e-02
-1.070227026939392090e-01
5.805928632616996765e-02
-5.685852468013763428e-02
1.867048442363739014e-01
-1.530256271362304688e-01
1.598268300294876099e-01
2.052665129303932190e-02
-1.777114570140838623e-01
6.023145094513893127e-02
-1.201949194073677063e-01
2.586684376001358032e-02
-1.898137927055358887e-01
-1.620550751686096191e-01
1.606149785220623016e-02
-8.730620145797729492e-02
1.456808298826217651e-01
1.777578592300415039e-01
-3.553091734647750854e-02
3.765080124139785767e-02
1.130111142992973328e-01
-8.788185566663742065e-02
-7.460226118564605713e-02
-4.577791318297386169e-02
-2.722711116075515747e-02
-5.952033028006553650e-02
-1.449929084628820419e-02
-1.425261646509170532e-01
-1.546450853347778320e-01
-1.848830580711364746e-01
1.862792111933231354e-02
4.316263645887374878e-02
1.034717783331871033e-01
-9.553421288728713989e-02
-1.493590921163558960e-01
8.679658919572830200e-02
1.081447117030620575e-02
-1.079075857996940613e-01
-1.791804283857345581e-01
1.094772070646286011e-01
-1.308281123638153076e-01
-6.141940876841545105e-02
3.881074115633964539e-02
-2.405392192304134369e-02
8.467391133308410645e-02
-7.217732816934585571e-02
-8.994607627391815186e-02
-1.090430915355682373e-01
1.789505332708358765e-01
8.973237127065658569e-02
-1.232612654566764832e-01
-5.185862258076667786e-02
-4.554346576333045959e-02
-4.478537663817405701e-02
-1.508829928934574127e-02
1.201707124710083008e-01
1.579960882663726807e-01
-1.134672686457633972e-01
-4.264019057154655457e-02
-1.461895108222961426e-01
4.859271645545959473e-02
1.953778788447380066e-03
1.352048218250274658e-01
9.260788559913635254e-02
-5.205780640244483948e-02
1.910533905029296875e-01
-6.947696954011917114e-02
-1.794512718915939331e-01
4.211657505948096514e-04
3.883854020386934280e-03
7.537026703357696533e-02
-6.373155117034912109e-02
-2.870323136448860168e-02
-1.407467760145664215e-02
-6.078906729817390442e-02
-1.417744159698486328e-01
1.418069154024124146e-01
-3.443718329071998596e-02
-1.079381480813026428e-01
1.889968216419219971e-01
6.862382590770721436e-02
-6.056391820311546326e-02
-5.555313080549240112e-02
1.299219876527786255e-01
7.579763885587453842e-03
4.553886130452156067e-02
9.464754909276962280e-02
5.956349894404411316e-02
7.873982936143875122e-02
1.060821861028671265e-01
1.849134564399719238e-01
-3.188370168209075928e-02
-1.572702974081039429e-01
-3.876853361725807190e-02
-1.232765465974807739e-01
-6.489749252796173096e-02
-9.550798684358596802e-02
-1.822074949741363525e-01
-1.005456373095512390e-01
-5.625983700156211853e-02
-1.864437200129032135e-02
-1.735155135393142700e-01
1.327119767665863037e-01
8.412406593561172485e-02
-5.312358587980270386e-02
-4.524861276149749756e-02
-4.418382793664932251e-02
1.670838147401809692e-01
-8.092182129621505737e-02
-7.866416126489639282e-02
-1.361359506845474243e-01
8.721324615180492401e-03
9.956583380699157715e-02
-6.328970938920974731e-02
-4.414719296619296074e-04
8.980862051248550415e-02
1.702659130096435547e-01
3.009777516126632690e-02
6.283208727836608887e-02
-8.668242394924163818e-02
-7.419490814208984375e-02
-1.217904239892959595e-01
-4.481607303023338318e-02
9.124739468097686768e-02
6.060227379202842712e-02
-1.524492502212524414e-01
1.688948124647140503e-01
1.656632423400878906e-01
6.626118719577789307e-02
1.008989810943603516e-01
1.144458539783954620e-02
-1.540618389844894409e-01
-1.553692519664764404e-01
-1.267140209674835205e-01
-1.573316305875778198e-01
2.234075218439102173e-02
-1.794259846210479736e-01
-1.421919763088226318e-01
-1.487118005752563477e-01
-1.339175850152969360e-01
-1.119636148214340210e-01
1.198761463165283203e-01
-8.564656227827072144e-02
-1.864791065454483032e-01
-5.213513597846031189e-02
-5.675022676587104797e-02
1.749975681304931641e-01
1.411373764276504517e-01
9.585483372211456299e-02
-1.194384619593620300e-01
1.194201037287712097e-01
6.335218995809555054e-02
-1.815030127763748169e-01
-1.884183585643768311e-01
-4.493763297796249390e-02
1.058433055877685547e-01
-1.343372166156768799e-01
5.439936742186546326e-02
8.609315007925033569e-02
7.993086427450180054e-02
4.857967421412467957e-02
-1.249560192227363586e-01
7.306062430143356323e-02
-7.659123511984944344e-04
5.593077838420867920e-02
-1.112968847155570984e-01
7.984892278909683228e-02
3.474389016628265381e-02
-1.836126893758773804e-01
-1.297563910484313965e-01
1.021133586764335632e-01
-1.528168618679046631e-01
-1.536385416984558105e-01
-1.505154967308044434e-01
1.341445446014404297e-01
1.070771440863609314e-01
-1.068606451153755188e-01
-3.698201477527618408e-02
-1.462334990501403809e-01
-1.218763515353202820e-01
1.495325565338134766e-01
-1.053214818239212036e-01
-1.070013735443353653e-02
9.398999623954296112e-03
1.652636229991912842e-01
1.168559491634368896e-01
-7.850262336432933807e-03
-7.613627612590789795e-02
-1.492360383272171021e-01
-3.992407582700252533e-03
-1.352194696664810181e-01
-1.675201505422592163e-01
9.564772248268127441e-02
-9.603914618492126465e-02
-1.307197362184524536e-01
-3.103896789252758026e-02
-1.615176945924758911e-01
7.502650469541549683e-02
3.661538287997245789e-02
1.410543322563171387e-01
1.811976134777069092e-01
2.557664550840854645e-02
-6.115031242370605469e-02
-1.557991504669189453e-01
1.595816910266876221e-01
9.367736428976058960e-02
-8.075999096035957336e-03
1.039949953556060791e-01
1.460668742656707764e-01
7.716027647256851196e-02
1.108981296420097351e-01
-9.890425205230712891e-02
-1.672696620225906372e-01
1.374725401401519775e-01
1.803435385227203369e-01
-1.677506864070892334e-01
1.020248159766197205e-01
-2.687936834990978241e-02
8.622293919324874878e-02
-6.110455468297004700e-02
5.172450095415115356e-02
-6.713629513978958130e-02
-1.053491234779357910e-01
-8.106306195259094238e-02
-3.278656676411628723e-02
9.714677184820175171e-02
8.840779215097427368e-02
8.321356959640979767e-03
-1.539383530616760254e-01
6.835891306400299072e-02
1.134041547775268555e-01
-5.761349573731422424e-02
-1.290736645460128784e-01
-7.567531615495681763e-02
5.314274132251739502e-02
-9.668585844337940216e-03
-1.331036388874053955e-01
1.314417570829391479e-01
7.771835476160049438e-02
1.354292482137680054e-01
-5.020423233509063721e-02
-8.092430979013442993e-02
-5.380064249038696289e-02
1.034751459956169128e-01
-1.934212446212768555e-01
8.832572959363460541e-03
-2.660079672932624817e-02
-3.735379502177238464e-02
-1.318680588155984879e-02
-4.609284549951553345e-02
-8.096411824226379395e-02
-1.566286087036132812e-01
1.793919503688812256e-01
-1.794198900461196899e-01
1.713258773088455200e-01
-1.799699962139129639e-01
7.502806931734085083e-02
-3.130039200186729431e-02
-1.498549282550811768e-01
1.025463640689849854e-01
-1.303220093250274658e-01
-2.324784360826015472e-02
-1.676258891820907593e-01
-1.764145679771900177e-02
5.104522034525871277e-02
1.868801414966583252e-01
-1.638897880911827087e-02
-8.695077896118164062e-02
-8.587511256337165833e-03
-1.040865853428840637e-01
-1.753361374139785767e-01
1.517727673053741455e-01
-6.193344667553901672e-02
1.580716520547866821e-01
-1.290909852832555771e-02
1.661876142024993896e-01
8.336710929870605469e-02
1.343746185302734375e-01
1.814803481101989746e-01
-1.523757819086313248e-02
-1.137726828455924988e-01
-8.289627730846405029e-02
-2.715756185352802277e-02
1.423962712287902832e-01
3.803960606455802917e-02
1.714273989200592041e-01
1.881410926580429077e-01
1.550078988075256348e-01
7.727278023958206177e-02
1.167900562286376953e-01
1.640519946813583374e-01
1.351471152156591415e-02
1.821989417076110840e-01
-7.173453271389007568e-02
-1.503258347511291504e-01
8.109662448987364769e-04
-1.093237623572349548e-01
9.274401515722274780e-02
-2.086315862834453583e-02
-1.096780523657798767e-01
-8.097547292709350586e-02
-8.550535421818494797e-04
-3.436155617237091064e-02
1.800814867019653320e-01
1.871321052312850952e-01
-6.206657364964485168e-02
-9.837990254163742065e-02
-1.555683463811874390e-01
1.639847159385681152e-01
1.648750454187393188e-01
1.643017679452896118e-01
-1.604268699884414673e-02
8.420306444168090820e-02
-1.738501936197280884e-01
5.386246740818023682e-02
5.501846596598625183e-02
-4.552027955651283264e-02
1.578677743673324585e-01
-4.320102930068969727e-02
1.390279084444046021e-01
-2.584861125797033310e-03
6.739795207977294922e-02
-1.353503316640853882e-01
7.039467245340347290e-02
5.025504156947135925e-02
1.333912312984466553e-01
-6.260009016841650009e-03
-1.225126385688781738e-01
-1.562511026859283447e-01
-1.372803449630737305e-01
-1.691689714789390564e-02
1.832598298788070679e-01
-9.173361212015151978e-02
8.873958885669708252e-02
-3.996222093701362610e-02
-1.150360628962516785e-01
-2.117222175002098083e-02
7.298269122838973999e-02
-1.086079776287078857e-01
-1.760510653257369995e-01
-2.131959982216358185e-02
1.484971791505813599e-01
-5.318662151694297791e-02
-7.717803865671157837e-02
1.831692177802324295e-03
1.466554552316665649e-01
2.401494979858398438e-02
-2.872775122523307800e-02
3.887791931629180908e-02
-8.324504643678665161e-02
-4.885998740792274475e-02
-5.782988667488098145e-02
-5.669074133038520813e-02
1.785569041967391968e-01
1.789812445640563965e-01
-1.069409623742103577e-01
1.833618059754371643e-02
1.723719537258148193e-01
1.925609111785888672e-01
3.796559199690818787e-02
1.362013723701238632e-02
1.712547689676284790e-01
1.928809583187103271e-01
3.773373086005449295e-03
-4.577757418155670166e-02
-1.844433993101119995e-01
1.811517924070358276e-01
-1.392804384231567383e-01
-1.919837146997451782e-01
1.611552089452743530e-01
-1.153249107301235199e-02
-2.133729308843612671e-02
-6.694965064525604248e-02
-1.009665504097938538e-01
3.724033944308757782e-03
-8.983682096004486084e-02
3.932669293135404587e-03
1.376140862703323364e-01
6.418472528457641602e-02
6.901230663061141968e-02
-1.467761695384979248e-01
1.370285302400588989e-01
1.616592258214950562e-01
1.288571804761886597e-01
-8.262715302407741547e-03
-9.382012486457824707e-02
-5.220301076769828796e-02
-7.771725207567214966e-02
-3.159567946568131447e-03
-1.373499184846878052e-01
-1.154576316475868225e-01
1.338240653276443481e-01
7.121761143207550049e-02
-1.051031500101089478e-01
-5.423808842897415161e-02
-4.617798328399658203e-02
-1.464124117046594620e-02
8.706422895193099976e-02
-5.491548404097557068e-02
-8.611612766981124878e-02
-1.224135980010032654e-01
-1.893897191621363163e-03
-6.551125645637512207e-02
-2.052059397101402283e-02
1.316185742616653442e-01
1.353570222854614258e-01
4.040184617042541504e-02
-1.216272264719009399e-01
-1.460657268762588501e-02
1.142823249101638794e-01
1.573105305433273315e-01
1.774802207946777344e-01
7.806766033172607422e-02
8.329634368419647217e-02
-1.703729629516601562e-01
-6.050985306501388550e-02
7.357651740312576294e-02
2.084111422300338745e-02
-7.636132091283798218e-02
4.993049427866935730e-03
-3.945391997694969177e-02
-6.233689561486244202e-02
5.630174279212951660e-02
1.635589003562927246e-01
1.327504962682723999e-01
-6.534279137849807739e-02
-1.166243553161621094e-01
1.332231163978576660e-01
1.695542931556701660e-01
2.394809573888778687e-02
8.347406238317489624e-02
-1.386077702045440674e-01
1.011793240904808044e-01
1.828787475824356079e-01
1.743608564138412476e-01
-1.075939908623695374e-01
1.677384786307811737e-02
9.892699867486953735e-02
-1.134476438164710999e-01
1.457473486661911011e-01
-7.425813376903533936e-02
-1.420789659023284912e-01
4.752891254611313343e-04
-2.167858183383941650e-02
-1.355085819959640503e-01
1.192471385002136230e-01
-5.784336850047111511e-02
8.827283978462219238e-02
4.453526809811592102e-02
3.925678506493568420e-02
8.618114143610000610e-02
1.342306882143020630e-01
-6.623816490173339844e-02
1.100351959466934204e-01
-4.707669094204902649e-02
-1.534216701984405518e-01
6.716561038047075272e-03
-1.638337387703359127e-03
1.850050990469753742e-03
1.774870604276657104e-01
-1.140116248279809952e-02
1.378310620784759521e-01
-3.565906360745429993e-02
-1.242494508624076843e-01
-9.205827862024307251e-02
-9.928032010793685913e-02
7.283645868301391602e-02
9.279332123696804047e-03
1.330462843179702759e-01
1.427668929100036621e-01
6.470859795808792114e-02
8.373304456472396851e-02
8.507661521434783936e-02
1.340738683938980103e-01
-1.748832911252975464e-01
6.490309536457061768e-02
-1.479789316654205322e-01
4.541261866688728333e-02
-1.629162579774856567e-03
8.715212345123291016e-02
-5.338759347796440125e-02
-7.856491208076477051e-02
-1.458586156368255615e-01
1.379295159131288528e-02
-9.964077174663543701e-02
-1.824630647897720337e-01
6.473594903945922852e-02
-1.018716022372245789e-01
1.648927628993988037e-01
8.387805521488189697e-02
-1.530773192644119263e-01
-3.037917241454124451e-02
1.440602391958236694e-01
9.896755218505859375e-02
5.990932881832122803e-02
-9.796372801065444946e-02
-1.244291812181472778e-01
-7.633395493030548096e-03
-4.845645278692245483e-02
1.214302256703376770e-01
1.042656749486923218e-01
4.516732320189476013e-02
1.403543651103973389e-01
-4.720934666693210602e-03
1.880430281162261963e-01
-1.238180622458457947e-01
-1.053511500358581543e-01
1.700238287448883057e-01
-5.478866770863533020e-02
9.346110373735427856e-02
8.377397060394287109e-02
1.505122613161802292e-02
7.735183089971542358e-02
-1.457309070974588394e-02
6.344718486070632935e-02
1.662322133779525757e-01
-1.839652955532073975e-01
1.003528013825416565e-01
-1.434200257062911987e-01
5.804676935076713562e-02
1.247215345501899719e-01
-9.337101131677627563e-02
-2.084730379283428192e-02
3.834323212504386902e-02
1.141055673360824585e-01
3.016950562596321106e-02
2.479982748627662659e-02
-7.405950874090194702e-02
1.715763211250305176e-01
-1.206525191664695740e-01
9.045328199863433838e-02
9.771815687417984009e-02
7.209741044789552689e-03
1.377003453671932220e-02
3.589580953121185303e-02
1.757124215364456177e-01
1.695926301181316376e-02
-4.759990796446800232e-02
1.616881191730499268e-01
-3.502003103494644165e-02
-3.318768739700317383e-02
1.865016669034957886e-01
1.505482792854309082e-01
6.648444384336471558e-02
-1.887090653181076050e-01
-1.583576649427413940e-01
-4.943910613656044006e-02
-1.934785954654216766e-02
-9.795974195003509521e-02
2.764891460537910461e-02
1.387301087379455566e-01
1.112092956900596619e-01
-2.159750275313854218e-02
-6.944230943918228149e-02
1.494149416685104370e-01
3.007521294057369232e-02
1.404903978109359741e-01
-1.083930730819702148e-01
-1.461899578571319580e-01
1.870842576026916504e-01
9.034769982099533081e-02
1.829507648944854736e-01
-7.827275246381759644e-02
4.092726483941078186e-02
1.619271486997604370e-01
1.723421812057495117e-01
-1.003449857234954834e-01
1.022115349769592285e-01
-9.255731105804443359e-02
-1.346355956047773361e-02
1.412822008132934570e-01
5.066545307636260986e-02
-7.001352310180664062e-02
-9.146383963525295258e-03
1.871580779552459717e-01
-3.171566128730773926e-02
-1.522691249847412109e-01
6.014675274491310120e-02
-1.334056109189987183e-01
-2.484506368637084961e-02
1.311300098896026611e-01
-1.868666708469390869e-02
-1.603473573923110962e-01
-1.394102871417999268e-01
-1.123460009694099426e-01
1.194271296262741089e-01
-1.193349659442901611e-01
-4.615717753767967224e-02
1.885743141174316406e-01
-1.558600813150405884e-01
1.795471757650375366e-01
3.677884489297866821e-02
9.026055783033370972e-02
-1.649879664182662964e-01
-3.946395881939679384e-04
-1.625155210494995117e-01
-1.314065754413604736e-01
9.255955368280410767e-02
3.937982395291328430e-02
-1.924676299095153809e-01
-1.393479853868484497e-01
-6.232672184705734253e-02
-1.818691343069076538e-01
-1.334092617034912109e-01
1.767845451831817627e-01
-5.326772108674049377e-02
1.737702935934066772e-01
8.401312679052352905e-02
1.012238673865795135e-02
-6.432049721479415894e-02
-1.177696418017148972e-02
-1.734271198511123657e-01
1.603071093559265137e-01
3.192314133048057556e-02
1.712138056755065918e-01
-6.174098327755928040e-02
1.207099705934524536e-01
7.572548091411590576e-02
-7.863517105579376221e-02
1.366248130798339844e-01
-1.283862292766571045e-01
1.739120297133922577e-02
6.967116892337799072e-02
8.911512792110443115e-02
-3.909675404429435730e-03
1.622344404458999634e-01
6.744528561830520630e-02
8.473975956439971924e-02
1.886955946683883667e-01
8.192059397697448730e-02
-9.092611074447631836e-02
1.253219842910766602e-01
1.882071942090988159e-01
7.689561694860458374e-03
1.548942476511001587e-01
8.617934584617614746e-02
1.220879480242729187e-01
-3.312133625149726868e-02
-1.113368943333625793e-02
-2.459784783422946930e-02
3.861877322196960449e-02
1.925339847803115845e-01
-1.522590667009353638e-01
-1.133858412504196167e-01
1.893045306205749512e-01
5.043403431773185730e-02
1.298112720251083374e-01
-6.045632530003786087e-03
-1.536905616521835327e-01
-2.779788710176944733e-02
4.900466650724411011e-02
-1.439851359464228153e-03
-1.664144247770309448e-01
1.808982491493225098e-01
-2.298039756715297699e-02
2.363324724137783051e-02
-7.981256395578384399e-02
1.766311004757881165e-02
-8.241009712219238281e-02
-1.704343557357788086e-01
-1.302012801170349121e-01
-5.317559838294982910e-02
1.649961769580841064e-01
5.946482717990875244e-02
-5.509519949555397034e-02
-1.807638406753540039e-01
-5.422561615705490112e-02
-7.188257575035095215e-02
1.677063107490539551e-01
1.240791082382202148e-01
7.729737460613250732e-02
9.690120816230773926e-02
-4.945166409015655518e-02
1.866139173507690430e-01
-1.688759624958038330e-01
1.788698136806488037e-01
8.991923928260803223e-02
-1.077363640069961548e-01
9.288431704044342041e-02
7.782238721847534180e-02
1.414956003427505493e-01
3.224483877420425415e-02
1.847434639930725098e-01
-1.411271393299102783e-01
1.606360450387001038e-02
6.673072278499603271e-02
-1.370781660079956055e-01
-1.177288964390754700e-01
-8.068646490573883057e-02
-2.654194459319114685e-02
1.659944057464599609e-01
-1.054368615150451660e-01
-1.589355431497097015e-02
-1.740682572126388550e-01
-2.852633781731128693e-02
6.362877786159515381e-02
-4.198333621025085449e-02
-1.662561483681201935e-02
1.416824012994766235e-01
8.325433731079101562e-02
1.295140832662582397e-01
3.630160167813301086e-02
-1.073865741491317749e-01
-6.660888344049453735e-02
-8.074279874563217163e-02
-1.828164160251617432e-01
1.748022288084030151e-01
-8.015719056129455566e-02
1.718264520168304443e-01
3.760061413049697876e-02
-1.732379198074340820e-01
4.476046562194824219e-02
4.889795184135437012e-02
-1.117826625704765320e-01
-5.719466600567102432e-03
6.977984309196472168e-02
1.240242943167686462e-01
1.486714184284210205e-01
6.187727674841880798e-02
-5.491077154874801636e-02
2.167040295898914337e-02
4.334110021591186523e-02
1.882699429988861084e-01
-6.639651209115982056e-02
1.733352392911911011e-01
-5.875305458903312683e-02
1.201974898576736450e-01
-4.455199092626571655e-02
1.759299039840698242e-01
6.112596020102500916e-02
1.622982323169708252e-01
-3.086960501968860626e-02
1.306935101747512817e-01
8.971055597066879272e-02
-8.870577067136764526e-02
1.446291953325271606e-01
1.751956939697265625e-01
2.934247814118862152e-02
-8.153286576271057129e-02
-8.670409023761749268e-02
1.656457036733627319e-01
-8.262164145708084106e-02
1.292954981327056885e-01
1.879694610834121704e-01
-1.294082850217819214e-01
1.901515573263168335e-01
6.583090871572494507e-02
1.143154203891754150e-01
-5.428389087319374084e-02
1.257836669683456421e-01
1.621524840593338013e-01
-1.490602642297744751e-01
4.882807284593582153e-02
1.359133720397949219e-01
-2.157267928123474121e-02
2.818290144205093384e-02
1.415427476167678833e-01
-9.551057964563369751e-02
9.888598322868347168e-02
5.076798796653747559e-02
-3.082581423223018646e-02
1.586759537458419800e-01
-4.292509704828262329e-02
1.786556541919708252e-01
-2.533928118646144867e-02
9.817089140415191650e-02
-1.447528898715972900e-01
-1.627349257469177246e-01
-1.491803489625453949e-02
1.589065641164779663e-01
1.916843950748443604e-01
1.481243874877691269e-02
5.923511460423469543e-03
6.410196423530578613e-02
-1.185587123036384583e-01
-1.118910089135169983e-01
3.677877783775329590e-02
9.575362503528594971e-02
4.817188251763582230e-03
-1.010091677308082581e-01
-7.040995359420776367e-02
-1.516077900305390358e-03
4.296217858791351318e-02
1.298733949661254883e-01
1.353673636913299561e-01
9.718561917543411255e-02
-1.908763200044631958e-01
-1.459252685308456421e-01
1.756526976823806763e-01
9.307880885899066925e-03
-1.467486023902893066e-01
1.794500052928924561e-01
-1.497792601585388184e-01
-1.199939548969268799e-01
-1.619520634412765503e-01
1.395794302225112915e-01
-3.794766589999198914e-02
2.335010655224323273e-02
1.759817451238632202e-01
1.878100782632827759e-01
-8.246279507875442505e-02
-8.545935153961181641e-02
-1.277261995710432529e-03
8.475840091705322266e-02
-1.846372485160827637e-01
6.433423608541488647e-02
1.366932839155197144e-01
-3.086976148188114166e-02
-8.796385675668716431e-02
5.930821597576141357e-02
-6.991676986217498779e-02
-1.153879240155220032e-01
-7.718931883573532104e-02
1.615753918886184692e-01
-1.641239523887634277e-01
1.299533694982528687e-01
1.013541296124458313e-01
3.378948196768760681e-02
-1.679726988077163696e-01
-6.838192790746688843e-02
1.613574028015136719e-01
1.086158975958824158e-01
-1.648168265819549561e-01
1.106858849525451660e-01
1.774691045284271240e-01
-1.932074278593063354e-01
1.047428324818611145e-01
1.841304600238800049e-01
-1.197496056556701660e-01
3.284466220065951347e-03
-2.934060990810394287e-02
1.312168985605239868e-01
-1.650035530328750610e-01
-5.511659011244773865e-02
-8.918021619319915771e-02
-4.543228074908256531e-02
1.596381962299346924e-01
3.305975347757339478e-02
3.256077691912651062e-02
1.244336068630218506e-01
-1.606463640928268433e-01
1.753700226545333862e-01
-1.004036962985992432e-01
-1.585161685943603516e-02
-2.664248831570148468e-02
9.248941391706466675e-02
-1.486274152994155884e-01
-1.165001094341278076e-01
1.178268194198608398e-01
5.979236215353012085e-02
7.317218184471130371e-02
-1.314428746700286865e-01
-6.465169042348861694e-02
9.315671026706695557e-02
-2.423523738980293274e-02
1.275503933429718018e-01
9.127574414014816284e-02
1.936672627925872803e-02
-8.005861937999725342e-02
9.746275842189788818e-02
-1.841885596513748169e-02
-1.519727408885955811e-01
1.351771354675292969e-01
-1.585184782743453979e-01
9.304121881723403931e-02
-6.886909715831279755e-03
-7.131757587194442749e-02
1.146089211106300354e-01
5.692693591117858887e-02
1.534294635057449341e-01
1.050897687673568726e-01
7.665946334600448608e-02
-1.586634516716003418e-01
-1.249069347977638245e-01
-4.756892472505569458e-02
-1.278314143419265747e-01
1.863888949155807495e-01
6.992679089307785034e-02
-8.671255409717559814e-02
-4.053354635834693909e-02
1.622355133295059204e-01
1.471880525350570679e-01
-1.280712336301803589e-01
1.533677130937576294e-01
-2.315405197441577911e-02
9.489993751049041748e-02
1.528949886560440063e-01
8.500055968761444092e-02
1.824647039175033569e-01
1.755123771727085114e-02
-3.649023920297622681e-02
1.380115449428558350e-01
2.710353024303913116e-02
-1.768692135810852051e-01
1.071776151657104492e-01
1.704221069812774658e-01
-1.023517549037933350e-02
-1.925579756498336792e-01
7.290509343147277832e-02
-7.772188633680343628e-02
-1.698044836521148682e-01
-1.887842416763305664e-01
1.473748385906219482e-01
-3.300486505031585693e-02
3.472397476434707642e-02
9.295322746038436890e-02
1.195659935474395752e-01
-3.699192404747009277e-02
1.662122160196304321e-01
1.406342238187789917e-01
1.232119202613830566e-01
-6.393938511610031128e-02
-1.548282802104949951e-01
2.571323886513710022e-02
3.753037378191947937e-02
7.719716522842645645e-04
-1.805047094821929932e-01
8.179351687431335449e-02
1.212692782282829285e-01
5.770036578178405762e-02
3.539362922310829163e-02
-4.157969728112220764e-02
-1.897805780172348022e-01
4.400740936398506165e-02
-1.604786366224288940e-01
1.450142860412597656e-01
9.120119363069534302e-02
6.474532186985015869e-03
-1.923766881227493286e-01
6.560667604207992554e-02
3.447564691305160522e-02
-2.011074498295783997e-02
-1.626956462860107422e-01
-2.219229191541671753e-02
-1.309033185243606567e-01
1.640432626008987427e-01
-9.504789859056472778e-02
1.774619072675704956e-01
1.611587554216384888e-01
-5.094543844461441040e-02
-1.484684199094772339e-01
8.059278130531311035e-02
4.740608856081962585e-02
1.365398019552230835e-01
-6.139602512121200562e-02
-8.491366356611251831e-02
1.066352501511573792e-01
-1.805814504623413086e-01
1.303180903196334839e-01
6.410397589206695557e-02
1.811684519052505493e-01
1.748008877038955688e-01
1.741507835686206818e-02
8.960252255201339722e-02
4.439844191074371338e-02
-3.286346420645713806e-02
6.528479605913162231e-02
1.543907169252634048e-02
1.823000907897949219e-01
2.298575825989246368e-03
-1.693237572908401489e-01
7.940604537725448608e-02
1.652119606733322144e-01
-1.495660990476608276e-01
1.931276023387908936e-01
-1.982490718364715576e-02
-2.879615500569343567e-02
2.611096575856208801e-02
-1.883148849010467529e-01
-9.287778288125991821e-02
9.946875274181365967e-02
9.253255091607570648e-03
8.572681248188018799e-02
4.176378250122070312e-02
9.277838468551635742e-02
1.411866694688796997e-01
1.199289932847023010e-01
1.170957833528518677e-01
-1.877625733613967896e-01
1.460913866758346558e-01
-1.044082716107368469e-01
9.350771456956863403e-02
-4.564383998513221741e-02
1.909114047884941101e-02
-9.266753913834691048e-04
-6.865589320659637451e-02
1.763624399900436401e-01
-3.139343857765197754e-02
-1.604991853237152100e-01
2.267529070377349854e-02
6.585706770420074463e-02
1.039685830473899841e-01
-4.136505722999572754e-02
-1.496435701847076416e-01
1.354427635669708252e-01
-1.097120493650436401e-01
-4.918114095926284790e-02
4.431440681219100952e-02
-1.102514490485191345e-01
-8.545278012752532959e-02
-3.146256133913993835e-02
8.164155483245849609e-02
8.552215993404388428e-02
6.583918631076812744e-02
8.502369374036788940e-02
1.700218617916107178e-01
-2.004738710820674896e-02
-2.312560752034187317e-02
1.474538147449493408e-01
-1.869293302297592163e-01
-9.573603980243206024e-03
-8.581384271383285522e-02
-1.857795715332031250e-01
-8.137080003507435322e-04
6.316113471984863281e-02
-1.220630779862403870e-01
-1.065339818596839905e-01
1.802152544260025024e-01
-1.248416826128959656e-01
-1.643304713070392609e-02
-1.774092167615890503e-01
-9.686744213104248047e-02
-1.449451893568038940e-01
7.476543635129928589e-02
-1.278571039438247681e-01
-5.570932105183601379e-02
8.998745679855346680e-02
-8.054803125560283661e-03
1.456860303878784180e-01
-8.335358649492263794e-02
5.498240888118743896e-02
-1.601358950138092041e-01
5.183460935950279236e-02
7.927545905113220215e-02
1.627483218908309937e-01
3.629873692989349365e-02
1.795291714370250702e-02
1.320918947458267212e-01
-2.152655832469463348e-02
-1.915803737938404083e-02
-2.028053998947143555e-02
-1.365543156862258911e-01
-9.460949897766113281e-02
3.914575208909809589e-04
-3.929494693875312805e-02
-6.514067202806472778e-02
-1.105396077036857605e-01
-1.685453504323959351e-01
1.613909900188446045e-01
-7.215002179145812988e-02
3.685837984085083008e-02
1.257811300456523895e-02
5.173342674970626831e-02
-1.016817390918731689e-01
-1.652522832155227661e-01
-1.774164289236068726e-02
-3.770491853356361389e-02
9.401710703969001770e-03
-1.234811320900917053e-01
9.057309478521347046e-02
-1.607705722562968731e-03
1.267726868391036987e-01
3.618051484227180481e-02
-7.482933998107910156e-02
5.032987892627716064e-02
9.993247687816619873e-02
-7.524164021015167236e-02
9.293258935213088989e-02
-9.803049266338348389e-02
1.220244988799095154e-01
-1.121119707822799683e-01
-9.690868854522705078e-02
1.014958769083023071e-01
1.143043339252471924e-01
-9.820011258125305176e-02
-4.841284453868865967e-02
4.884933307766914368e-02
1.172912865877151489e-01
1.242954283952713013e-01
-8.597790449857711792e-02
2.817772328853607178e-02
1.877889484167098999e-01
-1.103959307074546814e-01
-1.242859512567520142e-01
4.991913586854934692e-02
-6.580474227666854858e-02
-1.611879169940948486e-01
-4.679342359304428101e-02
1.005412638187408447e-01
-4.337131604552268982e-02
-9.457032382488250732e-02
-1.829871833324432373e-01
-1.032117567956447601e-02
1.188284680247306824e-01
1.611065119504928589e-01
3.612472489476203918e-02
1.257815361022949219e-01
-4.545220581348985434e-04
-1.547642201185226440e-01
-4.728787764906883240e-02
2.416315302252769470e-02
-1.654813289642333984e-01
-4.017040506005287170e-02
1.891856342554092407e-01
-1.370316147804260254e-01
1.899419277906417847e-01
-3.696157783269882202e-02
-1.492713689804077148e-01
1.039908826351165771e-01
-3.086530417203903198e-02
-9.005439281463623047e-02
9.838455915451049805e-02
-8.556276559829711914e-02
-1.003300249576568604e-01
-1.769123673439025879e-01
8.710377663373947144e-02
4.591664299368858337e-02
-8.177687227725982666e-02
-1.508848965167999268e-01
1.081083863973617554e-01
6.256934255361557007e-02
9.710000827908515930e-03
-1.868429332971572876e-01
-1.340825110673904419e-01
5.674795433878898621e-02
8.038877695798873901e-02
-3.761285915970802307e-02
2.357137389481067657e-02
-3.418373316526412964e-02
1.301180571317672729e-01
1.239768341183662415e-01
-2.315707877278327942e-02
4.694052413105964661e-02
7.230848819017410278e-02
-4.462441056966781616e-02
4.625364765524864197e-02
-7.313469052314758301e-02
-7.983506470918655396e-02
1.381284445524215698e-01
-1.626481413841247559e-01
6.473036855459213257e-02
-1.604223400354385376e-01
1.138988435268402100e-01
-1.078068539500236511e-01
5.138473585247993469e-02
1.456626597791910172e-02
1.675901710987091064e-01
9.036754257977008820e-03
-6.291095167398452759e-02
-3.761915490031242371e-02
-7.890950143337249756e-02
-1.837675124406814575e-01
-1.621140837669372559e-01
-1.875041797757148743e-02
1.196030080318450928e-01
4.196579381823539734e-02
1.694496273994445801e-01
-2.883578091859817505e-02
-6.090326979756355286e-02
-1.309487819671630859e-01
-7.505222409963607788e-02
-1.720427572727203369e-01
-2.003005333244800568e-02
-1.162590608000755310e-01
-7.110787928104400635e-02
6.297077983617782593e-02
7.099923491477966309e-02
-1.733214855194091797e-01
-6.029280275106430054e-02
-9.589290618896484375e-02
-1.819064170122146606e-01
1.311447173357009888e-01
1.411076188087463379e-01
8.529305458068847656e-03
2.158899046480655670e-02
1.725715845823287964e-01
6.250921636819839478e-02
-1.932006329298019409e-01
5.793649703264236450e-02
9.337649494409561157e-02
-6.007409095764160156e-02
6.114824861288070679e-02
-1.254529207944869995e-01
1.100506111979484558e-01
9.278282523155212402e-03
1.682018041610717773e-01
-3.910772129893302917e-02
2.010359428822994232e-02
7.500669360160827637e-02
-1.726422756910324097e-01
1.723673492670059204e-01
-6.272406876087188721e-02
-7.310119271278381348e-02
-1.873236447572708130e-01
-1.306976228952407837e-01
-7.069667428731918335e-02
-1.358051300048828125e-01
-5.428263545036315918e-02
-7.489828020334243774e-02
8.590534329414367676e-02
-1.250953823328018188e-01
6.186609715223312378e-02
1.366405040025711060e-01
-7.061327248811721802e-02
1.666677594184875488e-01
-1.790683120489120483e-01
1.042365208268165588e-01
1.145293638110160828e-01
-1.519705355167388916e-01
-1.046427637338638306e-01
7.480937242507934570e-02
6.096383184194564819e-02
7.524478435516357422e-02
-1.839046925306320190e-02
1.367846429347991943e-01
1.121210604906082153e-01
1.932023912668228149e-01
-1.643527895212173462e-01
-3.326627612113952637e-02
-1.443568021059036255e-01
1.935176104307174683e-01
-1.538128703832626343e-01
1.576998271048069000e-02
-8.713466674089431763e-02
1.213713809847831726e-01
1.374637335538864136e-01
5.713886022567749023e-02
-8.664193749427795410e-02
-1.199037209153175354e-01
3.629304841160774231e-02
1.583126783370971680e-01
-7.599120587110519409e-02
-1.910304427146911621e-01
5.721971392631530762e-02
2.710797637701034546e-02
1.016282141208648682e-01
1.418635398149490356e-01
3.768586739897727966e-02
1.241847798228263855e-01
-1.022408157587051392e-01
1.868095397949218750e-01
-1.178046315908432007e-01
-3.292656689882278442e-02
1.635648310184478760e-01
-1.828517913818359375e-01
-1.357190012931823730e-01
-1.508858203887939453e-01
-1.246829703450202942e-01
-2.623999491333961487e-02
-3.966910764575004578e-02
-1.869724392890930176e-01
7.159691303968429565e-02
-1.768189668655395508e-01
6.885800510644912720e-02
-1.239994633942842484e-02
3.727468894794583321e-03
-9.261648356914520264e-02
-1.377222687005996704e-01
-4.376127198338508606e-02
1.609592884778976440e-01
1.519095897674560547e-01
1.499977260828018188e-01
-1.493688225746154785e-01
-1.086461097002029419e-01
-1.822983473539352417e-01
-1.835091970860958099e-02
3.638110682368278503e-02
-1.382360514253377914e-02
-5.743287876248359680e-02
1.005716994404792786e-01
-8.066426962614059448e-02
-6.319073587656021118e-02
-8.639807999134063721e-02
-4.280832037329673767e-02
6.834094226360321045e-02
-5.836413428187370300e-02
2.160603739321231842e-02
1.288858205080032349e-01
1.882650330662727356e-02
-5.928153917193412781e-02
6.034241244196891785e-02
-1.897297985851764679e-02
-7.327792793512344360e-02
-1.659742891788482666e-01
-1.053498312830924988e-01
1.273567974567413330e-01
1.849243342876434326e-01
-2.167840301990509033e-02
-1.833760440349578857e-01
3.134637326002120972e-02
-3.205894306302070618e-02
-1.710087954998016357e-01
-1.774864345788955688e-01
7.475916296243667603e-02
-1.808669045567512512e-02
-1.308563649654388428e-01
1.645076572895050049e-01
1.463751643896102905e-01
-1.585958451032638550e-01
-1.532513089478015900e-02
-1.729924082756042480e-01
2.990507706999778748e-02
1.556357592344284058e-01
-1.078665107488632202e-01
1.456308066844940186e-01
-1.589060574769973755e-01
-6.814708560705184937e-02
8.884042501449584961e-02
4.687467589974403381e-02
-1.562205553054809570e-01
2.879011072218418121e-02
9.757525287568569183e-03
-1.125569641590118408e-01
1.273983810096979141e-02
-1.148142218589782715e-01
9.170223027467727661e-02
-2.265463210642337799e-02
-1.565841734409332275e-01
8.582116663455963135e-02
-1.220817342400550842e-01
-8.350645005702972412e-02
-1.052150689065456390e-02
4.258626699447631836e-02
2.126579545438289642e-02
5.105618014931678772e-02
-7.364734262228012085e-02
-8.062913082540035248e-03
8.157137781381607056e-02
6.716367602348327637e-02
-8.580983430147171021e-02
-1.392276585102081299e-02
1.336502879858016968e-01
1.091283187270164490e-01
1.493528485298156738e-01
9.565108269453048706e-02
7.952711731195449829e-02
-1.872761845588684082e-01
-4.952757805585861206e-02
-1.393951922655105591e-01
1.404235213994979858e-01
-1.012648865580558777e-01
-7.374360412359237671e-02
1.232372075319290161e-01
1.321691125631332397e-01
7.558549940586090088e-02
3.804152086377143860e-02
-1.714377254247665405e-01
-1.365605145692825317e-01
8.210253715515136719e-02
-1.265240311622619629e-01
1.707447692751884460e-02
5.224902927875518799e-02
1.645291298627853394e-01
1.625872850418090820e-01
-8.177702128887176514e-02
-4.247397929430007935e-02
9.945525228977203369e-02
-1.768561899662017822e-01
1.129822283983230591e-01
2.686041221022605896e-02
6.981236860156059265e-03
-1.408900022506713867e-01
4.273083433508872986e-02
-5.778387561440467834e-02
-8.930093050003051758e-02
-1.458859592676162720e-01
-3.985126689076423645e-02
-1.512778997421264648e-01
-1.891347467899322510e-01
-1.047184392809867859e-01
6.401422619819641113e-02
1.127074807882308960e-01
-1.369273066520690918e-01
1.628064960241317749e-01
-1.455751806497573853e-01
-1.689981371164321899e-01
-7.433557510375976562e-02
-1.156306341290473938e-01
-8.447635173797607422e-02
4.830909892916679382e-02
-9.269326925277709961e-03
1.026247721165418625e-02
-1.370076239109039307e-01
7.130751013755798340e-02
-1.231994852423667908e-01
6.706684827804565430e-02
-5.086478963494300842e-02
1.255912184715270996e-01
-1.856758892536163330e-01
1.622140966355800629e-02
-1.445493251085281372e-01
-8.869090676307678223e-02
1.082138493657112122e-01
6.976948678493499756e-02
-3.063760884106159210e-02
-1.312505155801773071e-01
1.763933300971984863e-01
1.374916285276412964e-01
-1.020655483007431030e-01
-7.921673357486724854e-02
-1.890461742877960205e-01
7.149953395128250122e-02
-7.467728108167648315e-02
1.262117922306060791e-01
-8.813109993934631348e-02
-1.058961153030395508e-01
-1.803978979587554932e-01
1.559066623449325562e-01
1.696134731173515320e-02
-1.137599945068359375e-01
-1.734663099050521851e-01
-6.609982252120971680e-02
2.890677191317081451e-03
7.183630764484405518e-02
1.133684217929840088e-01
-9.026761353015899658e-02
-1.703707315027713776e-02
-1.245771348476409912e-01
-3.112986311316490173e-02
-1.500419378280639648e-01
-5.631559528410434723e-03
1.881248503923416138e-01
-1.716310679912567139e-01
6.645536050200462341e-03
1.440557688474655151e-01
4.721249267458915710e-02
1.214037612080574036e-01
3.810745850205421448e-02
-1.088365092873573303e-01
-3.375567868351936340e-02
3.091518208384513855e-02
-3.241088474169373512e-03
1.267195027321577072e-02
1.339424252510070801e-01
1.598008349537849426e-02
-1.157237365841865540e-01
-1.257636249065399170e-01
1.147888675332069397e-01
-6.158883497118949890e-02
2.769821323454380035e-02
-1.272419989109039307e-01
1.211920529603958130e-01
-8.526640385389328003e-02
1.231980621814727783e-01
-8.947397768497467041e-02
1.831375509500503540e-01
-1.936039179563522339e-01
4.487914964556694031e-02
1.236759275197982788e-01
-1.272698491811752319e-01
-5.292434617877006531e-02
-1.584515273571014404e-01
-6.587445735931396484e-02
-3.555925935506820679e-02
2.246195077896118164e-02
1.196174602955579758e-02
-2.433760650455951691e-02
-1.846881061792373657e-01
1.553080826997756958e-01
4.349434375762939453e-02
-1.894276142120361328e-01
9.906161576509475708e-03
2.001872286200523376e-02
-1.144657284021377563e-01
-1.076592206954956055e-01
-1.290328055620193481e-01
1.451992541551589966e-01
-1.761593222618103027e-01
-7.313150912523269653e-02
1.921024620532989502e-01
1.082908362150192261e-01
1.340267807245254517e-01
1.399876922369003296e-01
-1.375133246183395386e-01
6.177267804741859436e-02
-1.994054391980171204e-02
-6.880878657102584839e-02
-3.582157194614410400e-02
-1.375228315591812134e-01
4.713327810168266296e-02
1.851160228252410889e-01
-1.735430508852005005e-01
1.409874707460403442e-01
-8.989708870649337769e-02
-1.196070238947868347e-01
1.473328769207000732e-01
1.476988345384597778e-01
1.124380379915237427e-01
-4.690787196159362793e-02
1.111831068992614746e-01
1.335678063333034515e-02
1.431764662265777588e-01
8.341061323881149292e-02
-7.627250254154205322e-02
9.357272833585739136e-02
-6.847094744443893433e-02
-1.054679751396179199e-01
-8.794038742780685425e-02
-6.931095570325851440e-02
-1.466136574745178223e-01
-1.374839842319488525e-01
-6.695689167827367783e-03
-1.831237673759460449e-01
6.507024168968200684e-02
1.902990639209747314e-01
1.448444575071334839e-01
1.065233275294303894e-01
-6.920726597309112549e-02
-2.801228500902652740e-02
-7.228601723909378052e-02
1.935941576957702637e-01
6.812659651041030884e-02
1.554247289896011353e-01
-1.124523729085922241e-01
-1.843395233154296875e-01
3.327044099569320679e-02
-1.872112303972244263e-01
1.184108704328536987e-01
1.886496543884277344e-01
-9.451657533645629883e-02
-2.814044430851936340e-02
-1.726588979363441467e-02
-1.375597119331359863e-01
1.696440726518630981e-01
-1.388772726058959961e-01
-6.195883825421333313e-02
-1.084464117884635925e-01
-3.571006283164024353e-02
1.109573543071746826e-01
8.271484076976776123e-02
4.228748008608818054e-02
-1.919917911291122437e-01
5.702184978872537613e-03
1.145160049200057983e-01
-1.204714626073837280e-01
1.605677753686904907e-01
-9.907355904579162598e-02
4.683236405253410339e-02
1.517535895109176636e-01
1.366309821605682373e-01
1.210560575127601624e-01
7.544129341840744019e-02
-1.606357395648956299e-01
-4.500162601470947266e-02
1.009027808904647827e-01
2.803792245686054230e-03
-3.461915254592895508e-02
-6.688075512647628784e-02
-8.595588058233261108e-02
-1.311246901750564575e-01
-3.158189728856086731e-02
-4.798237606883049011e-02
5.438140779733657837e-02
1.606123298406600952e-01
2.004294842481613159e-02
-1.422623395919799805e-01
1.515037566423416138e-01
-3.266162052750587463e-02
-1.806295216083526611e-01
1.792711615562438965e-01
-7.638365775346755981e-02
4.682748019695281982e-02
5.660672113299369812e-02
-1.203271448612213135e-01
-5.043726414442062378e-02
-1.791594922542572021e-01
7.444905489683151245e-02
1.902248710393905640e-01
1.471197903156280518e-01
-4.948364570736885071e-02
-6.035884842276573181e-02
8.259393274784088135e-02
1.425367295742034912e-01
-1.574936360120773315e-01
-1.313496232032775879e-01
-1.576521545648574829e-01
1.437367647886276245e-01
8.622674643993377686e-02
-1.570895761251449585e-01
2.768703550100326538e-02
-5.488917604088783264e-02
8.663817495107650757e-02
-9.601341560482978821e-03
-3.679152578115463257e-02
1.565589606761932373e-01
3.060078248381614685e-02
-2.973644062876701355e-02
-7.276993989944458008e-02
-5.826763063669204712e-02
-1.067146584391593933e-01
1.520189493894577026e-01
-2.055469527840614319e-02
-1.904441565275192261e-01
-1.538430601358413696e-01
-8.557295054197311401e-02
6.180221214890480042e-02
1.240087971091270447e-01
-1.050855666399002075e-01
1.177411079406738281e-01
-1.153629496693611145e-01
-1.486856043338775635e-01
6.965434551239013672e-02
1.532864123582839966e-01
-1.968648051843047142e-03
1.212486252188682556e-01
2.979190461337566376e-02
-1.860895752906799316e-01
-1.430641859769821167e-01
4.054364562034606934e-02
6.355597823858261108e-02
-1.891988366842269897e-01
-1.928572803735733032e-01
1.560941040515899658e-01
-2.900620922446250916e-02
2.762489952147006989e-02
-7.630890607833862305e-02
-1.225113198161125183e-01
1.304660439491271973e-01
-9.949521627277135849e-04
-1.972117461264133453e-02
1.843640059232711792e-01
-1.505249291658401489e-01
-3.014058433473110199e-02
-1.416323184967041016e-01
6.325879693031311035e-02
8.762937039136886597e-02
1.711740717291831970e-02
-4.112308099865913391e-02
1.601012796163558960e-01
-1.724173128604888916e-01
-1.242999359965324402e-01
1.696213781833648682e-01
4.562065377831459045e-02
-1.542728245258331299e-01
1.426422894001007080e-01
-5.865604057908058167e-02
-1.393584907054901123e-01
5.451022833585739136e-02
6.231451407074928284e-02
1.396081298589706421e-01
5.834196507930755615e-02
7.899680733680725098e-02
3.894394263625144958e-02
-8.781254291534423828e-02
-1.578195542097091675e-01
-1.850236766040325165e-02
4.781680926680564880e-02
4.807388409972190857e-02
-1.276456564664840698e-01
-1.379505842924118042e-01
-3.000514954328536987e-02
-1.330438107252120972e-01
-4.909089207649230957e-02
1.816558837890625000e-01
3.092027455568313599e-02
-6.977652199566364288e-03
6.153611838817596436e-02
8.417628705501556396e-03
-5.258157476782798767e-02
1.724286377429962158e-01
9.684593230485916138e-02
1.546869128942489624e-01
7.768861204385757446e-02
9.004956483840942383e-02
6.932911276817321777e-02
-1.243555620312690735e-01
-9.267923235893249512e-02
-1.430013030767440796e-01
-5.049211904406547546e-02
-1.070081442594528198e-01
-1.417333632707595825e-01
1.330539286136627197e-01
-9.403001517057418823e-02
7.393272221088409424e-02
1.463842839002609253e-01
-4.906333237886428833e-02
6.450611352920532227e-02
-2.386704832315444946e-02
-2.472990751266479492e-02
4.464787617325782776e-02
-1.357249021530151367e-01
-7.566417008638381958e-02
-1.141654551029205322e-01
-1.603476852178573608e-01
-1.792644560337066650e-01
-1.186064481735229492e-01
2.315194718539714813e-02
-1.837851405143737793e-01
-3.764368221163749695e-02
1.093300879001617432e-01
-8.209496736526489258e-02
6.825745850801467896e-02
-1.571159213781356812e-01
-1.443426609039306641e-01
-1.903365701436996460e-01
8.489108830690383911e-02
1.330985426902770996e-01
1.485276669263839722e-01
-4.538941010832786560e-02
-6.976260989904403687e-02
4.159532859921455383e-02
-8.012562058866024017e-03
-1.181230843067169189e-01
-8.931913226842880249e-02
-7.433813065290451050e-02
3.951606154441833496e-02
-5.397721007466316223e-02
1.659356951713562012e-01
2.377113699913024902e-02
1.930492222309112549e-01
6.493522971868515015e-02
-1.842101514339447021e-01
1.284632235765457153e-01
-5.024718120694160461e-03
1.398310959339141846e-01
1.729499697685241699e-01
-1.889425218105316162e-01
-1.921161413192749023e-01
-3.376877307891845703e-02
1.608731597661972046e-01
8.004926890134811401e-02
-1.324018687009811401e-01
-5.976898223161697388e-02
-5.934668332338333130e-02
-7.376544922590255737e-02
1.292626559734344482e-01
-5.256112664937973022e-02
1.442332714796066284e-01
-1.028209105134010315e-01
1.000408455729484558e-01
-1.866337209939956665e-01
-1.771989166736602783e-01
-5.754098296165466309e-02
-1.870303153991699219e-01
-3.105290979146957397e-02
1.172280609607696533e-01
-8.124513924121856689e-02
5.290484428405761719e-02
8.434239774942398071e-02
-7.586349546909332275e-02
-1.003010123968124390e-01
-1.195491477847099304e-01
-6.826889514923095703e-02
1.464317589998245239e-01
-1.115210056304931641e-01
-1.844536885619163513e-02
-9.566910564899444580e-03
-1.806626096367835999e-02
7.292420603334903717e-03
-1.613688170909881592e-01
-7.485903799533843994e-02
1.920814067125320435e-01
3.840256109833717346e-02
-3.160525485873222351e-02
-6.681986898183822632e-02
4.058709740638732910e-02
6.690226495265960693e-02
-1.647123694419860840e-01
-4.476855322718620300e-02
-3.625653311610221863e-02
-1.404204815626144409e-01
1.726877242326736450e-01
1.895136833190917969e-01
4.161731805652379990e-03
5.198228755034506321e-04
3.465447574853897095e-02
1.794482618570327759e-01
1.708633601665496826e-01
1.367485076189041138e-01
2.135857753455638885e-02
1.244665831327438354e-01
5.069030076265335083e-02
-1.856893748044967651e-01
-9.108583629131317139e-02
-9.113813191652297974e-02
-1.134059876203536987e-01
-1.490662619471549988e-02
7.916836440563201904e-02
-1.404577121138572693e-02
-1.671079546213150024e-01
-1.480381339788436890e-01
-1.534729748964309692e-01
-4.482762888073921204e-02
1.627102643251419067e-01
1.841440796852111816e-01
-3.442725166678428650e-02
3.747578337788581848e-02
-3.588651865720748901e-02
1.392004936933517456e-01
9.323304891586303711e-02
1.733460724353790283e-01
-1.353585273027420044e-01
1.376864016056060791e-01
4.365736618638038635e-02
1.256910860538482666e-01
-1.429609656333923340e-01
-1.953048072755336761e-02
-1.414410918951034546e-01
6.185809150338172913e-02
-4.621515050530433655e-02
-5.768410116434097290e-02
-6.003771442919969559e-03
2.278275042772293091e-02
8.958417922258377075e-02
1.954060426214709878e-04
-1.914530843496322632e-01
7.646513730287551880e-02
-1.300290524959564209e-01
1.054545640945434570e-01
3.910029679536819458e-02
1.682751774787902832e-01
-2.765173651278018951e-02
-2.340083755552768707e-02
2.902969717979431152e-02
1.141742095351219177e-01
-1.923582404851913452e-01
-1.479155421257019043e-01
-1.649422049522399902e-01
-9.735538810491561890e-02
-1.082564070820808411e-01
-1.185176298022270203e-01
4.572756215929985046e-02
-7.202716916799545288e-02
7.492865622043609619e-02
1.335854362696409225e-02
-1.419823169708251953e-01
1.113356351852416992e-01
-1.753657013177871704e-01
-5.125467479228973389e-02
9.737922251224517822e-02
8.394093811511993408e-02
6.707337498664855957e-02
1.823289245367050171e-01
-1.314011067152023315e-01
4.547356069087982178e-02
1.914412379264831543e-01
1.892919391393661499e-01
1.376116275787353516e-01
-1.907234266400337219e-02
9.889347851276397705e-02
-3.943067416548728943e-02
-2.850660495460033417e-02
-3.724769502878189087e-02
-6.403667479753494263e-02
3.812362253665924072e-02
-1.754488795995712280e-01
1.660316288471221924e-01
-4.604549705982208252e-02
1.854513138532638550e-01
-8.211629837751388550e-02
-7.697724550962448120e-02
-1.148860827088356018e-01
-1.410259455442428589e-01
3.680000454187393188e-02
1.767003387212753296e-01
-1.587572395801544189e-01
-5.126043036580085754e-02
-4.379362612962722778e-02
7.768859714269638062e-02
-1.872902512550354004e-01
-3.264228999614715576e-02
1.506431102752685547e-01
1.432438939809799194e-01
-1.165873780846595764e-01
6.390037387609481812e-02
1.407531052827835083e-01
3.930959105491638184e-02
9.780966490507125854e-02
1.167163476347923279e-01
1.920004785060882568e-01
-5.480627343058586121e-02
1.847992688417434692e-01
1.491227000951766968e-01
1.511336117982864380e-01
-1.879061907529830933e-01
-2.299654297530651093e-02
-1.595562100410461426e-01
-4.864136502146720886e-02
1.415419280529022217e-01
-4.823945090174674988e-02
-1.546452939510345459e-01
-4.909339826554059982e-03
8.848237991333007812e-02
-1.006321236491203308e-01
-1.207230165600776672e-01
1.562656015157699585e-01
1.122151240706443787e-01
3.546484559774398804e-02
7.012826949357986450e-02
-8.584833890199661255e-02
1.738470494747161865e-01
8.449917286634445190e-02
-1.826031506061553955e-01
1.625170707702636719e-01
1.424020379781723022e-01
1.532070636749267578e-01
-5.404185876250267029e-02
-1.086410284042358398e-01
-5.330378934741020203e-02
-8.552189916372299194e-02
-1.027187481522560120e-01
-1.186451986432075500e-01
-1.866809427738189697e-01
2.780858986079692841e-02
-9.019511193037033081e-02
-8.926357328891754150e-02
1.557416468858718872e-01
-9.020058065652847290e-02
-1.531088054180145264e-01
-4.443553835153579712e-02
-9.325617551803588867e-02
8.199245482683181763e-02
4.040535539388656616e-02
-1.150419861078262329e-01
1.808709092438220978e-02
-1.179137500002980232e-03
7.200968265533447266e-02
8.406307548284530640e-02
-1.344548016786575317e-01
8.798921108245849609e-02
-1.951889134943485260e-02
-1.525085866451263428e-01
2.223609201610088348e-02
1.589916646480560303e-01
1.114266812801361084e-01
-1.720607578754425049e-01
2.819532714784145355e-02
-5.033325776457786560e-02
-9.452999383211135864e-02
-1.096584573388099670e-01
1.267204433679580688e-01
1.559756100177764893e-01
-1.601773947477340698e-01
-8.695138245820999146e-02
1.574498414993286133e-01
-3.546420717611908913e-03
-1.932907477021217346e-02
1.045221909880638123e-01
-9.322401881217956543e-02
-8.782088011503219604e-02
8.935000747442245483e-02
1.329619288444519043e-01
-1.637842692434787750e-02
1.445682942867279053e-01
5.292060598731040955e-02
1.926556229591369629e-02
-1.503983885049819946e-01
-1.002409532666206360e-01
-1.520351767539978027e-01
6.915707886219024658e-02
3.139444859698414803e-03
1.822456121444702148e-01
1.636663377285003662e-01
8.630007505416870117e-02
1.132922768592834473e-01
1.262842863798141479e-01
1.282706558704376221e-01
6.325387861579656601e-03
4.124511405825614929e-02
9.854975342750549316e-02
2.096931822597980499e-02
1.582037657499313354e-01
-3.033811971545219421e-02
6.000122427940368652e-02
1.268082018941640854e-02
-1.132005825638771057e-01
6.727399677038192749e-02
-1.501407288014888763e-02
-2.934003621339797974e-02
6.004510074853897095e-02
7.638011872768402100e-02
-1.458401381969451904e-01
-5.269968882203102112e-02
2.230782702099531889e-04
7.668963167816400528e-03
1.545753777027130127e-01
1.157763972878456116e-02
9.361197054386138916e-02
1.217766329646110535e-01
-4.503610730171203613e-02
3.436188772320747375e-02
2.653241902589797974e-02
-1.292147040367126465e-01
-1.126519143581390381e-01
-1.017500385642051697e-01
-1.227333545684814453e-01
1.835318803787231445e-01
-9.465037286281585693e-02
1.747671961784362793e-01
1.799089759588241577e-01
1.099201887845993042e-01
-1.812527477741241455e-01
4.986815154552459717e-02
-9.051958471536636353e-02
1.610193401575088501e-01
1.563754081726074219e-01
1.579358875751495361e-01
6.981510668992996216e-02
8.231815695762634277e-02
1.704813092947006226e-01
1.049718037247657776e-01
-1.225325986742973328e-01
6.267649680376052856e-02
-1.679058670997619629e-01
5.649166181683540344e-02
1.624676883220672607e-01
3.066680207848548889e-02
-9.795906394720077515e-02
3.411604464054107666e-02
-5.829736590385437012e-02
3.731019794940948486e-02
3.203490749001502991e-02
-1.727599203586578369e-01
6.409590691328048706e-02
2.481955662369728088e-02
-5.033670365810394287e-02
-1.410220265388488770e-01
-6.897833943367004395e-02
-1.355244219303131104e-01
1.651654206216335297e-02
1.639193892478942871e-01
-3.195673972368240356e-02
1.361676901578903198e-01
-1.442976891994476318e-01
7.086486369371414185e-02
-9.411737322807312012e-02
-1.218664497137069702e-01
8.706219494342803955e-03
-9.279468096792697906e-03
3.419929370284080505e-02
3.520052507519721985e-02
4.987905174493789673e-02
-1.286646723747253418e-01
-9.326712787151336670e-02
-1.481224894523620605e-01
1.195016205310821533e-01
1.150796934962272644e-01
1.452793776988983154e-01
1.691424101591110229e-01
1.650115698575973511e-01
8.319751918315887451e-02
-1.935161501169204712e-01
1.453420668840408325e-01
-1.287618726491928101e-01
-1.066289991140365601e-01
-6.147010624408721924e-02
-2.899631112813949585e-02
1.414847970008850098e-01
-1.156650856137275696e-01
1.809833198785781860e-01
-1.719089001417160034e-01
-1.571482419967651367e-01
-5.309161171317100525e-02
1.268346905708312988e-01
-5.235416814684867859e-02
4.615638032555580139e-02
-5.382489040493965149e-02
5.251167342066764832e-02
1.917139589786529541e-01
-1.652670800685882568e-01
1.921602040529251099e-01
-7.600978761911392212e-02
-9.494849294424057007e-02
-9.638310223817825317e-02
-1.462309658527374268e-01
1.823886930942535400e-01
-6.451448891311883926e-03
-1.742129474878311157e-01
-2.958829142153263092e-02
-1.075773686170578003e-01
1.884199678897857666e-01
-5.884219333529472351e-02
6.039469316601753235e-02
-1.045034453272819519e-02
1.290262769907712936e-02
1.181275695562362671e-01
1.565476357936859131e-01
-1.745919287204742432e-01
1.873147487640380859e-01
1.589476168155670166e-01
-8.669599890708923340e-02
1.018250510096549988e-01
1.082013025879859924e-01
4.611488059163093567e-02
-9.791229665279388428e-02
-5.333249270915985107e-02
1.112800985574722290e-01
-7.636514306068420410e-02
-1.497645527124404907e-01
-9.449823200702667236e-02
1.754116863012313843e-01
1.626798063516616821e-01
1.413103938102722168e-01
-1.307078599929809570e-01
-3.580627590417861938e-02
-1.549884080886840820e-01
1.549504101276397705e-01
1.798121780157089233e-01
-9.821544587612152100e-02
-1.219492778182029724e-01
-4.758759867399930954e-03
-1.626926809549331665e-01
-1.071984991431236267e-01
-1.680335104465484619e-01
4.832684993743896484e-02
5.497854202985763550e-02
-2.293894626200199127e-02
-6.251591444015502930e-02
1.163343563675880432e-01
-1.428328454494476318e-01
5.439565703272819519e-02
-5.241780541837215424e-03
7.216159254312515259e-02
4.336975142359733582e-02
-8.944732695817947388e-02
-1.555580645799636841e-01
-1.029527410864830017e-01
-1.095541492104530334e-01
-6.810961663722991943e-02
1.617926061153411865e-01
1.872271299362182617e-01
-1.085657849907875061e-01
-2.615110483020544052e-03
-1.167570799589157104e-01
-1.681601107120513916e-01
6.285530328750610352e-02
-9.181541204452514648e-02
-1.917578428983688354e-01
5.136854946613311768e-02
-1.555810868740081787e-01
2.399380691349506378e-02
-3.956164419651031494e-02
4.366727173328399658e-02
-7.857295125722885132e-02
-9.083884209394454956e-02
1.223072335124015808e-01
-1.757063120603561401e-01
1.296573281288146973e-01
-1.385114341974258423e-01
-1.073689982295036316e-01
4.033708479255437851e-03
5.440583452582359314e-02
7.761839032173156738e-02
2.051290869712829590e-02
-6.700739264488220215e-02
-1.709810197353363037e-01
-1.585429161787033081e-01
-1.688880287110805511e-02
1.019959673285484314e-01
-7.616993039846420288e-02
-1.850983686745166779e-02
3.760408144444227219e-03
-1.735458076000213623e-01
-6.866584718227386475e-02
6.118471547961235046e-02
-2.868799120187759399e-02
9.107899852097034454e-03
-1.121710762381553650e-01
-1.496079862117767334e-01
5.120954662561416626e-02
7.879332453012466431e-02
-1.647315025329589844e-01
7.528947293758392334e-02
1.797217577695846558e-01
-5.549425259232521057e-02
-3.373589366674423218e-02
-4.916501417756080627e-02
-1.787423714995384216e-02
-1.575189679861068726e-01
-1.532492190599441528e-01
4.560483619570732117e-02
1.281181275844573975e-01
1.782214045524597168e-01
-3.389808535575866699e-02
-1.202036067843437195e-01
9.070813655853271484e-02
9.813471883535385132e-02
-1.414354592561721802e-01
1.437350213527679443e-01
-1.921588778495788574e-01
1.348322927951812744e-01
1.831209659576416016e-01
1.200803443789482117e-01
-1.557504236698150635e-01
6.578841060400009155e-02
-2.466851286590099335e-02
-1.852259784936904907e-01
-1.883113533258438110e-01
-7.164173573255538940e-02
-4.029772710055112839e-03
1.387979537248611450e-01
1.311875879764556885e-01
-1.918226629495620728e-01
-3.839061409235000610e-02
1.327115148305892944e-01
4.953932017087936401e-02
-1.475594937801361084e-01
1.169774159789085388e-01
1.522449404001235962e-01
4.409877583384513855e-02
-1.343555599451065063e-01
8.874257653951644897e-02
-1.290979087352752686e-01
1.493309736251831055e-01
-4.843014176003634930e-04
-2.924607135355472565e-02
7.444836944341659546e-02
4.211239889264106750e-02
1.743378639221191406e-01
-1.042898595333099365e-01
-1.600720584392547607e-01
-1.029161959886550903e-01
4.470611736178398132e-02
3.881019772961735725e-03
-1.241367012262344360e-01
-8.089423924684524536e-02
-4.585074633359909058e-02
1.499780267477035522e-01
-1.106034517288208008e-01
1.563261151313781738e-01
-1.036287844181060791e-01
4.586076736450195312e-02
-5.791847594082355499e-03
-1.013850718736648560e-01
2.775583416223526001e-02
-5.902600288391113281e-02
-1.768132895231246948e-01
-1.465045958757400513e-01
-1.304324865341186523e-01
1.669781655073165894e-01
1.723388023674488068e-02
1.581665277481079102e-01
1.358282566070556641e-01
-5.271357670426368713e-02
-1.048103794455528259e-01
-1.194795966148376465e-01
3.503924980759620667e-02
9.410912543535232544e-02
-5.971510708332061768e-02
-8.823098987340927124e-02
1.840251386165618896e-01
-1.277769058942794800e-01
1.873072236776351929e-01
7.366888225078582764e-02
-1.068719848990440369e-01
-6.021232903003692627e-02
-1.338076144456863403e-01
-8.764795213937759399e-02
-6.467523425817489624e-02
-1.918597817420959473e-01
-1.069914326071739197e-01
1.778095215559005737e-01
1.161743625998497009e-01
-1.193012204021215439e-02
-1.250576078891754150e-01
9.410854429006576538e-02
-1.749502420425415039e-01
1.788325794041156769e-02
-1.334174424409866333e-01
1.198763698339462280e-01
1.637236624956130981e-01
1.149963289499282837e-01
5.582270771265029907e-02
-1.136787310242652893e-01
-1.678223907947540283e-02
-1.913960129022598267e-01
-1.850180476903915405e-01
-1.449780911207199097e-01
1.461697816848754883e-01
1.091070622205734253e-01
-2.513319440186023712e-02
8.837584406137466431e-02
1.416290104389190674e-01
1.858822256326675415e-01
1.314849033951759338e-02
1.902027875185012817e-01
1.419112235307693481e-01
6.370963528752326965e-03
8.839606493711471558e-02
1.347603499889373779e-01
-1.157940849661827087e-01
7.758165150880813599e-02
3.366100788116455078e-02
-1.243388056755065918e-01
1.676240749657154083e-02
1.454708725214004517e-01
-8.171122171916067600e-04
9.601896256208419800e-02
1.088898256421089172e-01
1.056028902530670166e-01
-8.429213613271713257e-02
1.503490954637527466e-01
-1.516851037740707397e-01
3.829131647944450378e-02
1.344973146915435791e-01
-7.508312165737152100e-02
3.357997536659240723e-02
-4.961010441184043884e-02
9.615603834390640259e-02
-8.522226661443710327e-02
-1.007959321141242981e-01
-8.456730842590332031e-02
2.585916034877300262e-02
-1.143652051687240601e-01
-6.939791887998580933e-02
-1.438276320695877075e-01
1.832219362258911133e-01
-3.306945040822029114e-02
-5.478592589497566223e-02
1.813773065805435181e-01
-7.943186163902282715e-02
-1.629601418972015381e-02
1.334427744150161743e-01
1.232019513845443726e-01
1.526137441396713257e-01
1.582698971033096313e-01
1.634145379066467285e-01
-2.484430186450481415e-02
1.429464435204863548e-03
-3.837445750832557678e-02
1.677260994911193848e-01
1.100785210728645325e-01
1.734203994274139404e-01
1.630303710699081421e-01
1.199343129992485046e-01
-5.131312832236289978e-02
1.454413533210754395e-01
5.484925117343664169e-03
-1.110422760248184204e-01
-1.223323028534650803e-02
-1.048132125288248062e-02
3.725299239158630371e-02
1.178217828273773193e-01
1.888134889304637909e-02
-2.931355312466621399e-02
-3.562042862176895142e-02
5.668864026665687561e-02
1.813437789678573608e-01
1.391138732433319092e-01
-1.325705051422119141e-01
1.133716925978660583e-01
8.081264048814773560e-02
5.968931689858436584e-02
1.044809818267822266e-01
-1.778883188962936401e-01
5.289780348539352417e-02
4.797266796231269836e-02
-8.407852053642272949e-02
-1.441511064767837524e-01
-1.029730141162872314e-01
-3.144300356507301331e-02
6.797333061695098877e-02
9.790662676095962524e-02
-6.196054629981517792e-03
1.784199662506580353e-02
1.631508171558380127e-01
-1.456585079431533813e-01
8.232078701257705688e-02
3.647773712873458862e-02
4.016645625233650208e-02
-3.799373283982276917e-02
-1.068217679858207703e-01
1.323971748352050781e-01
9.242194890975952148e-02
-1.225121691823005676e-01
-3.232460469007492065e-02
1.813508123159408569e-01
-1.314309388399124146e-01
5.876117199659347534e-02
5.861993134021759033e-02
7.030487805604934692e-02
-4.245522897690534592e-03
-1.630971580743789673e-01
-1.675291359424591064e-01
-4.161081090569496155e-02
1.489028930664062500e-01
-4.640302807092666626e-02
1.104095950722694397e-01
7.757581770420074463e-02
-5.593309924006462097e-02
1.506644487380981445e-01
-9.855294227600097656e-02
4.997459053993225098e-02
-1.822463572025299072e-01
1.784794777631759644e-02
-1.060650125145912170e-01
-5.667277425527572632e-02
-1.366667896509170532e-01
-1.588833034038543701e-01
1.542424261569976807e-01
-6.484918296337127686e-03
-6.255231052637100220e-02
1.558996886014938354e-01
3.333670645952224731e-02
-2.562532946467399597e-02
-1.912015527486801147e-01
5.025386810302734375e-02
-1.079853847622871399e-01
-8.761470019817352295e-02
1.559762656688690186e-01
-2.128735743463039398e-02
-3.136906772851943970e-02
9.802920743823051453e-03
-1.422652304172515869e-01
6.724643707275390625e-02
-1.804651468992233276e-01
-5.446438863873481750e-02
-7.539378106594085693e-02
-1.860570311546325684e-01
-7.663798052817583084e-03
-3.887247294187545776e-02
1.072895526885986328e-01
-7.050014287233352661e-02
6.692447513341903687e-02
-1.703359484672546387e-01
1.199337914586067200e-01
-3.076475858688354492e-02
1.490726619958877563e-01
-8.621031790971755981e-02
-9.688203781843185425e-02
-1.107702255249023438e-01
1.561386883258819580e-01
1.590967476367950439e-01
9.702832251787185669e-02
-7.856211066246032715e-02
-1.258878558874130249e-01
-1.126261875033378601e-01
4.462820291519165039e-02
1.750148683786392212e-01
-2.312600426375865936e-02
1.266984343528747559e-01
1.537439078092575073e-01
-7.628694176673889160e-02
-8.977324701845645905e-03
-1.621296256780624390e-01
-2.830741368234157562e-02
6.897380203008651733e-02
6.909225881099700928e-02
1.238168254494667053e-01
9.393110126256942749e-02
1.167379170656204224e-01
-6.375250220298767090e-02
8.896082639694213867e-02
-9.879747778177261353e-02
-2.797350473701953888e-02
8.099076151847839355e-02
-1.260567903518676758e-01
5.626749619841575623e-02
3.081440366804599762e-02
1.509114205837249756e-01
-1.627043485641479492e-01
-1.123813763260841370e-01
1.442957669496536255e-01
1.456398367881774902e-01
1.634890586137771606e-01
1.195825561881065369e-01
-1.208521574735641479e-01
4.809407889842987061e-02
-3.503048419952392578e-02
5.817749351263046265e-02
1.479832828044891357e-01
-5.646096915006637573e-02
-9.652465581893920898e-02
-3.248810023069381714e-02
4.927180334925651550e-02
-1.337462812662124634e-01
1.602647453546524048e-01
8.807826787233352661e-02
3.491494059562683105e-02
6.536309421062469482e-02
1.435712128877639771e-01
3.339728340506553650e-02
-3.187970444560050964e-02
-6.088408827781677246e-02
1.896803826093673706e-01
6.276203691959381104e-02
-7.813526690006256104e-02
-1.818091124296188354e-01
1.306199431419372559e-01
-2.364780381321907043e-02
4.180469736456871033e-02
-1.065696105360984802e-01
6.425745785236358643e-02
4.714079946279525757e-02
4.271857813000679016e-02
1.791824996471405029e-01
1.347554326057434082e-01
1.733894646167755127e-01
1.000799015164375305e-01
-1.009148657321929932e-01
1.008761450648307800e-01
3.247628733515739441e-02
-8.915137499570846558e-02
-1.726556420326232910e-01
1.176488175988197327e-01
1.270511895418167114e-01
-9.388697892427444458e-02
1.616975665092468262e-01
-6.291296333074569702e-02
-3.803169354796409607e-03
-9.617570042610168457e-02
-1.280503123998641968e-01
1.749086976051330566e-01
-2.497191727161407471e-02
-1.590600907802581787e-01
-3.040915913879871368e-02
1.076540723443031311e-01
-1.758368015289306641e-01
6.158344820141792297e-02
-2.688934281468391418e-02
-1.711417883634567261e-01
-1.867756694555282593e-01
1.570984870195388794e-01
-5.929858610033988953e-02
-9.990748763084411621e-02
-4.602246731519699097e-02
-1.564817875623703003e-02
8.362974971532821655e-02
-4.692761600017547607e-02
1.891647130250930786e-01
-4.876950755715370178e-02
-1.539677679538726807e-01
-7.387521862983703613e-02
1.605156362056732178e-01
1.640599817037582397e-01
1.535304933786392212e-01
-1.758719980716705322e-01
-1.895602345466613770e-01
-3.869895264506340027e-02
-7.843850553035736084e-02
-1.671466827392578125e-01
1.184149608016014099e-01
5.395315587520599365e-02
5.043979361653327942e-02
-1.791182905435562134e-02
-9.853996336460113525e-02
-1.230589896440505981e-01
1.774623095989227295e-01
-9.632825106382369995e-02
-1.784479990601539612e-02
-1.559931486845016479e-01
7.489744573831558228e-02
-1.274865120649337769e-01
1.848399788141250610e-01
-1.371985673904418945e-01
8.590388111770153046e-03
-1.330692172050476074e-01
-5.874228104948997498e-02
1.692993752658367157e-02
-1.491973251104354858e-01
1.219325587153434753e-01
1.350379288196563721e-01
-1.609117388725280762e-01
1.264561265707015991e-01
3.837272897362709045e-02
1.838691383600234985e-01
8.996215462684631348e-02
2.747147530317306519e-02
6.341037899255752563e-02
-1.450129691511392593e-02
1.184702813625335693e-01
7.338316738605499268e-02
7.076232880353927612e-02
-1.510817259550094604e-01
-1.383371353149414062e-01
-1.651749312877655029e-01
-1.417601853609085083e-01
4.233369231224060059e-02
-1.079628840088844299e-01
5.837713181972503662e-02
-1.484848260879516602e-01
1.895757764577865601e-01
2.259126864373683929e-02
1.129409894347190857e-01
-1.612308174371719360e-01
3.314420953392982483e-02
-1.488103866577148438e-01
1.085553839802742004e-01
-1.603927910327911377e-01
1.243504956364631653e-01
8.014398068189620972e-02
-1.054250895977020264e-01
-6.358858942985534668e-02
-4.031809419393539429e-02
1.919485479593276978e-01
-1.520042568445205688e-01
-5.968556180596351624e-02
-3.803920745849609375e-02
-1.388541609048843384e-01
9.951427578926086426e-02
-6.747203320264816284e-02
-1.927480846643447876e-02
1.872448921203613281e-01
-3.924106433987617493e-02
3.933418542146682739e-02
-4.246983304619789124e-02
-1.333935558795928955e-01
1.839156299829483032e-01
-1.186483353376388550e-01
2.596536464989185333e-02
4.604775458574295044e-02
-3.706108033657073975e-02
7.014751434326171875e-02
-5.743313580751419067e-02
-9.330074489116668701e-02
-1.078278124332427979e-01
4.968907684087753296e-02
-9.438531100749969482e-02
-4.512679949402809143e-02
-1.661088913679122925e-01
9.682089835405349731e-02
-9.736634045839309692e-02
-1.461806148290634155e-01
1.294514257460832596e-02
-1.631262153387069702e-01
1.849065721035003662e-01
1.286752372980117798e-01
-4.310892894864082336e-02
-8.448099717497825623e-03
1.525450944900512695e-01
-7.307904213666915894e-02
-1.753389276564121246e-02
-7.389366626739501953e-02
-1.892185211181640625e-01
-8.944581262767314911e-03
6.757950037717819214e-02
4.321095347404479980e-02
1.444195359945297241e-01
1.885643303394317627e-01
1.624059230089187622e-01
-8.444311469793319702e-02
-1.574961394071578979e-01
-1.750865578651428223e-01
-5.263487249612808228e-02
1.478070616722106934e-01
-1.505274921655654907e-01
-9.418093413114547729e-02
1.901834458112716675e-01
-6.280370056629180908e-02
5.820873379707336426e-02
1.804487556219100952e-01
-5.479542911052703857e-02
-1.817963719367980957e-01
-1.186605542898178101e-02
1.150579601526260376e-01
-1.727318949997425079e-02
-1.739650964736938477e-01
2.518637105822563171e-02
-9.007733315229415894e-02
4.320856556296348572e-02
-4.207914695143699646e-02
-1.310087442398071289e-01
1.468703299760818481e-01
2.662557549774646759e-02
-3.755827993154525757e-02
1.486039608716964722e-01
-1.208716854453086853e-01
1.036902740597724915e-01
-8.620984852313995361e-02
-9.384348988533020020e-02
-1.187884062528610229e-01
-2.596791309770196676e-04
-7.301764190196990967e-02
1.784808784723281860e-01
-1.364642977714538574e-01
-6.764111667871475220e-02
-1.328136771917343140e-01
-4.053771123290061951e-02
5.630724504590034485e-02
-1.417004223912954330e-02
7.279945909976959229e-02
1.422729194164276123e-01
-1.303618103265762329e-01
1.398150473833084106e-01
-1.690414547920227051e-01
-5.103422701358795166e-02
1.187707707285881042e-01
-4.635347798466682434e-02
1.471342146396636963e-01
1.162197515368461609e-01
3.719049692153930664e-02
7.770086824893951416e-02
-4.534082487225532532e-02
1.154293194413185120e-01
1.025734022259712219e-01
1.603501737117767334e-01
-1.069358214735984802e-01
-5.609478428959846497e-02
1.507068276405334473e-01
-9.659107029438018799e-02
1.578287407755851746e-02
4.174877703189849854e-02
2.392713725566864014e-02
-1.875324994325637817e-01
6.716054677963256836e-02
4.532766342163085938e-02
-1.653207689523696899e-01
7.860515266656875610e-02
-1.266566365957260132e-01
-8.629995584487915039e-02
-1.426186412572860718e-02
1.500024050474166870e-01
-1.781091988086700439e-01
-9.934318251907825470e-03
2.838430739939212799e-02
-1.662699431180953979e-01
-6.641818583011627197e-02
1.085611954331398010e-01
6.676556169986724854e-02
-4.244644567370414734e-02
1.338632553815841675e-01
1.499596983194351196e-01
-7.920691743493080139e-03
-2.234652638435363770e-02
-1.501105427742004395e-01
-1.308363229036331177e-01
-1.324757486581802368e-01
-1.006772071123123169e-01
9.743442386388778687e-02
-2.317255735397338867e-02
1.037115603685379028e-01
-9.991105645895004272e-03
-2.052335441112518311e-02
-9.916526079177856445e-02
-1.740831881761550903e-01
1.586921960115432739e-01
6.255473196506500244e-02
-1.536220014095306396e-01
-1.731728017330169678e-01
1.807779520750045776e-01
-1.848790496587753296e-01
7.378292083740234375e-02
5.688707157969474792e-02
-2.892314083874225616e-02
-8.105817250907421112e-03
3.489402681589126587e-02
1.662570089101791382e-01
-1.431422233581542969e-01
7.222860306501388550e-02
2.774848602712154388e-02
4.531115293502807617e-03
5.016190931200981140e-02
-5.498504266142845154e-03
-1.566255390644073486e-01
1.595916002988815308e-01
-1.889954805374145508e-01
7.989810407161712646e-02
2.248742850497364998e-03
-8.947201818227767944e-02
1.607097126543521881e-02
2.803160808980464935e-03
-6.198637932538986206e-02
-7.301364839076995850e-02
-8.359470963478088379e-02
1.504793483763933182e-02
2.670604037120938301e-03
1.010875329375267029e-01
-1.664509326219558716e-01
1.494982689619064331e-01
-7.643599063158035278e-02
6.885773036628961563e-03
1.486537605524063110e-01
-1.801807433366775513e-02
4.587310180068016052e-02
-2.078225277364253998e-02
8.046663552522659302e-02
-5.090053752064704895e-02
-1.222013011574745178e-01
1.863427758216857910e-01
1.484691202640533447e-01
-1.766658574342727661e-01
-5.493091046810150146e-02
-1.045666262507438660e-01
1.590743660926818848e-01
2.662080153822898865e-02
-1.331746131181716919e-01
-6.146806478500366211e-02
-1.025039479136466980e-01
3.159669041633605957e-02
1.655667833983898163e-02
1.987132430076599121e-02
-8.357634395360946655e-02
9.959064424037933350e-02
-1.645889133214950562e-01
-8.625370264053344727e-02
-1.703412383794784546e-01
-1.738188788294792175e-02
-1.910111606121063232e-01
-6.730668991804122925e-02
-1.395650804042816162e-01
1.548926830291748047e-01
8.083954453468322754e-02
-7.589242607355117798e-02
1.168392747640609741e-01
-1.314754188060760498e-01
-9.142313152551651001e-02
-1.687481766566634178e-03
-1.683237552642822266e-01
1.856885850429534912e-01
-1.592855900526046753e-01
-9.273274987936019897e-02
-1.533532887697219849e-01
-1.204907894134521484e-03
1.928420364856719971e-01
1.582034230232238770e-01
3.912428393959999084e-02
-1.387626081705093384e-01
1.389048993587493896e-02
8.689622581005096436e-02
9.554664045572280884e-02
7.644791156053543091e-02
1.343641281127929688e-01
-1.798607707023620605e-01
-2.362710656598210335e-03
-9.543172083795070648e-03
1.171465367078781128e-01
1.894832998514175415e-01
4.784349352121353149e-02
1.191669031977653503e-01
-5.297147110104560852e-02
-8.514244109392166138e-02
-1.447253078222274780e-01
1.298590004444122314e-01
1.742872893810272217e-01
-7.746067643165588379e-02
-9.900543838739395142e-02
-1.334274262189865112e-01
-9.007167071104049683e-02
5.995416641235351562e-02
-9.277375042438507080e-02
-1.153879314661026001e-01
1.830287128686904907e-01
1.008740626275539398e-02
1.720352023839950562e-01
-2.545449137687683105e-02
-1.495909988880157471e-01
3.058771230280399323e-02
-1.258687227964401245e-01
1.107304915785789490e-02
1.549325045198202133e-02
-2.022695261985063553e-03
8.806534111499786377e-02
-9.797354042530059814e-02
-1.594603061676025391e-01
1.340138167142868042e-01
1.050019860267639160e-01
9.016156196594238281e-02
-9.590932168066501617e-03
1.804647408425807953e-02
1.569480299949645996e-01
3.954365849494934082e-02
-1.696067005395889282e-01
1.505204737186431885e-01
2.686223201453685760e-02
-1.824670583009719849e-01
-1.581759899854660034e-01
5.055002495646476746e-02
1.389699429273605347e-01
1.072333231568336487e-01
-5.298122763633728027e-02
-1.055918112397193909e-01
-1.010464206337928772e-01
-1.556752622127532959e-01
1.354669183492660522e-01
1.485604792833328247e-01
-1.155282258987426758e-01
9.426810592412948608e-02
-9.780293703079223633e-02
-2.836972475051879883e-02
-1.741431802511215210e-01
-1.673950999975204468e-01
-3.819718211889266968e-02
-1.950430124998092651e-02
3.686234354972839355e-02
7.480709254741668701e-02
7.502516359090805054e-02
-3.247341886162757874e-02
-8.032412081956863403e-02
1.773392111063003540e-01
-1.651655733585357666e-01
-1.056585684418678284e-01
8.325366675853729248e-02
-1.213165894150733948e-01
-1.926028132438659668e-01
2.994385920464992523e-02
-6.063132360577583313e-02
-1.101534068584442139e-01
1.084502637386322021e-01
-6.705605238676071167e-02
-1.468642503023147583e-01
-5.762147158384323120e-02
2.620529010891914368e-02
-1.663316041231155396e-01
-1.682368516921997070e-01
-9.995707869529724121e-02
2.713541686534881592e-02
-7.729218807071447372e-03
8.436088263988494873e-02
-4.821769893169403076e-02
-9.815728664398193359e-02
1.158216744661331177e-01
1.001777499914169312e-01
-1.426342874765396118e-01
-1.246057748794555664e-01
2.076123096048831940e-02
7.588364928960800171e-02
1.316458284854888916e-01
1.364354789257049561e-01
1.754613034427165985e-02
1.503271237015724182e-02
-6.910911202430725098e-02
1.249790191650390625e-01
3.555792197585105896e-02
-1.844683475792407990e-02
-1.806383579969406128e-01
1.916573345661163330e-01
-7.219700515270233154e-02
-1.001469343900680542e-01
-1.672590821981430054e-01
-8.702902495861053467e-02
3.749050572514533997e-02
9.626796096563339233e-02
1.921397447586059570e-01
-1.512013673782348633e-01
-1.836699247360229492e-01
8.206836879253387451e-03
-1.920657604932785034e-01
4.875075072050094604e-02
4.383431747555732727e-02
-1.913868933916091919e-01
1.543929874897003174e-01
1.561430841684341431e-01
-2.714543044567108154e-02
1.893033236265182495e-01
6.787269562482833862e-02
-1.802667230367660522e-01
1.594299226999282837e-01
5.938839167356491089e-03
1.292878091335296631e-01
-9.948389977216720581e-02
2.125737257301807404e-03
-1.815681308507919312e-01
3.026885353028774261e-02
8.052283525466918945e-02
-1.659645736217498779e-01
-1.266090422868728638e-01
1.807961910963058472e-01
2.659085765480995178e-02
-1.579799503087997437e-01
1.478931009769439697e-01
3.973376005887985229e-02
8.401155471801757812e-02
-9.476804733276367188e-02
1.642786264419555664e-01
2.797397971153259277e-02
-1.632456481456756592e-01
1.402630358934402466e-01
-1.400419771671295166e-01
1.832272857427597046e-01
1.784473955631256104e-01
8.924455195665359497e-02
-1.844318658113479614e-01
1.245586574077606201e-01
1.869626194238662720e-01
1.177118867635726929e-01
-1.752361655235290527e-03
7.793612778186798096e-02
1.731538325548171997e-01
-5.121400579810142517e-02
-1.457925140857696533e-01
-1.402266472578048706e-01
-4.866767674684524536e-02
1.288748383522033691e-01
-1.208548471331596375e-01
1.099259853363037109e-01
3.705726191401481628e-02
-1.750826835632324219e-01
1.434097439050674438e-01
-1.902118474245071411e-01
9.768488258123397827e-02
6.278985738754272461e-02
-1.183368861675262451e-01
-2.355013974010944366e-02
5.757403373718261719e-02
1.739404648542404175e-01
1.176179721951484680e-01
-9.589397907257080078e-02
1.774100214242935181e-01
-5.392603948712348938e-02
3.609081357717514038e-02
1.312264502048492432e-01
1.212376281619071960e-01
-3.995230048894882202e-02
-1.697211563587188721e-01
-1.270551830530166626e-01
1.516097784042358398e-01
1.634292453527450562e-01
-4.526084288954734802e-02
-1.196783967316150665e-02
-1.815321743488311768e-01
-1.670038141310214996e-02
-6.918874569237232208e-03
6.756103038787841797e-02
1.629093438386917114e-01
1.786393970251083374e-01
-1.190569400787353516e-01
-8.619844913482666016e-02
8.836290240287780762e-02
-8.230959996581077576e-03
9.835653007030487061e-02
1.703617572784423828e-01
6.619241833686828613e-02
-2.865305542945861816e-02
1.723123788833618164e-01
-9.474147111177444458e-02
-1.322130411863327026e-01
9.337253868579864502e-02
6.136513873934745789e-02
7.953196763992309570e-02
-1.488397866487503052e-01
1.548722684383392334e-01
1.758723407983779907e-01
4.616620764136314392e-02
-9.478770196437835693e-02
8.537562936544418335e-02
-8.965970575809478760e-02
-8.042506873607635498e-02
-1.799213290214538574e-01
6.183500215411186218e-02
8.016325533390045166e-03
1.624467223882675171e-01
-5.770517140626907349e-02
4.069368168711662292e-02
1.541198343038558960e-01
-1.658189445734024048e-01
1.255795657634735107e-01
1.976238563656806946e-03
-1.281600743532180786e-01
-1.669861525297164917e-01
4.266778007149696350e-02
-1.160562932491302490e-01
-9.389238059520721436e-02
5.328793451189994812e-02
1.634271293878555298e-01
-1.743991486728191376e-02
5.438195914030075073e-02
1.770439296960830688e-01
-1.182161867618560791e-01
-1.852956116199493408e-01
-1.367738246917724609e-01
-9.230706840753555298e-02
4.019004106521606445e-02
2.849230542778968811e-02
-1.533450633287429810e-01
1.416901499032974243e-01
-3.316835686564445496e-02
1.391417998820543289e-02
-1.005486845970153809e-01
7.804634422063827515e-02
1.296487003564834595e-01
7.702971994876861572e-02
8.292410522699356079e-02
-1.176312118768692017e-01
-1.526248902082443237e-01
1.508317291736602783e-01
3.429047018289566040e-02
-9.849189221858978271e-02
-1.044654101133346558e-01
1.899525970220565796e-01
1.036495268344879150e-01
8.359299600124359131e-02
8.155240863561630249e-02
-1.557924300432205200e-01
-8.187375962734222412e-02
1.401444226503372192e-01
-9.289465099573135376e-02
-1.340052932500839233e-01
-7.085303775966167450e-03
-3.486387059092521667e-02
-1.508800089359283447e-01
-3.943017870187759399e-02
-9.005108475685119629e-02
1.547434628009796143e-01
9.080635011196136475e-02
9.979462623596191406e-02
-2.621679753065109253e-02
1.892426609992980957e-01
1.207287535071372986e-01
7.976458966732025146e-02
1.060576513409614563e-01
-1.773863285779953003e-01
-5.221428722143173218e-02
-1.512293368577957153e-01
-1.088484600186347961e-01
7.279759645462036133e-02
-9.692946076393127441e-02
1.062019914388656616e-01
1.562711596488952637e-01
7.961270958185195923e-02
9.182194620370864868e-02
-5.372909456491470337e-02
9.478965401649475098e-02
1.783345490694046021e-01
-2.588287461549043655e-03
-1.428482532501220703e-01
9.113736450672149658e-02
-3.638410195708274841e-02
-2.031203173100948334e-02
1.696398854255676270e-01
-1.221233233809471130e-01
-2.081697620451450348e-02
-1.224841829389333725e-02
2.870159223675727844e-02
1.252760142087936401e-01
-7.849357277154922485e-02
-1.861000508069992065e-01
-1.025055870413780212e-01
6.729364395141601562e-02
-9.958942979574203491e-02
-2.768935821950435638e-02
-1.185403764247894287e-01
-1.216879114508628845e-01
