4.404310602694749832e-03
-2.975411771330982447e-04
1.226339605636894703e-03
-5.927305392106063664e-05
1.402540801791474223e-04
5.189973162487149239e-04
3.697509178891777992e-03
-5.565596744418144226e-03
-1.396963739352941047e-06
7.203737040981650352e-04
3.772177267819643021e-03
-1.626177341677248478e-03
9.046064806170761585e-04
-8.827169076539576054e-04
1.232744660228490829e-03
-3.705724884639494121e-05
2.024812129093334079e-04
6.427887128666043282e-04
2.237892942503094673e-03
5.361495423130691051e-04
3.020587610080838203e-03
1.684415910858660936e-04
0.000000000000000000e+00
1.411629375070333481e-03
-3.383553354069590569e-03
-6.280229426920413971e-04
5.229153321124613285e-04
-1.438114850316196680e-05
-1.103387097828090191e-03
-2.780090551823377609e-03
2.554926788434386253e-03
1.454164506867527962e-03
9.481654851697385311e-04
-1.076687476597726345e-03
-6.604696973226964474e-04
-1.528276014141738415e-03
-8.324476075358688831e-04
-2.463140757754445076e-03
-3.620051313191652298e-03
1.636928413063287735e-03
-3.010368905961513519e-03
2.934157615527510643e-03
-6.876038387417793274e-04
-1.062638242729008198e-03
2.747292910498799756e-06
-1.630859042052179575e-04
1.744333421811461449e-03
-1.346253906376659870e-03
-1.420706510543823242e-03
5.215562414377927780e-03
0.000000000000000000e+00
-3.973782528191804886e-03
1.827862230129539967e-03
-5.695919040590524673e-03
-4.854093131143599749e-04
-1.703427289612591267e-03
2.886509289965033531e-03
8.820071816444396973e-04
-2.021350897848606110e-03
1.990297809243202209e-03
-1.036964822560548782e-03
8.142499136738479137e-04
-2.047813497483730316e-03
7.456092862412333488e-05
1.400543143972754478e-03
4.421284422278404236e-03
3.059676848351955414e-03
-1.302761840634047985e-03
1.161405816674232483e-03
-1.629893435165286064e-03
0.000000000000000000e+00
-1.531622954644262791e-03
4.591424367390573025e-04
-6.548624951392412186e-04
-1.438777195289731026e-03
-4.173195629846304655e-04
2.309119794517755508e-03
6.066779606044292450e-03
2.447900595143437386e-03
2.848541771527379751e-04
-4.217516630887985229e-03
9.784859139472246170e-05
3.713321930263191462e-04
-5.133973536430858076e-05
3.714150516316294670e-04
4.550596349872648716e-04
4.097105935215950012e-03
-4.131802823394536972e-03
1.057682675309479237e-03
8.943531429395079613e-04
1.421056687831878662e-03
2.064102562144398689e-03
-2.014461904764175415e-03
-1.022267097141593695e-04
1.647305791266262531e-03
1.732670003548264503e-03
1.831279064390400890e-06
4.871967830695211887e-04
-4.743400961160659790e-03
-1.590143889188766479e-03
5.264079663902521133e-03
3.556119278073310852e-03
9.739160304889082909e-04
-4.897277336567640305e-03
-7.330966182053089142e-04
2.722429810091853142e-03
-1.504241605289280415e-03
-2.838330692611634731e-05
3.536051372066140175e-04
-1.651120139285922050e-03
-2.634829615999478847e-05
2.231681952252984047e-03
-1.851265667937695980e-03
-1.590151223354041576e-04
-3.394817758817225695e-04
2.271772129461169243e-03
-6.354355718940496445e-04
-1.963970717042684555e-03
6.934443954378366470e-04
1.828263775678351521e-04
-3.768009366467595100e-03
-2.927755122072994709e-04
1.213987590745091438e-03
1.043678639689460397e-04
2.310958225280046463e-04
-6.095101125538349152e-04
1.216944539919495583e-03
1.629213220439851284e-03
