-1.436415710486471653e-03
-1.337847206741571426e-03
-2.794367494061589241e-03
-4.966328269802033901e-04
-3.123256828985176980e-05
-1.391879981383681297e-03
-2.120686694979667664e-04
1.123153837397694588e-03
2.816563239321112633e-03
8.558764238841831684e-05
-1.680090674199163914e-03
2.939481637440621853e-04
1.265023718588054180e-03
-2.926717279478907585e-03
-2.418538555502891541e-03
5.371264996938407421e-04
-5.570862413151189685e-06
-4.304014728404581547e-04
9.535429853713139892e-05
-2.545359020587056875e-04
-9.599510231055319309e-04
6.366738234646618366e-04
1.860206539276987314e-04
6.838708650320768356e-04
1.616414665477350354e-04
8.500849362462759018e-04
7.350225496338680387e-05
1.153729623183608055e-03
3.876895061694085598e-05
9.770870674401521683e-04
-4.185852303635329008e-04
-4.385375650599598885e-04
2.022208063863217831e-04
1.815053168684244156e-03
2.454098139423877001e-04
2.272211131639778614e-04
5.579396383836865425e-04
-1.048855949193239212e-03
3.885347105097025633e-04
-7.188586750999093056e-04
3.102764021605253220e-04
-1.443994580768048763e-03
1.193082425743341446e-03
1.050271093845367432e-04
-1.180821796879172325e-03
-9.027173177855729591e-07
-3.279642201960086823e-03
-1.320200972259044647e-03
-8.087904425337910652e-04
9.472375677432864904e-05
-5.338539995136670768e-05
6.396146491169929504e-04
7.237936952151358128e-04
1.181428320705890656e-03
1.744384528137743473e-03
1.601703930646181107e-03
-1.076654953067190945e-04
-1.029733568429946899e-03
-4.933757591061294079e-04
-8.822688832879066467e-04
-2.951350470539182425e-04
1.222863647853955626e-04
6.720945821143686771e-04
-1.904785167425870895e-03
