-1.883219927549362183e-01
-4.903560131788253784e-02
1.762779355049133301e-01
-1.236879527568817139e-01
2.528948187828063965e-01
1.632805764675140381e-01
1.940641552209854126e-01
-4.132575169205665588e-02
-1.656704992055892944e-01
1.585509181022644043e-01
1.435850858688354492e-01
-1.704170703887939453e-01
-6.085794791579246521e-02
-3.547110036015510559e-02
-2.515626251697540283e-01
-2.569078207015991211e-01
6.337584555149078369e-02
1.284349560737609863e-01
-2.414173930883407593e-01
-2.664480209350585938e-01
-2.279512882232666016e-01
1.695085763931274414e-01
-1.771778613328933716e-01
-4.469901323318481445e-02
-1.734202951192855835e-01
1.073180139064788818e-01
-1.884457170963287354e-01
-1.561561524868011475e-01
3.202123939990997314e-02
-2.427555471658706665e-01
-1.045274920761585236e-02
-8.591181784868240356e-02
1.677691936492919922e-01
2.063719779253005981e-01
-2.700272798538208008e-01
-2.282907813787460327e-02
8.551978319883346558e-02
2.437722533941268921e-01
1.454198658466339111e-01
5.572963133454322815e-02
3.185820579528808594e-02
1.094134151935577393e-01
-7.281080633401870728e-02
-5.091966688632965088e-02
-2.360123246908187866e-01
-1.391547769308090210e-01
3.960376605391502380e-02
-8.716481178998947144e-02
-1.025437004864215851e-02
1.290038675069808960e-01
-3.935484215617179871e-02
-1.679189950227737427e-01
-1.315453499555587769e-01
-1.397612094879150391e-01
-8.218637667596340179e-03
-6.858069449663162231e-02
2.628440260887145996e-01
-2.392077594995498657e-01
2.377074211835861206e-01
2.437520213425159454e-02
-4.697741568088531494e-02
-1.006008125841617584e-02
1.152676045894622803e-01
2.129389718174934387e-02
-3.638560324907302856e-02
2.485678344964981079e-01
2.680823802947998047e-01
7.081145793199539185e-02
4.761166346725076437e-04
1.255491822957992554e-01
-9.932261891663074493e-03
-1.028540283441543579e-01
-2.177697569131851196e-01
-6.700961291790008545e-02
-1.326804012060165405e-01
1.904468983411788940e-01
-1.475792527198791504e-01
1.129239946603775024e-01
-1.892828941345214844e-01
2.155552953481674194e-01
2.286846786737442017e-01
2.243783175945281982e-01
2.688111662864685059e-01
6.620872020721435547e-02
-1.060592606663703918e-01
9.210384450852870941e-03
-7.703646272420883179e-02
1.566862016916275024e-01
-5.803579464554786682e-03
-1.107816323637962341e-01
2.390461862087249756e-01
-2.731873886659741402e-03
-1.412618905305862427e-01
-2.459677308797836304e-01
2.298931628465652466e-01
-9.554803371429443359e-02
-6.567403674125671387e-02
-2.314413636922836304e-01
2.189100235700607300e-01
-2.463296353816986084e-01
-2.716718614101409912e-01
-9.807869046926498413e-02
1.569805443286895752e-01
1.479278039187192917e-02
1.014075279235839844e-01
-2.706291079521179199e-01
-2.262514084577560425e-01
2.447036057710647583e-01
-2.744913287460803986e-02
1.441432088613510132e-01
-1.553984135389328003e-01
-2.222443819046020508e-01
-1.823078095912933350e-02
1.728868782520294189e-01
-1.401410251855850220e-01
1.830325573682785034e-01
-3.708863398060202599e-03
1.757723242044448853e-01
-2.770650433376431465e-03
-1.934884041547775269e-01
1.532688736915588379e-01
-8.888192474842071533e-02
6.750652194023132324e-02
2.713385820388793945e-01
2.657420337200164795e-01
-6.306811422109603882e-02
-3.950385376811027527e-02
-2.403294444084167480e-01
1.053130626678466797e-01
-4.833785071969032288e-02
-2.309909164905548096e-01
-1.093768235296010971e-02
2.169402837753295898e-01
-1.652793586254119873e-01
2.645610570907592773e-01
6.671264767646789551e-02
8.114736527204513550e-02
-8.042541891336441040e-02
1.294662505388259888e-01
-2.588198184967041016e-01
-1.289840936660766602e-01
2.726625800132751465e-01
-1.516602784395217896e-01
-7.800978422164916992e-02
-2.293317168951034546e-01
-1.009050235152244568e-01
-1.606988012790679932e-01
2.121703028678894043e-01
-2.209864705801010132e-01
2.761407196521759033e-02
-1.008678302168846130e-01
8.156258612871170044e-02
1.212554574012756348e-01
8.074728399515151978e-02
-2.271095961332321167e-01
-4.713793471455574036e-02
-1.435313075780868530e-01
1.101174652576446533e-01
-8.103483170270919800e-02
-1.716956496238708496e-02
-3.360385447740554810e-02
-2.584964036941528320e-01
1.214525029063224792e-01
1.079472377896308899e-01
2.027955502271652222e-01
2.664934098720550537e-01
-2.312203645706176758e-01
-1.039320528507232666e-01
-6.451447028666734695e-03
1.631912589073181152e-01
1.591255813837051392e-01
1.442015320062637329e-01
-6.133596226572990417e-02
-2.718287110328674316e-01
3.930957242846488953e-02
-9.778549522161483765e-02
-2.234471738338470459e-01
-4.926049709320068359e-02
4.484019055962562561e-02
-2.195889502763748169e-01
1.051515266299247742e-01
-1.048310846090316772e-01
1.222201511263847351e-01
2.165305018424987793e-01
4.989882558584213257e-02
-3.916158899664878845e-02
1.444866657257080078e-01
-1.189386099576950073e-01
-2.247523665428161621e-01
5.731000006198883057e-02
-2.360970228910446167e-01
2.554990351200103760e-01
1.777621060609817505e-01
-1.558458507061004639e-01
-7.658029347658157349e-02
-1.290366053581237793e-01
1.407888997346162796e-02
-1.013254225254058838e-01
2.190675586462020874e-01
1.119158230721950531e-02
2.738769054412841797e-01
-2.365137040615081787e-01
1.747149974107742310e-01
-2.540527582168579102e-01
8.147608488798141479e-03
1.314255297183990479e-01
1.723145842552185059e-01
6.380480527877807617e-02
-3.701060265302658081e-02
-2.384344190359115601e-01
2.676400244235992432e-01
1.602896600961685181e-01
2.244977205991744995e-01
-1.869782656431198120e-01
2.555412948131561279e-01
1.332156062126159668e-01
-9.882535785436630249e-02
6.085900589823722839e-02
2.599120140075683594e-01
7.775767147541046143e-02
-4.201170057058334351e-02
1.257319003343582153e-01
-3.526082262396812439e-02
-2.446748763322830200e-01
-7.321899384260177612e-02
-5.360873043537139893e-02
1.225653290748596191e-01
2.374296784400939941e-01
2.021171897649765015e-01
-1.924025118350982666e-01
-1.501589566469192505e-01
9.182658791542053223e-02
-8.843539655208587646e-02
-1.469857841730117798e-01
6.710635125637054443e-02
4.057035222649574280e-02
1.076162159442901611e-01
2.609377503395080566e-01
2.696028947830200195e-01
-6.572993099689483643e-02
-2.698965072631835938e-01
1.292108744382858276e-01
2.101985514163970947e-01
-8.188766986131668091e-02
-1.479306519031524658e-01
-5.451838672161102295e-02
-3.320911154150962830e-02
-2.450719624757766724e-01
-3.927181288599967957e-02
1.695329546928405762e-01
2.306091636419296265e-01
-1.634364128112792969e-01
2.698787152767181396e-01
1.618067622184753418e-01
-1.514648646116256714e-01
2.486912310123443604e-01
-3.715741261839866638e-02
2.457548230886459351e-01
-8.744505047798156738e-02
4.454164579510688782e-02
5.777424201369285583e-02
-2.244421839714050293e-01
-9.923954308032989502e-02
-2.703960835933685303e-01
2.575937211513519287e-01
-1.619393378496170044e-01
-2.261643707752227783e-01
-2.542660757899284363e-02
-1.073369532823562622e-01
-7.568927109241485596e-02
-1.941648721694946289e-01
-1.574030369520187378e-01
-1.515745371580123901e-01
2.467644512653350830e-01
-2.196506410837173462e-01
-1.246995925903320312e-01
4.123165458440780640e-02
1.653504669666290283e-01
7.694824784994125366e-02
8.032808452844619751e-02
-3.489182516932487488e-02
-1.025032848119735718e-01
-1.729722172021865845e-01
1.461263447999954224e-01
1.990512572228908539e-02
1.229395493865013123e-01
-6.792093068361282349e-02
2.431106418371200562e-01
-1.354721039533615112e-01
1.841505989432334900e-02
2.631257474422454834e-01
-2.479930780827999115e-02
5.661940202116966248e-02
1.252132356166839600e-01
7.826856523752212524e-02
-1.653686463832855225e-01
-2.193351686000823975e-01
-2.273180782794952393e-01
-2.188872992992401123e-01
2.060193121433258057e-01
-3.342844429425895214e-04
7.723952177911996841e-03
-1.618593931198120117e-01
-3.522738069295883179e-02
1.540279388427734375e-01
-2.505084034055471420e-03
-4.012260586023330688e-02
1.385617256164550781e-01
1.016318723559379578e-01
9.926581382751464844e-02
-1.230519041419029236e-01
1.476717889308929443e-01
1.033946275711059570e-01
1.127727776765823364e-01
3.636686876416206360e-02
-2.190642207860946655e-01
2.162559628486633301e-01
-1.544135063886642456e-01
9.497760981321334839e-02
-8.131504803895950317e-02
9.912848472595214844e-02
1.587567925453186035e-01
-2.625972032546997070e-01
-7.839274406433105469e-02
-1.102675795555114746e-01
1.981538683176040649e-01
-2.339672893285751343e-01
-2.713031470775604248e-01
-2.550071477890014648e-01
-1.027401760220527649e-01
1.549635827541351318e-01
2.488413266837596893e-02
1.228453069925308228e-01
-1.171296387910842896e-01
2.107010334730148315e-01
9.509028494358062744e-02
-2.586928196251392365e-02
-1.426425427198410034e-01
1.629455387592315674e-01
-8.554066531360149384e-03
2.408044636249542236e-01
1.454466134309768677e-01
-2.578419446945190430e-01
2.723021507263183594e-01
1.121934652328491211e-01
1.857421249151229858e-01
-1.851387619972229004e-01
-7.844424992799758911e-02
6.427014619112014771e-02
1.122672203928232193e-02
2.213806509971618652e-01
-1.879433840513229370e-01
-1.197521984577178955e-01
1.835495680570602417e-01
1.113588456064462662e-02
1.370760500431060791e-01
5.839667469263076782e-02
-1.804893463850021362e-01
7.943644374608993530e-02
-4.573905840516090393e-02
-6.972192972898483276e-02
-2.353512197732925415e-01
-1.928689777851104736e-01
1.483755558729171753e-01
2.014976888895034790e-01
-4.197748377919197083e-02
-8.093531429767608643e-02
-2.510722279548645020e-01
1.026977151632308960e-01
2.483618557453155518e-01
3.844754397869110107e-02
1.242299005389213562e-01
-2.552018761634826660e-01
1.701539307832717896e-01
1.560754841193556786e-03
1.657865494489669800e-01
-9.133171290159225464e-02
2.520639300346374512e-01
-2.620254456996917725e-01
1.030490621924400330e-01
8.668574737384915352e-04
-9.396982938051223755e-02
-2.120036780834197998e-01
2.709589004516601562e-01
-1.422903537750244141e-01
1.636807322502136230e-01
-1.249914690852165222e-01
-2.348420321941375732e-01
1.471570730209350586e-01
3.583041578531265259e-02
-9.647282958030700684e-02
-1.173607036471366882e-01
2.401343435049057007e-01
-1.604161709547042847e-01
1.067359670996665955e-01
2.054004520177841187e-01
1.220751777291297913e-01
2.424387782812118530e-01
1.111457049846649170e-01
2.531153559684753418e-01
1.827053278684616089e-01
-2.042990177869796753e-01
1.880237460136413574e-01
-2.045464217662811279e-01
2.446495592594146729e-01
2.234433442354202271e-01
-1.344935745000839233e-01
2.186052203178405762e-01
-2.480190247297286987e-01
4.143038764595985413e-02
2.640441060066223145e-01
2.680797278881072998e-01
-3.653747588396072388e-02
-2.196947485208511353e-01
1.572535783052444458e-01
-1.762221157550811768e-01
-4.351366311311721802e-02
7.734449207782745361e-02
-2.800091914832592010e-02
-6.095170229673385620e-02
1.644722521305084229e-01
-1.510532200336456299e-01
7.215055078268051147e-02
-2.045940905809402466e-01
4.009893164038658142e-02
2.187350541353225708e-01
-1.089149788022041321e-01
6.806977838277816772e-02
-1.144338399171829224e-01
1.077936217188835144e-01
7.924747653305530548e-03
-3.506151493638753891e-03
-1.221127808094024658e-01
-1.097455620765686035e-01
-5.048760026693344116e-02
-2.355522364377975464e-01
-1.680879741907119751e-01
-2.392502725124359131e-01
1.749809682369232178e-01
1.301071941852569580e-01
6.479067355394363403e-02
-1.667533218860626221e-01
-2.378783524036407471e-01
1.005347296595573425e-01
7.548663020133972168e-02
1.504242569208145142e-01
1.729609519243240356e-01
1.050946041941642761e-01
1.748699098825454712e-01
-1.892560720443725586e-01
-1.035217121243476868e-01
-2.163856057450175285e-03
-2.405704855918884277e-01
-6.214617565274238586e-02
3.972518444061279297e-02
-7.985457777976989746e-02
-2.216519862413406372e-01
-3.596730297431349754e-03
-7.560868561267852783e-02
-1.375694721937179565e-01
9.859450161457061768e-02
2.340069711208343506e-01
1.975494772195816040e-01
6.244505196809768677e-02
-5.619286373257637024e-02
1.903112828731536865e-01
-7.236660271883010864e-02
1.693323105573654175e-01
-1.515973508358001709e-01
-2.145188450813293457e-01
-2.495357543230056763e-01
1.340403705835342407e-01
2.662281692028045654e-01
-9.270274639129638672e-02
-1.142706200480461121e-01
-1.014691069722175598e-01
2.716724574565887451e-01
-1.703080832958221436e-01
2.365668863058090210e-01
2.680156528949737549e-01
-7.516637444496154785e-02
-1.986289322376251221e-01
7.464388012886047363e-02
-2.120368927717208862e-01
1.779178380966186523e-01
2.459343820810317993e-01
-1.306419074535369873e-01
-1.962223947048187256e-01
-8.584156632423400879e-02
-2.735795974731445312e-01
2.196688801050186157e-01
-1.683021634817123413e-01
1.699011027812957764e-01
-5.212294682860374451e-02
1.996080875396728516e-01
-1.755196005105972290e-01
2.144573628902435303e-01
-1.180543079972267151e-01
3.244717419147491455e-02
-2.352302223443984985e-01
4.663593322038650513e-02
2.645120620727539062e-01
-1.368935033679008484e-02
2.688713744282722473e-02
-2.479327619075775146e-01
-2.594644129276275635e-01
2.781486697494983673e-02
1.505067944526672363e-01
1.276773214340209961e-01
-5.504081491380929947e-03
-1.897826939821243286e-01
4.732477664947509766e-02
-1.753619872033596039e-02
-6.208931282162666321e-02
1.353640705347061157e-01
-2.510781884193420410e-01
1.602685600519180298e-01
4.048315063118934631e-02
-6.834798306226730347e-02
-5.781036242842674255e-02
-6.192877516150474548e-02
2.566753029823303223e-01
-6.910171359777450562e-02
-2.181631624698638916e-01
2.049487084150314331e-01
2.134750187397003174e-01
1.701024770736694336e-01
-1.132685840129852295e-01
9.660030156373977661e-02
-2.209203541278839111e-01
1.176976561546325684e-01
1.034855097532272339e-01
-2.089283764362335205e-01
-2.544233202934265137e-01
8.668541908264160156e-02
-1.463212221860885620e-01
-2.159520238637924194e-01
-1.440811306238174438e-01
1.754414439201354980e-01
-9.070200473070144653e-02
1.168777197599411011e-01
1.833696216344833374e-01
9.405364841222763062e-02
-1.408599317073822021e-01
3.384382696822285652e-03
-7.145969569683074951e-02
-7.173554599285125732e-02
7.238290458917617798e-02
-8.386829495429992676e-02
-1.789951324462890625e-01
4.095028340816497803e-02
1.887226663529872894e-02
-2.095766365528106689e-02
2.543017454445362091e-02
-2.188842147588729858e-01
-8.161313086748123169e-02
-2.384698763489723206e-02
-1.880630701780319214e-01
-1.364194452762603760e-01
6.163045763969421387e-02
5.983657762408256531e-02
-2.474037408828735352e-01
8.215185254812240601e-02
-1.070482879877090454e-01
-3.029996762052178383e-03
-1.249002218246459961e-01
-7.029673550277948380e-03
1.824646890163421631e-01
1.999163180589675903e-01
1.088703349232673645e-01
2.341816723346710205e-01
1.683243215084075928e-01
6.634423881769180298e-02
-2.203568965196609497e-01
-1.169329360127449036e-01
-2.360063344240188599e-01
3.360920399427413940e-02
-1.574916541576385498e-01
-2.259757071733474731e-01
1.029171496629714966e-01
-4.569290950894355774e-02
-9.526038914918899536e-02
1.216185465455055237e-01
1.415126323699951172e-01
3.905023634433746338e-02
-1.002893596887588501e-01
-4.344196058809757233e-03
2.535676360130310059e-01
8.527226001024246216e-02
-6.654389202594757080e-02
-1.672488749027252197e-01
4.274833202362060547e-02
-2.365017682313919067e-01
-1.554314792156219482e-02
-1.232776716351509094e-01
1.085201501846313477e-01
1.454139947891235352e-01
-1.963974982500076294e-01
-2.044530212879180908e-02
1.489200592041015625e-01
2.083047628402709961e-01
-1.845313608646392822e-02
-8.480811119079589844e-02
-2.552773356437683105e-01
-2.370880991220474243e-01
8.786486834287643433e-02
9.856920689344406128e-02
-2.717574536800384521e-01
4.453181475400924683e-02
-1.236955523490905762e-01
1.638287454843521118e-01
2.019718587398529053e-01
-1.802951395511627197e-01
-6.937130540609359741e-02
-2.483393400907516479e-01
2.118785828351974487e-01
5.889727734029293060e-03
1.196007058024406433e-01
-3.523339331150054932e-02
-4.202897101640701294e-02
9.293369203805923462e-02
-8.475650101900100708e-02
2.017051726579666138e-01
1.672415435314178467e-01
-2.430131137371063232e-01
-5.045624077320098877e-02
-2.628205120563507080e-01
-1.509745270013809204e-01
-2.401103079319000244e-01
5.798503011465072632e-02
-1.232921779155731201e-01
-2.173748314380645752e-01
-2.538946270942687988e-01
-2.296989560127258301e-01
-1.567950397729873657e-01
-9.122028015553951263e-03
-1.939245164394378662e-01
7.498744130134582520e-02
-8.884180337190628052e-02
7.023844122886657715e-02
5.823864042758941650e-02
-1.634391248226165771e-01
-2.151297628879547119e-01
2.652459219098091125e-02
-1.247427463531494141e-01
1.217227801680564880e-02
-1.865897774696350098e-01
-2.573848366737365723e-01
-2.260817438364028931e-01
-1.780242472887039185e-01
2.731140255928039551e-01
-8.796148747205734253e-02
6.966432183980941772e-02
-2.377716451883316040e-01
-3.929301723837852478e-02
2.407390773296356201e-01
2.325472831726074219e-01
6.068172305822372437e-02
-1.682495772838592529e-01
3.953810781240463257e-02
1.714512556791305542e-01
1.839553117752075195e-01
-2.623076140880584717e-01
-7.469657808542251587e-02
-1.692838780581951141e-02
-2.393323369324207306e-02
-1.050487607717514038e-01
-1.070346683263778687e-01
5.585016310214996338e-02
3.503302112221717834e-02
-3.353033587336540222e-02
-2.117170393466949463e-01
-1.704220175743103027e-01
-1.055592205375432968e-02
-2.227787971496582031e-01
-2.629744820296764374e-02
-1.577004045248031616e-01
2.131386399269104004e-01
8.677705377340316772e-02
3.723026439547538757e-02
8.729472011327743530e-02
8.211613446474075317e-02
1.293025612831115723e-01
8.092648535966873169e-02
2.488004863262176514e-01
1.903310567140579224e-01
-1.414426565170288086e-01
2.336119115352630615e-01
9.829727560281753540e-02
4.889878258109092712e-02
-1.376902014017105103e-01
-1.516232937574386597e-01
6.662636250257492065e-02
-9.942420572042465210e-02
-6.101594120264053345e-02
1.547970324754714966e-01
-8.127749711275100708e-02
1.178515795618295670e-02
-2.426822781562805176e-01
2.262875586748123169e-01
1.577960550785064697e-01
-1.178778782486915588e-01
-2.387001812458038330e-01
2.030870914459228516e-01
1.444588601589202881e-01
1.591216623783111572e-01
-2.244958132505416870e-01
1.350460201501846313e-01
-8.132992684841156006e-02
-1.565910317003726959e-02
-1.787680089473724365e-01
-2.267716974020004272e-01
-1.703358143568038940e-01
-1.151253804564476013e-01
2.349919676780700684e-01
-1.117079928517341614e-01
-2.132830582559108734e-02
2.178904414176940918e-01
-2.003218084573745728e-01
-1.933080404996871948e-01
-7.491283118724822998e-02
1.559020280838012695e-01
2.226404696702957153e-01
-2.232934981584548950e-01
-1.210919544100761414e-01
-2.014512717723846436e-01
1.960742622613906860e-01
-1.872844547033309937e-01
-1.694234311580657959e-01
-8.954688161611557007e-02
1.590165346860885620e-01
2.225138992071151733e-01
7.085733115673065186e-02
8.911149576306343079e-03
-1.351013630628585815e-01
1.522456109523773193e-01
9.640620648860931396e-02
-1.506208926439285278e-01
-6.267171353101730347e-02
1.965548545122146606e-01
7.448964565992355347e-02
1.667436957359313965e-01
4.035025462508201599e-02
2.388175576925277710e-01
1.099562868475914001e-01
-2.040211260318756104e-01
-2.355266362428665161e-01
-1.741440743207931519e-01
-1.171386390924453735e-01
6.304950267076492310e-02
5.166605580598115921e-03
-3.141136467456817627e-02
2.183175683021545410e-01
2.710410356521606445e-01
1.265597194433212280e-01
-2.323111146688461304e-01
-2.498610168695449829e-01
-2.462948858737945557e-01
-2.509473562240600586e-01
-2.491386681795120239e-01
6.870482861995697021e-02
-1.512418389320373535e-01
5.764675885438919067e-02
2.678212225437164307e-01
4.058810323476791382e-02
-6.573107838630676270e-02
2.536649405956268311e-01
-1.013440489768981934e-01
-1.262369193136692047e-02
1.584744751453399658e-01
-2.331433594226837158e-01
-3.987978771328926086e-02
2.676024138927459717e-01
1.502327173948287964e-01
2.132741361856460571e-01
1.497083306312561035e-01
3.133439272642135620e-02
2.522509098052978516e-01
7.095669955015182495e-02
1.293671429157257080e-01
2.510831356048583984e-01
-6.885587424039840698e-02
5.881911516189575195e-02
1.720145195722579956e-01
-2.068597823381423950e-01
1.629686057567596436e-01
-1.872128099203109741e-01
-1.546153128147125244e-01
-3.088646195828914642e-02
2.261142581701278687e-01
-1.889811307191848755e-01
2.284543216228485107e-01
-2.277493327856063843e-01
-3.747894242405891418e-02
1.470657736063003540e-01
-2.626843154430389404e-01
-3.619199991226196289e-02
2.272351831197738647e-01
-2.633961737155914307e-01
1.965001374483108521e-01
5.087186396121978760e-02
2.591887414455413818e-01
-2.381026893854141235e-01
-1.399211585521697998e-01
-1.768718063831329346e-01
-1.073613688349723816e-01
2.184408716857433319e-02
-2.717277966439723969e-02
2.364854216575622559e-01
-7.035584002733230591e-02
2.663239240646362305e-01
2.671394683420658112e-02
7.220887579023838043e-03
-1.257154047489166260e-01
-1.845288276672363281e-01
1.770940050482749939e-02
1.507132202386856079e-01
-5.211334303021430969e-02
1.978803128004074097e-01
-1.926401257514953613e-01
4.654811695218086243e-02
-1.810843795537948608e-01
-1.917466968297958374e-01
-1.341970264911651611e-01
1.474658697843551636e-01
3.704236447811126709e-02
3.021056391298770905e-02
-9.161072969436645508e-02
1.185151338577270508e-01
9.653671085834503174e-02
1.740027368068695068e-01
2.460163831710815430e-02
1.133427023887634277e-01
1.376658529043197632e-01
-2.532938122749328613e-01
-2.179374359548091888e-02
-1.213959977030754089e-01
-7.667446881532669067e-02
1.243931874632835388e-01
9.967195987701416016e-02
3.055618889629840851e-02
2.511687576770782471e-01
2.698910832405090332e-01
1.905352622270584106e-01
1.477985829114913940e-01
4.633745551109313965e-02
-5.475207790732383728e-02
-1.925549954175949097e-01
-1.134224086999893188e-01
1.232242286205291748e-01
1.712204515933990479e-01
8.552430197596549988e-03
9.920884855091571808e-03
6.519491970539093018e-02
-9.825567901134490967e-02
-6.494168937206268311e-02
2.257123403251171112e-02
2.203006595373153687e-01
-1.159755140542984009e-01
1.279854178428649902e-01
-1.039851382374763489e-01
6.875629723072052002e-02
-2.200118750333786011e-01
8.054802566766738892e-02
-1.863158792257308960e-01
2.346940785646438599e-01
-1.111416295170783997e-01
1.747304648160934448e-01
7.009279727935791016e-02
-2.642447948455810547e-01
9.073364734649658203e-02
-1.671762168407440186e-01
-7.617975771427154541e-02
-2.063118666410446167e-01
1.600612848997116089e-01
-2.674784362316131592e-01
1.857376843690872192e-02
-1.753313988447189331e-01
-2.015002518892288208e-01
-2.588975727558135986e-01
-2.639307975769042969e-01
-1.803659945726394653e-01
-1.535379439592361450e-01
-2.685827314853668213e-01
2.342455834150314331e-01
1.075795590877532959e-01
2.956616319715976715e-02
1.390881389379501343e-01
2.156207263469696045e-01
-2.379930168390274048e-01
2.233961522579193115e-01
-1.022720858454704285e-01
-1.833959072828292847e-01
1.077235117554664612e-01
-4.168263822793960571e-02
-8.773728460073471069e-02
-1.673821061849594116e-01
-8.191507309675216675e-02
-1.973489671945571899e-01
-2.717228531837463379e-01
-4.842502623796463013e-02
-1.517242472618818283e-02
5.571022629737854004e-02
2.327472716569900513e-01
2.023020833730697632e-01
2.122391015291213989e-01
-2.368422299623489380e-01
-1.645249128341674805e-01
2.477518618106842041e-01
-1.505937129259109497e-01
-6.290839612483978271e-02
-1.701085716485977173e-01
-8.587495237588882446e-02
1.380863785743713379e-01
-2.074051052331924438e-01
-1.601431332528591156e-02
-7.549726217985153198e-02
-7.387366890907287598e-02
-1.421735286712646484e-01
-3.980557620525360107e-02
1.750861853361129761e-01
-1.478367252275347710e-03
-2.430772185325622559e-01
7.488974183797836304e-02
2.130215913057327271e-01
-2.408697009086608887e-01
2.718487977981567383e-01
-4.778385162353515625e-02
-6.735026091337203979e-02
-2.264650464057922363e-01
1.871681213378906250e-01
8.250103145837783813e-02
-5.898971855640411377e-02
-2.433246700093150139e-03
2.052266895771026611e-01
8.561463095247745514e-03
1.755414605140686035e-01
7.537857443094253540e-02
2.403903752565383911e-01
1.205194294452667236e-01
2.622854113578796387e-01
2.561066746711730957e-01
-1.575423479080200195e-01
7.218829542398452759e-02
1.155795231461524963e-01
-6.667237728834152222e-02
6.957309693098068237e-02
-1.518779844045639038e-01
9.249345213174819946e-02
-1.621226966381072998e-01
1.402740478515625000e-01
-1.549193859100341797e-01
-1.226244717836380005e-01
5.265286192297935486e-02
1.078018248081207275e-01
-4.648999869823455811e-02
-9.345912933349609375e-02
-9.401369839906692505e-02
-1.457980871200561523e-01
-2.265477925539016724e-01
-2.100113332271575928e-01
2.475691288709640503e-01
2.608220875263214111e-01
4.361208900809288025e-02
1.055070087313652039e-01
-2.581334412097930908e-01
1.829494237899780273e-01
2.315397858619689941e-01
8.707901090383529663e-02
-2.253507822751998901e-01
2.346094697713851929e-02
3.990337997674942017e-02
8.736899122595787048e-03
-1.293487399816513062e-01
2.091756612062454224e-01
6.822264194488525391e-02
-1.374464780092239380e-01
-2.651761174201965332e-01
2.039737254381179810e-01
-1.231353357434272766e-01
-2.562856078147888184e-01
-2.191648036241531372e-01
-2.510462999343872070e-01
-1.927994489669799805e-01
-1.167621389031410217e-01
-2.241389602422714233e-01
6.165347248315811157e-02
2.695212066173553467e-01
-2.187062352895736694e-01
-2.318083792924880981e-01
-2.330354647710919380e-03
1.301733404397964478e-01
1.703259348869323730e-01
-4.847626760601997375e-02
-2.291559875011444092e-01
3.609992191195487976e-02
3.151262411847710609e-03
7.855258882045745850e-02
-1.459589600563049316e-01
-2.125498605892062187e-03
1.432995945215225220e-01
-1.172912269830703735e-01
2.348691374063491821e-01
-2.034204639494419098e-02
-2.735135853290557861e-01
1.540921330451965332e-01
-1.871244162321090698e-01
-2.061444101855158806e-03
-4.758797213435173035e-02
-3.365518152713775635e-02
1.479891836643218994e-01
-7.173576951026916504e-02
-2.213573604822158813e-01
-2.242341935634613037e-01
1.459733843803405762e-01
2.356398105621337891e-02
-1.271629929542541504e-01
1.231511682271957397e-01
-5.161960422992706299e-02
1.748107075691223145e-01
1.568575501441955566e-01
1.602688431739807129e-01
2.403861284255981445e-01
2.052402496337890625e-01
