-3.096339758485555649e-03
1.160900719696655869e-04
-2.237532462459057570e-04
1.216089818626642227e-03
7.304897997528314590e-03
-5.850720335729420185e-04
2.599597442895174026e-03
3.060482267756015062e-04
2.930753980763256550e-04
-2.154631656594574451e-04
-3.452535718679428101e-03
6.390602793544530869e-04
-4.081995575688779354e-04
-1.692081568762660027e-04
2.167874714359641075e-03
-1.810036948882043362e-03
-2.462393604218959808e-03
-1.120693748816847801e-03
2.055323129752650857e-04
3.175021149218082428e-03
5.069442559033632278e-04
-2.014046622207388282e-04
-6.777713424526154995e-04
-1.395805156789720058e-04
7.563893450424075127e-04
1.223991275765001774e-03
-5.371097940951585770e-03
-5.440131644718348980e-04
-5.958069232292473316e-04
-1.552044996060431004e-03
-1.002015080302953720e-03
2.704366488615050912e-05
-7.591722998768091202e-03
7.227286696434020996e-04
5.547070759348571301e-04
7.125505362637341022e-04
-3.806127468124032021e-03
4.324669018387794495e-03
3.097944194450974464e-03
-1.714208512566983700e-03
4.750357009470462799e-03
7.239684462547302246e-03
1.174665871076285839e-03
3.715612925589084625e-03
2.763445721939206123e-03
-1.617598463781177998e-03
-3.496082033962011337e-03
6.382305291481316090e-04
1.401425222866237164e-03
-3.130509285256266594e-04
-2.048231894150376320e-03
7.914684247225522995e-04
-5.065507721155881882e-03
1.540238037705421448e-03
6.614916026592254639e-03
9.518935112282633781e-04
-3.083940129727125168e-03
-5.795238539576530457e-04
2.645906643010675907e-04
7.262139115482568741e-04
7.025803206488490105e-04
-6.013847305439412594e-04
4.842795897275209427e-03
1.911540282890200615e-03
4.835234489291906357e-03
2.745220903307199478e-03
-1.575454487465322018e-03
-1.026467070914804935e-04
1.786303007975220680e-03
-3.734114114195108414e-03
3.987370990216732025e-03
-8.568837656639516354e-04
2.002689871005713940e-04
-1.608064514584839344e-03
-3.041043877601623535e-03
-2.239718305645510554e-04
-2.565237460657954216e-03
2.426612889394164085e-03
9.751004981808364391e-04
-2.429784974083304405e-03
2.966470492538064718e-04
-2.225876087322831154e-03
3.674066159874200821e-03
-1.149863703176379204e-03
3.360273782163858414e-03
2.164798323065042496e-03
-1.709943870082497597e-03
-6.376411765813827515e-04
-1.170457326225005090e-04
3.100986825302243233e-03
3.445496782660484314e-03
-1.717652892693877220e-03
-1.310012594331055880e-04
9.044527541846036911e-05
9.187834337353706360e-03
-3.372563049197196960e-03
2.916843397542834282e-03
4.860710760112851858e-05
2.326778194401413202e-04
-7.963120879139751196e-05
1.693069003522396088e-03
-2.703191712498664856e-03
-4.537500790320336819e-04
6.336829625070095062e-03
3.189624520018696785e-03
5.850458052009344101e-03
1.262078527361154556e-03
4.027024377137422562e-03
2.244889037683606148e-03
1.227720873430371284e-03
1.077974913641810417e-03
1.163011882454156876e-03
-2.173936227336525917e-03
3.637601912487298250e-04
-6.142452359199523926e-03
1.872659660875797272e-03
4.269300028681755066e-03
-1.092652018996886909e-05
4.897612147033214569e-03
1.748167414916679263e-04
9.725586278364062309e-05
2.004899783059954643e-03
-8.447536383755505085e-04
-8.521634299540892243e-05
1.126623828895390034e-03
9.281795937567949295e-04
-4.803471732884645462e-03
-2.310544252395629883e-03
