3.589822351932525635e-02
5.031065642833709717e-02
-1.697281748056411743e-02
6.557776033878326416e-02
7.190670073032379150e-02
-6.421697139739990234e-02
-6.652821600437164307e-02
-5.299851298332214355e-03
4.416812956333160400e-02
5.499421060085296631e-02
-1.613029837608337402e-02
-1.351615041494369507e-02
4.051159322261810303e-02
-8.398777246475219727e-02
-6.157829985022544861e-02
-4.216947034001350403e-02
5.484329164028167725e-02
9.245297312736511230e-02
-4.724255576729774475e-02
-7.376967370510101318e-02
4.423932731151580811e-02
7.045269012451171875e-02
5.442494153976440430e-02
7.510979473590850830e-02
3.955541551113128662e-02
-7.303199172019958496e-02
-5.455536022782325745e-02
1.547939330339431763e-02
5.254733562469482422e-02
-9.069897234439849854e-02
5.799132585525512695e-02
7.230274379253387451e-03
5.407847464084625244e-03
-1.768916845321655273e-02
4.058581590652465820e-02
4.726094007492065430e-02
1.979432255029678345e-02
9.092418849468231201e-02
4.747661948204040527e-02
-6.126213818788528442e-02
8.995909988880157471e-02
8.414620161056518555e-02
-5.003019794821739197e-02
-9.671412408351898193e-02
-6.880389153957366943e-02
-7.660221308469772339e-02
-2.552328258752822876e-02
1.704304665327072144e-02
-7.130502164363861084e-02
1.235927641391754150e-02
5.581171810626983643e-02
6.135940551757812500e-02
-1.871766149997711182e-02
1.576920598745346069e-02
-8.864894509315490723e-03
-4.294332861900329590e-02
-5.033515393733978271e-03
-8.178643882274627686e-02
1.277615875005722046e-02
-9.606193751096725464e-02
-7.481306046247482300e-02
-7.298365235328674316e-03
2.302221953868865967e-02
8.643296360969543457e-02
6.265300512313842773e-02
-2.173078805208206177e-02
7.051195204257965088e-02
-2.339684218168258667e-02
6.448812782764434814e-02
1.431291550397872925e-02
9.229458868503570557e-02
-6.262744218111038208e-02
7.640847563743591309e-02
-7.391089200973510742e-02
-9.727147221565246582e-02
-8.567646145820617676e-04
6.449346244335174561e-02
-1.709605753421783447e-02
6.003136932849884033e-02
7.537990808486938477e-02
-4.464344307780265808e-02
-7.118448615074157715e-03
-3.372073173522949219e-03
9.085951745510101318e-02
-5.425386875867843628e-02
-3.380355238914489746e-02
-6.833928078413009644e-02
-2.637691050767898560e-02
-7.036307454109191895e-02
5.428783595561981201e-02
-8.040688931941986084e-02
6.845614314079284668e-02
3.381751477718353271e-03
1.303634047508239746e-02
2.049381285905838013e-02
-7.614099979400634766e-02
3.769494593143463135e-02
-4.801334813237190247e-02
-8.346147835254669189e-03
-4.044167324900627136e-02
-2.667464315891265869e-03
-9.789913892745971680e-03
9.647339582443237305e-02
8.336958289146423340e-02
8.395940065383911133e-02
-1.512505859136581421e-02
-4.834287613630294800e-02
6.597094237804412842e-02
7.070325314998626709e-02
-9.624209254980087280e-02
4.819065332412719727e-03
-3.399062901735305786e-02
1.792730391025543213e-02
5.783820152282714844e-02
-7.018884271383285522e-02
6.824201345443725586e-02
-6.593151390552520752e-02
4.699906706809997559e-02
-5.859664455056190491e-02
8.906063437461853027e-02
8.688335120677947998e-02
-5.880876258015632629e-02
1.721604168415069580e-02
5.599793791770935059e-02
-6.113278493285179138e-02
6.874358654022216797e-02
-2.089716494083404541e-03
5.635172128677368164e-02
2.472607046365737915e-02
-7.710079103708267212e-02
-7.946343719959259033e-02
-7.401530444622039795e-02
-4.034981131553649902e-03
3.921292722225189209e-02
-4.127874597907066345e-02
-3.735244646668434143e-02
-9.619928151369094849e-02
6.141458451747894287e-02
6.285092234611511230e-02
-3.340662270784378052e-02
1.922599226236343384e-02
3.464265167713165283e-02
-4.069947451353073120e-02
-5.910768359899520874e-02
-9.203238040208816528e-02
-3.807097673416137695e-04
-3.491935878992080688e-02
9.067118167877197266e-03
-9.404126554727554321e-02
-3.735351935029029846e-02
-1.696570217609405518e-02
-2.175180613994598389e-02
8.673554658889770508e-02
2.739277482032775879e-02
1.172623783349990845e-02
-5.453975871205329895e-02
4.874543845653533936e-02
8.493828773498535156e-02
-5.723987892270088196e-02
-9.756226092576980591e-02
1.746302098035812378e-02
-6.965556740760803223e-02
6.744912266731262207e-02
-4.606844112277030945e-02
9.146060049533843994e-02
-9.674991667270660400e-02
5.616666376590728760e-02
7.139451801776885986e-03
-7.647112011909484863e-03
2.935929596424102783e-02
-9.670901298522949219e-02
-3.004159778356552124e-02
-4.623425379395484924e-02
-8.668857812881469727e-02
-4.852041229605674744e-02
9.789392352104187012e-03
5.067695677280426025e-02
3.050784766674041748e-02
2.007378637790679932e-02
-6.038330495357513428e-02
-8.204504847526550293e-04
5.991776287555694580e-02
-4.934730753302574158e-02
3.832067549228668213e-02
9.675262868404388428e-02
-8.327405154705047607e-02
4.888041317462921143e-02
3.447474539279937744e-02
-2.870901674032211304e-02
9.867802262306213379e-03
4.514510929584503174e-02
-6.135962158441543579e-02
-6.881806999444961548e-02
-6.009097024798393250e-02
-3.894347324967384338e-02
9.768502414226531982e-02
-3.316380828619003296e-02
-5.217047780752182007e-02
-3.588854521512985229e-02
3.226374089717864990e-02
1.305926591157913208e-02
-5.334616452455520630e-02
2.537864446640014648e-02
3.334283828735351562e-02
7.933805882930755615e-02
1.328329741954803467e-02
-4.013124108314514160e-02
1.643956452608108521e-02
-1.005720347166061401e-02
-2.321043610572814941e-02
-6.755948066711425781e-02
-9.127283841371536255e-02
8.292505145072937012e-02
3.978523612022399902e-02
-4.794425889849662781e-02
-2.132041752338409424e-02
9.246255457401275635e-02
3.838543593883514404e-02
1.876513659954071045e-02
-4.587339982390403748e-02
3.877778351306915283e-02
1.929089426994323730e-03
4.397843778133392334e-02
-5.938879027962684631e-02
-3.691358864307403564e-02
9.599331021308898926e-02
-4.798649623990058899e-02
-8.413115143775939941e-02
1.289219409227371216e-02
-9.351164847612380981e-02
-8.570177108049392700e-02
-7.551632821559906006e-02
-4.440102726221084595e-02
7.836231589317321777e-02
-1.108612865209579468e-02
5.267547070980072021e-02
-2.682855725288391113e-02
6.316737830638885498e-02
8.921690285205841064e-03
-6.219914183020591736e-02
8.232519030570983887e-03
9.250719845294952393e-02
1.269684731960296631e-02
8.022233843803405762e-02
6.542846560478210449e-03
-6.159630417823791504e-02
-8.271647989749908447e-02
7.523472607135772705e-02
4.117640852928161621e-02
9.928260743618011475e-02
1.111773401498794556e-02
1.591349393129348755e-02
3.795397281646728516e-02
9.247078001499176025e-02
7.361032068729400635e-03
-1.560063660144805908e-02
7.714942097663879395e-03
-7.642741501331329346e-02
7.245305180549621582e-02
7.564166188240051270e-02
7.132914662361145020e-02
7.086895406246185303e-02
6.891103088855743408e-02
-2.255661040544509888e-02
4.552774131298065186e-03
-8.286043256521224976e-02
-8.765046298503875732e-02
-3.683850914239883423e-02
6.720338761806488037e-02
5.940341949462890625e-02
-2.337299287319183350e-02
9.055811166763305664e-02
7.046316564083099365e-02
-6.505458056926727295e-02
-4.567134380340576172e-02
-4.855789244174957275e-03
-2.554658800363540649e-02
6.563985347747802734e-02
9.293228387832641602e-02
-3.269374370574951172e-02
2.363719046115875244e-03
3.010529279708862305e-02
-2.896398305892944336e-03
-6.630942225456237793e-02
4.754668474197387695e-02
-8.590204268693923950e-02
5.237220227718353271e-02
-1.193259656429290771e-02
-5.823160707950592041e-02
-3.073368966579437256e-02
-8.387651294469833374e-02
1.569803059101104736e-02
4.715116322040557861e-02
-8.997648209333419800e-02
3.484994173049926758e-02
-5.176422372460365295e-02
3.950759768486022949e-02
-1.306307315826416016e-02
-6.545160710811614990e-02
6.567806005477905273e-02
-4.476425796747207642e-02
3.017175197601318359e-02
4.819965362548828125e-02
-7.073909789323806763e-02
8.846771717071533203e-02
-5.864727869629859924e-02
-8.136974275112152100e-02
6.022086739540100098e-02
-5.188135430216789246e-02
-2.133306860923767090e-02
5.290552973747253418e-03
-8.672387152910232544e-02
-6.321467459201812744e-02
9.198623895645141602e-02
-3.032396733760833740e-02
-1.649578660726547241e-02
-3.098024427890777588e-02
9.725140035152435303e-02
-1.249296218156814575e-02
2.464366704225540161e-02
-2.960002422332763672e-02
-6.574294716119766235e-02
3.770561516284942627e-02
-3.917180746793746948e-02
-7.921472191810607910e-02
8.924226462841033936e-02
-7.981063425540924072e-02
-7.480209320783615112e-02
-8.048125356435775757e-02
4.056084156036376953e-02
-7.382772862911224365e-02
8.677931129932403564e-02
8.547657728195190430e-02
-9.926480054855346680e-02
6.093044579029083252e-02
-8.234948664903640747e-02
5.693860352039337158e-02
-8.031280338764190674e-02
-9.648633748292922974e-02
4.718640446662902832e-02
-1.428558677434921265e-02
4.545271396636962891e-02
-8.171618729829788208e-02
1.093437522649765015e-02
3.655721247196197510e-02
-8.388452976942062378e-02
-6.576803326606750488e-02
7.053151726722717285e-02
6.899127364158630371e-02
-2.611415833234786987e-02
-1.550363004207611084e-02
5.441465973854064941e-02
-8.743853121995925903e-02
-6.782122701406478882e-02
7.458770275115966797e-02
-5.341741442680358887e-02
6.451453268527984619e-02
-8.983497321605682373e-02
8.849699795246124268e-02
6.299512088298797607e-02
-3.949389234185218811e-02
-7.425702363252639771e-02
-8.934919536113739014e-02
-5.261506512761116028e-02
-5.402430891990661621e-03
8.000467717647552490e-02
-9.939690679311752319e-02
1.127158850431442261e-02
-4.398342967033386230e-02
-5.523636937141418457e-02
8.427184820175170898e-02
-9.753802418708801270e-02
-7.869155704975128174e-02
-6.677422672510147095e-02
5.976919829845428467e-02
-1.374006271362304688e-03
-5.154304206371307373e-03
-3.250679373741149902e-02
2.397658675909042358e-02
-6.986589729785919189e-02
-8.930935710668563843e-02
-2.870868146419525146e-02
-3.128420561552047729e-02
3.773696720600128174e-02
-3.841245546936988831e-02
-8.109517395496368408e-03
9.489935636520385742e-02
9.952254593372344971e-02
-2.917848527431488037e-03
6.969204545021057129e-02
-3.286043554544448853e-02
-8.522567152976989746e-02
-4.866862669587135315e-02
7.302592694759368896e-02
-9.795709699392318726e-02
-3.859779238700866699e-02
1.996051520109176636e-02
3.327623009681701660e-03
2.765202522277832031e-02
3.619186580181121826e-02
8.955767750740051270e-02
-4.908641427755355835e-02
7.677504420280456543e-02
8.477477729320526123e-02
-2.740003168582916260e-03
-5.548630282282829285e-02
-1.390021294355392456e-02
5.301694571971893311e-02
1.339162886142730713e-02
3.393605351448059082e-02
6.753443181514739990e-02
6.682540476322174072e-02
6.581717729568481445e-02
4.580195248126983643e-02
-4.778755828738212585e-02
-8.083187043666839600e-03
-9.525693953037261963e-03
-9.786503016948699951e-02
-5.801040679216384888e-02
-7.695431262254714966e-02
5.038593709468841553e-02
8.595958352088928223e-04
7.665932178497314453e-02
-2.889649569988250732e-02
-8.410593867301940918e-02
-8.132541179656982422e-02
-3.766055032610893250e-02
2.235019952058792114e-02
-3.642861545085906982e-02
-5.016825348138809204e-02
-8.725626766681671143e-02
2.995575964450836182e-02
-5.064262077212333679e-02
-5.186325311660766602e-02
-5.273966118693351746e-02
3.154627978801727295e-03
8.825746178627014160e-02
2.560435235500335693e-02
-2.320639044046401978e-02
2.474492788314819336e-02
-9.149894118309020996e-02
-7.512368261814117432e-02
1.892935484647750854e-02
3.531560301780700684e-02
-6.782838702201843262e-02
-4.195824265480041504e-03
-1.150936633348464966e-02
-6.714066863059997559e-02
-5.131419003009796143e-02
7.337108254432678223e-02
-1.646719872951507568e-02
-2.759292721748352051e-03
-9.050042927265167236e-02
2.561058104038238525e-02
8.369721472263336182e-02
-3.129264712333679199e-02
2.718894183635711670e-02
8.466675877571105957e-02
-2.952589839696884155e-02
3.138257563114166260e-02
8.478069305419921875e-02
-8.926279097795486450e-02
-3.917142748832702637e-02
-8.714517951011657715e-02
-1.105765998363494873e-02
-1.359637081623077393e-02
-9.455546736717224121e-02
4.225681722164154053e-02
2.659447491168975830e-02
3.102123737335205078e-02
-9.149563312530517578e-02
-5.854889005422592163e-02
-9.930772334337234497e-02
3.817096352577209473e-02
9.563049674034118652e-02
2.121299505233764648e-02
1.334746181964874268e-02
-3.773111104965209961e-02
-9.192143380641937256e-02
6.800064444541931152e-02
-2.238518744707107544e-02
-6.936794519424438477e-02
6.377863883972167969e-02
-8.622740954160690308e-02
-3.975483402609825134e-02
-2.731512486934661865e-02
2.445516735315322876e-02
3.907389938831329346e-02
2.420993894338607788e-02
-6.620448827743530273e-02
-5.021413043141365051e-02
-7.822442054748535156e-02
8.349741995334625244e-02
8.847317099571228027e-02
-1.223218441009521484e-02
-4.341565072536468506e-03
5.834604799747467041e-02
-2.466868609189987183e-02
6.135869026184082031e-02
7.619729638099670410e-02
6.402085721492767334e-02
8.119069039821624756e-02
-2.540277689695358276e-02
-7.454795390367507935e-02
3.685879707336425781e-02
-6.487277150154113770e-02
-2.568897604942321777e-02
-1.486861705780029297e-02
-7.836302369832992554e-02
2.348639070987701416e-03
-8.538244664669036865e-02
4.824864864349365234e-02
-8.101546019315719604e-02
6.469470262527465820e-02
-3.419808298349380493e-02
-9.259404987096786499e-02
-5.797906219959259033e-02
-8.955255895853042603e-02
8.680227398872375488e-02
1.553896814584732056e-02
-3.692046552896499634e-02
-5.166295915842056274e-02
5.779440701007843018e-02
-8.331570029258728027e-02
-7.968291640281677246e-03
5.764883756637573242e-02
6.913959980010986328e-02
-6.023195013403892517e-02
1.925341039896011353e-02
-9.639013558626174927e-02
7.774339616298675537e-02
-2.630358189344406128e-02
6.397390365600585938e-02
1.136348396539688110e-02
-3.474017977714538574e-02
7.997651398181915283e-02
-1.087360084056854248e-03
-3.989629447460174561e-02
-4.596263170242309570e-02
4.268197715282440186e-02
-9.527110308408737183e-02
1.799180358648300171e-02
-7.450940459966659546e-02
-8.639086782932281494e-02
-6.392058730125427246e-02
9.309174120426177979e-02
-2.487514168024063110e-02
1.574533432722091675e-02
-5.994411185383796692e-02
-8.529632538557052612e-02
1.201452314853668213e-02
6.264361739158630371e-02
-4.789797961711883545e-02
-7.988797873258590698e-02
-7.136845588684082031e-02
-2.628368139266967773e-02
-4.142124950885772705e-02
4.996389150619506836e-03
-4.694782197475433350e-03
-9.194616973400115967e-02
-2.249041944742202759e-02
-7.066784799098968506e-02
-8.261302113533020020e-02
7.859092950820922852e-02
-5.100613459944725037e-02
6.807088851928710938e-03
6.284819543361663818e-02
5.577816069126129150e-02
-8.291281759738922119e-03
-3.846006840467453003e-02
6.578463315963745117e-02
8.818584680557250977e-02
1.040622591972351074e-03
8.611023426055908203e-02
-1.412329822778701782e-02
-8.953534066677093506e-02
3.739729523658752441e-02
-8.802028000354766846e-02
5.041047930717468262e-02
9.599861502647399902e-02
8.328399062156677246e-02
9.420716762542724609e-02
-6.751863658428192139e-02
-4.267382621765136719e-02
-7.241666316986083984e-02
-6.273420155048370361e-02
-3.080125898122787476e-02
-5.627423897385597229e-02
4.732526838779449463e-02
-3.412949293851852417e-02
-7.342913746833801270e-02
1.071780920028686523e-03
3.404918313026428223e-02
-8.342970907688140869e-02
1.697529107332229614e-02
2.449661493301391602e-02
-2.945842593908309937e-02
2.280687540769577026e-02
-8.950537443161010742e-02
6.259506940841674805e-02
-6.018391251564025879e-02
-2.961680293083190918e-03
-3.488387167453765869e-02
-2.078821510076522827e-02
-1.999682933092117310e-02
2.191843092441558838e-02
9.532985091209411621e-02
9.957166016101837158e-02
-7.915496826171875000e-03
-9.330455213785171509e-02
-2.826188504695892334e-02
-2.128912508487701416e-02
7.341237366199493408e-02
-3.854123875498771667e-02
3.105196356773376465e-02
-4.926768317818641663e-02
-9.228121489286422729e-02
-9.613994508981704712e-02
-8.204461634159088135e-02
-7.121322304010391235e-02
4.038475453853607178e-03
9.158568084239959717e-02
-7.519862055778503418e-02
-4.606729745864868164e-02
-1.856835931539535522e-02
-7.064608484506607056e-02
9.911984205245971680e-02
1.335086673498153687e-02
2.052046358585357666e-03
-2.938450872898101807e-02
4.176262021064758301e-02
8.458265662193298340e-02
-6.009769812226295471e-02
-7.006039470434188843e-02
-3.882001712918281555e-02
-9.736149013042449951e-02
5.761390924453735352e-02
-1.721253991127014160e-02
6.894180178642272949e-02
-9.479407221078872681e-02
-1.151761412620544434e-02
-7.355296611785888672e-02
-1.593618839979171753e-02
-1.597616076469421387e-02
-2.545833587646484375e-02
-3.403940796852111816e-02
-1.269365847110748291e-02
4.971997439861297607e-02
-5.260648205876350403e-02
-7.597880065441131592e-02
-9.170270711183547974e-02
8.582539856433868408e-02
5.322194099426269531e-02
1.204884797334671021e-02
5.943407118320465088e-02
1.802811771631240845e-02
2.646335959434509277e-02
5.219024419784545898e-02
1.122587919235229492e-02
-9.936014562845230103e-02
4.722155630588531494e-02
9.401272237300872803e-02
7.988636195659637451e-02
-5.760304629802703857e-03
6.019330024719238281e-02
7.395140826702117920e-03
4.139280319213867188e-02
7.793167233467102051e-02
1.147521287202835083e-02
5.079102516174316406e-02
-3.528870642185211182e-03
8.989140391349792480e-02
8.991590142250061035e-02
4.159933328628540039e-02
7.485608756542205811e-02
6.018435955047607422e-02
-7.064442336559295654e-02
-4.969196394085884094e-02
-4.594429582357406616e-02
-7.442744821310043335e-02
8.281904458999633789e-02
-9.426741302013397217e-02
-3.527247905731201172e-02
-9.479752182960510254e-02
5.396769940853118896e-02
4.215489327907562256e-02
1.615286618471145630e-02
-2.180582284927368164e-02
2.045723795890808105e-02
5.581064522266387939e-02
9.239651262760162354e-02
5.859863758087158203e-02
-8.653084933757781982e-02
4.268871247768402100e-02
5.695857107639312744e-03
9.191358089447021484e-02
9.121143817901611328e-02
-6.436161696910858154e-02
2.029625326395034790e-02
1.532778143882751465e-03
5.420225858688354492e-02
9.285861253738403320e-02
5.147416889667510986e-02
-4.810205474495887756e-02
-8.936201035976409912e-02
-6.584794819355010986e-02
5.212895572185516357e-02
-1.353770494461059570e-03
-5.134003981947898865e-02
-9.289135783910751343e-02
5.868968367576599121e-02
-8.922971785068511963e-03
3.370162844657897949e-02
-9.877811372280120850e-02
4.032076895236968994e-02
8.075760304927825928e-02
-1.807460933923721313e-02
-3.927466645836830139e-02
-5.080483853816986084e-02
-6.329744309186935425e-02
-4.918755963444709778e-02
-6.597292423248291016e-02
9.501414000988006592e-02
3.956012427806854248e-02
-8.241322636604309082e-02
1.028761267662048340e-03
-2.387508749961853027e-02
7.232786715030670166e-02
5.056539177894592285e-02
5.180849134922027588e-02
-9.022070467472076416e-02
5.509833991527557373e-02
-8.502211421728134155e-02
8.760043978691101074e-02
4.628643393516540527e-02
-3.323567658662796021e-02
-4.713242128491401672e-02
-7.298454642295837402e-02
-5.468352511525154114e-02
-6.530354171991348267e-02
-1.876960694789886475e-02
6.639601290225982666e-02
3.479188680648803711e-02
-4.599145799875259399e-02
-4.491225630044937134e-02
6.885205209255218506e-02
1.199197769165039062e-02
8.903592824935913086e-02
8.563943207263946533e-02
4.676605761051177979e-02
3.092586994171142578e-02
-1.079940795898437500e-02
9.629653394222259521e-02
-6.031740084290504456e-02
5.337986350059509277e-02
1.319508999586105347e-02
6.020781397819519043e-02
8.195388317108154297e-02
-9.005926549434661865e-02
5.299156904220581055e-02
4.328508675098419189e-02
5.818419158458709717e-02
-2.599108219146728516e-02
9.547622501850128174e-02
9.298244118690490723e-02
-5.093552544713020325e-02
-8.681315183639526367e-02
7.289640605449676514e-02
2.397254854440689087e-02
2.548165619373321533e-02
9.926922619342803955e-03
-8.960373699665069580e-02
8.542884886264801025e-02
5.269376933574676514e-02
-7.543280720710754395e-03
3.724046051502227783e-02
1.547537744045257568e-02
3.967188298702239990e-02
7.001644372940063477e-02
-7.991944253444671631e-02
7.093645632266998291e-03
-5.218191817402839661e-02
-1.154736429452896118e-02
-4.443256184458732605e-02
-9.900430589914321899e-02
-8.455355465412139893e-02
-4.997082054615020752e-03
-7.847387343645095825e-02
9.352903068065643311e-02
-1.499751210212707520e-02
6.796848773956298828e-02
6.081266701221466064e-02
-7.745786011219024658e-02
1.172273606061935425e-02
-8.254305273294448853e-02
3.888612985610961914e-02
2.313499897718429565e-02
9.291906654834747314e-02
5.121648311614990234e-03
1.299626380205154419e-02
-3.197319805622100830e-03
-8.643859624862670898e-02
4.974459111690521240e-02
9.377674758434295654e-02
-7.393023371696472168e-02
-4.259598627686500549e-02
3.185144066810607910e-02
-5.908979848027229309e-02
-9.565728157758712769e-02
1.832042634487152100e-02
4.939268529415130615e-02
7.366675138473510742e-02
5.518849194049835205e-02
-2.510763704776763916e-03
9.481512010097503662e-02
6.993228197097778320e-02
-5.479142442345619202e-02
6.588366627693176270e-02
4.363735020160675049e-02
-9.579809755086898804e-02
8.250126242637634277e-02
-3.046606481075286865e-02
8.386984467506408691e-03
-9.693028777837753296e-02
7.218657433986663818e-02
1.137886941432952881e-02
4.389598965644836426e-02
-9.836018085479736328e-02
1.640479266643524170e-02
-3.828562423586845398e-02
-4.199428856372833252e-02
-8.105329424142837524e-02
9.356944262981414795e-02
8.380892872810363770e-02
-4.369214177131652832e-02
-1.805134117603302002e-03
5.529047548770904541e-02
-3.256327658891677856e-02
-2.461153268814086914e-02
-2.858342230319976807e-02
-8.761495351791381836e-02
-1.693419367074966431e-02
4.097416996955871582e-02
-4.965640604496002197e-03
4.469472169876098633e-02
-9.247630834579467773e-02
-3.632314503192901611e-02
-5.667395144701004028e-02
-9.407969564199447632e-02
-3.132604062557220459e-02
-5.347363650798797607e-02
2.400793135166168213e-03
8.333142101764678955e-02
4.702349007129669189e-02
-6.166065856814384460e-02
-8.586403727531433105e-02
8.828037977218627930e-02
2.167910337448120117e-02
6.462247669696807861e-02
3.983940184116363525e-02
-7.149193435907363892e-02
-4.283487796783447266e-04
-9.965804219245910645e-02
1.288935542106628418e-03
-9.380740672349929810e-02
-1.016710698604583740e-02
-3.587065637111663818e-02
9.135656058788299561e-02
-4.073576629161834717e-02
-7.812405377626419067e-02
7.485522329807281494e-02
-4.440107569098472595e-02
8.160859346389770508e-03
3.585609793663024902e-02
-7.216563820838928223e-02
-4.521854221820831299e-03
8.593405783176422119e-02
-7.980909198522567749e-02
-1.922070980072021484e-02
-2.796928584575653076e-02
-4.448683559894561768e-02
5.883333086967468262e-02
5.223305523395538330e-02
-8.933792263269424438e-02
-6.477081775665283203e-02
1.123938709497451782e-02
8.269697427749633789e-02
-6.779554486274719238e-02
4.383186995983123779e-02
7.484751939773559570e-02
-2.940796315670013428e-03
-5.038607865571975708e-02
2.488277107477188110e-02
6.090155243873596191e-02
8.451460301876068115e-02
-3.490102291107177734e-02
8.500058948993682861e-02
-7.327492535114288330e-02
-9.540192782878875732e-02
-6.287944316864013672e-02
-8.048042654991149902e-02
8.532628417015075684e-03
-7.753211259841918945e-02
-6.693157553672790527e-02
8.581526577472686768e-03
-5.856168642640113831e-02
-9.338384121656417847e-02
-7.231397181749343872e-02
-3.966624662280082703e-02
-3.050538152456283569e-02
1.066006720066070557e-02
-3.961580246686935425e-02
5.031366646289825439e-02
-2.853538095951080322e-02
5.454339087009429932e-02
7.154710590839385986e-02
-1.023314893245697021e-03
4.658766090869903564e-02
3.794591128826141357e-02
7.471787929534912109e-02
6.802791357040405273e-02
-9.436134994029998779e-02
-7.563041150569915771e-02
-8.378635346889495850e-02
-6.575611978769302368e-02
7.549642026424407959e-02
-5.234311521053314209e-02
-8.415878564119338989e-02
-2.754179388284683228e-02
-3.865736722946166992e-02
-9.742745757102966309e-02
8.677914738655090332e-03
1.041805744171142578e-02
7.281555235385894775e-02
3.270392119884490967e-02
4.055696725845336914e-02
9.479652345180511475e-02
-7.661189138889312744e-02
2.026761323213577271e-02
-7.755099236965179443e-02
4.849866032600402832e-02
-9.295558929443359375e-02
-3.234055638313293457e-02
4.208566248416900635e-02
-8.022419363260269165e-02
-5.859925970435142517e-02
5.424804985523223877e-03
-6.926886737346649170e-03
4.656642675399780273e-02
9.268006682395935059e-02
-9.089650213718414307e-02
5.882300436496734619e-02
-2.459507435560226440e-02
5.190727114677429199e-02
5.260802805423736572e-02
-2.303009480237960815e-02
6.432203948497772217e-02
-6.797809898853302002e-02
1.479405909776687622e-02
1.980837434530258179e-02
-4.848932847380638123e-02
-5.797734856605529785e-02
6.175260245800018311e-02
4.621991515159606934e-02
-9.449731558561325073e-02
-9.334629029035568237e-02
-7.023669034242630005e-02
9.022139012813568115e-02
-6.973429024219512939e-02
2.614070475101470947e-02
8.929815888404846191e-02
-2.947404980659484863e-02
-4.839897155761718750e-03
-3.608790785074234009e-02
1.367423683404922485e-02
6.972418725490570068e-02
-2.424836158752441406e-03
2.584147453308105469e-02
9.266871213912963867e-02
-7.940612733364105225e-03
-8.400284498929977417e-02
-6.984628736972808838e-03
3.300085663795471191e-02
-7.278914749622344971e-02
-9.886831790208816528e-02
5.325067043304443359e-02
9.864619374275207520e-02
-9.135781228542327881e-02
-7.255120575428009033e-02
-5.804160982370376587e-02
3.511877357959747314e-02
3.397494554519653320e-03
-7.947830110788345337e-02
-7.491701096296310425e-02
9.057462215423583984e-03
1.182869076728820801e-03
5.303162336349487305e-02
7.735751569271087646e-02
-3.291150182485580444e-02
1.024613529443740845e-02
3.122675418853759766e-02
9.715284407138824463e-02
-9.058319032192230225e-03
-7.235202193260192871e-02
-1.599502563476562500e-02
3.008224070072174072e-03
-1.871029287576675415e-02
-4.319611191749572754e-02
-6.898409128189086914e-02
9.265188872814178467e-02
-4.908008873462677002e-02
9.005869925022125244e-02
5.588792264461517334e-02
-6.858923286199569702e-02
-9.565412253141403198e-02
9.415580332279205322e-02
8.393168449401855469e-03
2.571219205856323242e-02
-8.589433878660202026e-02
1.806238293647766113e-02
-8.218675851821899414e-03
-4.302994534373283386e-02
8.749891817569732666e-02
2.841413021087646484e-03
-7.860160619020462036e-02
8.760489523410797119e-02
8.671490848064422607e-02
2.896089851856231689e-02
3.453852236270904541e-02
-7.770615071058273315e-02
5.240395665168762207e-03
3.151969611644744873e-02
9.792065620422363281e-02
-3.484144806861877441e-02
5.747812986373901367e-02
7.997110486030578613e-02
-6.602709740400314331e-02
-6.030306220054626465e-02
-7.952015846967697144e-02
7.958453893661499023e-02
8.662030100822448730e-03
-7.558320462703704834e-02
5.936971306800842285e-02
9.819696843624114990e-02
-8.974345773458480835e-02
-7.445572316646575928e-02
3.982208669185638428e-03
-6.213090941309928894e-02
-6.332384049892425537e-02
-1.785165071487426758e-02
-7.193237543106079102e-04
-2.078436315059661865e-02
-6.220387667417526245e-02
-7.585376501083374023e-03
2.396401017904281616e-02
5.264610052108764648e-02
-6.700486689805984497e-02
-6.759396195411682129e-02
2.152778208255767822e-02
2.560083568096160889e-02
-1.460196822881698608e-02
3.363423049449920654e-02
7.877634465694427490e-02
2.357756346464157104e-02
1.685480773448944092e-02
-2.139210700988769531e-03
-5.036413669586181641e-03
3.793954849243164062e-02
-9.383884817361831665e-02
-1.515895128250122070e-02
7.315760850906372070e-02
6.595958769321441650e-02
-2.135293185710906982e-02
3.735698759555816650e-02
8.292222023010253906e-02
5.906763672828674316e-02
-2.718018740415573120e-02
9.086905419826507568e-02
-5.522345751523971558e-02
-5.804760381579399109e-02
-3.926465287804603577e-02
9.548081457614898682e-02
3.475046157836914062e-02
7.224711775779724121e-02
2.342854440212249756e-02
9.753324091434478760e-02
-1.706551760435104370e-02
7.477214932441711426e-02
1.777385920286178589e-02
4.267646372318267822e-02
6.386046111583709717e-02
7.940597832202911377e-02
-6.284533441066741943e-02
3.516724705696105957e-02
-7.883317768573760986e-02
5.420337617397308350e-02
6.251178681850433350e-03
-9.539933502674102783e-02
-1.048595458269119263e-02
3.788764774799346924e-02
-6.867454200983047485e-02
-8.394973725080490112e-02
4.782035946846008301e-02
6.007705628871917725e-02
-9.822424501180648804e-02
-9.277477860450744629e-02
-9.834106266498565674e-02
9.504947066307067871e-02
-5.662850290536880493e-02
7.658861577510833740e-02
8.236722648143768311e-02
6.943182647228240967e-02
-2.088795602321624756e-02
7.877084612846374512e-02
-8.674877136945724487e-02
1.667774468660354614e-02
-2.223647385835647583e-02
-3.045993298292160034e-02
2.055949717760086060e-02
-7.762543112039566040e-02
9.511634707450866699e-02
-9.942501783370971680e-02
-7.928204536437988281e-02
-9.048378467559814453e-02
-7.494702935218811035e-02
7.582126557826995850e-02
-2.238623797893524170e-03
7.961845397949218750e-02
4.416653513908386230e-02
-3.477738052606582642e-02
-2.288281172513961792e-02
-2.252205461263656616e-02
-7.265170663595199585e-02
-1.355132460594177246e-02
-7.353957742452621460e-02
4.020299017429351807e-02
-6.654550880193710327e-02
-3.481730818748474121e-04
-9.627624601125717163e-02
5.168727040290832520e-02
8.387646079063415527e-02
8.274066448211669922e-02
-1.509692519903182983e-02
-9.878572076559066772e-02
-1.416070759296417236e-02
6.524978578090667725e-02
-8.855856955051422119e-02
2.532884478569030762e-03
-6.052041053771972656e-02
7.696150243282318115e-02
-9.377238154411315918e-02
-4.163179546594619751e-02
1.243466883897781372e-02
8.153353631496429443e-02
6.631644070148468018e-02
-1.677011698484420776e-02
-1.743134111166000366e-02
-9.513133019208908081e-02
-1.214651763439178467e-02
-3.076774626970291138e-02
-8.005414903163909912e-02
2.915771305561065674e-02
-7.782089710235595703e-02
8.563941717147827148e-02
-8.655209094285964966e-02
3.993287682533264160e-02
3.711298108100891113e-02
-8.726889640092849731e-02
3.513644635677337646e-02
-9.882707893848419189e-02
-9.904597699642181396e-02
-3.139253705739974976e-02
-9.660591930150985718e-02
2.582427859306335449e-02
5.404160916805267334e-02
-5.223364382982254028e-02
-7.351946085691452026e-02
9.934552013874053955e-02
9.946711361408233643e-02
1.418858021497726440e-02
1.132859289646148682e-02
9.349028766155242920e-02
3.776557743549346924e-02
1.786970347166061401e-02
-2.133621275424957275e-02
-8.636537194252014160e-02
-9.141265600919723511e-02
-3.033181279897689819e-02
8.790715038776397705e-02
7.152341306209564209e-02
-4.087501391768455505e-02
7.718144357204437256e-02
-6.777551770210266113e-02
-4.166038334369659424e-02
-2.941937744617462158e-02
-1.539014279842376709e-02
4.811123013496398926e-03
1.000804454088211060e-02
-8.695087581872940063e-02
1.011026650667190552e-02
-5.466833710670471191e-03
4.289273917675018311e-02
-6.442187726497650146e-02
5.553606152534484863e-02
-7.466889172792434692e-02
-2.486983686685562134e-02
6.643518805503845215e-03
3.352259099483489990e-02
-3.017073869705200195e-02
-5.946848541498184204e-02
-4.037063568830490112e-02
-7.771473377943038940e-02
4.406750202178955078e-02
4.253174364566802979e-02
5.951662361621856689e-02
3.916308283805847168e-03
-9.331290423870086670e-02
2.716872096061706543e-02
5.267071723937988281e-02
9.034903347492218018e-02
5.972786247730255127e-02
-9.481364488601684570e-02
-7.421350479125976562e-02
2.645686268806457520e-02
-6.140171736478805542e-02
-2.730889618396759033e-02
6.241044402122497559e-02
-1.801650971174240112e-02
-3.668206930160522461e-02
3.659623861312866211e-02
5.771765112876892090e-02
-7.496417313814163208e-02
2.777776122093200684e-02
-5.482735857367515564e-02
-3.743806481361389160e-02
-1.908503472805023193e-02
-8.548589795827865601e-02
-2.761863917112350464e-02
1.792021840810775757e-02
7.991410791873931885e-03
-4.852563142776489258e-04
4.747243225574493408e-02
4.207222163677215576e-02
7.691186666488647461e-02
2.009897679090499878e-02
-6.206151470541954041e-02
6.167945265769958496e-02
-3.628428280353546143e-02
-5.092717707157135010e-02
3.624770045280456543e-02
-8.132919669151306152e-03
9.053353965282440186e-02
-6.516622006893157959e-02
6.078532338142395020e-02
4.392780363559722900e-02
-2.836982905864715576e-02
-4.435581713914871216e-02
2.184824645519256592e-02
-6.662634760141372681e-02
9.915001690387725830e-02
6.621521711349487305e-02
-6.662246584892272949e-02
4.879862070083618164e-02
3.109972178936004639e-02
-6.481735408306121826e-02
2.225897461175918579e-02
3.913722932338714600e-02
-3.923609107732772827e-02
-4.517840594053268433e-02
8.336576819419860840e-02
-3.307742625474929810e-02
6.002630293369293213e-02
8.865620195865631104e-02
-9.706496447324752808e-02
5.146574974060058594e-02
8.968602120876312256e-02
6.067097187042236328e-03
5.234166979789733887e-03
-6.920620054006576538e-02
7.521095871925354004e-02
-9.478770196437835693e-02
-7.138276845216751099e-02
-8.724620193243026733e-02
6.024479866027832031e-03
7.619646191596984863e-02
4.720172286033630371e-02
9.484732151031494141e-02
2.564421296119689941e-02
8.307032287120819092e-03
-2.389977127313613892e-02
-2.279032021760940552e-02
1.547154784202575684e-02
6.613761186599731445e-03
5.639055371284484863e-02
-2.550375461578369141e-02
3.917285799980163574e-02
-8.732575923204421997e-02
-6.965447217226028442e-02
-1.689314842224121094e-02
-2.489547431468963623e-02
-3.322554379701614380e-02
9.961827099323272705e-02
6.178280711174011230e-02
-6.447681784629821777e-02
6.282024085521697998e-02
6.640739738941192627e-02
9.452268481254577637e-02
2.387087792158126831e-02
6.490062177181243896e-02
5.660952627658843994e-02
2.280168980360031128e-02
-2.866230905055999756e-02
-2.865686267614364624e-02
2.967622876167297363e-02
-6.080266088247299194e-02
-3.970738872885704041e-02
9.252499043941497803e-02
3.042404353618621826e-02
-1.949271559715270996e-02
-5.832714214920997620e-02
4.202365875244140625e-03
3.539170324802398682e-02
-6.011196970939636230e-02
-9.416407346725463867e-02
-4.591575637459754944e-02
-8.315307646989822388e-02
8.582027256488800049e-02
4.885792732238769531e-02
2.500991523265838623e-02
3.560896217823028564e-02
-1.638229936361312866e-02
1.682705432176589966e-02
3.564292192459106445e-02
-6.067782640457153320e-02
2.620899677276611328e-02
7.981017231941223145e-03
8.489839732646942139e-02
4.084242880344390869e-02
-6.336053460836410522e-02
-8.224703371524810791e-02
-1.780957728624343872e-02
7.757002115249633789e-02
-6.882025301456451416e-02
8.589698374271392822e-02
1.114344596862792969e-02
3.380702435970306396e-02
9.690165519714355469e-02
-7.520388066768646240e-02
-6.976777315139770508e-02
9.972120821475982666e-02
4.028753936290740967e-02
9.258353710174560547e-02
-9.370394051074981689e-03
-8.425807952880859375e-02
5.644606053829193115e-02
6.654804944992065430e-02
8.998224139213562012e-02
-7.696458697319030762e-02
-9.258851408958435059e-03
2.930721640586853027e-02
5.018439888954162598e-02
5.842781066894531250e-02
-3.019380569458007812e-02
-8.916217088699340820e-02
1.482090353965759277e-02
-7.972285896539688110e-02
7.961076498031616211e-02
-3.794111311435699463e-02
-4.233447462320327759e-02
5.133038759231567383e-02
6.810268759727478027e-02
-5.788940191268920898e-02
-1.432906091213226318e-02
-2.071037143468856812e-02
-8.325125277042388916e-02
8.098083734512329102e-02
-2.977204322814941406e-02
-2.355228364467620850e-02
-1.820087432861328125e-02
6.951496005058288574e-02
4.504536092281341553e-02
1.777050644159317017e-02
-2.584622800350189209e-02
-5.882875993847846985e-02
2.418623119592666626e-02
-8.448035269975662231e-02
3.669281303882598877e-02
-2.153020352125167847e-02
-1.958491653203964233e-02
5.994038283824920654e-02
-4.235999286174774170e-02
-4.403636977076530457e-02
6.668940186500549316e-03
7.665845751762390137e-02
-1.717334985733032227e-02
1.804481446743011475e-02
-7.849963009357452393e-02
9.672157466411590576e-02
3.862942755222320557e-02
9.115318953990936279e-02
-2.701639384031295776e-02
-3.641215711832046509e-02
6.309515237808227539e-02
-5.610307678580284119e-02
2.910543978214263916e-02
-7.956506311893463135e-02
-5.028766766190528870e-02
5.808357894420623779e-02
2.147547900676727295e-02
-3.687366098165512085e-02
-6.299744546413421631e-02
-1.540588587522506714e-02
8.435532450675964355e-02
9.529012441635131836e-02
5.527468025684356689e-02
7.059723138809204102e-02
-3.625686466693878174e-02
-7.382282614707946777e-02
-2.921879291534423828e-02
-2.033475786447525024e-02
-8.724480122327804565e-02
-2.648699283599853516e-02
-6.084109097719192505e-02
9.856502711772918701e-02
5.578330159187316895e-02
-8.903043717145919800e-02
-6.931561976671218872e-02
1.293316483497619629e-03
-2.483007311820983887e-02
-1.924482733011245728e-02
6.716170907020568848e-02
-4.241174086928367615e-02
9.727723896503448486e-03
8.606378734111785889e-02
-9.632305055856704712e-02
3.225389122962951660e-02
8.175583183765411377e-02
-5.961624532938003540e-02
-5.929858610033988953e-02
8.991740643978118896e-02
-8.552787452936172485e-02
-8.296228945255279541e-02
9.471309185028076172e-02
2.457338571548461914e-02
-5.747432634234428406e-02
7.176388800144195557e-02
1.997685432434082031e-02
9.694348275661468506e-02
3.934359550476074219e-02
-3.037873655557632446e-02
2.536208927631378174e-02
6.185047328472137451e-02
5.478769540786743164e-03
9.092506766319274902e-02
-5.030740424990653992e-02
7.107417285442352295e-02
-1.687519252300262451e-02
-2.187964320182800293e-02
3.833727538585662842e-02
-5.792022496461868286e-02
5.084812641143798828e-02
-7.010646164417266846e-02
6.577923893928527832e-02
-4.694249480962753296e-02
9.219110012054443359e-03
-4.319135472178459167e-02
2.551648020744323730e-02
7.658404111862182617e-02
1.802290976047515869e-02
3.092984855175018311e-02
-3.090078383684158325e-02
4.402561485767364502e-02
-5.889035761356353760e-02
5.628727376461029053e-02
8.398762345314025879e-02
8.126303553581237793e-02
2.937954664230346680e-02
-4.947635158896446228e-02
-5.764962732791900635e-02
5.062407255172729492e-02
-5.514994636178016663e-02
-6.328214704990386963e-02
-5.884833633899688721e-03
-1.880376040935516357e-02
-4.860660061240196228e-02
-6.518498063087463379e-02
-3.070785850286483765e-02
-2.886826545000076294e-02
-9.656106680631637573e-02
7.948990166187286377e-02
5.445855855941772461e-02
2.167825400829315186e-02
8.906356990337371826e-02
4.868984222412109375e-02
-7.342787086963653564e-02
-8.619278669357299805e-04
3.762158751487731934e-02
-9.856054931879043579e-02
4.604044556617736816e-02
-1.444511860609054565e-02
-1.929835975170135498e-02
-5.735174939036369324e-02
-2.723783254623413086e-03
3.886319696903228760e-03
-2.266857773065567017e-02
6.929397583007812500e-02
5.601115524768829346e-02
3.209908306598663330e-02
4.227264225482940674e-02
9.778718650341033936e-02
9.315481781959533691e-02
3.599666059017181396e-03
8.088070154190063477e-02
-9.062529355287551880e-02
-9.738774597644805908e-02
-3.816040977835655212e-02
-7.664716243743896484e-02
-4.088124632835388184e-02
5.172607302665710449e-02
9.304305911064147949e-02
9.418389201164245605e-02
-7.346012443304061890e-02
5.674518644809722900e-02
-7.131747901439666748e-03
-6.977738440036773682e-02
2.366163581609725952e-02
-5.348481610417366028e-02
9.189604222774505615e-02
8.358392119407653809e-02
-9.820245951414108276e-02
9.294238686561584473e-02
9.028665721416473389e-02
1.323183625936508179e-02
-1.540450751781463623e-02
-1.883931457996368408e-03
2.401247620582580566e-02
8.730390667915344238e-02
-6.646062433719635010e-02
9.205621480941772461e-02
9.270420670509338379e-02
5.872894823551177979e-02
1.108061522245407104e-02
9.559413790702819824e-02
2.375891059637069702e-02
5.094245076179504395e-02
8.722355961799621582e-02
-5.019363015890121460e-02
1.330448687076568604e-02
-7.090341299772262573e-02
2.549216151237487793e-04
-7.250703871250152588e-03
-7.151038944721221924e-02
-2.955555170774459839e-02
7.513712346553802490e-02
2.808935940265655518e-02
-5.820411443710327148e-02
7.951378822326660156e-02
1.153326779603958130e-02
-3.570865094661712646e-02
2.512297779321670532e-02
6.707671284675598145e-02
2.656951546669006348e-04
1.178787648677825928e-02
-1.971500366926193237e-02
-2.541076391935348511e-02
-2.982546389102935791e-02
-4.125997424125671387e-03
-2.345575392246246338e-02
-4.836723208427429199e-02
-4.318021237850189209e-03
5.945505201816558838e-02
-4.080390557646751404e-02
4.942548274993896484e-02
6.699271500110626221e-02
-2.878303080797195435e-02
9.953904151916503906e-02
-8.513289690017700195e-02
-2.077127993106842041e-02
7.193937897682189941e-03
5.023124814033508301e-02
8.313617110252380371e-02
7.303725183010101318e-02
6.354205310344696045e-03
2.855297923088073730e-02
8.699423074722290039e-02
9.650737047195434570e-05
-6.809154152870178223e-02
-5.103778839111328125e-02
-5.489851906895637512e-02
-5.692345276474952698e-02
-3.811127692461013794e-02
5.411176383495330811e-02
-8.153371512889862061e-03
5.165375769138336182e-02
-1.988481730222702026e-02
8.966906368732452393e-02
-1.108548790216445923e-02
2.357847243547439575e-02
-7.276053726673126221e-02
-7.729088515043258667e-02
-3.305231779813766479e-02
-7.820390164852142334e-03
4.838891327381134033e-02
8.191628754138946533e-02
1.098032295703887939e-02
-7.551319152116775513e-02
8.671306073665618896e-03
-8.657922595739364624e-02
-8.817407488822937012e-02
-6.783504784107208252e-02
7.101619243621826172e-02
4.833005368709564209e-02
-7.060974836349487305e-02
-5.823631584644317627e-02
-6.820267438888549805e-02
-2.167470753192901611e-02
3.165228664875030518e-02
7.055242359638214111e-02
5.100235342979431152e-02
2.145253121852874756e-02
1.089960336685180664e-02
-9.772293269634246826e-03
-1.092012971639633179e-02
8.313913643360137939e-02
4.314723610877990723e-02
-8.334393054246902466e-02
-5.082246288657188416e-02
-6.183976680040359497e-02
7.719786465167999268e-02
7.652133703231811523e-02
-8.829846233129501343e-02
2.521775662899017334e-03
-9.024001657962799072e-03
8.665649592876434326e-02
-5.494841188192367554e-02
-3.861872106790542603e-02
-7.308652251958847046e-02
-5.683058127760887146e-02
4.085789620876312256e-02
9.118327498435974121e-02
-2.080564945936203003e-02
4.778693616390228271e-02
-2.095897495746612549e-02
-6.054571270942687988e-02
-9.971946477890014648e-03
8.037471771240234375e-02
9.715417027473449707e-02
1.291878521442413330e-02
6.243799626827239990e-02
5.554609000682830811e-02
-7.674869149923324585e-02
-2.243931591510772705e-02
4.582974314689636230e-02
-9.784881025552749634e-02
3.036974370479583740e-02
-4.991991817951202393e-02
3.513932228088378906e-03
3.597606718540191650e-02
9.741437435150146484e-02
5.233086645603179932e-02
-1.948022842407226562e-02
8.004915714263916016e-02
4.103825986385345459e-02
5.304232239723205566e-02
-5.822233855724334717e-03
-2.854593843221664429e-02
-1.000609993934631348e-02
-7.553785294294357300e-02
6.758597493171691895e-02
-6.751552224159240723e-02
7.934121787548065186e-02
-6.040427833795547485e-02
-7.049056887626647949e-02
-9.649233520030975342e-02
5.928005278110504150e-02
-3.834391757845878601e-02
-3.979371860623359680e-02
-6.289564073085784912e-03
-3.152824193239212036e-02
6.203439831733703613e-02
4.029263556003570557e-02
3.386053442955017090e-02
2.143343538045883179e-02
4.010581970214843750e-02
-3.121861815452575684e-02
6.209157407283782959e-02
4.650115966796875000e-02
2.179276198148727417e-02
6.023438274860382080e-02
8.821257948875427246e-02
6.003296375274658203e-02
8.423696458339691162e-02
-6.412126123905181885e-02
8.331282436847686768e-02
-6.886589527130126953e-02
-4.226296022534370422e-02
2.930772304534912109e-02
-6.373371183872222900e-02
-2.222187072038650513e-02
-2.561727166175842285e-02
-8.668867498636245728e-02
7.216379046440124512e-02
5.140775442123413086e-02
1.735316962003707886e-02
9.946830570697784424e-02
4.796481132507324219e-02
-4.977270215749740601e-02
-5.042524635791778564e-02
6.140799820423126221e-02
-8.219942450523376465e-02
2.672356367111206055e-02
5.869781970977783203e-02
-8.958932757377624512e-02
-4.927472397685050964e-02
7.954850792884826660e-02
-3.598400205373764038e-02
9.544833004474639893e-02
7.278008759021759033e-02
-4.077674448490142822e-02
-7.892409712076187134e-02
-7.507899403572082520e-02
-1.867504417896270752e-02
2.289917320013046265e-02
-2.767895162105560303e-02
4.280582070350646973e-03
-9.041417390108108521e-02
9.834405779838562012e-02
-4.608411341905593872e-02
