5.356537440093234181e-05
-3.851730434689670801e-05
-1.821274781832471490e-05
-1.379157474730163813e-04
1.469279523007571697e-04
1.256515039131045341e-03
9.293134789913892746e-04
4.124561382923275232e-04
-1.390841905958950520e-03
-4.946042899973690510e-04
2.626329078339040279e-04
-3.673997416626662016e-04
-9.059832082130014896e-04
-5.309382686391472816e-06
6.670892616966739297e-06
-3.092259576078504324e-04
1.992690704355482012e-05
-2.156522241421043873e-04
3.066085919272154570e-04
7.553311297670006752e-04
2.231665275758132339e-04
3.478847502265125513e-04
1.311139640165492892e-04
2.229197853012010455e-04
1.992181787500157952e-04
1.076134387403726578e-03
1.201690974994562566e-05
-5.976086831651628017e-04
-4.606042348314076662e-04
-5.464286659844219685e-04
9.922817844199016690e-05
3.864634199999272823e-04
5.175955011509358883e-04
-3.329688624944537878e-04
-3.656806075014173985e-04
1.003489014692604542e-03
-2.591457450762391090e-04
-5.208918591961264610e-04
-1.387938827974721789e-04
-1.538638898637145758e-04
-4.035730089526623487e-04
-5.068464088253676891e-04
-1.248890293936710805e-05
5.851224341313354671e-05
5.719528999179601669e-04
6.040917360223829746e-04
4.383805207908153534e-05
3.032519889529794455e-04
3.659600406535901129e-05
-5.035555805079638958e-04
-8.976057870313525200e-05
1.154140409198589623e-04
1.940608926815912127e-04
4.047925467602908611e-04
-1.932230134116252884e-06
1.204819927806966007e-04
-3.701117529999464750e-04
-1.147300790762528777e-04
-1.730391668388620019e-04
3.663265670184046030e-04
9.212283475790172815e-05
1.410105964168906212e-03
3.755569341592490673e-04
-3.314080822747200727e-04
