-1.018319372087717056e-02
2.461936473846435547e-01
2.032331824302673340e-01
-5.441267509013414383e-03
-1.766252964735031128e-01
4.233268648386001587e-02
2.181895226240158081e-01
-7.739149779081344604e-02
-1.575491428375244141e-01
1.062914878129959106e-01
2.607665359973907471e-01
3.352690860629081726e-02
2.662664055824279785e-01
-7.594925910234451294e-02
1.765656918287277222e-01
2.170899510383605957e-01
-9.017401188611984253e-02
-1.209335774183273315e-01
6.426353007555007935e-02
1.841276884078979492e-01
1.561506092548370361e-01
-2.428899109363555908e-01
7.995257526636123657e-02
2.104846201837062836e-02
2.443232685327529907e-01
-5.491108074784278870e-02
2.074674665927886963e-01
-1.380584090948104858e-01
-2.714034318923950195e-01
-2.147132009267807007e-01
4.389386251568794250e-02
-1.170610561966896057e-01
-2.102101445198059082e-01
2.268897891044616699e-01
2.707554697990417480e-01
-3.226000070571899414e-02
2.180777490139007568e-01
-2.321991920471191406e-01
-1.335223317146301270e-01
-9.840884804725646973e-02
-1.497602015733718872e-01
7.408250123262405396e-02
1.075360998511314392e-01
2.017412483692169189e-01
-8.373208343982696533e-02
1.077354699373245239e-01
1.887511759996414185e-01
2.290128618478775024e-01
4.679617285728454590e-02
1.530377417802810669e-01
1.166910454630851746e-01
-3.586825728416442871e-02
-1.497214585542678833e-01
-1.880732029676437378e-01
9.564300626516342163e-02
5.398280173540115356e-02
-3.359982371330261230e-02
-2.422245033085346222e-02
1.169269159436225891e-01
2.062797695398330688e-01
1.600876003503799438e-01
1.061811074614524841e-01
2.416973412036895752e-01
2.081266492605209351e-01
-2.619356215000152588e-01
-9.163914620876312256e-02
-1.563023477792739868e-01
-1.397247314453125000e-01
-2.431610040366649628e-02
-1.918545812368392944e-01
4.254010319709777832e-02
-2.700885832309722900e-01
2.188125550746917725e-01
1.866726130247116089e-01
-1.572311520576477051e-01
7.255653850734233856e-03
1.566390879452228546e-02
-1.965995281934738159e-01
2.720576524734497070e-01
-4.579545557498931885e-02
-1.004952043294906616e-01
-9.838122874498367310e-03
2.080891430377960205e-01
-1.645421981811523438e-01
-1.487445086240768433e-01
8.299510926008224487e-02
2.525053322315216064e-01
1.470028162002563477e-01
-1.720561236143112183e-01
-2.522192299365997314e-01
9.666750207543373108e-03
2.142939716577529907e-01
-4.498934745788574219e-02
-7.406602054834365845e-02
-2.299934774637222290e-01
5.755217000842094421e-02
2.562463581562042236e-01
2.674590945243835449e-01
1.580455303192138672e-01
1.518666148185729980e-01
-2.525289058685302734e-01
-5.123344436287879944e-02
5.229551717638969421e-02
-5.817742645740509033e-02
2.368354946374893188e-01
7.444068789482116699e-02
-2.038989216089248657e-01
8.713185787200927734e-02
5.828728899359703064e-02
-1.309275180101394653e-01
-2.153502553701400757e-01
-8.903440833091735840e-02
1.426196396350860596e-01
2.220757156610488892e-01
2.530916929244995117e-01
-1.460567414760589600e-01
-6.639494746923446655e-02
2.057665884494781494e-01
-2.023862451314926147e-01
-2.479897141456604004e-01
1.882813572883605957e-01
-1.259488612413406372e-01
1.284764111042022705e-01
-1.835635602474212646e-01
-1.946993917226791382e-01
-3.397145867347717285e-02
7.497990131378173828e-02
-8.828386664390563965e-02
-1.324736922979354858e-01
4.548046365380287170e-02
2.404495775699615479e-01
2.473855614662170410e-01
-1.402329206466674805e-01
-8.812284097075462341e-03
7.983819395303726196e-02
-4.984159022569656372e-02
-3.330691903829574585e-02
-1.940955966711044312e-01
-9.258240461349487305e-02
7.977761328220367432e-02
-4.277503862977027893e-02
2.099771201610565186e-01
1.471883207559585571e-01
-1.001107394695281982e-01
-2.187188863754272461e-01
2.333965897560119629e-01
-8.158991485834121704e-02
1.758607923984527588e-01
-1.550486832857131958e-01
-1.746774613857269287e-01
-2.197878956794738770e-01
-9.952484071254730225e-02
-2.650951445102691650e-01
2.246829122304916382e-01
1.420662552118301392e-02
-2.483509480953216553e-01
-8.900845050811767578e-02
-2.427423000335693359e-01
2.078537344932556152e-01
-1.064091399312019348e-01
-2.255233824253082275e-01
-2.070816010236740112e-01
-4.823816567659378052e-02
-2.724828720092773438e-01
2.060930430889129639e-01
2.361313253641128540e-01
1.305543482303619385e-01
-3.951290249824523926e-02
-2.177103459835052490e-01
8.149298280477523804e-02
-1.074435412883758545e-01
-1.404465585947036743e-01
-1.127925515174865723e-01
1.705582439899444580e-01
6.850378215312957764e-02
-8.097240328788757324e-02
-2.254100739955902100e-01
1.400275528430938721e-01
-1.229212358593940735e-01
-2.608488686382770538e-02
-1.334820240736007690e-01
-2.558972537517547607e-01
2.351143211126327515e-01
-2.159097045660018921e-01
1.816274672746658325e-01
3.034983994439244270e-03
3.786141797900199890e-02
-2.317290753126144409e-01
9.218988567590713501e-02
6.750120222568511963e-02
7.013907283544540405e-02
3.393167257308959961e-02
4.653215408325195312e-03
1.053050160408020020e-01
2.078925967216491699e-01
4.784989356994628906e-02
1.918292045593261719e-01
-1.076297461986541748e-01
1.656018495559692383e-01
-3.034201264381408691e-02
-2.082733213901519775e-01
1.766040921211242676e-01
4.339995980262756348e-02
1.689960062503814697e-01
-9.321545064449310303e-02
1.999145150184631348e-01
1.165901720523834229e-01
-1.430380791425704956e-01
-2.239740937948226929e-01
3.616809844970703125e-02
1.598361134529113770e-01
-3.101897239685058594e-02
2.188141942024230957e-01
-2.060911506414413452e-01
2.766484022140502930e-02
-1.164878606796264648e-01
-2.618809640407562256e-01
-1.498565673828125000e-01
-6.820355355739593506e-02
-2.572110295295715332e-01
2.446429729461669922e-01
1.649549901485443115e-01
-2.134817242622375488e-01
1.219129562377929688e-02
3.710388904437422752e-03
8.237940073013305664e-02
1.494525372982025146e-01
-1.429060548543930054e-01
1.125881969928741455e-01
-2.098558545112609863e-01
1.889919340610504150e-01
-1.626779437065124512e-01
-2.112548947334289551e-01
-1.143414080142974854e-01
-1.075741052627563477e-01
1.466195583343505859e-01
-1.063644886016845703e-02
-1.577427983283996582e-02
-1.328035593032836914e-01
-8.589147031307220459e-02
7.352787256240844727e-02
1.569366157054901123e-01
-4.143755137920379639e-02
-2.100115716457366943e-01
1.777459383010864258e-01
-2.125806808471679688e-01
1.196107268333435059e-01
-1.808303594589233398e-01
1.220053732395172119e-01
-2.359162867069244385e-01
-1.346230953931808472e-01
-7.221180200576782227e-02
1.722989678382873535e-01
2.389491200447082520e-01
2.536017298698425293e-01
-1.155607551336288452e-01
-1.842173486948013306e-01
-9.953512996435165405e-02
2.210402637720108032e-01
2.694146037101745605e-01
-1.611269563436508179e-01
2.612950205802917480e-01
1.615043282508850098e-01
-1.439547389745712280e-01
1.553755402565002441e-01
2.514302134513854980e-01
2.544248700141906738e-01
1.328671127557754517e-01
1.263490021228790283e-01
-4.423294216394424438e-02
-1.536046266555786133e-01
9.838256239891052246e-02
-2.191992998123168945e-01
-2.261569052934646606e-01
-1.938430964946746826e-01
-2.533656358718872070e-01
2.521977722644805908e-01
-7.551059126853942871e-02
-1.798422187566757202e-01
4.288314282894134521e-02
-1.782950311899185181e-01
-2.300638854503631592e-01
-2.360757142305374146e-01
2.627975940704345703e-01
1.873978525400161743e-01
1.359987556934356689e-01
-2.136955261230468750e-01
1.906103938817977905e-01
-2.307416051626205444e-01
-1.686609089374542236e-01
-1.860890984535217285e-01
1.927500963211059570e-01
-6.252545118331909180e-02
-2.303558140993118286e-01
-1.412621289491653442e-01
2.713195681571960449e-01
1.229799911379814148e-01
1.328341960906982422e-01
-2.207054048776626587e-01
-1.402762979269027710e-01
-7.170210778713226318e-02
1.666256487369537354e-01
2.340549528598785400e-01
3.641051799058914185e-02
-2.304698973894119263e-01
-1.360593587160110474e-01
-1.696214675903320312e-01
9.548569470643997192e-02
-2.330853641033172607e-01
-1.250718683004379272e-01
-1.738912463188171387e-01
7.326804101467132568e-02
6.706319004297256470e-02
1.501498967409133911e-01
2.280580550432205200e-01
2.013490200042724609e-01
1.528373956680297852e-01
1.865396797657012939e-01
-1.646743118762969971e-01
-1.071179583668708801e-01
7.899536192417144775e-02
1.454707682132720947e-01
2.390011698007583618e-01
1.283574402332305908e-01
1.585486344993114471e-02
-1.597119867801666260e-01
-1.344597488641738892e-01
2.562915384769439697e-01
8.513636887073516846e-02
-6.437604874372482300e-02
-2.125416696071624756e-02
5.193106085062026978e-02
-5.596478655934333801e-02
1.560377329587936401e-01
5.149440839886665344e-02
1.638615578413009644e-01
-2.389045506715774536e-01
-1.660008877515792847e-01
-9.022709727287292480e-02
-1.975662112236022949e-01
-1.902543157339096069e-01
-1.778726428747177124e-01
-1.538851410150527954e-01
2.387670576572418213e-01
-1.919151097536087036e-02
-2.438092604279518127e-02
1.612103283405303955e-01
1.383974999189376831e-01
2.720580101013183594e-01
1.836043596267700195e-01
1.382777839899063110e-01
2.426927834749221802e-01
2.662870287895202637e-01
-1.061544120311737061e-01
-2.657108902931213379e-01
-2.247907519340515137e-01
1.301814168691635132e-01
8.773452043533325195e-02
-1.580423563718795776e-01
1.809288859367370605e-01
2.023561894893646240e-01
2.141485512256622314e-01
1.510763764381408691e-01
2.310942113399505615e-01
1.977492868900299072e-01
1.321152150630950928e-01
1.133788749575614929e-01
-6.143426895141601562e-02
7.152625173330307007e-02
-2.592939436435699463e-01
1.591330617666244507e-01
-2.283169627189636230e-01
7.529485970735549927e-02
-1.095133721828460693e-01
1.857962161302566528e-01
1.382852941751480103e-01
-1.560624092817306519e-01
-5.987995490431785583e-02
-9.840314090251922607e-02
1.217312365770339966e-01
1.456077843904495239e-01
-1.864591836929321289e-01
-5.480680614709854126e-02
9.924113750457763672e-03
6.039020046591758728e-02
-1.598235778510570526e-02
-2.564191222190856934e-01
-3.427739813923835754e-02
-1.977963298559188843e-01
4.261411726474761963e-02
-1.052748113870620728e-01
-1.202261354774236679e-02
1.689650416374206543e-01
1.420832127332687378e-01
1.258725970983505249e-01
-1.185619831085205078e-02
1.552712172269821167e-01
1.157932057976722717e-01
-2.540934681892395020e-01
1.508687138557434082e-01
-2.615525126457214355e-01
3.309850022196769714e-02
1.525697559118270874e-01
-2.001674473285675049e-01
-1.929299235343933105e-01
2.499448359012603760e-01
3.919316441169939935e-05
-2.495030313730239868e-01
2.781506627798080444e-02
2.060421407222747803e-01
1.386326253414154053e-01
3.302609547972679138e-02
2.214558869600296021e-01
-1.264838129281997681e-02
4.326044768095016479e-02
-2.473485767841339111e-01
-2.161304056644439697e-01
2.426708489656448364e-01
2.072460651397705078e-01
4.296777397394180298e-02
1.418630629777908325e-01
-2.546747624874114990e-01
6.064167991280555725e-02
2.364666014909744263e-01
2.735594809055328369e-01
2.285869419574737549e-01
1.108620390295982361e-01
-2.686827182769775391e-01
2.353405356407165527e-01
-1.884497106075286865e-01
-2.431720346212387085e-01
1.347416490316390991e-01
-2.024136669933795929e-02
5.774072371423244476e-03
-4.086574912071228027e-02
1.297972053289413452e-01
-2.733599245548248291e-01
-2.142123505473136902e-02
-2.541088163852691650e-01
4.591621086001396179e-02
1.667510420083999634e-01
3.541465150192379951e-03
-2.442826516926288605e-02
7.005158066749572754e-02
-2.254067212343215942e-01
2.524231672286987305e-01
-2.096925675868988037e-01
-2.484142333269119263e-01
8.674879372119903564e-02
-2.197684794664382935e-01
-3.201264888048171997e-02
1.450584977865219116e-01
2.163280993700027466e-01
-1.785719245672225952e-01
-1.947463303804397583e-02
-1.365997195243835449e-01
-4.640125110745429993e-02
8.351062983274459839e-02
-1.633024215698242188e-01
2.169427126646041870e-01
-1.488998234272003174e-01
2.529080808162689209e-01
1.518322378396987915e-01
8.835888653993606567e-02
8.498958498239517212e-02
9.728513658046722412e-02
4.416519030928611755e-02
-2.219400703907012939e-01
-2.477717399597167969e-01
-1.371115148067474365e-01
-2.662568092346191406e-01
9.773026406764984131e-02
2.402434051036834717e-01
-2.331754565238952637e-01
-1.857766807079315186e-01
-3.093144297599792480e-02
-2.199126332998275757e-01
-1.210425347089767456e-01
-8.359272032976150513e-02
-2.122876048088073730e-01
2.604249417781829834e-01
-1.678782701492309570e-01
4.224751517176628113e-02
6.385611742734909058e-02
6.197602674365043640e-02
1.715633571147918701e-01
-1.372153311967849731e-01
2.032639086246490479e-01
2.359537929296493530e-01
-4.806531220674514771e-02
-1.075733453035354614e-01
8.322089165449142456e-02
-1.392621695995330811e-01
-1.575398594141006470e-01
-2.544190287590026855e-01
2.382057756185531616e-01
-1.232659518718719482e-01
-1.350538898259401321e-02
1.650310903787612915e-01
-2.535395091399550438e-03
2.666348218917846680e-01
8.003282546997070312e-02
-9.084107726812362671e-02
-1.606195867061614990e-01
4.279243201017379761e-02
1.101574748754501343e-01
8.391345292329788208e-02
2.600103914737701416e-01
1.535995304584503174e-01
-1.655823141336441040e-01
6.713892519474029541e-02
7.935231178998947144e-02
1.083058789372444153e-01
-2.349741309881210327e-01
-8.417431265115737915e-02
1.423530578613281250e-01
1.306777261197566986e-02
1.476160883903503418e-01
-2.203464061021804810e-01
-3.948945552110671997e-02
-1.728641092777252197e-01
-6.473282724618911743e-02
-1.218608692288398743e-01
2.589424252510070801e-01
-1.818476468324661255e-01
-1.781626939773559570e-01
1.156036779284477234e-01
2.079314440488815308e-01
4.021111503243446350e-02
6.987319886684417725e-02
6.529697030782699585e-02
-1.505487412214279175e-01
-2.660816768184304237e-03
-1.329358220100402832e-01
1.817932575941085815e-01
-7.077768445014953613e-02
2.170485258102416992e-01
2.703886032104492188e-01
-7.501643896102905273e-02
7.719441503286361694e-02
-1.587423235177993774e-01
-1.840107440948486328e-01
-4.027854651212692261e-02
7.870992273092269897e-02
-7.193629443645477295e-02
-7.843926548957824707e-02
8.768681436777114868e-02
-2.505399584770202637e-01
-2.135506868362426758e-01
-2.310232818126678467e-01
3.514999896287918091e-02
2.182632982730865479e-01
-3.348243609070777893e-02
-8.708537369966506958e-02
2.471224069595336914e-01
-5.275075137615203857e-02
-6.318520754575729370e-02
8.300445228815078735e-02
-7.931721955537796021e-02
2.116410285234451294e-01
-2.692948579788208008e-01
3.421290963888168335e-02
1.809449940919876099e-01
-1.041774675250053406e-01
7.845381647348403931e-02
-5.163674056529998779e-02
2.638431191444396973e-01
-8.595788478851318359e-02
2.461384236812591553e-01
-2.121059000492095947e-01
2.389646768569946289e-01
1.332572847604751587e-01
1.877421885728836060e-02
1.605433672666549683e-01
2.029249966144561768e-01
1.802637726068496704e-01
2.288116067647933960e-01
-2.649146318435668945e-01
-9.802478551864624023e-02
-2.697458863258361816e-01
7.864631712436676025e-03
1.027897000312805176e-01
-1.672156602144241333e-01
-7.815179228782653809e-02
1.807820610702037811e-02
-1.327562928199768066e-01
7.869900017976760864e-02
-4.810319095849990845e-02
-1.117042079567909241e-01
-2.457670569419860840e-01
1.142644435167312622e-01
-1.190572679042816162e-01
-2.680744417011737823e-02
1.915529817342758179e-01
-1.153567135334014893e-01
-2.728698849678039551e-01
-2.521439492702484131e-01
1.090028285980224609e-01
2.675913572311401367e-01
2.626988291740417480e-01
2.571827173233032227e-01
-8.393684774637222290e-02
1.424979865550994873e-01
-2.173511832952499390e-01
-2.477926760911941528e-01
-2.443234026432037354e-01
-4.666300490498542786e-02
-1.946615576744079590e-01
-2.355337701737880707e-02
1.919596493244171143e-01
-1.692609935998916626e-01
-2.353027611970901489e-01
1.629236042499542236e-01
-1.645801514387130737e-01
1.797880530357360840e-01
-1.145051717758178711e-01
2.464755624532699585e-01
-7.351712137460708618e-02
5.526413396000862122e-02
-1.190786436200141907e-01
-7.344540953636169434e-02
1.574844419956207275e-01
1.322657167911529541e-01
1.816642135381698608e-01
-2.493434250354766846e-01
-2.341223061084747314e-01
-1.655350327491760254e-01
-2.187361866235733032e-01
-2.397457659244537354e-01
-1.579927206039428711e-01
2.463984191417694092e-01
-1.999206990003585815e-01
-2.448968961834907532e-02
-1.367118507623672485e-01
3.852323070168495178e-02
9.116032719612121582e-02
-2.558265924453735352e-01
-2.477904856204986572e-01
1.541349440813064575e-01
1.478393673896789551e-01
1.544993966817855835e-01
-9.458330273628234863e-02
-6.744879763573408127e-03
1.267234832048416138e-01
7.695319503545761108e-02
9.621068090200424194e-02
1.889340579509735107e-01
-3.188585862517356873e-02
2.284271456301212311e-02
-2.306303977966308594e-01
2.652957141399383545e-01
8.747909218072891235e-03
-1.226568743586540222e-01
-2.257352229207754135e-03
-6.070858240127563477e-02
7.208917289972305298e-02
-2.503888607025146484e-01
1.409594863653182983e-01
-2.462838292121887207e-01
5.353581905364990234e-02
-2.434778064489364624e-01
-2.542967796325683594e-01
-2.684674561023712158e-01
2.473060786724090576e-01
2.534832358360290527e-01
-2.945896051824092865e-02
-1.468441486358642578e-01
-3.694189712405204773e-02
1.507758349180221558e-01
-6.536512635648250580e-03
-8.219567686319351196e-02
-1.662382930517196655e-01
-2.506339848041534424e-01
-5.114376544952392578e-02
-9.600667655467987061e-02
9.607724100351333618e-02
-8.287357538938522339e-02
2.285055629909038544e-02
4.520038608461618423e-03
7.725602388381958008e-02
-6.564021110534667969e-02
2.705028057098388672e-01
-1.366448253393173218e-01
-1.396540701389312744e-01
1.795017868280410767e-01
8.404924720525741577e-02
2.159360051155090332e-02
-2.426046580076217651e-01
4.284793883562088013e-02
-2.406864911317825317e-01
-2.376791536808013916e-01
2.620189785957336426e-01
-7.158335298299789429e-02
-1.511891633272171021e-01
-2.079324871301651001e-01
-2.531395852565765381e-01
-1.287433356046676636e-01
1.884496212005615234e-01
-1.266450136899948120e-01
2.318868488073348999e-01
-2.203557193279266357e-01
-2.120274156332015991e-01
8.758968859910964966e-02
-1.581292450428009033e-01
-3.032653406262397766e-02
1.321560293436050415e-01
-1.674338430166244507e-01
1.247527822852134705e-02
-2.976328879594802856e-02
1.326065063476562500e-01
1.404554694890975952e-01
2.403080910444259644e-01
-4.637093096971511841e-02
-1.236202642321586609e-01
-1.945013254880905151e-01
5.031147599220275879e-02
-1.664667576551437378e-01
1.078981831669807434e-01
-1.303878873586654663e-01
-2.328313142061233521e-01
-4.581640660762786865e-02
6.160005554556846619e-02
-1.857440024614334106e-01
-1.894730031490325928e-01
-2.050720751285552979e-01
-2.244817316532135010e-01
-2.626691758632659912e-01
2.185204476118087769e-01
-2.255311608314514160e-01
1.401666104793548584e-01
1.782743334770202637e-01
1.507924497127532959e-01
7.084218412637710571e-02
-1.420660316944122314e-01
-1.514486223459243774e-01
2.705386281013488770e-01
1.409325748682022095e-01
1.373166888952255249e-01
-1.073477640748023987e-01
2.371858209371566772e-01
-9.122027456760406494e-02
-1.689820736646652222e-01
-1.483980566263198853e-01
1.140661612153053284e-01
1.217194497585296631e-01
9.755609184503555298e-02
1.303889453411102295e-01
-1.577832400798797607e-01
-2.627296149730682373e-01
-5.809687823057174683e-02
-4.809035360813140869e-02
1.271625906229019165e-01
-1.037020236253738403e-01
-2.582384347915649414e-01
1.910386234521865845e-01
2.070229649543762207e-01
2.517618238925933838e-01
-8.177446201443672180e-03
-2.495521903038024902e-01
-2.108355015516281128e-01
-7.167996466159820557e-02
-1.162360534071922302e-01
-3.537394478917121887e-02
4.674301669001579285e-02
5.477330461144447327e-02
-4.951975494623184204e-02
-1.482141911983489990e-01
5.790311098098754883e-02
-1.887995749711990356e-01
-2.596057951450347900e-01
1.637208759784698486e-01
8.655917644500732422e-02
2.541113793849945068e-01
-2.477825880050659180e-01
-2.506754398345947266e-01
-2.063168585300445557e-01
-2.248995751142501831e-01
2.576365768909454346e-01
-8.549577742815017700e-02
-6.362076383084058762e-03
2.595994174480438232e-01
-1.781075298786163330e-01
-8.019585907459259033e-02
-7.381075620651245117e-02
-2.262625247240066528e-01
-9.990146756172180176e-02
2.699308991432189941e-01
2.176987230777740479e-01
-2.633086740970611572e-01
-2.199518084526062012e-01
-2.698437273502349854e-01
1.043783351778984070e-01
3.268370870500802994e-03
-1.328098922967910767e-01
-1.600240170955657959e-01
2.137068510055541992e-01
-1.151209622621536255e-01
-1.227513402700424194e-01
4.293739795684814453e-02
1.431086212396621704e-01
-2.201299816370010376e-01
-2.174370884895324707e-01
-4.409477114677429199e-02
-1.738497465848922729e-01
1.674507558345794678e-01
1.477054655551910400e-01
-2.707617580890655518e-01
1.437061578035354614e-01
-3.656780719757080078e-02
2.688625454902648926e-01
-2.243229895830154419e-01
1.245208606123924255e-01
7.067206501960754395e-02
7.421041838824748993e-03
-1.009668707847595215e-01
-2.724833488464355469e-01
-7.101806253194808960e-02
-1.545976698398590088e-01
2.608588635921478271e-01
-3.431719494983553886e-03
-1.267653703689575195e-01
9.942188113927841187e-02
-1.885064989328384399e-01
5.975982919335365295e-02
-2.332811951637268066e-01
-1.725640892982482910e-01
-2.041823267936706543e-01
3.412510454654693604e-02
-1.273174583911895752e-01
1.282745450735092163e-01
-3.185477480292320251e-02
2.040356583893299103e-02
-5.778129771351814270e-02
-2.730594277381896973e-01
1.982697993516921997e-01
2.713695168495178223e-01
-6.909731030464172363e-02
-2.503870725631713867e-01
-2.321104705333709717e-01
1.433107703924179077e-01
-1.694370955228805542e-01
1.495141386985778809e-01
-1.634776890277862549e-01
1.134886667132377625e-01
2.034750133752822876e-01
-3.149417927488684654e-03
2.232376486063003540e-01
6.206288188695907593e-02
2.470136433839797974e-01
2.046105265617370605e-01
-1.993141621351242065e-01
-1.313946545124053955e-01
-2.600422501564025879e-01
-2.266955077648162842e-01
7.645632326602935791e-02
-5.520411953330039978e-02
1.756913065910339355e-01
-2.410158812999725342e-01
1.183022651821374893e-02
-6.686788052320480347e-02
-2.556235492229461670e-01
2.113550603389739990e-01
-2.454757839441299438e-01
2.141598910093307495e-01
-3.608177229762077332e-02
2.235624641180038452e-01
3.878119960427284241e-02
7.671047002077102661e-02
2.778383204713463783e-04
-1.087377294898033142e-01
8.630053699016571045e-02
-2.219197601079940796e-01
8.794686198234558105e-02
-1.689212322235107422e-01
-1.115342951379716396e-03
9.446977823972702026e-02
-1.342028826475143433e-01
-9.447708725929260254e-02
6.324046105146408081e-02
-1.864998191595077515e-01
1.070183329284191132e-02
-6.826877593994140625e-02
-2.030055820941925049e-01
1.367517262697219849e-01
1.261345460079610348e-04
6.007638946175575256e-02
-1.702898442745208740e-01
1.128914877772331238e-01
8.518349379301071167e-02
1.010477840900421143e-01
-2.716253101825714111e-01
8.716952800750732422e-02
-1.539825797080993652e-01
1.188351064920425415e-01
-1.901098787784576416e-01
-4.790902882814407349e-02
2.569462358951568604e-01
-2.493430078029632568e-01
1.057959944009780884e-01
7.289341837167739868e-02
2.469331622123718262e-01
1.409085392951965332e-01
-2.340872734785079956e-01
4.685725644230842590e-02
-1.949989199638366699e-01
-1.174431573599576950e-02
-7.226421684026718140e-02
1.571720987558364868e-01
-1.616383790969848633e-01
-1.489536166191101074e-01
-2.471494525671005249e-01
2.289326488971710205e-02
8.186542242765426636e-02
1.879845373332500458e-02
-8.299198932945728302e-03
-7.769151031970977783e-02
2.695761620998382568e-01
1.496509909629821777e-01
1.947603821754455566e-01
1.783017367124557495e-01
2.363918870687484741e-01
-1.401772648096084595e-01
-2.348161786794662476e-01
1.402410771697759628e-02
2.292953878641128540e-01
2.122003585100173950e-02
-1.179674491286277771e-01
1.881704628467559814e-01
2.042043507099151611e-01
9.066587686538696289e-02
-1.189558207988739014e-01
-1.765343695878982544e-01
1.362506300210952759e-01
1.190609782934188843e-01
-1.375498920679092407e-01
-4.533800482749938965e-02
8.157809078693389893e-02
1.367730274796485901e-02
8.924160897731781006e-02
-2.546550333499908447e-01
7.838582247495651245e-02
1.378491669893264771e-01
-7.992962747812271118e-02
-2.332379370927810669e-01
6.496834009885787964e-02
-1.662766039371490479e-01
2.330867648124694824e-01
-4.223353788256645203e-02
1.627006083726882935e-01
9.801661223173141479e-02
2.606989741325378418e-01
1.277376413345336914e-01
-7.890451699495315552e-02
6.204827688634395599e-03
-2.585972249507904053e-01
-6.368732452392578125e-02
6.366956233978271484e-02
-2.911398373544216156e-02
-7.156509906053543091e-02
-2.889447286725044250e-02
5.068298429250717163e-02
-1.445567607879638672e-01
2.829540334641933441e-02
8.618120104074478149e-02
-2.457173466682434082e-01
3.522640466690063477e-02
2.574549317359924316e-01
-1.390118747949600220e-01
-6.460279971361160278e-02
-2.194781303405761719e-01
1.471913885325193405e-02
-1.746686846017837524e-01
1.271532475948333740e-01
-7.492368668317794800e-02
2.354620546102523804e-01
-1.788781881332397461e-01
2.309649884700775146e-01
1.161199286580085754e-01
1.742456704378128052e-01
-1.531801372766494751e-01
1.113623529672622681e-01
-5.444808304309844971e-02
2.501080632209777832e-01
-6.870103627443313599e-02
1.453436017036437988e-01
-3.614588081836700439e-02
7.072193920612335205e-02
1.099049374461174011e-01
1.506167557090520859e-02
-1.820605434477329254e-02
-3.000871464610099792e-02
-3.561946377158164978e-02
1.181960385292768478e-02
2.308542877435684204e-01
-2.544883787631988525e-01
-2.121339291334152222e-01
1.880302131175994873e-01
1.761802136898040771e-01
1.047477722167968750e-01
5.391167476773262024e-02
1.060182675719261169e-01
-2.196290791034698486e-01
-2.791071869432926178e-02
-1.155137643218040466e-01
-1.227259635925292969e-02
-1.236198171973228455e-01
-1.048833429813385010e-01
-2.733660936355590820e-01
1.725436002016067505e-01
1.072860881686210632e-02
-1.626165211200714111e-01
2.315152883529663086e-01
-1.395131498575210571e-01
-1.680712848901748657e-01
2.376538515090942383e-01
-1.246135532855987549e-01
1.414088606834411621e-01
-1.748165935277938843e-01
7.570409029722213745e-02
-9.291958063840866089e-02
-6.258261948823928833e-02
-2.135561257600784302e-01
-2.190543115139007568e-01
2.658670842647552490e-01
