-5.643475800752639771e-02
-4.970252979546785355e-03
4.183886200189590454e-02
-1.760812103748321533e-02
4.293017461895942688e-02
-3.709524869918823242e-02
4.028460010886192322e-02
5.251922085881233215e-02
-2.638652175664901733e-02
-5.136745423078536987e-02
1.070908270776271820e-02
-1.516229752451181412e-02
4.043056815862655640e-02
1.913081854581832886e-02
-3.829266130924224854e-02
-4.711667448282241821e-02
-2.633490972220897675e-02
3.904531151056289673e-02
4.045081138610839844e-02
-1.489587128162384033e-02
5.787106975913047791e-02
4.980059340596199036e-02
7.534769363701343536e-03
-5.293847247958183289e-02
4.724061116576194763e-02
-5.478232633322477341e-04
-5.930579826235771179e-02
1.556011568754911423e-02
8.509619161486625671e-03
-4.554666206240653992e-02
-5.187434703111648560e-02
1.615113019943237305e-02
-5.905851721763610840e-02
9.056179784238338470e-03
-1.038819085806608200e-02
-4.805839806795120239e-02
2.715346589684486389e-02
-4.598148912191390991e-02
-6.010442227125167847e-02
4.572019353508949280e-02
9.806764312088489532e-03
6.162425503134727478e-02
-6.313724815845489502e-02
-4.973889887332916260e-02
-4.369006678462028503e-02
-1.248256489634513855e-02
-8.630423806607723236e-03
4.529348388314247131e-02
-3.310536220669746399e-02
3.718891739845275879e-02
-4.432804882526397705e-02
-7.875121198594570160e-03
-4.243453592061996460e-02
5.147246271371841431e-02
-1.943456567823886871e-02
-3.635935857892036438e-02
5.157199129462242126e-02
1.246550399810075760e-02
-4.172455146908760071e-02
5.645618960261344910e-02
1.152549404650926590e-03
-3.467768663540482521e-03
-3.095309808850288391e-02
4.069747775793075562e-02
-2.917861752212047577e-02
-4.773871228098869324e-02
-1.630028337240219116e-02
-4.074583202600479126e-02
2.343685831874608994e-03
-7.510333089157938957e-04
3.234014287590980530e-02
7.003254257142543793e-03
1.709509827196598053e-02
5.752114579081535339e-02
-1.987144723534584045e-02
3.608012944459915161e-02
2.387851290404796600e-02
5.594544857740402222e-02
2.585689537227153778e-02
4.801760986447334290e-02
5.544106289744377136e-02
3.493015840649604797e-02
4.668407514691352844e-02
4.586183652281761169e-02
-5.090457201004028320e-02
9.169179247692227364e-04
6.119857355952262878e-02
-4.263901710510253906e-02
-1.551276817917823792e-02
-3.172695264220237732e-02
-2.257718518376350403e-02
4.022378847002983093e-02
-2.338792430236935616e-03
-5.739774182438850403e-02
-2.036087028682231903e-02
-4.595203697681427002e-02
-2.492749318480491638e-02
1.523031760007143021e-02
-5.585861578583717346e-02
-6.217587366700172424e-02
-4.432660341262817383e-02
7.760106120258569717e-03
-3.963798657059669495e-02
-5.141653120517730713e-02
2.628788724541664124e-02
1.940492540597915649e-02
4.219750687479972839e-02
-3.096623159945011139e-02
-3.208145126700401306e-02
2.793838083744049072e-02
3.027884662151336670e-02
-1.496607996523380280e-02
-5.058097094297409058e-02
3.293002024292945862e-03
-7.476909086108207703e-03
-4.185738787055015564e-02
5.561100691556930542e-02
1.938151940703392029e-02
-3.145723789930343628e-02
-4.756101220846176147e-02
4.749962314963340759e-02
-3.506494313478469849e-02
-4.108775407075881958e-02
-4.490124806761741638e-02
-5.403301492333412170e-02
-3.632212802767753601e-02
-1.163104176521301270e-02
1.673006638884544373e-02
5.110867321491241455e-02
-1.789160631597042084e-02
-4.317402467131614685e-02
-4.149501025676727295e-02
-1.373422890901565552e-02
5.467729642987251282e-02
9.598522447049617767e-03
3.262389078736305237e-02
-6.429284811019897461e-02
-3.125215414911508560e-03
-5.669888108968734741e-02
3.873998299241065979e-02
1.271407771855592728e-02
2.680329792201519012e-02
4.585035517811775208e-02
1.138156745582818985e-02
-5.529230460524559021e-02
-8.487010374665260315e-03
-2.410458400845527649e-02
-3.449817001819610596e-02
4.224451258778572083e-02
-4.182627797126770020e-02
-3.564988821744918823e-02
-1.997040584683418274e-02
-1.823711954057216644e-02
-6.396938860416412354e-02
3.201700979843735695e-03
-1.351026259362697601e-02
3.753608325496315956e-03
2.070119976997375488e-02
-3.622146695852279663e-02
-1.429830398410558701e-02
-3.106740675866603851e-02
-5.390262976288795471e-02
5.018589273095130920e-02
5.994332488626241684e-03
4.909598454833030701e-02
-6.636350881308317184e-03
1.239243336021900177e-02
-3.559410944581031799e-02
1.175313908606767654e-02
-4.998081922531127930e-02
-1.282743085175752640e-02
3.532377257943153381e-02
4.940177500247955322e-02
5.276422202587127686e-02
-3.460464626550674438e-02
4.413756728172302246e-02
9.240125305950641632e-03
-3.638008981943130493e-02
1.885850913822650909e-02
-4.585115984082221985e-02
3.566726669669151306e-02
-6.433410942554473877e-02
4.626150801777839661e-02
6.196382269263267517e-02
5.039913579821586609e-02
-6.397138349711894989e-04
-5.940224044024944305e-03
4.457921907305717468e-02
3.309610858559608459e-02
-1.208063773810863495e-02
-5.120202153921127319e-02
7.923787459731101990e-03
6.156919151544570923e-02
-3.067870251834392548e-02
2.096979506313800812e-02
-4.687431082129478455e-02
-5.577958654612302780e-03
4.822476208209991455e-02
-3.026250191032886505e-02
-6.307347863912582397e-02
3.146474435925483704e-02
-7.828004658222198486e-03
5.190395191311836243e-02
-3.187490627169609070e-02
3.604156523942947388e-02
-2.749735862016677856e-02
4.465732723474502563e-02
6.444518268108367920e-02
-2.009515278041362762e-02
9.292965405620634556e-04
5.801491439342498779e-02
1.093620713800191879e-02
-2.559741772711277008e-02
5.321532487869262695e-02
-6.082177162170410156e-03
1.637720316648483276e-02
-1.287573575973510742e-02
3.719282522797584534e-02
-7.557966280728578568e-03
2.069504186511039734e-02
1.311634853482246399e-02
1.265039294958114624e-02
4.450345039367675781e-02
-1.664958521723747253e-02
6.133568286895751953e-02
-4.468668997287750244e-02
-3.083599731326103210e-02
-4.030359536409378052e-02
-7.151094265282154083e-03
-6.107230484485626221e-02
1.152483187615871429e-02
5.388181656599044800e-02
2.086680568754673004e-02
-4.428200051188468933e-02
-2.714005485177040100e-02
-8.460609242320060730e-03
-6.219637580215930939e-03
-6.399156898260116577e-02
2.225777320563793182e-02
4.545794427394866943e-02
3.826382383704185486e-02
4.265398252755403519e-03
-1.959316991269588470e-02
3.880036296322941780e-03
2.572344057261943817e-02
-4.365541785955429077e-02
-2.648637257516384125e-02
-2.083838917315006256e-02
4.795831069350242615e-02
-4.827482253313064575e-02
-5.206260364502668381e-03
-5.013869330286979675e-02
1.140037737786769867e-02
2.266346855321899056e-04
-5.140793696045875549e-02
-1.649932004511356354e-03
-1.112002879381179810e-02
2.997318748384714127e-03
-2.891218662261962891e-02
-4.661468043923377991e-02
-4.669860005378723145e-02
2.885725162923336029e-02
2.236215025186538696e-02
6.477883551269769669e-03
2.107516862452030182e-02
-5.485891550779342651e-02
5.873868614435195923e-02
6.826224736869335175e-03
-4.625204484909772873e-03
-3.741350769996643066e-02
-2.637880854308605194e-02
-5.528936907649040222e-02
-5.096838809549808502e-03
-5.737015604972839355e-02
-9.415100328624248505e-03
-1.035091746598482132e-02
-4.119829833507537842e-02
-5.380069464445114136e-02
-3.126211464405059814e-02
4.371732473373413086e-02
-2.406202070415019989e-02
5.557773262262344360e-02
1.771027594804763794e-02
-2.037434838712215424e-02
-4.418805614113807678e-02
-3.090675920248031616e-02
1.044183224439620972e-02
-4.927044734358787537e-02
-3.995237126946449280e-02
4.508516564965248108e-02
-2.807662077248096466e-02
-1.369442231953144073e-02
6.442906707525253296e-02
-1.101059466600418091e-02
2.721784822642803192e-02
2.563814073801040649e-02
4.637589305639266968e-02
1.937156356871128082e-02
-1.282510906457901001e-02
5.799983441829681396e-02
-6.721934769302606583e-03
8.732005953788757324e-03
3.954829648137092590e-03
4.474034905433654785e-02
1.554920710623264313e-02
-2.105104178190231323e-02
3.200341388583183289e-02
-2.128318324685096741e-02
3.125506266951560974e-02
5.635946989059448242e-02
1.287346147000789642e-02
2.722279168665409088e-02
-2.778019197285175323e-02
-3.236941620707511902e-02
4.291326552629470825e-02
1.930220634676516056e-03
3.424324840307235718e-02
2.660911530256271362e-02
-6.392132490873336792e-02
8.812677115201950073e-04
1.116861402988433838e-02
-2.490362897515296936e-02
-6.258154660463333130e-02
-6.556779146194458008e-03
-4.761308059096336365e-02
-2.832196094095706940e-02
-6.510413717478513718e-03
-2.685965411365032196e-02
3.686323761940002441e-02
-3.463540598750114441e-02
-4.597920179367065430e-02
-4.945402964949607849e-02
4.387430101633071899e-02
4.275801032781600952e-02
-2.033673413097858429e-02
-2.397043444216251373e-02
-1.425558002665638924e-03
-9.929236955940723419e-03
-2.419658377766609192e-02
5.892338603734970093e-02
6.052936986088752747e-02
8.381746709346771240e-03
9.208038449287414551e-03
4.515643417835235596e-02
1.130671706050634384e-02
-3.396202251315116882e-02
3.058655001223087311e-02
-1.623129472136497498e-02
-1.119501702487468719e-02
-5.658797919750213623e-02
5.166215449571609497e-02
2.554429229348897934e-03
2.625123970210552216e-02
1.007147016935050488e-03
-3.311078995466232300e-02
-2.778404206037521362e-02
-3.612560033798217773e-02
-1.679629087448120117e-02
2.876955643296241760e-02
-4.511184245347976685e-02
-4.885248839855194092e-02
5.712516605854034424e-02
-1.248434372246265411e-02
-3.415273129940032959e-02
1.254693139344453812e-02
4.524473845958709717e-02
6.432241946458816528e-02
-7.684461772441864014e-03
-9.321133606135845184e-03
-2.370206639170646667e-02
-2.629753760993480682e-02
-2.714417641982436180e-03
-5.533911660313606262e-02
3.269370272755622864e-02
4.094654321670532227e-02
-2.178654633462429047e-02
-2.821073867380619049e-02
-3.993354365229606628e-02
5.719821900129318237e-02
-3.273474052548408508e-02
2.564907446503639221e-02
6.942380685359239578e-03
2.771251089870929718e-02
1.485202554613351822e-02
-3.585946559906005859e-02
-6.138552725315093994e-02
-5.669789388775825500e-02
-5.198525637388229370e-02
-7.921285927295684814e-03
-6.076961010694503784e-02
-5.091891065239906311e-02
-6.724530365318059921e-03
-1.536726951599121094e-02
-2.258401550352573395e-02
3.126526623964309692e-02
-2.176185138523578644e-02
5.996107682585716248e-02
-4.364209249615669250e-02
1.562670059502124786e-02
1.400485821068286896e-02
1.905986294150352478e-02
5.608476698398590088e-02
-4.706103354692459106e-02
5.068802461028099060e-02
-2.267655730247497559e-02
7.621860597282648087e-03
4.163816198706626892e-02
1.541738677769899368e-02
-3.538598865270614624e-02
5.527236312627792358e-02
5.921899154782295227e-02
2.156731486320495605e-02
5.057990178465843201e-02
3.375269100069999695e-02
-2.512265369296073914e-02
-2.125484868884086609e-02
5.580707639455795288e-02
5.291990190744400024e-02
-5.794715881347656250e-02
2.151183225214481354e-02
-3.139866515994071960e-02
-5.978105589747428894e-02
3.743923082947731018e-02
-4.815120715647935867e-03
1.587435044348239899e-02
-3.562789410352706909e-02
1.902013551443815231e-03
-1.334294769912958145e-02
-5.565337464213371277e-02
5.226990208029747009e-02
1.984597928822040558e-02
5.898764356970787048e-02
6.234244629740715027e-02
-1.155690290033817291e-02
-3.156298771500587463e-02
-3.367857635021209717e-02
8.137151598930358887e-03
4.026816412806510925e-02
3.310135006904602051e-02
3.607666585594415665e-03
3.830374032258987427e-02
5.944009870290756226e-02
-6.098550930619239807e-02
-6.125181913375854492e-02
-2.205064147710800171e-02
-3.071207553148269653e-02
2.814913727343082428e-02
-2.610612846910953522e-02
-5.599771812558174133e-02
-5.160341411828994751e-02
-3.724756091833114624e-02
-2.286151051521301270e-02
6.030634418129920959e-02
1.004457101225852966e-02
-1.378063205629587173e-02
5.246907472610473633e-02
-1.681574992835521698e-02
-9.116309694945812225e-03
9.512461721897125244e-03
1.716241054236888885e-02
-2.147938124835491180e-03
-6.105545442551374435e-03
-5.074963346123695374e-02
2.293925546109676361e-02
-1.501697581261396408e-02
3.154376894235610962e-02
-4.099301993846893311e-02
-8.631638251245021820e-03
-4.947701841592788696e-02
-2.165656350553035736e-02
4.019820690155029297e-02
3.453851863741874695e-02
4.193734005093574524e-02
1.687362417578697205e-02
-4.027608782052993774e-02
-1.117489952594041824e-02
9.813289158046245575e-03
4.817317798733711243e-02
1.545361336320638657e-02
-5.270312726497650146e-02
-2.897815778851509094e-02
-1.935699768364429474e-02
-1.126996800303459167e-02
-5.315830931067466736e-02
3.921656683087348938e-02
-2.411960624158382416e-02
2.035736106336116791e-02
-5.598899349570274353e-02
3.122498281300067902e-02
1.393122039735317230e-02
9.336166083812713623e-03
5.754586309194564819e-02
2.853842638432979584e-02
-4.800512269139289856e-02
4.990124329924583435e-02
-4.286579415202140808e-02
6.254533678293228149e-02
-3.537014871835708618e-02
4.349328204989433289e-02
1.887900568544864655e-02
-2.459130994975566864e-02
3.701197728514671326e-02
-2.464894764125347137e-02
-4.031789302825927734e-02
4.496353864669799805e-02
3.101444803178310394e-02
-3.893949836492538452e-02
-1.114381104707717896e-02
-2.982197888195514679e-02
4.347213730216026306e-02
1.295916177332401276e-02
-5.540183559060096741e-02
-1.352823525667190552e-02
-5.840029567480087280e-02
-3.140134364366531372e-02
-4.729140922427177429e-02
-1.234762370586395264e-02
2.318509295582771301e-02
6.079306825995445251e-03
-5.221585184335708618e-02
-4.022808745503425598e-02
-1.074994914233684540e-02
5.373015627264976501e-02
2.605373039841651917e-02
1.914382539689540863e-02
1.545992400497198105e-02
2.570949727669358253e-03
3.984931856393814087e-02
2.806506305932998657e-02
1.629599928855895996e-02
1.829099468886852264e-02
-3.838184475898742676e-02
-2.426501736044883728e-02
4.167393594980239868e-02
-3.428973257541656494e-02
4.872789978981018066e-02
-4.248849675059318542e-02
4.075112566351890564e-02
7.201127242296934128e-03
-5.827894061803817749e-02
-1.051922049373388290e-02
-2.926881238818168640e-02
-2.462394721806049347e-02
-5.546379834413528442e-02
-6.301863491535186768e-02
-5.952756106853485107e-02
-4.010659456253051758e-02
-4.592134431004524231e-02
3.486111760139465332e-02
-1.878963597118854523e-02
-1.362016983330249786e-02
-1.938367844559252262e-03
-2.203155122697353363e-02
4.495918750762939453e-02
2.375902421772480011e-02
-1.054088491946458817e-02
-6.173782050609588623e-02
-8.724273182451725006e-03
2.663462050259113312e-02
3.758403472602367401e-03
-4.224623739719390869e-02
1.814680546522140503e-02
3.180580958724021912e-02
4.191418737173080444e-02
1.156338024884462357e-02
-2.755873836576938629e-02
-5.461064353585243225e-02
-1.387686841189861298e-02
2.594134584069252014e-02
5.449115857481956482e-02
-2.557059749960899353e-02
-1.783488551154732704e-03
4.524032399058341980e-02
1.082047354429960251e-02
-5.563512817025184631e-02
-2.817285433411598206e-02
-3.946840390563011169e-02
-9.507475420832633972e-03
1.590361259877681732e-02
2.506199665367603302e-02
-1.327155344188213348e-02
1.556560397148132324e-02
-5.870934948325157166e-02
-2.569933421909809113e-02
-5.625920370221138000e-02
1.312514767050743103e-02
-2.353862859308719635e-02
-9.323793463408946991e-03
-4.400198534131050110e-02
3.483274579048156738e-02
-9.908333420753479004e-03
2.223407290875911713e-02
5.711648613214492798e-02
2.893818914890289307e-02
4.060332849621772766e-02
-4.357924684882164001e-02
-4.887929186224937439e-02
5.033234506845474243e-02
-6.378208845853805542e-02
4.939429461956024170e-02
-5.010589212179183960e-02
4.800504073500633240e-02
-7.623355835676193237e-03
-5.818645656108856201e-02
5.545029416680335999e-02
2.833723835647106171e-02
4.632465168833732605e-02
5.022983998060226440e-02
-2.328685484826564789e-02
-2.055930532515048981e-02
3.592593595385551453e-02
-1.240060012787580490e-02
2.461167052388191223e-02
-3.837492689490318298e-02
3.104934655129909515e-02
-7.123194634914398193e-03
1.500048395246267319e-02
-3.616415336728096008e-02
2.963144145905971527e-02
4.264283925294876099e-03
-2.433448098599910736e-02
5.834101140499114990e-02
8.531715720891952515e-03
-6.131348013877868652e-02
-2.352313697338104248e-02
1.098354905843734741e-02
4.802213236689567566e-02
-4.748442396521568298e-02
-1.040461845695972443e-02
1.846718229353427887e-02
-5.021644383668899536e-02
-4.908598586916923523e-02
4.260473698377609253e-02
-4.060046747326850891e-02
5.680867284536361694e-02
1.768887974321842194e-02
-6.403602659702301025e-02
1.348940655589103699e-02
-1.959764957427978516e-02
5.965687800198793411e-03
3.767437487840652466e-02
2.126997709274291992e-02
5.240860581398010254e-02
5.263960361480712891e-02
3.722132742404937744e-02
5.905549973249435425e-02
1.260675489902496338e-03
-4.952040687203407288e-02
2.912285178899765015e-02
3.928103297948837280e-02
-4.736844450235366821e-02
6.054043024778366089e-02
6.598725914955139160e-03
-1.989815756678581238e-02
-4.763559624552726746e-02
6.152335554361343384e-02
2.222762256860733032e-02
2.700497210025787354e-02
-2.107084915041923523e-02
-5.764535814523696899e-02
1.055718958377838135e-02
-3.149727359414100647e-02
-4.075046628713607788e-02
-4.460767284035682678e-02
2.170845121145248413e-02
-2.085648104548454285e-02
-2.413655444979667664e-02
4.522026330232620239e-02
-2.152206376194953918e-02
6.758995354175567627e-03
5.537924915552139282e-02
1.079102605581283569e-02
-4.394612461328506470e-02
5.264604091644287109e-02
-2.192213758826255798e-02
6.144232302904129028e-02
-5.204434320330619812e-02
-4.102999344468116760e-02
9.099543094635009766e-04
4.958253353834152222e-02
-3.121336176991462708e-02
4.862091690301895142e-02
-6.093940138816833496e-02
1.358600705862045288e-02
4.083593189716339111e-02
3.112197667360305786e-02
3.390850871801376343e-02
3.769550472497940063e-02
-4.397604614496231079e-03
5.891434848308563232e-03
2.073521167039871216e-02
3.422815352678298950e-02
-3.600973263382911682e-02
2.032274752855300903e-02
-5.174094811081886292e-02
4.437822848558425903e-02
3.035480529069900513e-02
-6.095534563064575195e-02
-7.945902645587921143e-03
3.609205037355422974e-02
-4.500918090343475342e-02
-1.189169287681579590e-02
-1.388989761471748352e-02
-5.968514457345008850e-02
2.754397690296173096e-03
-5.412533879280090332e-03
4.459314793348312378e-02
-2.586258575320243835e-02
-1.756196096539497375e-02
2.538717538118362427e-02
7.930286228656768799e-03
1.113692671060562134e-02
5.151177942752838135e-02
4.500226676464080811e-02
-1.733613014221191406e-02
1.879445463418960571e-02
-1.178196445107460022e-02
4.348699748516082764e-02
-8.513249456882476807e-03
-2.631706371903419495e-02
2.751136571168899536e-02
-5.980369076132774353e-02
-5.668724700808525085e-02
-2.864583954215049744e-02
-3.516744449734687805e-02
-4.782413691282272339e-02
6.001620739698410034e-02
-1.115036383271217346e-02
-2.705888450145721436e-02
-1.705874502658843994e-02
3.051009029150009155e-02
-3.217881172895431519e-02
5.681248754262924194e-02
-3.413093835115432739e-02
2.338498830795288086e-02
-5.026996880769729614e-02
2.167397737503051758e-02
-7.603816688060760498e-03
2.441878616809844971e-02
-4.669857025146484375e-02
2.598343044519424438e-02
-6.297518312931060791e-02
-7.539350539445877075e-03
-5.186913162469863892e-02
4.471103101968765259e-02
-5.948361381888389587e-02
-1.283713802695274353e-02
-3.337020426988601685e-02
-5.131110921502113342e-02
5.273289978504180908e-02
1.275423169136047363e-02
-5.200248211622238159e-03
-2.766116708517074585e-02
8.629247546195983887e-03
-1.033176109194755554e-02
1.603537797927856445e-02
-5.290925502777099609e-03
5.759026110172271729e-02
-9.013958275318145752e-03
-1.026241481304168701e-02
1.004486531019210815e-02
-4.280198365449905396e-02
3.181792050600051880e-02
-6.180427968502044678e-02
2.767731249332427979e-02
-5.553357675671577454e-02
3.063391894102096558e-02
-5.072826519608497620e-02
-1.966147683560848236e-02
-2.153807133436203003e-02
-3.842034935951232910e-02
8.651518262922763824e-03
1.071111182682216167e-03
-9.300860576331615448e-03
2.678782492876052856e-02
-1.582706160843372345e-02
-1.290901284664869308e-02
5.527766048908233643e-02
5.181146785616874695e-02
-5.568389594554901123e-02
-3.581463918089866638e-02
-1.230781897902488708e-02
-5.437459424138069153e-02
6.121723726391792297e-02
-1.746074855327606201e-02
-1.930722594261169434e-02
-6.350331753492355347e-02
2.909261733293533325e-02
-5.580784380435943604e-02
1.325863599777221680e-02
-2.931212820112705231e-02
6.145171821117401123e-03
2.346733212471008301e-02
3.311989456415176392e-02
5.677304416894912720e-02
7.898925803601741791e-03
-1.620720140635967255e-02
-1.344797946512699127e-02
1.806957647204399109e-02
5.944593250751495361e-02
5.210241302847862244e-02
-4.379266500473022461e-02
-1.701179333031177521e-02
5.820763483643531799e-02
-5.828419327735900879e-02
-3.511036187410354614e-02
-2.760087512433528900e-02
2.862286008894443512e-02
6.332013756036758423e-02
6.897036451846361160e-03
2.610772289335727692e-02
-5.327758565545082092e-02
-3.818882629275321960e-02
-3.981517627835273743e-02
4.284601286053657532e-02
2.398335607722401619e-03
-3.068676777184009552e-02
2.857499569654464722e-02
-5.644015222787857056e-02
2.756205759942531586e-02
5.997387692332267761e-02
-4.122444987297058105e-02
3.129848465323448181e-02
-1.965441554784774780e-02
5.500048026442527771e-02
4.879732150584459305e-03
-5.170021578669548035e-02
3.995096310973167419e-02
-6.016843020915985107e-02
-6.016707420349121094e-02
-2.573203109204769135e-02
5.842083692550659180e-02
5.241752415895462036e-02
-4.864302650094032288e-02
-5.975929275155067444e-02
4.891631007194519043e-02
-1.695695891976356506e-02
-1.218361686915159225e-02
-2.562867291271686554e-02
-4.977380484342575073e-02
-2.301517315208911896e-02
4.279150813817977905e-02
1.760867051780223846e-02
-4.433145374059677124e-02
-5.258383229374885559e-02
3.211833909153938293e-02
-2.849954925477504730e-02
4.676511138677597046e-02
5.767050385475158691e-02
1.507260650396347046e-02
-1.493498217314481735e-02
-4.105284065008163452e-02
5.509523302316665649e-02
-1.202897867187857628e-03
-2.610431797802448273e-02
4.360665008425712585e-02
9.531847201287746429e-03
3.748674318194389343e-02
-5.817257333546876907e-03
5.272231623530387878e-02
9.511112235486507416e-03
1.134159415960311890e-02
3.530904650688171387e-03
-3.978855162858963013e-02
-2.483006194233894348e-02
2.173796482384204865e-02
4.056303948163986206e-02
-3.435199335217475891e-02
-3.532249107956886292e-02
-5.122119560837745667e-02
4.882771149277687073e-02
-6.412294507026672363e-02
6.046125199645757675e-03
1.503901276737451553e-02
1.143466215580701828e-02
-1.061364170163869858e-02
6.401974707841873169e-03
6.259597092866897583e-02
-3.105615451931953430e-02
-5.499341338872909546e-02
1.088175340555608273e-03
-5.371676385402679443e-02
1.190960686653852463e-02
-7.197854574769735336e-03
5.035296827554702759e-02
3.646883741021156311e-02
-3.312169015407562256e-02
4.382760822772979736e-02
4.416656494140625000e-02
-1.674793101847171783e-02
1.885928213596343994e-02
2.973007224500179291e-02
3.480837866663932800e-02
-5.215566232800483704e-02
-2.969214878976345062e-02
-1.275964360684156418e-02
-3.648889809846878052e-02
3.561748564243316650e-02
-2.682298421859741211e-02
3.722007200121879578e-02
-4.468466341495513916e-02
3.297548368573188782e-02
-2.437608502805233002e-02
-4.348161071538925171e-02
-5.213538929820060730e-02
-4.960602149367332458e-02
-5.983178690075874329e-02
9.477686136960983276e-03
5.394772067666053772e-02
3.251947835087776184e-02
-3.056109510362148285e-02
5.613042041659355164e-02
5.974965915083885193e-02
-2.060657180845737457e-02
-1.350720878690481186e-02
-3.967797011137008667e-02
1.805333048105239868e-02
-3.103920258581638336e-02
-3.393527120351791382e-02
-6.224112212657928467e-02
-4.700687155127525330e-02
-1.984737580642104149e-03
-1.596138812601566315e-02
1.308938208967447281e-02
5.834685266017913818e-02
4.285850003361701965e-02
-5.307905748486518860e-02
2.450668811798095703e-02
4.372409358620643616e-02
2.311935648322105408e-02
4.495523869991302490e-02
-5.077986791729927063e-02
-3.006010688841342926e-02
-5.907184258103370667e-02
1.887588948011398315e-02
3.435463830828666687e-02
4.239021241664886475e-02
2.841261029243469238e-02
3.083954751491546631e-02
-3.014817461371421814e-02
3.076457418501377106e-02
-4.302986897528171539e-03
-1.292819343507289886e-02
-6.369995325803756714e-02
3.774673119187355042e-02
-1.491237059235572815e-02
3.768736124038696289e-02
-6.060771644115447998e-02
4.451802745461463928e-02
-5.690455809235572815e-02
8.616938255727291107e-03
-2.348910085856914520e-02
4.456370696425437927e-02
3.753876313567161560e-02
-1.412579230964183807e-02
-1.288836705498397350e-03
-6.098778173327445984e-02
-3.443317115306854248e-02
5.001943185925483704e-02
-1.934990845620632172e-02
6.372594088315963745e-02
-2.614298462867736816e-02
-3.613818809390068054e-02
5.133283510804176331e-02
3.800655528903007507e-02
-3.495566919445991516e-02
5.875163525342941284e-02
5.564622953534126282e-02
-1.885391771793365479e-02
3.783422708511352539e-02
4.848604276776313782e-02
-3.321687877178192139e-02
2.647872827947139740e-02
6.032472103834152222e-02
-1.884324103593826294e-02
1.012599794194102287e-03
8.775440044701099396e-03
-2.086002565920352936e-02
2.776498720049858093e-02
5.780734121799468994e-02
-1.013167668133974075e-02
-5.383011326193809509e-02
3.256740048527717590e-02
-4.853519052267074585e-02
3.685548529028892517e-02
6.145419925451278687e-02
6.315882503986358643e-02
-3.017579764127731323e-02
3.010363550856709480e-03
4.734448343515396118e-02
5.632855743169784546e-02
-2.773045934736728668e-02
-4.858381580561399460e-03
-6.188023835420608521e-02
2.926640585064888000e-02
-5.095790699124336243e-02
1.494822185486555099e-02
4.362721927464008331e-03
6.046467646956443787e-02
-2.452830225229263306e-02
-3.275556862354278564e-02
-1.136149559170007706e-02
-6.426814198493957520e-02
-5.366097390651702881e-02
3.264093538746237755e-03
-3.042250685393810272e-02
-5.216368287801742554e-02
-5.250721797347068787e-02
2.581209130585193634e-02
1.766071468591690063e-02
5.151514336466789246e-02
-5.786451045423746109e-03
-6.337829679250717163e-02
-2.324157208204269409e-02
2.819983474910259247e-02
2.898907661437988281e-02
5.729358643293380737e-02
-6.493660621345043182e-03
4.638019204139709473e-02
-2.716766297817230225e-02
1.707141473889350891e-02
-1.955333910882472992e-02
-4.633610323071479797e-02
-3.491321578621864319e-02
-3.935996443033218384e-02
7.293158210813999176e-03
-6.773411761969327927e-03
-4.481450095772743225e-02
-2.331764250993728638e-02
-6.756710819900035858e-03
-2.040694840252399445e-02
4.811721295118331909e-02
-1.103191170841455460e-02
-3.803629055619239807e-02
-3.452888876199722290e-02
6.110356748104095459e-02
8.607291965745389462e-04
-3.275739960372447968e-03
2.021224610507488251e-02
-5.835370346903800964e-02
-5.544127523899078369e-02
5.899586156010627747e-02
-1.263516396284103394e-02
-6.214550882577896118e-02
5.268554389476776123e-02
2.855503186583518982e-02
-1.670770160853862762e-02
-3.815251868218183517e-03
2.396873943507671356e-02
-2.132646925747394562e-02
5.029249936342239380e-02
2.049382403492927551e-02
-2.668093889951705933e-02
-4.420792311429977417e-02
1.569607853889465332e-02
-5.571436136960983276e-02
-1.623823679983615875e-02
4.166279733180999756e-02
-1.777440868318080902e-02
-1.166514772921800613e-02
-5.464449524879455566e-03
-6.248971447348594666e-02
-4.745217040181159973e-02
4.773818328976631165e-02
-3.751551732420921326e-02
2.090602740645408630e-02
1.544710341840982437e-02
-5.444459617137908936e-02
-1.435445249080657959e-02
-4.549888148903846741e-02
1.335951592773199081e-02
4.458308219909667969e-02
3.317976836115121841e-03
5.784774571657180786e-02
1.235016272403299809e-03
5.982035398483276367e-02
-3.672469407320022583e-02
4.731860756874084473e-02
4.108753520995378494e-03
6.317114084959030151e-02
-5.232934653759002686e-02
-4.538364708423614502e-02
-4.452409222722053528e-02
5.621799081563949585e-02
2.106748707592487335e-02
-3.351978957653045654e-02
1.362951286137104034e-02
4.298890940845012665e-03
3.181087598204612732e-02
-4.265962168574333191e-02
-4.546313732862472534e-02
4.128577187657356262e-02
4.158465564250946045e-02
-6.005266681313514709e-02
4.651359748095273972e-03
-3.949277102947235107e-02
4.800044745206832886e-02
-5.916336923837661743e-02
3.822364285588264465e-02
-3.160382807254791260e-02
-1.250428264029324055e-03
5.377333238720893860e-02
5.862389504909515381e-02
-4.497685935348272324e-03
5.679966509342193604e-02
-1.894181780517101288e-02
-1.565422117710113525e-02
-1.249142270535230637e-02
-5.606974661350250244e-02
4.780590906739234924e-02
-2.586080227047204971e-03
6.384833715856075287e-03
1.623423653654754162e-03
1.313817594200372696e-02
-5.548646673560142517e-02
1.026777829974889755e-02
-2.904225140810012817e-02
-3.718059137463569641e-02
4.578747600317001343e-02
-4.913910478353500366e-02
1.551384944468736649e-02
-9.681017138063907623e-03
-2.503696642816066742e-02
5.123095214366912842e-02
-2.606984786689281464e-02
-1.463333703577518463e-02
-3.135632351040840149e-02
5.503302067518234253e-02
2.526469342410564423e-02
-5.393115058541297913e-02
4.232146963477134705e-02
-2.797061204910278320e-02
-2.532549016177654266e-02
-5.772184208035469055e-02
-2.545423433184623718e-02
-6.304414570331573486e-02
-2.472590841352939606e-02
3.420067578554153442e-02
-1.463092677295207977e-02
-2.114835428074002266e-03
3.240154683589935303e-02
1.826420193538069725e-03
-1.092956494539976120e-02
-6.363718770444393158e-03
-5.710363015532493591e-02
1.594390720129013062e-02
5.801644176244735718e-02
1.448090653866529465e-03
-2.853311039507389069e-02
-8.481281809508800507e-03
1.703956536948680878e-02
8.664889261126518250e-03
4.952578991651535034e-02
-7.843238301575183868e-03
5.414985492825508118e-02
-1.231775968335568905e-03
-2.976715750992298126e-02
4.992008907720446587e-04
-4.958435148000717163e-02
9.311644360423088074e-03
7.982973940670490265e-03
-2.400574460625648499e-02
-5.129739269614219666e-02
1.514104753732681274e-02
-1.709499955177307129e-02
5.427440255880355835e-02
-2.563718706369400024e-02
-3.714213520288467407e-02
5.166452378034591675e-02
4.616544768214225769e-02
7.751011289656162262e-03
4.217728972434997559e-02
9.874695912003517151e-03
5.292021110653877258e-02
-3.663003444671630859e-02
-2.906219102442264557e-02
4.268859326839447021e-02
-1.384851522743701935e-02
-2.909739315509796143e-02
2.363790199160575867e-02
-2.998975291848182678e-02
-5.126229301095008850e-02
1.127125322818756104e-02
-5.037008598446846008e-02
-5.962609127163887024e-02
6.687717512249946594e-03
6.352846324443817139e-02
3.622762858867645264e-02
-3.024271130561828613e-02
-1.873843744397163391e-02
5.288796126842498779e-02
2.961682155728340149e-02
-5.934495478868484497e-02
2.908263169229030609e-02
-2.458502911031246185e-02
-5.161593481898307800e-02
1.053514145314693451e-02
1.282651443034410477e-02
-3.479531779885292053e-02
-4.994008690118789673e-02
-2.920177951455116272e-02
-3.970600664615631104e-02
-4.583366960287094116e-02
1.411202643066644669e-02
-5.163502693176269531e-02
8.175842463970184326e-03
3.047896735370159149e-02
2.017649076879024506e-02
1.651363261044025421e-02
2.711744047701358795e-02
6.198980659246444702e-02
5.850252881646156311e-02
6.237219274044036865e-02
-4.354681819677352905e-02
2.082434296607971191e-02
-2.175207063555717468e-02
6.122029572725296021e-02
5.660697817802429199e-02
-5.899237468838691711e-02
-4.497139900922775269e-02
3.231030702590942383e-02
6.246574968099594116e-02
-2.930989861488342285e-02
2.354669384658336639e-02
-4.207130987197160721e-03
3.008214198052883148e-02
5.793018639087677002e-02
4.480968415737152100e-02
-5.755064636468887329e-02
-9.178869426250457764e-03
-1.676219329237937927e-02
-1.245599240064620972e-03
6.152312457561492920e-02
5.328433960676193237e-02
-4.852664098143577576e-02
2.422705758363008499e-03
2.721950225532054901e-02
4.041093587875366211e-02
-4.172161221504211426e-02
-2.205157279968261719e-02
-2.356932032853364944e-03
-1.270912960171699524e-02
-2.050498872995376587e-02
8.908181451261043549e-03
4.717246443033218384e-02
-9.995353408157825470e-03
-1.325933728367090225e-02
-2.325391164049506187e-03
-6.400081329047679901e-03
4.426691681146621704e-02
-5.645636469125747681e-02
2.204833924770355225e-02
-4.233092814683914185e-02
5.532023683190345764e-02
5.388389527797698975e-02
-1.268707215785980225e-02
5.430778861045837402e-02
3.155569313094019890e-03
2.262895368039608002e-02
-9.717946872115135193e-03
-2.527483738958835602e-02
-4.130006209015846252e-02
4.274730384349822998e-02
5.591686069965362549e-02
3.781116753816604614e-02
-1.680910214781761169e-02
2.974938601255416870e-02
4.719247668981552124e-02
-1.552083157002925873e-02
2.889033406972885132e-02
-7.860259152948856354e-03
-4.043427109718322754e-02
-3.194890543818473816e-02
-6.100233271718025208e-02
-1.438908278942108154e-02
1.928696036338806152e-02
-1.156094018369913101e-03
-2.649919316172599792e-02
-1.901085302233695984e-02
3.372414968907833099e-03
3.400361537933349609e-02
-2.907073311507701874e-02
-5.917328223586082458e-02
4.300053417682647705e-02
2.258021757006645203e-02
-4.511799663305282593e-02
2.793622436001896858e-03
6.413502991199493408e-02
3.706534579396247864e-02
5.684369802474975586e-02
5.458656698465347290e-02
-2.385431900620460510e-02
1.051633711904287338e-02
5.802316218614578247e-02
2.123925089836120605e-02
2.897231653332710266e-02
-4.473192617297172546e-03
1.595706306397914886e-02
3.198492899537086487e-02
2.098582917824387550e-03
-3.114077821373939514e-02
1.049387920647859573e-02
-2.595708519220352173e-02
5.776234343647956848e-02
-3.916214779019355774e-02
-3.076004050672054291e-02
2.297388622537255287e-03
-3.090422227978706360e-02
-4.375612735748291016e-02
6.174062564969062805e-02
-3.293383866548538208e-02
-3.354638814926147461e-02
-6.014373153448104858e-02
-2.239562338218092918e-03
5.665728822350502014e-03
4.308376833796501160e-02
4.398618638515472412e-02
-1.788695715367794037e-02
-3.723256662487983704e-02
-6.170485541224479675e-02
1.746065914630889893e-02
4.297534376382827759e-02
-2.221005782485008240e-02
4.038367792963981628e-02
-1.314148027449846268e-02
-5.482281371951103210e-02
4.848965629935264587e-02
5.262631177902221680e-02
3.320148959755897522e-02
-5.904044583439826965e-02
-2.746140956878662109e-02
-1.139101479202508926e-02
-1.490654144436120987e-02
4.651776701211929321e-02
3.032854571938514709e-02
4.723528400063514709e-02
6.250876188278198242e-02
-2.831419929862022400e-02
1.735213771462440491e-02
-3.184231743216514587e-02
9.685183875262737274e-03
-6.219758093357086182e-02
5.709363892674446106e-02
1.324645057320594788e-02
2.346784621477127075e-02
2.342781797051429749e-02
-4.553876444697380066e-02
-2.536582387983798981e-02
2.908609621226787567e-02
-3.787171840667724609e-02
-6.310922652482986450e-02
-1.843073777854442596e-02
1.611650362610816956e-02
3.490383923053741455e-02
-4.042913764715194702e-02
7.587106432765722275e-03
-5.589741840958595276e-02
-4.352422803640365601e-02
6.350402534008026123e-02
3.505445644259452820e-02
3.689805418252944946e-02
-6.821904331445693970e-03
4.590216651558876038e-02
4.728258773684501648e-02
-3.913927823305130005e-02
5.062596872448921204e-03
3.537517413496971130e-02
-2.026972919702529907e-02
-2.477410994470119476e-02
-5.680427327752113342e-02
-5.513092130422592163e-02
1.430963911116123199e-02
1.152057107537984848e-02
4.519083723425865173e-02
3.304059058427810669e-02
2.057780884206295013e-02
1.226404774934053421e-02
1.610265113413333893e-02
2.670306526124477386e-02
5.733165144920349121e-02
-1.325193210504949093e-03
1.872656308114528656e-02
6.408088654279708862e-02
-5.630363896489143372e-02
-7.739095017313957214e-03
4.692117497324943542e-02
-5.374189838767051697e-02
3.146181255578994751e-02
1.163778267800807953e-02
4.552971944212913513e-02
7.075282745063304901e-03
1.293308008462190628e-02
-3.880398347973823547e-02
-4.964217916131019592e-02
-5.888169258832931519e-02
-1.864515244960784912e-02
-5.022611841559410095e-02
4.159213975071907043e-02
2.909689955413341522e-02
6.908384151756763458e-03
-2.988929301500320435e-02
-4.107960686087608337e-02
-1.704514957964420319e-02
4.994076117873191833e-02
2.234945632517337799e-02
5.874302238225936890e-02
2.782142907381057739e-02
5.000687390565872192e-02
-1.458471454679965973e-02
5.541516467928886414e-03
1.676820963621139526e-02
2.336914278566837311e-02
1.592453382909297943e-02
-2.963445521891117096e-02
7.975829765200614929e-03
-5.969721078872680664e-02
3.210886567831039429e-02
9.806982241570949554e-03
2.501827850937843323e-02
-6.388138979673385620e-02
5.310324206948280334e-02
3.221904858946800232e-02
-1.430546282790601254e-03
-2.447539940476417542e-02
3.692934662103652954e-02
-4.025171324610710144e-02
-2.760975994169712067e-02
-2.094967849552631378e-02
-6.171590089797973633e-02
-5.976161360740661621e-02
-3.215016797184944153e-02
-5.137021839618682861e-02
3.531898558139801025e-02
-4.627688974142074585e-02
-2.991486154496669769e-02
2.665042318403720856e-02
1.406754832714796066e-02
3.375580161809921265e-02
-5.187309160828590393e-02
5.276104062795639038e-02
1.128131337463855743e-02
2.949103713035583496e-02
-9.238010272383689880e-03
-2.721111290156841278e-02
2.615602500736713409e-02
2.892077900469303131e-02
5.018589086830615997e-03
-4.176285490393638611e-02
4.652393236756324768e-02
3.957978636026382446e-02
-3.625955199822783470e-03
5.424868687987327576e-02
4.433283209800720215e-02
3.077861666679382324e-02
1.204244140535593033e-02
1.793842390179634094e-02
3.472429886460304260e-02
-3.857212513685226440e-02
4.237455502152442932e-02
3.710937872529029846e-02
-4.407974705100059509e-02
-3.174056857824325562e-02
-2.834523655474185944e-02
-1.210148725658655167e-02
-5.394404754042625427e-02
1.469908654689788818e-02
-1.498561818152666092e-02
-3.561585769057273865e-02
-3.094292245805263519e-02
-2.690808847546577454e-02
-2.153786644339561462e-02
-5.479481816291809082e-02
-5.782601982355117798e-02
-5.141151323914527893e-02
1.113408058881759644e-02
-1.731721311807632446e-02
-3.285520151257514954e-02
-2.588002756237983704e-02
5.080131813883781433e-02
3.123545460402965546e-02
6.186698004603385925e-02
-4.854663088917732239e-02
-4.332382604479789734e-02
6.392465531826019287e-02
5.851522088050842285e-02
-4.845214076340198517e-03
1.231224741786718369e-02
-3.882464393973350525e-02
3.462471440434455872e-02
4.780537635087966919e-02
6.096617877483367920e-02
-4.097037762403488159e-02
1.650831289589405060e-02
-5.676317960023880005e-02
-4.446111992001533508e-02
-4.669831693172454834e-02
3.686756268143653870e-02
-4.582700505852699280e-02
1.203049253672361374e-02
-6.266892701387405396e-02
-2.518770517781376839e-03
2.879651729017496109e-03
-2.841534651815891266e-02
-4.197922535240650177e-03
-3.067544661462306976e-02
-2.638949640095233917e-02
4.424845054745674133e-02
3.585180733352899551e-03
-5.747234076261520386e-02
-4.113823641091585159e-03
-4.745009914040565491e-02
-3.853742033243179321e-02
1.686352118849754333e-02
-5.241954326629638672e-02
-1.786498166620731354e-02
2.390760928392410278e-03
4.692205041646957397e-02
-3.711651312187314034e-03
3.186184680089354515e-03
5.188119038939476013e-02
5.891612172126770020e-02
2.980632521212100983e-02
2.099314890801906586e-02
-3.826976567506790161e-02
4.110939055681228638e-02
1.720783300697803497e-03
-3.743645921349525452e-02
3.119813464581966400e-02
-2.523837238550186157e-02
-3.964311908930540085e-04
1.406110916286706924e-02
-1.727297343313694000e-02
-3.077564761042594910e-02
4.680933803319931030e-02
-6.148612126708030701e-02
4.631631448864936829e-02
4.336817562580108643e-02
-1.239059120416641235e-02
5.711987987160682678e-02
-5.448049306869506836e-02
1.215787604451179504e-02
2.708189003169536591e-02
-2.795726992189884186e-03
6.378706544637680054e-02
1.502084545791149139e-03
-6.379222124814987183e-02
-4.735123366117477417e-02
-5.530022084712982178e-02
-2.620174549520015717e-02
8.324345108121633530e-04
2.800588309764862061e-02
-2.360808104276657104e-02
-8.509243838489055634e-03
-1.547276880592107773e-02
9.429169818758964539e-03
4.373136162757873535e-02
-3.919009491801261902e-02
-4.897461086511611938e-02
-7.795590907335281372e-03
7.325812708586454391e-03
-4.187765065580606461e-03
3.333698958158493042e-02
-2.349981293082237244e-02
3.513088077306747437e-02
3.292472660541534424e-02
-3.806963562965393066e-02
-5.454055964946746826e-03
-4.421136900782585144e-02
1.416025124490261078e-02
-5.814875289797782898e-02
-2.911317907273769379e-02
3.668572753667831421e-02
4.157084226608276367e-02
3.125049918889999390e-02
-1.761662960052490234e-02
-2.179983817040920258e-02
3.243201412260532379e-03
5.017197504639625549e-02
-4.443507269024848938e-02
5.575366318225860596e-02
-2.052971534430980682e-02
4.365485906600952148e-02
1.253673713654279709e-02
-7.047059014439582825e-03
3.521566744893789291e-03
-1.963362097740173340e-02
5.544774234294891357e-02
3.726630657911300659e-02
4.307789355516433716e-02
8.883898146450519562e-03
-1.624658331274986267e-02
-4.312614724040031433e-02
-5.738924816250801086e-02
-5.585066042840480804e-03
4.916691780090332031e-02
-1.975010335445404053e-02
-1.545944018289446831e-03
-3.189359232783317566e-02
1.138910744339227676e-02
2.222058176994323730e-02
-6.361912935972213745e-02
-5.798923224210739136e-02
-2.996223606169223785e-02
2.240254310891032219e-03
-1.388674974441528320e-02
-6.278030574321746826e-02
5.360947549343109131e-02
-4.750789143145084381e-03
1.962921582162380219e-02
3.974562883377075195e-02
3.168357536196708679e-02
1.681510009802877903e-03
6.039059907197952271e-02
4.633809998631477356e-02
-5.229771509766578674e-02
5.052448064088821411e-02
3.877466171979904175e-02
5.244570318609476089e-03
-5.399205908179283142e-02
-1.796551793813705444e-02
-3.984969481825828552e-02
4.250232875347137451e-02
7.309444248676300049e-03
-4.200099501758813858e-03
4.773357883095741272e-02
8.949090726673603058e-03
5.785412341356277466e-02
-6.073649972677230835e-02
3.359754383563995361e-02
2.140045724809169769e-02
9.983674390241503716e-04
-7.446171250194311142e-03
1.364083145745098591e-03
1.240669284015893936e-02
5.118332430720329285e-02
-2.103527309373021126e-03
-3.678595274686813354e-02
-2.661270834505558014e-02
-3.501620143651962280e-03
-3.076659515500068665e-02
-4.761152714490890503e-02
-4.906816780567169189e-02
-2.309224382042884827e-02
-2.995020337402820587e-02
-6.110079959034919739e-02
1.986274309456348419e-02
5.814669653773307800e-02
2.045819163322448730e-02
5.863194912672042847e-02
1.933022961020469666e-02
-4.305279627442359924e-02
-2.530841156840324402e-02
-8.323085494339466095e-03
-3.289486095309257507e-02
4.874131456017494202e-02
3.336239838972687721e-03
-6.154382973909378052e-02
-8.931477554142475128e-03
6.121710408478975296e-03
-1.430785283446311951e-02
1.583125256001949310e-02
1.836922205984592438e-02
5.528973042964935303e-02
5.372324958443641663e-02
-5.236866418272256851e-03
3.824468329548835754e-02
-1.692398451268672943e-02
-5.864208936691284180e-02
4.837301373481750488e-02
3.529742732644081116e-02
3.697833791375160217e-02
-1.192494388669729233e-02
-5.277670547366142273e-02
1.824980042874813080e-02
6.083196401596069336e-02
4.975371435284614563e-02
-2.793825976550579071e-02
2.402564883232116699e-02
-1.853403635323047638e-02
-1.099044922739267349e-02
-5.589266493916511536e-02
-5.646745860576629639e-02
-3.632707148790359497e-02
-4.964292049407958984e-02
1.893018558621406555e-02
-6.358254700899124146e-02
9.733688086271286011e-03
1.439194846898317337e-02
-4.900354519486427307e-02
5.453382804989814758e-02
-1.595651917159557343e-02
-9.067763574421405792e-03
-3.356971219182014465e-02
5.619188770651817322e-02
-1.040324009954929352e-02
-2.131882309913635254e-02
-3.149145469069480896e-02
5.826418101787567139e-02
-4.701187461614608765e-02
-6.354656070470809937e-02
4.246846586465835571e-02
6.091295741498470306e-03
1.984420977532863617e-02
-1.998706720769405365e-02
-3.406606614589691162e-02
3.496322408318519592e-02
6.458005402237176895e-03
-2.310995943844318390e-02
-3.076039627194404602e-02
1.144970068708062172e-03
-1.314020808786153793e-02
-5.340619757771492004e-02
5.295567214488983154e-02
2.072472870349884033e-02
3.875838592648506165e-02
5.372187122702598572e-02
3.906488791108131409e-02
-4.736644774675369263e-02
-1.557350251823663712e-02
-3.079100325703620911e-02
5.982827022671699524e-02
5.144213512539863586e-02
5.525236949324607849e-02
-3.537707030773162842e-02
-2.904736623167991638e-02
5.753776803612709045e-02
5.570001527667045593e-02
1.851290650665760040e-02
5.950919538736343384e-02
-8.326311595737934113e-03
1.220136601477861404e-02
2.680077403783798218e-02
-2.880913205444812775e-02
2.071828208863735199e-02
1.687454432249069214e-02
4.755700752139091492e-02
3.276340663433074951e-02
5.563981458544731140e-02
-2.557807601988315582e-02
-2.346579916775226593e-02
-2.431409992277622223e-02
-4.120920225977897644e-02
4.595736786723136902e-02
-2.988664060831069946e-02
2.909531071782112122e-02
4.007427394390106201e-02
5.426334962248802185e-02
1.594658941030502319e-02
-1.504494808614253998e-02
4.272741824388504028e-02
-1.319953985512256622e-02
4.985911026597023010e-02
6.518792943097651005e-04
-4.751059785485267639e-02
2.179935108870267868e-03
-8.189463056623935699e-03
5.012131482362747192e-02
-3.196793794631958008e-02
4.885245580226182938e-04
-5.532792955636978149e-02
2.235224656760692596e-02
-2.958828210830688477e-02
-3.551884740591049194e-02
1.578278280794620514e-02
-2.946052886545658112e-02
1.912878081202507019e-02
4.582558944821357727e-02
-3.387620672583580017e-02
2.967733703553676605e-02
4.106930643320083618e-02
3.793423250317573547e-02
3.027691505849361420e-02
-1.308733946643769741e-03
1.189967244863510132e-02
-9.648168459534645081e-03
5.708736926317214966e-02
-4.473513364791870117e-02
-5.227388441562652588e-02
-4.236933309584856033e-03
-2.599089592695236206e-02
-6.904907058924436569e-03
-3.219046816229820251e-02
-1.162135135382413864e-02
3.106831945478916168e-02
-2.460325136780738831e-02
5.634945351630449295e-03
-2.761335670948028564e-02
-6.295970082283020020e-02
-1.274983771145343781e-02
2.476824447512626648e-02
-6.286977976560592651e-02
2.377871051430702209e-02
-5.068846791982650757e-02
-1.068983413279056549e-02
-1.637602038681507111e-02
-1.316828001290559769e-02
-1.055196300148963928e-02
3.887421265244483948e-02
5.145073402673006058e-03
3.236858546733856201e-02
2.726408280432224274e-02
-5.855087563395500183e-02
-5.732346326112747192e-02
5.812283232808113098e-02
4.664996638894081116e-03
3.573589399456977844e-02
-2.662730775773525238e-02
3.762160241603851318e-02
1.528805308043956757e-02
-1.139125507324934006e-02
-5.266532674431800842e-02
5.001368373632431030e-02
4.096921533346176147e-02
-4.659711197018623352e-02
5.835361662320792675e-04
-2.768561244010925293e-02
5.211638286709785461e-02
-2.353219781070947647e-03
-9.275005199015140533e-03
-1.848795823752880096e-02
-2.291527017951011658e-02
2.057214081287384033e-02
6.106842309236526489e-02
3.006393462419509888e-02
-2.435375191271305084e-02
-3.540748730301856995e-02
8.267014287412166595e-03
-2.576215006411075592e-02
-3.865911439061164856e-02
-5.694608017802238464e-02
-3.881151601672172546e-02
2.700166776776313782e-02
-4.618639126420021057e-02
3.154607489705085754e-02
3.543459624052047729e-02
1.966949179768562317e-02
9.902060963213443756e-03
-3.068985603749752045e-02
-2.128492854535579681e-02
-1.997126638889312744e-02
2.882878668606281281e-02
-4.019984975457191467e-02
3.394995257258415222e-02
2.013219706714153290e-02
1.557196374051272869e-03
3.629888966679573059e-02
-5.406281352043151855e-02
4.615918174386024475e-02
2.548097819089889526e-02
-3.546565771102905273e-03
-5.962794274091720581e-02
-6.249624304473400116e-03
-3.011958859860897064e-02
5.371169373393058777e-02
-4.440544918179512024e-02
2.912584319710731506e-02
-4.709181562066078186e-02
-5.224233120679855347e-02
3.210788592696189880e-02
-3.180734440684318542e-02
-4.397213086485862732e-02
5.822603777050971985e-02
-5.277717858552932739e-02
4.639108106493949890e-02
-3.171135112643241882e-02
4.619817063212394714e-02
-3.021552599966526031e-02
6.250084191560745239e-02
2.282684296369552612e-02
-1.996457763016223907e-02
-1.652688905596733093e-02
-2.460917457938194275e-02
-3.592802211642265320e-02
-4.118602350354194641e-02
1.371848769485950470e-02
6.397883407771587372e-03
1.030948758125305176e-02
3.951723128557205200e-02
5.271841771900653839e-03
-3.985058888792991638e-02
-1.843630895018577576e-02
1.079056318849325180e-02
-8.075833902694284916e-04
3.100989758968353271e-02
-2.463015727698802948e-02
4.653797671198844910e-02
-1.239332649856805801e-02
4.761908575892448425e-02
2.272665686905384064e-02
3.794463723897933960e-02
5.743735283613204956e-02
6.242575496435165405e-02
4.770643636584281921e-02
4.721394553780555725e-02
-5.591087415814399719e-02
2.032370120286941528e-02
-5.999991297721862793e-02
6.145988032221794128e-02
5.031360313296318054e-02
2.065772656351327896e-03
4.924615100026130676e-02
-1.211965084075927734e-02
-1.192559953778982162e-02
-2.921517565846443176e-02
-5.612822622060775757e-02
-6.217311322689056396e-02
-6.323835253715515137e-02
5.076637119054794312e-02
-2.440869342535734177e-03
-6.438420712947845459e-02
6.348431110382080078e-02
3.624398261308670044e-02
-3.595187515020370483e-02
7.284805178642272949e-03
5.698941648006439209e-02
-3.127617388963699341e-02
-6.095609813928604126e-02
-1.986309653148055077e-03
-1.330407429486513138e-02
1.816046610474586487e-02
-4.334375262260437012e-02
-1.321656629443168640e-02
-4.292673617601394653e-02
-4.080525413155555725e-02
6.182270497083663940e-02
4.349953681230545044e-02
5.586202815175056458e-02
1.131322048604488373e-02
6.261073797941207886e-02
-4.412642214447259903e-03
-4.073386266827583313e-02
-3.118377737700939178e-02
3.068922087550163269e-02
4.572108387947082520e-02
-5.191234126687049866e-02
-6.010010093450546265e-02
-1.460804697126150131e-02
-2.216716110706329346e-02
6.631673779338598251e-03
-2.871636301279067993e-02
9.606187231838703156e-03
4.070311039686203003e-02
1.857495808508247137e-04
-5.083572492003440857e-02
-3.136030863970518112e-03
-1.227985881268978119e-02
-3.784547001123428345e-02
5.548396334052085876e-02
-6.036495789885520935e-02
-1.666020601987838745e-02
-4.785373434424400330e-02
5.327533185482025146e-02
-9.381257928907871246e-03
-5.450184643268585205e-02
6.215980276465415955e-02
-2.486770972609519958e-02
-3.926277160644531250e-02
3.765542432665824890e-02
-3.207950294017791748e-02
6.040723621845245361e-02
1.020104158669710159e-03
-5.437427014112472534e-02
-7.270282600075006485e-03
4.699591547250747681e-03
6.424226611852645874e-02
-4.562441259622573853e-02
1.039491686969995499e-02
1.012508105486631393e-02
5.053418863099068403e-05
1.760562183335423470e-03
-3.177456930279731750e-02
4.056596383452415466e-02
6.330119073390960693e-02
1.410922780632972717e-02
3.723420947790145874e-02
5.204859375953674316e-02
-5.549789965152740479e-02
-5.952386558055877686e-02
-4.699996486306190491e-02
-1.500979810953140259e-02
-6.249941140413284302e-02
-2.079104073345661163e-02
-6.703584222123026848e-04
5.919126793742179871e-02
-1.222514826804399490e-02
4.972152039408683777e-02
4.673360288143157959e-02
-2.277845330536365509e-02
-2.221732772886753082e-02
3.581097722053527832e-02
-6.243668496608734131e-03
-2.158449031412601471e-02
2.665543183684349060e-02
-5.910006910562515259e-02
4.261342063546180725e-02
-3.527768701314926147e-02
-4.288846254348754883e-02
1.407344453036785126e-02
3.371848538517951965e-02
-6.452070176601409912e-02
3.099593333899974823e-02
5.399854853749275208e-02
2.236988209187984467e-02
3.548847883939743042e-02
4.059924185276031494e-02
-3.936415165662765503e-02
-1.258354820311069489e-02
-5.111845582723617554e-02
4.254589229822158813e-02
4.936894029378890991e-02
6.112502887845039368e-02
-1.485378667712211609e-02
-1.072480343282222748e-02
-4.340803995728492737e-02
-6.269787997007369995e-02
-5.596301704645156860e-02
-2.199512906372547150e-02
2.083308808505535126e-02
1.355288177728652954e-02
1.739076524972915649e-02
4.525745753198862076e-03
4.498411715030670166e-02
4.561228677630424500e-03
3.394010663032531738e-02
1.792782917618751526e-02
-2.786722220480442047e-02
3.940072283148765564e-02
-5.826029181480407715e-02
4.578237980604171753e-02
2.191253192722797394e-02
-2.276506973430514336e-03
-5.348734930157661438e-02
6.037669628858566284e-02
7.855162955820560455e-03
-6.176042929291725159e-02
-4.515844583511352539e-02
1.144438516348600388e-03
-1.044885255396366119e-02
3.716116398572921753e-02
4.800753667950630188e-02
-4.192196577787399292e-02
-2.733446191996335983e-03
1.718050613999366760e-02
-9.058314608410000801e-04
-6.077239289879798889e-02
2.209233492612838745e-02
-3.299052268266677856e-02
-3.924646228551864624e-02
8.048199117183685303e-03
4.960281774401664734e-02
3.960848227143287659e-02
-5.655915662646293640e-02
-4.284209758043289185e-02
-6.252379715442657471e-02
-1.089679915457963943e-02
3.546234220266342163e-02
5.795111134648323059e-02
1.318834256380796432e-03
5.721971020102500916e-02
1.736205443739891052e-02
5.734948813915252686e-02
5.210544914007186890e-02
-3.680123714730143547e-03
5.647094547748565674e-02
2.403165586292743683e-02
-4.889028519392013550e-02
1.674244529567658901e-03
3.900519013404846191e-02
2.258360199630260468e-02
5.458602309226989746e-02
-2.037561871111392975e-02
1.990155689418315887e-02
2.500697597861289978e-02
6.155672669410705566e-02
5.535924434661865234e-02
-6.331009417772293091e-02
4.229676723480224609e-02
-1.006099767982959747e-02
6.448179483413696289e-03
-3.611645102500915527e-02
5.959954112768173218e-02
4.301811754703521729e-02
-1.821924187242984772e-02
3.788008168339729309e-02
1.643051765859127045e-02
-3.650060296058654785e-02
1.369167678058147430e-02
3.257384896278381348e-02
-2.181677334010601044e-02
-4.472300782799720764e-02
2.016454003751277924e-02
-4.841870162636041641e-03
-6.416729092597961426e-02
-3.564464300870895386e-02
5.654868856072425842e-02
-1.115508470684289932e-02
-2.012593671679496765e-02
5.498401820659637451e-02
-2.569148130714893341e-02
-5.089701712131500244e-02
9.277372155338525772e-04
-1.260468619875609875e-03
1.344456709921360016e-02
-2.804973861202597618e-03
-5.385682731866836548e-02
1.495210360735654831e-02
5.312490463256835938e-02
-1.989506930112838745e-02
-2.375910058617591858e-02
-4.734706878662109375e-02
-2.567885443568229675e-02
-5.442396178841590881e-02
2.218672260642051697e-02
6.805000361055135727e-03
8.109977468848228455e-03
2.042332198470830917e-03
-4.007431492209434509e-02
6.020291149616241455e-02
4.040083661675453186e-02
-6.443755235522985458e-03
-6.347857415676116943e-02
1.484436169266700745e-02
-4.490452632308006287e-02
-3.125955164432525635e-02
2.468643337488174438e-02
1.304888911545276642e-02
3.931357711553573608e-02
6.162197887897491455e-02
-6.289826333522796631e-02
2.032125741243362427e-02
3.730839863419532776e-02
-5.402364581823348999e-02
3.658905625343322754e-02
-1.139743532985448837e-02
5.331555753946304321e-02
4.976511374115943909e-02
6.315959990024566650e-02
3.182290121912956238e-02
-4.654629528522491455e-02
4.707285761833190918e-02
-1.422225777059793472e-02
-1.008338667452335358e-02
3.744959458708763123e-02
-4.371770471334457397e-02
-1.999340718612074852e-03
-2.174666896462440491e-02
5.094871670007705688e-02
-3.095111460424959660e-04
-4.958596453070640564e-02
1.947414688766002655e-02
5.813360586762428284e-02
-2.889705076813697815e-02
2.885018102824687958e-02
-5.382120236754417419e-02
3.342017903923988342e-02
8.895489387214183807e-03
3.832267969846725464e-02
4.628599435091018677e-02
-3.458590060472488403e-02
-2.528591826558113098e-02
4.335325956344604492e-02
-2.758179791271686554e-03
-2.025887370109558105e-02
3.160618990659713745e-02
4.250039812177419662e-03
-6.148911267518997192e-02
-1.916291750967502594e-02
9.971668012440204620e-03
1.917904056608676910e-02
-1.858340017497539520e-02
6.351444870233535767e-02
-1.372621674090623856e-02
5.605797097086906433e-02
6.130358204245567322e-02
-5.011073872447013855e-02
3.427043929696083069e-02
-4.009978100657463074e-02
-6.227082014083862305e-02
-3.674122318625450134e-02
2.051706798374652863e-02
5.306406691670417786e-02
3.514705225825309753e-02
2.074654959142208099e-02
4.672571644186973572e-02
-5.994205921888351440e-02
-4.825400933623313904e-02
-2.166366763412952423e-02
1.192478556185960770e-02
-2.955569699406623840e-02
-5.738059058785438538e-03
-6.483034230768680573e-04
-6.314820796251296997e-02
-6.150819361209869385e-03
-2.868537604808807373e-02
8.763370569795370102e-04
2.184133417904376984e-02
3.067978098988533020e-02
4.801713675260543823e-02
-3.295104578137397766e-02
6.249416619539260864e-02
1.159310713410377502e-02
-5.084674060344696045e-02
3.667189553380012512e-02
3.612672677263617516e-03
-3.298654407262802124e-02
-6.303699314594268799e-02
5.698654428124427795e-02
-5.166945606470108032e-02
1.437305472791194916e-02
5.468899384140968323e-02
4.675390943884849548e-02
3.339876979589462280e-02
4.927779361605644226e-02
1.673584803938865662e-02
6.645154207944869995e-03
5.343586206436157227e-03
-2.868253737688064575e-02
-2.345341257750988007e-02
-1.502444595098495483e-02
-4.315854236483573914e-02
-2.725028432905673981e-03
-5.211248621344566345e-02
-3.178211674094200134e-02
5.515789613127708435e-02
3.256978839635848999e-02
5.334817990660667419e-02
-2.680986933410167694e-02
4.011365398764610291e-02
1.541042048484086990e-02
1.254688203334808350e-02
1.803574711084365845e-02
4.759604111313819885e-02
-1.071854215115308762e-02
-5.723914876580238342e-02
-2.422756329178810120e-02
3.270671889185905457e-02
1.742133311927318573e-02
-2.047502994537353516e-02
-6.211229786276817322e-02
5.349262803792953491e-02
2.377230487763881683e-02
1.466494612395763397e-02
-5.296752229332923889e-02
-5.626407638192176819e-02
-2.098636515438556671e-02
2.869700081646442413e-02
6.149640306830406189e-02
2.927911654114723206e-02
-4.780749976634979248e-02
-2.744018472731113434e-02
-8.775754831731319427e-03
-8.993263356387615204e-03
2.341535687446594238e-02
-2.197209931910037994e-02
-4.128792509436607361e-02
-9.154633618891239166e-03
5.386561155319213867e-02
-1.216757204383611679e-02
-3.342491807416081429e-03
-8.489711210131645203e-03
-2.673289552330970764e-02
4.416927695274353027e-02
1.587310619652271271e-02
-4.645784944295883179e-02
-6.340196728706359863e-02
4.491743817925453186e-02
-6.709743291139602661e-03
2.786362357437610626e-02
3.362475661560893059e-03
-8.678913116455078125e-03
5.557007156312465668e-03
6.324512511491775513e-02
5.049912631511688232e-02
-2.459790185093879700e-02
-4.164776578545570374e-02
-3.227721154689788818e-02
2.583690918982028961e-02
6.862028501927852631e-03
-1.944709755480289459e-02
-3.435591235756874084e-02
3.881074860692024231e-02
2.828300930559635162e-02
-6.344862282276153564e-02
1.364311575889587402e-02
-1.299248263239860535e-02
2.367632277309894562e-02
-4.884071648120880127e-02
-8.895561099052429199e-03
-6.164727732539176941e-02
-5.348530411720275879e-02
5.309999734163284302e-02
-6.024570018053054810e-02
2.069531753659248352e-02
-2.559003606438636780e-02
2.106118015944957733e-02
1.817871816456317902e-02
1.404207944869995117e-02
-5.530989915132522583e-02
-5.122648552060127258e-02
2.950732409954071045e-02
-1.341517549008131027e-02
-5.837911367416381836e-02
1.454880461096763611e-02
-5.770037695765495300e-02
-5.911005660891532898e-02
-2.573347464203834534e-02
-6.241498887538909912e-02
4.137197136878967285e-02
-3.429140895605087280e-02
2.926376461982727051e-02
4.778156057000160217e-02
-5.277697369456291199e-02
2.240889333188533783e-02
-2.557623758912086487e-02
3.272422403097152710e-02
-2.253314293920993805e-02
-1.670569367706775665e-02
4.465658962726593018e-02
3.058941662311553955e-02
3.272512555122375488e-02
-3.886177018284797668e-02
4.775926843285560608e-02
-3.755142167210578918e-02
5.446454975754022598e-03
4.747312515974044800e-03
6.338029354810714722e-02
4.427804425358772278e-02
6.862283684313297272e-03
4.469924420118331909e-02
3.355201333761215210e-02
6.417389959096908569e-02
2.530451118946075439e-02
-8.792546577751636505e-03
5.213811993598937988e-02
4.688178002834320068e-02
6.207330897450447083e-02
-5.327739939093589783e-02
-6.712717469781637192e-03
-5.151462182402610779e-02
4.411311075091362000e-02
3.215235844254493713e-02
-2.551465295255184174e-02
-1.811642013490200043e-02
-5.831367522478103638e-02
-4.142350703477859497e-02
-5.122952628880739212e-03
5.177944898605346680e-02
-1.196038071066141129e-02
2.343359589576721191e-02
-5.806170031428337097e-02
-3.067434590775519609e-04
-3.999866172671318054e-02
4.353414848446846008e-02
6.108892615884542465e-03
-1.877173408865928650e-02
3.486768901348114014e-02
2.130902372300624847e-02
-4.440609738230705261e-02
6.331775337457656860e-02
2.428297139704227448e-02
2.866963297128677368e-02
-1.815203949809074402e-02
-3.121467074379324913e-03
-2.944509964436292648e-03
-8.264197967946529388e-03
3.041855804622173309e-02
3.389431908726692200e-02
6.370300799608230591e-02
1.543937716633081436e-02
2.058252459391951561e-03
-2.572013996541500092e-03
7.409278303384780884e-03
-5.306822061538696289e-02
-1.164114009588956833e-02
-4.363294318318367004e-02
4.900867491960525513e-02
2.986362576484680176e-02
1.097102835774421692e-02
1.638951711356639862e-02
-3.327578306198120117e-02
-2.879840135574340820e-02
1.822755299508571625e-02
5.426394939422607422e-02
-6.154885888099670410e-02
-5.768333561718463898e-03
-2.299127355217933655e-02
4.361865669488906860e-02
2.331168652744963765e-04
-3.038635849952697754e-02
5.502134934067726135e-02
-4.002851247787475586e-02
4.603774473071098328e-02
3.423259034752845764e-02
2.232889179140329361e-03
-6.414009630680084229e-02
6.076921150088310242e-02
9.054702706634998322e-03
2.921337075531482697e-02
4.169531166553497314e-02
-4.830054938793182373e-02
1.323992572724819183e-02
-5.005174502730369568e-02
-5.050336942076683044e-02
-5.612025409936904907e-02
-6.251414120197296143e-02
-4.443232342600822449e-02
2.542231976985931396e-02
-2.263859659433364868e-02
-9.580683894455432892e-03
3.979314491152763367e-02
3.088291361927986145e-02
4.034483805298805237e-02
-3.462327271699905396e-02
2.009937912225723267e-02
-4.631844349205493927e-03
-1.644875854253768921e-02
-2.366589568555355072e-02
-1.566103845834732056e-02
4.441893473267555237e-02
-2.293475903570652008e-02
-4.441843926906585693e-02
3.180766478180885315e-02
-3.753833472728729248e-02
-1.252240687608718872e-02
5.082706362009048462e-02
5.906312912702560425e-02
-1.580183207988739014e-02
-6.715931463986635208e-03
4.675068706274032593e-02
9.909030050039291382e-03
-3.085204586386680603e-02
-2.715987153351306915e-02
3.859641030430793762e-02
4.668300226330757141e-02
6.115569174289703369e-02
-1.519214920699596405e-02
-3.644142299890518188e-02
-3.138289600610733032e-02
5.649296194314956665e-02
-2.054690150544047356e-03
-1.198003720492124557e-02
-3.774871677160263062e-02
9.080090560019016266e-03
6.383710354566574097e-02
5.286982655525207520e-02
1.915637776255607605e-02
5.719784274697303772e-02
-3.196955099701881409e-02
-2.488390915095806122e-02
3.845885396003723145e-02
-3.001694381237030029e-02
4.566157236695289612e-03
1.717877388000488281e-02
4.388676583766937256e-02
-1.228738483041524887e-02
-3.018826246261596680e-02
4.938181373290717602e-04
-4.739316552877426147e-02
3.094240650534629822e-02
-3.138899628538638353e-04
2.592147700488567352e-02
2.927549742162227631e-02
-4.206756502389907837e-02
2.840101253241300583e-03
1.794709078967571259e-02
2.273597195744514465e-02
-2.022857777774333954e-02
-6.409642100334167480e-02
1.437015552073717117e-02
4.685922339558601379e-02
4.527705162763595581e-02
-2.450616331771016121e-03
-6.262691318988800049e-02
1.206796988844871521e-02
1.807489246129989624e-02
-2.851918898522853851e-02
-5.698692984879016876e-03
-3.619288653135299683e-02
-4.449078068137168884e-02
8.355889469385147095e-03
2.486238069832324982e-02
-1.381441764533519745e-02
6.144291907548904419e-02
-5.661607161164283752e-02
3.809528052806854248e-02
5.103451758623123169e-02
3.292606398463249207e-02
3.186814859509468079e-02
-2.767964266240596771e-02
3.084642440080642700e-02
-3.967997431755065918e-02
3.285085782408714294e-02
4.413773491978645325e-02
3.054921329021453857e-02
-5.656411871314048767e-03
-3.620812296867370605e-02
-3.934682533144950867e-02
2.181983366608619690e-02
8.617606945335865021e-03
3.319461643695831299e-02
-2.988221496343612671e-02
4.911475814878940582e-03
-1.546569913625717163e-02
6.009781360626220703e-02
-1.209129113703966141e-02
2.903692610561847687e-02
4.630995914340019226e-02
-1.266499701887369156e-02
1.663536950945854187e-02
-3.302216529846191406e-02
-4.735412076115608215e-02
-1.654097065329551697e-02
-1.466799806803464890e-02
3.640337660908699036e-02
-3.296145051717758179e-02
6.361173093318939209e-02
5.464268103241920471e-02
6.049972400069236755e-02
1.869587227702140808e-02
4.261695221066474915e-02
5.103210918605327606e-03
5.916543304920196533e-02
-5.828714463859796524e-03
4.906458407640457153e-02
9.505715221166610718e-03
-3.440423309803009033e-02
-5.421860143542289734e-02
1.678667147643864155e-03
8.500413037836551666e-03
1.380449626594781876e-02
-1.746644382365047932e-03
4.931718856096267700e-02
3.619429096579551697e-02
2.875281125307083130e-02
3.704858943819999695e-02
6.152461841702461243e-02
-5.450265109539031982e-02
-5.170972645282745361e-02
5.156194791197776794e-02
-4.485197365283966064e-02
-2.647011354565620422e-02
3.244755417108535767e-02
-3.960705921053886414e-02
1.703281141817569733e-02
-2.109462209045886993e-02
2.259478904306888580e-02
5.186202377080917358e-02
3.822156786918640137e-02
-4.681942611932754517e-02
5.813942849636077881e-02
-2.509662508964538574e-02
-3.120298497378826141e-02
-1.244258321821689606e-02
-3.987084329128265381e-02
-3.292873501777648926e-02
-4.630604013800621033e-02
-2.496105618774890900e-03
-6.217134371399879456e-02
2.075182273983955383e-02
-4.363496229052543640e-02
-3.399433195590972900e-02
3.019273653626441956e-02
1.447354815900325775e-02
-3.582188487052917480e-02
-2.108466811478137970e-02
-1.501006260514259338e-02
-4.832989722490310669e-02
-2.909239009022712708e-02
1.183821633458137512e-02
-4.436435177922248840e-02
6.024152040481567383e-02
-8.242266252636909485e-03
1.017102226614952087e-02
3.257910534739494324e-02
7.807946298271417618e-03
-6.002368777990341187e-02
2.046988531947135925e-02
2.380840480327606201e-02
3.671820089221000671e-02
-1.294444501399993896e-02
-1.209771167486906052e-02
-1.588117331266403198e-02
2.888597920536994934e-02
6.100812926888465881e-02
-7.481699809432029724e-03
-3.542724996805191040e-03
-3.139551728963851929e-02
-3.635612665675580502e-04
-2.307214774191379547e-02
-2.781021175906062126e-03
-2.717141062021255493e-02
5.100796744227409363e-02
4.806495457887649536e-02
5.212140083312988281e-02
-4.566756263375282288e-02
-2.014700323343276978e-02
2.192206494510173798e-02
5.807940289378166199e-02
2.049524337053298950e-02
-1.223128568381071091e-02
-2.243608236312866211e-02
5.935287103056907654e-02
-1.671606115996837616e-02
4.963361099362373352e-02
-8.179946802556514740e-03
3.017770312726497650e-02
9.418154135346412659e-03
2.431653439998626709e-02
4.488484188914299011e-02
-3.787386789917945862e-02
-1.494699995964765549e-02
1.281987875699996948e-02
4.683898761868476868e-02
5.461762845516204834e-02
-1.539379265159368515e-02
3.546319156885147095e-02
-6.395680457353591919e-02
5.357551947236061096e-02
-4.504806548357009888e-02
3.541094809770584106e-02
3.197589516639709473e-02
4.795408993959426880e-02
-5.219689011573791504e-02
1.609236560761928558e-02
1.937963999807834625e-03
2.306637354195117950e-02
5.015414580702781677e-02
5.362631380558013916e-02
-4.010905325412750244e-02
-2.094459906220436096e-02
-6.165014952421188354e-02
2.158603072166442871e-02
-3.920572996139526367e-02
2.317986823618412018e-02
3.655432909727096558e-02
-5.878314748406410217e-02
-4.683697596192359924e-02
-4.935357719659805298e-02
2.007457427680492401e-02
1.180788036435842514e-02
1.466368511319160461e-02
5.816282704472541809e-02
8.641227148473262787e-03
-2.789864316582679749e-02
5.377136170864105225e-03
2.884362824261188507e-03
2.384703233838081360e-02
-2.314859069883823395e-02
3.650840744376182556e-02
2.521698176860809326e-02
1.380656758556142449e-04
3.382206708192825317e-02
3.624229924753308296e-03
-3.996481001377105713e-02
-2.291648462414741516e-02
-3.890199586749076843e-02
1.557788532227277756e-02
-1.792296394705772400e-02
5.563067644834518433e-02
-3.736760839819908142e-02
-3.792560193687677383e-03
4.664331208914518356e-03
6.320767849683761597e-02
-1.190747600048780441e-02
-5.616719275712966919e-02
6.208101660013198853e-02
3.927614539861679077e-02
-1.467858627438545227e-02
5.222059041261672974e-02
-5.083599686622619629e-02
-6.176384165883064270e-03
5.957723781466484070e-02
5.313136801123619080e-02
3.554973378777503967e-02
4.762789979577064514e-02
-2.764487871900200844e-03
2.185199782252311707e-02
4.247767850756645203e-02
3.304418176412582397e-02
4.460111632943153381e-02
3.199540078639984131e-02
6.351543962955474854e-02
5.059741064906120300e-02
3.578913211822509766e-02
5.685543641448020935e-02
-4.733259975910186768e-02
-1.142525766044855118e-02
4.753181338310241699e-02
-5.498463660478591919e-02
-1.828728802502155304e-02
-1.741215400397777557e-02
-1.113247824832797050e-03
4.950790479779243469e-02
3.165535256266593933e-02
1.297285966575145721e-02
5.651627853512763977e-02
-2.358005568385124207e-02
-3.139356151223182678e-02
4.585448279976844788e-02
2.117181196808815002e-02
-5.467379093170166016e-02
4.935932531952857971e-02
-3.370351716876029968e-02
5.027593299746513367e-02
2.268995344638824463e-02
-5.828885361552238464e-02
1.236372906714677811e-02
1.072038547135889530e-03
6.337466184049844742e-03
3.940871730446815491e-02
2.742341719567775726e-02
4.611972346901893616e-02
9.218992665410041809e-03
-4.783165827393531799e-02
-5.994745716452598572e-02
9.281361708417534828e-04
8.564591407775878906e-03
-3.068339265882968903e-02
4.340006411075592041e-02
1.794483512639999390e-02
5.916993692517280579e-02
5.152257904410362244e-02
1.794042065739631653e-02
2.139461599290370941e-02
2.603430673480033875e-02
-1.572663709521293640e-02
4.418737068772315979e-02
2.694946713745594025e-02
-2.214842475950717926e-02
-1.861978322267532349e-02
2.983896061778068542e-02
-4.457134008407592773e-02
5.477134883403778076e-02
-8.442241698503494263e-03
1.879809238016605377e-02
-6.338846683502197266e-02
-3.045552223920822144e-02
5.363353341817855835e-02
4.037608951330184937e-02
1.983133703470230103e-02
1.055749785155057907e-02
-2.111900364980101585e-03
6.618096958845853806e-03
-6.355686485767364502e-02
-7.478768471628427505e-03
-4.118802025914192200e-02
-4.236884415149688721e-02
-2.936369366943836212e-02
4.173799231648445129e-02
1.902043633162975311e-02
2.552547678351402283e-02
2.787332050502300262e-02
4.177727550268173218e-02
-1.869495026767253876e-02
-5.435408651828765869e-02
5.832261964678764343e-02
4.031485586892813444e-04
-5.065638571977615356e-02
1.401963410899043083e-03
2.747559174895286560e-02
-5.697165429592132568e-02
3.954208642244338989e-02
-6.023583188652992249e-02
-5.764044076204299927e-02
-9.959896851796656847e-05
4.772422835230827332e-02
1.825897395610809326e-02
1.600552536547183990e-02
5.704355984926223755e-02
-3.010660968720912933e-02
1.770464889705181122e-02
-1.596949249505996704e-02
-3.223536536097526550e-02
-2.595615386962890625e-02
-7.994538173079490662e-03
-3.164082020521163940e-02
-6.449583172798156738e-02
1.962094008922576904e-02
5.004300922155380249e-02
1.262157037854194641e-02
-2.150102891027927399e-02
1.536417752504348755e-02
7.157906889915466309e-03
-2.392234839498996735e-02
1.960012130439281464e-02
4.059557244181632996e-02
2.073654346168041229e-02
-3.740107640624046326e-03
1.512219849973917007e-02
3.371993824839591980e-02
4.771680105477571487e-03
2.490635216236114502e-02
-1.735071092844009399e-02
2.508922480046749115e-02
-4.164172336459159851e-02
1.366301812231540680e-02
-5.853062495589256287e-02
-1.193110272288322449e-02
4.483411088585853577e-03
-1.989293843507766724e-02
-2.659346163272857666e-02
1.152802724391222000e-02
1.488146255724132061e-03
1.849463395774364471e-02
3.355701267719268799e-02
5.847816169261932373e-02
3.724566102027893066e-02
6.031752005219459534e-02
-1.436131913214921951e-02
-4.101105406880378723e-02
1.646831631660461426e-02
-4.428093880414962769e-02
7.334572728723287582e-04
2.169481245800852776e-03
-1.008164254017174244e-03
-5.491481348872184753e-02
-4.240843281149864197e-02
-3.322994336485862732e-02
-6.020225700922310352e-04
3.795481473207473755e-02
-3.815954260062426329e-04
6.400012969970703125e-02
2.107536047697067261e-02
-5.052101798355579376e-03
1.403370127081871033e-02
2.630176953971385956e-02
-2.658090181648731232e-02
-5.033971369266510010e-02
-1.172694377601146698e-02
-1.016233116388320923e-02
-5.485531315207481384e-02
3.759653540328145027e-03
-3.069599345326423645e-02
1.569299399852752686e-02
-1.996967382729053497e-02
5.344130098819732666e-03
-2.643779478967189789e-02
-4.166061431169509888e-02
3.024460747838020325e-02
-2.835376374423503876e-02
5.233240779489278793e-03
-3.731621801853179932e-02
2.984933368861675262e-02
-4.050572961568832397e-02
7.530627306550741196e-03
-4.454530403017997742e-02
2.176641952246427536e-03
3.366606310009956360e-02
2.267662622034549713e-02
5.870334431529045105e-02
9.751250967383384705e-03
5.560916289687156677e-02
-1.280320435762405396e-02
-5.392560735344886780e-02
-2.957784198224544525e-02
-3.319452702999114990e-02
2.178418636322021484e-02
4.936899989843368530e-02
-6.885894574224948883e-03
-6.138236075639724731e-02
1.014175452291965485e-02
6.431929022073745728e-02
4.049562290310859680e-02
-1.391626428812742233e-02
-4.838144779205322266e-02
2.543654991313815117e-03
-2.795241307467222214e-04
-1.127933990210294724e-02
2.403745427727699280e-02
3.059140406548976898e-02
-8.887659758329391479e-03
-1.239981502294540405e-02
-4.864188656210899353e-02
-1.611514948308467865e-02
-4.137508943676948547e-02
-4.488981503527611494e-04
4.918317496776580811e-02
-3.510762751102447510e-02
2.118550986051559448e-02
-5.591039732098579407e-02
-6.085424497723579407e-02
-3.491643071174621582e-02
2.523378469049930573e-02
3.543398156762123108e-02
6.347084883600473404e-03
-6.279569119215011597e-02
1.851481199264526367e-02
3.231344372034072876e-02
-5.566360801458358765e-02
4.306538775563240051e-02
-3.571411967277526855e-02
2.302178367972373962e-02
4.598704352974891663e-02
-5.338937789201736450e-02
2.439987659454345703e-02
-6.085143238306045532e-02
-4.446667805314064026e-02
-3.879775106906890869e-02
-3.097526915371417999e-02
-5.643615126609802246e-02
4.873376712203025818e-02
-4.066582024097442627e-02
-6.073115766048431396e-02
-4.544754698872566223e-02
-4.778973385691642761e-02
4.785519465804100037e-02
-2.462654933333396912e-02
3.542990610003471375e-02
7.004518993198871613e-03
3.340168157592415810e-03
-8.567472919821739197e-03
-4.973491653800010681e-02
-5.345099605619907379e-03
-1.001007389277219772e-02
6.308295577764511108e-02
-3.685231879353523254e-02
-5.232230946421623230e-02
3.332665190100669861e-02
-3.438497707247734070e-02
-1.450492255389690399e-02
-2.391587942838668823e-02
2.783342637121677399e-02
4.337568953633308411e-02
-1.490839570760726929e-02
-3.658727183938026428e-02
2.325071021914482117e-02
-5.248318612575531006e-02
5.987259373068809509e-02
-3.469455614686012268e-02
-1.712860539555549622e-02
-2.795837447047233582e-02
7.713849190622568130e-03
4.411862045526504517e-02
-3.800597414374351501e-02
4.863737151026725769e-02
6.276761740446090698e-02
3.105180710554122925e-02
2.641006372869014740e-02
-2.520718425512313843e-02
2.176718972623348236e-02
-1.515315612778067589e-03
-5.245032161474227905e-02
6.322282552719116211e-02
1.053446438163518906e-02
-2.977591753005981445e-02
1.036764401942491531e-02
5.016132444143295288e-02
9.440977592021226883e-04
-5.459776893258094788e-02
6.317796185612678528e-03
3.025272861123085022e-02
-2.590542286634445190e-02
1.805656962096691132e-02
-3.340968489646911621e-02
5.104771628975868225e-02
6.143575906753540039e-02
1.744361035525798798e-02
-5.738162621855735779e-02
4.714285209774971008e-02
5.394214764237403870e-02
-6.559690460562705994e-03
-2.217897400259971619e-02
2.635113708674907684e-02
-2.744709514081478119e-02
-4.330903291702270508e-03
5.234361160546541214e-03
-4.859977960586547852e-02
4.929683730006217957e-02
5.754186213016510010e-02
3.585065901279449463e-02
-4.497918114066123962e-02
3.089384175837039948e-02
5.382491648197174072e-02
5.945928860455751419e-03
-6.059800088405609131e-02
5.434830486774444580e-02
-5.730645731091499329e-02
3.184612095355987549e-02
1.091637369245290756e-02
-5.899455770850181580e-02
6.430593132972717285e-02
-5.660317465662956238e-02
-6.158570200204849243e-02
4.914874210953712463e-03
-2.234723884612321854e-03
4.796500876545906067e-02
-1.437221094965934753e-02
-5.499835312366485596e-02
-5.634984001517295837e-02
2.498315274715423584e-02
-6.156810373067855835e-02
2.723889052867889404e-02
3.487010300159454346e-02
7.644370198249816895e-03
-6.812827661633491516e-03
-8.229783736169338226e-03
2.329818345606327057e-02
-4.293529689311981201e-02
4.204143211245536804e-02
1.136522041633725166e-03
-4.327208735048770905e-03
-4.699369601439684629e-04
-3.376117348670959473e-02
7.391273975372314453e-03
1.687931641936302185e-02
-5.780550464987754822e-02
-1.625200733542442322e-02
3.919384628534317017e-02
-3.309438377618789673e-02
-2.896428480744361877e-02
-2.941028028726577759e-02
5.312716215848922729e-02
2.183934114873409271e-02
6.173085886985063553e-03
2.511725388467311859e-02
2.981128916144371033e-02
-1.972292957361787558e-04
5.057295411825180054e-02
1.110742893069982529e-02
-3.370330110192298889e-02
-1.573297008872032166e-02
2.753581386059522629e-03
-4.237008467316627502e-02
-5.723194684833288193e-03
-3.807791322469711304e-02
-1.178215909749269485e-02
2.351570874452590942e-03
1.249560341238975525e-02
-5.370310321450233459e-02
4.431951418519020081e-02
-2.448401227593421936e-02
3.349786624312400818e-02
6.761156953871250153e-03
-2.252849191427230835e-02
-5.762870609760284424e-02
-4.111700505018234253e-02
3.921230882406234741e-02
-5.259540304541587830e-02
-2.722384594380855560e-02
5.830435454845428467e-02
5.744592845439910889e-02
-1.449106354266405106e-02
-1.545700151473283768e-02
4.431073367595672607e-02
-4.556462541222572327e-02
3.532943129539489746e-02
-4.287958517670631409e-02
4.122294485569000244e-03
-6.209535524249076843e-02
-3.391581028699874878e-02
3.547841310501098633e-02
6.989500834606587887e-04
4.032244533300399780e-02
3.285550698637962341e-02
8.713671006262302399e-03
-6.094777211546897888e-02
-4.549864679574966431e-02
6.203469634056091309e-02
-2.985133789479732513e-02
-1.930968649685382843e-02
5.004383996129035950e-02
-4.407035559415817261e-02
-2.337183803319931030e-02
-1.124316733330488205e-02
3.631171584129333496e-02
5.905158817768096924e-02
5.310778692364692688e-02
-1.527674961835145950e-02
2.030197158455848694e-02
1.780063658952713013e-02
1.890326105058193207e-02
-3.784961532801389694e-03
-4.881787300109863281e-02
2.753103151917457581e-02
4.483222961425781250e-02
-5.253418534994125366e-02
2.260688925161957741e-03
2.909237891435623169e-02
4.860239848494529724e-02
6.250803917646408081e-02
4.740198701620101929e-02
-2.549593336880207062e-02
-6.114377826452255249e-02
-3.004854777827858925e-03
-5.401654541492462158e-02
4.681673645973205566e-02
-6.740921176970005035e-03
2.977835945785045624e-02
6.277752667665481567e-02
-3.647575154900550842e-02
4.631166905164718628e-02
4.135118797421455383e-02
-1.363032031804323196e-02
-1.741187064908444881e-03
9.053155779838562012e-03
1.822041906416416168e-02
9.900574572384357452e-03
3.164983820170164108e-03
-5.039311945438385010e-02
4.134817980229854584e-03
1.327804755419492722e-02
7.083831820636987686e-03
3.861606866121292114e-02
-5.903118103742599487e-02
-6.125720962882041931e-02
4.937602579593658447e-02
-5.874056741595268250e-02
-2.030173502862453461e-02
1.575275138020515442e-02
4.497278481721878052e-02
-5.714626610279083252e-02
5.534457415342330933e-02
-2.029440831393003464e-03
5.546203628182411194e-02
-1.722701825201511383e-02
1.410206314176321030e-02
6.286977976560592651e-02
-3.047100268304347992e-03
3.832531627267599106e-03
-1.247629802674055099e-02
-6.383071094751358032e-02
-5.521177500486373901e-02
9.973883628845214844e-03
-5.983378738164901733e-02
-4.421259462833404541e-02
5.711108446121215820e-02
-5.968222394585609436e-02
4.108434170484542847e-02
5.523196607828140259e-02
5.693347007036209106e-02
-2.750980295240879059e-02
3.215517476201057434e-02
-5.349366366863250732e-02
2.276379801332950592e-02
-4.486261680722236633e-02
-4.500137269496917725e-02
6.049318611621856689e-02
4.043412394821643829e-03
-1.325652655214071274e-02
-4.984989389777183533e-02
2.359030582010746002e-02
-5.987060070037841797e-02
8.189451880753040314e-03
-5.715271458029747009e-02
1.909094303846359253e-02
-2.583516761660575867e-02
-6.331034004688262939e-02
-5.493856221437454224e-02
1.887197233736515045e-02
-3.626775369048118591e-02
2.552715875208377838e-02
-5.778933688998222351e-02
-5.544846877455711365e-02
4.134189710021018982e-02
2.295991405844688416e-02
5.126365926116704941e-03
-1.225990243256092072e-02
1.733017712831497192e-02
-4.370975494384765625e-02
4.850954189896583557e-02
-2.163982391357421875e-02
3.680560365319252014e-02
-1.388213131576776505e-02
5.078293383121490479e-03
-5.582482740283012390e-02
4.304893687367439270e-02
-3.255718620494008064e-03
-6.700002588331699371e-03
3.483653813600540161e-02
6.171483546495437622e-02
-3.626938909292221069e-02
1.220758073031902313e-02
4.277943074703216553e-02
-3.992366045713424683e-02
3.304131329059600830e-02
-2.658558636903762817e-02
3.599361702799797058e-02
-2.531218342483043671e-02
2.333284169435501099e-02
-6.022715568542480469e-02
2.920606546103954315e-02
-2.286956273019313812e-02
5.352546460926532745e-03
7.930345833301544189e-03
3.014112822711467743e-02
-1.958072185516357422e-02
2.320267818868160248e-02
-6.312350183725357056e-02
2.663519605994224548e-02
-1.282898429781198502e-02
-3.128436580300331116e-02
2.088435180485248566e-02
-9.493910707533359528e-03
3.933155536651611328e-02
5.209862068295478821e-02
-2.308585494756698608e-02
4.248896241188049316e-02
-1.088844332844018936e-02
-5.869600549340248108e-02
4.684049263596534729e-02
4.475145787000656128e-02
-1.480381563305854797e-02
4.713303875178098679e-03
3.592897951602935791e-02
-2.559434249997138977e-02
1.277278363704681396e-02
4.895235225558280945e-02
4.652913659811019897e-02
5.987083911895751953e-02
2.482126466929912567e-02
-1.253400370478630066e-02
3.029570542275905609e-02
6.156275048851966858e-03
-6.315372139215469360e-02
3.146722167730331421e-02
-1.183187030255794525e-02
-3.494948521256446838e-02
3.225977346301078796e-02
3.348581492900848389e-02
-2.729676105082035065e-02
-1.949283666908740997e-02
5.865882337093353271e-02
-4.379612207412719727e-02
-4.955346882343292236e-02
-1.305415295064449310e-02
5.376502871513366699e-03
-1.475187018513679504e-02
3.922662511467933655e-02
-2.508656121790409088e-02
3.269893676042556763e-02
3.088143467903137207e-02
2.734280750155448914e-02
1.362118404358625412e-02
-5.319316312670707703e-02
3.188804909586906433e-02
-3.992048650979995728e-02
1.058715209364891052e-02
2.753486484289169312e-02
5.126613751053810120e-02
2.358362823724746704e-02
-2.788826078176498413e-02
3.465450182557106018e-02
2.614550478756427765e-02
1.871241629123687744e-02
2.608393505215644836e-02
-1.940716616809368134e-02
-2.906605787575244904e-02
9.894083486869931221e-04
-4.114644229412078857e-02
6.039004772901535034e-02
-4.195602983236312866e-02
2.772004157304763794e-02
6.060706824064254761e-02
3.144143521785736084e-02
-1.829493604600429535e-02
-3.749269992113113403e-02
3.406143188476562500e-02
4.039133340120315552e-02
-5.974026396870613098e-02
6.426143646240234375e-02
-6.062640622258186340e-02
4.002080485224723816e-02
4.589766636490821838e-02
-3.314225748181343079e-02
-1.299785822629928589e-02
1.634056493639945984e-02
-3.545389277860522270e-03
2.943236380815505981e-03
-3.728922456502914429e-02
-5.235011875629425049e-02
-3.842560946941375732e-02
-1.389454770833253860e-02
3.718566847965121269e-03
-3.415428474545478821e-02
-1.395248342305421829e-02
-8.381318300962448120e-03
-3.443018766120076180e-03
6.416917592287063599e-02
-1.975814811885356903e-02
-3.081607166677713394e-03
-1.543091144412755966e-02
-4.767208825796842575e-03
2.058168686926364899e-02
5.630787461996078491e-02
-5.860195029526948929e-03
5.662675201892852783e-02
5.720134079456329346e-02
4.710110835731029510e-03
1.346447132527828217e-02
-8.118728292174637318e-04
-5.640039592981338501e-02
1.515859831124544144e-02
4.660890437662601471e-03
-3.112340532243251801e-02
2.088562212884426117e-02
3.633969277143478394e-02
4.270884767174720764e-02
1.761795021593570709e-02
1.026347652077674866e-02
-9.562673047184944153e-03
9.111323393881320953e-03
5.090214777737855911e-03
1.261275960132479668e-03
7.917404174804687500e-03
-4.406895488500595093e-02
-4.976604133844375610e-02
3.371602296829223633e-02
-2.216879464685916901e-02
5.888103973120450974e-03
3.968016430735588074e-02
2.053582295775413513e-02
1.804676838219165802e-02
4.188806563615798950e-02
1.233315188437700272e-02
-6.070976704359054565e-02
-1.737639307975769043e-02
-6.380043178796768188e-02
6.174085661768913269e-02
5.658561736345291138e-02
3.436275199055671692e-02
1.008912082761526108e-02
7.181225810199975967e-03
2.525516971945762634e-02
-2.055876515805721283e-02
-3.365061804652214050e-02
1.825023628771305084e-02
4.093961790204048157e-03
1.792239025235176086e-02
-4.730504006147384644e-02
-1.804277114570140839e-02
-5.406743288040161133e-02
-2.360372617840766907e-02
-4.833632707595825195e-02
5.111885815858840942e-02
-6.865311414003372192e-03
-4.042052477598190308e-02
5.068557709455490112e-02
-5.402220413088798523e-02
-3.214474767446517944e-02
-6.334047019481658936e-02
-5.502294376492500305e-02
4.659416154026985168e-02
-4.818562418222427368e-02
4.744600504636764526e-03
-5.524675548076629639e-02
3.956080228090286255e-02
2.241563238203525543e-02
6.153481453657150269e-02
5.997444316744804382e-02
5.981133878231048584e-02
5.525325238704681396e-02
-2.927543409168720245e-02
-4.547476395964622498e-02
-3.354358300566673279e-02
3.762073069810867310e-02
-2.926265075802803040e-02
4.265901446342468262e-02
4.228757321834564209e-02
4.301336407661437988e-02
-4.515124112367630005e-02
6.151539459824562073e-02
-6.304807495325803757e-03
-8.901823312044143677e-04
2.650864794850349426e-02
3.416145965456962585e-02
-4.385169222950935364e-02
1.824854128062725067e-02
3.597839921712875366e-02
-5.519281327724456787e-02
-4.184945672750473022e-02
2.360803820192813873e-02
-7.578243035823106766e-03
-2.163355052471160889e-02
-3.566811978816986084e-02
2.891574613749980927e-02
4.174783453345298767e-02
3.486488014459609985e-02
-1.632143184542655945e-02
-3.495822101831436157e-02
2.841410040855407715e-02
-1.142203994095325470e-02
-3.330998821184039116e-03
-1.677107810974121094e-02
-2.760963514447212219e-02
-1.333377789705991745e-02
-3.648882359266281128e-02
-2.942966111004352570e-02
4.550863057374954224e-02
9.498756378889083862e-03
-5.939160007983446121e-03
6.382463872432708740e-02
2.818100526928901672e-02
-1.830574497580528259e-02
-9.813692420721054077e-03
2.516330219805240631e-03
-1.708039455115795135e-02
6.303936243057250977e-02
3.628279268741607666e-02
-2.619033493101596832e-02
3.777142986655235291e-02
-6.420037709176540375e-03
4.838122427463531494e-02
-5.942167341709136963e-02
-3.837087377905845642e-02
-2.028746344149112701e-02
3.005662560462951660e-02
-1.740868389606475830e-02
5.461844056844711304e-02
-3.836732357740402222e-02
-4.233121126890182495e-02
7.817875593900680542e-03
5.629256740212440491e-02
2.019701711833477020e-02
3.044223785400390625e-02
-5.459919571876525879e-02
-9.648676030337810516e-03
4.487701505422592163e-02
-5.596730858087539673e-03
3.922839090228080750e-02
1.821899600327014923e-02
1.593670062720775604e-02
5.915859341621398926e-02
4.372798278927803040e-02
-4.892092943191528320e-02
-4.739746823906898499e-02
1.075267326086759567e-02
4.036463331431150436e-03
-1.263875863514840603e-03
-2.783358097076416016e-02
3.375890199095010757e-03
-2.830131445080041885e-03
-3.667843714356422424e-02
1.893974840641021729e-03
-2.243486605584621429e-02
-5.222368985414505005e-02
4.488491639494895935e-02
-6.228050589561462402e-02
2.541573718190193176e-02
-1.963836373761296272e-03
-4.173346608877182007e-02
-5.455148592591285706e-02
5.994746834039688110e-02
-4.528164863586425781e-02
-2.402081154286861420e-02
-1.208289805799722672e-02
1.266531925648450851e-02
-2.131463028490543365e-02
4.047368653118610382e-03
4.234426096081733704e-02
-6.467066705226898193e-03
-3.357374668121337891e-02
3.990570455789566040e-02
4.054627567529678345e-02
1.848306693136692047e-02
3.704945743083953857e-02
2.181106992065906525e-02
5.742526799440383911e-02
-4.937018081545829773e-02
-3.384250029921531677e-02
5.669385567307472229e-02
3.232420235872268677e-02
-2.715139277279376984e-02
-3.527856664732098579e-03
1.081746071577072144e-02
4.575255513191223145e-02
3.566547855734825134e-02
-4.322260618209838867e-02
3.913274779915809631e-02
4.343453422188758850e-02
4.460053890943527222e-02
8.092278614640235901e-03
5.389553681015968323e-02
5.444113630801439285e-04
-5.309582501649856567e-02
3.891071304678916931e-02
2.013280056416988373e-02
1.402440946549177170e-02
3.669213503599166870e-02
-4.871814697980880737e-02
3.975936770439147949e-02
5.704214423894882202e-02
5.643964931368827820e-02
2.768076583743095398e-02
2.628796175122261047e-02
3.733647987246513367e-02
6.357327103614807129e-02
7.272964343428611755e-03
-1.627901010215282440e-02
3.794675320386886597e-02
-2.593596279621124268e-02
2.757320180535316467e-02
3.190870955586433411e-02
-2.407116815447807312e-02
1.645957306027412415e-02
1.919039897620677948e-02
6.248424202203750610e-02
-7.625171914696693420e-03
3.482970222830772400e-02
-5.374583229422569275e-02
1.535505149513483047e-02
-5.378317460417747498e-02
-1.398618612438440323e-02
4.607222229242324829e-02
3.034737706184387207e-02
-1.123663410544395447e-02
6.867840420454740524e-03
-3.202585503458976746e-02
1.642724312841892242e-02
-3.577442467212677002e-02
2.070891298353672028e-02
3.827802836894989014e-02
-2.055407688021659851e-02
-5.109953507781028748e-02
-6.353158503770828247e-02
2.671013958752155304e-02
-3.952820971608161926e-02
5.034084990620613098e-02
4.209911078214645386e-02
5.570326000452041626e-02
1.705413497984409332e-02
1.486278418451547623e-02
-4.983658343553543091e-02
-1.862657628953456879e-02
-4.449191689491271973e-02
-1.742666959762573242e-02
-1.382307428866624832e-02
-2.949155680835247040e-02
2.308693900704383850e-02
4.409880191087722778e-02
4.857543483376502991e-02
-2.351322211325168610e-02
3.182904422283172607e-02
1.243901997804641724e-02
-4.905084520578384399e-02
1.696317642927169800e-02
1.142577081918716431e-02
-3.993327170610427856e-02
-5.626586079597473145e-02
3.039048053324222565e-03
-2.052967064082622528e-02
2.181028202176094055e-02
-5.744278058409690857e-02
2.424515038728713989e-02
5.399849638342857361e-02
2.314014174044132233e-02
-5.085043609142303467e-02
-4.837801307439804077e-02
5.679368972778320312e-02
-1.747055165469646454e-02
8.819807320833206177e-03
2.821904234588146210e-02
-7.569984067231416702e-03
3.384758904576301575e-02
-3.731914563104510307e-03
-2.257688529789447784e-02
-6.271909922361373901e-03
-6.517855450510978699e-03
5.254439637064933777e-02
-9.614277631044387817e-03
5.865062028169631958e-02
6.180228665471076965e-03
-2.610478177666664124e-02
2.018298394978046417e-02
2.577126026153564453e-02
-3.879534825682640076e-02
3.520213067531585693e-02
-3.325705230236053467e-02
-3.031582944095134735e-02
5.421306565403938293e-02
4.736137017607688904e-02
1.519456598907709122e-02
-2.385169826447963715e-02
-3.992699831724166870e-02
2.599118091166019440e-02
4.042873531579971313e-02
2.934713661670684814e-02
2.485571801662445068e-02
-2.119421027600765228e-02
4.915135353803634644e-02
-3.306210413575172424e-02
-2.481656521558761597e-02
-6.706131622195243835e-03
-6.972082890570163727e-03
3.057309985160827637e-02
-5.789798125624656677e-02
6.006117910146713257e-02
-6.146928295493125916e-02
-2.642470970749855042e-02
4.240737482905387878e-02
3.838235512375831604e-02
5.848297104239463806e-02
-5.485188215970993042e-02
5.852862820029258728e-02
-3.329958394169807434e-02
-1.954000443220138550e-02
6.313695013523101807e-02
5.980975180864334106e-02
-4.076861590147018433e-02
5.442380905151367188e-02
5.341551732271909714e-03
-2.050861716270446777e-02
4.161533340811729431e-02
3.499566018581390381e-02
-5.149124935269355774e-02
3.412186354398727417e-02
2.007561735808849335e-02
-2.606929838657379150e-02
2.089241519570350647e-02
1.443530991673469543e-02
-3.611432388424873352e-02
3.927381709218025208e-02
-2.898226678371429443e-02
2.246547862887382507e-02
-2.166287600994110107e-02
6.082215160131454468e-02
-1.161959581077098846e-02
-2.035889960825443268e-02
2.545193582773208618e-02
4.456585645675659180e-02
5.071368440985679626e-02
-6.214877963066101074e-02
4.961201921105384827e-02
-5.605614185333251953e-02
-1.888453587889671326e-02
-3.081955760717391968e-02
4.214440286159515381e-02
1.252452377229928970e-02
5.897520482540130615e-02
-4.758208990097045898e-02
-2.518185228109359741e-02
-3.293948248028755188e-02
-3.462961874902248383e-03
4.517788533121347427e-03
6.103472318500280380e-03
-5.905851721763610840e-02
9.126780554652214050e-03
1.338146720081567764e-02
-2.579067088663578033e-02
-3.882857412099838257e-02
-2.453061286360025406e-03
-4.136520996689796448e-02
-6.457688286900520325e-04
-3.577699884772300720e-02
-2.884608693420886993e-04
-2.155702561140060425e-02
-4.186039790511131287e-02
4.657432064414024353e-02
-4.463054612278938293e-02
-5.772347748279571533e-02
-4.717602208256721497e-02
7.763003464788198471e-03
-2.192757092416286469e-02
2.013894543051719666e-02
-5.421635508537292480e-02
3.780221194028854370e-02
-1.012900937348604202e-02
1.773879677057266235e-02
-3.322263062000274658e-02
-4.758942499756813049e-02
-3.188134729862213135e-02
2.145018987357616425e-02
-1.685983873903751373e-02
3.602071851491928101e-02
-5.261563882231712341e-02
-1.339550875127315521e-02
3.807200863957405090e-02
-2.739568054676055908e-02
4.290703311562538147e-02
4.910965636372566223e-02
-2.821077965199947357e-02
-4.094172641634941101e-02
2.373207360506057739e-02
-1.433725003153085709e-02
2.401889860630035400e-02
-3.913290053606033325e-02
-3.770716860890388489e-02
9.167251177132129669e-03
-1.902456954121589661e-02
9.524088352918624878e-03
3.918483108282089233e-02
8.341431617736816406e-03
-1.370857749134302139e-02
2.771492302417755127e-02
-1.049745175987482071e-02
-3.446443378925323486e-02
-4.198406264185905457e-02
-4.087319597601890564e-02
2.450209110975265503e-02
2.055112645030021667e-02
-1.361005846410989761e-02
1.618544012308120728e-02
2.850444754585623741e-03
1.176121737807989120e-02
-3.246141597628593445e-02
1.092583965510129929e-02
-6.255650520324707031e-02
-1.342689618468284607e-02
-1.610111817717552185e-02
-1.408077683299779892e-02
3.069452755153179169e-02
2.644427120685577393e-02
4.505011066794395447e-02
6.051482632756233215e-02
-1.483890134841203690e-02
5.760026350617408752e-02
1.188200246542692184e-02
5.145664513111114502e-02
-4.651521891355514526e-02
2.625169977545738220e-02
3.579190373420715332e-02
-4.194136708974838257e-02
-5.675409734249114990e-02
-4.067895188927650452e-02
-4.575860127806663513e-02
1.695814542472362518e-02
-2.079630456864833832e-02
8.301340974867343903e-03
2.661949396133422852e-02
4.562498256564140320e-02
6.395128555595874786e-03
-3.710023313760757446e-02
3.009537048637866974e-02
9.983965195715427399e-03
-3.941749036312103271e-02
-5.981153249740600586e-02
4.241298511624336243e-02
1.536184083670377731e-02
-4.866617918014526367e-02
9.549973183311522007e-04
3.031602874398231506e-02
5.962274596095085144e-02
-4.400203749537467957e-02
1.910877972841262817e-02
3.968900069594383240e-02
-3.483138978481292725e-02
6.117535009980201721e-02
3.254141658544540405e-02
-2.941127168014645576e-03
-3.375531174242496490e-03
-7.443766575306653976e-03
4.223937168717384338e-02
8.968299254775047302e-03
-6.004831939935684204e-02
-4.232975468039512634e-02
-6.124237924814224243e-02
4.666467010974884033e-02
-3.695648163557052612e-02
5.783551838248968124e-03
-2.832505106925964355e-02
-3.757502883672714233e-02
3.278766758739948273e-03
5.078842863440513611e-02
-1.979241333901882172e-02
-2.942888811230659485e-02
-3.959799651056528091e-03
-6.026018783450126648e-02
-6.034775450825691223e-02
-1.336722820997238159e-02
-2.364927716553211212e-02
5.271986499428749084e-02
6.113139539957046509e-02
-5.817557685077190399e-03
3.923425823450088501e-02
4.480491206049919128e-02
-8.048858493566513062e-03
-2.751224860548973083e-02
-6.017993390560150146e-02
-1.946682669222354889e-02
6.126057356595993042e-02
-5.956411734223365784e-02
-4.569801688194274902e-02
-3.683221340179443359e-02
-5.525640025734901428e-02
-6.420892477035522461e-02
-4.001193866133689880e-02
3.755065798759460449e-02
4.196652024984359741e-02
-1.497452240437269211e-02
1.864942722022533417e-02
-1.094509195536375046e-02
1.596844941377639771e-02
-6.065494567155838013e-02
6.313203275203704834e-02
-2.882306836545467377e-02
1.314220577478408813e-02
5.980449914932250977e-02
-9.461512090638279915e-04
-3.175454959273338318e-02
1.376342494040727615e-02
6.274557113647460938e-02
1.985019259154796600e-02
1.654135994613170624e-02
5.558913946151733398e-02
-3.431924805045127869e-02
3.327370434999465942e-02
3.813440725207328796e-02
3.892020136117935181e-02
-4.898677393794059753e-02
-3.981085866689682007e-02
-8.769594132900238037e-03
4.487407580018043518e-02
-5.732887610793113708e-02
6.094735115766525269e-02
-2.452666871249675751e-02
3.681072965264320374e-02
3.176463022828102112e-02
1.107351668179035187e-02
-5.653128772974014282e-02
-5.848392844200134277e-02
-4.242577403783798218e-02
2.677864395081996918e-02
5.885044485330581665e-02
-3.518243134021759033e-02
-1.630161330103874207e-02
6.192222237586975098e-02
-6.140991300344467163e-02
-7.709346828050911427e-04
8.839302696287631989e-03
3.298231586813926697e-02
3.736045584082603455e-02
-1.739194616675376892e-02
-2.762497775256633759e-02
-3.985045850276947021e-02
-4.313327744603157043e-02
-1.502671185880899429e-02
3.125077486038208008e-02
-4.730749875307083130e-02
5.908747552894055843e-04
-5.331638734787702560e-03
-2.023950219154357910e-02
6.311971694231033325e-02
2.528841979801654816e-02
-5.329234525561332703e-02
-1.742476038634777069e-02
4.532219842076301575e-02
8.539469912648200989e-03
-8.559515699744224548e-03
-2.612575516104698181e-02
-5.942214280366897583e-02
6.413102149963378906e-02
6.097973790019750595e-03
3.859006613492965698e-02
3.266911581158638000e-02
2.721849456429481506e-02
-1.341687422245740891e-02
4.043124243617057800e-02
2.164560370147228241e-02
-4.747670888900756836e-02
3.874802961945533752e-02
-4.476725682616233826e-02
1.744353026151657104e-02
-1.975692063570022583e-02
4.635964334011077881e-02
-2.868385240435600281e-02
4.268375039100646973e-02
-1.632794924080371857e-02
1.226652693003416061e-02
-1.211559213697910309e-02
-2.949617430567741394e-02
3.298241645097732544e-02
4.606634844094514847e-03
4.054069891571998596e-02
2.482771314680576324e-02
2.453986182808876038e-02
-4.652748629450798035e-02
-1.541819795966148376e-02
-2.559748850762844086e-02
1.631711423397064209e-02
5.135297309607267380e-03
6.040661036968231201e-02
4.590923711657524109e-02
4.085790831595659256e-03
-2.798509038984775543e-02
5.571806058287620544e-02
-3.567360714077949524e-02
-5.855008587241172791e-02
2.983732521533966064e-02
-6.771863554604351521e-04
-5.128153041005134583e-02
7.636534050107002258e-03
4.369352757930755615e-02
4.958646371960639954e-02
1.340955775231122971e-02
5.836838856339454651e-02
8.238319307565689087e-03
-4.375638067722320557e-02
3.107129782438278198e-02
-5.805396288633346558e-02
2.346452325582504272e-03
-2.205550298094749451e-02
1.504445727914571762e-02
2.263989299535751343e-02
-6.649905815720558167e-03
1.873876713216304779e-02
-7.925799116492271423e-03
-4.291160032153129578e-02
4.012894630432128906e-02
-5.364752933382987976e-02
-2.290267124772071838e-02
2.017614245414733887e-02
-1.466387882828712463e-02
-5.884621292352676392e-03
-3.765387833118438721e-02
-2.783180959522724152e-02
-2.611221931874752045e-02
5.775917693972587585e-02
1.280965190380811691e-02
2.712291106581687927e-02
-2.620933204889297485e-02
-7.589869666844606400e-03
4.346384108066558838e-02
-2.811484038829803467e-02
5.596672743558883667e-02
-5.374972522258758545e-02
-1.578138582408428192e-02
1.843203790485858917e-02
-1.148613449186086655e-02
4.633922129869461060e-02
-1.277812197804450989e-02
-3.860156610608100891e-02
1.380346901714801788e-02
-6.407503783702850342e-02
