-5.591307953000068665e-02
-2.134431153535842896e-02
-2.303399890661239624e-02
-5.399620905518531799e-02
3.385534882545471191e-02
1.934488862752914429e-02
1.858147233724594116e-02
3.364434093236923218e-02
4.277251660823822021e-03
4.779201745986938477e-02
3.920421004295349121e-04
6.650276482105255127e-02
1.087143272161483765e-02
-4.203132912516593933e-02
-5.364342778921127319e-02
1.888443529605865479e-02
4.981221258640289307e-02
2.529901266098022461e-02
-1.435378193855285645e-02
-2.567715197801589966e-02
1.231842488050460815e-02
1.649484038352966309e-02
5.085223913192749023e-02
-7.547896355390548706e-02
9.092828631401062012e-02
6.740374863147735596e-02
8.938449621200561523e-02
8.617605268955230713e-02
5.918733775615692139e-03
-4.537878185510635376e-02
1.106715947389602661e-02
4.213501513004302979e-02
-7.090492546558380127e-02
7.495735585689544678e-02
7.106889784336090088e-02
-3.930730000138282776e-02
7.702752947807312012e-02
-2.863232046365737915e-02
4.018592834472656250e-02
-6.913712620735168457e-02
6.381329894065856934e-02
-5.291496962308883667e-02
5.246585607528686523e-02
-9.451813995838165283e-03
-3.595262393355369568e-02
-7.861150801181793213e-02
5.906364321708679199e-02
-2.459287643432617188e-03
6.412595510482788086e-03
-7.708588242530822754e-02
7.278494536876678467e-02
-7.173990458250045776e-02
4.405473172664642334e-02
-6.411758810281753540e-02
3.968234360218048096e-02
2.617749571800231934e-02
2.389877289533615112e-02
7.331950962543487549e-02
1.214005053043365479e-03
-9.005211293697357178e-03
-5.583994835615158081e-02
-3.177720680832862854e-02
-5.023636296391487122e-02
2.872451394796371460e-02
1.161114126443862915e-02
-5.414174869656562805e-02
-8.182715624570846558e-02
5.301347374916076660e-02
7.643474638462066650e-02
6.364583969116210938e-02
-8.052945137023925781e-03
5.883932113647460938e-03
8.670069277286529541e-02
-3.169856965541839600e-02
-5.459991469979286194e-02
-8.076223731040954590e-02
3.027064353227615356e-02
-1.690138131380081177e-02
-2.883575111627578735e-02
-5.511553958058357239e-02
-8.339790254831314087e-02
-6.192601099610328674e-02
-5.993531644344329834e-02
2.837891131639480591e-02
6.054505705833435059e-02
1.083721965551376343e-02
7.633362710475921631e-02
-2.006901800632476807e-02
-8.139646053314208984e-02
-4.347640648484230042e-02
5.947907269001007080e-02
8.602122962474822998e-02
-8.927136659622192383e-02
1.937211304903030396e-02
6.785146892070770264e-02
1.853938400745391846e-02
-1.155459880828857422e-02
7.944056391716003418e-02
-3.449862077832221985e-02
1.060662418603897095e-02
6.622613966464996338e-02
-9.039872884750366211e-02
-3.454726561903953552e-02
-2.870239317417144775e-03
-1.649556308984756470e-02
3.774406015872955322e-02
-6.198057532310485840e-02
-8.469511568546295166e-02
-1.737461239099502563e-02
-5.687102302908897400e-02
6.670005619525909424e-02
6.771601736545562744e-03
-6.272030621767044067e-02
2.935200184583663940e-02
2.903228253126144409e-02
-8.940082788467407227e-02
5.834130942821502686e-02
-3.655084222555160522e-02
-1.471417397260665894e-02
-3.516707569360733032e-02
-6.673286110162734985e-02
2.312142401933670044e-02
6.615053117275238037e-02
6.011076271533966064e-02
7.625795900821685791e-02
-1.276477426290512085e-02
-2.111508697271347046e-02
-8.334566652774810791e-02
5.927979946136474609e-04
-6.830088794231414795e-02
5.878861248493194580e-02
5.068024992942810059e-02
-2.589220553636550903e-02
-2.846603840589523315e-02
8.321584761142730713e-02
6.285510957241058350e-03
-5.405736714601516724e-02
2.216507494449615479e-02
3.805342316627502441e-02
7.622541487216949463e-02
2.787458151578903198e-02
-4.545395448803901672e-02
2.294678986072540283e-02
-1.866818219423294067e-02
-4.863299056887626648e-02
8.659149706363677979e-02
-8.208301663398742676e-02
-4.854020848870277405e-02
-8.142836391925811768e-02
-1.951197534799575806e-02
6.260494887828826904e-02
-5.067502707242965698e-02
2.642001956701278687e-02
3.992687165737152100e-02
7.148434221744537354e-02
-6.840805709362030029e-02
-4.158672317862510681e-02
1.093003898859024048e-02
4.746833443641662598e-02
-5.997740849852561951e-02
-4.058305174112319946e-02
5.568605661392211914e-02
6.535454094409942627e-02
6.695732474327087402e-02
3.742061555385589600e-03
3.316382318735122681e-02
-9.632028639316558838e-03
3.469592332839965820e-02
-9.109663218259811401e-02
2.691122144460678101e-02
5.026055872440338135e-02
8.354577422142028809e-02
6.059266626834869385e-03
4.603436589241027832e-02
1.704296469688415527e-02
4.704023897647857666e-02
-2.706176787614822388e-02
6.261196732521057129e-02
1.385345309972763062e-02
-4.223839566111564636e-02
-5.896969139575958252e-02
7.731109857559204102e-03
9.447917342185974121e-03
6.658038496971130371e-02
-4.588967934250831604e-02
4.717503488063812256e-02
-6.817056238651275635e-02
1.521948724985122681e-02
8.315102756023406982e-02
2.164387702941894531e-02
-6.109416484832763672e-03
7.953807711601257324e-03
-5.228566750884056091e-02
-8.315892517566680908e-02
1.632715016603469849e-02
7.537601888179779053e-02
5.277088284492492676e-02
7.970361411571502686e-02
8.165301382541656494e-02
5.628778040409088135e-02
-4.448639228940010071e-02
-2.086746692657470703e-02
-6.801594793796539307e-02
8.666086196899414062e-02
1.911296695470809937e-02
-7.735473662614822388e-02
1.812960207462310791e-02
-3.187279403209686279e-02
-5.402607098221778870e-02
-3.125228732824325562e-02
5.836895108222961426e-02
-8.134245872497558594e-02
8.011528849601745605e-02
1.301284134387969971e-02
1.075875759124755859e-02
7.965575158596038818e-02
3.904780745506286621e-02
3.461682796478271484e-02
-6.936672329902648926e-02
5.479727685451507568e-02
-5.655735731124877930e-03
3.393733501434326172e-02
4.026214778423309326e-02
-1.106996834278106689e-02
7.812036573886871338e-02
-8.639349043369293213e-02
9.020289778709411621e-02
-7.979948818683624268e-02
-8.510596305131912231e-02
-3.164402768015861511e-02
3.301391005516052246e-02
-5.823311209678649902e-02
6.521344184875488281e-04
1.382599025964736938e-02
2.171189337968826294e-02
5.406318604946136475e-02
6.749063730239868164e-02
9.148046374320983887e-04
6.686496734619140625e-02
6.457136571407318115e-02
-1.719971001148223877e-02
-5.396106094121932983e-02
-9.700432419776916504e-04
-6.571447849273681641e-02
-2.231733500957489014e-02
8.599564433097839355e-03
-4.516256973147392273e-02
9.127855300903320312e-03
-2.119879424571990967e-02
-5.558965727686882019e-02
8.986707031726837158e-02
3.074064850807189941e-03
6.627073884010314941e-02
-9.126445651054382324e-02
6.961755454540252686e-03
-2.302100509405136108e-02
1.725792884826660156e-02
8.661606907844543457e-02
-1.043742150068283081e-02
4.411469399929046631e-02
-4.785564914345741272e-02
2.159614861011505127e-02
-7.501113414764404297e-02
2.096392959356307983e-02
8.266915380954742432e-02
5.662889778614044189e-02
1.592992246150970459e-02
-8.569400012493133545e-02
1.899793744087219238e-02
-7.149198651313781738e-02
8.423057198524475098e-02
2.523323893547058105e-02
3.537124395370483398e-02
-1.265172660350799561e-02
1.657467335462570190e-02
2.526558190584182739e-02
-3.397618606686592102e-02
-5.268115177750587463e-02
1.393134891986846924e-02
6.177164614200592041e-03
3.855885565280914307e-02
-4.716027155518531799e-02
2.597488462924957275e-03
-7.882408797740936279e-02
-5.643642693758010864e-02
3.167846053838729858e-02
-4.235977679491043091e-02
8.833134174346923828e-02
2.574522793292999268e-02
-4.709519445896148682e-03
-4.575051739811897278e-02
-4.023688659071922302e-02
8.804921805858612061e-02
-8.781714737415313721e-02
-4.978407546877861023e-02
-8.123894780874252319e-02
-1.147209107875823975e-02
1.986819505691528320e-02
-3.439351916313171387e-02
-5.880140513181686401e-02
-3.094157949090003967e-02
-3.550758212804794312e-02
2.017968893051147461e-02
-6.405251473188400269e-02
-3.305019065737724304e-02
7.574880123138427734e-02
-6.743585318326950073e-02
-3.338595479726791382e-02
2.874725311994552612e-02
-4.548427462577819824e-02
4.170264303684234619e-02
4.669740796089172363e-02
-3.769866377115249634e-02
-1.658303290605545044e-02
3.462910652160644531e-02
5.262887477874755859e-02
7.179351150989532471e-02
8.368717133998870850e-02
1.574803888797760010e-02
7.426308095455169678e-02
1.052759587764739990e-02
5.878460407257080078e-02
-6.848266720771789551e-02
6.397084891796112061e-02
-5.500070750713348389e-03
-7.727860659360885620e-02
-7.577789574861526489e-02
6.395305693149566650e-02
-8.034577220678329468e-02
-4.882660880684852600e-02
-4.202842712402343750e-03
-6.487184017896652222e-02
-8.788773417472839355e-02
-3.518923372030258179e-02
-3.280120715498924255e-02
-7.962057739496231079e-02
7.018874585628509521e-02
5.055671930313110352e-02
-5.758452787995338440e-02
-3.827363625168800354e-02
-8.480569720268249512e-02
8.406165242195129395e-02
-8.586935698986053467e-02
-7.614769786596298218e-02
-2.464757859706878662e-02
-6.686666607856750488e-02
-7.506876438856124878e-02
4.992578923702239990e-02
-4.613461717963218689e-02
8.237086236476898193e-02
-2.329758554697036743e-02
-6.263440102338790894e-02
1.044656336307525635e-02
3.178406506776809692e-02
-8.450672030448913574e-03
-4.516135156154632568e-02
8.227373659610748291e-02
2.729547023773193359e-02
-1.783621311187744141e-02
5.678574740886688232e-02
-6.381939351558685303e-02
7.022103667259216309e-02
-6.079425662755966187e-02
-1.547138392925262451e-02
-3.191839158535003662e-02
-2.753751724958419800e-02
2.073962241411209106e-02
2.800159901380538940e-02
5.428831279277801514e-02
7.150694727897644043e-03
-9.074345976114273071e-02
-5.305602401494979858e-02
-6.829379498958587646e-02
6.646537780761718750e-02
-8.231779187917709351e-02
-5.723313987255096436e-02
5.500967800617218018e-02
4.583518207073211670e-02
5.361534655094146729e-02
-1.156504452228546143e-02
4.732690751552581787e-02
-7.241022586822509766e-02
4.885603487491607666e-02
-3.440485894680023193e-02
6.428577005863189697e-02
-9.104309231042861938e-02
8.371976017951965332e-02
-1.101233065128326416e-02
-3.079283982515335083e-02
9.075756371021270752e-02
-2.565880119800567627e-02
-4.655663296580314636e-02
6.321875751018524170e-02
1.662088185548782349e-02
7.556639611721038818e-02
-4.458270967006683350e-03
2.611342072486877441e-02
-8.199278265237808228e-02
-3.336542844772338867e-02
5.165795981884002686e-02
-2.892065420746803284e-02
4.653581976890563965e-02
-8.232957124710083008e-02
-8.875542134046554565e-02
-2.982612326741218567e-02
8.048756420612335205e-02
7.838103175163269043e-02
6.005175411701202393e-02
1.099089533090591431e-02
-9.970381855964660645e-03
-6.910872459411621094e-02
-7.104977220296859741e-02
6.350034475326538086e-02
-6.332420557737350464e-02
4.418851435184478760e-02
1.649375259876251221e-02
3.087946027517318726e-02
5.127775669097900391e-02
-8.829364180564880371e-02
-1.053388416767120361e-02
1.311350613832473755e-02
-3.118409961462020874e-02
-5.790412425994873047e-03
-1.572599261999130249e-02
7.275621592998504639e-02
4.233315587043762207e-02
-5.666134133934974670e-02
-3.356268256902694702e-02
3.241179138422012329e-02
6.283882260322570801e-02
6.117127835750579834e-02
6.789629161357879639e-02
7.356004416942596436e-02
5.648033320903778076e-02
-8.217545598745346069e-02
-7.008625566959381104e-02
3.096088021993637085e-02
3.349168598651885986e-02
-9.060122072696685791e-03
7.846321165561676025e-02
-2.750515937805175781e-03
1.515560597181320190e-02
8.405636250972747803e-02
-2.672359347343444824e-03
2.983003854751586914e-02
7.364872097969055176e-02
5.498784780502319336e-02
-3.518577292561531067e-02
-5.527079105377197266e-03
1.684836298227310181e-02
-1.400917768478393555e-02
5.004104971885681152e-02
1.862004399299621582e-02
-3.507059440016746521e-02
7.420390844345092773e-02
6.072440743446350098e-02
-5.879104509949684143e-02
6.665615737438201904e-02
4.211118817329406738e-02
-3.208398818969726562e-03
3.356464207172393799e-03
-1.256038248538970947e-02
-1.695670932531356812e-02
3.648230433464050293e-02
-6.353079527616500854e-02
-2.581341564655303955e-02
-7.668839395046234131e-02
7.498399913311004639e-02
-6.002165749669075012e-02
2.914547920227050781e-02
-5.965017899870872498e-02
4.803562164306640625e-02
6.008490920066833496e-03
-2.679290622472763062e-02
-1.263747364282608032e-02
4.127688705921173096e-02
3.549778461456298828e-02
-3.536661341786384583e-02
6.457798182964324951e-03
2.021546661853790283e-02
-8.645579963922500610e-02
3.480985760688781738e-04
3.475187718868255615e-02
-2.010346949100494385e-02
-7.602114230394363403e-02
7.865233719348907471e-02
-4.553123936057090759e-02
-7.392629981040954590e-03
7.225513458251953125e-02
8.339673280715942383e-03
8.903373777866363525e-02
2.881407737731933594e-03
-5.293773487210273743e-02
-5.653933063149452209e-02
8.704388141632080078e-02
2.276383340358734131e-02
-2.433986961841583252e-02
-8.400450646877288818e-02
-6.280745565891265869e-02
-4.052443802356719971e-02
8.456091582775115967e-02
8.349587023258209229e-02
3.869819641113281250e-02
8.935797214508056641e-02
6.130184233188629150e-02
7.311320304870605469e-02
3.105309605598449707e-02
-5.941610038280487061e-02
4.893723130226135254e-02
-7.787345349788665771e-02
2.460119873285293579e-02
8.351817727088928223e-02
2.129536122083663940e-02
-5.654253065586090088e-02
1.568219810724258423e-02
-7.615116238594055176e-02
-7.982153445482254028e-02
-3.399774432182312012e-03
-9.125159680843353271e-02
-5.172016099095344543e-02
5.835047364234924316e-02
2.415071427822113037e-02
-2.986706793308258057e-03
7.301652431488037109e-02
-2.608055621385574341e-02
9.067888557910919189e-02
6.807681918144226074e-02
7.779958844184875488e-02
4.561622440814971924e-02
1.175872981548309326e-03
-7.816124707460403442e-02
-1.127533614635467529e-03
-5.065243691205978394e-02
-3.392939269542694092e-02
3.480546176433563232e-02
-2.315498888492584229e-02
7.882319390773773193e-02
7.026717066764831543e-04
-1.504306495189666748e-02
-7.518211752176284790e-02
-4.181779548525810242e-02
7.685385644435882568e-02
-7.864461839199066162e-02
-8.470641076564788818e-02
7.511723041534423828e-02
7.898807525634765625e-04
-2.551794052124023438e-02
-5.104690790176391602e-04
-7.724434882402420044e-02
8.041799068450927734e-03
-8.222179114818572998e-02
-3.329985216259956360e-02
-3.570483624935150146e-02
8.759203553199768066e-02
3.012295067310333252e-02
2.054108679294586182e-02
8.388066291809082031e-02
-3.114675357937812805e-02
-1.382126659154891968e-02
-6.554769724607467651e-02
-9.880140423774719238e-03
5.856564640998840332e-02
2.972404658794403076e-02
6.920944154262542725e-02
-9.898841381072998047e-03
-6.878275424242019653e-02
7.835453748703002930e-02
-4.162478819489479065e-02
-8.004412055015563965e-03
8.217614889144897461e-02
9.939603507518768311e-03
2.119714021682739258e-02
-8.140420913696289062e-02
-8.874051272869110107e-02
1.035978645086288452e-02
8.241878449916839600e-02
-5.713433027267456055e-02
-3.876479715108871460e-02
-6.303167343139648438e-02
-8.396077901124954224e-02
-7.313489913940429688e-02
7.689639925956726074e-02
3.827370703220367432e-02
-7.690619677305221558e-02
-8.435421437025070190e-02
-3.104067221283912659e-02
7.781197130680084229e-02
-5.871437117457389832e-02
7.508397102355957031e-03
4.700921475887298584e-03
-4.916235059499740601e-02
-1.879946887493133545e-02
8.458510041236877441e-02
-1.121200621128082275e-03
-1.385354250669479370e-02
-4.196938872337341309e-02
4.481773078441619873e-02
1.538471877574920654e-02
-2.100565284490585327e-02
5.569864809513092041e-02
-3.631652519106864929e-02
-1.338203251361846924e-02
-5.449788272380828857e-02
3.393006324768066406e-02
1.141371577978134155e-02
8.931601047515869141e-02
-5.012536421418190002e-02
-4.916933551430702209e-02
-7.931806147098541260e-03
2.840035408735275269e-02
-6.877706944942474365e-02
2.556282281875610352e-02
6.920422613620758057e-02
1.517482101917266846e-02
6.737911701202392578e-02
8.934919536113739014e-02
6.198917329311370850e-02
8.527955412864685059e-02
1.505964249372482300e-02
2.242457121610641479e-02
-8.291166275739669800e-02
-2.091282606124877930e-02
-6.103901937603950500e-02
1.971031725406646729e-02
8.343973755836486816e-02
1.361219584941864014e-02
-6.709781289100646973e-02
-3.279827535152435303e-03
-1.547212898731231689e-02
-1.470412313938140869e-02
-8.851013332605361938e-02
4.807734489440917969e-02
3.641499578952789307e-02
-1.949643343687057495e-02
-3.435193002223968506e-02
5.303406715393066406e-02
-1.304385811090469360e-02
-8.325859159231185913e-02
-2.148257941007614136e-02
-9.272545576095581055e-04
1.145981252193450928e-02
-8.233172446489334106e-02
-5.451668798923492432e-02
7.822766900062561035e-02
-1.002942770719528198e-02
3.943245112895965576e-02
2.095056325197219849e-02
1.984506100416183472e-02
-7.501696795225143433e-02
3.044673800468444824e-02
4.854558408260345459e-02
9.090311825275421143e-02
4.081933200359344482e-02
-8.893129974603652954e-02
4.521572589874267578e-02
-5.704089626669883728e-02
-5.473700910806655884e-02
8.972324430942535400e-02
-8.711971342563629150e-03
-7.826465368270874023e-02
4.228939116001129150e-02
6.301140785217285156e-02
8.467578887939453125e-02
-8.405055850744247437e-02
-3.229128569364547729e-02
3.415028750896453857e-02
6.156493723392486572e-02
-6.608730554580688477e-02
-9.074084460735321045e-02
7.179400324821472168e-02
1.664556562900543213e-02
-3.290624171495437622e-02
5.524532496929168701e-02
-7.723860442638397217e-02
-2.881273627281188965e-03
5.441981554031372070e-02
-4.402998834848403931e-02
8.720543980598449707e-02
-1.980048418045043945e-02
-5.717668309807777405e-02
1.047109067440032959e-02
-7.530358433723449707e-02
2.293096482753753662e-02
-7.899135351181030273e-03
1.552586257457733154e-02
8.068555593490600586e-02
2.640867978334426880e-02
-1.460030674934387207e-02
-3.603029996156692505e-02
-3.135125339031219482e-02
-5.386557802557945251e-02
3.646631538867950439e-02
-3.813808783888816833e-02
2.405358105897903442e-02
-7.738284021615982056e-02
-9.003175795078277588e-02
5.551150441169738770e-02
-4.902447015047073364e-02
7.088795304298400879e-03
-3.551431000232696533e-03
3.944870829582214355e-02
3.790575265884399414e-02
-5.691903457045555115e-02
4.702767729759216309e-02
4.288896918296813965e-03
-5.346389114856719971e-02
-7.934921979904174805e-02
5.658964812755584717e-02
-1.531141996383666992e-02
7.943375408649444580e-02
-4.503568261861801147e-02
-8.805379271507263184e-02
-1.265390217304229736e-02
4.417739808559417725e-02
3.930704295635223389e-02
7.854692637920379639e-03
-3.474033996462821960e-02
7.931417226791381836e-02
7.209703326225280762e-02
-4.856767505407333374e-02
-5.931446328759193420e-02
2.688286453485488892e-02
-2.147685736417770386e-02
-1.420375704765319824e-02
6.537693738937377930e-02
5.549038946628570557e-02
4.498282074928283691e-02
1.838579028844833374e-02
1.484787464141845703e-02
7.131974399089813232e-02
7.965674996376037598e-02
-6.272498518228530884e-02
-7.715709507465362549e-02
7.785633206367492676e-04
-4.152686893939971924e-02
-9.015890210866928101e-02
-7.458759844303131104e-02
3.261189907789230347e-02
8.078065514564514160e-02
-4.768575727939605713e-02
-3.491449728608131409e-02
4.800736904144287109e-03
-2.443332970142364502e-02
3.416316211223602295e-02
5.259233713150024414e-02
9.125699102878570557e-02
-1.289114356040954590e-03
-4.156206175684928894e-02
5.450916290283203125e-02
-1.475999504327774048e-02
-4.882197454571723938e-02
8.802407979965209961e-02
-5.265427380800247192e-02
6.982377171516418457e-02
8.978801965713500977e-02
7.379843294620513916e-02
-3.050774708390235901e-02
2.083260565996170044e-02
-7.452556490898132324e-02
3.976564109325408936e-02
6.896403431892395020e-02
2.205295860767364502e-02
8.833616971969604492e-03
3.825850784778594971e-02
-1.134744286537170410e-02
-5.342996120452880859e-02
4.064407944679260254e-02
-2.500856667757034302e-02
4.015840590000152588e-02
2.500904351472854614e-02
-3.223952651023864746e-02
-6.908597797155380249e-02
8.880418539047241211e-02
1.117857545614242554e-02
-5.635833740234375000e-02
1.211509853601455688e-02
4.712317883968353271e-02
-4.139981046319007874e-02
2.577669918537139893e-02
-4.269257932901382446e-02
-3.762304782867431641e-03
-1.754631102085113525e-02
-2.424523979425430298e-02
2.381858974695205688e-02
-2.348656952381134033e-02
-5.026772618293762207e-02
-5.248973518610000610e-02
-3.717839717864990234e-03
-4.647836834192276001e-02
-6.584051251411437988e-02
-7.523463666439056396e-02
-7.069424539804458618e-02
2.863053232431411743e-02
6.718941032886505127e-02
7.857176661491394043e-02
8.586908876895904541e-02
5.722746253013610840e-02
8.436346054077148438e-02
-7.389241456985473633e-02
-1.744873821735382080e-02
2.204384654760360718e-02
6.041894853115081787e-02
6.535780429840087891e-02
8.944956958293914795e-02
-1.023218780755996704e-02
2.892315387725830078e-02
7.884064316749572754e-02
3.733970224857330322e-02
-1.698482781648635864e-02
-1.539885997772216797e-03
-7.316036522388458252e-02
2.670382708311080933e-02
1.091870665550231934e-02
3.167626261711120605e-02
-1.472886651754379272e-02
-7.964819669723510742e-03
2.285403013229370117e-02
6.077845394611358643e-02
-1.099298894405364990e-02
7.180736958980560303e-02
1.990891993045806885e-03
-3.165449574589729309e-02
8.653454482555389404e-02
8.385920524597167969e-02
5.409160256385803223e-02
5.428308248519897461e-02
4.823125898838043213e-02
-6.200715899467468262e-03
-1.977793872356414795e-02
1.881966739892959595e-02
-2.965017780661582947e-02
4.912281036376953125e-02
-9.879551827907562256e-03
-2.594903111457824707e-02
-1.575510948896408081e-02
5.944193899631500244e-02
-2.290776371955871582e-02
3.601145744323730469e-02
-3.661761805415153503e-02
5.189573764801025391e-02
1.138200610876083374e-02
-2.160565555095672607e-02
-2.575781196355819702e-02
-4.764126986265182495e-02
-8.066244423389434814e-03
-6.111262738704681396e-02
8.178324997425079346e-02
1.321005076169967651e-02
7.998012006282806396e-03
9.743154048919677734e-03
5.703464150428771973e-03
-2.139062434434890747e-02
7.095128297805786133e-02
2.955034375190734863e-03
-7.555764168500900269e-02
2.039058506488800049e-02
1.955828815698623657e-02
-8.031290769577026367e-02
2.149011194705963135e-02
7.406356930732727051e-02
-2.139232307672500610e-02
6.143583357334136963e-02
-1.973686367273330688e-02
-4.756074026226997375e-02
-6.252214312553405762e-02
-2.937938645482063293e-02
-4.669662192463874817e-02
-2.826474606990814209e-03
5.274377763271331787e-03
4.047073423862457275e-03
-7.347353547811508179e-02
-8.959785103797912598e-03
5.199760198593139648e-04
2.034509927034378052e-02
-6.301225721836090088e-02
-8.891686797142028809e-02
-7.941823452711105347e-02
-8.887703716754913330e-02
6.781610846519470215e-02
7.325708866119384766e-02
3.687293827533721924e-02
3.894378244876861572e-02
-5.212857201695442200e-02
-8.351830393075942993e-02
-1.254305243492126465e-04
-4.033992066979408264e-02
8.214031159877777100e-02
-6.306260079145431519e-02
6.479501724243164062e-02
-5.201185122132301331e-02
-3.969177603721618652e-03
8.079677820205688477e-02
5.133301019668579102e-02
-1.422379910945892334e-02
1.027625799179077148e-02
-5.934484675526618958e-02
-7.604893296957015991e-02
-2.969159558415412903e-02
8.399704098701477051e-02
-2.156402170658111572e-02
-5.724149942398071289e-02
5.549825727939605713e-03
8.489461243152618408e-02
1.541403681039810181e-02
3.575025498867034912e-02
-4.919490963220596313e-02
-1.245982944965362549e-02
5.704939365386962891e-03
-1.665522903203964233e-02
-5.827650427818298340e-03
5.657437443733215332e-02
8.738842606544494629e-02
-4.784174263477325439e-03
2.735868096351623535e-03
-6.126826256513595581e-02
-5.393372476100921631e-02
4.993245005607604980e-02
2.929896116256713867e-03
-1.372092962265014648e-02
-7.617773115634918213e-02
3.951388597488403320e-02
-7.510337233543395996e-02
-4.126904904842376709e-02
2.084705233573913574e-02
-7.666125893592834473e-02
-1.083634793758392334e-03
4.884234070777893066e-02
5.494467914104461670e-02
6.227582693099975586e-02
-8.379192650318145752e-02
-4.149319976568222046e-02
3.607526421546936035e-02
1.246907562017440796e-02
8.105084300041198730e-02
-7.378115504980087280e-02
7.283593714237213135e-02
3.034738451242446899e-02
5.027784407138824463e-02
-4.856758937239646912e-02
4.307366907596588135e-02
-1.653180271387100220e-02
-4.364072903990745544e-02
-4.400104284286499023e-02
3.980447351932525635e-02
-6.564219295978546143e-02
2.063195407390594482e-02
-3.392216563224792480e-02
5.515025556087493896e-02
-2.166777104139328003e-02
2.028845250606536865e-03
-2.250089496374130249e-02
8.794245123863220215e-02
5.705167353153228760e-02
4.726728796958923340e-02
-8.294119685888290405e-02
-7.980577647686004639e-03
5.167984962463378906e-02
5.680829286575317383e-03
3.962256014347076416e-03
6.310325860977172852e-02
-1.268988102674484253e-02
-7.964521646499633789e-02
-1.344848424196243286e-02
1.775736361742019653e-02
-7.909396290779113770e-02
6.093361973762512207e-02
-6.201454997062683105e-02
-2.337297797203063965e-02
-5.421770736575126648e-02
-1.974938064813613892e-02
2.770096808671951294e-02
5.576440691947937012e-02
-9.034686535596847534e-02
6.719335913658142090e-02
-2.781153470277786255e-02
-2.773670852184295654e-02
-2.344754338264465332e-02
5.905942618846893311e-02
6.556577980518341064e-02
1.107443124055862427e-02
7.233791053295135498e-02
5.040706694126129150e-02
2.647830545902252197e-02
-3.794292360544204712e-02
7.709963619709014893e-02
7.001131772994995117e-03
-1.778428256511688232e-02
-8.026167750358581543e-02
-2.860941737890243530e-02
-1.893874257802963257e-02
-2.003400027751922607e-02
8.135236799716949463e-03
-1.666802167892456055e-02
7.941485941410064697e-02
-6.656908243894577026e-02
-6.325190514326095581e-02
-5.014364793896675110e-02
7.184170186519622803e-03
-5.754351615905761719e-03
2.033846080303192139e-02
-4.955550283193588257e-02
-5.223490297794342041e-03
7.123696804046630859e-02
-8.572439849376678467e-02
3.812368214130401611e-02
-8.900908380746841431e-02
8.048309385776519775e-02
-5.433693528175354004e-03
8.148185908794403076e-03
-2.031003683805465698e-02
-4.447022080421447754e-02
8.847858011722564697e-02
8.088235557079315186e-02
-8.176591247320175171e-02
-3.562759235501289368e-02
-5.266868323087692261e-02
4.631116986274719238e-02
4.929859936237335205e-02
-6.851698458194732666e-02
-6.449180841445922852e-02
-4.482330381870269775e-02
-8.418229967355728149e-02
4.789687693119049072e-02
1.460371911525726318e-02
6.683208048343658447e-02
-1.664029806852340698e-02
6.051826477050781250e-02
-8.080946654081344604e-02
-3.559792786836624146e-02
8.991433680057525635e-02
4.077425599098205566e-02
-1.730324327945709229e-02
4.114279150962829590e-02
1.067783683538436890e-02
-8.775172382593154907e-02
1.971906423568725586e-02
1.246335357427597046e-02
2.498808503150939941e-02
3.556086122989654541e-02
-2.463654428720474243e-02
5.306255817413330078e-02
8.278442919254302979e-02
8.473522961139678955e-02
-5.600839853286743164e-03
6.436531245708465576e-02
-3.132643923163414001e-02
-3.977436944842338562e-02
-1.293659955263137817e-02
7.842727005481719971e-02
-1.490672677755355835e-02
3.315150737762451172e-03
2.163454145193099976e-02
-5.712734162807464600e-02
8.182555437088012695e-03
7.293705642223358154e-02
-4.601506516337394714e-02
-4.893606156110763550e-02
8.967678248882293701e-02
-7.724128663539886475e-03
-2.609424293041229248e-02
-4.946498572826385498e-02
-4.679771885275840759e-02
3.299333155155181885e-03
-2.038640528917312622e-02
9.493343532085418701e-03
3.138527274131774902e-02
6.374223530292510986e-02
4.342648386955261230e-02
-8.494381606578826904e-02
8.988650143146514893e-02
-5.646311119198799133e-02
3.528396785259246826e-02
-7.791899144649505615e-03
-9.376600384712219238e-03
-4.945005476474761963e-02
-1.089073717594146729e-03
-2.346260845661163330e-02
6.883929669857025146e-02
2.127612382173538208e-02
-4.492893815040588379e-03
-8.767489343881607056e-02
-1.230131834745407104e-02
-5.534241348505020142e-02
1.820294559001922607e-02
4.470588266849517822e-02
-5.479614436626434326e-02
6.720902025699615479e-02
-1.686712354421615601e-02
7.771973311901092529e-02
5.729494988918304443e-02
-3.747446462512016296e-02
5.350376665592193604e-02
5.589470267295837402e-02
6.585939228534698486e-02
2.958296984434127808e-02
-4.515201598405838013e-02
-9.009994566440582275e-02
2.909361571073532104e-02
-1.072599738836288452e-02
7.371506094932556152e-02
-2.855709940195083618e-02
-8.959185332059860229e-02
7.216453552246093750e-02
-1.416952162981033325e-02
-1.326507329940795898e-02
-4.473753273487091064e-02
4.125893115997314453e-02
-2.085532248020172119e-02
8.788959681987762451e-02
3.853340446949005127e-02
-8.482106775045394897e-02
5.685985088348388672e-03
-7.095173001289367676e-03
-8.167469501495361328e-02
-5.587007105350494385e-02
-8.598368614912033081e-02
7.313492894172668457e-02
3.959505259990692139e-02
5.483597517013549805e-02
2.907343953847885132e-02
-3.079930320382118225e-02
-7.339213788509368896e-02
-7.311098277568817139e-02
-3.736462071537971497e-02
-6.296313554048538208e-02
5.954869091510772705e-02
9.772107005119323730e-03
9.072653949260711670e-02
3.942027688026428223e-02
-7.885608077049255371e-02
5.475322902202606201e-02
5.668674409389495850e-02
6.769604980945587158e-02
2.503529191017150879e-02
-3.699980303645133972e-02
5.521252751350402832e-04
2.466324716806411743e-02
2.973179519176483154e-02
-4.644126072525978088e-02
-7.617247104644775391e-02
-5.103710293769836426e-02
-1.186184585094451904e-02
-4.286390915513038635e-02
-2.378664165735244751e-02
3.893643617630004883e-02
3.141582757234573364e-02
3.169833123683929443e-02
4.565697908401489258e-02
-3.516744449734687805e-02
6.742939352989196777e-02
-6.690669059753417969e-02
-6.046315282583236694e-02
-4.712242260575294495e-02
2.846564352512359619e-02
-8.111508190631866455e-02
-5.932924151420593262e-02
8.244724571704864502e-02
5.243743956089019775e-02
2.128813415765762329e-02
1.442618668079376221e-03
-5.715561658143997192e-02
1.031552255153656006e-02
8.982111513614654541e-02
-4.564019292593002319e-02
3.902210295200347900e-02
-7.217492908239364624e-02
2.351184189319610596e-02
3.788818418979644775e-02
-4.978035390377044678e-02
-7.106829434633255005e-02
5.804637074470520020e-02
-2.319603413343429565e-02
-1.794625818729400635e-02
6.435447931289672852e-02
-2.635166049003601074e-03
8.652979135513305664e-02
5.301584303379058838e-02
4.690249264240264893e-02
-6.772880256175994873e-02
2.094778418540954590e-02
-9.120073169469833374e-02
-1.662501692771911621e-02
-9.229123592376708984e-03
-3.799159079790115356e-02
2.509005367755889893e-02
-7.661953568458557129e-02
5.374741554260253906e-02
-1.365177333354949951e-03
4.476490616798400879e-02
2.340158075094223022e-02
-8.757118880748748779e-02
1.223765313625335693e-02
-4.960843548178672791e-02
4.466043412685394287e-02
1.706227660179138184e-03
-5.528954416513442993e-02
-8.128203451633453369e-03
7.155622541904449463e-02
7.616992294788360596e-02
2.056603133678436279e-02
4.797378182411193848e-02
6.530772149562835693e-02
-3.864132612943649292e-02
-3.825176507234573364e-02
-8.084424585103988647e-02
3.468771278858184814e-02
5.257390439510345459e-02
-8.056052774190902710e-02
-2.425696700811386108e-02
7.571864128112792969e-02
-6.179292127490043640e-02
-1.734603196382522583e-02
-5.653974413871765137e-02
-8.688316494226455688e-02
-4.445198178291320801e-02
2.770476043224334717e-03
-2.264863252639770508e-02
8.140566945075988770e-02
8.315518498420715332e-02
-1.992356032133102417e-02
2.314736694097518921e-02
-4.859137907624244690e-02
4.137985408306121826e-03
7.868091762065887451e-02
-4.626785963773727417e-02
7.633715867996215820e-04
8.569037914276123047e-02
-7.880637049674987793e-02
-4.800166934728622437e-02
3.036853671073913574e-02
1.848875731229782104e-02
-7.190455496311187744e-02
2.585442364215850830e-02
9.811758995056152344e-03
-4.039826989173889160e-02
2.811617404222488403e-02
-1.946134865283966064e-02
2.431366592645645142e-02
-5.331929028034210205e-02
-7.956488430500030518e-02
-4.540818557143211365e-02
4.521924257278442383e-02
-1.170061528682708740e-02
4.152250289916992188e-02
6.507684290409088135e-02
-6.623123586177825928e-02
-3.924766555428504944e-02
3.353534638881683350e-02
4.710273444652557373e-02
-2.607881277799606323e-02
2.978984266519546509e-02
-4.705867543816566467e-02
-1.925203949213027954e-02
7.093176245689392090e-02
-3.577360883355140686e-02
8.053925633430480957e-02
-3.354711830615997314e-02
-2.164509147405624390e-02
5.189219117164611816e-02
5.103394389152526855e-03
1.300387829542160034e-02
-6.100835278630256653e-02
4.427818953990936279e-02
3.800408542156219482e-02
5.846607685089111328e-02
-7.845656573772430420e-02
-2.517624199390411377e-02
2.798967808485031128e-02
2.910734713077545166e-02
4.465399682521820068e-02
3.510081768035888672e-02
7.850448787212371826e-02
8.774591982364654541e-02
-6.790094077587127686e-02
5.281279981136322021e-02
-3.356936201453208923e-02
-4.671740904450416565e-02
3.820064663887023926e-02
-5.142094194889068604e-02
-3.314524888992309570e-03
-2.546102553606033325e-02
2.854164689779281616e-02
-6.099538132548332214e-02
4.710599780082702637e-02
8.771909773349761963e-02
6.873369216918945312e-03
4.454617202281951904e-02
-6.501673161983489990e-02
7.527512311935424805e-02
-8.046685159206390381e-02
3.445379436016082764e-02
-8.832587301731109619e-02
-1.801546663045883179e-02
-7.199272513389587402e-04
4.595193266868591309e-02
1.291440427303314209e-02
3.700578212738037109e-02
6.732651591300964355e-02
2.690142393112182617e-02
5.832231044769287109e-02
7.256914675235748291e-02
4.828336834907531738e-02
6.724382936954498291e-02
-6.419709324836730957e-02
-3.728117421269416809e-02
-1.020987331867218018e-02
-2.363687753677368164e-02
-2.996483072638511658e-02
8.013872802257537842e-02
-9.035611152648925781e-02
5.173332989215850830e-02
-8.025190234184265137e-02
-4.658403620123863220e-02
-1.429061591625213623e-02
-2.267220616340637207e-02
6.185983121395111084e-02
5.251269042491912842e-02
-6.956806033849716187e-02
8.228321373462677002e-02
7.540854811668395996e-02
-3.860659152269363403e-02
-5.092120543122291565e-02
-3.213316202163696289e-03
5.451835691928863525e-02
-1.901966333389282227e-02
5.193024873733520508e-02
7.573179900646209717e-02
-8.855448663234710693e-02
4.527457058429718018e-03
-4.569856822490692139e-02
-7.284069061279296875e-02
1.113987714052200317e-02
6.528231501579284668e-02
-6.313885748386383057e-02
3.818322718143463135e-02
-1.810494065284729004e-02
2.069979906082153320e-02
-8.959485590457916260e-02
-2.480304241180419922e-02
4.937510192394256592e-02
4.284590482711791992e-03
-1.042238622903823853e-02
-8.999747782945632935e-02
-3.566813841462135315e-02
-5.894309282302856445e-02
-7.937614619731903076e-02
4.747661948204040527e-02
-1.687718182802200317e-02
-5.604057386517524719e-02
4.283739626407623291e-02
-5.517545714974403381e-02
-8.561925590038299561e-02
-9.155794978141784668e-03
1.158609241247177124e-02
1.343100517988204956e-02
-2.954037860035896301e-02
8.602586388587951660e-02
4.557368159294128418e-02
2.468101680278778076e-03
1.791524142026901245e-02
8.892971277236938477e-02
-4.287217929959297180e-02
6.730559468269348145e-02
3.598716855049133301e-02
3.248838335275650024e-02
-8.380953967571258545e-02
-6.406533718109130859e-02
8.715742826461791992e-02
4.513384401798248291e-02
6.863132119178771973e-02
4.542481899261474609e-02
8.535242080688476562e-02
-6.632333993911743164e-02
-1.862585544586181641e-02
-4.440470784902572632e-02
-1.112233102321624756e-02
-6.549052149057388306e-02
8.940820395946502686e-02
7.088683545589447021e-02
2.899719774723052979e-02
-2.823911607265472412e-02
-6.094965338706970215e-02
7.786735892295837402e-02
-8.344545960426330566e-02
-5.537009611725807190e-02
-5.196020007133483887e-03
-3.678078576922416687e-02
-5.396158248186111450e-02
1.016797870397567749e-02
6.433172523975372314e-02
-3.868999332189559937e-02
-7.780977338552474976e-02
3.152127563953399658e-02
6.943455338478088379e-02
3.905679285526275635e-02
-1.631397753953933716e-02
7.473833858966827393e-03
2.400271594524383545e-02
-1.622940599918365479e-02
-5.920391902327537537e-02
1.269493252038955688e-02
-1.224303245544433594e-02
-6.317292153835296631e-02
-1.415513455867767334e-02
-1.745934039354324341e-02
-4.279178008437156677e-02
-7.113885134458541870e-02
-2.502325922250747681e-02
6.397154927253723145e-02
7.926610112190246582e-02
2.012540400028228760e-02
8.698680996894836426e-02
-2.124121040105819702e-02
4.991531372070312500e-02
-2.203091979026794434e-03
-9.002964198589324951e-02
1.680398732423782349e-02
1.406082510948181152e-02
-1.523755490779876709e-03
-7.725954055786132812e-03
-1.660144329071044922e-02
3.452153503894805908e-02
-7.096669077873229980e-02
1.909196376800537109e-02
4.969327151775360107e-02
1.898675411939620972e-02
-4.455823451280593872e-02
-4.901459068059921265e-02
-7.190561294555664062e-02
-7.379031926393508911e-02
2.056635916233062744e-02
-1.052618026733398438e-03
-8.357626199722290039e-02
2.217501401901245117e-03
2.574139833450317383e-02
8.413092792034149170e-02
-1.212789863348007202e-02
-2.316177636384963989e-02
1.910676062107086182e-02
7.235425710678100586e-02
-3.271083906292915344e-02
-8.818596601486206055e-03
7.953177392482757568e-02
5.209580063819885254e-03
-3.363211080431938171e-02
-7.876934856176376343e-02
-7.190775126218795776e-02
5.040375888347625732e-02
7.718084752559661865e-02
-6.436329334974288940e-02
7.945227622985839844e-02
-1.813813298940658569e-02
6.333288550376892090e-02
-3.515405952930450439e-02
-8.307376503944396973e-02
-7.907405495643615723e-02
-8.199102431535720825e-02
6.913822889328002930e-02
2.022334933280944824e-02
-2.800378203392028809e-02
3.414854407310485840e-02
-1.904018223285675049e-02
2.509804069995880127e-02
-7.216285169124603271e-02
-3.106940165162086487e-02
-4.750060662627220154e-02
-3.912256285548210144e-02
-6.354888528585433960e-02
3.564402461051940918e-02
-3.861109539866447449e-02
5.274949967861175537e-02
-5.462492257356643677e-02
-7.031293213367462158e-02
-5.485519021749496460e-02
4.139244556427001953e-03
8.647762238979339600e-02
-1.444538682699203491e-02
-8.982686698436737061e-02
-8.383993804454803467e-02
-6.112849339842796326e-02
4.707832634449005127e-02
2.606745064258575439e-02
8.642160892486572266e-02
-5.399629846215248108e-02
-7.059334218502044678e-02
-8.186846226453781128e-02
-2.236706763505935669e-02
-8.708187937736511230e-02
-4.310014098882675171e-02
2.870803326368331909e-02
-7.341468334197998047e-02
-1.533181220293045044e-02
1.190182566642761230e-02
1.279820501804351807e-02
5.448776483535766602e-02
-6.103168427944183350e-02
-4.616783186793327332e-02
-5.180053785443305969e-02
-3.555516153573989868e-02
-7.354263961315155029e-02
-7.178415358066558838e-02
8.437180519104003906e-02
-9.044282138347625732e-02
-8.929856121540069580e-03
-6.696598231792449951e-02
7.623919844627380371e-02
-7.336684316396713257e-02
9.896159172058105469e-03
-1.426114886999130249e-02
-6.319598853588104248e-02
6.675243377685546875e-02
4.837797582149505615e-02
6.866866350173950195e-02
7.550734281539916992e-02
3.578622639179229736e-02
-6.897393614053726196e-02
7.732801139354705811e-02
7.085859775543212891e-03
-2.463099360466003418e-02
3.247164934873580933e-02
2.189649641513824463e-02
-6.621412932872772217e-02
1.617507636547088623e-02
-6.943941116333007812e-04
-7.691537588834762573e-02
-5.419999361038208008e-04
-5.984614789485931396e-02
-8.035182952880859375e-03
3.944577276706695557e-02
-2.848645299673080444e-02
1.247377693653106689e-02
-4.972098022699356079e-02
2.522673457860946655e-02
-5.383227765560150146e-02
6.347261369228363037e-03
8.688355982303619385e-02
-4.012910649180412292e-02
5.219589173793792725e-02
-5.243691056966781616e-02
-5.771825090050697327e-02
8.574740588665008545e-02
-7.751390337944030762e-02
-2.704615890979766846e-02
-9.842902421951293945e-03
-8.920100331306457520e-02
6.054477393627166748e-02
-1.435162127017974854e-02
6.394946575164794922e-02
1.992957293987274170e-02
3.715142607688903809e-03
-4.169852659106254578e-02
-2.773886173963546753e-02
-3.500014171004295349e-02
5.404159426689147949e-02
-3.761112689971923828e-02
-1.390975713729858398e-02
1.582488417625427246e-02
-3.812672570347785950e-02
-7.619664818048477173e-02
-3.791173547506332397e-02
-3.337718173861503601e-02
7.740885019302368164e-02
5.179300904273986816e-02
2.049120515584945679e-02
8.172361552715301514e-02
6.818288564682006836e-02
-6.635788083076477051e-02
1.337942481040954590e-02
-6.505348533391952515e-02
8.000443875789642334e-02
-2.436437457799911499e-02
-7.422341406345367432e-02
-5.712525546550750732e-02
-2.621322870254516602e-03
8.500397205352783203e-02
-4.133647307753562927e-02
-6.905715912580490112e-02
-7.220259308815002441e-02
6.534206867218017578e-02
-5.524318665266036987e-02
-7.836809754371643066e-02
-4.920067638158798218e-02
7.366129755973815918e-02
-3.330988809466362000e-02
8.335477113723754883e-02
-6.679769605398178101e-02
-3.221954777836799622e-02
-6.104274094104766846e-02
2.563368529081344604e-02
2.554995566606521606e-02
9.217590093612670898e-03
7.118940353393554688e-03
1.509194821119308472e-02
3.522183001041412354e-02
-4.766327142715454102e-02
-4.236012697219848633e-02
-8.241678029298782349e-02
9.929917752742767334e-03
-2.979367971420288086e-03
-4.647643119096755981e-02
2.417303621768951416e-03
3.063489496707916260e-02
-5.359844118356704712e-02
5.200448632240295410e-02
-3.327053785324096680e-02
3.258062154054641724e-02
3.602683544158935547e-03
8.709158003330230713e-02
5.349895358085632324e-02
-5.780848488211631775e-02
6.040114164352416992e-02
-5.686710402369499207e-02
-5.696983262896537781e-02
-3.396924212574958801e-02
-9.835675358772277832e-03
-5.548194423317909241e-02
1.870899647474288940e-02
-4.287220165133476257e-02
-5.101684108376502991e-02
7.511542737483978271e-02
-9.062407910823822021e-02
-4.884145408868789673e-02
-6.212563440203666687e-02
9.338110685348510742e-04
-2.095426619052886963e-02
-3.630729764699935913e-02
2.610549330711364746e-03
4.074186086654663086e-02
-8.450627326965332031e-03
2.772086113691329956e-02
5.976188182830810547e-02
-7.210791110992431641e-03
-8.528654277324676514e-02
6.774637103080749512e-02
-5.905972793698310852e-02
5.487608909606933594e-02
1.850240677595138550e-02
-8.570411801338195801e-02
-8.819861710071563721e-02
-6.888394057750701904e-02
8.647105097770690918e-02
5.974113941192626953e-02
-4.942385107278823853e-02
-8.750676363706588745e-02
-6.202414631843566895e-03
-6.083763390779495239e-02
4.900261759757995605e-03
2.361008524894714355e-02
-5.552871525287628174e-02
3.447166085243225098e-02
-9.893372654914855957e-03
7.887865602970123291e-02
8.359347283840179443e-02
7.587997615337371826e-02
6.868529319763183594e-02
-3.172516822814941406e-02
7.873363792896270752e-03
8.162666857242584229e-02
7.142300903797149658e-02
-2.879589796066284180e-02
2.044345438480377197e-02
-5.271416902542114258e-02
8.148992061614990234e-02
-1.529842615127563477e-02
-2.162944525480270386e-02
-7.638262957334518433e-02
7.906819880008697510e-02
-3.491438925266265869e-02
-4.186065122485160828e-02
-6.171619892120361328e-02
8.823342621326446533e-03
5.701558291912078857e-02
5.079965293407440186e-02
-3.776850551366806030e-02
5.110237002372741699e-02
-8.759469538927078247e-02
1.745374500751495361e-02
5.069060623645782471e-02
4.496608674526214600e-02
8.913509547710418701e-02
8.688659965991973877e-02
6.142821907997131348e-02
8.419036865234375000e-02
-8.600028604269027710e-02
1.013243943452835083e-02
4.858060181140899658e-02
2.065702527761459351e-02
-7.097059488296508789e-02
-8.214946836233139038e-02
7.010510563850402832e-02
5.762293934822082520e-03
2.204453945159912109e-02
-7.266567647457122803e-02
-8.183889091014862061e-02
-7.047361880540847778e-02
-8.198003470897674561e-02
6.202231347560882568e-02
1.783845573663711548e-02
9.342409670352935791e-03
9.835958480834960938e-03
8.323203027248382568e-02
-8.498532325029373169e-02
-8.092704415321350098e-02
-2.611533552408218384e-02
-4.805371165275573730e-03
-6.503901630640029907e-02
-3.016282245516777039e-02
6.416235864162445068e-02
-3.981360793113708496e-02
3.310608118772506714e-02
7.029062509536743164e-02
4.953049123287200928e-02
-6.516703218221664429e-02
2.887396514415740967e-02
-3.876682370901107788e-02
-4.150906577706336975e-02
-6.332001090049743652e-02
-2.032011002302169800e-02
-6.038375198841094971e-02
-5.636458471417427063e-02
6.431026756763458252e-02
2.830419689416885376e-02
2.744667232036590576e-02
5.802741646766662598e-02
6.901152431964874268e-02
-5.194185674190521240e-02
1.201777160167694092e-02
4.185557365417480469e-03
-6.921706348657608032e-02
-3.697893023490905762e-02
4.121156036853790283e-02
2.915114164352416992e-04
-5.304231494665145874e-02
-2.769352495670318604e-02
3.267486393451690674e-02
-5.837926268577575684e-02
2.087017148733139038e-02
7.553654909133911133e-02
7.298865914344787598e-02
-3.348709270358085632e-02
-6.284462660551071167e-02
-1.162481307983398438e-02
-6.966754794120788574e-02
-3.621623665094375610e-02
5.429336428642272949e-02
1.035167276859283447e-02
-6.296485662460327148e-04
1.406528800725936890e-02
4.238903522491455078e-03
-6.176856532692909241e-02
-3.285537660121917725e-02
-7.655258476734161377e-02
6.847153604030609131e-02
-8.861797302961349487e-02
-6.401516497135162354e-03
-5.207620561122894287e-03
1.223129779100418091e-02
-3.085076808929443359e-03
-5.406063422560691833e-02
1.702587306499481201e-02
-4.359665513038635254e-02
-7.528828084468841553e-02
8.588887751102447510e-02
-4.716608300805091858e-02
6.896503269672393799e-02
5.183671414852142334e-02
4.176689684391021729e-02
8.815532922744750977e-02
-3.025749698281288147e-02
-4.668295383453369141e-03
3.511591255664825439e-02
7.518343627452850342e-03
3.512503206729888916e-02
-3.241577744483947754e-02
-4.858637228608131409e-02
8.629620075225830078e-02
3.500068187713623047e-02
-7.985929399728775024e-02
6.655502319335937500e-02
1.629953086376190186e-02
-1.631735265254974365e-02
-4.338434338569641113e-02
2.567756175994873047e-02
7.835079729557037354e-02
1.683600246906280518e-02
-1.136641949415206909e-02
2.495497465133666992e-04
4.943074285984039307e-02
-2.884164825081825256e-02
-7.091047614812850952e-02
-4.121779277920722961e-02
-7.122519612312316895e-02
1.816194504499435425e-02
-6.308514624834060669e-02
8.878387510776519775e-03
-3.701719269156455994e-02
-1.841828227043151855e-02
6.687355041503906250e-02
8.576649427413940430e-02
6.519974768161773682e-02
-2.214785665273666382e-02
6.621882319450378418e-03
-4.437983036041259766e-02
1.276792585849761963e-02
-8.266948908567428589e-02
-8.325240761041641235e-02
-7.126933336257934570e-02
5.662235617637634277e-02
-8.143103867769241333e-02
5.296702682971954346e-02
-3.122984990477561951e-02
-3.462268039584159851e-02
4.172529280185699463e-02
4.742571711540222168e-02
6.798391044139862061e-02
-8.501842617988586426e-02
3.357347846031188965e-02
-7.012760639190673828e-02
-3.937085345387458801e-02
-8.487976342439651489e-02
-6.940430402755737305e-02
-6.717254966497421265e-02
7.224175333976745605e-02
-1.064168661832809448e-02
-7.286878675222396851e-02
7.102183997631072998e-03
6.875172257423400879e-02
7.262828946113586426e-02
2.982714772224426270e-02
-5.848507955670356750e-02
4.503282904624938965e-02
-1.524388790130615234e-03
-2.719798684120178223e-02
-4.991019889712333679e-02
8.554401993751525879e-02
-8.610486984252929688e-04
5.310399830341339111e-02
-1.310719549655914307e-02
7.608123123645782471e-02
7.566016912460327148e-02
-5.449829623103141785e-02
3.312103450298309326e-03
5.948141217231750488e-03
9.080241620540618896e-02
-4.879128560423851013e-02
-4.258299618959426880e-02
7.449918985366821289e-02
8.748231828212738037e-02
-4.928469657897949219e-03
5.403897166252136230e-02
-7.984223216772079468e-02
3.227213025093078613e-02
1.107793301343917847e-02
1.812583208084106445e-02
3.501826524734497070e-02
1.696672290563583374e-02
-8.607652783393859863e-02
-6.039663776755332947e-02
-1.237542182207107544e-02
1.583644747734069824e-02
-7.146775722503662109e-02
3.252986818552017212e-02
2.864787727594375610e-02
-9.203590452671051025e-03
4.299488663673400879e-02
-5.645651742815971375e-02
-1.332636177539825439e-02
2.380276471376419067e-02
1.407817751169204712e-02
-8.219922333955764771e-02
1.911181211471557617e-02
6.261549890041351318e-03
-7.522967457771301270e-02
1.952838152647018433e-02
-6.717805564403533936e-02
6.010551750659942627e-02
8.025474846363067627e-03
-2.736501395702362061e-03
-5.662977695465087891e-03
-7.569580525159835815e-02
1.280621439218521118e-02
5.668158829212188721e-02
4.340958595275878906e-02
5.559256672859191895e-02
5.003027617931365967e-02
6.211681663990020752e-02
1.196381449699401855e-02
8.324204385280609131e-02
3.616937994956970215e-02
1.871073246002197266e-02
5.331064760684967041e-02
4.660485684871673584e-02
6.244891881942749023e-02
1.922380924224853516e-02
-2.321381866931915283e-02
1.034356653690338135e-03
8.787171542644500732e-02
5.238699913024902344e-02
2.682401239871978760e-02
-7.683522254228591919e-02
-4.626087471842765808e-02
-9.134359657764434814e-03
-2.328388392925262451e-03
1.411634683609008789e-02
2.740348875522613525e-02
3.827904164791107178e-02
8.250348269939422607e-02
6.689354777336120605e-03
2.101037651300430298e-02
4.537764191627502441e-02
5.475881695747375488e-02
-5.466168373823165894e-02
1.218505203723907471e-02
-7.244420051574707031e-02
-2.001952379941940308e-02
-2.633587270975112915e-02
-4.292881116271018982e-02
-8.254207670688629150e-02
6.125448644161224365e-02
-5.898401141166687012e-02
1.523075997829437256e-02
-4.698515683412551880e-02
-6.847707182168960571e-02
1.579535007476806641e-02
-2.959020435810089111e-03
-3.606669604778289795e-03
5.617329478263854980e-02
2.424854785203933716e-02
-1.270115375518798828e-03
8.439576625823974609e-02
-4.365313425660133362e-02
-6.621602177619934082e-02
-8.773666620254516602e-02
-6.875985860824584961e-02
-1.718286424875259399e-02
-8.008760213851928711e-02
-8.018687367439270020e-02
-8.025564253330230713e-03
7.063393294811248779e-02
-8.355667442083358765e-02
5.012294650077819824e-02
6.395331025123596191e-02
2.940874546766281128e-02
-3.980309888720512390e-02
5.742582678794860840e-02
3.995917737483978271e-02
-8.708172291517257690e-02
4.065677523612976074e-03
-4.499872773885726929e-02
-4.370563104748725891e-02
9.687200188636779785e-03
-3.299765288829803467e-03
-3.523798659443855286e-02
2.168437838554382324e-02
4.198485612869262695e-02
1.047196239233016968e-02
-6.708648800849914551e-02
-2.994132414460182190e-02
2.052376419305801392e-02
-4.311500862240791321e-02
-4.861048609018325806e-02
-5.954462289810180664e-02
7.845534384250640869e-02
3.643144667148590088e-02
4.744292795658111572e-02
-2.976405248045921326e-02
8.114379644393920898e-02
-2.126646041870117188e-02
6.901279091835021973e-02
8.021368086338043213e-02
-1.156173646450042725e-02
8.502589166164398193e-02
-6.289809942245483398e-02
4.714608192443847656e-02
-4.629554599523544312e-02
8.372321724891662598e-02
7.982343435287475586e-03
-5.545081943273544312e-02
8.102381229400634766e-02
2.268182486295700073e-02
8.145250380039215088e-02
3.507179021835327148e-02
-1.024552434682846069e-02
-2.213124930858612061e-02
-5.598838254809379578e-02
5.867521464824676514e-02
8.228085935115814209e-03
-5.124373733997344971e-02
1.096310466527938843e-02
-1.078385114669799805e-02
-7.506541907787322998e-02
-1.639361679553985596e-02
-2.428306639194488525e-02
6.057898700237274170e-02
5.579015612602233887e-02
5.326835811138153076e-02
-6.890298426151275635e-02
-6.116179376840591431e-02
3.775401413440704346e-02
-4.019737243652343750e-03
-6.630788743495941162e-02
-4.444103315472602844e-02
-2.104624360799789429e-02
-2.351793646812438965e-02
-7.701613008975982666e-02
-8.934096992015838623e-02
7.513369619846343994e-02
-4.989391937851905823e-02
4.587076604366302490e-02
-3.985957428812980652e-02
2.069465816020965576e-02
8.223176002502441406e-02
-2.117419987916946411e-02
6.676328182220458984e-02
5.904336273670196533e-02
8.036388456821441650e-02
-1.076322048902511597e-02
8.587929606437683105e-02
7.387569546699523926e-02
-7.560593634843826294e-02
-8.948870748281478882e-02
2.819214761257171631e-02
-9.336508810520172119e-03
3.350404649972915649e-02
5.698506534099578857e-02
3.704521059989929199e-02
-2.571342885494232178e-02
-4.681473970413208008e-02
7.292836904525756836e-03
5.148562788963317871e-02
5.479249358177185059e-02
-1.433476805686950684e-03
-1.859720796346664429e-02
4.820209741592407227e-02
-4.273086413741111755e-02
-5.000857636332511902e-02
-1.803413033485412598e-03
3.716625273227691650e-02
3.859743475914001465e-03
-8.218593895435333252e-03
-3.781725838780403137e-02
-5.731018632650375366e-02
4.386104643344879150e-02
-1.692536473274230957e-02
5.480796098709106445e-02
-6.199239194393157959e-02
7.261131703853607178e-02
7.316228747367858887e-02
-5.422042682766914368e-02
5.337946116924285889e-03
8.069176971912384033e-02
-3.724476322531700134e-02
1.959010958671569824e-02
-4.450791701674461365e-02
7.213725149631500244e-02
-5.745468288660049438e-02
3.719633817672729492e-02
-8.517967909574508667e-02
-9.121644496917724609e-02
8.956614136695861816e-02
2.440519630908966064e-03
-8.231155574321746826e-03
1.724287122488021851e-02
5.165192484855651855e-02
4.317781329154968262e-02
-4.484311118721961975e-02
6.580309569835662842e-02
-3.636151552200317383e-02
-3.484443947672843933e-02
-1.983713358640670776e-02
-3.090573102235794067e-02
6.637831032276153564e-02
9.043651819229125977e-02
2.199757099151611328e-02
-5.878007784485816956e-02
-4.972104355692863464e-02
7.829155027866363525e-02
-9.492777287960052490e-03
-1.593793183565139771e-02
-7.508217543363571167e-02
-9.012717008590698242e-02
-6.489332020282745361e-02
-1.631914079189300537e-02
-5.652106925845146179e-02
-1.643621176481246948e-02
-8.327003568410873413e-02
5.015511810779571533e-02
-8.672100305557250977e-02
-6.288310885429382324e-02
-7.199816405773162842e-02
4.860739409923553467e-02
-8.110874891281127930e-02
5.932725965976715088e-02
-1.077324151992797852e-03
1.176431775093078613e-02
3.970359265804290771e-02
-7.961468398571014404e-02
-7.146340608596801758e-02
3.092122822999954224e-02
5.621257424354553223e-02
-2.053475379943847656e-02
-8.245769888162612915e-02
3.507283329963684082e-02
3.503909707069396973e-02
-5.126103758811950684e-02
1.893967390060424805e-02
5.731499195098876953e-02
2.533745020627975464e-02
-7.643024623394012451e-02
4.942767322063446045e-03
-3.289856016635894775e-02
-3.914158418774604797e-02
2.415317296981811523e-02
5.043536424636840820e-02
8.602164685726165771e-02
-2.197325974702835083e-02
-5.705382302403450012e-02
-4.214994609355926514e-02
-3.460459411144256592e-02
-4.065883532166481018e-02
-7.060821354389190674e-02
-8.900497108697891235e-02
-1.479766517877578735e-02
4.171484708786010742e-02
6.087343394756317139e-02
-8.059781044721603394e-02
4.520906507968902588e-02
-5.108929425477981567e-02
8.627216517925262451e-02
3.895726799964904785e-02
-3.231905400753021240e-03
-4.930956289172172546e-02
-6.236617639660835266e-02
6.313870847225189209e-02
3.640235960483551025e-02
-3.805220499634742737e-02
-5.485712736845016479e-02
1.787552237510681152e-02
4.415324330329895020e-02
-7.677545398473739624e-02
-7.642291486263275146e-02
-6.799608469009399414e-03
8.141103386878967285e-02
3.952066600322723389e-02
-2.419694513082504272e-02
-3.395309299230575562e-02
1.714381575584411621e-02
-1.470958441495895386e-02
-9.653463959693908691e-03
-2.984146773815155029e-02
1.385367661714553833e-02
-5.005351826548576355e-02
-6.799030303955078125e-02
8.654814958572387695e-02
-4.102197661995887756e-02
-4.564953222870826721e-02
-8.904629945755004883e-02
-2.889370918273925781e-02
6.201839447021484375e-02
4.876430332660675049e-02
-6.101718917489051819e-02
8.889932930469512939e-02
-7.751163840293884277e-02
2.654270082712173462e-02
2.151525020599365234e-02
5.047157406806945801e-02
2.438000589609146118e-02
5.267085134983062744e-02
9.076164662837982178e-02
-6.137818098068237305e-03
-2.364390343427658081e-02
-8.845607191324234009e-02
1.294881105422973633e-03
4.897299408912658691e-02
4.321560263633728027e-02
9.014515578746795654e-02
8.955053985118865967e-02
-7.295978069305419922e-02
6.683306396007537842e-02
3.753180801868438721e-02
4.358856379985809326e-02
4.952564835548400879e-02
-6.095948815345764160e-02
7.582485675811767578e-03
-7.692271471023559570e-02
7.475815713405609131e-03
-5.900956690311431885e-03
-8.368968963623046875e-03
-3.617468848824501038e-02
4.487895965576171875e-02
-5.424230173230171204e-02
-7.944228500127792358e-02
-3.873639553785324097e-02
-9.233951568603515625e-03
-7.002738118171691895e-02
-4.398291185498237610e-02
-7.813264429569244385e-02
5.092710256576538086e-02
-4.356385767459869385e-02
-5.071320384740829468e-02
-1.130641996860504150e-02
2.674047648906707764e-02
7.878936827182769775e-02
7.112391293048858643e-03
1.340097188949584961e-02
-7.143940031528472900e-02
-6.382588297128677368e-02
-1.013439893722534180e-02
6.089237332344055176e-02
3.847940266132354736e-02
2.255639433860778809e-02
-4.308703914284706116e-02
8.852632343769073486e-02
-3.757334128022193909e-02
-6.378395855426788330e-02
-3.515667095780372620e-02
1.612173020839691162e-02
3.432971239089965820e-02
-4.845678806304931641e-03
-7.713426649570465088e-02
2.013448625802993774e-02
4.162494838237762451e-02
2.432633191347122192e-02
5.854427814483642578e-02
-5.189841240644454956e-02
-3.351157903671264648e-02
-6.951989978551864624e-02
8.488762378692626953e-02
-8.178611099720001221e-02
-1.986120641231536865e-02
5.219073593616485596e-02
4.262031614780426025e-02
2.456417679786682129e-02
6.815700232982635498e-02
-1.779934763908386230e-02
-1.468072831630706787e-02
1.745149493217468262e-03
-1.315644383430480957e-02
-8.260723948478698730e-02
-5.113502219319343567e-02
2.270972728729248047e-02
2.084751427173614502e-02
-3.845815733075141907e-02
-3.414762392640113831e-02
7.116684317588806152e-02
-4.066738858819007874e-02
4.399873316287994385e-02
8.373129367828369141e-02
-8.605376631021499634e-02
-5.042625963687896729e-02
-6.898814439773559570e-02
-1.857801526784896851e-02
-8.770845830440521240e-03
-5.892058834433555603e-02
-8.000714331865310669e-02
-4.993470758199691772e-02
2.556388825178146362e-02
3.621745109558105469e-02
7.859379053115844727e-02
-5.495985597372055054e-02
8.078004419803619385e-02
-3.763748332858085632e-02
-9.082522243261337280e-02
7.798530161380767822e-02
-2.898466214537620544e-02
3.559760749340057373e-02
-4.816653579473495483e-02
9.051167964935302734e-02
1.966125518083572388e-02
2.135016024112701416e-03
-2.632579952478408813e-02
-7.642556726932525635e-02
-8.854508399963378906e-03
-2.372791618108749390e-02
-6.620441377162933350e-02
5.904884636402130127e-02
6.711676716804504395e-02
5.991640686988830566e-02
8.482672274112701416e-02
-8.573848009109497070e-02
8.891002833843231201e-02
4.486617445945739746e-02
6.809967756271362305e-02
1.057253777980804443e-02
-7.602801918983459473e-02
-1.552020758390426636e-02
2.007778733968734741e-02
-8.868613839149475098e-02
-9.253233671188354492e-03
-4.037216305732727051e-03
2.193928509950637817e-02
-2.175572514533996582e-02
3.919564187526702881e-02
-7.293488085269927979e-02
-2.004263550043106079e-02
-3.910660743713378906e-04
6.223687529563903809e-02
-4.067331552505493164e-03
8.826388418674468994e-02
-4.656107351183891296e-02
4.214583337306976318e-02
-8.292256295680999756e-02
3.742954134941101074e-02
4.025939106941223145e-02
8.948306739330291748e-02
-7.447429001331329346e-02
2.593629807233810425e-02
2.122925966978073120e-02
8.288091421127319336e-02
-6.542973220348358154e-02
2.326289564371109009e-02
-1.748450100421905518e-02
-2.987585589289665222e-02
2.123731374740600586e-02
-3.076680749654769897e-02
-8.776138722896575928e-02
-1.137740910053253174e-03
-4.888369888067245483e-02
7.007378339767456055e-02
3.462998569011688232e-02
4.415647685527801514e-02
1.631500571966171265e-02
-9.043277055025100708e-02
-8.323518931865692139e-02
5.791334807872772217e-02
-3.201722353696823120e-02
3.315498679876327515e-02
-2.442412078380584717e-02
-6.925920397043228149e-02
3.327423334121704102e-02
2.687677741050720215e-03
6.348298490047454834e-02
-8.643701672554016113e-03
6.121426820755004883e-02
-2.442425489425659180e-02
-2.439271658658981323e-02
-9.086541831493377686e-03
2.598104625940322876e-02
-5.530321225523948669e-02
-3.243789076805114746e-02
-5.910611152648925781e-02
-1.313437521457672119e-02
-2.147442102432250977e-02
5.765785276889801025e-02
7.758148014545440674e-02
-1.635289192199707031e-02
-2.700455486774444580e-03
-4.358801618218421936e-02
-3.528935089707374573e-02
8.702309429645538330e-02
-6.225210800766944885e-02
-2.183664590120315552e-02
2.505861222743988037e-03
6.030246615409851074e-02
-8.208404481410980225e-02
2.517521381378173828e-02
6.985813379287719727e-02
-1.841443032026290894e-02
-7.836709916591644287e-02
1.580771803855895996e-02
6.980694830417633057e-02
-6.509484350681304932e-02
3.549265861511230469e-02
7.921335101127624512e-02
2.293914556503295898e-02
-8.298829197883605957e-04
4.252710938453674316e-02
5.674627423286437988e-02
-3.356892615556716919e-02
4.650598764419555664e-02
-5.411402136087417603e-02
-2.207801491022109985e-02
4.750676453113555908e-03
-5.470747500658035278e-02
-8.686945587396621704e-02
-1.403149217367172241e-02
-2.529017627239227295e-02
-1.888748258352279663e-02
-6.323932856321334839e-02
4.535025358200073242e-02
1.526238024234771729e-02
4.098902642726898193e-02
5.566716194152832031e-02
1.573398709297180176e-03
-2.840161323547363281e-03
-5.747712031006813049e-02
-1.961535215377807617e-02
-7.954192161560058594e-02
6.397224962711334229e-02
-7.667610049247741699e-02
3.763817250728607178e-02
-1.533422619104385376e-02
-8.009634912014007568e-03
-1.147271692752838135e-02
8.734749257564544678e-02
8.530730009078979492e-02
-2.011989802122116089e-02
-3.234504163265228271e-02
-4.225382581353187561e-02
4.718713462352752686e-02
3.064144402742385864e-02
-6.134245917201042175e-02
-5.302252992987632751e-02
-8.415716141462326050e-02
2.543195337057113647e-02
6.261928379535675049e-02
-7.471133023500442505e-02
-8.649617433547973633e-03
-8.677702397108078003e-02
7.310792803764343262e-03
1.642554998397827148e-04
7.158455252647399902e-02
6.232495605945587158e-02
1.048815995454788208e-02
6.551262736320495605e-02
-1.280433684587478638e-02
2.877765893936157227e-02
-3.245279937982559204e-02
8.913484215736389160e-02
-7.431928068399429321e-02
4.319638013839721680e-02
5.973906815052032471e-02
8.210550248622894287e-02
-4.688540846109390259e-02
1.789867877960205078e-02
-6.433162093162536621e-02
4.250875115394592285e-02
-8.940672129392623901e-02
-3.360658884048461914e-04
-2.233300358057022095e-02
-9.938821196556091309e-03
-4.043482244014739990e-03
8.621372282505035400e-03
2.667268365621566772e-02
5.575215816497802734e-02
8.495800197124481201e-02
2.643314003944396973e-02
-7.575598359107971191e-02
-8.232369273900985718e-02
-1.073211431503295898e-03
-3.618635237216949463e-02
-3.623425588011741638e-02
9.111848473548889160e-02
4.251682758331298828e-02
-6.904107332229614258e-02
-3.168625012040138245e-02
-3.688416630029678345e-02
-4.820368811488151550e-02
4.285506904125213623e-02
7.815383374691009521e-03
-8.232109248638153076e-03
-9.271107614040374756e-03
2.786294370889663696e-02
4.097877442836761475e-02
3.854385018348693848e-02
5.451971292495727539e-02
4.060244560241699219e-02
-8.568254858255386353e-02
5.455888807773590088e-03
-1.726500689983367920e-02
6.185220181941986084e-02
2.039859443902969360e-02
7.818593084812164307e-02
-2.060166001319885254e-02
-5.697934329509735107e-02
-4.094040393829345703e-02
-3.436759859323501587e-02
1.164861768484115601e-02
3.501178324222564697e-02
6.604540348052978516e-02
-2.258183807134628296e-02
-4.529485478997230530e-02
-3.919489681720733643e-03
8.665905892848968506e-02
-6.737311184406280518e-02
-2.232839167118072510e-02
-3.000894561409950256e-02
4.987061023712158203e-03
-5.079038441181182861e-03
8.342482149600982666e-02
-5.971586704254150391e-02
6.708914041519165039e-02
-2.665892988443374634e-02
3.214600682258605957e-02
7.337640225887298584e-02
2.706796675920486450e-02
-2.251075953245162964e-02
4.708050191402435303e-02
7.788044214248657227e-02
6.982953846454620361e-02
-1.877326518297195435e-02
3.106892108917236328e-02
4.375602304935455322e-02
-6.489571928977966309e-02
-6.165429949760437012e-02
1.654699444770812988e-02
-7.715938240289688110e-02
3.092551231384277344e-02
4.184383153915405273e-02
-1.496466249227523804e-02
-4.321118444204330444e-02
1.766442507505416870e-02
3.469967842102050781e-02
-7.206258177757263184e-02
-1.268085092306137085e-02
-7.720956951379776001e-02
8.512228727340698242e-02
7.132659852504730225e-02
-3.799409419298171997e-02
-9.121844917535781860e-02
-2.239438146352767944e-02
-7.724670320749282837e-02
-3.101481497287750244e-02
-9.991660714149475098e-03
-5.004622042179107666e-03
-5.315646901726722717e-02
-6.445145606994628906e-02
-4.724576324224472046e-02
5.669337511062622070e-02
2.502919733524322510e-02
6.943745911121368408e-02
2.283189445734024048e-02
-4.079237580299377441e-03
-4.307223856449127197e-02
4.133689403533935547e-02
-8.155499398708343506e-02
-7.556191086769104004e-02
-6.175861880183219910e-02
2.459122985601425171e-02
8.457906544208526611e-02
2.684213966131210327e-02
-4.917277395725250244e-02
1.010120660066604614e-02
5.059023201465606689e-02
-6.220375001430511475e-02
-7.650040090084075928e-03
-6.839212775230407715e-02
6.066651642322540283e-02
8.797964453697204590e-02
4.386703670024871826e-02
4.305636882781982422e-02
6.410872936248779297e-02
1.305911689996719360e-02
-6.699457764625549316e-02
8.991500735282897949e-02
5.776818096637725830e-02
6.853349506855010986e-03
-8.083447813987731934e-02
2.950141578912734985e-02
4.612015187740325928e-02
8.937388658523559570e-02
-2.670184522867202759e-02
-6.765373796224594116e-02
-2.049827575683593750e-02
-4.701305925846099854e-02
5.384936928749084473e-03
2.042949944734573364e-02
2.768270671367645264e-02
-6.006773188710212708e-02
-5.477361753582954407e-02
-8.654867112636566162e-02
4.743278026580810547e-02
-8.244831860065460205e-02
-4.980146512389183044e-02
-2.974583581089973450e-02
6.453391909599304199e-02
-8.109815418720245361e-02
-7.612504065036773682e-02
1.414244621992111206e-02
-1.736287772655487061e-02
-1.729782670736312866e-02
5.764739215373992920e-02
6.940722465515136719e-02
2.938152104616165161e-02
-3.941751644015312195e-02
-8.952692151069641113e-03
5.966293811798095703e-02
3.212732821702957153e-02
8.649471402168273926e-02
-5.388307943940162659e-02
-1.167722046375274658e-02
-6.741370260715484619e-02
7.936567068099975586e-03
4.543162882328033447e-02
7.118420302867889404e-02
-8.648929744958877563e-02
1.082491874694824219e-02
-8.651049435138702393e-02
-4.588618874549865723e-03
-8.433055877685546875e-02
-1.614360511302947998e-02
7.295227050781250000e-02
-3.673046827316284180e-03
4.527790844440460205e-02
9.664021432399749756e-03
-7.390841096639633179e-02
-6.846736371517181396e-02
4.584927856922149658e-02
8.145038783550262451e-02
-5.861249193549156189e-02
-8.080620318651199341e-02
-8.952126652002334595e-02
2.697407454252243042e-02
-8.824123442173004150e-02
-5.697679892182350159e-02
-4.333156347274780273e-02
5.247813463211059570e-02
5.674681067466735840e-02
4.406332969665527344e-02
-6.388331949710845947e-02
4.697014391422271729e-02
-9.114317595958709717e-03
8.558791875839233398e-02
2.253182232379913330e-02
2.057269215583801270e-02
2.154332399368286133e-02
-2.734401077032089233e-02
3.322345763444900513e-02
-2.060762047767639160e-02
-4.223926737904548645e-02
3.768691420555114746e-02
6.732821464538574219e-02
7.979179918766021729e-02
3.577502071857452393e-02
4.375484585762023926e-02
5.360107123851776123e-02
-7.650083303451538086e-02
-7.600603252649307251e-02
-3.069842606782913208e-02
2.262227237224578857e-03
2.502053976058959961e-04
-6.847709417343139648e-02
6.541597843170166016e-02
-1.593053340911865234e-02
2.996957302093505859e-02
8.599519729614257812e-03
-8.678818494081497192e-02
4.779374599456787109e-02
-7.529675215482711792e-02
-4.823792353272438049e-02
2.026356756687164307e-02
6.367664039134979248e-02
-7.907579094171524048e-02
-3.828373551368713379e-02
-4.331798478960990906e-02
4.695858061313629150e-02
5.793409049510955811e-02
5.391070246696472168e-02
-1.364858448505401611e-02
2.182939648628234863e-02
8.194687962532043457e-02
-8.655913919210433960e-02
8.065690100193023682e-02
-3.642110526561737061e-02
-5.778476223349571228e-02
5.713370442390441895e-02
5.687731504440307617e-02
-2.527470141649246216e-02
6.751547753810882568e-02
6.156951189041137695e-02
-6.097975373268127441e-02
-2.971965074539184570e-02
3.494931757450103760e-02
5.259968340396881104e-03
-1.031538844108581543e-02
8.303911983966827393e-02
-1.629270613193511963e-03
-4.885738343000411987e-02
3.653176128864288330e-03
1.834791898727416992e-02
8.587452769279479980e-02
-6.834802776575088501e-02
1.740305870771408081e-02
7.124869525432586670e-02
-6.514021754264831543e-02
3.727789223194122314e-02
8.652770519256591797e-02
6.051743030548095703e-02
-2.282503992319107056e-02
-1.317172497510910034e-02
5.627852678298950195e-02
6.239186227321624756e-02
-4.922801256179809570e-02
1.375690847635269165e-02
1.095701009035110474e-02
-6.501866877079010010e-02
-8.684594929218292236e-02
4.315271973609924316e-02
-2.006403356790542603e-02
-7.575086504220962524e-02
6.324315071105957031e-02
4.946669936180114746e-02
5.398730933666229248e-02
6.325131654739379883e-02
-8.583453297615051270e-02
-1.442614197731018066e-02
6.373655796051025391e-02
3.210822492837905884e-02
7.567086815834045410e-02
-1.025275141000747681e-02
-6.744460761547088623e-02
3.860297799110412598e-02
-4.154722020030021667e-02
5.267949402332305908e-02
-1.351155340671539307e-02
-5.254995450377464294e-02
2.394579350948333740e-03
1.066220551729202271e-02
6.841367483139038086e-02
-6.649362295866012573e-02
-2.526417374610900879e-04
-5.816329270601272583e-02
-4.181871190667152405e-02
2.220383286476135254e-02
-8.944062888622283936e-02
-8.624009042978286743e-02
-6.978601217269897461e-02
-3.325969725847244263e-02
7.016068696975708008e-02
4.446332156658172607e-02
-7.503277063369750977e-02
8.539341390132904053e-03
1.216861605644226074e-02
1.322008669376373291e-02
-5.843669176101684570e-03
-7.376076281070709229e-02
-3.707197308540344238e-02
2.804742008447647095e-02
-8.936327695846557617e-02
4.348030686378479004e-02
-8.058729767799377441e-02
-9.799920022487640381e-03
-6.130903214216232300e-02
-7.501631230115890503e-02
-6.497260928153991699e-02
2.777468413114547729e-02
6.745055317878723145e-02
7.038880884647369385e-02
-8.202547580003738403e-02
8.001556992530822754e-02
-3.335252404212951660e-02
6.895379722118377686e-02
7.525506615638732910e-02
1.660715043544769287e-02
-8.112111687660217285e-02
4.892432689666748047e-02
6.173878908157348633e-03
5.357356369495391846e-02
-8.083593100309371948e-02
-3.807109594345092773e-02
4.777827858924865723e-02
-1.233701407909393311e-02
-6.734581291675567627e-02
-3.770386427640914917e-02
-2.360906451940536499e-02
8.668215572834014893e-02
-5.062936618924140930e-02
8.319947123527526855e-02
-8.790054917335510254e-02
-2.246844768524169922e-02
-8.794999867677688599e-02
-6.108454987406730652e-02
-2.708563953638076782e-02
7.116569578647613525e-02
-8.994594216346740723e-02
6.820718944072723389e-02
-1.796549558639526367e-02
-3.616005182266235352e-03
-7.031860947608947754e-02
5.971007049083709717e-02
-6.833577156066894531e-02
6.601402163505554199e-02
5.857266485691070557e-02
1.716841012239456177e-02
-3.039722517132759094e-02
3.144240379333496094e-02
3.477065265178680420e-02
5.378615856170654297e-02
2.287083119153976440e-02
3.889632225036621094e-02
-4.099764302372932434e-02
2.996730804443359375e-02
-4.496313631534576416e-03
-3.838877379894256592e-02
3.299120813608169556e-02
7.346735894680023193e-02
-3.596844524145126343e-02
-5.284569412469863892e-02
-8.898838609457015991e-02
-7.686166465282440186e-02
8.796989917755126953e-03
-6.395216286182403564e-02
-4.953006282448768616e-02
-7.353147119283676147e-02
5.887359380722045898e-02
-7.618196308612823486e-03
6.036944687366485596e-02
7.069501280784606934e-02
6.267301738262176514e-02
-8.561059832572937012e-02
1.198127120733261108e-02
-6.775438040494918823e-02
6.635661423206329346e-02
5.651891231536865234e-02
-8.284688740968704224e-02
1.661948859691619873e-02
4.551641643047332764e-03
-8.453564345836639404e-02
5.361363291740417480e-02
2.439123392105102539e-02
6.008203327655792236e-02
-7.822229713201522827e-02
9.095783531665802002e-02
5.945895612239837646e-02
6.628474593162536621e-02
-7.570327073335647583e-02
6.669364869594573975e-02
-3.462102636694908142e-02
-2.648003399372100830e-03
1.368107646703720093e-02
4.421792924404144287e-03
4.488529264926910400e-02
1.749856024980545044e-02
8.412973582744598389e-02
-7.253374159336090088e-02
4.341042041778564453e-02
-4.734002053737640381e-03
-7.967275381088256836e-02
2.419711649417877197e-02
4.378212988376617432e-02
8.448715507984161377e-02
-6.942778825759887695e-02
-6.858874857425689697e-02
5.288115143775939941e-02
-5.420519411563873291e-02
4.361431300640106201e-02
-1.024653017520904541e-02
-6.117537245154380798e-02
7.811431586742401123e-02
-3.431186079978942871e-02
-5.920126289129257202e-02
7.107919454574584961e-02
-1.588571816682815552e-02
-1.382030546665191650e-02
-6.490912288427352905e-02
7.750739157199859619e-02
-5.468864738941192627e-02
8.844438195228576660e-02
4.555131494998931885e-02
5.684205889701843262e-02
5.957250297069549561e-02
-7.986765354871749878e-02
-1.913788169622421265e-02
-5.801555514335632324e-02
-2.074421942234039307e-02
-8.022724837064743042e-02
-8.420996367931365967e-02
3.157662600278854370e-02
5.226904153823852539e-02
4.265268146991729736e-02
-8.448384702205657959e-02
-4.363781213760375977e-02
-3.337274119257926941e-02
2.358638495206832886e-02
3.052557259798049927e-02
-6.077248975634574890e-02
-5.507309734821319580e-02
1.773592084646224976e-02
4.584088921546936035e-03
4.458035528659820557e-02
-4.892868548631668091e-02
-8.867101371288299561e-02
8.241035044193267822e-03
8.610248565673828125e-03
5.856066942214965820e-02
1.082544028759002686e-02
8.217594027519226074e-02
5.541592836380004883e-02
3.340238332748413086e-02
3.175605088472366333e-02
2.503735572099685669e-02
-4.818503558635711670e-02
5.163136124610900879e-02
2.382426708936691284e-02
7.359459996223449707e-04
-7.608005404472351074e-02
-7.135991752147674561e-02
7.276892662048339844e-02
4.914408922195434570e-02
-4.534296691417694092e-03
3.818947076797485352e-02
-4.374672099947929382e-02
7.724891602993011475e-02
-2.715589851140975952e-02
1.206254214048385620e-02
-5.562409013509750366e-02
8.522738516330718994e-02
-1.174680143594741821e-02
4.274179041385650635e-02
-3.872035443782806396e-02
-6.098093092441558838e-02
-1.702333241701126099e-02
-8.519154042005538940e-02
-3.574304282665252686e-03
2.973392605781555176e-02
3.421157598495483398e-02
8.544176816940307617e-02
-1.043137162923812866e-02
7.280051708221435547e-02
-6.179237365722656250e-02
2.355014532804489136e-02
7.700851559638977051e-02
3.011881560087203979e-02
7.273715734481811523e-02
-5.400561168789863586e-02
3.619250655174255371e-02
-4.997728019952774048e-02
1.361243426799774170e-03
-5.648202449083328247e-02
-5.500495433807373047e-02
-6.372842192649841309e-02
4.691490530967712402e-02
-7.164431363344192505e-02
-1.170805841684341431e-02
-7.062020152807235718e-02
-3.092569112777709961e-02
-2.599686384201049805e-03
-1.741576939821243286e-02
3.191486746072769165e-02
-3.633224219083786011e-02
8.614592254161834717e-02
5.729122459888458252e-02
3.301539272069931030e-02
-4.852451756596565247e-02
-1.961834728717803955e-03
-7.950078696012496948e-02
-6.135851144790649414e-04
-4.104965925216674805e-02
7.250085473060607910e-02
-5.966902896761894226e-02
-8.818762749433517456e-02
8.699235320091247559e-02
5.079077184200286865e-02
2.957030385732650757e-02
-3.221734985709190369e-02
5.757533013820648193e-02
-5.248242244124412537e-02
1.794081181287765503e-02
-3.052598237991333008e-02
-5.430134758353233337e-02
-8.604303002357482910e-03
-8.223759382963180542e-02
-2.252246439456939697e-02
-5.081364512443542480e-02
-1.748290657997131348e-02
-1.753934472799301147e-02
8.361260592937469482e-02
-2.432651072740554810e-02
6.127290427684783936e-02
-5.074848234653472900e-02
4.629635810852050781e-02
-8.815652132034301758e-02
7.539860904216766357e-02
-8.451329171657562256e-02
9.407065808773040771e-03
4.457622766494750977e-02
-8.601591736078262329e-02
9.768210351467132568e-03
-4.766181483864784241e-02
-1.933237165212631226e-02
5.152809619903564453e-02
-8.784431219100952148e-02
7.234643399715423584e-02
8.048808574676513672e-02
-5.141055956482887268e-02
-5.934125557541847229e-02
5.664549767971038818e-02
-3.240071609616279602e-02
-2.399486303329467773e-02
2.121267467737197876e-02
-6.630074977874755859e-02
4.479967057704925537e-03
3.214210271835327148e-03
3.670893609523773193e-03
5.687482655048370361e-02
-8.677841722965240479e-02
-1.638712733983993530e-02
1.913984119892120361e-02
-7.498392462730407715e-02
-8.858589828014373779e-02
-2.367381006479263306e-02
-3.271643444895744324e-02
2.869959175586700439e-02
3.566667437553405762e-03
-5.768954381346702576e-02
-5.977439135313034058e-02
-8.519008010625839233e-02
3.816398978233337402e-02
4.551140964031219482e-02
1.431830227375030518e-02
3.144696354866027832e-03
-7.758718729019165039e-02
-5.380196124315261841e-02
2.629980444908142090e-03
6.340160965919494629e-03
-3.821812570095062256e-03
-2.997219562530517578e-03
-8.920361846685409546e-02
1.837886869907379150e-02
-7.119191437959671021e-02
3.552296757698059082e-02
6.576912105083465576e-02
-4.600348696112632751e-02
-4.925554618239402771e-02
-8.940522372722625732e-02
3.318130970001220703e-03
8.746691048145294189e-02
-3.661126270890235901e-02
-2.284567058086395264e-02
5.409005284309387207e-02
6.260381639003753662e-02
-7.479967176914215088e-02
-3.868231177330017090e-02
-2.629439532756805420e-02
5.797502398490905762e-02
7.081706821918487549e-02
-8.993819355964660645e-02
3.336891531944274902e-02
5.787052214145660400e-02
-5.137982964515686035e-02
-2.993327006697654724e-02
-5.302483588457107544e-02
1.748321205377578735e-02
-8.446399867534637451e-02
8.859370648860931396e-02
-7.023529708385467529e-02
-6.836491823196411133e-02
-5.894457176327705383e-02
4.669815301895141602e-02
-1.297943294048309326e-02
5.846185982227325439e-02
7.410217821598052979e-02
-8.850149065256118774e-02
4.475109279155731201e-02
2.465154230594635010e-02
-7.931337505578994751e-02
4.419918358325958252e-02
-2.125703543424606323e-02
-2.418346703052520752e-03
-8.218750357627868652e-03
-8.140087127685546875e-03
-2.882415056228637695e-02
-8.690850436687469482e-02
-4.265438392758369446e-02
5.312047898769378662e-03
6.092838943004608154e-02
-4.012231901288032532e-02
-2.920426800847053528e-02
-8.512953668832778931e-02
2.010129392147064209e-02
2.171076089143753052e-02
6.914779543876647949e-02
6.672994792461395264e-02
8.838534355163574219e-03
9.452946484088897705e-03
-7.264199852943420410e-02
8.744227886199951172e-02
-2.264338731765747070e-02
-3.648511320352554321e-02
-2.829082310199737549e-03
6.940141320228576660e-02
3.832896053791046143e-02
-9.047681838274002075e-02
6.856895983219146729e-02
3.812727332115173340e-02
-7.054232060909271240e-03
-2.512615919113159180e-02
8.890038728713989258e-02
1.038338243961334229e-02
2.488324791193008423e-02
8.762411773204803467e-02
6.308966875076293945e-02
8.161477744579315186e-02
3.693076968193054199e-02
3.847567737102508545e-02
-7.569935172796249390e-02
7.992106676101684570e-02
-1.275991648435592651e-02
-5.584932863712310791e-03
1.677138358354568481e-02
-5.588970333337783813e-02
-3.029062226414680481e-02
4.441182315349578857e-02
-6.673380732536315918e-03
-7.894648611545562744e-02
-7.320350408554077148e-02
8.167450129985809326e-02
-8.321423083543777466e-02
7.746821641921997070e-02
-4.877232760190963745e-02
2.428372204303741455e-02
4.007562994956970215e-02
-2.507035434246063232e-02
3.539068996906280518e-02
5.251318216323852539e-04
-7.427440583705902100e-02
4.271619021892547607e-02
8.751329779624938965e-02
-3.094658255577087402e-03
5.799919366836547852e-03
1.032020151615142822e-02
-7.168248295783996582e-02
9.064969420433044434e-02
5.065461993217468262e-02
7.065376639366149902e-02
-2.066693454980850220e-02
-7.405784726142883301e-02
-1.851446926593780518e-03
6.439025700092315674e-02
5.938367545604705811e-02
5.948783457279205322e-02
-1.444046944379806519e-02
5.004884302616119385e-02
6.910263001918792725e-02
-7.960780709981918335e-02
8.933208882808685303e-03
2.394139766693115234e-03
-4.302707687020301819e-02
1.655737310647964478e-02
8.094556629657745361e-02
-6.970343738794326782e-02
5.323188006877899170e-02
8.657698333263397217e-02
-8.894307166337966919e-02
-4.592772573232650757e-02
3.646877408027648926e-02
6.805865466594696045e-02
-4.790701344609260559e-02
8.655519783496856689e-02
-5.822769179940223694e-02
-2.519106119871139526e-02
-7.392998039722442627e-02
-6.116453558206558228e-02
-4.743994772434234619e-02
3.976267576217651367e-02
-4.558826237916946411e-02
8.138862252235412598e-02
-2.293055504560470581e-02
7.211549580097198486e-02
-5.420133471488952637e-03
2.891090512275695801e-02
-2.634810656309127808e-02
2.332046627998352051e-02
-2.912059426307678223e-04
2.427264302968978882e-02
-6.075929850339889526e-02
-6.585472822189331055e-02
-2.352165430784225464e-02
4.515781998634338379e-02
-3.034712374210357666e-02
-9.238481521606445312e-03
-6.025249138474464417e-02
-5.654886364936828613e-02
-3.876451402902603149e-02
-6.351195275783538818e-02
4.827916622161865234e-02
-5.330355465412139893e-02
1.243732124567031860e-02
8.105261623859405518e-02
-6.505773216485977173e-02
-8.349336683750152588e-03
7.319225370883941650e-02
3.916911780834197998e-02
6.826116144657135010e-02
-4.270163178443908691e-02
6.170262396335601807e-02
4.909174144268035889e-02
-6.094110012054443359e-02
1.703251153230667114e-02
-7.198170572519302368e-02
-3.091537207365036011e-02
6.268592178821563721e-02
-4.017033055424690247e-02
1.454380154609680176e-02
7.405212521553039551e-02
-3.974550962448120117e-02
-2.369611710309982300e-02
-5.581709742546081543e-02
-2.415105700492858887e-03
-8.681476116180419922e-02
-8.901855349540710449e-02
-3.817156329751014709e-02
-8.053161948919296265e-02
-3.049999848008155823e-02
-3.011789917945861816e-02
-1.538820564746856689e-03
1.228059828281402588e-02
-6.589187681674957275e-02
2.486944198608398438e-03
2.023953944444656372e-02
9.014177322387695312e-02
5.799531936645507812e-02
-5.985387414693832397e-02
5.174435675144195557e-02
-6.726881116628646851e-02
4.344443976879119873e-02
-8.161723613739013672e-02
-3.797999024391174316e-02
-1.143965870141983032e-02
-2.450660616159439087e-02
-5.423903837800025940e-02
-2.494847029447555542e-02
-1.723337918519973755e-02
-7.617963105440139771e-02
-5.879539996385574341e-02
-7.972589880228042603e-02
4.607291519641876221e-02
-2.101427316665649414e-02
-4.285069927573204041e-02
1.774042844772338867e-02
5.538439750671386719e-02
-8.712035417556762695e-02
1.566620171070098877e-02
-4.437619820237159729e-02
-3.744778037071228027e-02
7.713957130908966064e-02
-2.323910593986511230e-03
4.770159721374511719e-04
2.560715377330780029e-02
-3.356725350022315979e-02
6.829252839088439941e-02
4.383102059364318848e-02
-4.386701434850692749e-02
-7.563710212707519531e-02
-6.323719024658203125e-02
1.702903211116790771e-02
-3.021065890789031982e-02
7.950583100318908691e-02
3.117237240076065063e-02
5.892607569694519043e-02
-3.841668367385864258e-04
-7.931158691644668579e-02
-1.065017282962799072e-02
1.046236604452133179e-02
5.752339959144592285e-02
4.969149827957153320e-03
-6.579998880624771118e-02
2.119289338588714600e-02
-6.118658185005187988e-02
-5.029408261179924011e-02
-7.013383507728576660e-02
-7.816268503665924072e-02
-8.336858451366424561e-02
-6.116660311818122864e-02
-2.170166373252868652e-02
-8.985640108585357666e-02
7.722319662570953369e-02
-7.097020745277404785e-03
-8.369318395853042603e-02
-5.250723287463188171e-02
-9.085911512374877930e-02
8.550097048282623291e-02
-4.217064380645751953e-02
-4.176658391952514648e-02
-1.207318156957626343e-02
-4.304588213562965393e-02
5.170823633670806885e-02
5.296716094017028809e-02
-7.063418626785278320e-03
2.699899673461914062e-02
-7.051571458578109741e-02
-5.060084164142608643e-03
5.459904670715332031e-02
2.663736045360565186e-02
2.500057965517044067e-02
-3.157592564821243286e-02
7.657641172409057617e-02
7.323817908763885498e-02
-4.833551496267318726e-02
7.825759053230285645e-02
5.533829331398010254e-02
8.709023892879486084e-02
-6.944981217384338379e-02
-3.141186758875846863e-02
-4.417204484343528748e-02
8.551520109176635742e-02
-5.652396380901336670e-02
-4.453588277101516724e-02
-2.834245562553405762e-02
-4.391313344240188599e-02
5.083721876144409180e-02
-4.304096475243568420e-02
6.770749390125274658e-02
5.995064973831176758e-03
-3.855753317475318909e-02
5.831442773342132568e-02
-4.443237185478210449e-02
-3.501269966363906860e-02
6.338748335838317871e-02
4.630307853221893311e-02
1.512704789638519287e-02
-9.113125503063201904e-02
-4.576392471790313721e-02
-2.026457339525222778e-02
-4.070582613348960876e-02
-4.651062190532684326e-03
5.065587162971496582e-02
-2.246901392936706543e-02
3.378503024578094482e-02
-2.723231166601181030e-02
-4.439896345138549805e-02
4.247485101222991943e-02
-7.256221026182174683e-02
1.840822398662567139e-03
-2.365086972713470459e-02
3.895185887813568115e-02
-4.384770989418029785e-02
5.920194089412689209e-02
-2.167719602584838867e-02
-1.437269151210784912e-02
-2.675199508666992188e-02
1.108091324567794800e-02
7.959473133087158203e-02
8.011269569396972656e-02
-4.620186984539031982e-02
-1.818122714757919312e-02
-4.989315941929817200e-02
-4.415199160575866699e-03
-4.389248043298721313e-02
6.272414326667785645e-02
9.060522913932800293e-02
-1.102042943239212036e-02
5.381907522678375244e-02
6.356790661811828613e-03
4.108794033527374268e-02
-4.928553476929664612e-02
-7.616198062896728516e-02
-5.475260317325592041e-03
-1.546546816825866699e-03
3.586120903491973877e-03
5.914561450481414795e-02
2.586147189140319824e-02
-1.640058308839797974e-02
-7.923449575901031494e-02
-7.538256794214248657e-02
5.646489560604095459e-02
-6.185277551412582397e-02
-5.323827266693115234e-03
8.503623306751251221e-02
-6.263622641563415527e-02
-7.071562111377716064e-03
9.060777723789215088e-02
6.415981054306030273e-02
-1.476023346185684204e-02
-7.074078172445297241e-02
6.329919397830963135e-02
-5.159066244959831238e-02
-4.052884876728057861e-03
-1.745990663766860962e-02
-1.720358431339263916e-02
-6.572268158197402954e-02
-5.148425698280334473e-02
-7.836992293596267700e-02
-8.934391289949417114e-02
4.951441287994384766e-02
-2.262974530458450317e-02
5.823870003223419189e-02
-8.116159588098526001e-02
-4.762228950858116150e-02
-5.488428846001625061e-02
-7.029405981302261353e-02
3.159753978252410889e-02
6.565016508102416992e-02
-7.908606529235839844e-02
-8.831285685300827026e-02
-1.328864693641662598e-02
5.537134408950805664e-02
5.327387154102325439e-02
3.018498420715332031e-03
-4.176264628767967224e-02
-5.684113875031471252e-02
-7.495796680450439453e-02
-2.874836325645446777e-03
3.360211849212646484e-05
-8.379466831684112549e-02
8.716797828674316406e-02
-2.955362200736999512e-03
7.712088525295257568e-02
3.784087300300598145e-02
-7.308022677898406982e-02
-9.008684009313583374e-02
1.773918420076370239e-02
2.854292839765548706e-02
7.497502863407135010e-02
6.141854822635650635e-02
-4.135153442621231079e-02
3.828299045562744141e-02
1.453167945146560669e-02
7.677935063838958740e-02
-1.004677265882492065e-02
-5.196847021579742432e-03
6.457665562629699707e-02
-7.607816159725189209e-02
5.091339349746704102e-02
6.438601016998291016e-02
-5.096802115440368652e-02
8.131317794322967529e-03
9.057876467704772949e-02
2.899987995624542236e-02
7.489180564880371094e-02
2.061863243579864502e-02
5.416713654994964600e-03
-3.981685265898704529e-02
1.583707332611083984e-02
8.523991703987121582e-02
2.559448778629302979e-02
-6.085108220577239990e-02
-6.372427940368652344e-02
5.398203432559967041e-02
2.497196197509765625e-03
4.874296486377716064e-02
-2.862720191478729248e-02
1.814263314008712769e-02
8.838234841823577881e-02
4.337839782238006592e-02
-4.061343520879745483e-02
2.345655858516693115e-02
8.994917571544647217e-02
8.439052104949951172e-02
6.475022435188293457e-02
-7.362334430217742920e-02
2.177757769823074341e-02
-5.459081754088401794e-02
8.789202570915222168e-02
-4.190446436405181885e-02
-9.301073849201202393e-03
-7.543697953224182129e-02
7.930856943130493164e-02
-4.845691844820976257e-02
4.583311080932617188e-02
6.345212459564208984e-02
7.162344455718994141e-02
8.307695388793945312e-03
4.571378231048583984e-02
-1.773962378501892090e-02
9.076792001724243164e-02
-7.934225350618362427e-02
-3.040103241801261902e-02
7.466161251068115234e-02
-1.186136901378631592e-02
3.620509803295135498e-02
-1.901199668645858765e-02
2.273249626159667969e-02
9.024827182292938232e-02
1.621743291616439819e-02
3.195624053478240967e-02
6.434039771556854248e-02
-7.525260746479034424e-02
-8.175363391637802124e-02
-8.073651045560836792e-02
-4.873060435056686401e-02
-6.654104590415954590e-02
6.497396528720855713e-02
5.304476618766784668e-02
2.761843800544738770e-02
6.922085583209991455e-02
-7.179751992225646973e-03
-7.812248170375823975e-02
-6.828469038009643555e-02
5.169349908828735352e-02
3.112481534481048584e-02
-4.679397493600845337e-02
-1.965078711509704590e-02
-3.656496852636337280e-02
5.479334294795989990e-02
-1.193539053201675415e-02
-1.437377929687500000e-02
8.394025266170501709e-02
5.002200603485107422e-02
8.101414144039154053e-02
8.521784842014312744e-02
7.713010907173156738e-02
-5.605152249336242676e-02
-4.784239456057548523e-02
-4.970698431134223938e-02
-2.442508190870285034e-02
-2.745785564184188843e-02
-7.209790498018264771e-02
-4.616482928395271301e-02
4.496318101882934570e-02
-8.979722112417221069e-02
-2.167171239852905273e-02
-9.529910981655120850e-03
4.175363481044769287e-02
-3.854212537407875061e-02
8.076879382133483887e-02
-8.815434575080871582e-02
-9.898357093334197998e-03
6.116503477096557617e-02
-7.742601633071899414e-02
-2.343189716339111328e-02
6.568707525730133057e-02
-2.444658428430557251e-02
-8.369470387697219849e-02
-2.255827188491821289e-02
-5.275354161858558655e-02
-3.881196305155754089e-02
-8.983544260263442993e-02
-2.286662906408309937e-02
-4.875800758600234985e-02
-7.157289981842041016e-02
1.104711741209030151e-02
6.171190738677978516e-02
2.651441097259521484e-02
-2.890948951244354248e-02
-3.297427669167518616e-02
1.463574171066284180e-02
-8.482889831066131592e-02
-1.752746105194091797e-02
-5.649134144186973572e-02
5.262477695941925049e-02
-4.317616671323776245e-02
2.688508480787277222e-02
-8.795879036188125610e-02
-6.370404362678527832e-02
-4.186173900961875916e-02
-9.393244981765747070e-03
3.720244765281677246e-02
-1.666917651891708374e-02
-4.829076677560806274e-02
-5.702670291066169739e-02
-4.555774852633476257e-02
-8.942091464996337891e-02
-2.017942816019058228e-02
4.150356352329254150e-02
5.432376265525817871e-02
-6.889449059963226318e-02
-8.592842519283294678e-02
-4.323893412947654724e-02
-3.504138439893722534e-02
3.009957075119018555e-02
-8.517289161682128906e-02
-5.806643888354301453e-02
-4.244711995124816895e-02
-5.814442038536071777e-02
5.514748394489288330e-02
-5.975842475891113281e-03
-4.140255227684974670e-02
4.237307608127593994e-02
8.144767582416534424e-02
-7.138620316982269287e-02
-6.653075665235519409e-02
-3.131412342190742493e-02
-8.034399151802062988e-02
-2.818675339221954346e-02
6.582719087600708008e-02
3.707396984100341797e-02
5.347602069377899170e-02
-6.280449032783508301e-02
8.394908905029296875e-02
4.661999642848968506e-02
3.314088284969329834e-02
7.142621278762817383e-02
6.702002882957458496e-02
-2.501276880502700806e-02
6.435990333557128906e-03
7.843099534511566162e-02
3.398312628269195557e-02
-6.588591635227203369e-02
7.399871945381164551e-02
-1.979374140501022339e-02
-9.865410625934600830e-03
-2.739708870649337769e-02
-4.718227684497833252e-02
-1.429969072341918945e-02
6.698091328144073486e-02
-2.393141388893127441e-03
9.092323482036590576e-02
8.055421710014343262e-02
-4.529622569680213928e-02
-4.002387821674346924e-02
2.830232679843902588e-02
6.932042539119720459e-02
-7.851675152778625488e-02
1.571532338857650757e-02
-8.847302198410034180e-02
-7.157562673091888428e-02
-1.690983027219772339e-02
-3.781277313828468323e-02
-3.227613866329193115e-03
-2.164640277624130249e-02
5.238533020019531250e-02
6.782783567905426025e-02
6.789636611938476562e-02
-1.061350107192993164e-02
-3.769267722964286804e-02
-5.449958145618438721e-02
3.011095523834228516e-02
-5.703702196478843689e-02
-4.915305599570274353e-02
6.188526749610900879e-04
1.505174487829208374e-02
-6.009894236922264099e-02
-7.911399006843566895e-04
-4.765809327363967896e-02
4.067847132682800293e-02
-1.469805836677551270e-03
-1.832273602485656738e-02
2.872945368289947510e-02
2.483744919300079346e-02
7.191321253776550293e-02
3.044693171977996826e-02
5.191861093044281006e-02
-3.828058019280433655e-02
-3.477536141872406006e-03
-8.298461884260177612e-02
-6.993918865919113159e-02
-2.583039551973342896e-02
3.168609738349914551e-02
-8.094939589500427246e-02
4.640372097492218018e-02
-7.573115080595016479e-02
-7.850658148527145386e-02
-5.973020941019058228e-02
-3.022744134068489075e-02
-3.520993143320083618e-02
6.031282246112823486e-02
-3.608791157603263855e-02
4.773971438407897949e-02
-5.622259154915809631e-02
4.322659969329833984e-02
-7.275321334600448608e-02
-8.433863520622253418e-02
2.322939783334732056e-02
3.650388121604919434e-02
-1.305909454822540283e-02
-5.320091173052787781e-02
7.843852043151855469e-03
-2.370325475931167603e-02
-5.217216908931732178e-02
4.922679066658020020e-02
8.874145150184631348e-02
8.874434232711791992e-02
7.971727848052978516e-02
4.256828129291534424e-02
-7.736518979072570801e-02
-6.342412531375885010e-02
-4.925302043557167053e-02
-7.109112292528152466e-02
5.295982956886291504e-02
5.091789364814758301e-02
1.520137488842010498e-02
9.020365774631500244e-02
-1.118701696395874023e-02
5.609641969203948975e-02
8.396027982234954834e-02
-4.820518195629119873e-03
-4.553004354238510132e-02
6.109315156936645508e-02
8.370205760002136230e-02
-4.865765571594238281e-03
-8.227095752954483032e-02
-5.292565375566482544e-02
2.272404730319976807e-02
-2.971632033586502075e-02
2.977451682090759277e-02
-8.144177496433258057e-02
6.688855588436126709e-03
-4.500691220164299011e-02
3.823982179164886475e-02
2.662031352519989014e-02
-4.168855771422386169e-02
-2.507512271404266357e-02
2.559568732976913452e-02
-4.601728543639183044e-02
-2.927548065781593323e-02
7.032038271427154541e-02
-4.685526341199874878e-02
7.952459156513214111e-03
6.608332693576812744e-02
-7.258314639329910278e-02
4.801884293556213379e-02
-2.200442552566528320e-02
-5.785817652940750122e-02
5.710525810718536377e-02
-6.370215117931365967e-02
-1.485257595777511597e-02
-2.432961761951446533e-02
-3.268065303564071655e-02
8.100484311580657959e-02
-4.095124080777168274e-02
6.797163188457489014e-02
6.055016815662384033e-02
2.500192821025848389e-02
3.295949846506118774e-02
-9.083247184753417969e-02
-6.749688088893890381e-02
4.585739970207214355e-02
-6.641649454832077026e-02
-7.008568942546844482e-02
-8.291213959455490112e-02
3.900258243083953857e-02
5.620191991329193115e-02
4.515747725963592529e-02
-4.416773468255996704e-02
5.109584331512451172e-02
1.267575472593307495e-02
8.114022016525268555e-02
-4.972942546010017395e-02
-1.495818048715591431e-02
7.351656258106231689e-02
8.917173743247985840e-02
-5.763012543320655823e-02
5.622886121273040771e-02
2.996537089347839355e-02
-3.853411599993705750e-02
-1.029771566390991211e-02
-7.178756594657897949e-02
-1.508472114801406860e-02
4.831238090991973877e-02
6.081815063953399658e-02
-6.892944872379302979e-02
-3.626281023025512695e-02
7.985879480838775635e-02
-8.434613794088363647e-02
-2.665437757968902588e-02
2.831407636404037476e-02
4.071751236915588379e-02
3.612363338470458984e-02
-3.381197154521942139e-02
-8.713348209857940674e-02
-2.701066434383392334e-03
1.556377857923507690e-02
7.972843945026397705e-02
7.008776068687438965e-02
-8.858615905046463013e-02
-6.095639988780021667e-02
-5.378513783216476440e-02
-5.065435171127319336e-02
4.239690303802490234e-02
8.333101868629455566e-02
-3.440932184457778931e-02
5.053102970123291016e-02
-2.429521083831787109e-02
-8.107712864875793457e-02
3.148880600929260254e-02
-8.827327191829681396e-02
6.008444726467132568e-02
-4.484359174966812134e-02
-5.371559783816337585e-02
6.717517971992492676e-02
-2.600544691085815430e-02
8.326895534992218018e-02
-5.981626361608505249e-02
7.614284753799438477e-02
3.346949815750122070e-03
4.926711320877075195e-03
3.457780182361602783e-02
5.494146049022674561e-02
-7.365600764751434326e-02
7.770177721977233887e-02
-4.368752241134643555e-03
-2.897210419178009033e-02
-5.105442926287651062e-02
1.393328607082366943e-02
-8.203446120023727417e-02
-3.171517699956893921e-02
7.831223309040069580e-02
-7.951484620571136475e-02
-8.838923275470733643e-02
-6.570143997669219971e-02
-4.963705688714981079e-02
3.290906548500061035e-03
-4.075907170772552490e-03
3.257574886083602905e-02
-1.559507846832275391e-02
-6.361813843250274658e-02
2.979169040918350220e-02
4.981698095798492432e-02
-8.084474503993988037e-02
-4.465859010815620422e-02
3.296920657157897949e-02
-9.013783931732177734e-02
-4.232319071888923645e-02
6.712476909160614014e-02
-2.267017960548400879e-03
3.075716644525527954e-02
-2.881740406155586243e-02
8.248896896839141846e-02
-1.767861843109130859e-02
-7.509472966194152832e-02
-1.846921443939208984e-02
-8.457569032907485962e-02
5.597484111785888672e-02
-2.567573636770248413e-02
7.868158817291259766e-02
-5.718841403722763062e-02
6.732881069183349609e-02
7.450084388256072998e-02
7.578943669795989990e-02
1.064392924308776855e-02
-7.050043344497680664e-02
-8.732303977012634277e-03
6.148280203342437744e-02
-3.917510434985160828e-02
2.050521969795227051e-02
-9.124804288148880005e-02
6.181208789348602295e-02
-2.502027153968811035e-02
8.888435363769531250e-02
-4.265196621417999268e-02
1.583465933799743652e-02
5.198624730110168457e-02
2.089591324329376221e-02
-6.923175603151321411e-02
4.027797281742095947e-02
4.971259832382202148e-02
-8.127477020025253296e-02
6.845961511135101318e-02
-8.421790599822998047e-02
-2.774321287870407104e-02
-7.754302769899368286e-02
-6.698985397815704346e-02
6.163430213928222656e-02
-8.965035527944564819e-02
-4.501226544380187988e-02
-7.020717859268188477e-02
-6.980739533901214600e-03
7.746905088424682617e-02
-8.454313129186630249e-02
5.439266562461853027e-03
-8.226791024208068848e-02
-9.663306176662445068e-03
-6.409926712512969971e-02
-3.948204964399337769e-02
7.296355068683624268e-02
-2.058977633714675903e-02
-5.274144187569618225e-02
-7.909685373306274414e-04
-8.790411055088043213e-03
3.291342407464981079e-02
2.579927444458007812e-03
-1.792810857295989990e-03
-4.819776490330696106e-02
8.654253184795379639e-02
5.902317166328430176e-02
-8.117413520812988281e-02
6.767289340496063232e-02
3.674790263175964355e-03
-7.425801455974578857e-02
1.305184513330459595e-02
3.545075654983520508e-02
-8.773858100175857544e-02
3.338401764631271362e-02
-1.038607954978942871e-02
-4.579559341073036194e-02
2.001360058784484863e-02
-8.195121586322784424e-02
5.202522873878479004e-02
-8.324837684631347656e-02
7.538306713104248047e-02
7.011976838111877441e-02
1.215414702892303467e-02
8.101126551628112793e-02
7.101030647754669189e-02
1.500190794467926025e-02
2.566206455230712891e-02
8.069944381713867188e-02
3.732185065746307373e-02
4.298457503318786621e-02
-8.895236253738403320e-02
2.642554789781570435e-02
6.775955855846405029e-02
-9.027972072362899780e-02
4.160617291927337646e-02
8.745612204074859619e-02
-3.681517392396926880e-02
7.056331634521484375e-02
8.092710375785827637e-02
-1.671992242336273193e-03
5.792610347270965576e-03
-6.421472132205963135e-02
3.188996762037277222e-02
-4.509136080741882324e-03
-7.356572896242141724e-02
1.600851118564605713e-02
8.074077963829040527e-02
2.840640395879745483e-02
-8.410897105932235718e-02
-2.984353527426719666e-02
-3.841169178485870361e-02
-2.984971553087234497e-02
9.321749210357666016e-03
-1.816270500421524048e-02
5.029824376106262207e-02
-1.968380808830261230e-02
-6.913420557975769043e-02
2.097249031066894531e-03
-4.551102221012115479e-02
-8.362874388694763184e-03
-4.580808430910110474e-02
5.417296290397644043e-02
6.674426794052124023e-02
-1.635698974132537842e-02
3.296628594398498535e-02
1.069235056638717651e-02
-1.352749764919281006e-03
-2.297155559062957764e-02
-5.927243456244468689e-02
5.915758013725280762e-02
-2.820993214845657349e-02
8.926573395729064941e-02
5.702991783618927002e-02
-8.995828032493591309e-02
-2.122562378644943237e-02
-8.448071032762527466e-02
3.820070624351501465e-02
-8.931544423103332520e-02
7.683505117893218994e-02
