-2.512342333793640137e-01
-5.839079618453979492e-03
-4.395762085914611816e-02
2.678753733634948730e-01
2.386052012443542480e-01
9.779751300811767578e-02
-1.723846793174743652e-01
-2.561006546020507812e-01
-1.645514070987701416e-01
2.737932801246643066e-01
6.653538346290588379e-02
-4.982601106166839600e-02
-1.849706768989562988e-01
7.753533124923706055e-02
2.165864408016204834e-01
-6.258197128772735596e-02
-2.394109964370727539e-01
2.619914412498474121e-01
-4.049836099147796631e-02
1.254708170890808105e-01
1.627928018569946289e-01
-1.914483308792114258e-01
2.035640180110931396e-01
-9.073109924793243408e-02
-4.087968170642852783e-02
1.427849233150482178e-01
-2.626713216304779053e-01
-1.085467934608459473e-01
-2.279952615499496460e-01
2.429893612861633301e-01
2.139894664287567139e-01
-2.078563570976257324e-01
2.581863403320312500e-01
2.583315968513488770e-02
-2.126917541027069092e-01
1.186543703079223633e-01
7.906156778335571289e-02
-2.100318819284439087e-01
-3.679426014423370361e-02
1.967034935951232910e-01
2.416737675666809082e-01
8.137655258178710938e-02
1.348458230495452881e-01
6.156072020530700684e-02
-4.215088486671447754e-02
1.242850422859191895e-01
-1.397106498479843140e-01
9.085044264793395996e-02
8.948856592178344727e-02
-1.294012516736984253e-01
-2.698215842247009277e-01
-9.770001471042633057e-02
8.686649799346923828e-02
2.018046975135803223e-01
1.261116266250610352e-01
2.494746446609497070e-02
-1.929989308118820190e-01
2.596224546432495117e-01
-1.509541571140289307e-01
1.845152676105499268e-01
2.502193450927734375e-01
-8.359946310520172119e-02
-1.435791701078414917e-01
-8.418136835098266602e-02
-8.432200551033020020e-02
-1.595881581306457520e-02
-4.483726620674133301e-02
9.852591156959533691e-02
7.287406921386718750e-02
-3.310203552246093750e-02
2.583056688308715820e-01
1.307649016380310059e-01
1.407279968261718750e-01
1.289477944374084473e-02
2.710237503051757812e-01
1.759556531906127930e-01
-2.211534678936004639e-01
9.021371603012084961e-03
-2.526848614215850830e-01
2.110844254493713379e-01
2.409802079200744629e-01
7.654443383216857910e-02
-2.042653411626815796e-01
5.648073554039001465e-02
-5.426095426082611084e-02
1.210294365882873535e-01
-2.310049086809158325e-01
2.583584785461425781e-01
1.531150341033935547e-01
-1.263054758310317993e-01
2.747234702110290527e-02
-2.325111627578735352e-02
-5.532589554786682129e-02
1.290436387062072754e-01
2.439772486686706543e-01
-1.454901844263076782e-01
-1.948561966419219971e-01
-8.536742627620697021e-02
1.509630978107452393e-01
-7.779878377914428711e-02
-1.263013482093811035e-02
-6.641262769699096680e-02
7.950881123542785645e-02
1.910073459148406982e-01
-8.397673070430755615e-02
-1.740857809782028198e-01
1.547569036483764648e-01
-1.268392801284790039e-02
-1.633417159318923950e-01
2.196359932422637939e-01
-1.930622607469558716e-01
-2.341199964284896851e-01
-2.247308492660522461e-01
2.536327838897705078e-01
1.332580149173736572e-01
1.267895102500915527e-01
-7.630264759063720703e-02
1.678575575351715088e-01
-1.831716597080230713e-01
-1.544773578643798828e-03
1.304501295089721680e-01
3.764379024505615234e-02
-8.820325136184692383e-03
-2.353917956352233887e-01
-5.145579576492309570e-03
2.487630844116210938e-01
-1.948563456535339355e-01
5.510553717613220215e-02
-2.001970261335372925e-01
-7.434004545211791992e-02
-8.875697851181030273e-03
-1.781144738197326660e-02
-2.589162886142730713e-01
-1.145442724227905273e-01
1.358385384082794189e-01
1.720876693725585938e-01
-1.165875643491744995e-01
2.411876320838928223e-01
1.353126168251037598e-01
2.228184044361114502e-01
1.784026622772216797e-03
4.985690116882324219e-02
-1.193355768918991089e-01
-9.580343961715698242e-03
-1.912607550621032715e-01
1.494266688823699951e-01
1.200479865074157715e-01
1.678859591484069824e-01
2.369762659072875977e-01
1.079287230968475342e-01
1.432168483734130859e-02
7.858368754386901855e-02
-2.636233866214752197e-01
-2.221529185771942139e-01
1.372250616550445557e-01
-1.459104716777801514e-01
1.215343475341796875e-01
-1.817114353179931641e-01
-2.457396686077117920e-02
-1.061996817588806152e-01
1.622425019741058350e-01
-1.126992702484130859e-02
2.413141727447509766e-01
-1.985923051834106445e-01
2.703942060470581055e-01
-7.614345848560333252e-02
-1.349949538707733154e-01
-2.651316523551940918e-01
-1.316408812999725342e-01
-5.195850133895874023e-02
-9.870110452175140381e-02
-8.489646017551422119e-02
-1.680818349123001099e-01
1.008513569831848145e-01
2.023515105247497559e-01
2.186791002750396729e-01
2.663871049880981445e-01
1.423048973083496094e-02
-1.361193060874938965e-01
2.834168076515197754e-02
-2.518201768398284912e-01
-9.499548375606536865e-02
6.234902143478393555e-02
2.331839799880981445e-01
-1.584322154521942139e-01
-3.038568794727325439e-02
-1.839431524276733398e-01
-1.540618538856506348e-01
3.232458233833312988e-02
-9.625256061553955078e-03
-7.744972407817840576e-02
-2.046080678701400757e-01
1.007969081401824951e-01
1.226202547550201416e-01
1.147103011608123779e-01
-1.645110547542572021e-01
1.764099597930908203e-01
-3.049956262111663818e-02
-1.659090518951416016e-01
1.984887421131134033e-01
-1.019798219203948975e-01
2.209586501121520996e-01
-4.262341558933258057e-02
2.017885744571685791e-01
-2.612980008125305176e-01
7.975184917449951172e-02
1.458462774753570557e-01
2.071419954299926758e-01
7.524332404136657715e-02
2.088336050510406494e-01
1.831216216087341309e-01
1.556682884693145752e-01
-3.203213214874267578e-02
-1.939876079559326172e-01
-1.875964701175689697e-01
1.847585439682006836e-01
-1.333934962749481201e-01
7.246428728103637695e-02
2.638940215110778809e-01
-1.060861945152282715e-01
7.163107395172119141e-03
2.387616038322448730e-01
-9.453152120113372803e-02
2.104609906673431396e-01
1.913606524467468262e-01
2.329567670822143555e-01
8.012622594833374023e-03
2.602953910827636719e-01
5.720674991607666016e-02
1.252858638763427734e-01
7.509738206863403320e-03
-4.134261608123779297e-02
-1.666921377182006836e-01
-8.362486958503723145e-02
2.044578790664672852e-01
-1.730247586965560913e-01
2.454010844230651855e-01
1.789507269859313965e-02
2.217820584774017334e-01
5.280196666717529297e-02
-2.412870228290557861e-01
2.526109814643859863e-01
-1.200751662254333496e-01
-3.265973925590515137e-02
2.336761355400085449e-02
2.497644424438476562e-01
1.289262473583221436e-01
-2.210002243518829346e-01
-3.568185865879058838e-02
2.636603116989135742e-01
-2.281970232725143433e-01
-6.593075394630432129e-02
1.050555706024169922e-02
-9.967130422592163086e-02
-1.602008342742919922e-01
-7.379354536533355713e-02
5.441087484359741211e-02
-4.222218692302703857e-02
-1.071051657199859619e-01
-1.155148595571517944e-01
-2.368819713592529297e-02
1.908578276634216309e-01
2.460645437240600586e-01
2.599230408668518066e-01
3.493994474411010742e-03
1.737102866172790527e-02
-1.770356148481369019e-01
-3.265365958213806152e-02
-3.487318754196166992e-03
2.285639643669128418e-01
1.978967189788818359e-01
3.526115417480468750e-02
5.798152089118957520e-02
2.439041733741760254e-01
-3.384651243686676025e-02
-2.107350826263427734e-01
-1.838445663452148438e-02
2.610805630683898926e-02
-1.498322039842605591e-01
1.776741147041320801e-01
8.189144730567932129e-02
-8.266942203044891357e-02
-1.262068897485733032e-01
-6.146885454654693604e-02
-1.423451900482177734e-01
9.378612041473388672e-02
7.712167501449584961e-02
2.249197959899902344e-01
-1.337726563215255737e-01
1.257869899272918701e-01
-7.411818206310272217e-02
-2.614969015121459961e-01
-1.366886645555496216e-01
-1.052674204111099243e-01
-5.953015387058258057e-02
1.993931829929351807e-01
-2.525031566619873047e-01
1.895783841609954834e-01
-1.641094684600830078e-03
3.684800863265991211e-02
5.385437607765197754e-02
-1.406421363353729248e-01
1.225861012935638428e-01
1.290869116783142090e-01
-5.671796202659606934e-02
1.419802606105804443e-01
-1.567387729883193970e-01
2.172750234603881836e-02
5.230090022087097168e-02
-1.639443635940551758e-02
-3.715963661670684814e-02
1.017426848411560059e-01
7.094994187355041504e-02
-2.120956778526306152e-01
1.251277923583984375e-01
6.510701775550842285e-02
2.163902223110198975e-01
1.770698428153991699e-01
-1.033383607864379883e-02
-9.485660493373870850e-02
-2.190738022327423096e-01
2.273720502853393555e-01
-3.169123828411102295e-02
2.457569837570190430e-01
-1.954304575920104980e-01
-2.191389054059982300e-01
1.089576780796051025e-01
1.842772662639617920e-01
-3.194333612918853760e-02
1.737496554851531982e-01
2.425265312194824219e-02
-2.431873232126235962e-01
1.052320301532745361e-01
-1.599157601594924927e-01
-2.629419863224029541e-01
2.710430026054382324e-01
1.442693173885345459e-01
5.779537558555603027e-02
-8.897659182548522949e-02
-1.850714981555938721e-01
-1.981928944587707520e-01
-2.355483025312423706e-01
-1.501661539077758789e-02
-1.243740916252136230e-01
2.198111712932586670e-01
-4.875840246677398682e-02
2.453069686889648438e-01
2.572842240333557129e-01
-6.912648677825927734e-03
-7.760655879974365234e-02
9.947848320007324219e-02
3.569549322128295898e-02
-4.096260666847229004e-02
-2.731834053993225098e-01
2.502520680427551270e-01
-1.657648384571075439e-01
1.932825744152069092e-01
-2.645715773105621338e-01
1.512428224086761475e-01
1.956005394458770752e-01
2.533537149429321289e-02
2.222668528556823730e-01
-2.287182211875915527e-02
-2.470209747552871704e-01
2.007990479469299316e-01
1.906677484512329102e-01
-1.003404855728149414e-01
1.331147551536560059e-02
-1.578514277935028076e-01
-1.967729628086090088e-01
1.378057003021240234e-01
-2.299489080905914307e-01
2.002588510513305664e-01
-2.153971791267395020e-02
-1.659652143716812134e-01
-9.053424000740051270e-02
2.360401749610900879e-01
-1.005374193191528320e-01
3.008842468261718750e-04
7.686364650726318359e-02
-2.678871750831604004e-01
8.356642723083496094e-02
-4.830905795097351074e-02
1.571978628635406494e-01
-2.665419280529022217e-01
-2.480404675006866455e-01
1.079344749450683594e-01
1.527638137340545654e-01
-2.308799922466278076e-01
-1.940516531467437744e-01
2.294663190841674805e-01
6.658977270126342773e-02
-3.849810361862182617e-02
1.091081798076629639e-01
-2.161559611558914185e-01
1.941398084163665771e-01
6.196945905685424805e-03
2.458493113517761230e-01
1.707054674625396729e-01
1.518779098987579346e-01
-7.753551006317138672e-03
2.947753667831420898e-02
-2.686363756656646729e-01
-2.093702554702758789e-01
9.137579798698425293e-02
-2.371325790882110596e-01
5.356100201606750488e-02
-1.158184111118316650e-01
2.181933224201202393e-01
1.249670386314392090e-01
2.702570557594299316e-01
1.865248680114746094e-01
-2.670031785964965820e-02
-1.745266467332839966e-01
-2.469476461410522461e-01
1.823483109474182129e-01
5.221179127693176270e-02
-4.684530198574066162e-02
8.272415399551391602e-02
-2.127134799957275391e-02
1.308106780052185059e-01
2.376720905303955078e-01
-5.974392592906951904e-02
-6.406348943710327148e-02
9.332045912742614746e-02
-1.008604317903518677e-01
4.223445057868957520e-02
5.696958303451538086e-02
-1.638610661029815674e-01
1.129218637943267822e-01
1.705027222633361816e-01
-5.754496157169342041e-02
-1.754088252782821655e-01
2.164644896984100342e-01
-2.443255186080932617e-01
2.026134133338928223e-01
-2.222057431936264038e-01
9.614348411560058594e-02
-2.556560635566711426e-01
-1.956904530525207520e-01
2.607848048210144043e-01
-8.086098730564117432e-02
-2.339613437652587891e-02
-1.049076467752456665e-01
-1.683092564344406128e-01
-9.742297232151031494e-02
-2.962462604045867920e-02
2.715331315994262695e-01
1.416727304458618164e-01
-7.820856571197509766e-02
2.688276767730712891e-02
2.295015454292297363e-01
2.520680427551269531e-01
-2.560364603996276855e-01
1.500695943832397461e-03
-1.980805993080139160e-01
-4.907004535198211670e-02
1.251901984214782715e-01
-2.085523903369903564e-01
4.573747515678405762e-02
1.781967282295227051e-02
2.217717468738555908e-01
2.567314505577087402e-01
-2.723100483417510986e-01
-8.326353132724761963e-02
2.308812141418457031e-01
2.200718820095062256e-01
-1.404528468847274780e-01
-2.499400526285171509e-01
2.284005284309387207e-01
2.171759009361267090e-01
-8.366332948207855225e-02
9.724158048629760742e-02
-4.578943550586700439e-02
-1.353447288274765015e-01
2.052891254425048828e-02
1.727664470672607422e-01
-1.724870055913925171e-01
-1.637503802776336670e-01
2.307371497154235840e-01
-2.513036429882049561e-01
-1.430470198392868042e-01
5.972558259963989258e-02
-1.499842107295989990e-01
1.838557422161102295e-01
-2.743011713027954102e-02
-1.143734604120254517e-01
2.587441205978393555e-01
-2.475918382406234741e-01
-1.368893831968307495e-01
2.528782486915588379e-01
-1.584009528160095215e-01
2.219786643981933594e-01
-2.667551934719085693e-01
-2.673733830451965332e-01
6.473541259765625000e-03
-2.120014578104019165e-01
1.175541877746582031e-01
2.601878643035888672e-01
3.477302193641662598e-02
-1.540231406688690186e-01
9.224870800971984863e-02
1.689013242721557617e-01
7.406821846961975098e-02
2.639460563659667969e-02
-1.803591847419738770e-02
-2.671347260475158691e-01
-1.491551101207733154e-01
2.318680286407470703e-01
-7.069464027881622314e-02
-7.895970344543457031e-02
1.196193993091583252e-01
-2.706300914287567139e-01
-2.425643503665924072e-01
-3.710871934890747070e-02
-8.983246982097625732e-02
1.173910200595855713e-01
-2.548843622207641602e-01
-1.077490299940109253e-01
1.032049953937530518e-01
-5.772726237773895264e-02
3.378710150718688965e-02
-2.267661690711975098e-02
1.329690217971801758e-03
-1.404060870409011841e-01
-2.642503976821899414e-01
1.582283675670623779e-01
-1.346668601036071777e-02
-1.306041479110717773e-01
-2.392280548810958862e-01
1.490184664726257324e-02
-4.445855319499969482e-02
-5.853444337844848633e-03
9.687966108322143555e-02
1.320132613182067871e-01
2.302050590515136719e-02
-2.595776617527008057e-01
2.557355761528015137e-01
-1.721787452697753906e-02
8.494642376899719238e-02
-1.680374443531036377e-01
1.976880431175231934e-02
2.400264739990234375e-01
-9.929129481315612793e-02
-9.807284176349639893e-02
-3.419472277164459229e-02
-4.540446400642395020e-02
9.274768829345703125e-02
-9.645526111125946045e-02
2.333220243453979492e-01
-1.449867635965347290e-01
-6.257446110248565674e-02
1.492682099342346191e-01
2.651509642601013184e-01
-2.719646990299224854e-01
4.186177253723144531e-02
-1.124955564737319946e-01
-1.742290258407592773e-01
-1.015212684869766235e-01
-2.034515142440795898e-01
3.821021318435668945e-02
-2.230748534202575684e-02
1.743804514408111572e-01
2.505010366439819336e-02
-1.837485134601593018e-01
1.965907216072082520e-01
-9.361439943313598633e-02
-1.367058455944061279e-01
4.710531234741210938e-02
-2.470893412828445435e-01
-1.937566697597503662e-01
-4.795953631401062012e-02
1.683352291584014893e-01
2.286559343338012695e-01
1.400428712368011475e-01
-8.067542314529418945e-02
-1.263571232557296753e-01
-1.257896423339843750e-03
-2.025440633296966553e-01
-2.067720890045166016e-01
6.696009635925292969e-02
-2.071306854486465454e-01
-7.026240229606628418e-02
-1.585793346166610718e-01
-2.663690447807312012e-01
1.106074452400207520e-01
-1.312867999076843262e-01
2.117579877376556396e-01
-2.456489652395248413e-01
-1.192495226860046387e-01
-6.963323056697845459e-02
2.280150651931762695e-01
-1.715512126684188843e-01
2.020786702632904053e-01
-4.733519256114959717e-02
1.448763608932495117e-01
1.587487161159515381e-01
-1.538297533988952637e-01
2.061990797519683838e-01
-2.314330339431762695e-01
8.164867758750915527e-02
-2.751678228378295898e-03
7.628136873245239258e-02
3.019469976425170898e-02
-1.899643391370773315e-01
2.232360839843750000e-01
2.151725888252258301e-01
-1.300051510334014893e-01
1.471581757068634033e-01
-2.356068640947341919e-01
5.163028836250305176e-02
-1.642607152462005615e-01
-1.507617831230163574e-01
-1.017862558364868164e-02
9.516486525535583496e-02
-8.083820343017578125e-03
1.479633152484893799e-01
8.355814218521118164e-02
-2.552558183670043945e-01
6.079828739166259766e-02
3.403219580650329590e-02
-1.134229153394699097e-01
-1.805230081081390381e-01
1.837586462497711182e-01
5.367010831832885742e-03
2.633261680603027344e-01
-7.226182520389556885e-02
2.640017271041870117e-01
7.755282521247863770e-02
-2.631424367427825928e-02
-2.332617193460464478e-01
3.538784384727478027e-02
-9.498040378093719482e-02
1.270130574703216553e-01
2.393690347671508789e-01
1.670387089252471924e-01
-2.624367475509643555e-01
-2.061117142438888550e-01
-1.360126882791519165e-01
1.464010775089263916e-01
2.283936738967895508e-01
2.659800052642822266e-01
-2.254181951284408569e-01
-1.180165261030197144e-01
-2.665370404720306396e-01
1.725228428840637207e-01
-1.807130277156829834e-01
-1.217022091150283813e-01
1.299024522304534912e-01
-3.712445497512817383e-02
2.107356190681457520e-01
-2.420476973056793213e-01
3.891956806182861328e-02
-1.828227192163467407e-01
-2.162258923053741455e-01
-1.966884136199951172e-01
2.062436640262603760e-01
2.474056482315063477e-01
1.663797497749328613e-01
-1.291630566120147705e-01
2.868413925170898438e-03
-2.527108490467071533e-01
2.269411087036132812e-01
5.693224072456359863e-02
1.087427437305450439e-01
8.199918270111083984e-02
-2.222360372543334961e-01
2.659637928009033203e-01
1.814365386962890625e-03
-3.254657983779907227e-02
1.982452571392059326e-01
1.617540419101715088e-01
1.232618689537048340e-01
2.700747251510620117e-01
1.718237400054931641e-01
-2.407866120338439941e-01
-1.543834954500198364e-01
1.658868491649627686e-01
2.959647774696350098e-02
1.010346412658691406e-01
-1.019390821456909180e-01
-2.155691087245941162e-01
1.553022861480712891e-02
-1.807811856269836426e-01
-1.789977550506591797e-01
-1.966302394866943359e-01
-9.221431612968444824e-02
-1.964384317398071289e-02
3.518882393836975098e-02
-5.285923182964324951e-02
-1.195829808712005615e-01
-3.568916022777557373e-02
1.389945149421691895e-01
-1.208814084529876709e-01
1.327615678310394287e-01
-2.540089488029479980e-01
-1.479897499084472656e-01
1.753002405166625977e-01
-1.591868996620178223e-01
-2.291444242000579834e-01
1.973506808280944824e-02
9.031438827514648438e-02
1.133079230785369873e-01
-1.026651263236999512e-02
-1.236465275287628174e-01
1.103071570396423340e-01
-1.368573307991027832e-02
-1.685746759176254272e-01
-1.362195312976837158e-01
1.964432895183563232e-01
-3.407725691795349121e-02
-2.067470252513885498e-01
-8.177177608013153076e-02
-1.038094162940979004e-01
-8.735239505767822266e-03
-1.312017142772674561e-01
1.442153751850128174e-01
2.871266007423400879e-02
2.373570203781127930e-01
1.648266315460205078e-01
9.212303161621093750e-02
-1.752496361732482910e-01
9.551942348480224609e-03
9.679517149925231934e-02
-3.451701998710632324e-02
5.000132322311401367e-02
2.043315470218658447e-01
2.670881152153015137e-01
2.895072102546691895e-02
2.222377359867095947e-01
1.499157845973968506e-01
-2.705908715724945068e-01
-2.387308478355407715e-01
-1.879894733428955078e-01
1.416891813278198242e-02
2.312394976615905762e-01
2.619844079017639160e-01
1.328965425491333008e-01
-2.293162196874618530e-01
-1.540162861347198486e-01
-1.791114956140518188e-01
4.129678010940551758e-03
1.907488703727722168e-02
2.561411857604980469e-01
1.001574695110321045e-01
1.394427418708801270e-01
1.301378309726715088e-01
2.103146910667419434e-02
-1.358737945556640625e-01
-6.060279905796051025e-02
5.551823973655700684e-02
-9.826155006885528564e-02
1.362353265285491943e-01
6.332513689994812012e-02
-1.518512070178985596e-01
3.327697515487670898e-03
1.388545334339141846e-01
5.476906895637512207e-02
1.935887336730957031e-01
2.224754691123962402e-01
7.109704613685607910e-02
1.173592805862426758e-01
-2.076937109231948853e-01
2.130609750747680664e-01
1.924418509006500244e-01
-4.730135202407836914e-03
-1.650213301181793213e-01
-1.732980906963348389e-01
9.291425347328186035e-02
4.729276895523071289e-02
-1.422785222530364990e-01
-1.229270547628402710e-01
-2.071282714605331421e-01
-2.137732058763504028e-01
-2.113482654094696045e-01
1.917441785335540771e-01
-5.168251693248748779e-02
7.228109240531921387e-02
1.920834481716156006e-01
-9.733711183071136475e-02
2.042488753795623779e-01
-1.264598965644836426e-01
-7.604232430458068848e-02
5.188974738121032715e-02
-1.656540930271148682e-01
-7.292911410331726074e-02
-2.003703117370605469e-01
-1.376983076333999634e-01
-2.383823692798614502e-01
3.724932670593261719e-03
-1.001556515693664551e-01
-5.439481139183044434e-02
-6.020277738571166992e-03
-8.778759837150573730e-02
1.058611273765563965e-02
9.208229184150695801e-02
2.175478339195251465e-01
-1.352796256542205811e-01
2.521854639053344727e-02
1.946483850479125977e-01
5.110532045364379883e-02
9.183675050735473633e-03
-2.496712505817413330e-01
2.307742238044738770e-01
1.734021306037902832e-02
-1.760844290256500244e-01
1.618396937847137451e-01
-2.554633617401123047e-01
-2.402351349592208862e-01
-1.759575605392456055e-01
2.398841977119445801e-01
2.109375596046447754e-02
4.366242885589599609e-02
1.223874092102050781e-01
-2.389028966426849365e-01
-1.652729064226150513e-01
-2.618817389011383057e-01
2.623080015182495117e-01
-1.515842974185943604e-01
4.517298936843872070e-02
-3.136843442916870117e-03
9.334385395050048828e-04
9.325543045997619629e-02
2.494648694992065430e-01
-1.896879523992538452e-01
-2.759595215320587158e-02
2.160337865352630615e-01
2.508909106254577637e-01
8.239760994911193848e-02
-8.971983194351196289e-02
2.947464585304260254e-02
2.404364347457885742e-01
2.653828263282775879e-01
-2.005100250244140625e-04
-7.681800425052642822e-02
-2.692607641220092773e-01
5.307862162590026855e-02
-1.509878933429718018e-01
1.240424811840057373e-01
1.324937343597412109e-01
-3.845421969890594482e-02
-9.153075516223907471e-02
-8.550043404102325439e-02
2.299620509147644043e-01
5.629289150238037109e-02
8.345204591751098633e-02
2.927255630493164062e-02
-2.594840526580810547e-02
-2.145156562328338623e-01
2.712478041648864746e-01
8.731591701507568359e-02
-1.897928714752197266e-01
-1.296987831592559814e-01
-1.104346960783004761e-01
-7.585139572620391846e-02
7.781007885932922363e-02
-1.566075980663299561e-01
4.128894209861755371e-02
-1.474169939756393433e-01
1.046694517135620117e-01
1.731548309326171875e-01
-5.956201255321502686e-02
1.435410380363464355e-01
2.534241080284118652e-01
-6.544972956180572510e-02
-1.018324494361877441e-01
1.000576913356781006e-01
1.717928647994995117e-01
3.059554100036621094e-02
1.801836490631103516e-02
7.126510143280029297e-02
-1.173417717218399048e-01
2.133569419384002686e-01
-6.049942970275878906e-02
-1.453178673982620239e-01
4.622626304626464844e-02
-2.054160088300704956e-01
-1.435211151838302612e-01
-2.005241513252258301e-01
-1.287181377410888672e-01
-1.280588805675506592e-01
-1.984215080738067627e-01
2.528131008148193359e-01
1.144196391105651855e-01
-8.376465737819671631e-02
1.896816790103912354e-01
-2.532700896263122559e-01
1.953780353069305420e-01
2.074505090713500977e-01
1.710648536682128906e-01
-9.940156340599060059e-02
-1.869571208953857422e-02
-2.577411532402038574e-01
-2.567204236984252930e-01
7.579207420349121094e-03
1.604011654853820801e-01
1.724159121513366699e-01
3.082564473152160645e-02
-2.575658857822418213e-01
1.713196933269500732e-01
1.999950706958770752e-01
2.058078348636627197e-01
4.068595170974731445e-02
1.166085898876190186e-01
2.076810598373413086e-01
-2.420030981302261353e-01
1.254161894321441650e-01
2.443652153015136719e-01
-9.499967098236083984e-03
6.573227047920227051e-02
1.634737551212310791e-01
7.970491051673889160e-02
2.211875617504119873e-01
-2.566231787204742432e-01
-2.023927271366119385e-01
4.457381367683410645e-02
1.020686328411102295e-01
1.933880150318145752e-01
-8.723592758178710938e-02
2.337655425071716309e-01
-9.509734809398651123e-02
1.736643016338348389e-01
-9.292288124561309814e-02
-8.482444286346435547e-02
-2.011414319276809692e-01
1.749903559684753418e-01
-1.648827791213989258e-01
-2.886030077934265137e-02
2.132644951343536377e-01
-1.579191386699676514e-01
-2.241587638854980469e-02
2.301361560821533203e-01
1.319209337234497070e-01
-3.604076802730560303e-02
2.654383182525634766e-01
1.406463980674743652e-02
-6.362797319889068604e-02
1.514773368835449219e-01
-1.944679021835327148e-02
-2.445370703935623169e-01
-8.339516818523406982e-02
9.449794888496398926e-02
-6.875137984752655029e-02
2.365760207176208496e-01
1.544928550720214844e-01
-2.246691435575485229e-01
6.826126575469970703e-02
9.063661098480224609e-02
6.548494100570678711e-03
1.547501981258392334e-01
-5.574129521846771240e-02
3.945803642272949219e-02
1.368561387062072754e-02
-1.780143678188323975e-01
2.240802645683288574e-01
-5.972871184349060059e-02
-1.555824875831604004e-01
-5.991186201572418213e-02
2.053014934062957764e-01
-2.511101067066192627e-01
-2.455370426177978516e-01
-1.427003145217895508e-01
-1.374108195304870605e-01
-1.097370237112045288e-01
-2.143776267766952515e-01
-3.651042282581329346e-02
-1.194370537996292114e-01
9.991380572319030762e-02
3.844898939132690430e-02
-1.217693984508514404e-01
-7.228258252143859863e-02
1.351493597030639648e-02
2.725760936737060547e-01
1.661499440670013428e-01
-2.545328438282012939e-02
2.179265916347503662e-01
-1.230250000953674316e-01
-1.399973481893539429e-01
-2.705140709877014160e-01
-1.160686761140823364e-01
-6.407797336578369141e-04
6.191369891166687012e-02
1.912780404090881348e-01
1.373966336250305176e-01
1.682043075561523438e-02
2.405301332473754883e-01
-1.928147375583648682e-01
-7.698862254619598389e-02
2.259337604045867920e-01
2.491094470024108887e-01
-2.612439393997192383e-01
2.340346574783325195e-02
2.193191051483154297e-01
-8.699114620685577393e-02
-2.295169979333877563e-01
9.758323431015014648e-03
-3.999873995780944824e-02
1.018830537796020508e-01
-1.167944222688674927e-01
-1.639155745506286621e-01
9.278088808059692383e-03
2.024179100990295410e-01
-1.915290951728820801e-01
-5.377092957496643066e-02
-8.992850780487060547e-02
-1.719385981559753418e-01
2.625204920768737793e-01
-6.578038632869720459e-02
-1.607280969619750977e-02
2.654789090156555176e-01
-2.371060103178024292e-01
2.118027806282043457e-01
6.227287650108337402e-02
1.593634486198425293e-01
-1.663650721311569214e-01
2.390897870063781738e-01
-2.041786313056945801e-01
9.347119927406311035e-02
-1.464824527502059937e-01
-1.033343970775604248e-01
-1.327040642499923706e-01
6.418851017951965332e-02
1.984511315822601318e-01
1.586034893989562988e-02
