-1.698317825794219971e-01
7.794019579887390137e-02
-3.152823448181152344e-02
-1.027812287211418152e-01
-1.453072726726531982e-01
1.922341287136077881e-01
-1.177696883678436279e-02
1.650484502315521240e-01
-1.695503890514373779e-01
1.837100386619567871e-01
1.825702190399169922e-01
-1.387280821800231934e-01
3.703869879245758057e-02
-1.925995945930480957e-02
1.146278977394104004e-01
-1.246857568621635437e-01
-1.839334368705749512e-01
-6.736406683921813965e-02
-1.023924797773361206e-01
-8.254909515380859375e-02
1.323956251144409180e-01
-7.945017516613006592e-02
-1.772410422563552856e-01
1.085106432437896729e-01
-1.317757070064544678e-01
4.829570651054382324e-03
3.128558397293090820e-03
8.490598201751708984e-02
3.397296369075775146e-02
-8.968664705753326416e-02
3.867745399475097656e-02
1.040008366107940674e-01
1.479765176773071289e-01
1.226812601089477539e-01
1.309787929058074951e-01
-7.920007407665252686e-02
-2.036894559860229492e-01
-7.062348723411560059e-02
-1.555192619562149048e-01
-1.598850339651107788e-01
6.125426292419433594e-02
-1.986194252967834473e-01
1.693410873413085938e-01
-2.233873307704925537e-02
-1.723618805408477783e-02
1.346561610698699951e-01
9.560099244117736816e-02
-6.229852139949798584e-02
-4.504904150962829590e-02
7.345840334892272949e-03
-2.157539129257202148e-02
-6.403875350952148438e-02
1.684407889842987061e-02
8.804711699485778809e-02
1.918462514877319336e-01
-1.280584335327148438e-01
-1.030206680297851562e-02
1.708791851997375488e-01
-4.674765467643737793e-02
5.696243047714233398e-02
1.646094620227813721e-01
1.737553179264068604e-01
-1.534065306186676025e-01
4.640305042266845703e-02
-1.893315315246582031e-01
-1.230802312493324280e-01
5.936676263809204102e-02
4.010155797004699707e-02
-8.984174579381942749e-02
-1.118825897574424744e-01
2.004922926425933838e-01
-5.511581897735595703e-03
-2.003183513879776001e-01
-1.940287202596664429e-01
-1.901638805866241455e-01
1.430581808090209961e-01
-1.215268298983573914e-01
-1.530948132276535034e-01
4.533296823501586914e-02
-1.342041492462158203e-01
6.929475069046020508e-02
1.062775254249572754e-01
7.540532946586608887e-02
-1.835430711507797241e-01
-3.700190782546997070e-02
-1.872108131647109985e-01
-1.355622410774230957e-01
-1.579861938953399658e-01
-1.653991639614105225e-02
5.558270215988159180e-02
-3.029875457286834717e-02
-1.329997330904006958e-01
3.491052985191345215e-02
-8.479108661413192749e-02
-2.596953511238098145e-02
-1.920744925737380981e-01
6.866142153739929199e-02
-9.738999605178833008e-02
-1.640192866325378418e-01
-1.357380300760269165e-01
-1.671638637781143188e-01
-1.018241420388221741e-01
6.620594859123229980e-02
2.609470486640930176e-02
-1.438411772251129150e-01
-9.149087965488433838e-02
1.664530336856842041e-01
1.834270060062408447e-01
-1.452602148056030273e-01
-1.927936971187591553e-01
-1.839146465063095093e-01
-8.859889209270477295e-02
-4.190796613693237305e-02
1.940503716468811035e-02
1.722228527069091797e-01
1.336153149604797363e-01
-5.586518347263336182e-02
1.287595331668853760e-01
1.496117115020751953e-01
-6.247390806674957275e-02
-7.924777269363403320e-02
-1.549912989139556885e-02
9.988924860954284668e-02
1.103969216346740723e-01
-3.892740607261657715e-02
5.941343307495117188e-02
-1.556025296449661255e-01
-3.616799414157867432e-02
7.988598942756652832e-02
1.283334493637084961e-01
1.509536206722259521e-01
-1.321925818920135498e-01
1.591139137744903564e-01
7.357192039489746094e-02
1.338475942611694336e-01
-4.112209379673004150e-02
9.415647387504577637e-02
7.452282309532165527e-02
5.801120400428771973e-02
1.187312006950378418e-01
-1.327081024646759033e-02
-7.511979341506958008e-02
-1.809015870094299316e-01
1.067289412021636963e-01
-5.953881144523620605e-02
-9.724974632263183594e-03
1.148965358734130859e-01
-5.343288183212280273e-03
-1.539121866226196289e-01
-1.870751380920410156e-01
1.219516992568969727e-02
2.013262808322906494e-01
7.215732336044311523e-02
-1.794137805700302124e-01
6.952872872352600098e-02
-6.644338369369506836e-02
-1.938445866107940674e-02
1.835304796695709229e-01
1.095190644264221191e-01
9.839341044425964355e-02
-1.668288409709930420e-01
1.912547647953033447e-01
-5.279341340065002441e-02
1.388756334781646729e-01
-1.670498847961425781e-01
-1.946590989828109741e-01
1.175422072410583496e-01
1.013929545879364014e-01
1.121898591518402100e-01
1.855090856552124023e-01
1.718477308750152588e-01
1.834351718425750732e-01
-8.026929199695587158e-02
1.380698680877685547e-01
-1.034942939877510071e-01
6.275948882102966309e-02
4.834836721420288086e-02
1.678595542907714844e-01
-2.265331149101257324e-02
1.902972161769866943e-02
-1.338446438312530518e-01
-9.966396540403366089e-02
-6.675611436367034912e-02
1.284958422183990479e-01
1.350402832031250000e-01
1.871459782123565674e-01
9.867325425148010254e-02
-1.109730526804924011e-01
-7.682274281978607178e-02
3.649878501892089844e-02
5.965560674667358398e-02
-1.725646853446960449e-01
1.722301840782165527e-01
-2.532655000686645508e-02
-1.622372567653656006e-01
-5.994614958763122559e-02
8.122029900550842285e-02
3.993307054042816162e-02
-1.963551491498947144e-01
4.233536124229431152e-02
-3.697431087493896484e-02
-4.096797108650207520e-02
-6.413310766220092773e-04
6.399363279342651367e-02
-3.107717633247375488e-02
3.617817163467407227e-02
-1.412773430347442627e-01
-7.929458469152450562e-02
-7.169619202613830566e-03
3.532862663269042969e-02
5.993509292602539062e-02
1.444819271564483643e-01
1.352796852588653564e-01
1.141859889030456543e-01
-1.012006402015686035e-02
1.841500997543334961e-01
1.742929518222808838e-01
-1.479393243789672852e-02
-6.966407597064971924e-02
1.867816746234893799e-01
4.569076001644134521e-02
-1.347823441028594971e-01
-1.638705134391784668e-01
1.842609047889709473e-01
1.539823114871978760e-01
1.176054477691650391e-01
2.853865921497344971e-02
-1.214620545506477356e-01
-3.082372248172760010e-02
1.949684321880340576e-01
-1.264711916446685791e-01
-1.897119134664535522e-01
6.832635402679443359e-02
-4.283979535102844238e-02
-3.590908646583557129e-02
2.170859277248382568e-02
1.892033815383911133e-01
-9.276673197746276855e-02
-4.796516895294189453e-02
-1.591074466705322266e-02
-9.681411832571029663e-02
8.661779761314392090e-02
-1.715945601463317871e-01
1.188610494136810303e-01
1.457982659339904785e-01
7.035270333290100098e-02
1.488559842109680176e-01
-1.257319003343582153e-01
-1.441271454095840454e-01
8.593946695327758789e-02
-8.815027773380279541e-02
1.734648644924163818e-01
1.430181860923767090e-01
-4.083305597305297852e-03
-1.665529906749725342e-01
-1.961847692728042603e-01
4.090109467506408691e-02
-3.573894500732421875e-02
3.399822115898132324e-02
-1.136131882667541504e-01
-5.462075769901275635e-02
1.569122076034545898e-03
-1.816131472587585449e-01
-1.027818024158477783e-02
-1.138828024268150330e-01
-9.280064702033996582e-02
-1.746322214603424072e-02
6.654399633407592773e-02
-2.667364478111267090e-02
-1.288750171661376953e-01
-9.100912511348724365e-02
1.430201530456542969e-02
1.715744435787200928e-01
-9.205755591392517090e-02
-3.089424967765808105e-02
-1.445563435554504395e-01
-1.291083693504333496e-01
1.485340297222137451e-02
4.166151583194732666e-02
-1.645319163799285889e-02
1.860409080982208252e-01
8.037602901458740234e-02
-8.692571520805358887e-02
-9.099707007408142090e-03
-1.050315797328948975e-02
-5.602256953716278076e-02
6.029993295669555664e-03
-9.619474411010742188e-03
5.840176343917846680e-02
1.559319198131561279e-01
1.459965407848358154e-01
-1.340889930725097656e-01
8.579918742179870605e-02
9.843039512634277344e-02
-3.201334178447723389e-02
-1.663722991943359375e-01
3.818528354167938232e-02
8.030071854591369629e-02
4.324392974376678467e-02
-9.273480623960494995e-02
2.217292785644531250e-04
-9.493041783571243286e-02
1.077907681465148926e-01
-1.926906257867813110e-01
-2.939739823341369629e-02
-1.154645308852195740e-01
-4.002596437931060791e-02
1.409151256084442139e-01
-4.728786647319793701e-02
-1.155919358134269714e-01
9.130385518074035645e-02
3.744389116764068604e-02
-3.616973757743835449e-03
1.464295387268066406e-01
1.150610744953155518e-01
-1.633008718490600586e-01
6.537982821464538574e-02
1.536224186420440674e-01
-1.354299485683441162e-02
-6.059342622756958008e-02
-1.717808842658996582e-02
5.908265709877014160e-02
-6.173092126846313477e-02
3.245542943477630615e-02
-1.479479372501373291e-01
-7.316371798515319824e-02
9.441074728965759277e-02
-3.224217891693115234e-02
-1.673995107412338257e-01
-3.393213450908660889e-02
1.834163963794708252e-01
-1.767194271087646484e-01
-4.840745031833648682e-02
-1.895169913768768311e-02
-1.316715627908706665e-01
1.504560410976409912e-01
1.231583952903747559e-01
1.124646067619323730e-01
-1.516933143138885498e-01
-9.090945124626159668e-02
4.916340112686157227e-04
-1.454287469387054443e-01
1.413254737854003906e-01
1.512141227722167969e-01
-1.052645593881607056e-01
9.616661071777343750e-02
1.528764367103576660e-01
6.628528237342834473e-02
-4.869531095027923584e-02
-9.740994870662689209e-02
-1.587156057357788086e-01
3.571081161499023438e-02
-5.426773428916931152e-02
-2.879868447780609131e-02
-1.833878308534622192e-01
1.705438196659088135e-01
-1.584579199552536011e-01
-7.334354519844055176e-02
-3.746575117111206055e-02
1.175164282321929932e-01
-1.908743679523468018e-01
-4.657016694545745850e-02
-1.808051764965057373e-02
-7.260350883007049561e-02
-2.033952176570892334e-01
6.185150146484375000e-02
-1.040851175785064697e-01
8.995023369789123535e-02
2.023306488990783691e-02
-2.875518798828125000e-02
1.918860673904418945e-01
1.035374104976654053e-01
1.985599100589752197e-01
-1.097342818975448608e-01
-5.427610874176025391e-02
-8.098289370536804199e-03
-2.067796885967254639e-02
-1.210105419158935547e-02
-1.879401355981826782e-01
-7.371632754802703857e-02
-1.860699057579040527e-02
-1.287821531295776367e-01
-1.739907711744308472e-01
-1.763716340065002441e-02
-1.641443222761154175e-01
1.401512622833251953e-01
-1.321021169424057007e-01
9.554922580718994141e-02
-1.865622252225875854e-01
-2.246175706386566162e-02
9.915223717689514160e-02
-1.826570481061935425e-01
1.677732169628143311e-01
5.492579936981201172e-02
-5.124185979366302490e-02
-1.103214025497436523e-01
2.798847854137420654e-02
-1.953785121440887451e-02
2.099971473217010498e-02
-1.030523553490638733e-01
-1.309765577316284180e-01
1.200565993785858154e-01
5.271551012992858887e-02
3.286233544349670410e-02
8.259460330009460449e-02
-6.804615259170532227e-03
-7.383823394775390625e-02
-1.893836557865142822e-01
-4.587292671203613281e-02
2.000727653503417969e-01
-7.895772159099578857e-02
-5.624862015247344971e-02
1.168519854545593262e-01
1.668560504913330078e-01
-1.332014799118041992e-02
1.527307331562042236e-01
1.101440191268920898e-01
-1.566182076930999756e-02
-1.925815641880035400e-02
-1.487512886524200439e-01
-4.853539168834686279e-02
-7.427576184272766113e-02
1.754318177700042725e-02
-7.006196677684783936e-02
-1.065407022833824158e-01
1.774008572101593018e-01
-1.908534765243530273e-02
-8.045136928558349609e-05
1.163667142391204834e-01
-4.952733218669891357e-02
1.729193031787872314e-01
-3.381314873695373535e-02
1.814032495021820068e-01
4.541535675525665283e-02
1.432340443134307861e-01
1.103564500808715820e-01
-2.722747623920440674e-02
1.512962281703948975e-01
-1.858049780130386353e-01
1.915680170059204102e-01
-9.772044420242309570e-02
-9.725952148437500000e-02
-5.729560554027557373e-02
-7.798345386981964111e-02
1.637902855873107910e-02
1.575896441936492920e-01
1.160606145858764648e-01
-1.046388968825340271e-01
1.439583301544189453e-01
3.952041268348693848e-02
5.756741762161254883e-02
7.999625802040100098e-02
1.829195022583007812e-01
-1.040737777948379517e-01
-1.904839575290679932e-01
6.040990352630615234e-03
1.114078760147094727e-01
1.050233244895935059e-01
6.460678577423095703e-02
-8.723957091569900513e-02
-2.037847936153411865e-01
-1.440588235855102539e-01
8.020642399787902832e-02
-8.127391338348388672e-03
1.383934020996093750e-01
1.227886974811553955e-02
-6.917072832584381104e-02
7.611107826232910156e-02
1.874889135360717773e-01
1.367556154727935791e-01
6.835088133811950684e-02
1.115052103996276855e-01
-1.601169258356094360e-01
-3.453175723552703857e-02
-4.195727407932281494e-02
-1.013346016407012939e-01
5.141532421112060547e-02
1.029776632785797119e-01
-1.482116729021072388e-01
-4.742573201656341553e-02
-1.268540620803833008e-01
2.036786079406738281e-01
1.207606494426727295e-01
8.233880996704101562e-02
-6.563474237918853760e-02
-4.302945733070373535e-02
-1.883625984191894531e-02
1.953757703304290771e-01
1.815326511859893799e-01
-5.429883301258087158e-02
-8.560655266046524048e-02
-6.838247179985046387e-02
6.124341487884521484e-02
6.868746876716613770e-02
1.493324637413024902e-01
-5.811008810997009277e-02
1.320742368698120117e-01
1.645395457744598389e-01
-1.458895206451416016e-01
1.963897049427032471e-01
-8.717513829469680786e-02
8.949410915374755859e-02
1.417792439460754395e-01
-1.330927312374114990e-01
1.847423613071441650e-02
-1.200821474194526672e-01
-1.631906926631927490e-01
8.000895380973815918e-03
-5.382399260997772217e-02
1.065723001956939697e-01
-1.413876712322235107e-01
-1.075014397501945496e-01
-1.884161531925201416e-01
-1.590699106454849243e-01
5.657649040222167969e-02
-1.905779540538787842e-02
-3.598071634769439697e-02
-1.370258629322052002e-02
-6.455925107002258301e-02
-3.199169039726257324e-02
8.558183908462524414e-03
3.060199320316314697e-02
-9.593752771615982056e-02
4.958310723304748535e-02
-6.192937493324279785e-02
-7.304623723030090332e-02
-1.946036666631698608e-01
1.091489195823669434e-02
5.856609344482421875e-02
-1.831083893775939941e-01
1.907525956630706787e-01
-8.580431342124938965e-03
7.528719305992126465e-02
3.031840920448303223e-02
1.195983886718750000e-01
4.850906133651733398e-02
1.070156097412109375e-01
5.266204476356506348e-03
-2.009326666593551636e-01
-1.788142472505569458e-01
1.765112578868865967e-02
-1.769297122955322266e-01
-1.383477002382278442e-01
-1.058418452739715576e-01
-9.255707263946533203e-02
6.930914521217346191e-02
-4.415731132030487061e-02
-1.170743852853775024e-01
-1.739276945590972900e-01
-1.515949517488479614e-01
9.715133905410766602e-02
-5.486716330051422119e-02
7.815766334533691406e-02
7.399347424507141113e-02
-4.765534400939941406e-02
2.702580392360687256e-02
-8.321792632341384888e-02
-2.261701226234436035e-02
-1.162540540099143982e-01
8.856540918350219727e-02
1.500443816184997559e-01
1.118720173835754395e-01
-8.622768521308898926e-02
2.106818556785583496e-02
2.015292644500732422e-03
-3.041189908981323242e-02
-1.224547103047370911e-01
1.170998215675354004e-01
-1.082657054066658020e-01
1.054637134075164795e-01
1.705904006958007812e-01
-1.055745184421539307e-01
-1.612013280391693115e-01
1.250634193420410156e-01
-1.370100826025009155e-01
-2.246108651161193848e-02
1.095777153968811035e-01
-7.709045708179473877e-02
8.006727695465087891e-02
1.564634442329406738e-01
6.727197766304016113e-02
-1.217013448476791382e-01
-1.806583404541015625e-01
4.818466305732727051e-02
1.951425671577453613e-01
1.444543004035949707e-01
1.111665964126586914e-01
1.150097250938415527e-01
-8.503919094800949097e-02
1.165064871311187744e-01
1.613034307956695557e-01
-1.846047043800354004e-01
-1.798141151666641235e-01
1.308241784572601318e-01
1.525278091430664062e-01
1.469353437423706055e-01
-7.333935797214508057e-02
1.288135945796966553e-01
-4.134966433048248291e-02
8.679008483886718750e-02
-5.703143775463104248e-02
1.444168090820312500e-01
1.425534486770629883e-01
-6.222799420356750488e-02
-1.784534752368927002e-01
-1.213290467858314514e-01
6.158030033111572266e-02
1.663221120834350586e-01
-8.956200629472732544e-02
-1.810819357633590698e-01
1.946786642074584961e-01
1.491070389747619629e-01
6.478691101074218750e-02
1.731820404529571533e-02
1.031633019447326660e-01
-9.245224297046661377e-02
-1.184042096138000488e-01
-2.557781338691711426e-02
-9.368950128555297852e-02
-9.535527974367141724e-02
6.954723596572875977e-02
-3.071057796478271484e-02
-1.447951495647430420e-01
-4.629740118980407715e-02
4.861390590667724609e-02
1.379073560237884521e-01
7.590442895889282227e-03
-1.325602680444717407e-01
1.592378914356231689e-01
-3.603143990039825439e-02
-4.225924611091613770e-02
7.299786806106567383e-02
4.595327377319335938e-02
-1.508496701717376709e-01
-1.426859200000762939e-01
-9.334396570920944214e-02
1.432945430278778076e-01
-1.098562926054000854e-01
-1.335192620754241943e-01
1.324848234653472900e-01
1.712017953395843506e-01
5.973687767982482910e-02
-2.015418410301208496e-01
1.608578264713287354e-01
-4.306989908218383789e-02
-1.219304725527763367e-01
6.741335988044738770e-02
1.776170432567596436e-01
-1.786997914314270020e-01
8.757546544075012207e-02
1.148684918880462646e-01
-1.235478222370147705e-01
1.425779759883880615e-01
1.160405576229095459e-01
3.170922398567199707e-02
7.272669672966003418e-02
-1.494220197200775146e-01
-1.217079162597656250e-01
-4.200997948646545410e-02
6.107041239738464355e-02
2.053499221801757812e-03
-9.809736907482147217e-02
-2.000232785940170288e-01
-3.833192586898803711e-02
-1.899331957101821899e-01
-7.239207625389099121e-03
-2.613703906536102295e-02
7.582697272300720215e-02
1.111991703510284424e-02
7.352617383003234863e-02
5.097433924674987793e-02
9.828361868858337402e-02
5.690109729766845703e-02
-1.327153146266937256e-01
8.840849995613098145e-02
1.214185357093811035e-01
3.193108737468719482e-02
-6.141851842403411865e-02
-8.126350492238998413e-02
-5.242680013179779053e-02
-8.765139430761337280e-02
-1.671845465898513794e-01
-1.702347397804260254e-01
1.770306527614593506e-01
-4.268094897270202637e-03
-1.143899112939834595e-01
-1.890135407447814941e-01
-1.178331002593040466e-01
4.744297266006469727e-02
-1.781067252159118652e-01
-1.298902481794357300e-01
-7.657021284103393555e-02
-1.200816631317138672e-01
-1.709604710340499878e-01
-9.771704673767089844e-03
7.239103317260742188e-02
1.923932135105133057e-02
-5.409516394138336182e-02
-3.177608549594879150e-02
1.726841032505035400e-01
1.563216745853424072e-01
-1.842467486858367920e-01
-1.967165917158126831e-01
-3.265832364559173584e-02
-9.325091540813446045e-02
-1.988708972930908203e-02
-9.964726865291595459e-02
1.100395321846008301e-01
8.812054991722106934e-02
-1.957118213176727295e-01
-6.791210174560546875e-02
-1.597080230712890625e-01
-7.667416334152221680e-02
-1.441863775253295898e-01
8.140507340431213379e-02
-2.118532359600067139e-02
-1.239308789372444153e-01
4.726508259773254395e-02
3.040912747383117676e-02
-1.148309782147407532e-01
1.918711066246032715e-01
-1.987579911947250366e-01
1.459138989448547363e-01
7.956284284591674805e-02
1.659270524978637695e-01
1.982855200767517090e-01
1.401196122169494629e-01
-5.662886798381805420e-02
-3.464554250240325928e-02
-6.166353821754455566e-03
1.095183491706848145e-01
9.415939450263977051e-02
-8.121391385793685913e-02
3.129121661186218262e-02
2.639104425907135010e-02
-1.210504248738288879e-01
-1.071641296148300171e-01
-1.467804163694381714e-01
1.403660178184509277e-01
1.345289051532745361e-01
1.299426257610321045e-01
5.077338218688964844e-02
3.618590533733367920e-02
-1.250555813312530518e-01
-2.749995887279510498e-02
2.089112997055053711e-02
1.636919379234313965e-02
-1.719547808170318604e-01
4.445204138755798340e-02
-1.090885177254676819e-01
-1.051296070218086243e-01
-7.367558777332305908e-02
5.357569456100463867e-02
1.571880877017974854e-01
1.034664213657379150e-01
1.236767768859863281e-01
1.543639600276947021e-02
2.680276334285736084e-02
5.864664912223815918e-02
-1.218405812978744507e-01
-1.393323838710784912e-01
4.520384967327117920e-02
-1.053756475448608398e-02
-1.985447108745574951e-02
-9.062922745943069458e-02
-1.956061571836471558e-01
2.523705363273620605e-02
5.686664581298828125e-02
1.627594232559204102e-02
9.273612499237060547e-02
3.285630047321319580e-02
-3.434303402900695801e-02
-1.051916554570198059e-01
1.814627051353454590e-01
-7.599797844886779785e-02
1.422246992588043213e-01
6.219977140426635742e-02
1.855456829071044922e-01
1.285255253314971924e-01
-1.734365522861480713e-01
9.128189086914062500e-02
-4.655420780181884766e-04
-5.322679877281188965e-02
5.835363268852233887e-02
1.064262986183166504e-01
-3.914505243301391602e-02
1.356090605258941650e-01
-1.768321394920349121e-01
-6.496098637580871582e-02
6.432789564132690430e-02
-1.424224823713302612e-01
-9.933444112539291382e-02
-3.184019029140472412e-02
-6.210067868232727051e-02
1.372660398483276367e-01
1.962497830390930176e-03
-8.740679174661636353e-02
-5.269423127174377441e-02
2.649776637554168701e-02
1.451012790203094482e-01
6.882330775260925293e-02
1.362571120262145996e-01
9.724923968315124512e-02
5.372384190559387207e-02
-4.460358619689941406e-02
-2.194219827651977539e-02
-2.002967298030853271e-01
-1.134662628173828125e-01
5.548033118247985840e-02
-2.036704272031784058e-01
8.605003356933593750e-03
-1.215995848178863525e-01
-1.549287438392639160e-01
7.598945498466491699e-02
-3.707990050315856934e-03
-1.109802499413490295e-01
-1.253283023834228516e-01
-4.755908250808715820e-02
4.672378301620483398e-03
-1.190773248672485352e-01
1.726017594337463379e-01
1.309333443641662598e-01
-1.808670163154602051e-02
-2.724358439445495605e-02
-4.929845035076141357e-02
7.104733586311340332e-02
5.724814534187316895e-02
3.892667591571807861e-02
7.490682601928710938e-02
-9.780775755643844604e-02
-1.487083733081817627e-01
1.094222664833068848e-01
-1.992895752191543579e-01
-1.645656824111938477e-01
-8.240099996328353882e-02
-1.790165901184082031e-03
-1.409849226474761963e-01
1.152761280536651611e-01
7.835432887077331543e-03
-1.733125001192092896e-01
-6.802745163440704346e-02
2.912159264087677002e-02
1.921981573104858398e-02
-8.454731106758117676e-02
5.165904760360717773e-03
1.822211742401123047e-01
1.071329712867736816e-01
-1.487704217433929443e-01
-1.387266665697097778e-01
3.673093020915985107e-02
1.095435023307800293e-01
1.649362742900848389e-01
6.642875075340270996e-02
1.781479120254516602e-01
-6.554980576038360596e-02
1.761092841625213623e-01
6.108674407005310059e-02
3.245620429515838623e-02
1.980350315570831299e-01
-7.892106473445892334e-02
2.274452149868011475e-02
4.818245768547058105e-02
-4.835285246372222900e-02
-9.797750413417816162e-02
-5.009487271308898926e-03
2.663038671016693115e-02
1.289624571800231934e-01
1.430766582489013672e-01
-5.249075591564178467e-02
-1.642349809408187866e-01
1.383904814720153809e-01
7.164740562438964844e-02
-1.825233995914459229e-01
-9.685548394918441772e-02
-1.943362951278686523e-01
8.287429809570312500e-04
-1.421870887279510498e-01
-9.306223690509796143e-02
-2.286049723625183105e-02
-9.571867436170578003e-02
-4.069383442401885986e-02
7.644069194793701172e-02
2.036538422107696533e-01
1.343818604946136475e-01
-1.704920828342437744e-02
8.518230915069580078e-02
-6.869126856327056885e-02
1.691191494464874268e-01
-1.627177447080612183e-01
1.673050522804260254e-01
-9.997168183326721191e-02
-2.751246094703674316e-03
-1.288051307201385498e-01
-1.816745549440383911e-01
7.311227917671203613e-02
-1.176305040717124939e-01
-1.763902008533477783e-01
1.093966364860534668e-01
-1.803083270788192749e-01
1.878117620944976807e-01
9.433409571647644043e-02
-1.380230486392974854e-01
-1.235604286193847656e-01
5.341932177543640137e-03
1.316261589527130127e-01
1.019371449947357178e-01
3.579472005367279053e-02
-1.224421113729476929e-01
-1.041859984397888184e-01
1.443446874618530273e-01
6.109148263931274414e-02
1.339008510112762451e-01
7.567819952964782715e-02
1.054022312164306641e-01
1.660648286342620850e-01
4.063440859317779541e-02
-1.639324128627777100e-01
3.860066831111907959e-02
1.832837164402008057e-01
1.436732709407806396e-01
2.635760605335235596e-02
3.373230993747711182e-02
1.181223392486572266e-01
1.961798965930938721e-01
8.229666948318481445e-02
-5.366347730159759521e-02
2.952039241790771484e-03
-5.425673723220825195e-02
-4.638509452342987061e-02
-4.260036349296569824e-02
-1.704692840576171875e-02
4.693970084190368652e-02
-1.982802152633666992e-01
1.409573256969451904e-01
1.892535984516143799e-01
5.566626787185668945e-03
-4.857599735260009766e-03
1.130152642726898193e-01
2.619577944278717041e-02
-1.403741389513015747e-01
-1.645807623863220215e-01
1.835522353649139404e-01
1.947195827960968018e-02
1.037872731685638428e-01
9.880650043487548828e-02
-7.836246490478515625e-02
1.785289645195007324e-01
-8.784051239490509033e-02
-1.511464864015579224e-01
-4.827828705310821533e-02
-1.428844779729843140e-01
1.919491887092590332e-01
-8.872225880622863770e-02
1.776814460754394531e-04
-5.127783119678497314e-02
1.943496167659759521e-01
4.594177007675170898e-04
-7.566514611244201660e-02
-6.405271589756011963e-02
1.624523699283599854e-01
1.406157612800598145e-01
-2.262412011623382568e-02
5.166161060333251953e-02
1.902049481868743896e-01
4.953944683074951172e-02
1.961598396301269531e-01
1.736646890640258789e-02
1.307609379291534424e-01
-3.378890454769134521e-02
-5.178064107894897461e-03
5.909812450408935547e-02
-6.931011378765106201e-02
-6.214044988155364990e-02
1.587369740009307861e-01
-2.345204353332519531e-02
-1.047095134854316711e-01
-1.275277584791183472e-01
8.442151546478271484e-02
1.212701201438903809e-01
1.431166231632232666e-01
1.862504184246063232e-01
3.225749731063842773e-02
-9.967325627803802490e-02
5.721431970596313477e-02
-1.334177851676940918e-01
-1.402515172958374023e-02
-7.649560272693634033e-02
1.551520228385925293e-01
1.222221255302429199e-01
1.235108375549316406e-01
1.962308883666992188e-01
-1.897780448198318481e-01
-1.682011932134628296e-01
4.664647579193115234e-02
3.455355763435363770e-02
7.045781612396240234e-02
-6.467546522617340088e-02
1.368805766105651855e-01
-1.161976456642150879e-01
-1.208175048232078552e-01
-1.591468006372451782e-01
1.564659178256988525e-01
1.997678875923156738e-01
1.101548671722412109e-01
1.210777759552001953e-01
-8.373919874429702759e-02
-1.548401117324829102e-01
9.766778349876403809e-02
9.701088070869445801e-02
8.238479495048522949e-02
1.263223290443420410e-01
1.344150006771087646e-01
-1.401374638080596924e-01
-1.948789805173873901e-01
-1.035104095935821533e-01
-1.191088557243347168e-01
-1.749206036329269409e-01
9.891799092292785645e-02
-1.886332482099533081e-01
-1.469290256500244141e-02
5.270105600357055664e-02
1.254953444004058838e-01
-1.538062095642089844e-02
1.286188364028930664e-01
-3.697082400321960449e-03
-9.846188873052597046e-02
-1.716281324625015259e-01
1.966529488563537598e-01
-1.706051528453826904e-01
-1.025787219405174255e-01
4.985934495925903320e-02
4.247777163982391357e-02
-1.884695440530776978e-01
-1.131655499339103699e-01
-9.036111831665039062e-02
-8.892057836055755615e-02
9.529963135719299316e-03
1.399728953838348389e-01
8.907815814018249512e-02
-7.806760072708129883e-02
-1.659301072359085083e-01
-1.297985166311264038e-01
7.787302136421203613e-03
1.824131608009338379e-01
3.192904591560363770e-02
-2.029798030853271484e-01
1.852878332138061523e-01
-7.001097500324249268e-02
-2.001332640647888184e-01
1.190748512744903564e-01
-2.368588745594024658e-02
-1.410263776779174805e-01
-7.103668153285980225e-02
-3.292448818683624268e-02
-1.894347518682479858e-01
1.933797001838684082e-01
-1.109397113323211670e-01
-1.420760750770568848e-01
-1.404872536659240723e-01
-4.760833084583282471e-02
-1.203727424144744873e-01
-6.941090524196624756e-02
-1.006640717387199402e-01
-2.004738897085189819e-01
1.940808892250061035e-01
1.538355350494384766e-01
-3.506724536418914795e-02
-5.870212614536285400e-02
-1.095782518386840820e-01
5.131992697715759277e-02
-1.597838997840881348e-01
-1.016858294606208801e-01
1.049076318740844727e-01
1.746928989887237549e-01
9.262672066688537598e-02
-1.476697176694869995e-01
-1.267288625240325928e-02
-3.764304518699645996e-02
1.655103564262390137e-01
-1.055566594004631042e-01
1.934356987476348877e-01
1.848600506782531738e-01
9.559896588325500488e-02
-4.608954489231109619e-02
-3.368660807609558105e-02
1.130387187004089355e-03
4.541389644145965576e-02
6.164973974227905273e-02
1.454634070396423340e-01
1.653827428817749023e-01
-1.498028934001922607e-01
3.201708197593688965e-02
-9.271100908517837524e-02
-1.054374724626541138e-01
1.919732689857482910e-01
-1.804057061672210693e-01
-3.691644966602325439e-02
1.791917979717254639e-01
-3.998665511608123779e-02
1.921520233154296875e-01
7.287365198135375977e-02
-3.189638257026672363e-03
7.290795445442199707e-03
6.566140055656433105e-02
-1.701619923114776611e-01
1.270535588264465332e-01
-8.590628951787948608e-02
-1.538950055837631226e-01
2.666833996772766113e-02
-6.116718053817749023e-03
-1.999693959951400757e-01
5.720818042755126953e-02
-3.768552839756011963e-02
1.385548710823059082e-01
-1.156851351261138916e-01
1.498940289020538330e-01
-2.340318262577056885e-02
2.020753324031829834e-01
4.023630917072296143e-02
-1.311481893062591553e-01
6.732687354087829590e-03
1.007253527641296387e-01
-1.080664992332458496e-02
-7.114587724208831787e-02
-6.626765429973602295e-02
-1.016953215003013611e-01
-1.178643926978111267e-01
8.209410309791564941e-02
-1.652238070964813232e-01
2.024755477905273438e-01
-2.033106982707977295e-02
1.817675530910491943e-01
9.873077273368835449e-02
1.657906770706176758e-01
3.995682299137115479e-02
5.575022101402282715e-02
1.976919770240783691e-01
-1.309277713298797607e-01
1.221762001514434814e-01
6.598082184791564941e-02
-8.810403943061828613e-02
1.026540696620941162e-01
-8.933001011610031128e-02
8.707910776138305664e-02
-9.583946317434310913e-02
-8.898063004016876221e-02
-1.320667266845703125e-01
-1.688419431447982788e-01
1.798841059207916260e-01
-1.466826051473617554e-01
1.590518951416015625e-01
-1.908889263868331909e-01
2.748161554336547852e-02
-7.692781090736389160e-02
1.822421252727508545e-01
1.243467330932617188e-01
-1.661491990089416504e-01
-1.033097505569458008e-01
1.748814284801483154e-01
-1.752835065126419067e-01
-1.140540838241577148e-02
5.408260226249694824e-02
-1.630517393350601196e-01
1.962563991546630859e-01
9.883332252502441406e-02
-9.441055357456207275e-02
1.522547304630279541e-01
-1.139889955520629883e-01
-7.110004127025604248e-02
-5.865307152271270752e-02
4.803690314292907715e-02
1.014263033866882324e-01
-6.701834499835968018e-02
5.111771821975708008e-02
-5.185760557651519775e-02
4.942706227302551270e-02
-7.724088430404663086e-02
-1.499990224838256836e-01
1.870265603065490723e-01
-3.741635382175445557e-02
8.082127571105957031e-02
3.493934869766235352e-02
-5.531781911849975586e-02
1.697326004505157471e-01
5.243843793869018555e-02
1.483921706676483154e-01
-1.367707848548889160e-01
-6.467039883136749268e-02
2.035338580608367920e-01
1.360382139682769775e-01
1.048774123191833496e-01
-8.964732289314270020e-02
6.380596756935119629e-02
1.101778745651245117e-01
1.574006676673889160e-02
-7.463905215263366699e-02
1.222508847713470459e-01
-1.433021426200866699e-01
1.702994108200073242e-02
1.553883552551269531e-01
-1.258562505245208740e-02
-3.735727071762084961e-02
-1.269952952861785889e-01
-2.643084526062011719e-02
7.682061195373535156e-02
5.274191498756408691e-03
-1.046692132949829102e-01
-1.415897905826568604e-02
1.482401490211486816e-01
4.818060994148254395e-02
1.595765352249145508e-04
-1.505554765462875366e-01
8.877822756767272949e-02
2.531945705413818359e-03
1.744211912155151367e-01
4.505293071269989014e-02
3.337615728378295898e-02
8.197459578514099121e-02
1.804739832878112793e-01
-1.162313222885131836e-01
-4.767593741416931152e-02
-1.008772775530815125e-01
-4.996261000633239746e-02
4.037919640541076660e-02
1.255665421485900879e-01
-1.725348532199859619e-01
-7.359407842159271240e-02
-1.830170899629592896e-01
4.725146293640136719e-02
2.045959234237670898e-03
3.467468917369842529e-02
1.237210333347320557e-01
1.444362401962280273e-01
1.123565435409545898e-02
5.760380625724792480e-02
-4.343061149120330811e-02
-1.866756677627563477e-01
-1.307142823934555054e-01
-1.021858826279640198e-01
1.653394401073455811e-01
1.898528039455413818e-01
-3.663417696952819824e-02
-1.980833709239959717e-02
-1.553412824869155884e-01
-1.869463175535202026e-01
-1.301744282245635986e-01
-8.238883316516876221e-02
1.560344099998474121e-01
-8.370177447795867920e-02
-2.334833145141601562e-02
8.598735928535461426e-02
1.325466930866241455e-01
7.874742150306701660e-02
-3.066225349903106689e-02
1.112321019172668457e-01
-4.669758677482604980e-02
-4.307340085506439209e-02
1.094485521316528320e-01
1.798356771469116211e-01
-1.266759932041168213e-01
-1.553197801113128662e-01
1.703691184520721436e-01
-7.740874588489532471e-02
7.915043830871582031e-02
4.004572331905364990e-02
-1.914010941982269287e-01
-1.778814494609832764e-01
4.118652641773223877e-02
-1.201829835772514343e-01
-1.772100478410720825e-01
8.089515566825866699e-02
7.365942001342773438e-03
-1.018337830901145935e-01
3.890863060951232910e-02
-9.126336127519607544e-02
-1.657643020153045654e-01
-6.922654807567596436e-02
-4.174050688743591309e-02
1.601868867874145508e-02
-1.442786902189254761e-01
-1.018637567758560181e-01
1.167230904102325439e-01
-4.953190684318542480e-02
3.664813935756683350e-02
-7.764804363250732422e-02
-5.403111875057220459e-02
2.007182836532592773e-01
2.006541490554809570e-01
1.099016368389129639e-01
-4.634261131286621094e-03
1.226193606853485107e-01
-6.361247599124908447e-02
-8.062557876110076904e-02
-1.746402233839035034e-01
1.407340764999389648e-01
-8.179592341184616089e-02
-1.644507050514221191e-03
1.436500251293182373e-01
1.740321815013885498e-01
1.967664361000061035e-01
-5.046322941780090332e-03
1.190980970859527588e-01
7.677218317985534668e-02
1.897994577884674072e-01
-1.546659320592880249e-01
4.845768213272094727e-03
1.169684827327728271e-01
1.810458302497863770e-01
9.541013836860656738e-02
2.650506794452667236e-02
-1.574699878692626953e-01
2.497093379497528076e-02
2.573788166046142578e-02
-1.066265553236007690e-01
7.300072908401489258e-02
3.438892960548400879e-02
-8.306726813316345215e-03
-1.705129295587539673e-01
8.963993191719055176e-02
1.873479485511779785e-01
6.915301084518432617e-02
5.321398377418518066e-03
-5.703440308570861816e-02
4.240384697914123535e-02
-2.092806994915008545e-02
1.291811764240264893e-01
-1.919883638620376587e-01
6.804168224334716797e-04
-9.580666571855545044e-02
3.218309581279754639e-02
1.997474730014801025e-01
1.138544082641601562e-02
1.070970296859741211e-01
1.634533703327178955e-02
3.234091401100158691e-02
-8.686327934265136719e-02
-1.048459261655807495e-01
9.259337186813354492e-02
6.413987278938293457e-02
-1.050811335444450378e-01
6.048619747161865234e-03
-1.915677785873413086e-01
1.357272863388061523e-01
1.090984940528869629e-01
-5.046956241130828857e-02
1.865624189376831055e-01
1.283277869224548340e-01
4.642349481582641602e-02
-5.252701044082641602e-02
-1.854252219200134277e-01
-1.008487567305564880e-01
-7.624579966068267822e-02
-2.013638615608215332e-03
1.994306743144989014e-01
6.358945369720458984e-02
-9.994617849588394165e-02
1.585252285003662109e-01
-1.837069392204284668e-01
1.960439383983612061e-01
1.584693193435668945e-01
-1.739932447671890259e-01
-8.409947156906127930e-03
1.856299042701721191e-01
-1.425167024135589600e-01
-7.114151120185852051e-02
-1.271142959594726562e-01
2.022183537483215332e-01
6.012967228889465332e-02
1.312883198261260986e-01
-1.637147367000579834e-01
-1.785986572504043579e-01
1.327626705169677734e-01
-1.560182869434356689e-01
-4.987986385822296143e-02
-1.376878321170806885e-01
-1.923573017120361328e-01
-1.081162020564079285e-01
-1.243167594075202942e-01
1.159563660621643066e-01
1.654284894466400146e-01
-8.233338594436645508e-03
8.904477953910827637e-02
-8.868089318275451660e-02
2.027894556522369385e-01
-3.075145184993743896e-02
6.625401973724365234e-02
-1.083709746599197388e-01
-4.056067764759063721e-02
-1.840316504240036011e-01
-7.996235042810440063e-02
1.368624866008758545e-01
-1.254230588674545288e-01
-3.962266445159912109e-02
-1.015981808304786682e-01
-1.210098415613174438e-01
-1.153084561228752136e-01
-7.383663952350616455e-02
-1.409962028264999390e-01
-6.352248787879943848e-02
2.350071072578430176e-02
1.622813344001770020e-01
-2.035260796546936035e-01
1.851654350757598877e-01
-1.987944841384887695e-01
-2.027115374803543091e-01
1.169754862785339355e-01
-6.194694340229034424e-02
1.295570731163024902e-01
-5.619333684444427490e-02
-4.104734957218170166e-02
-8.753344416618347168e-03
-1.195267140865325928e-01
-4.019324481487274170e-02
5.888146162033081055e-02
-7.291734218597412109e-04
-1.431206166744232178e-01
2.029589116573333740e-01
1.572652459144592285e-01
4.586727917194366455e-02
1.324574947357177734e-01
1.798610389232635498e-01
1.727034151554107666e-01
-1.247852817177772522e-01
-1.703665405511856079e-01
-4.162526130676269531e-02
-1.205483302474021912e-01
-1.828233897686004639e-02
1.781553626060485840e-01
-6.059196591377258301e-02
6.734308600425720215e-02
-1.908112913370132446e-01
1.945461630821228027e-01
1.283200681209564209e-01
-1.550287902355194092e-01
1.310667693614959717e-01
-1.640556454658508301e-01
-1.386074721813201904e-02
-1.368195563554763794e-01
-2.315431833267211914e-03
-2.018458992242813110e-01
3.064979612827301025e-02
-1.893662810325622559e-01
-1.479315459728240967e-01
-3.953263163566589355e-03
-1.416133940219879150e-01
-1.002846136689186096e-01
3.916826844215393066e-02
-1.226402819156646729e-02
1.251364946365356445e-01
-1.911873519420623779e-01
-2.031077444553375244e-01
-1.653028428554534912e-01
1.283267140388488770e-01
-4.201479256153106689e-02
1.938612461090087891e-01
1.604662835597991943e-02
8.182492852210998535e-02
-1.179137453436851501e-01
1.660084724426269531e-02
5.801391601562500000e-02
-1.720685213804244995e-01
3.124073147773742676e-03
8.292222023010253906e-02
7.374081015586853027e-02
9.668558835983276367e-02
-1.100653633475303650e-01
1.949540376663208008e-01
7.760015130043029785e-02
1.970196068286895752e-01
1.678952872753143311e-01
1.099343895912170410e-01
1.485079526901245117e-01
5.755120515823364258e-02
6.823033094406127930e-02
-4.858794808387756348e-02
1.226660311222076416e-01
1.737213432788848877e-01
-1.953544616699218750e-01
-2.614964544773101807e-02
-6.594829261302947998e-02
6.415018439292907715e-02
1.201789081096649170e-01
-8.754958212375640869e-02
8.200529217720031738e-02
1.218823492527008057e-01
1.844897866249084473e-01
-6.408207118511199951e-02
-1.997168213129043579e-01
7.941576838493347168e-02
4.274733364582061768e-02
-1.061919331550598145e-02
-1.452213227748870850e-01
1.252118051052093506e-01
6.917852163314819336e-02
-1.645032763481140137e-01
-9.794659912586212158e-02
-3.793101012706756592e-02
-1.791456788778305054e-01
1.043072342872619629e-01
-5.461122095584869385e-02
-9.808281809091567993e-02
-1.395686566829681396e-01
1.139390170574188232e-01
4.691934585571289062e-02
1.011847555637359619e-01
-2.229994535446166992e-02
1.757988929748535156e-01
-1.410199701786041260e-02
-1.542715430259704590e-01
1.623654365539550781e-01
1.492167413234710693e-01
-4.730562865734100342e-02
-2.293792366981506348e-02
1.014616787433624268e-01
4.592791199684143066e-02
-1.715387850999832153e-01
1.472812891006469727e-01
4.240120947360992432e-02
1.105006337165832520e-01
-1.621513068675994873e-01
1.484582126140594482e-01
-1.026284620165824890e-01
1.533024907112121582e-01
-5.394604802131652832e-02
6.121352314949035645e-02
-9.319052100181579590e-03
3.155164420604705811e-02
-9.051039814949035645e-03
-2.596934139728546143e-02
1.041986644268035889e-01
-1.482327878475189209e-01
-9.154766798019409180e-02
5.535197257995605469e-02
-1.623523980379104614e-01
5.163532495498657227e-02
1.563091278076171875e-01
-2.340590953826904297e-02
1.354859769344329834e-01
-1.048349738121032715e-01
1.915850937366485596e-01
-1.948143988847732544e-01
-5.236655473709106445e-02
9.636452794075012207e-02
-1.368375122547149658e-02
-1.156679540872573853e-01
-1.242346093058586121e-01
1.481912434101104736e-01
9.562045335769653320e-03
8.201065659523010254e-02
-2.609519660472869873e-02
1.242603063583374023e-01
1.945271193981170654e-01
-7.419116795063018799e-02
1.908896863460540771e-01
9.737762808799743652e-02
-1.729034483432769775e-01
-1.982631832361221313e-01
6.389844417572021484e-02
-1.611553877592086792e-01
-1.525696963071823120e-01
-6.989839673042297363e-02
5.709898471832275391e-02
-2.018113434314727783e-02
-8.862590044736862183e-02
5.899071693420410156e-03
1.458828151226043701e-01
-1.327761113643646240e-01
-1.664289385080337524e-01
-1.299659311771392822e-01
7.282960414886474609e-02
8.333554863929748535e-02
2.954261004924774170e-02
6.682926416397094727e-02
1.455296277999877930e-01
6.955730915069580078e-02
1.396633982658386230e-01
9.264034032821655273e-02
-1.760284602642059326e-02
6.136417388916015625e-03
-2.331689000129699707e-02
-1.618824750185012817e-01
9.056207537651062012e-02
7.139369845390319824e-02
-1.375012397766113281e-01
1.194590032100677490e-01
-4.596753418445587158e-02
-4.919201135635375977e-02
-1.056597381830215454e-01
1.675041019916534424e-01
-5.785439908504486084e-02
1.642883121967315674e-01
8.598259091377258301e-02
1.034358143806457520e-02
4.524886608123779297e-02
8.616685867309570312e-03
-1.763643622398376465e-01
-1.124225035309791565e-01
-9.847507625818252563e-02
-1.619336158037185669e-01
-6.951758265495300293e-02
1.782324314117431641e-01
-9.581172466278076172e-02
1.564590334892272949e-01
8.591759204864501953e-02
-8.925238996744155884e-02
-1.930093765258789062e-02
-4.073917865753173828e-03
4.262648522853851318e-02
1.757955253124237061e-01
3.154200315475463867e-02
1.583814620971679688e-03
8.705317974090576172e-02
-4.286228120326995850e-02
9.833091497421264648e-02
1.844514906406402588e-01
-1.095780581235885620e-01
1.536113619804382324e-01
6.300306320190429688e-02
-8.219752460718154907e-02
-1.582802385091781616e-01
1.737137436866760254e-01
-1.485001742839813232e-01
2.088144421577453613e-02
1.345190703868865967e-01
-1.536239683628082275e-01
-1.186740398406982422e-02
1.419006288051605225e-01
-1.365300863981246948e-01
-9.766057133674621582e-03
-7.453379034996032715e-02
9.889876842498779297e-02
-9.452740103006362915e-02
1.472495198249816895e-01
-1.274959743022918701e-01
-1.371608078479766846e-01
-1.830851733684539795e-01
4.430507123470306396e-02
1.155391335487365723e-01
1.664723157882690430e-01
-1.040875017642974854e-01
3.621281683444976807e-02
1.219262778759002686e-01
1.600161790847778320e-01
1.622683107852935791e-01
-7.824762165546417236e-02
1.467764675617218018e-01
2.996796369552612305e-02
1.609854400157928467e-01
1.989990770816802979e-01
-8.242110162973403931e-02
-9.908044338226318359e-02
-1.344046890735626221e-01
3.087316453456878662e-02
1.209414601325988770e-01
3.584182262420654297e-02
-1.285882145166397095e-01
1.555179953575134277e-01
1.371596753597259521e-02
5.144664645195007324e-02
1.008529067039489746e-01
-7.192938029766082764e-02
-1.553124785423278809e-01
1.271216869354248047e-01
-1.064145117998123169e-01
-4.539906978607177734e-03
-1.110405996441841125e-01
1.240229010581970215e-01
5.136144161224365234e-02
5.363681912422180176e-02
4.839301109313964844e-03
1.810807585716247559e-01
2.000118494033813477e-01
4.412952065467834473e-02
1.574746072292327881e-01
7.709294557571411133e-02
-3.101138770580291748e-02
4.579052329063415527e-02
-9.717693179845809937e-02
1.763939857482910156e-03
9.287539124488830566e-02
1.784021258354187012e-01
9.002357721328735352e-02
-1.520712971687316895e-01
3.573417663574218750e-03
-2.079579234123229980e-02
-1.385310292243957520e-02
-1.296532154083251953e-02
6.722524762153625488e-03
1.826247870922088623e-01
8.799740672111511230e-02
2.739757299423217773e-03
7.596421241760253906e-02
1.354715824127197266e-01
1.611981689929962158e-01
1.297589838504791260e-01
-2.021351307630538940e-01
1.962087452411651611e-01
1.339355111122131348e-02
1.881948113441467285e-02
1.380862593650817871e-01
2.013247907161712646e-01
-1.484642028808593750e-01
-1.591181755065917969e-02
6.780758500099182129e-02
-9.747311472892761230e-03
-4.191040992736816406e-02
-1.153169199824333191e-01
-2.441895008087158203e-02
1.631079614162445068e-01
4.537583887577056885e-02
-1.297990381717681885e-01
-1.002394035458564758e-01
-1.119745224714279175e-01
4.532137513160705566e-02
-1.287606358528137207e-01
-1.702192723751068115e-01
-2.027004063129425049e-01
1.366592943668365479e-02
-2.029615044593811035e-01
-1.190481185913085938e-01
-2.983188629150390625e-02
-9.007213264703750610e-02
-8.658203482627868652e-02
8.721572160720825195e-02
1.147346198558807373e-01
1.370510756969451904e-01
3.515698015689849854e-02
-1.489962339401245117e-01
-4.804828763008117676e-02
-1.327488422393798828e-01
-1.793845295906066895e-01
-2.454504370689392090e-02
-6.080341339111328125e-02
1.711092889308929443e-01
5.500873923301696777e-02
-1.220967173576354980e-01
2.511869370937347412e-02
-1.321990787982940674e-02
1.780107021331787109e-01
-4.829113185405731201e-02
-1.760986447334289551e-02
8.639353513717651367e-02
1.330347359180450439e-01
-1.918988525867462158e-01
-1.305674910545349121e-01
-9.569391608238220215e-03
-1.410427391529083252e-01
-2.503186464309692383e-03
-5.505283176898956299e-02
1.628619432449340820e-01
-1.694281846284866333e-01
1.676149964332580566e-01
8.804997801780700684e-02
-5.960628390312194824e-03
4.372441768646240234e-02
6.105190515518188477e-02
-1.476695239543914795e-01
-4.966053366661071777e-02
3.423225879669189453e-02
-3.154593706130981445e-02
6.753110885620117188e-02
-3.339494764804840088e-02
-1.768488287925720215e-01
7.761508226394653320e-02
1.231852173805236816e-01
5.921781063079833984e-02
-1.628521680831909180e-01
-1.844806522130966187e-01
-7.678984105587005615e-02
-5.167208611965179443e-02
1.939554512500762939e-02
-8.025620132684707642e-02
1.501392126083374023e-01
-5.118565261363983154e-02
-1.746268570423126221e-02
1.766500174999237061e-01
1.652996838092803955e-01
1.400110721588134766e-01
-3.701776266098022461e-02
3.086918592453002930e-02
1.875678896903991699e-01
1.539979875087738037e-02
-8.859265595674514771e-02
-1.777324825525283813e-01
-4.379673302173614502e-02
-1.177258789539337158e-02
4.937365651130676270e-03
1.094676256179809570e-01
-1.721446812152862549e-01
3.807982802391052246e-02
-4.885961115360260010e-02
2.603746950626373291e-02
-1.022065654397010803e-01
-1.144355610013008118e-01
-1.601001322269439697e-01
5.126410722732543945e-02
-1.704901456832885742e-03
-1.433920264244079590e-01
-1.906030029058456421e-01
2.195824682712554932e-02
7.026195526123046875e-03
1.979282200336456299e-01
-1.444897204637527466e-01
1.324966251850128174e-01
-1.141220480203628540e-01
2.140724658966064453e-02
-2.845685184001922607e-02
-1.731324791908264160e-01
9.420138597488403320e-02
1.297646462917327881e-01
1.181849539279937744e-01
1.686214506626129150e-01
-1.081133782863616943e-01
-5.313172936439514160e-03
1.831188499927520752e-01
1.963546276092529297e-01
-1.342804133892059326e-01
-4.490897059440612793e-02
-1.489088237285614014e-01
1.959529519081115723e-01
-4.434920847415924072e-02
1.893476247787475586e-01
1.411902010440826416e-01
5.783176422119140625e-02
1.460588276386260986e-01
-9.755225479602813721e-02
-1.375950574874877930e-01
7.195082306861877441e-02
-1.959339827299118042e-01
-1.741478741168975830e-01
-8.863225579261779785e-03
2.012575268745422363e-01
1.497893631458282471e-01
6.751069426536560059e-02
1.171204149723052979e-01
-7.496453821659088135e-02
1.926328539848327637e-01
-2.512107789516448975e-02
-2.671539783477783203e-02
1.011484861373901367e-01
1.845033168792724609e-01
7.188123464584350586e-02
-2.025781422853469849e-01
-3.337250649929046631e-02
3.227332234382629395e-02
-1.436811685562133789e-01
-4.003313183784484863e-02
-1.771329045295715332e-01
-7.035508751869201660e-02
1.523158550262451172e-01
1.118264198303222656e-01
-1.036704257130622864e-01
-1.477302610874176025e-01
1.688406467437744141e-01
1.773106753826141357e-01
-1.136337220668792725e-01
-4.518701136112213135e-02
1.585532724857330322e-01
-1.733855009078979492e-01
-1.501801013946533203e-01
-1.412038207054138184e-01
-1.855884045362472534e-01
-1.854281127452850342e-02
-3.604549169540405273e-02
-1.920683681964874268e-01
6.246066093444824219e-02
-3.929504752159118652e-02
-9.710685163736343384e-02
-1.683141589164733887e-01
1.870564818382263184e-01
-1.811667084693908691e-01
1.097294986248016357e-01
-1.245386302471160889e-01
-7.644742727279663086e-02
-1.241143047809600830e-01
1.108323037624359131e-01
-2.188131213188171387e-02
6.272706389427185059e-02
-1.652531027793884277e-01
1.030780971050262451e-01
1.034924983978271484e-01
-1.329508721828460693e-01
1.068942844867706299e-01
2.313970029354095459e-02
-1.353390514850616455e-02
1.982513964176177979e-01
-2.172596752643585205e-02
-6.427045166492462158e-02
-1.021076738834381104e-01
-8.783176541328430176e-03
1.040286719799041748e-01
1.241676807403564453e-01
7.437634468078613281e-02
-6.525328755378723145e-02
3.144262731075286865e-02
4.345509409904479980e-02
1.238575279712677002e-01
1.338367164134979248e-02
-5.145916342735290527e-02
1.837997138500213623e-02
-5.928486585617065430e-02
-1.754240691661834717e-02
1.609786748886108398e-01
-1.107513755559921265e-01
7.979473471641540527e-02
-2.004072070121765137e-01
-2.016522586345672607e-01
1.385171413421630859e-01
-1.175995022058486938e-01
-4.665304720401763916e-02
-1.893195509910583496e-01
-1.621681898832321167e-01
8.966460824012756348e-03
-7.398769259452819824e-02
2.723000943660736084e-02
-1.547147482633590698e-01
-7.713703811168670654e-02
-1.919535547494888306e-01
3.334224224090576172e-03
-1.237905248999595642e-01
1.901805698871612549e-01
3.609041869640350342e-02
-6.920319795608520508e-02
-1.165246888995170593e-01
-1.280038654804229736e-01
1.321159899234771729e-01
1.274686753749847412e-01
1.212007105350494385e-01
1.606777310371398926e-01
1.895951926708221436e-01
1.136092841625213623e-01
-4.977776110172271729e-02
-7.346010208129882812e-02
-1.407662928104400635e-01
8.061668276786804199e-02
-1.853126585483551025e-01
1.290198564529418945e-01
-5.402424931526184082e-02
-9.650411456823348999e-02
-2.460505068302154541e-02
-8.697827905416488647e-02
-1.981495916843414307e-01
5.661663413047790527e-02
1.270739436149597168e-01
-1.745604574680328369e-01
-1.279619187116622925e-01
-1.705110818147659302e-01
1.752192080020904541e-01
-1.385936588048934937e-01
-2.348984777927398682e-02
-1.396925598382949829e-01
-1.568441241979598999e-01
3.904357552528381348e-02
1.047816276550292969e-01
-6.939207017421722412e-02
-1.031754761934280396e-01
-8.044882118701934814e-02
-1.047813445329666138e-01
1.197390556335449219e-01
1.802735328674316406e-01
-2.829688787460327148e-02
1.276329159736633301e-01
1.637951433658599854e-01
1.795752048492431641e-01
3.763136267662048340e-02
1.012727320194244385e-01
-1.009328663349151611e-02
-8.419540524482727051e-02
9.737339615821838379e-02
-1.267890334129333496e-01
-1.464762985706329346e-01
-1.017670556902885437e-01
1.055448949337005615e-01
1.608016788959503174e-01
1.270247995853424072e-01
-2.378530800342559814e-02
-1.279060542583465576e-02
-1.728851497173309326e-01
-1.606104075908660889e-01
6.445994973182678223e-02
-1.048889756202697754e-02
1.488288044929504395e-01
1.403311192989349365e-01
-3.146272897720336914e-02
4.210089147090911865e-02
-1.558497548103332520e-02
-6.450521945953369141e-02
1.840610504150390625e-01
-1.447532027959823608e-01
1.269087791442871094e-01
5.377233028411865234e-04
-5.603629350662231445e-02
-2.238175272941589355e-02
2.011581063270568848e-01
6.218314170837402344e-02
1.195087432861328125e-01
7.711470127105712891e-02
5.012899637222290039e-03
-1.804078072309494019e-01
-1.806895434856414795e-01
5.917000770568847656e-02
6.502392888069152832e-02
-1.060257628560066223e-01
-6.021051108837127686e-02
2.972911298274993896e-02
1.972088217735290527e-02
-8.997090905904769897e-02
3.233979642391204834e-02
7.436028122901916504e-02
-1.744495034217834473e-01
7.213601469993591309e-02
-1.806794703006744385e-01
2.017806470394134521e-01
-1.288956999778747559e-01
1.663412451744079590e-01
2.035556137561798096e-01
-5.977396667003631592e-02
1.770995259284973145e-01
1.756396889686584473e-01
-1.310043036937713623e-02
1.061981916427612305e-01
7.348793745040893555e-02
-1.441612094640731812e-01
-1.611958444118499756e-02
1.513991653919219971e-01
4.916310310363769531e-02
-6.194241344928741455e-02
9.228941798210144043e-02
1.583753228187561035e-01
-2.077326178550720215e-02
-1.882253587245941162e-02
-4.950650036334991455e-02
-4.564803838729858398e-02
-1.630938351154327393e-01
1.014395654201507568e-01
-1.447549462318420410e-01
8.358401060104370117e-02
-3.501112759113311768e-02
-1.159425824880599976e-01
-5.213156342506408691e-03
-1.766776740550994873e-01
-1.255085766315460205e-01
5.173948407173156738e-02
-1.689144670963287354e-01
8.201599121093750000e-02
1.282054185867309570e-02
9.706500172615051270e-02
-1.855255812406539917e-01
