1.490136841312050819e-03
1.040590141201391816e-04
-4.784511111211031675e-04
-3.037681744899600744e-04
3.037973147002048790e-05
8.828903810353949666e-05
-1.513764378614723682e-03
-1.196274301037192345e-03
7.213147473521530628e-04
2.263282658532261848e-04
9.877122938632965088e-04
-3.138261672575026751e-05
-4.636857775039970875e-04
4.072359879501163960e-04
-9.111206745728850365e-04
2.715873706620186567e-04
5.892999470233917236e-04
-3.280348610132932663e-04
7.063841912895441055e-04
1.371440594084560871e-03
4.345488268882036209e-04
-5.756164900958538055e-04
-5.802197483717463911e-05
-4.737194394692778587e-04
-2.012939075939357281e-04
3.106863587163388729e-04
-3.609915147535502911e-04
-4.473057342693209648e-04
-2.143913588952273130e-04
-3.280671371612697840e-04
8.950787014327943325e-05
1.055726665072143078e-03
1.963250106200575829e-03
-2.446039870847016573e-04
1.501569757238030434e-03
1.534238981548696756e-04
1.305145997321233153e-04
1.538111246190965176e-04
4.088460991624742746e-04
-2.532567887101322412e-04
-1.010974083328619599e-04
-9.372775093652307987e-04
-3.650202415883541107e-05
-2.312980795977637172e-04
-4.863522772211581469e-04
-1.117910258471965790e-03
3.863574238494038582e-04
8.791355649009346962e-04
-3.409085620660334826e-04
7.523125968873500824e-04
-7.606265135109424591e-04
-6.831838400103151798e-04
1.064948301063850522e-04
-1.887810358311980963e-04
1.721699663903564215e-04
-6.854999228380620480e-04
-7.257389370352029800e-04
1.238320721313357353e-03
-1.249836350325495005e-04
-8.698795572854578495e-04
3.430714714340865612e-04
-9.717054126667790115e-06
1.845595077611505985e-03
-9.996532462537288666e-04
