-7.441218942403793335e-02
5.863475799560546875e-02
1.419934630393981934e-01
1.227301955223083496e-01
-1.775262504816055298e-01
-1.573724150657653809e-01
-8.366126567125320435e-02
-1.653620451688766479e-01
6.117969378829002380e-02
1.019724272191524506e-02
3.230906650424003601e-02
-9.101717919111251831e-02
-1.636890321969985962e-01
-1.766265779733657837e-01
2.334612421691417694e-02
1.228570705279707909e-03
1.672143191099166870e-01
1.281799674034118652e-01
-1.488471627235412598e-01
1.659391447901725769e-02
1.247175931930541992e-01
1.676118969917297363e-01
3.678435459733009338e-02
-8.505342900753021240e-02
4.435405507683753967e-02
3.135991096496582031e-02
3.496305318549275398e-03
-1.163407415151596069e-01
-4.286148026585578918e-02
1.238795891404151917e-01
1.157162636518478394e-01
1.771676093339920044e-01
6.965282559394836426e-02
-9.895350784063339233e-02
-4.873413592576980591e-02
9.940624982118606567e-02
-4.780121520161628723e-02
2.699705073609948158e-03
1.442242711782455444e-01
-1.193490400910377502e-01
1.028114371001720428e-02
4.677432030439376831e-02
1.349005401134490967e-01
-6.303303688764572144e-02
-3.257850930094718933e-02
1.293993592262268066e-01
-9.966476261615753174e-02
-4.782511666417121887e-02
-1.044153720140457153e-01
1.097480431199073792e-01
-1.055919528007507324e-01
-1.051698029041290283e-01
-1.477167308330535889e-01
-1.226892992854118347e-01
-1.741672605276107788e-01
-5.999599024653434753e-02
-3.519536182284355164e-02
1.185746863484382629e-03
1.412184685468673706e-01
1.572247147560119629e-01
-1.387321352958679199e-01
-1.645165234804153442e-01
3.787453472614288330e-02
7.954031229019165039e-02
2.427918277680873871e-02
-7.084356248378753662e-02
-9.068841487169265747e-02
-9.014389663934707642e-02
-1.374919265508651733e-01
1.405092477798461914e-01
-1.287089139223098755e-01
1.652217805385589600e-01
1.076520159840583801e-01
-8.235540241003036499e-03
-1.659322977066040039e-01
1.127927526831626892e-01
-1.701260358095169067e-01
7.258927822113037109e-02
-1.416331529617309570e-01
-1.764045357704162598e-01
4.341283813118934631e-02
1.601492613554000854e-01
6.321184337139129639e-02
-1.069193333387374878e-01
1.200154721736907959e-01
-1.030676290392875671e-01
7.616356760263442993e-02
1.852969080209732056e-01
-5.297793820500373840e-02
-9.515956044197082520e-02
-1.379458308219909668e-01
8.169506490230560303e-02
7.664935290813446045e-02
1.531096696853637695e-01
-1.507441848516464233e-01
-9.309903532266616821e-02
-1.672258973121643066e-01
-3.277820348739624023e-02
-6.419395655393600464e-02
-1.438207030296325684e-01
-8.151929080486297607e-02
-1.524155139923095703e-01
-3.351939842104911804e-02
-5.735819786787033081e-02
-5.162222683429718018e-02
-2.723919413983821869e-02
1.482212543487548828e-02
-2.429120801389217377e-02
1.702687591314315796e-01
1.747425831854343414e-02
-1.088667139410972595e-01
1.104632914066314697e-01
1.642711013555526733e-01
-4.030641540884971619e-02
1.247650310397148132e-01
-3.696229681372642517e-02
1.792707294225692749e-01
6.557305902242660522e-02
1.778506338596343994e-01
-5.499729141592979431e-02
-8.918555825948715210e-02
1.925787888467311859e-02
1.214616671204566956e-01
-1.573123931884765625e-01
8.286570757627487183e-02
-1.012237593531608582e-01
-1.190391834825277328e-02
7.535228133201599121e-02
2.949200570583343506e-02
-9.108102880418300629e-03
9.824761748313903809e-02
1.050653457641601562e-01
-4.766511917114257812e-02
-6.107711791992187500e-02
-1.192976087331771851e-01
-1.181910261511802673e-01
1.911730468273162842e-01
9.081415086984634399e-02
-1.499084234237670898e-01
1.533432751893997192e-01
-2.222542278468608856e-02
-1.917258352041244507e-01
7.891111075878143311e-02
1.443472504615783691e-01
-1.139239668846130371e-01
-1.580873578786849976e-01
1.250123977661132812e-02
-7.123152911663055420e-02
6.239899992942810059e-02
-1.669734343886375427e-02
-1.606328636407852173e-01
-1.818331331014633179e-01
8.825457096099853516e-02
2.983480133116245270e-02
3.586332127451896667e-02
1.814304739236831665e-01
-1.776738278567790985e-02
1.785065233707427979e-02
-1.056658476591110229e-01
1.837063729763031006e-01
-7.761736214160919189e-02
1.190434694290161133e-01
2.301445929333567619e-03
2.555062994360923767e-02
-8.467765152454376221e-02
-1.753438264131546021e-01
-5.674828961491584778e-02
1.631975024938583374e-01
1.773193776607513428e-01
-5.072097852826118469e-02
1.150563359260559082e-01
5.644878000020980835e-02
-3.904046490788459778e-03
7.175642997026443481e-02
1.136435009539127350e-02
1.491514146327972412e-01
-1.090156137943267822e-01
-5.473877862095832825e-02
-1.486695408821105957e-01
-1.732406318187713623e-01
1.731573045253753662e-01
1.086684688925743103e-01
-5.810252949595451355e-02
-1.285689473152160645e-01
4.528665915131568909e-02
-1.692316532135009766e-01
-7.203379273414611816e-02
2.090285718441009521e-02
-3.558626398444175720e-02
3.756491467356681824e-02
-5.438176169991493225e-02
1.591778695583343506e-01
1.693999320268630981e-01
-8.159441500902175903e-02
-7.591716945171356201e-02
-1.831307262182235718e-01
1.102471202611923218e-01
5.735976248979568481e-02
-1.360239237546920776e-01
-5.843299254775047302e-02
-1.789531856775283813e-01
-1.888983249664306641e-01
-7.760112732648849487e-02
-1.035731881856918335e-01
1.088986694812774658e-01
-3.621545433998107910e-02
1.399582624435424805e-01
1.371327042579650879e-01
1.814361810684204102e-01
-2.305070683360099792e-02
1.696786284446716309e-01
-1.510164588689804077e-01
2.939083985984325409e-02
8.976749330759048462e-02
-7.235578447580337524e-02
-5.557375773787498474e-02
-1.099072992801666260e-01
-7.307423651218414307e-02
-9.084373712539672852e-03
-1.272293627262115479e-01
3.100284375250339508e-02
-1.523349881172180176e-01
1.109786331653594971e-02
7.198321167379617691e-03
6.272950023412704468e-02
-7.565285265445709229e-02
1.465907394886016846e-01
7.924001663923263550e-02
1.632339954376220703e-01
1.180726289749145508e-01
1.457620263099670410e-01
3.659816086292266846e-02
5.562573671340942383e-02
-1.459179222583770752e-01
5.981646478176116943e-02
-4.657251015305519104e-02
-9.256073832511901855e-02
9.272283315658569336e-02
1.427663862705230713e-01
4.183003306388854980e-02
1.513731181621551514e-01
1.731842756271362305e-01
1.781041175127029419e-02
-6.040550768375396729e-02
-1.504448205232620239e-01
-1.728262305259704590e-01
5.691852420568466187e-02
-3.613151982426643372e-02
1.931347846984863281e-01
8.091460168361663818e-02
1.060539484024047852e-01
-3.891583904623985291e-02
4.721424728631973267e-02
-1.688246428966522217e-01
-4.389458522200584412e-02
6.994357705116271973e-02
5.325077474117279053e-02
1.508077383041381836e-01
-8.390153944492340088e-02
-1.270411759614944458e-01
-8.403483033180236816e-02
1.009123921394348145e-01
-2.277094684541225433e-02
1.111330017447471619e-01
-5.747173726558685303e-02
-7.946501672267913818e-02
-1.297989338636398315e-01
1.313381791114807129e-01
1.026657223701477051e-01
1.786484420299530029e-01
-5.588484182953834534e-02
-1.628004014492034912e-02
-8.794470876455307007e-02
1.419792473316192627e-01
-1.789233386516571045e-01
5.861480161547660828e-02
1.831828057765960693e-02
5.139900743961334229e-02
-3.502417355775833130e-02
-2.076169848442077637e-02
-1.282048374414443970e-01
1.842746734619140625e-01
-3.571096062660217285e-02
1.899149715900421143e-01
1.036665216088294983e-01
1.065788045525550842e-01
1.242049336433410645e-01
-1.816110312938690186e-01
1.001727581024169922e-01
7.398116588592529297e-02
-1.045756787061691284e-01
8.650927990674972534e-02
7.557559013366699219e-02
-1.287923753261566162e-01
1.662427783012390137e-01
-1.193937733769416809e-01
-1.359556913375854492e-01
-1.390283405780792236e-01
1.291088461875915527e-01
-5.623766779899597168e-02
-4.348079115152359009e-02
1.091679465025663376e-02
5.170851200819015503e-02
1.435131300240755081e-02
1.493889987468719482e-01
-1.228338479995727539e-01
-9.189303219318389893e-02
-9.274573624134063721e-02
8.327642083168029785e-02
1.787176132202148438e-01
3.973959013819694519e-02
1.606669649481773376e-02
-4.273682832717895508e-02
-2.792225405573844910e-02
-1.558471918106079102e-01
1.683846712112426758e-01
7.818278670310974121e-02
-7.668957859277725220e-02
1.275068819522857666e-01
6.485289335250854492e-02
-8.247097581624984741e-02
1.827921159565448761e-02
-1.909896135330200195e-01
-8.465147018432617188e-02
-1.687154471874237061e-01
1.586211919784545898e-01
-6.795507669448852539e-02
-1.334054172039031982e-01
-1.359525918960571289e-01
-1.357559561729431152e-01
4.359823092818260193e-02
9.876739978790283203e-02
1.124585568904876709e-01
-1.591172516345977783e-01
-1.335248202085494995e-01
-4.919978231191635132e-02
-1.763446778059005737e-01
1.303064078092575073e-01
6.616771221160888672e-03
-1.284481491893529892e-03
-4.952359199523925781e-02
4.557122942060232162e-03
1.350838840007781982e-01
-8.874721825122833252e-03
1.294362246990203857e-01
3.669634088873863220e-02
-3.664039075374603271e-02
-9.553380310535430908e-03
-7.094571739435195923e-02
1.889832317829132080e-01
5.025723576545715332e-02
-1.550312270410358906e-03
-9.840954095125198364e-02
-6.169670820236206055e-02
-2.325247228145599365e-02
1.210051551461219788e-01
-1.224619448184967041e-01
1.830841600894927979e-01
2.608708664774894714e-02
-3.930415213108062744e-02
-1.880340278148651123e-01
-1.371433138847351074e-01
-1.296574920415878296e-01
-1.908268630504608154e-01
1.646639108657836914e-01
5.680348351597785950e-02
7.643577456474304199e-02
-9.254521876573562622e-02
-3.077984554693102837e-03
1.362559795379638672e-01
-1.519190371036529541e-01
1.094273030757904053e-01
-1.775627732276916504e-01
8.496935665607452393e-02
-1.868154704570770264e-01
7.250462472438812256e-02
1.474719196557998657e-01
-1.866116374731063843e-01
-5.206252261996269226e-02
1.031048446893692017e-01
-1.892793178558349609e-02
1.551885902881622314e-01
1.833052635192871094e-01
7.337787747383117676e-02
2.276415005326271057e-02
9.594643115997314453e-02
-4.405418038368225098e-02
1.814507246017456055e-01
1.834088861942291260e-01
-8.801968395709991455e-02
-3.410224616527557373e-02
1.331045478582382202e-02
-5.221208930015563965e-02
5.193511024117469788e-02
4.181205853819847107e-02
8.711320161819458008e-02
9.202240407466888428e-02
-6.150122731924057007e-02
6.679652631282806396e-02
7.921685278415679932e-02
-1.822245866060256958e-01
1.356357038021087646e-01
8.547065407037734985e-02
1.159042865037918091e-01
-1.222787350416183472e-01
1.379602998495101929e-01
1.704991310834884644e-01
-9.171798080205917358e-02
7.196120917797088623e-02
4.715697839856147766e-02
1.044830456376075745e-01
1.994972117245197296e-02
-8.370860666036605835e-02
9.234729409217834473e-02
-6.670489162206649780e-02
-1.667329221963882446e-01
-1.467535970732569695e-03
-2.399519085884094238e-02
1.078924313187599182e-01
1.726676225662231445e-01
-4.028742015361785889e-02
1.498611569404602051e-01
-5.499056074768304825e-03
2.798309177160263062e-02
-1.472595632076263428e-01
-1.090754866600036621e-01
3.481744229793548584e-02
-1.892061531543731689e-01
-1.092241927981376648e-01
-3.002655133605003357e-02
-1.925887465476989746e-01
-9.704911708831787109e-02
8.400032296776771545e-03
-9.264987707138061523e-02
1.564970314502716064e-01
1.822790801525115967e-01
-1.195450872182846069e-01
-2.540167607367038727e-02
3.605631366372108459e-02
-1.007727533578872681e-01
-1.767327189445495605e-01
3.102101385593414307e-02
7.280826568603515625e-03
1.545143499970436096e-02
-9.696734696626663208e-02
-3.007122687995433807e-02
-9.537215344607830048e-03
-1.330302506685256958e-01
1.798245683312416077e-02
6.090848892927169800e-02
2.655064919963479042e-03
1.255954802036285400e-01
1.347596645355224609e-01
1.434575021266937256e-01
1.714563369750976562e-01
-1.647655963897705078e-01
-3.150157257914543152e-02
-5.568473041057586670e-02
1.707762181758880615e-01
1.167117059230804443e-01
7.760046422481536865e-02
1.893012523651123047e-01
-1.132908314466476440e-01
-1.935736984014511108e-01
1.527737379074096680e-01
6.560661643743515015e-02
-9.885876625776290894e-02
1.227065026760101318e-01
3.331911936402320862e-02
1.247934848070144653e-01
1.679928749799728394e-01
1.486698985099792480e-01
-1.476230323314666748e-01
-8.771875500679016113e-02
-1.802977323532104492e-01
1.183098182082176208e-01
-1.738827973604202271e-01
5.732250213623046875e-02
1.220402494072914124e-01
-1.476370543241500854e-01
-6.529027223587036133e-02
-1.513196378946304321e-01
1.552086621522903442e-01
-1.165203750133514404e-01
-3.368722274899482727e-02
1.393639594316482544e-01
1.495256870985031128e-01
-7.428180426359176636e-02
-1.444687098264694214e-01
6.191944703459739685e-02
-8.962734788656234741e-02
-8.790775388479232788e-02
-1.834556013345718384e-01
1.082893460988998413e-01
1.058798935264348984e-02
-6.758642382919788361e-03
-1.115478128194808960e-01
-1.674167513847351074e-01
-6.867008656263351440e-02
1.936660557985305786e-01
-3.857472911477088928e-02
7.264178711920976639e-03
-1.188139542937278748e-01
-1.753489822149276733e-01
1.389021724462509155e-01
1.026574447751045227e-01
1.548456400632858276e-01
1.685043573379516602e-01
-1.071711257100105286e-01
-3.108509071171283722e-02
3.130336478352546692e-02
-1.674481779336929321e-01
2.492343075573444366e-02
1.034002006053924561e-01
-1.356469541788101196e-01
8.705258369445800781e-04
5.065564066171646118e-02
7.053133845329284668e-02
1.613406389951705933e-01
1.554345488548278809e-01
1.502213478088378906e-01
3.859115019440650940e-02
1.066895052790641785e-01
1.084386482834815979e-01
-7.556271273642778397e-03
6.100431084632873535e-02
1.891488432884216309e-01
-1.513469219207763672e-01
3.526680544018745422e-02
1.354214828461408615e-02
-9.775086492300033569e-02
-1.656055897474288940e-01
-7.174942642450332642e-02
-1.516479104757308960e-01
-8.600681275129318237e-02
-4.187421407550573349e-03
-1.683103442192077637e-01
-6.597470492124557495e-02
1.051018610596656799e-01
1.011401414871215820e-01
1.855769380927085876e-02
3.024530224502086639e-02
-1.917122602462768555e-01
-1.611108332872390747e-01
-4.035268723964691162e-02
1.139524877071380615e-01
-9.525159746408462524e-02
-1.495135277509689331e-01
-1.146245673298835754e-01
-6.516518443822860718e-02
1.116094216704368591e-01
8.701073378324508667e-02
-1.743757128715515137e-01
1.285472959280014038e-01
-8.281480520963668823e-02
-8.298974484205245972e-02
9.403696656227111816e-02
-6.472177803516387939e-02
-3.756881132721900940e-02
-7.791213691234588623e-02
1.524913609027862549e-01
6.638179067522287369e-03
-9.583414532244205475e-03
6.055153440684080124e-03
9.531948715448379517e-02
-3.218473866581916809e-02
-2.445182763040065765e-02
1.726448237895965576e-01
1.715895980596542358e-01
-6.567171774804592133e-03
-1.009794622659683228e-01
-2.958870865404605865e-02
-1.770654618740081787e-01
-1.928137093782424927e-01
9.943186491727828979e-02
-4.900538921356201172e-02
3.271271288394927979e-02
-4.814887419342994690e-02
1.042608544230461121e-01
-7.403635233640670776e-02
8.844530582427978516e-02
-1.278953254222869873e-01
1.166155710816383362e-01
1.884612292051315308e-01
-4.707927629351615906e-02
-1.024764329195022583e-01
5.844030156731605530e-02
-1.903907060623168945e-01
1.553782224655151367e-01
4.668477922677993774e-02
1.861783862113952637e-01
-6.416355818510055542e-02
8.403782546520233154e-02
5.720041692256927490e-02
-9.097796678543090820e-02
-1.245977506041526794e-01
-1.955541223287582397e-02
1.642480790615081787e-01
1.877359002828598022e-01
-4.538476094603538513e-02
4.922197759151458740e-02
1.558649837970733643e-01
9.289771318435668945e-02
1.071724519133567810e-01
-3.856020793318748474e-02
-1.367659270763397217e-01
1.889082640409469604e-01
-1.474659740924835205e-01
4.468786716461181641e-02
1.629889756441116333e-01
1.723746061325073242e-01
-1.596362590789794922e-01
-1.370734125375747681e-01
-1.868572682142257690e-01
3.453361615538597107e-02
-1.652167886495590210e-01
1.051431298255920410e-01
-1.091035008430480957e-01
-3.293526172637939453e-02
1.260037571191787720e-01
1.020370721817016602e-01
-1.636894643306732178e-01
6.638649851083755493e-02
-1.423630118370056152e-01
-1.479560434818267822e-01
-1.074632704257965088e-01
1.207721978425979614e-01
-5.330519378185272217e-02
1.286623775959014893e-01
1.208613589406013489e-01
3.752517327666282654e-02
-1.907312683761119843e-02
-8.302630484104156494e-02
1.361591219902038574e-01
7.639889419078826904e-02
-6.375718116760253906e-02
1.645150482654571533e-01
-1.353535205125808716e-01
1.203876286745071411e-01
1.725285127758979797e-02
4.243232309818267822e-02
-2.116197138093411922e-04
5.334347486495971680e-02
-1.887777745723724365e-01
4.832780361175537109e-02
1.898868978023529053e-01
1.457265019416809082e-01
1.714718639850616455e-01
-1.694020628929138184e-02
-1.742822825908660889e-01
-2.006705105304718018e-02
-1.093159317970275879e-01
-5.097132921218872070e-02
4.613433778285980225e-02
2.881683036684989929e-02
-1.922940462827682495e-01
-1.023916676640510559e-01
-1.166665554046630859e-01
-6.138436496257781982e-02
7.321702688932418823e-02
-1.334380656480789185e-01
1.268817186355590820e-01
-9.504162706434726715e-03
1.241571307182312012e-01
1.698822306934744120e-04
1.220780014991760254e-01
2.957977727055549622e-02
-1.081026867032051086e-01
1.659190356731414795e-01
2.124974690377712250e-02
-1.757686287164688110e-01
-1.248040348291397095e-01
1.803788542747497559e-01
2.532586455345153809e-03
7.755604386329650879e-02
-6.197598576545715332e-02
-8.159518986940383911e-02
1.482501029968261719e-01
-7.265463471412658691e-02
1.358326971530914307e-01
-9.193915128707885742e-02
3.920736908912658691e-02
1.076967418193817139e-01
8.403354883193969727e-02
9.638674557209014893e-03
-5.425490811467170715e-02
1.648091375827789307e-01
8.447414636611938477e-02
-5.181087553501129150e-02
-9.782849997282028198e-02
1.225389540195465088e-01
-1.297718882560729980e-01
5.293185636401176453e-02
4.232049360871315002e-02
-1.047183796763420105e-01
9.935772418975830078e-02
1.228474974632263184e-01
1.894237697124481201e-01
3.875763714313507080e-02
-7.536326348781585693e-02
1.362249851226806641e-01
6.935454905033111572e-02
1.778423786163330078e-01
1.896956861019134521e-01
-1.549467910081148148e-03
1.337684039026498795e-02
1.357071995735168457e-01
-1.094861701130867004e-01
-2.316802181303501129e-02
-1.888838708400726318e-01
1.136908829212188721e-01
1.788648366928100586e-01
-1.269983798265457153e-01
-4.555597901344299316e-03
8.750492334365844727e-02
1.760560274124145508e-01
2.061933279037475586e-02
-1.427282989025115967e-01
8.513048291206359863e-02
6.446278095245361328e-02
-8.311587572097778320e-02
-7.694932818412780762e-02
1.465030014514923096e-01
-1.539048622362315655e-03
3.306187689304351807e-02
-3.347820416092872620e-02
-1.188381388783454895e-01
-1.693319827318191528e-01
-6.568446755409240723e-02
1.263356022536754608e-02
-5.241279304027557373e-02
-1.408155411481857300e-01
1.258034110069274902e-01
1.854955255985260010e-01
1.421734690666198730e-01
8.730819821357727051e-02
8.319059014320373535e-02
-7.572933286428451538e-02
1.342317163944244385e-01
1.257598400115966797e-02
4.694418609142303467e-02
3.463557362556457520e-02
-2.061973139643669128e-02
3.053709864616394043e-02
-4.138690233230590820e-02
5.873590707778930664e-02
1.766064167022705078e-01
-2.942110411822795868e-02
4.000420868396759033e-02
4.548109136521816254e-03
7.705280184745788574e-02
9.180915355682373047e-02
1.135420203208923340e-01
1.123533844947814941e-01
6.581321358680725098e-02
7.780909538269042969e-02
-1.345103085041046143e-01
1.561557352542877197e-01
1.281667053699493408e-01
2.276758663356304169e-02
1.387003362178802490e-01
-1.644790619611740112e-01
9.823317639529705048e-03
-1.488784104585647583e-01
1.639331877231597900e-01
1.283286232501268387e-02
-9.157747961580753326e-03
7.408168911933898926e-02
6.669489084742963314e-04
-1.213095784187316895e-01
-4.526427015662193298e-02
-1.657701879739761353e-01
-1.726129800081253052e-01
4.750150442123413086e-02
-9.853691607713699341e-02
1.176898479461669922e-01
-1.730209290981292725e-01
-1.734855920076370239e-01
1.218585893511772156e-01
1.389363855123519897e-01
-9.231755137443542480e-02
7.536433637142181396e-02
-3.176512941718101501e-02
7.760787010192871094e-02
4.192188382148742676e-02
-7.635929435491561890e-02
4.136601835489273071e-02
-1.343099474906921387e-01
-1.624273508787155151e-01
1.075202003121376038e-01
-1.904846169054508209e-02
6.749732792377471924e-02
1.647406518459320068e-01
-1.165079623460769653e-01
-6.850042194128036499e-02
1.590465940535068512e-02
1.020167022943496704e-01
4.436904564499855042e-02
-5.488945543766021729e-02
-3.884231671690940857e-02
1.613246351480484009e-01
-1.428005099296569824e-01
-9.300631284713745117e-02
-1.644057035446166992e-01
-1.417819559574127197e-01
3.003345243632793427e-02
1.138133853673934937e-01
1.661621928215026855e-01
2.871436625719070435e-02
6.182916462421417236e-02
-1.887216866016387939e-01
1.562264859676361084e-01
1.082945838570594788e-01
-5.298581719398498535e-02
5.905704200267791748e-02
4.668794572353363037e-02
6.982287764549255371e-02
-8.073222637176513672e-02
1.243702769279479980e-01
-4.876562207937240601e-02
1.737259179353713989e-01
-1.432457566261291504e-01
2.425204776227474213e-02
1.557451188564300537e-01
7.062283903360366821e-02
-1.803996562957763672e-01
1.545594781637191772e-01
-1.847572028636932373e-01
4.944213107228279114e-02
-5.438980087637901306e-02
2.135974587872624397e-03
-1.505141146481037140e-02
1.431162655353546143e-02
-1.230839267373085022e-01
8.576788753271102905e-02
-1.142981946468353271e-01
1.578587293624877930e-01
-1.873594671487808228e-01
-8.254296332597732544e-02
3.819872811436653137e-02
1.104059368371963501e-01
5.818301439285278320e-02
1.373658925294876099e-01
-6.285095959901809692e-02
-1.385788321495056152e-01
-2.385475207120180130e-03
-1.663424968719482422e-01
-3.603552654385566711e-02
4.094294458627700806e-02
1.403535902500152588e-01
2.036436833441257477e-02
-3.387256339192390442e-02
-1.749022752046585083e-01
-6.093856692314147949e-02
1.188785955309867859e-01
1.500259786844253540e-01
6.065176799893379211e-02
5.807225406169891357e-02
1.214654743671417236e-01
1.555270552635192871e-01
-3.812308236956596375e-02
-1.380428373813629150e-01
-6.080779060721397400e-02
-1.867613047361373901e-01
-6.584537774324417114e-02
-1.281196326017379761e-01
3.628034843131899834e-03
5.927938222885131836e-02
-1.776567101478576660e-01
-1.742579229176044464e-02
1.505555957555770874e-01
6.093311309814453125e-02
-3.851047903299331665e-02
-2.037155255675315857e-02
-1.762095391750335693e-01
9.486267715692520142e-02
2.534095384180545807e-02
-7.606896758079528809e-02
1.415431499481201172e-01
1.669085472822189331e-01
5.394495278596878052e-02
-7.394807040691375732e-02
1.474654525518417358e-01
-1.640416681766510010e-01
1.017689630389213562e-01
1.908100843429565430e-01
2.744505472946912050e-04
-1.527832299470901489e-01
1.857970952987670898e-01
-1.349912434816360474e-01
-1.776833832263946533e-01
1.631431840360164642e-02
-6.777548789978027344e-02
-1.205069795250892639e-01
1.891018301248550415e-01
-7.975863665342330933e-02
-3.903461992740631104e-02
-4.318745806813240051e-03
-1.031961143016815186e-01
-3.816154599189758301e-02
-1.652660667896270752e-01
-1.342498660087585449e-01
-8.711519837379455566e-02
9.106960892677307129e-02
-1.784676015377044678e-01
1.715288162231445312e-01
-1.592802703380584717e-01
1.563593447208404541e-01
-2.241198346018791199e-02
1.872319541871547699e-02
1.923961490392684937e-01
-4.839082807302474976e-02
1.485373675823211670e-01
-1.561158001422882080e-01
-1.204117387533187866e-01
8.369742333889007568e-02
-1.400720030069351196e-01
-1.609463542699813843e-01
1.109694316983222961e-01
6.826853007078170776e-02
-5.648650601506233215e-02
-5.936898291110992432e-02
-5.915975570678710938e-02
-1.238886937499046326e-01
1.635143458843231201e-01
1.454098820686340332e-01
-3.273038566112518311e-02
8.148016780614852905e-02
1.312099583446979523e-02
-1.669322848320007324e-01
1.834957003593444824e-01
1.587110608816146851e-01
1.441773027181625366e-03
1.276097893714904785e-01
-1.847275942564010620e-01
1.792519986629486084e-01
2.674889937043190002e-02
1.517325341701507568e-01
-9.087032824754714966e-02
-1.671338081359863281e-01
6.764759868383407593e-02
7.569073140621185303e-02
-2.530243247747421265e-02
8.938279002904891968e-02
-1.800639778375625610e-01
2.416205406188964844e-02
-1.412964612245559692e-02
-1.703210771083831787e-01
-3.216805309057235718e-02
-7.259818166494369507e-02
-1.336078345775604248e-01
1.452979743480682373e-01
2.817865274846553802e-02
1.907250881195068359e-01
-1.774176508188247681e-01
1.863711178302764893e-01
1.001856401562690735e-01
-2.293275855481624603e-02
5.698054563254117966e-03
-7.564891874790191650e-02
-6.874329596757888794e-02
9.018272906541824341e-02
1.111347526311874390e-01
-1.874309629201889038e-01
-2.681463956832885742e-02
1.254559308290481567e-01
-1.203780695796012878e-01
-1.059888973832130432e-01
-1.284231096506118774e-01
-1.613920331001281738e-01
-1.630611717700958252e-01
7.508415728807449341e-02
-1.260099560022354126e-01
-5.840227380394935608e-02
4.148066788911819458e-02
1.386521160602569580e-01
-1.494407802820205688e-01
-1.750249415636062622e-01
-7.007275521755218506e-02
-1.735162287950515747e-01
-1.683428287506103516e-01
-1.194730550050735474e-01
2.078644931316375732e-02
8.347519487142562866e-02
-2.175631746649742126e-02
8.227967470884323120e-02
-1.321605145931243896e-01
-3.383681178092956543e-02
-2.389314817264676094e-03
7.994303852319717407e-02
-1.362007409334182739e-01
1.306159943342208862e-01
-1.559512317180633545e-01
3.971309401094913483e-03
4.896449297666549683e-02
1.327397078275680542e-01
-9.559920430183410645e-02
-2.507630363106727600e-02
-8.788623660802841187e-02
2.693052217364311218e-02
-1.244258582592010498e-01
-1.431729644536972046e-01
-2.208999730646610260e-02
1.637916564941406250e-01
1.508512794971466064e-01
9.608864039182662964e-02
-2.354002743959426880e-02
7.411254942417144775e-02
1.521251201629638672e-01
9.418331831693649292e-02
-2.379767782986164093e-02
-1.259163022041320801e-01
-1.393110156059265137e-01
-1.576057635247707367e-02
2.775852382183074951e-02
3.226958960294723511e-02
-1.391613483428955078e-01
1.771111190319061279e-01
1.494692265987396240e-01
1.748960763216018677e-01
9.266165643930435181e-02
-1.577067524194717407e-01
-7.906573265790939331e-02
-1.275048851966857910e-01
4.904775321483612061e-02
-6.984221935272216797e-02
-1.100813001394271851e-01
-1.609751135110855103e-01
-4.876775667071342468e-02
-1.218554154038429260e-01
6.502405554056167603e-02
-1.575612127780914307e-01
-2.652001939713954926e-02
1.443891227245330811e-01
-4.945546854287385941e-03
-1.084728389978408813e-01
-1.529845129698514938e-02
-1.037876401096582413e-02
1.577413678169250488e-01
-1.391435563564300537e-01
1.410353034734725952e-01
3.788352012634277344e-02
-8.520177751779556274e-02
1.853947341442108154e-01
5.126233026385307312e-02
-1.936164051294326782e-01
-9.854397177696228027e-02
1.746972948312759399e-01
1.250824630260467529e-01
1.131725087761878967e-01
1.236241385340690613e-01
1.653811335563659668e-01
-3.425813093781471252e-02
-4.069970175623893738e-02
1.379745304584503174e-01
-1.220758259296417236e-01
1.375458240509033203e-01
-2.243633568286895752e-02
-1.176642104983329773e-01
-3.734574094414710999e-02
-1.938878931105136871e-02
7.128883153200149536e-02
1.353093534708023071e-01
-2.974436804652214050e-02
1.292980313301086426e-01
1.936365813016891479e-01
-1.706054359674453735e-01
1.056229546666145325e-01
7.059113704599440098e-04
4.887140356004238129e-03
1.580289972480386496e-04
6.937400251626968384e-02
7.500075548887252808e-02
1.320962607860565186e-01
9.196478128433227539e-02
-2.610145136713981628e-02
-8.238180726766586304e-02
1.736571490764617920e-01
1.400186866521835327e-02
1.458248794078826904e-01
-1.460050493478775024e-01
9.443864226341247559e-02
1.149147376418113708e-01
1.277308352291584015e-02
-1.183203160762786865e-01
-1.818515211343765259e-01
4.741533845663070679e-02
1.316152513027191162e-01
-1.004195213317871094e-01
2.003677003085613251e-02
3.380374982953071594e-02
-1.452890485525131226e-01
1.023951321840286255e-01
1.496351808309555054e-01
-8.443567156791687012e-02
7.115772366523742676e-02
-3.657505661249160767e-02
-1.720323115587234497e-01
-9.472482651472091675e-02
6.301885843276977539e-02
-4.808499291539192200e-02
-1.115568652749061584e-01
1.461781859397888184e-01
1.265111118555068970e-01
-2.358056232333183289e-02
-1.743761748075485229e-01
-1.486818939447402954e-01
-7.282170653343200684e-02
-4.765357822179794312e-02
-3.131353482604026794e-02
-8.474518358707427979e-02
7.763986289501190186e-02
4.315308853983879089e-02
-1.443834453821182251e-01
1.106373071670532227e-01
8.711483329534530640e-02
-6.657148897647857666e-02
-1.553474068641662598e-01
-3.503121063113212585e-02
1.278190761804580688e-01
2.078867331147193909e-02
1.550894081592559814e-01
7.477562129497528076e-02
-3.674946725368499756e-02
-1.155947055667638779e-02
-1.212679743766784668e-01
2.523923292756080627e-02
1.029043495655059814e-01
-1.821569204330444336e-01
1.734431982040405273e-01
1.338812857866287231e-01
1.228070557117462158e-01
1.343979090452194214e-01
-8.280670642852783203e-02
-2.030616067349910736e-02
-8.351612091064453125e-02
-1.674161553382873535e-01
4.433361347764730453e-03
2.263356186449527740e-02
-1.819116622209548950e-01
6.750838458538055420e-02
-2.922085300087928772e-02
-4.355116107035428286e-04
3.449968993663787842e-02
-1.201954111456871033e-01
-1.897549033164978027e-01
-3.173961304128170013e-03
1.588766425848007202e-01
-1.276662796735763550e-01
1.449418365955352783e-01
1.745789796113967896e-01
-6.353853270411491394e-03
1.075099594891071320e-02
-9.326851367950439453e-02
-4.522432386875152588e-02
9.862592816352844238e-02
1.786479055881500244e-01
-8.678954094648361206e-02
2.117480896413326263e-02
9.091387689113616943e-02
-1.802052855491638184e-01
-3.186283633112907410e-02
5.801392719149589539e-02
-1.052549574524164200e-02
1.583205163478851318e-02
-1.926222443580627441e-02
1.810863912105560303e-01
-1.712197661399841309e-01
3.477586060762405396e-02
-1.387275755405426025e-01
-3.633946180343627930e-02
-1.499198675155639648e-01
-5.590067710727453232e-03
3.653550148010253906e-02
3.968545794486999512e-02
4.750327393412590027e-02
1.608484089374542236e-01
1.671914756298065186e-01
-3.768924623727798462e-02
8.826381713151931763e-02
-4.855899885296821594e-02
-1.549452692270278931e-01
-1.323139220476150513e-01
1.006578654050827026e-01
1.687568798661231995e-02
1.879297196865081787e-01
-2.742987498641014099e-02
9.655549377202987671e-02
1.393102109432220459e-02
3.216106444597244263e-02
4.872421547770500183e-02
-1.979372836649417877e-02
-1.046901270747184753e-01
-7.925172150135040283e-02
-3.743007779121398926e-03
-1.225922778248786926e-01
1.533301174640655518e-01
4.478663578629493713e-02
8.488523960113525391e-02
4.604430124163627625e-02
7.236704230308532715e-02
-1.774375140666961670e-01
1.061260998249053955e-01
2.621239423751831055e-02
-1.437321454286575317e-01
9.577584266662597656e-02
6.060802191495895386e-02
-8.263200521469116211e-02
-1.875381767749786377e-01
-7.519135624170303345e-02
1.509806513786315918e-01
-1.039586588740348816e-01
1.334728300571441650e-01
2.594322897493839264e-02
1.186685860157012939e-01
1.057445406913757324e-01
-1.006635501980781555e-01
6.575299799442291260e-02
-4.044345393776893616e-02
8.270666003227233887e-02
-1.732866019010543823e-01
-1.698824763298034668e-01
-9.955330193042755127e-02
1.446219980716705322e-01
-1.236144378781318665e-01
7.417750358581542969e-02
7.171928882598876953e-02
2.162282168865203857e-02
-1.567476391792297363e-01
1.409274041652679443e-01
1.858571469783782959e-01
9.249441325664520264e-02
-7.818533480167388916e-02
-3.117212792858481407e-03
3.608862310647964478e-02
-1.201415359973907471e-01
1.881893873214721680e-01
-1.424448639154434204e-01
2.616727352142333984e-02
1.262339204549789429e-01
1.312044411897659302e-01
1.313325762748718262e-02
2.826818823814392090e-02
1.044318974018096924e-01
-6.527977436780929565e-02
1.842329502105712891e-01
1.644283235073089600e-01
7.913196086883544922e-02
-1.147055067121982574e-02
5.637357011437416077e-02
-1.083363294601440430e-01
-3.390396386384963989e-02
1.487578749656677246e-01
1.619137823581695557e-01
1.015514135360717773e-01
1.723228543996810913e-01
-1.606823503971099854e-01
7.384023070335388184e-02
6.247749179601669312e-02
9.594041854143142700e-03
9.201501496136188507e-03
4.381116852164268494e-02
-5.784173309803009033e-02
-3.812419623136520386e-02
-5.204136669635772705e-02
-1.826443672180175781e-01
1.757262274622917175e-03
-1.017468646168708801e-01
1.849518902599811554e-02
-6.363971042446792126e-04
-2.435222995700314641e-04
-7.816175371408462524e-02
1.925730854272842407e-01
1.863123923540115356e-01
-1.495426427572965622e-02
-1.627097837626934052e-02
1.258350759744644165e-01
1.367560923099517822e-01
7.914242148399353027e-02
-1.571266502141952515e-01
-1.097268983721733093e-01
4.049654677510261536e-02
-5.063798278570175171e-02
-1.902697980403900146e-01
1.704371124505996704e-01
-1.862344294786453247e-01
-1.177517175674438477e-01
-1.661381274461746216e-01
6.296554207801818848e-02
1.717655956745147705e-01
6.079074740409851074e-02
-1.137834321707487106e-02
-1.602923572063446045e-01
1.122773904353380203e-02
-9.345541149377822876e-02
-1.714683473110198975e-01
-5.035373568534851074e-02
1.849494874477386475e-01
1.115676239132881165e-01
1.363696902990341187e-01
1.425246000289916992e-01
-1.198555994778871536e-02
-1.645993888378143311e-01
7.229264080524444580e-02
-7.290975749492645264e-02
-4.504459351301193237e-02
-7.938676327466964722e-02
-1.302460134029388428e-01
7.367586344480514526e-02
-1.301864385604858398e-01
1.447477638721466064e-01
-8.171489089727401733e-02
-1.029272377490997314e-01
-8.029033988714218140e-02
-1.747760623693466187e-01
1.827469468116760254e-02
-7.938241958618164062e-02
-4.720893129706382751e-02
-2.888593450188636780e-02
6.337986141443252563e-02
1.567144691944122314e-01
4.811574146151542664e-02
1.495767831802368164e-01
-1.654105037450790405e-01
1.476714611053466797e-01
1.885115951299667358e-01
1.412294358015060425e-01
5.649720504879951477e-02
1.338735520839691162e-01
-6.240389123558998108e-02
-1.669663488864898682e-01
-4.365030676126480103e-02
1.695836335420608521e-01
-1.563664376735687256e-01
1.046935468912124634e-02
-2.953317202627658844e-02
9.843885898590087891e-02
9.292493015527725220e-02
-1.814532279968261719e-01
8.124551922082901001e-02
-1.773596704006195068e-01
1.727204024791717529e-01
-1.878578364849090576e-01
-1.416068971157073975e-01
-1.432907156413421035e-04
-1.240350678563117981e-01
-9.196017682552337646e-02
7.541489601135253906e-02
1.882983446121215820e-01
1.054097190499305725e-01
-4.061738029122352600e-02
9.395941346883773804e-02
-1.897834688425064087e-01
1.043937504291534424e-01
-5.474031344056129456e-02
-1.876722425222396851e-01
1.337997168302536011e-01
-1.684967577457427979e-01
-1.628034412860870361e-01
4.006243124604225159e-02
-1.085271313786506653e-01
1.269146353006362915e-01
-1.915617287158966064e-01
1.257304251194000244e-01
-5.525506287813186646e-02
-1.117149367928504944e-01
-2.157591516152024269e-03
5.577616393566131592e-02
6.620658934116363525e-02
-3.256489709019660950e-02
8.935596793889999390e-02
-1.035413146018981934e-01
8.495654910802841187e-02
-1.914698332548141479e-01
1.597779244184494019e-01
1.741469651460647583e-01
-4.105017334222793579e-02
1.884893327951431274e-01
-1.795575618743896484e-01
1.193222180008888245e-01
1.476371437311172485e-01
-1.754077151417732239e-02
1.372686326503753662e-01
-2.887057326734066010e-02
1.199369430541992188e-01
-1.239093616604804993e-01
-1.629749387502670288e-01
-6.730136275291442871e-02
-3.541067987680435181e-02
6.684766709804534912e-02
-2.341886516660451889e-03
1.888523250818252563e-01
1.160452812910079956e-01
4.626270383596420288e-02
4.340864717960357666e-02
-1.527212560176849365e-01
-1.881196498870849609e-01
-9.749168902635574341e-02
-1.188872009515762329e-01
1.784328818321228027e-01
1.701745092868804932e-01
2.921596169471740723e-02
8.602272719144821167e-02
6.973140686750411987e-02
1.408555507659912109e-01
-3.268954157829284668e-02
4.408381879329681396e-02
1.266010552644729614e-01
1.834470927715301514e-01
-1.703879833221435547e-01
1.847703307867050171e-01
1.186024844646453857e-01
1.580279171466827393e-01
1.268300320953130722e-02
-1.657902449369430542e-01
-1.873430758714675903e-01
-2.828466147184371948e-02
-1.309771928936243057e-02
3.897361829876899719e-02
-5.039288476109504700e-02
-1.066448688507080078e-01
1.456834725104272366e-03
-3.439638018608093262e-02
5.597768351435661316e-02
7.768376171588897705e-02
-1.328575313091278076e-01
-4.208922013640403748e-02
4.085486754775047302e-02
1.925669163465499878e-01
-3.937423974275588989e-02
-8.333268761634826660e-02
4.598578810691833496e-02
1.920148134231567383e-01
-5.980897694826126099e-02
-5.741963535547256470e-02
1.551719754934310913e-01
6.302770972251892090e-02
1.277469247579574585e-01
8.097089827060699463e-03
-6.016159802675247192e-02
1.157963350415229797e-01
1.726906895637512207e-01
-1.920503377914428711e-01
4.644683003425598145e-02
-3.162249922752380371e-02
1.737208813428878784e-01
1.812933236360549927e-01
9.956948459148406982e-02
9.300804696977138519e-03
5.801796540617942810e-02
-1.682203114032745361e-01
-4.506338760256767273e-02
4.188857227563858032e-02
-1.873439550399780273e-02
1.439770907163619995e-01
-6.413123011589050293e-02
-1.610429435968399048e-01
1.046837195754051208e-01
-6.365605443716049194e-02
-9.747150540351867676e-02
-1.560753732919692993e-01
1.884299069643020630e-01
-1.917737424373626709e-01
-1.875718086957931519e-01
8.102049678564071655e-02
-3.048595413565635681e-02
1.771054714918136597e-01
-1.562696248292922974e-01
4.811963997781276703e-03
-1.070924922823905945e-01
7.410247623920440674e-02
1.912460476160049438e-02
-1.684439778327941895e-01
1.537568718194961548e-01
9.998594969511032104e-02
-9.998913854360580444e-02
-1.705590449273586273e-02
6.984952092170715332e-02
-2.026515640318393707e-02
-1.894215494394302368e-01
-1.884915828704833984e-01
-1.769078075885772705e-01
1.458500921726226807e-01
8.056788938120007515e-04
1.088206395506858826e-01
2.127293683588504791e-02
1.434265077114105225e-01
8.403196185827255249e-02
-1.221957243978977203e-02
6.187620013952255249e-02
1.466142833232879639e-01
-8.045585453510284424e-02
-1.456399559974670410e-01
-1.855164319276809692e-01
3.231798112392425537e-02
3.168673813343048096e-02
1.801350563764572144e-01
-1.464029252529144287e-01
-5.986959859728813171e-02
-1.234318464994430542e-01
1.615414172410964966e-01
-4.149675741791725159e-02
2.043186686933040619e-02
-1.406540628522634506e-02
-9.919217228889465332e-02
-3.686467930674552917e-02
1.404553204774856567e-01
1.628625094890594482e-01
-4.550011828541755676e-02
8.186065405607223511e-02
-1.482809931039810181e-01
-6.381417810916900635e-02
1.972174085676670074e-02
-1.328416764736175537e-01
-7.008174806833267212e-02
8.980990946292877197e-02
-1.620778441429138184e-01
-1.035546697676181793e-02
5.683579668402671814e-02
1.623912155628204346e-01
-8.651690930128097534e-02
-1.032664254307746887e-01
1.680755168199539185e-01
1.935460418462753296e-01
1.659173369407653809e-01
-1.393292844295501709e-01
1.172904763370752335e-02
6.100177764892578125e-03
5.049113929271697998e-02
-1.699058711528778076e-01
-2.562596276402473450e-02
5.074741318821907043e-02
4.170143976807594299e-02
-9.067982435226440430e-02
-4.280451685190200806e-02
-1.622048318386077881e-01
1.770494580268859863e-01
1.718780375085771084e-03
-1.769202351570129395e-01
-9.748180955648422241e-02
-1.707366555929183960e-01
1.671267449855804443e-01
4.823997151106595993e-03
1.488967537879943848e-01
5.109335482120513916e-02
-1.040042787790298462e-01
-1.791106042219325900e-04
1.588354110717773438e-01
1.360723674297332764e-01
-1.588772535324096680e-01
-4.725332558155059814e-02
-4.055178165435791016e-02
-5.475647374987602234e-02
-8.465423434972763062e-02
1.917286515235900879e-01
3.683974966406822205e-02
-1.004345417022705078e-01
9.856867790222167969e-02
1.342939883470535278e-01
-1.239992305636405945e-01
1.044983640313148499e-01
-2.615763992071151733e-02
-7.850139588117599487e-02
1.136121526360511780e-01
-1.216091439127922058e-01
1.567043960094451904e-01
1.050254851579666138e-01
1.069326419383287430e-02
-3.966817166656255722e-03
-1.447958201169967651e-01
-7.046546041965484619e-02
2.342840842902660370e-02
1.219071149826049805e-01
1.212844103574752808e-01
7.965830713510513306e-02
-1.165771335363388062e-01
-1.878659799695014954e-02
-1.146411597728729248e-01
5.506107211112976074e-02
8.979944512248039246e-03
-1.256517916917800903e-01
-1.293099671602249146e-01
1.001278236508369446e-01
-1.057632490992546082e-01
1.558265984058380127e-01
-2.770601713564246893e-04
1.696625053882598877e-01
-1.335612833499908447e-01
3.897549957036972046e-02
-7.753910869359970093e-02
5.064015090465545654e-02
1.737732440233230591e-01
1.270912587642669678e-01
5.778428167104721069e-02
-1.113890781998634338e-01
1.231121458113193512e-02
9.624667465686798096e-02
1.283819526433944702e-01
1.422737836837768555e-01
-1.032585427165031433e-01
-8.878602832555770874e-02
1.793944090604782104e-01
1.508935242891311646e-01
9.738874435424804688e-02
-3.909695893526077271e-02
1.045490726828575134e-01
9.505590796470642090e-02
-1.250899583101272583e-01
7.499095052480697632e-02
3.068774938583374023e-02
1.826456934213638306e-01
1.132853329181671143e-01
1.763196587562561035e-01
-1.896518170833587646e-01
-3.513177111744880676e-02
-4.837383329868316650e-02
-1.441508298739790916e-03
-1.480611562728881836e-01
1.541227251291275024e-01
1.342577636241912842e-01
1.592357456684112549e-01
6.654621660709381104e-02
-1.743840724229812622e-01
1.548977685160934925e-03
1.668634451925754547e-02
-1.247675567865371704e-01
5.563095211982727051e-02
1.178079284727573395e-03
1.391862183809280396e-01
-1.585683375597000122e-01
-1.596343517303466797e-01
3.576780483126640320e-02
-8.558900095522403717e-03
-1.079551875591278076e-01
1.236683130264282227e-01
1.605749279260635376e-01
1.389329582452774048e-01
-3.310754895210266113e-02
-1.650861054658889771e-01
-1.593621522188186646e-01
1.113290786743164062e-01
3.634178638458251953e-02
1.762012541294097900e-01
-1.220709159970283508e-01
1.066939979791641235e-01
-1.473584026098251343e-01
-3.314161300659179688e-02
1.885651350021362305e-01
-1.748626679182052612e-01
5.742562469094991684e-03
7.750465720891952515e-02
-1.139382943511009216e-01
-9.455470740795135498e-02
-1.726449280977249146e-01
7.483971863985061646e-02
-1.256865262985229492e-01
-1.522949934005737305e-01
-1.107932627201080322e-02
1.725018471479415894e-01
-6.371472030878067017e-02
1.040610391646623611e-02
1.214390397071838379e-01
-1.092440485954284668e-01
1.770985871553421021e-01
-1.688294261693954468e-01
1.847569458186626434e-02
-4.919587075710296631e-02
-1.013086661696434021e-01
1.770750582218170166e-01
-1.803355813026428223e-01
-3.358145430684089661e-02
7.883317768573760986e-02
-1.331911534070968628e-01
1.346741318702697754e-01
5.718619003891944885e-02
1.303041577339172363e-01
1.269480139017105103e-01
1.352773886173963547e-02
-9.733501076698303223e-02
4.608346149325370789e-03
-8.500403910875320435e-02
-2.996870875358581543e-02
-1.265155337750911713e-02
1.241943463683128357e-01
-6.464186590164899826e-03
1.240179985761642456e-01
-5.705524235963821411e-02
1.851132810115814209e-01
1.171777695417404175e-01
-7.258568704128265381e-02
-1.911662966012954712e-01
-9.033782780170440674e-02
8.945842832326889038e-02
-1.093220263719558716e-01
-5.267519503831863403e-02
7.902511954307556152e-02
1.064130943268537521e-02
-1.883602589368820190e-01
-9.562799707055091858e-03
-9.305807948112487793e-02
-4.306666925549507141e-02
-1.316137611865997314e-01
-4.894471541047096252e-02
1.843113265931606293e-02
-1.879470646381378174e-01
4.835704714059829712e-02
-1.602936536073684692e-01
1.877375841140747070e-01
5.718098953366279602e-02
-1.448897719383239746e-01
-1.830476820468902588e-01
-5.162663292139768600e-04
8.679289370775222778e-02
1.370470784604549408e-02
1.695032864809036255e-01
8.837317675352096558e-02
8.435019105672836304e-02
-1.464335620403289795e-01
-1.455907970666885376e-01
1.514117568731307983e-01
-7.043263316154479980e-02
1.497407406568527222e-01
8.632332831621170044e-02
-7.586318999528884888e-02
1.295442581176757812e-01
1.819357126951217651e-01
1.910321563482284546e-01
-5.942775309085845947e-02
9.879481047391891479e-02
2.130900323390960693e-02
8.586329221725463867e-02
-8.049575239419937134e-02
-1.424357146024703979e-01
-8.796065300703048706e-02
6.851644814014434814e-02
-1.147502660751342773e-01
7.967334985733032227e-02
-4.548951983451843262e-03
1.878088414669036865e-01
-1.463944017887115479e-01
-9.227585792541503906e-02
1.992243714630603790e-02
1.165791228413581848e-01
-8.125672489404678345e-02
-1.345782876014709473e-01
-1.184835880994796753e-01
-1.804271191358566284e-01
2.193067967891693115e-02
5.196340382099151611e-02
1.331853866577148438e-01
-6.394169759005308151e-03
9.008283913135528564e-02
1.929160952568054199e-01
1.751924157142639160e-01
3.109292499721050262e-02
6.798265129327774048e-02
6.820216029882431030e-02
-1.054965332150459290e-01
7.678890600800514221e-03
-6.240409240126609802e-02
5.329111963510513306e-02
3.451717644929885864e-02
4.126797989010810852e-02
2.226016670465469360e-02
-8.428161591291427612e-02
-1.601213663816452026e-01
1.194336935877799988e-01
-6.264766305685043335e-02
-1.061584129929542542e-01
5.717644840478897095e-02
1.515159606933593750e-01
1.714152395725250244e-01
-1.154940873384475708e-01
1.007523611187934875e-01
5.305135250091552734e-02
-1.166458204388618469e-01
-1.073587778955698013e-02
1.739263385534286499e-01
-1.697612553834915161e-01
-8.200173825025558472e-02
-1.286429911851882935e-01
1.387316733598709106e-01
-1.090980991721153259e-01
-3.723823651671409607e-02
6.121984124183654785e-02
-1.472387313842773438e-01
-5.355161800980567932e-02
-8.007190376520156860e-02
1.386797279119491577e-01
1.906147003173828125e-01
-1.401371359825134277e-01
-4.145016148686408997e-02
4.027800261974334717e-02
4.562873393297195435e-02
1.207560375332832336e-01
7.819083333015441895e-02
-6.334567070007324219e-02
-1.336349844932556152e-01
-5.684050265699625015e-03
-9.818392805755138397e-03
-7.752437144517898560e-02
-1.568981111049652100e-01
-1.431452929973602295e-01
3.161541000008583069e-02
1.573423147201538086e-01
7.596823573112487793e-02
-1.186576578766107559e-02
1.758874654769897461e-01
1.163165122270584106e-01
6.512783467769622803e-02
1.642949581146240234e-01
9.050942957401275635e-02
1.724495887756347656e-01
1.681220531463623047e-01
1.758786588907241821e-01
1.482838392257690430e-01
1.485178172588348389e-01
5.614547058939933777e-03
4.041191563010215759e-02
1.602239534258842468e-02
9.771495126187801361e-03
3.009745106101036072e-02
8.089450001716613770e-02
-1.134001091122627258e-01
-3.317466750741004944e-02
1.795656979084014893e-01
-4.281575977802276611e-02
1.343789547681808472e-01
-5.509543418884277344e-02
-9.579674154520034790e-02
-9.035747498273849487e-02
-1.341495960950851440e-01
-1.094811186194419861e-01
-1.882413178682327271e-01
1.533811986446380615e-01
3.781970590353012085e-03
9.721278399229049683e-02
-6.739746034145355225e-02
1.834805309772491455e-01
-1.855299770832061768e-01
1.446369141340255737e-01
7.321231812238693237e-02
-4.315334558486938477e-02
1.685201823711395264e-01
1.811417341232299805e-01
-1.532613486051559448e-01
1.648398339748382568e-01
9.085284173488616943e-02
1.011362299323081970e-01
1.616233438253402710e-01
-7.388405501842498779e-02
1.759851276874542236e-01
2.536807022988796234e-02
1.364306211471557617e-01
7.356511056423187256e-02
1.130073964595794678e-01
8.803893812000751495e-03
-7.693078368902206421e-02
-8.700744807720184326e-02
-3.459018468856811523e-02
-7.692635059356689453e-02
-5.033653974533081055e-02
1.322545558214187622e-01
1.359704285860061646e-01
-1.892159283161163330e-01
-5.877807736396789551e-03
-5.221377313137054443e-02
-4.379436373710632324e-02
-6.473541259765625000e-02
-3.621938824653625488e-02
-9.149971604347229004e-02
-6.302319467067718506e-02
1.715440750122070312e-01
-2.762316912412643433e-02
1.575650721788406372e-01
-8.142343908548355103e-02
1.761576384305953979e-01
-1.476527601480484009e-01
-1.498092561960220337e-01
-1.364024579524993896e-01
-5.392464995384216309e-02
4.188917204737663269e-02
1.544715166091918945e-01
1.434647142887115479e-01
-1.295578852295875549e-02
1.288931369781494141e-01
1.751421540975570679e-01
1.567958891391754150e-01
1.650594174861907959e-01
1.567162871360778809e-01
1.821624934673309326e-01
-1.277161836624145508e-01
1.345522254705429077e-01
-1.558106839656829834e-01
-1.168614178895950317e-01
4.148001968860626221e-02
1.032852828502655029e-01
-1.815427690744400024e-01
-1.779453009366989136e-01
-1.183250695466995239e-01
1.624427735805511475e-01
5.553149431943893433e-02
-2.635132987052202225e-03
1.775368899106979370e-01
1.062975451350212097e-01
1.163808479905128479e-01
-1.666066199541091919e-01
1.559232026338577271e-01
-1.417786329984664917e-01
-1.875327229499816895e-01
1.490887999534606934e-01
7.135258615016937256e-02
-6.383059918880462646e-02
1.909596920013427734e-01
1.369515657424926758e-01
1.381948441267013550e-01
1.548624783754348755e-01
1.206386089324951172e-01
-1.387156397104263306e-01
-1.419691443443298340e-01
-1.031800508499145508e-01
4.944514110684394836e-02
-1.766207814216613770e-01
-1.032729968428611755e-01
7.459457218647003174e-02
6.369182467460632324e-02
-1.145133972167968750e-01
-5.843281373381614685e-02
1.157088354229927063e-01
1.012445762753486633e-01
1.750423908233642578e-01
-7.685406133532524109e-03
-1.904097795486450195e-01
-1.455937046557664871e-02
-1.356073915958404541e-01
1.928021609783172607e-01
9.604394435882568359e-02
1.293770968914031982e-01
3.605641052126884460e-02
-1.545999348163604736e-01
3.741727024316787720e-02
-1.432076394557952881e-01
-1.753855347633361816e-01
-1.359280943870544434e-01
-6.766572594642639160e-02
1.618619561195373535e-01
1.588723957538604736e-01
8.552737534046173096e-02
1.441390812397003174e-01
1.332705188542604446e-02
1.305113732814788818e-01
9.099679440259933472e-02
5.187415983527898788e-03
1.174153685569763184e-01
1.206994801759719849e-01
1.407077461481094360e-01
-1.474120169878005981e-01
1.586101353168487549e-01
4.927707463502883911e-02
1.797980815172195435e-01
7.589484751224517822e-02
1.609903424978256226e-01
-8.278571814298629761e-02
-1.772046238183975220e-01
-1.644079834222793579e-01
5.862786248326301575e-02
-1.857931166887283325e-01
-1.288283616304397583e-01
1.580324321985244751e-01
-1.629406809806823730e-01
4.787008836865425110e-02
-1.640499234199523926e-01
-9.173239022493362427e-02
1.875585466623306274e-01
1.554864048957824707e-01
1.787022873759269714e-02
-3.987862542271614075e-02
1.759684234857559204e-01
1.280346065759658813e-01
-1.526210159063339233e-01
1.703084111213684082e-01
-1.373515129089355469e-01
-4.918629769235849380e-03
4.652312770485877991e-02
-1.233278885483741760e-01
-3.040890954434871674e-02
-5.688325688242912292e-02
-1.363975703716278076e-01
6.751917302608489990e-02
-1.361570805311203003e-01
-1.272881329059600830e-01
-9.862775355577468872e-02
-1.310791075229644775e-01
-1.523336917161941528e-01
-1.836511492729187012e-01
-7.345653325319290161e-02
-1.361749619245529175e-01
-2.989882975816726685e-02
6.462221592664718628e-02
6.549049168825149536e-02
-2.189760562032461166e-03
-3.291488066315650940e-02
9.600002318620681763e-02
-1.079020351171493530e-01
1.368775963783264160e-01
3.704046085476875305e-02
9.073501080274581909e-02
-2.410334348678588867e-02
1.682052761316299438e-01
1.034110561013221741e-01
1.221698820590972900e-01
8.300163596868515015e-02
5.975134670734405518e-02
-9.375507012009620667e-03
-1.550778001546859741e-01
1.141873970627784729e-01
-7.507477700710296631e-02
6.310591101646423340e-02
1.818098574876785278e-01
1.679072380065917969e-01
5.697073042392730713e-02
-1.777154058218002319e-01
1.240878105163574219e-01
-1.549248099327087402e-01
-5.924664810299873352e-02
7.463246583938598633e-02
1.444283872842788696e-01
-1.261861771345138550e-01
9.515932947397232056e-02
7.211814075708389282e-02
4.610760882496833801e-02
-1.606310307979583740e-01
-6.305295228958129883e-02
9.535583853721618652e-02
7.042708992958068848e-02
-1.580569595098495483e-01
6.913474947214126587e-02
1.092175580561161041e-02
-1.201437413692474365e-01
1.532240360975265503e-01
1.397749036550521851e-01
1.273282766342163086e-01
-3.864631801843643188e-02
-8.377861976623535156e-02
7.774016261100769043e-02
1.570229977369308472e-01
1.773466765880584717e-01
5.254203081130981445e-02
-4.767847061157226562e-02
-1.460923254489898682e-01
-6.037321686744689941e-02
-7.822984457015991211e-02
1.424192935228347778e-01
-6.628513336181640625e-03
-9.451604634523391724e-02
-2.281947247684001923e-02
-5.833652615547180176e-02
-6.037066131830215454e-02
-1.898199617862701416e-01
-5.418033897876739502e-02
2.358581125736236572e-02
-4.008622374385595322e-03
1.671523600816726685e-02
-1.437405198812484741e-01
1.424446403980255127e-01
7.042741775512695312e-02
-1.196394935250282288e-01
-1.256556212902069092e-01
-1.322296261787414551e-02
1.009373888373374939e-01
1.912830770015716553e-01
1.357484012842178345e-01
-1.200547665357589722e-01
-3.832631278783082962e-03
-9.006823599338531494e-02
-1.201671734452247620e-01
-5.000480264425277710e-02
-6.782939285039901733e-02
-1.295417845249176025e-01
-5.917916446924209595e-02
4.167430102825164795e-02
-1.398355066776275635e-01
5.192391946911811829e-02
-5.500924587249755859e-02
1.070854961872100830e-01
3.318318724632263184e-02
9.728910028934478760e-02
-6.928870826959609985e-02
-1.922999322414398193e-01
-6.421152502298355103e-02
-1.547183096408843994e-02
4.089264199137687683e-02
6.535309553146362305e-02
-7.293081283569335938e-02
-9.493083506822586060e-02
1.322509199380874634e-01
9.648714214563369751e-03
-4.581382870674133301e-02
-1.181949973106384277e-01
1.477296948432922363e-01
1.626102179288864136e-01
-1.683889776468276978e-01
-1.197775751352310181e-01
2.278333529829978943e-02
-1.857750713825225830e-01
-1.441463828086853027e-01
-9.047541022300720215e-02
-2.953989431262016296e-02
7.387393712997436523e-02
-1.743183583021163940e-01
-3.764096647500991821e-02
2.290822565555572510e-02
-9.509346634149551392e-02
1.479499638080596924e-01
8.995323441922664642e-03
-9.336533397436141968e-02
1.508815139532089233e-01
1.326391994953155518e-01
9.049426764249801636e-02
1.373651176691055298e-01
1.614727824926376343e-02
-9.030252695083618164e-03
4.377717152237892151e-02
-3.760492801666259766e-02
-7.735993713140487671e-02
1.804265826940536499e-01
-6.558695435523986816e-02
7.978201657533645630e-02
8.796548098325729370e-02
-1.842873394489288330e-01
-1.447329670190811157e-01
-1.864892393350601196e-01
-9.948009997606277466e-02
1.820794641971588135e-01
8.748108148574829102e-02
-1.644074171781539917e-02
-2.310792356729507446e-02
-1.522243618965148926e-01
-8.249129354953765869e-02
-1.397146470844745636e-02
-1.621928662061691284e-01
-7.177196443080902100e-02
1.798751354217529297e-01
-1.723764538764953613e-01
1.402716040611267090e-01
1.175655722618103027e-01
1.000537350773811340e-02
-1.566666662693023682e-01
4.343091323971748352e-02
-7.889014482498168945e-02
-5.834190919995307922e-02
-1.238103061914443970e-01
7.367280125617980957e-02
-1.021080650389194489e-02
-1.022248938679695129e-01
-1.276506518479436636e-04
-1.489480584859848022e-01
-9.459031373262405396e-02
-8.881681598722934723e-03
-9.812559187412261963e-02
9.566509723663330078e-02
1.697360537946224213e-02
1.357876360416412354e-01
1.544512622058391571e-02
5.947335436940193176e-02
1.703474223613739014e-01
-4.828987643122673035e-02
3.851473703980445862e-02
-1.465451121330261230e-01
-5.416537076234817505e-02
-1.486712135374546051e-02
-7.247185707092285156e-02
-1.069003343582153320e-01
1.689221560955047607e-01
-1.775662600994110107e-01
1.425071209669113159e-01
-6.745723634958267212e-02
5.951069295406341553e-03
-1.714322865009307861e-01
-1.691431552171707153e-01
-1.236622929573059082e-01
-9.814262390136718750e-03
3.077219612896442413e-02
-4.857480525970458984e-02
-1.442811191082000732e-01
3.994870930910110474e-02
-8.289840817451477051e-02
9.756971150636672974e-02
-4.883829504251480103e-02
-6.539889425039291382e-02
-1.160599365830421448e-01
-1.227223649621009827e-01
5.059299618005752563e-02
1.730168759822845459e-01
7.123040966689586639e-03
1.030173152685165405e-01
9.584671258926391602e-02
-1.032155305147171021e-01
-1.055821683257818222e-02
-1.902024894952774048e-01
8.676420897245407104e-02
6.121101323515176773e-04
-2.167193405330181122e-02
8.949720114469528198e-02
4.592469707131385803e-02
-8.639729581773281097e-03
-9.614460170269012451e-02
-7.847357541322708130e-02
-4.361245408654212952e-02
-8.545639365911483765e-02
-1.049891710281372070e-01
-4.086633026599884033e-02
-1.800039410591125488e-01
-1.296781152486801147e-01
1.017234027385711670e-01
-5.197723582386970520e-02
8.312237448990345001e-03
-1.934935748577117920e-01
-1.540103852748870850e-01
1.091775000095367432e-01
-4.948232322931289673e-02
-2.523470111191272736e-02
-1.188232079148292542e-01
1.499778479337692261e-01
-1.716405302286148071e-01
-1.339684873819351196e-01
5.733315274119377136e-02
-1.181066930294036865e-01
3.503934480249881744e-03
-4.334247857332229614e-02
-1.845259666442871094e-01
9.966606646776199341e-02
1.171694546937942505e-01
-1.814473569393157959e-01
7.994475215673446655e-02
-2.865037322044372559e-02
-9.677838534116744995e-02
7.418278604745864868e-02
-7.149986922740936279e-02
1.277252286672592163e-01
6.632880121469497681e-02
1.361563056707382202e-01
-5.285972356796264648e-02
-4.446470737457275391e-02
6.998050212860107422e-02
6.257274746894836426e-02
-9.046552330255508423e-02
-1.603862792253494263e-01
1.271998286247253418e-01
-1.656751781702041626e-01
9.838514775037765503e-02
1.466948390007019043e-01
1.640312075614929199e-01
3.913186490535736084e-02
-1.498546004295349121e-01
4.838306829333305359e-02
-2.311729453504085541e-02
-1.197481602430343628e-01
1.263134032487869263e-01
1.637257486581802368e-01
1.902751475572586060e-01
-5.856089293956756592e-02
1.683267503976821899e-01
-3.767225425690412521e-03
1.427038460969924927e-01
-3.589830920100212097e-02
-1.741029173135757446e-01
-7.213708013296127319e-02
1.818260401487350464e-01
1.829539542086422443e-03
-1.437619924545288086e-01
3.973590210080146790e-02
1.141964122653007507e-01
-2.566583827137947083e-02
-1.546939611434936523e-01
1.700156480073928833e-01
9.898819774389266968e-02
-4.543537646532058716e-02
-1.825779527425765991e-01
-6.461149454116821289e-02
8.321867883205413818e-02
-8.055500686168670654e-02
1.140766888856887817e-01
1.499883830547332764e-01
3.491011681035161018e-03
-1.606543511152267456e-01
-3.230842947959899902e-02
-1.794131100177764893e-01
-1.283311750739812851e-02
-1.528611183166503906e-01
4.090837389230728149e-02
-7.318624109029769897e-02
8.759056031703948975e-02
1.269909292459487915e-01
1.785926818847656250e-01
-9.530396014451980591e-02
1.100775599479675293e-01
-8.815818279981613159e-02
1.859038472175598145e-01
6.760268472135066986e-03
-5.791037529706954956e-02
9.997769445180892944e-02
-7.308564335107803345e-02
-1.843264847993850708e-01
1.846116930246353149e-01
-1.881660968065261841e-01
9.729135036468505859e-02
-6.822134554386138916e-02
-4.586991667747497559e-02
1.694358289241790771e-01
-1.892524212598800659e-01
-1.261023879051208496e-01
1.258295029401779175e-01
1.263884603977203369e-01
1.505754590034484863e-01
1.185928285121917725e-01
1.419363617897033691e-01
1.501774489879608154e-01
-7.344587147235870361e-02
-1.274571120738983154e-01
-1.524420231580734253e-01
-2.502273395657539368e-02
-1.608633846044540405e-01
-1.176567375659942627e-01
-1.696843951940536499e-01
-8.344378322362899780e-02
1.559555232524871826e-01
-3.728105872869491577e-02
2.517598494887351990e-02
1.332858502864837646e-01
-1.134336739778518677e-01
-1.119369268417358398e-01
-1.218121722340583801e-01
-1.114436239004135132e-01
1.302878260612487793e-01
1.016236320137977600e-01
-4.391190037131309509e-02
6.813305616378784180e-02
-1.513939648866653442e-01
-9.344440698623657227e-02
1.644216477870941162e-02
-1.076789274811744690e-01
-1.601282656192779541e-01
-4.316498339176177979e-02
1.701723039150238037e-01
-1.156723424792289734e-01
9.926036000251770020e-03
-8.701843768358230591e-02
9.920104593038558960e-02
-9.138958901166915894e-02
-1.435625553131103516e-01
9.945941157639026642e-03
-1.384595334529876709e-01
-7.013637572526931763e-02
-1.655462235212326050e-01
1.423638314008712769e-01
-5.834222957491874695e-02
1.186391413211822510e-01
-2.990621840581297874e-03
-1.780840605497360229e-01
-1.268034875392913818e-01
1.625360995531082153e-01
-1.898195892572402954e-01
-1.436584740877151489e-01
-1.389234215021133423e-01
9.734395146369934082e-02
-1.156353391706943512e-02
-1.588158607482910156e-01
3.592471126466989517e-03
-1.421409398317337036e-01
-1.475946754217147827e-01
1.222147941589355469e-01
-6.838554888963699341e-02
1.563181541860103607e-02
1.629348546266555786e-01
1.550993621349334717e-01
-2.887618541717529297e-02
-1.417915672063827515e-01
-8.835932612419128418e-02
4.248575493693351746e-02
-6.441390514373779297e-02
1.271186769008636475e-02
-1.602861285209655762e-01
-1.122780814766883850e-01
-1.562429219484329224e-01
1.293606758117675781e-01
1.653196066617965698e-01
5.371966958045959473e-02
1.748261898756027222e-01
1.817248314619064331e-01
-1.026003882288932800e-01
1.086197718977928162e-01
9.561353176832199097e-02
-7.826184481382369995e-02
-1.859927326440811157e-01
8.515083044767379761e-02
-1.896012574434280396e-01
5.038004741072654724e-02
2.448481321334838867e-02
-1.436179131269454956e-01
6.355480849742889404e-02
-8.015293627977371216e-02
-3.133081831037998199e-03
-5.322530400007963181e-03
1.334513425827026367e-01
1.144972145557403564e-01
-1.626106798648834229e-01
-6.236033141613006592e-02
-1.276169121265411377e-01
9.979695826768875122e-02
1.685151308774948120e-01
1.887787878513336182e-01
-6.756508350372314453e-02
-1.851572394371032715e-01
-1.691671609878540039e-01
1.349244564771652222e-01
1.115348190069198608e-01
-2.451843023300170898e-02
4.011989757418632507e-02
6.728928536176681519e-02
7.434464991092681885e-02
-1.580061614513397217e-01
2.458185888826847076e-02
-7.109859026968479156e-03
7.001744210720062256e-02
9.952081739902496338e-02
-7.328419387340545654e-02
-1.821424663066864014e-01
1.353810876607894897e-01
8.299122005701065063e-02
5.252113938331604004e-02
1.566722244024276733e-01
-8.495962619781494141e-02
-1.184562295675277710e-01
3.178671374917030334e-02
-1.477337330579757690e-01
-1.471338272094726562e-01
-5.950152873992919922e-03
1.894516050815582275e-01
3.566933737602084875e-04
1.641273051500320435e-01
-3.376381099224090576e-02
-1.149375289678573608e-01
1.194636300206184387e-01
-1.217895224690437317e-01
6.911757588386535645e-02
-3.777061402797698975e-02
1.176379062235355377e-02
-1.375095844268798828e-01
1.006158441305160522e-01
-1.101697236299514771e-01
1.491741389036178589e-01
-1.564207077026367188e-01
-3.768369182944297791e-02
5.165414884686470032e-02
-1.258566975593566895e-01
-9.628745913505554199e-02
-7.790076732635498047e-02
-6.447064876556396484e-02
1.847565323114395142e-01
2.550571784377098083e-02
1.036532893776893616e-01
2.598877437412738800e-02
-9.137927554547786713e-04
-6.588206440210342407e-02
-1.131866201758384705e-01
-1.664777994155883789e-01
3.498174250125885010e-02
-1.147820129990577698e-01
-9.811016917228698730e-02
-1.420805901288986206e-01
1.528630703687667847e-01
-5.110600590705871582e-02
-2.116140536963939667e-02
1.021244823932647705e-01
1.072873026132583618e-01
-4.205386713147163391e-02
9.504575282335281372e-02
1.777417808771133423e-01
2.102128602564334869e-02
-1.826808601617813110e-01
7.339832931756973267e-02
-2.448621951043605804e-02
-1.221546158194541931e-01
1.473835855722427368e-01
-9.389602392911911011e-02
1.923851072788238525e-01
1.603487730026245117e-01
1.375162452459335327e-01
-1.904302537441253662e-01
-6.982327438890933990e-03
-6.313025951385498047e-02
1.369777470827102661e-01
-2.092885971069335938e-02
-4.141934961080551147e-02
6.688691675662994385e-02
-6.277244538068771362e-02
1.599356681108474731e-01
-1.442492306232452393e-01
-1.519543677568435669e-01
-1.759093701839447021e-01
-1.834455281496047974e-01
-6.106435880064964294e-02
4.888710007071495056e-02
1.571989506483078003e-01
3.694978356361389160e-02
5.844665318727493286e-02
5.402993038296699524e-02
-1.340749021619558334e-02
-5.259782075881958008e-02
-6.244244799017906189e-02
-3.386566042900085449e-02
-1.681930013000965118e-02
1.357025057077407837e-01
4.231665749102830887e-03
-1.470324099063873291e-01
7.430419325828552246e-02
8.078857511281967163e-02
1.730157583951950073e-01
-1.684646606445312500e-01
1.646244823932647705e-01
7.096734642982482910e-02
-3.137772902846336365e-02
-1.004054844379425049e-01
-1.273364126682281494e-01
-1.292376071214675903e-01
-1.430099308490753174e-01
1.089143976569175720e-01
-1.701542735099792480e-02
-7.121083885431289673e-02
1.124927103519439697e-01
-1.354606151580810547e-01
-3.947944380342960358e-03
1.871341019868850708e-01
1.022017225623130798e-01
7.146827876567840576e-02
-1.639106497168540955e-02
-1.025372669100761414e-01
8.203411102294921875e-02
1.267324686050415039e-01
-1.768422126770019531e-01
1.813832968473434448e-01
-1.652795821428298950e-01
2.568532153964042664e-02
-1.850320547819137573e-01
1.503161191940307617e-01
1.013577356934547424e-01
9.363865107297897339e-02
1.783727407455444336e-01
-1.422660350799560547e-01
-7.290493696928024292e-02
1.530923601239919662e-02
5.955806747078895569e-02
-1.033066436648368835e-01
7.451992481946945190e-02
3.030981309711933136e-02
-1.417940258979797363e-01
1.228021755814552307e-01
1.600123643875122070e-01
3.186985850334167480e-02
-8.991599082946777344e-02
1.269671320915222168e-01
-1.294518113136291504e-01
-1.637266874313354492e-01
1.146306470036506653e-01
-8.138742297887802124e-02
1.060936674475669861e-01
8.113253116607666016e-02
-1.206900477409362793e-01
-1.836062967777252197e-01
-1.820117980241775513e-01
-1.860480010509490967e-01
-4.084236547350883484e-02
-1.098833754658699036e-01
7.806643098592758179e-02
-8.142028003931045532e-02
5.160194262862205505e-02
2.416044846177101135e-02
-1.115840002894401550e-01
1.814643293619155884e-01
-7.853730767965316772e-02
-1.905166953802108765e-01
1.573463082313537598e-01
-5.209201201796531677e-02
-5.535499751567840576e-02
-1.239333301782608032e-01
1.763476431369781494e-01
1.912575215101242065e-01
-1.512240022420883179e-01
5.973520502448081970e-02
-5.417068675160408020e-02
1.637251228094100952e-01
-8.078397065401077271e-02
-7.357608526945114136e-02
1.882570236921310425e-01
7.203287445008754730e-03
5.632190499454736710e-03
1.658870130777359009e-01
1.243986189365386963e-01
-1.368781328201293945e-01
6.919892132282257080e-02
-9.708476811647415161e-02
-1.526605337858200073e-01
-7.538338750600814819e-02
4.286048188805580139e-02
1.529357582330703735e-02
1.188097819685935974e-01
-8.592017740011215210e-02
1.572773675434291363e-03
1.544399708509445190e-01
-1.510588824748992920e-01
1.933810412883758545e-01
1.398763656616210938e-01
-4.676593095064163208e-02
5.785561725497245789e-02
1.272021681070327759e-01
9.297214448451995850e-03
5.891609191894531250e-02
-1.511270552873611450e-01
-2.142152190208435059e-02
-1.110780239105224609e-01
-5.918123200535774231e-02
-1.120331510901451111e-01
-1.238105222582817078e-01
1.731772869825363159e-01
3.277195245027542114e-02
1.770922392606735229e-01
-1.796768307685852051e-01
1.677166074514389038e-01
-1.165076792240142822e-01
1.248529925942420959e-01
1.915256679058074951e-01
1.938897883519530296e-03
-1.212905272841453552e-01
1.783645302057266235e-01
-1.365419328212738037e-01
-1.353751271963119507e-01
-1.811972111463546753e-01
-6.530392169952392578e-02
1.758579164743423462e-01
1.053132712841033936e-01
1.911735832691192627e-01
-4.515660554170608521e-02
9.399848058819770813e-03
-8.104823529720306396e-02
-1.585471332073211670e-01
-4.281670972704887390e-02
1.472807973623275757e-01
1.652899086475372314e-01
1.608874499797821045e-01
3.395419195294380188e-02
-1.100161820650100708e-01
5.702807381749153137e-02
-2.429455332458019257e-02
2.299697510898113251e-02
1.592346578836441040e-01
1.525914072990417480e-01
1.047841738909482956e-02
-1.921653002500534058e-01
-1.401547789573669434e-01
8.613138645887374878e-02
-6.093350052833557129e-02
-1.491760462522506714e-02
-1.935528963804244995e-01
-1.869707256555557251e-01
-1.231856271624565125e-01
-1.009821891784667969e-01
-1.825389862060546875e-01
1.069559082388877869e-01
-3.315408900380134583e-02
-1.232293173670768738e-01
7.077796384692192078e-03
3.767956420779228210e-02
5.008651316165924072e-02
2.952632494270801544e-03
1.815893352031707764e-01
1.789672076702117920e-01
5.084048025310039520e-04
-1.221373975276947021e-01
1.440507024526596069e-01
-1.439982801675796509e-01
-7.213395833969116211e-02
-5.933304876089096069e-02
-1.397348940372467041e-01
2.954992651939392090e-02
1.161978617310523987e-01
-6.577216833829879761e-02
9.844378381967544556e-02
1.628305166959762573e-01
-5.262226983904838562e-02
-1.523135155439376831e-01
-6.102798879146575928e-02
1.883960813283920288e-01
8.459344506263732910e-02
-8.650055527687072754e-02
-1.540938466787338257e-01
-1.636067628860473633e-01
3.331520594656467438e-03
1.300679445266723633e-01
-1.819896399974822998e-01
7.443422079086303711e-02
-1.220667585730552673e-01
-1.292723268270492554e-01
1.393383741378784180e-01
1.617817580699920654e-01
-1.473844498395919800e-01
-1.465280205011367798e-01
8.089599758386611938e-02
-1.598187088966369629e-01
1.840162426233291626e-01
1.587708890438079834e-01
-6.534128636121749878e-02
-2.929696347564458847e-03
-2.569068409502506256e-02
4.962840303778648376e-02
3.831576183438301086e-02
6.574352085590362549e-02
8.943906426429748535e-02
1.780872195959091187e-01
-1.105333268642425537e-01
7.934586703777313232e-02
4.296049475669860840e-02
-8.555709570646286011e-02
-1.582574695348739624e-01
4.388489946722984314e-02
-2.249318361282348633e-02
-1.160643715411424637e-02
-6.331165879964828491e-02
4.047474637627601624e-02
1.690726727247238159e-01
1.297495365142822266e-01
2.823862992227077484e-02
1.927792727947235107e-01
5.869497358798980713e-02
-3.214186057448387146e-02
-1.757973134517669678e-01
-1.014080457389354706e-02
-1.153384074568748474e-01
-2.259869361296296120e-03
-1.600680798292160034e-01
-9.948748350143432617e-02
4.950336739420890808e-02
7.360503822565078735e-02
-7.617522031068801880e-02
-1.596316099166870117e-01
5.595854669809341431e-02
1.932477578520774841e-02
1.138154882937669754e-02
6.520516425371170044e-02
1.352495849132537842e-01
-6.072477623820304871e-02
8.739435672760009766e-02
1.487113088369369507e-01
-7.243354618549346924e-02
-6.968584656715393066e-02
-6.590619683265686035e-03
-7.945973426103591919e-02
1.094565074890851974e-02
-8.084337413311004639e-02
-4.356175661087036133e-02
-7.432762999087572098e-03
-1.763824075460433960e-01
-1.322420090436935425e-01
-1.096194889396429062e-02
-4.680194333195686340e-02
1.865501850843429565e-01
1.430954784154891968e-01
-1.069580540060997009e-01
-1.912675052881240845e-01
-1.603890806436538696e-01
-6.723104417324066162e-02
1.015785485506057739e-01
-4.056742473039776087e-04
1.275756862014532089e-02
-1.763060875236988068e-02
-1.254941374063491821e-01
1.162054985761642456e-01
-1.487313359975814819e-01
-9.705229103565216064e-02
1.687364093959331512e-02
4.078703746199607849e-02
-1.601425409317016602e-01
-1.530227810144424438e-01
-1.699970215559005737e-01
1.242220178246498108e-01
2.100075967609882355e-02
-1.101063638925552368e-01
-6.674679368734359741e-02
-1.879787296056747437e-01
-1.467713862657546997e-01
1.647387295961380005e-01
-1.677109748125076294e-01
4.137332737445831299e-02
-1.352094858884811401e-01
-7.491009682416915894e-02
1.618417054414749146e-01
-1.820916496217250824e-02
-1.165733635425567627e-01
1.544617116451263428e-01
-1.330722868442535400e-01
1.002041473984718323e-01
-4.721598699688911438e-02
1.368383765220642090e-01
-6.236463040113449097e-02
1.832463443279266357e-01
1.781982183456420898e-01
7.051369547843933105e-02
-6.427069008350372314e-02
1.090572625398635864e-01
1.302424967288970947e-01
1.300060898065567017e-01
8.496653288602828979e-02
-5.649380385875701904e-02
2.975553087890148163e-02
-1.698244363069534302e-01
-1.159693896770477295e-01
1.224726345390081406e-02
1.723622083663940430e-01
-4.190422594547271729e-02
1.651761829853057861e-01
-8.460210263729095459e-02
8.359608054161071777e-02
-1.787497550249099731e-01
3.656512498855590820e-02
9.954366087913513184e-02
1.201287806034088135e-01
-1.557644158601760864e-01
-7.621628791093826294e-02
-8.395615220069885254e-02
-7.372958585619926453e-03
-1.577268540859222412e-01
-1.033403798937797546e-01
1.862704902887344360e-01
-8.198399841785430908e-02
-5.497054755687713623e-02
1.580771654844284058e-01
-1.363854408264160156e-01
1.566219925880432129e-01
1.056456193327903748e-01
3.188844025135040283e-02
1.409314721822738647e-01
1.383059918880462646e-01
-9.951376169919967651e-02
-5.585654079914093018e-02
-1.351864039897918701e-01
-7.530962582677602768e-03
8.999042212963104248e-02
1.275179237127304077e-01
-5.141085386276245117e-02
1.178632378578186035e-01
4.720811266452074051e-03
-7.599810510873794556e-02
6.222702562808990479e-02
9.243726730346679688e-02
-1.776607036590576172e-01
-5.292330682277679443e-02
5.045954883098602295e-02
9.123360365629196167e-02
-1.220403239130973816e-01
1.880834996700286865e-01
1.891403198242187500e-01
1.609262824058532715e-01
-1.185977235436439514e-01
-1.043171156197786331e-02
8.693140000104904175e-02
-1.542386859655380249e-01
-2.737979590892791748e-02
1.841228604316711426e-01
3.505294770002365112e-02
4.563885740935802460e-03
9.744951874017715454e-02
1.825729459524154663e-01
-1.643898040056228638e-01
3.570299968123435974e-02
-9.892147034406661987e-02
-1.360018402338027954e-01
1.594994664192199707e-01
9.173825383186340332e-02
8.567997813224792480e-02
8.459183573722839355e-02
1.173973083496093750e-01
1.517980247735977173e-01
-8.716297149658203125e-02
2.214740216732025146e-02
1.473962962627410889e-01
5.777732655405998230e-02
1.587552577257156372e-01
1.001823917031288147e-01
-2.621958032250404358e-03
1.842594444751739502e-01
-1.728277653455734253e-01
-1.887782812118530273e-01
3.313758410513401031e-03
-1.785336285829544067e-01
-3.507473692297935486e-02
5.845823138952255249e-02
-1.263972222805023193e-01
9.229261428117752075e-02
-7.396709173917770386e-02
1.507913470268249512e-01
8.160214871168136597e-03
7.836573570966720581e-02
-1.299584805965423584e-01
-1.254915725439786911e-02
1.371607780456542969e-01
-1.294203400611877441e-01
1.380285322666168213e-01
8.004181087017059326e-02
-3.777230530977249146e-02
1.334871798753738403e-01
-1.045893505215644836e-01
4.055378586053848267e-02
1.472914665937423706e-01
6.508918106555938721e-02
2.059942111372947693e-02
-1.311410665512084961e-01
-6.610006093978881836e-02
6.665683537721633911e-02
1.321797370910644531e-01
1.749475896358489990e-01
-2.151836268603801727e-02
1.517565697431564331e-01
-1.638323813676834106e-01
-1.698650568723678589e-01
-1.904941201210021973e-01
7.308821380138397217e-02
1.615090668201446533e-01
1.446829587221145630e-01
-1.888538300991058350e-01
2.369954623281955719e-02
1.726347506046295166e-01
-2.152164094150066376e-02
1.948040327988564968e-03
1.789105683565139771e-01
1.034982427954673767e-01
-1.698688268661499023e-01
-1.035432964563369751e-01
7.396887522190809250e-03
-4.647516831755638123e-02
1.466989964246749878e-01
-1.271996200084686279e-01
-1.352231502532958984e-01
1.537666320800781250e-01
-6.508211046457290649e-02
-3.648486733436584473e-02
1.285797655582427979e-01
-1.611801534891128540e-01
-1.107055097818374634e-01
-6.048271805047988892e-02
1.027671098709106445e-01
-8.989299088716506958e-02
8.108681440353393555e-02
-1.156398802995681763e-01
-1.251464933156967163e-01
-9.534167498350143433e-02
-7.155811041593551636e-02
1.972776092588901520e-02
1.037391126155853271e-01
-4.351082816720008850e-02
6.684175878763198853e-02
9.115531295537948608e-02
1.037186086177825928e-01
-1.602221429347991943e-01
-1.782817244529724121e-01
1.573107093572616577e-01
-1.034369543194770813e-01
-9.908040612936019897e-02
-1.727217286825180054e-01
1.477430462837219238e-01
-1.500931829214096069e-01
1.524086743593215942e-01
1.825617551803588867e-01
-1.408065110445022583e-01
-1.132858470082283020e-01
1.837700158357620239e-01
-1.260885149240493774e-01
8.437762968242168427e-03
-1.245456188917160034e-01
-1.424114406108856201e-01
-1.096655428409576416e-02
1.063346862792968750e-04
-7.609483320266008377e-03
6.452330946922302246e-02
5.718187987804412842e-02
1.047796569764614105e-02
-5.014454200863838196e-02
-5.071759223937988281e-02
-2.036897349171340466e-04
8.150730282068252563e-03
-6.235350295901298523e-02
1.128060892224311829e-01
-1.752347350120544434e-01
1.291977167129516602e-01
-1.190145239233970642e-01
-7.670605182647705078e-02
-6.689707189798355103e-02
4.008457064628601074e-02
-9.988100081682205200e-02
1.204599589109420776e-01
2.623240277171134949e-02
-2.126629278063774109e-02
-1.566147059202194214e-01
-1.010315716266632080e-01
1.094407290220260620e-01
-1.791670024394989014e-01
2.989869378507137299e-02
-2.463237568736076355e-02
1.025888621807098389e-01
-3.524852916598320007e-02
-1.253249645233154297e-01
-1.730648577213287354e-01
-1.304143667221069336e-01
2.776300720870494843e-02
-5.734697729349136353e-02
8.010059595108032227e-03
-1.593962758779525757e-01
1.929480135440826416e-01
8.790916204452514648e-02
-7.865678519010543823e-02
-4.003722220659255981e-02
1.297056078910827637e-01
7.846841216087341309e-02
-3.450163453817367554e-02
4.174949973821640015e-02
1.561891138553619385e-01
9.388750791549682617e-02
2.893208153545856476e-02
-1.672339886426925659e-01
-1.756905764341354370e-01
-1.606955081224441528e-01
1.115493709221482277e-03
-3.959984332323074341e-02
1.183975860476493835e-01
1.325469166040420532e-01
7.356882095336914062e-03
7.823430746793746948e-02
1.912359148263931274e-03
-1.001627817749977112e-01
1.044816225767135620e-01
-8.851176500320434570e-02
7.305673509836196899e-02
-8.436979353427886963e-02
5.275393649935722351e-02
-5.242627114057540894e-02
-7.706172019243240356e-02
-1.906484737992286682e-02
4.181702435016632080e-02
-4.954097419977188110e-02
9.077867865562438965e-02
-1.538110673427581787e-01
1.672757714986801147e-01
-6.294765323400497437e-02
-1.754330992698669434e-01
1.191367059946060181e-01
-6.600917875766754150e-02
1.622942090034484863e-01
-1.419402658939361572e-01
1.618846356868743896e-01
-1.441624313592910767e-01
6.268873810768127441e-02
1.237202137708663940e-01
-7.969748112373054028e-04
-1.543631255626678467e-01
-1.815659254789352417e-01
-1.928923465311527252e-02
1.060746982693672180e-01
-1.038776859641075134e-01
-1.730336099863052368e-01
-1.530687212944030762e-01
1.189420744776725769e-01
-1.248245611786842346e-01
8.780205249786376953e-02
-6.307265721261501312e-03
5.060672760009765625e-02
-1.730885207653045654e-01
2.449235320091247559e-02
-5.471844971179962158e-02
-6.875708699226379395e-03
1.922620981931686401e-01
-6.854458898305892944e-02
-1.559170484542846680e-01
7.809813320636749268e-02
-1.721618324518203735e-01
3.421655297279357910e-02
4.486444592475891113e-02
6.603641062974929810e-02
2.234353870153427124e-02
-4.313059151172637939e-02
-7.540639489889144897e-02
-3.527865558862686157e-02
-1.385712325572967529e-01
4.530727490782737732e-02
1.519531309604644775e-01
5.724997073411941528e-02
1.140899658203125000e-01
-9.619618207216262817e-02
-1.858893632888793945e-01
1.523474752902984619e-01
-9.417618811130523682e-02
1.317348182201385498e-01
-5.075993016362190247e-02
1.125358566641807556e-01
-5.998100712895393372e-02
1.682320386171340942e-01
-1.074882745742797852e-01
2.532659471035003662e-02
6.197709962725639343e-02
-1.957566104829311371e-02
1.876237243413925171e-01
1.677091419696807861e-01
1.069408729672431946e-01
1.844716668128967285e-01
1.840221136808395386e-01
7.547123730182647705e-02
-1.503915190696716309e-01
-1.238329485058784485e-01
-1.917287707328796387e-01
1.245194151997566223e-01
1.118332594633102417e-01
-7.380255311727523804e-02
3.720481693744659424e-02
1.387594826519489288e-02
1.133480668067932129e-01
6.621278822422027588e-02
-3.625463461503386497e-03
1.125865876674652100e-01
-1.513597071170806885e-01
1.340649873018264771e-01
-5.219006910920143127e-02
-1.283222138881683350e-01
1.648008823394775391e-01
1.248745545744895935e-01
1.651191711425781250e-01
1.426558643579483032e-01
-1.658331602811813354e-01
-5.892777442932128906e-02
9.779969602823257446e-02
-2.438944764435291290e-02
2.444328553974628448e-02
7.297492027282714844e-02
2.362363785505294800e-02
-1.531101465225219727e-01
-1.223120763897895813e-01
-1.267272047698497772e-02
-1.462224870920181274e-01
1.010407507419586182e-02
-1.829729825258255005e-01
-1.157947853207588196e-01
-1.280972063541412354e-01
-1.423204392194747925e-01
-6.139822304248809814e-02
9.011080488562583923e-03
-1.169215068221092224e-01
-9.465557336807250977e-02
-8.742741495370864868e-02
1.253664940595626831e-01
-1.842399239540100098e-01
-5.368340387940406799e-02
-8.345478773117065430e-02
-1.573973335325717926e-02
1.620714664459228516e-01
1.923062205314636230e-01
1.106182038784027100e-01
7.735114544630050659e-03
-1.925931125879287720e-01
1.614244878292083740e-01
-3.311820328235626221e-02
2.990792132914066315e-02
1.700699329376220703e-01
-4.854432493448257446e-02
1.318385154008865356e-01
-1.277835369110107422e-01
-1.916707307100296021e-02
1.458689272403717041e-01
-1.213937550783157349e-01
-1.174626052379608154e-01
5.206204950809478760e-02
1.884060800075531006e-01
1.924190372228622437e-01
8.355554193258285522e-02
5.498903617262840271e-02
3.251089900732040405e-02
2.599443495273590088e-02
-1.795487403869628906e-01
4.677852615714073181e-02
-3.653800487518310547e-02
1.774935722351074219e-01
1.308802235871553421e-02
-4.185279458761215210e-02
-1.517710983753204346e-01
-1.243741139769554138e-01
7.574543356895446777e-02
3.071514517068862915e-02
1.774796098470687866e-01
1.072768960148096085e-02
-2.831149101257324219e-02
-4.263255000114440918e-02
1.317976862192153931e-01
-1.810928285121917725e-01
-7.456987351179122925e-02
1.538535654544830322e-01
-1.480835210531949997e-02
-3.325021266937255859e-02
-1.276581436395645142e-01
2.234416268765926361e-02
-1.500784456729888916e-01
5.007875710725784302e-02
-1.756574958562850952e-01
-1.238679066300392151e-01
7.226829230785369873e-02
5.966730415821075439e-02
1.566551476716995239e-01
1.561755985021591187e-01
-5.596483126282691956e-02
1.506973952054977417e-01
1.425430178642272949e-01
5.441346764564514160e-02
-1.933870166540145874e-01
-1.802008152008056641e-01
-6.905321776866912842e-02
1.339301019906997681e-01
6.842961907386779785e-02
1.590846180915832520e-01
6.712277419865131378e-03
9.215026348829269409e-02
-7.950376719236373901e-02
-9.759276360273361206e-02
-1.556340754032135010e-01
-7.488196343183517456e-02
-1.207613721489906311e-01
-8.743178844451904297e-02
1.902544051408767700e-01
1.162923872470855713e-02
2.959686517715454102e-02
-2.463092654943466187e-02
-1.624647900462150574e-02
-1.573440134525299072e-01
-8.834055811166763306e-02
-5.471320077776908875e-02
-1.176871210336685181e-01
-1.793513000011444092e-01
-3.111127391457557678e-02
2.930432558059692383e-03
-1.544933766126632690e-01
8.070142567157745361e-02
1.499321013689041138e-01
8.089949935674667358e-02
8.112062513828277588e-02
1.643078215420246124e-02
5.091480910778045654e-02
-1.600649654865264893e-01
1.010659709572792053e-01
-1.428604423999786377e-01
-2.547915093600749969e-02
9.872047603130340576e-02
7.676609605550765991e-02
6.295506656169891357e-02
-1.276979744434356689e-01
-7.572313398122787476e-02
4.171903431415557861e-02
1.019190475344657898e-01
-1.637907028198242188e-01
-8.033412694931030273e-02
-3.991210460662841797e-02
1.005690097808837891e-01
1.729455292224884033e-01
1.139968261122703552e-01
-7.520218193531036377e-02
7.043448090553283691e-02
1.574622653424739838e-02
-7.926749438047409058e-02
-1.604039669036865234e-01
5.294496938586235046e-02
1.113807857036590576e-01
1.266788784414529800e-02
-3.503425419330596924e-02
3.610076010227203369e-02
-5.555427819490432739e-02
-7.243133336305618286e-02
-4.910354316234588623e-02
1.626885123550891876e-02
-1.093159690499305725e-01
4.942017421126365662e-02
3.514306619763374329e-02
-1.887106597423553467e-01
1.696068793535232544e-01
-1.235576272010803223e-01
-1.314457785338163376e-02
1.232978403568267822e-01
-1.486371457576751709e-01
4.956592619419097900e-02
-2.362315170466899872e-02
1.869028508663177490e-01
1.893557012081146240e-01
-1.564162671566009521e-01
1.124776620417833328e-02
-1.484445929527282715e-01
-5.681988596916198730e-02
-1.107000112533569336e-01
-6.227512657642364502e-02
-1.329525113105773926e-01
6.741905957460403442e-02
4.476986825466156006e-02
7.665864378213882446e-02
9.933727979660034180e-02
-1.868315190076828003e-01
-9.317592531442642212e-02
1.923840790987014771e-01
-1.481520384550094604e-01
4.926111921668052673e-02
1.318648457527160645e-01
-1.062355041503906250e-01
1.000481378287076950e-02
-1.244090422987937927e-01
1.669238656759262085e-01
5.074746161699295044e-02
-4.586698859930038452e-02
-1.264865547418594360e-01
1.711195260286331177e-01
7.131262868642807007e-02
3.919776156544685364e-02
1.400211155414581299e-01
-1.071645542979240417e-01
-2.675611153244972229e-02
1.227946132421493530e-01
-1.792091876268386841e-01
1.445954889059066772e-01
1.546119451522827148e-01
8.329668641090393066e-02
-1.368865487165749073e-03
-3.909957408905029297e-02
-1.044214665889739990e-01
-1.585585623979568481e-01
1.123486459255218506e-01
-7.105465233325958252e-02
-9.445634484291076660e-02
-4.073402285575866699e-02
3.469699248671531677e-02
5.306999012827873230e-02
1.476869136095046997e-01
-1.788285523653030396e-01
9.216616302728652954e-02
6.562898308038711548e-02
8.000579476356506348e-02
1.837738603353500366e-01
-1.367778982967138290e-02
-5.073946714401245117e-02
-1.680844463407993317e-02
1.152440309524536133e-01
1.318672299385070801e-01
7.866872102022171021e-02
1.290109157562255859e-01
-1.135551556944847107e-01
1.156077235937118530e-01
-1.475930362939834595e-01
1.838506162166595459e-01
3.654676675796508789e-02
-1.257577538490295410e-01
-8.330142498016357422e-02
-2.411110326647758484e-02
-1.410217583179473877e-01
-5.771647393703460693e-02
1.649992316961288452e-01
-1.881628781557083130e-01
8.788739144802093506e-02
-9.889963269233703613e-02
-8.781625330448150635e-02
-1.560872942209243774e-01
3.724542260169982910e-02
1.051543727517127991e-01
1.964251697063446045e-02
-1.496884524822235107e-01
-1.393791735172271729e-01
-1.223366782069206238e-01
9.667796641588211060e-02
2.094364911317825317e-02
-1.389665454626083374e-01
-1.896554976701736450e-01
7.898867130279541016e-02
4.378741234540939331e-02
1.892600022256374359e-02
-1.616557240486145020e-01
2.701493352651596069e-02
-5.886971578001976013e-02
1.450788229703903198e-01
9.849985688924789429e-02
1.213294789195060730e-01
9.951040148735046387e-02
1.817103177309036255e-01
1.554533988237380981e-01
-3.674934431910514832e-02
4.287633299827575684e-02
-1.229286938905715942e-01
-8.894464373588562012e-02
1.560280323028564453e-01
3.395660221576690674e-02
1.576412767171859741e-01
-3.167008608579635620e-02
-3.125282004475593567e-02
-1.610465496778488159e-01
7.618685811758041382e-02
1.367341876029968262e-01
-2.277623489499092102e-02
7.031100988388061523e-02
4.055426456034183502e-03
-1.133178025484085083e-01
-1.254729777574539185e-01
-1.521234586834907532e-02
-6.568400561809539795e-02
1.310895080678164959e-03
7.089215517044067383e-02
1.536208242177963257e-01
-1.495910584926605225e-01
1.918978244066238403e-01
8.530872873961925507e-04
9.459698945283889771e-02
9.228478372097015381e-02
1.738553680479526520e-02
-2.515271306037902832e-02
-5.491565167903900146e-02
1.356315165758132935e-01
9.413203597068786621e-02
9.411673992872238159e-02
-1.055586785078048706e-01
-7.636584341526031494e-02
-9.418672323226928711e-02
-1.708057075738906860e-01
9.337866306304931641e-02
1.911997497081756592e-01
-6.946591287851333618e-02
-6.002050638198852539e-02
-1.153148785233497620e-01
-8.529886603355407715e-02
-9.223254024982452393e-02
-2.368363179266452789e-02
7.761865109205245972e-02
8.208528906106948853e-02
1.543387211859226227e-02
1.809602081775665283e-01
-4.139310121536254883e-02
9.046278893947601318e-02
1.133761089295148849e-02
1.398965269327163696e-01
-4.818075150251388550e-02
-1.197933703660964966e-01
-2.696432732045650482e-02
-1.528241932392120361e-01
5.223700776696205139e-02
1.925873309373855591e-01
-1.476958394050598145e-02
-1.189995855093002319e-01
-1.884871572256088257e-01
-1.231749262660741806e-02
-1.933565735816955566e-01
-4.902155697345733643e-02
-1.259637922048568726e-01
-1.614264249801635742e-01
5.086327437311410904e-03
-1.112099140882492065e-01
2.942976355552673340e-02
-8.279622346162796021e-02
-1.846769452095031738e-01
-1.153663173317909241e-01
2.089321613311767578e-02
-1.146275550127029419e-01
1.395541131496429443e-01
-1.115707829594612122e-01
-1.113502755761146545e-01
1.728204451501369476e-02
9.997984766960144043e-02
-6.368853896856307983e-02
4.697537049651145935e-02
1.232361197471618652e-01
-2.269370481371879578e-02
-3.152817115187644958e-02
-1.208238303661346436e-01
-1.676610410213470459e-01
-9.623334743082523346e-03
-1.460590362548828125e-01
1.092801466584205627e-01
3.980222344398498535e-02
1.726821511983871460e-01
-1.810279041528701782e-01
1.782618761062622070e-01
5.689926072955131531e-02
-8.484360575675964355e-02
5.689096450805664062e-02
7.595143467187881470e-02
1.061363667249679565e-01
-1.462717652320861816e-01
3.554107621312141418e-02
-1.338982880115509033e-01
-9.361054003238677979e-02
1.856703013181686401e-01
1.373758167028427124e-01
-8.279858529567718506e-02
-1.498581171035766602e-01
1.418420970439910889e-01
-4.355043172836303711e-03
1.211766898632049561e-02
1.770573854446411133e-01
1.393103450536727905e-01
6.544800102710723877e-02
-1.600015014410018921e-01
-9.730374440550804138e-03
1.840317547321319580e-01
-1.447102278470993042e-01
9.032455086708068848e-02
-4.036525264382362366e-02
-1.417286694049835205e-01
2.600780688226222992e-02
1.110831648111343384e-01
9.304651618003845215e-02
6.947929412126541138e-02
-1.926344186067581177e-01
-1.404628753662109375e-01
-1.408944875001907349e-01
1.312340646982192993e-01
1.036473587155342102e-01
-1.464498490095138550e-01
2.642169035971164703e-02
-6.656538229435682297e-03
-3.601206466555595398e-02
-1.004333868622779846e-01
-1.816143393516540527e-01
-6.474616378545761108e-02
-4.490037914365530014e-03
-1.518804877996444702e-01
1.120992973446846008e-01
7.978016138076782227e-02
8.085598051548004150e-02
1.583059579133987427e-01
7.235264033079147339e-02
-7.211914658546447754e-02
-8.443528413772583008e-02
-1.082767248153686523e-01
8.880385011434555054e-02
-1.155992150306701660e-01
1.235309317708015442e-01
1.659013777971267700e-01
1.435958445072174072e-01
-1.247767060995101929e-01
1.636444330215454102e-01
1.405350863933563232e-02
1.767934113740921021e-01
-9.087949246168136597e-02
-7.386908680200576782e-02
-1.755360364913940430e-01
7.342323660850524902e-02
-1.047005355358123779e-01
1.229156330227851868e-01
-9.797975420951843262e-02
9.912373870611190796e-02
-1.692724078893661499e-01
1.642893254756927490e-01
2.613379992544651031e-02
4.115638509392738342e-02
-4.353870078921318054e-02
-1.423133462667465210e-01
1.099232137203216553e-01
-4.031860828399658203e-02
1.517472416162490845e-01
-1.702256947755813599e-01
8.286157250404357910e-02
1.837409585714340210e-01
-1.525118350982666016e-01
5.802174657583236694e-02
-1.535528600215911865e-01
2.927944995462894440e-02
1.222894117236137390e-01
5.709784477949142456e-02
-2.056230977177619934e-02
4.600900039076805115e-02
3.463152679614722729e-04
2.264438197016716003e-02
1.402685791254043579e-01
-1.237943535670638084e-03
-6.244679167866706848e-02
3.797568008303642273e-02
-1.729770004749298096e-01
9.199982136487960815e-02
1.516993492841720581e-01
1.832193583250045776e-01
-1.823694109916687012e-01
4.284678772091865540e-02
7.034483551979064941e-02
1.001915484666824341e-01
1.766231358051300049e-01
-1.506107598543167114e-01
-1.324404776096343994e-01
9.948790073394775391e-02
-8.811287581920623779e-02
-1.378871686756610870e-02
5.703695863485336304e-02
2.795489318668842316e-02
1.810410767793655396e-01
-5.905078724026679993e-02
-9.463629871606826782e-02
-1.471224892884492874e-02
-1.782960593700408936e-01
-4.280836135149002075e-02
6.552377343177795410e-02
-6.892750412225723267e-02
2.138384431600570679e-02
1.198014691472053528e-01
4.176847264170646667e-02
-1.797189377248287201e-02
-1.164109334349632263e-01
-1.142082661390304565e-01
1.005933061242103577e-02
1.180064007639884949e-01
-1.775604635477066040e-01
8.991156518459320068e-02
1.650559157133102417e-01
-1.924341917037963867e-01
1.848548203706741333e-01
-7.170998305082321167e-02
-6.758664548397064209e-02
-1.240778341889381409e-01
5.539660528302192688e-02
-1.364316493272781372e-01
-1.179606392979621887e-01
-3.323382511734962463e-02
3.424528986215591431e-02
-1.573166400194168091e-01
-3.911671787500381470e-02
-1.038871929049491882e-01
-1.831653118133544922e-01
5.128922313451766968e-02
-1.911508589982986450e-01
-1.085756197571754456e-01
8.483768254518508911e-02
-2.070658095180988312e-02
-1.430690884590148926e-01
-1.622440367937088013e-01
-1.362225264310836792e-01
1.370716989040374756e-01
1.969338767230510712e-02
-1.523905098438262939e-01
1.578655652701854706e-02
-1.364293098449707031e-01
2.817460708320140839e-02
1.417251117527484894e-02
1.339456737041473389e-01
-1.881207078695297241e-01
1.140085533261299133e-01
9.761250019073486328e-02
-6.519594788551330566e-02
9.342219680547714233e-02
-1.583532840013504028e-01
9.258286096155643463e-03
7.961422204971313477e-02
5.223641544580459595e-02
-6.036972254514694214e-02
-1.514134109020233154e-01
-1.707829535007476807e-01
5.414968729019165039e-02
-7.530583534389734268e-03
-1.377855390310287476e-01
1.589384302496910095e-02
6.326436996459960938e-02
-8.860392868518829346e-02
1.686311066150665283e-01
-1.625695079565048218e-01
8.304800838232040405e-02
2.948010526597499847e-02
5.541269108653068542e-02
9.831607341766357422e-02
1.027312576770782471e-01
1.865613907575607300e-01
1.435566693544387817e-01
1.810616254806518555e-01
-1.038823425769805908e-01
3.924121148884296417e-03
-1.678729355335235596e-01
5.873648077249526978e-02
6.722424924373626709e-02
4.836356639862060547e-02
9.912408888339996338e-02
-1.399334669113159180e-01
1.708882749080657959e-01
1.079094409942626953e-01
-6.397107243537902832e-02
-7.500114291906356812e-02
3.595793992280960083e-02
-7.524247746914625168e-03
1.201614513993263245e-01
-1.736947521567344666e-02
1.588087975978851318e-01
1.245141029357910156e-01
9.334146231412887573e-02
-7.298770826309919357e-03
-5.413185060024261475e-02
-1.691066473722457886e-01
-6.180471181869506836e-02
-9.501592069864273071e-02
4.755721241235733032e-02
-1.474664211273193359e-01
-1.944308169186115265e-02
-4.248692467808723450e-02
1.128658801317214966e-01
-1.802213788032531738e-01
1.829679608345031738e-01
4.185518622398376465e-02
1.315909326076507568e-01
3.418258391320705414e-03
1.493441164493560791e-01
-1.655755639076232910e-01
1.715585440397262573e-01
1.519709974527359009e-01
9.979762136936187744e-02
1.143110916018486023e-01
-1.586327403783798218e-01
2.753773517906665802e-02
1.111914142966270447e-01
-1.071530580520629883e-02
1.490356121212244034e-02
1.357135176658630371e-02
-4.733346402645111084e-02
-1.626553982496261597e-01
8.611325174570083618e-02
-5.730477720499038696e-02
1.508589088916778564e-01
1.718841493129730225e-01
-1.783136427402496338e-01
5.502148717641830444e-02
-1.516911387443542480e-01
-1.308530122041702271e-01
-1.072803139686584473e-02
1.855837553739547729e-01
8.640993386507034302e-02
1.659559458494186401e-01
-1.384989172220230103e-01
1.638260036706924438e-01
1.595434844493865967e-01
1.864166185259819031e-02
1.437401771545410156e-01
8.535526692867279053e-02
1.125487592071294785e-02
-1.116487309336662292e-01
1.923084855079650879e-01
-2.873013541102409363e-02
1.118230000138282776e-01
-1.731799840927124023e-01
3.369903564453125000e-02
-3.335787355899810791e-02
1.475987285375595093e-01
-1.033534761518239975e-02
5.399717763066291809e-02
1.869599074125289917e-01
1.231336593627929688e-01
-1.846449077129364014e-02
1.666180342435836792e-01
1.592438817024230957e-01
-5.187542736530303955e-02
-6.158798933029174805e-02
1.266553103923797607e-01
2.997032739222049713e-02
1.570896804332733154e-01
-1.233883202075958252e-01
4.533870145678520203e-02
2.537209540605545044e-02
-1.654804795980453491e-01
-1.456227600574493408e-01
1.594218984246253967e-02
1.526020020246505737e-01
1.197070702910423279e-01
-1.163820270448923111e-02
7.334481924772262573e-02
-3.823857009410858154e-02
-1.698838174343109131e-02
-1.923059821128845215e-01
8.316769450902938843e-02
-1.259957719594240189e-02
1.187963932752609253e-01
-1.307672560214996338e-01
6.393212080001831055e-02
1.223566681146621704e-01
-1.200433000922203064e-01
-1.743943840265274048e-01
-1.811618655920028687e-01
6.294385343790054321e-02
-1.585286706686019897e-01
2.815943956375122070e-02
6.903900206089019775e-02
4.859673976898193359e-02
1.298201037570834160e-03
-1.836610734462738037e-01
8.640361577272415161e-02
1.069898754358291626e-01
-1.703561395406723022e-01
-1.193726137280464172e-01
-8.307109773159027100e-02
1.464428007602691650e-01
-5.669056251645088196e-02
-1.356189101934432983e-01
-9.564626030623912811e-03
1.921043545007705688e-01
-6.514549255371093750e-02
-1.313800364732742310e-01
1.218974143266677856e-01
1.641004085540771484e-01
-7.865290343761444092e-02
1.902870684862136841e-01
1.495223194360733032e-01
-7.638911902904510498e-02
2.944179251790046692e-02
3.737247735261917114e-02
-1.269081681966781616e-01
1.703969389200210571e-01
3.191503509879112244e-02
-1.005101352930068970e-01
-7.780320942401885986e-02
3.817171975970268250e-02
1.419639736413955688e-01
1.147699356079101562e-01
-1.291579194366931915e-02
-6.594534963369369507e-02
8.327887952327728271e-02
1.129980236291885376e-01
-9.282160550355911255e-02
1.920890659093856812e-01
-4.657179582864046097e-03
-1.135246530175209045e-01
2.891455590724945068e-02
-1.388642191886901855e-01
-5.969569087028503418e-02
-1.541981697082519531e-01
-6.538186222314834595e-02
9.901545941829681396e-02
-1.290632039308547974e-01
-7.950327545404434204e-02
1.010122522711753845e-01
2.120874635875225067e-02
1.726443320512771606e-02
1.671881228685379028e-01
4.871013108640909195e-03
1.470090001821517944e-01
-4.639255255460739136e-02
9.935794770717620850e-02
8.033233880996704102e-02
-1.884844452142715454e-01
-9.401784837245941162e-02
-1.007399484515190125e-01
-1.804775446653366089e-01
-9.682763367891311646e-02
1.045263484120368958e-01
5.567783024162054062e-03
4.230003058910369873e-02
-8.469302207231521606e-02
1.066107451915740967e-01
1.866417974233627319e-01
1.752016246318817139e-01
-1.251092106103897095e-01
1.632522195577621460e-01
-7.431590557098388672e-02
1.078409552574157715e-01
1.064843907952308655e-01
3.965708985924720764e-02
1.000017970800399780e-01
9.044704586267471313e-02
-7.995094358921051025e-02
-1.878022402524948120e-01
3.540422394871711731e-02
1.679736971855163574e-01
-1.998546905815601349e-02
1.327230185270309448e-01
1.257653385400772095e-01
1.184404417872428894e-01
1.937055960297584534e-02
-5.116407573223114014e-02
1.590168029069900513e-01
4.857548978179693222e-03
-2.168372273445129395e-02
-1.481321454048156738e-01
-1.501749157905578613e-01
1.701714396476745605e-01
-1.132193878293037415e-01
1.764904260635375977e-01
-1.060378849506378174e-01
-1.090628132224082947e-01
5.991914123296737671e-02
-1.289161741733551025e-01
-5.299397185444831848e-02
-1.036027353256940842e-02
8.365660905838012695e-02
-1.908834427595138550e-01
1.652615368366241455e-01
2.702706120908260345e-02
1.181304007768630981e-01
-1.328593045473098755e-01
-2.749240770936012268e-02
1.460661739110946655e-01
1.567959189414978027e-01
1.871894448995590210e-01
-1.836480647325515747e-01
-2.281429246068000793e-02
5.163604766130447388e-02
6.951285991817712784e-03
4.117381200194358826e-02
6.078448891639709473e-02
1.117173731327056885e-01
1.489692181348800659e-01
-1.361630409955978394e-01
-1.586939841508865356e-01
-1.508119404315948486e-01
-1.371716409921646118e-01
9.885928034782409668e-02
4.353461414575576782e-02
2.058804221451282501e-02
2.431143634021282196e-02
1.984197087585926056e-02
-1.226450577378273010e-01
-5.484089255332946777e-02
-1.780013889074325562e-01
-1.092380508780479431e-01
7.140943408012390137e-02
-8.547168225049972534e-02
2.591432631015777588e-02
1.667461693286895752e-01
-1.531865149736404419e-01
3.102097101509571075e-02
