1.323982924222946167e-01
8.297366090118885040e-03
-9.351964294910430908e-02
-1.533993184566497803e-01
-6.343332678079605103e-02
-1.626695841550827026e-01
4.549849033355712891e-02
1.465080888010561466e-03
5.247595533728599548e-02
-1.475801169872283936e-01
-1.456734538078308105e-01
1.921418309211730957e-01
-7.575061917304992676e-02
-7.031369954347610474e-02
-4.804869368672370911e-02
-1.484812945127487183e-01
-7.602209597826004028e-02
-1.530667990446090698e-01
5.273478478193283081e-02
-3.407332301139831543e-02
-6.836427748203277588e-02
-1.374170184135437012e-01
1.073572263121604919e-01
-1.501461267471313477e-01
6.635301560163497925e-02
9.045883081853389740e-03
1.056050732731819153e-01
-1.983539909124374390e-01
1.796753555536270142e-01
1.273699551820755005e-01
1.243696212768554688e-01
1.297187209129333496e-01
1.284309774637222290e-01
-5.281132459640502930e-02
-4.895768593996763229e-03
4.828345775604248047e-02
-3.234785795211791992e-02
1.249307766556739807e-01
-1.988205760717391968e-01
-2.801119117066264153e-03
1.360139399766921997e-01
-1.766057610511779785e-01
8.517701923847198486e-02
-1.944185197353363037e-01
8.968645706772804260e-03
1.407745927572250366e-01
-1.244320720434188843e-01
-1.538074910640716553e-01
5.052283033728599548e-02
7.835407741367816925e-03
-1.970807760953903198e-01
-8.954307436943054199e-02
3.595009818673133850e-02
-1.693149507045745850e-01
1.572991907596588135e-01
7.781592011451721191e-02
-5.247966037131845951e-04
-1.712212264537811279e-01
1.701098829507827759e-01
1.270956397056579590e-01
9.570928290486335754e-03
1.553076952695846558e-01
2.001036554574966431e-01
6.459967792034149170e-02
8.318364620208740234e-02
1.013386920094490051e-01
1.583986217156052589e-03
9.648844599723815918e-02
-8.896566927433013916e-02
-1.178223565220832825e-01
-1.162015125155448914e-01
1.034930348396301270e-01
1.656473278999328613e-01
1.968497633934020996e-01
-5.793733056634664536e-03
-3.952420875430107117e-02
7.511900365352630615e-02
-3.883437067270278931e-02
7.703755516558885574e-03
9.680121205747127533e-03
-3.736373782157897949e-02
1.146703362464904785e-01
1.116302981972694397e-01
7.497203350067138672e-02
-7.170665264129638672e-02
1.277149915695190430e-01
-8.864288032054901123e-02
-5.516540259122848511e-02
-1.035009175539016724e-01
-1.079515591263771057e-01
1.614628732204437256e-01
2.039754390716552734e-01
-9.156990796327590942e-02
8.342343568801879883e-02
1.693966239690780640e-02
1.379631757736206055e-01
-1.764710098505020142e-01
7.874561846256256104e-02
-1.538870036602020264e-01
-6.827914714813232422e-02
6.365247070789337158e-02
1.431841254234313965e-01
1.073475629091262817e-01
-1.424093246459960938e-01
-1.637989468872547150e-02
-7.634878158569335938e-02
1.713631451129913330e-01
-1.856536716222763062e-01
-8.350416272878646851e-02
1.681278087198734283e-02
-3.595954272896051407e-03
-1.767265349626541138e-01
8.258810639381408691e-02
1.234124004840850830e-01
-1.964870840311050415e-01
-1.127524152398109436e-01
1.496605873107910156e-01
-4.370357468724250793e-02
-1.497883051633834839e-01
-3.650681348517537117e-03
1.688337624073028564e-01
1.924437433481216431e-01
1.471076011657714844e-01
1.677953302860260010e-01
1.973481923341751099e-01
-1.951901316642761230e-01
1.822818219661712646e-01
1.160546392202377319e-01
-1.572133158333599567e-03
1.404023617506027222e-01
1.451133489608764648e-01
1.432492434978485107e-01
1.585698574781417847e-01
-3.543929383158683777e-02
5.754939466714859009e-02
-3.594959527254104614e-02
6.375584751367568970e-02
-3.611485287547111511e-02
1.641904413700103760e-01
-5.407745763659477234e-02
-1.165645383298397064e-02
9.792267531156539917e-02
-1.746551990509033203e-01
3.483251854777336121e-02
5.456877872347831726e-02
3.553436603397130966e-03
1.655041240155696869e-02
-1.953862048685550690e-02
6.091981381177902222e-02
-7.081407308578491211e-02
-1.763173043727874756e-01
1.976834684610366821e-01
-1.084574237465858459e-01
-2.269851230084896088e-02
1.271765381097793579e-01
2.026482820510864258e-01
9.076420217752456665e-02
8.168814331293106079e-02
-7.716120686382055283e-03
1.650886386632919312e-01
-7.299428433179855347e-02
2.037238925695419312e-01
-2.174976095557212830e-02
-2.188253030180931091e-02
-5.528143048286437988e-02
5.457904189825057983e-03
-6.767439842224121094e-02
-1.621092706918716431e-01
1.300406605005264282e-01
1.601110994815826416e-01
-8.172117918729782104e-02
-1.003651767969131470e-01
-1.260332465171813965e-01
-9.158539585769176483e-03
1.523955166339874268e-01
1.241687834262847900e-01
1.218669489026069641e-01
-3.673363849520683289e-02
-1.164350882172584534e-01
-1.774452477693557739e-01
-1.676166355609893799e-01
-3.867450356483459473e-02
1.938036531209945679e-01
-1.820680499076843262e-01
6.827460974454879761e-02
-1.483495831489562988e-01
-1.639888063073158264e-02
1.999226212501525879e-02
-1.395577341318130493e-01
1.958155818283557892e-02
3.354630991816520691e-02
1.340018510818481445e-01
-1.865764409303665161e-01
1.882015913724899292e-01
1.089532673358917236e-02
1.624778211116790771e-01
8.621658384799957275e-02
8.761600404977798462e-02
8.333636820316314697e-02
1.660230308771133423e-01
-1.223337948322296143e-01
1.083128303289413452e-01
2.858503907918930054e-02
-1.256581097841262817e-01
1.762220077216625214e-02
-4.859416931867599487e-02
1.975077241659164429e-01
1.765842735767364502e-01
-1.121324580162763596e-02
-9.231248497962951660e-02
-1.218353882431983948e-01
1.066312864422798157e-01
3.445601463317871094e-02
2.357319556176662445e-02
-7.797358185052871704e-02
-1.071676611900329590e-01
-1.201525926589965820e-01
1.414134949445724487e-01
-1.641915738582611084e-01
1.263394504785537720e-01
1.375260204076766968e-01
4.013789817690849304e-02
-9.329270571470260620e-02
1.658558100461959839e-01
-3.681632503867149353e-02
1.498083621263504028e-01
3.985605016350746155e-02
-1.028972044587135315e-01
2.127039805054664612e-02
1.052637770771980286e-01
-1.290975809097290039e-01
-1.481955684721469879e-02
-4.449901729822158813e-02
1.941148191690444946e-01
-1.322463452816009521e-01
-1.176159307360649109e-01
-3.106073290109634399e-02
-1.924496144056320190e-02
2.710911072790622711e-02
-1.222346052527427673e-01
-6.848325580358505249e-02
8.613430708646774292e-02
2.266055904328823090e-02
7.002694997936487198e-03
1.235136240720748901e-01
1.943142265081405640e-01
1.656191945075988770e-01
-4.973449185490608215e-02
1.910017132759094238e-01
-1.791739612817764282e-01
-1.449141800403594971e-01
1.157747805118560791e-01
-1.937861889600753784e-01
-9.730015695095062256e-02
1.976739466190338135e-01
9.512466192245483398e-02
2.612650021910667419e-02
-5.448893830180168152e-02
-1.644369214773178101e-01
-1.878084987401962280e-01
9.384957142174243927e-03
-1.522617191076278687e-01
-7.633217424154281616e-02
1.887544244527816772e-01
-1.258836090564727783e-01
1.069051772356033325e-01
-6.261781603097915649e-02
4.063763841986656189e-02
-1.560160070657730103e-01
1.991900056600570679e-01
-8.626929670572280884e-02
4.517794027924537659e-02
1.664564013481140137e-01
1.355305910110473633e-01
1.491451859474182129e-01
-1.283613741397857666e-01
-3.486821800470352173e-02
1.446409672498703003e-01
-1.763479970395565033e-02
1.937752515077590942e-01
1.325247883796691895e-01
9.573324769735336304e-02
1.807889491319656372e-01
3.139679133892059326e-02
-1.273686140775680542e-01
1.848553568124771118e-01
6.177716329693794250e-02
-6.703165918588638306e-02
1.038774922490119934e-01
-2.025930881500244141e-01
1.684358268976211548e-01
8.281394839286804199e-02
-6.896381825208663940e-02
-3.150794422253966331e-03
4.297862201929092407e-02
-1.458333730697631836e-01
1.040028184652328491e-01
-6.132918968796730042e-02
-1.958210766315460205e-01
8.053764700889587402e-02
-9.689209610223770142e-02
-1.726080179214477539e-01
7.344284653663635254e-02
1.010464653372764587e-01
1.634465456008911133e-01
5.448420718312263489e-02
1.403429657220840454e-01
-1.678626686334609985e-01
-1.582679599523544312e-01
1.759159713983535767e-01
1.810861676931381226e-01
-1.697545987553894520e-03
-2.016555070877075195e-01
7.119534164667129517e-02
-4.917593300342559814e-02
5.139338318258523941e-03
-1.733990013599395752e-02
-8.821801841259002686e-02
7.235406339168548584e-02
7.798101752996444702e-02
-1.441076099872589111e-01
7.176280952990055084e-03
-1.496622562408447266e-01
1.025112867355346680e-01
7.279609888792037964e-02
1.728617586195468903e-02
-1.392815560102462769e-01
-1.166693046689033508e-01
-4.627527296543121338e-02
-1.800849437713623047e-01
2.028459906578063965e-01
-5.558095872402191162e-02
1.005924195051193237e-01
-5.286411568522453308e-02
-1.179927289485931396e-01
-2.023761123418807983e-01
-1.679511219263076782e-01
-8.412072807550430298e-02
-1.013388857245445251e-01
-1.704173386096954346e-01
-8.805699646472930908e-03
1.877897977828979492e-01
1.969164907932281494e-01
-1.469458043575286865e-01
1.448845025151968002e-02
1.466179639101028442e-01
-5.703379213809967041e-02
5.504107102751731873e-02
9.106829762458801270e-02
-1.774091869592666626e-01
1.982040554285049438e-01
-1.463642120361328125e-01
1.397302895784378052e-01
1.051061823964118958e-01
1.612637788057327271e-01
-1.368488520383834839e-01
1.144065931439399719e-01
1.270815134048461914e-01
-1.610914915800094604e-01
3.663742914795875549e-02
1.000827848911285400e-01
-1.627328544855117798e-01
2.661144733428955078e-02
6.949710845947265625e-02
1.768205016851425171e-01
-6.452652066946029663e-02
1.738698929548263550e-01
5.667715892195701599e-02
-8.014133572578430176e-02
3.980151191353797913e-02
1.728378087282180786e-01
-1.019261032342910767e-01
1.967201083898544312e-01
1.563027314841747284e-02
-4.381493479013442993e-02
1.366372406482696533e-01
-1.032605171203613281e-01
-2.028872221708297729e-01
6.572518497705459595e-02
-1.620210409164428711e-01
-1.105569452047348022e-01
-1.214538887143135071e-01
3.474825620651245117e-02
-2.046152949333190918e-02
1.273773908615112305e-01
-7.869683951139450073e-02
-5.086563155055046082e-02
1.899360120296478271e-01
-9.742441773414611816e-02
1.496006101369857788e-01
2.009380050003528595e-02
-6.202179938554763794e-02
-1.201511099934577942e-01
-7.257401477545499802e-03
1.961778253316879272e-01
1.632660180330276489e-01
1.709977090358734131e-01
7.048663683235645294e-03
1.082608848810195923e-02
-1.776550561189651489e-01
-5.311697255820035934e-03
1.267645955085754395e-01
-2.460898645222187042e-02
-7.297269999980926514e-02
6.541069597005844116e-02
6.937631964683532715e-02
-2.031165920197963715e-02
1.617106944322586060e-01
-9.883041679859161377e-02
5.646186694502830505e-02
2.961806394159793854e-02
-3.637869656085968018e-02
1.187768355011940002e-01
-1.703074425458908081e-01
-1.166746020317077637e-01
3.964193165302276611e-02
-1.835059076547622681e-01
1.594366133213043213e-01
-4.396266117691993713e-02
-1.971704661846160889e-01
1.645168215036392212e-01
-1.500212848186492920e-01
9.438090771436691284e-02
-1.544147133827209473e-01
8.024390041828155518e-02
8.606294542551040649e-02
1.337061822414398193e-01
1.714254170656204224e-01
1.168790552765130997e-02
1.209192872047424316e-01
-1.731865108013153076e-01
-1.617363989353179932e-01
-9.401839971542358398e-02
1.267531048506498337e-02
-1.054541319608688354e-01
1.423893570899963379e-01
4.425537958741188049e-02
7.516816258430480957e-02
-2.316936850547790527e-02
1.541811972856521606e-01
1.294530369341373444e-02
2.075508050620555878e-02
-4.048924893140792847e-02
-7.259983569383621216e-02
6.983238458633422852e-02
-8.096018433570861816e-02
1.518554091453552246e-01
2.300709672272205353e-02
-1.957677751779556274e-01
1.149148792028427124e-01
1.108195111155509949e-01
3.761875629425048828e-02
-1.501782685518264771e-01
-1.817890852689743042e-01
-3.930728510022163391e-02
8.632149547338485718e-02
1.519537270069122314e-01
-1.128275468945503235e-01
-3.348499909043312073e-02
-1.431952565908432007e-01
-1.299275463679805398e-04
6.545574963092803955e-02
-2.020679116249084473e-01
1.646559685468673706e-01
4.673811793327331543e-02
1.917754411697387695e-01
6.112505123019218445e-02
1.605871915817260742e-01
-2.554888278245925903e-02
1.996938437223434448e-01
1.522613614797592163e-01
6.437673419713973999e-02
-2.064693719148635864e-02
-6.908664852380752563e-02
1.057823896408081055e-01
-7.410340756177902222e-02
-1.518766433000564575e-01
-1.893432289361953735e-01
4.216096550226211548e-02
1.564539223909378052e-01
-1.624439358711242676e-01
1.620392315089702606e-02
-1.565780043601989746e-01
1.126521229743957520e-01
-2.012971090152859688e-03
9.052150696516036987e-02
-1.348972767591476440e-01
1.263042390346527100e-01
1.766873002052307129e-01
-4.969699773937463760e-03
1.899280101060867310e-01
1.872540712356567383e-01
-1.176301687955856323e-01
6.135929003357887268e-02
1.471640467643737793e-01
-1.315094381570816040e-01
5.923876911401748657e-02
-8.137511089444160461e-03
-1.051571071147918701e-01
4.813878331333398819e-03
9.087768942117691040e-02
-8.378282934427261353e-02
-1.789222806692123413e-01
9.497840702533721924e-02
-1.403327882289886475e-01
-3.229609504342079163e-02
-3.497826680541038513e-02
-5.778232216835021973e-02
-1.751964539289474487e-01
1.320622861385345459e-01
-1.239954605698585510e-01
3.274156525731086731e-02
1.493570301681756973e-02
-8.238906972110271454e-03
-1.192654892802238464e-01
1.337737441062927246e-01
3.993945568799972534e-02
-2.739425376057624817e-02
-1.837368160486221313e-01
4.359195753931999207e-02
4.537582024931907654e-02
-7.175672799348831177e-02
4.144051671028137207e-02
-8.089475333690643311e-02
1.256708502769470215e-01
-2.356005832552909851e-02
-1.662250608205795288e-01
8.916789293289184570e-02
1.937738060951232910e-01
2.100062556564807892e-02
-2.864122204482555389e-02
-9.118373692035675049e-02
1.252211350947618484e-02
-6.723348796367645264e-02
-1.920690238475799561e-01
-3.894665092229843140e-02
-1.361750811338424683e-01
1.011335477232933044e-01
2.021046131849288940e-01
1.464973296970129013e-02
1.328626722097396851e-01
-7.541029900312423706e-02
-1.962119489908218384e-01
9.178761392831802368e-02
-1.478376705199480057e-02
-6.190619990229606628e-02
2.038729190826416016e-01
1.694801151752471924e-01
1.272834986448287964e-01
-1.244355365633964539e-01
-8.758033066987991333e-02
5.141557008028030396e-02
-9.110600501298904419e-02
-6.768879294395446777e-02
4.199994355440139771e-02
3.921531513333320618e-02
-1.236768215894699097e-01
1.681868284940719604e-01
-1.404728889465332031e-01
-4.519657418131828308e-02
-2.004699222743511200e-02
1.886501759290695190e-01
9.325641393661499023e-02
6.441619992256164551e-02
1.629868447780609131e-01
2.483839541673660278e-02
-2.026090025901794434e-02
-8.414984494447708130e-02
-9.007517993450164795e-02
-3.188491985201835632e-02
6.957010179758071899e-02
3.202935680747032166e-02
3.501474112272262573e-02
-8.509541302919387817e-02
2.435628138482570648e-02
1.607124805450439453e-01
-3.540937229990959167e-02
9.421974420547485352e-02
8.050072193145751953e-02
2.140422165393829346e-02
-5.462399683892726898e-03
-9.089250117540359497e-02
1.263575553894042969e-01
-4.508343711495399475e-02
-1.682161241769790649e-01
1.802621185779571533e-01
1.881151646375656128e-01
1.356480866670608521e-01
6.464260816574096680e-02
1.546101719141006470e-01
-7.036073505878448486e-02
1.059596985578536987e-01
3.703344985842704773e-02
-1.886165291070938110e-01
-1.755363494157791138e-02
2.851229719817638397e-02
-1.217532902956008911e-01
8.278124965727329254e-03
-1.164796054363250732e-01
-2.000053822994232178e-01
1.319158822298049927e-01
-1.090676486492156982e-01
1.048886254429817200e-01
5.014864355325698853e-02
1.727648526430130005e-01
1.293626874685287476e-01
1.363849043846130371e-01
8.807185292243957520e-02
-1.358835101127624512e-01
-5.223952233791351318e-02
-1.154428645968437195e-01
1.384653057903051376e-02
1.837828755378723145e-01
-8.005260676145553589e-02
-1.017043143510818481e-01
-1.514584422111511230e-01
1.078662741929292679e-02
6.563986837863922119e-02
-1.026317328214645386e-01
1.201091632246971130e-01
-8.839506655931472778e-02
-7.346602529287338257e-02
2.609666623175144196e-02
-1.268438100814819336e-01
1.715355217456817627e-01
1.641462296247482300e-01
1.074539422988891602e-01
-1.959084868431091309e-01
-7.205095887184143066e-02
-1.171325445175170898e-01
1.849860884249210358e-02
1.260210573673248291e-01
-3.192440792918205261e-02
-2.922598458826541901e-02
6.666959822177886963e-02
2.017350941896438599e-01
5.911318212747573853e-02
-1.720831692218780518e-01
-1.328217238187789917e-01
1.670559048652648926e-01
-4.308504238724708557e-02
-1.405723392963409424e-01
1.701713055372238159e-01
-1.456002891063690186e-01
-1.842572242021560669e-01
5.974318459630012512e-02
1.281254887580871582e-01
-6.328960508108139038e-02
-1.326895356178283691e-01
-1.732425689697265625e-01
3.704501688480377197e-02
9.218685328960418701e-02
-8.520095050334930420e-02
-9.654682874679565430e-02
-9.802901744842529297e-02
7.616414129734039307e-02
1.647028923034667969e-01
9.949050098657608032e-02
1.853038519620895386e-01
-8.737856149673461914e-02
-7.967848330736160278e-03
1.854800134897232056e-01
-1.564421206712722778e-01
-1.818314492702484131e-01
1.281074881553649902e-01
-1.273949295282363892e-01
-1.715076416730880737e-01
1.925466507673263550e-01
-9.366795420646667480e-02
3.630345314741134644e-02
-3.399053961038589478e-02
-1.550422608852386475e-01
-1.037583053112030029e-01
-3.385443985462188721e-02
9.682223200798034668e-02
1.764588654041290283e-01
-1.803760975599288940e-01
7.087191194295883179e-02
1.045640110969543457e-01
7.945259660482406616e-02
-2.920171944424510002e-03
1.081800684332847595e-01
-2.032038420438766479e-01
-5.597773566842079163e-02
1.186593845486640930e-01
1.816572248935699463e-01
-4.835732653737068176e-02
-1.135116219520568848e-01
-1.151863038539886475e-01
-6.848168373107910156e-02
-8.407499641180038452e-02
1.852690614759922028e-02
-1.808260381221771240e-02
-5.283414945006370544e-02
-6.135218963027000427e-02
3.861782699823379517e-02
-7.103379815816879272e-02
1.438343673944473267e-01
4.474404733628034592e-03
-1.576307117938995361e-01
-4.753574263304471970e-03
-4.924631491303443909e-02
7.283103466033935547e-02
1.381461322307586670e-01
-4.085903614759445190e-02
9.553846716880798340e-02
-1.164041087031364441e-01
7.922577857971191406e-02
-2.342094667255878448e-02
1.509715169668197632e-01
-1.492505669593811035e-01
7.574458420276641846e-02
7.806550711393356323e-02
-9.956491738557815552e-02
1.314378380775451660e-01
-8.631990849971771240e-02
-1.219754666090011597e-01
-1.649207919836044312e-01
-1.585150361061096191e-01
-9.547989815473556519e-03
5.889105424284934998e-02
1.450911462306976318e-01
5.509870871901512146e-02
-5.777443945407867432e-02
1.166483610868453979e-01
-8.253242820501327515e-02
-9.764438495039939880e-03
1.773130446672439575e-01
2.670569717884063721e-02
1.992478072643280029e-01
-8.076883852481842041e-02
-4.393399693071842194e-03
9.028469771146774292e-02
-4.389647860080003738e-03
-1.891593784093856812e-01
-1.988632678985595703e-01
7.611758075654506683e-03
-5.503211542963981628e-02
-1.186135634779930115e-01
4.586377739906311035e-02
-5.636051297187805176e-02
9.048320353031158447e-03
8.486016839742660522e-02
1.365046948194503784e-01
-3.302697092294692993e-02
-1.360203772783279419e-01
4.666544497013092041e-02
-8.199265599250793457e-02
9.590455889701843262e-02
1.051075085997581482e-01
-7.338424026966094971e-02
1.477735340595245361e-01
9.698420017957687378e-02
1.814698576927185059e-01
5.224004760384559631e-02
-1.312201321125030518e-01
1.004919484257698059e-01
-5.181298404932022095e-02
2.447451278567314148e-02
-4.562610015273094177e-02
-1.146565563976764679e-02
1.812701672315597534e-01
-1.124447286128997803e-01
7.653884589672088623e-02
1.624122858047485352e-01
3.816617280244827271e-02
1.138606220483779907e-01
1.796679645776748657e-01
-1.252918988466262817e-01
2.157256752252578735e-02
-1.439099460840225220e-01
9.552085399627685547e-02
4.326985776424407959e-02
-6.709922105073928833e-02
1.555314809083938599e-01
2.338201180100440979e-02
1.437839120626449585e-01
3.150095045566558838e-02
-3.574625775218009949e-02
1.605117619037628174e-01
-4.101292043924331665e-02
1.835967600345611572e-01
-1.479994039982557297e-02
3.269690275192260742e-02
7.492952793836593628e-02
5.607366561889648438e-02
1.187198013067245483e-01
6.749927997589111328e-02
6.051364913582801819e-02
-1.735927611589431763e-01
-1.426114141941070557e-01
-1.386735439300537109e-01
1.145148500800132751e-01
-3.599709644913673401e-02
1.086947098374366760e-01
-6.911761313676834106e-02
-8.019518107175827026e-03
-1.954215764999389648e-01
-1.208515018224716187e-01
1.090683117508888245e-01
2.306146174669265747e-02
-3.857362270355224609e-02
-6.939817219972610474e-02
4.465207085013389587e-02
-1.737306118011474609e-01
1.657845973968505859e-01
1.350009739398956299e-01
-4.594771191477775574e-02
1.298916488885879517e-01
-8.259453624486923218e-02
-8.382681757211685181e-02
1.279270201921463013e-01
-1.720181852579116821e-01
-4.113226383924484253e-02
1.806665956974029541e-01
7.372253388166427612e-02
-3.635754436254501343e-02
-1.146227195858955383e-01
1.525811702013015747e-01
-2.016948461532592773e-01
-4.733695089817047119e-02
-7.020188122987747192e-02
1.356333773583173752e-02
-2.018637061119079590e-01
-1.144491955637931824e-01
7.581741362810134888e-02
-1.747835427522659302e-01
-1.629734933376312256e-01
1.626156643033027649e-02
-1.974690705537796021e-01
3.262528032064437866e-02
-4.230494424700737000e-02
1.420867592096328735e-01
-1.658173054456710815e-01
2.036788910627365112e-01
1.677047014236450195e-01
1.786056756973266602e-01
-9.201788157224655151e-02
1.099527403712272644e-01
6.716211885213851929e-02
-1.276216004043817520e-02
7.985723763704299927e-02
-1.081707850098609924e-01
-1.502279490232467651e-01
-4.860590398311614990e-02
-1.507246643304824829e-01
-7.389169186353683472e-02
-1.557309329509735107e-01
1.956575065851211548e-01
-8.987624943256378174e-02
4.977902863174676895e-04
-1.113741844892501831e-01
1.003149300813674927e-01
1.901427507400512695e-01
8.019541203975677490e-02
1.670750603079795837e-02
1.864653676748275757e-01
-6.576822698116302490e-02
-1.428024917840957642e-01
-4.570633545517921448e-02
-6.056035682559013367e-02
1.675769090652465820e-01
-1.252689361572265625e-01
-1.855862140655517578e-01
-1.088512092828750610e-01
1.950224637985229492e-01
8.022502809762954712e-02
7.416746020317077637e-02
1.555081456899642944e-01
1.226305291056632996e-01
-2.728690579533576965e-02
-8.094079047441482544e-02
-1.263674646615982056e-01
6.216942891478538513e-02
1.263546198606491089e-01
-8.885953575372695923e-02
6.043213605880737305e-02
-5.144226551055908203e-02
3.075930848717689514e-02
-1.441361159086227417e-01
-2.347285486757755280e-02
9.209228307008743286e-02
1.240998059511184692e-01
-1.439183652400970459e-01
-7.535255514085292816e-03
1.858738660812377930e-01
-1.942060887813568115e-01
-6.469362974166870117e-02
1.207443624734878540e-01
-8.523127436637878418e-02
-1.976685374975204468e-01
2.001636028289794922e-01
-1.937490403652191162e-01
-1.956700161099433899e-02
7.812670618295669556e-02
9.907751530408859253e-02
1.989042572677135468e-02
-1.121501475572586060e-01
1.750228106975555420e-01
-1.674704253673553467e-02
-1.448940932750701904e-01
-1.339226067066192627e-01
-1.953817158937454224e-02
1.115335747599601746e-01
2.767602913081645966e-02
-1.760762780904769897e-01
6.409336626529693604e-02
-1.078520864248275757e-01
3.557731211185455322e-02
1.448624283075332642e-01
8.449615538120269775e-02
1.193415895104408264e-01
8.663898706436157227e-02
-7.408415526151657104e-02
1.562388539314270020e-01
7.161984220147132874e-03
-1.033432036638259888e-01
9.192817658185958862e-02
1.960067152976989746e-01
-5.999886989593505859e-02
1.174931377172470093e-01
4.909840226173400879e-02
1.057993993163108826e-01
8.499798178672790527e-02
-9.067759662866592407e-02
1.209513619542121887e-01
7.146474719047546387e-02
-8.266819268465042114e-02
2.860596962273120880e-02
-1.201299056410789490e-01
9.842690080404281616e-02
-6.105390191078186035e-02
1.404934227466583252e-01
-1.763757467269897461e-01
4.793887957930564880e-02
4.354165494441986084e-02
9.799747914075851440e-02
-6.392996013164520264e-02
-1.288525164127349854e-01
1.383647471666336060e-01
1.673938333988189697e-01
-1.905199885368347168e-02
-1.833529621362686157e-01
1.890384852886199951e-01
-5.946907401084899902e-02
1.649499386548995972e-01
-1.074115112423896790e-01
-1.731206290423870087e-02
-2.023960798978805542e-01
-1.174448952078819275e-01
-7.867326587438583374e-02
1.411620080471038818e-01
-1.393234282732009888e-01
1.322708930820226669e-02
-1.185579895973205566e-01
-1.315395236015319824e-01
1.024457719177007675e-02
-7.801825553178787231e-02
-2.131070941686630249e-02
5.036920309066772461e-02
-1.456387192010879517e-01
5.055508390069007874e-02
-1.222672536969184875e-01
5.040979757905006409e-02
6.366421282291412354e-02
1.849766373634338379e-01
1.693990230560302734e-01
1.024500653147697449e-02
-1.827355474233627319e-01
-1.434714496135711670e-01
1.749470084905624390e-01
1.061531752347946167e-01
-1.336600631475448608e-01
-2.840524911880493164e-02
-6.037487462162971497e-02
8.146032691001892090e-02
1.684784144163131714e-01
-9.541223198175430298e-02
-1.717947721481323242e-01
6.556323170661926270e-02
1.914783716201782227e-01
3.645128011703491211e-02
6.743384897708892822e-02
1.014392524957656860e-01
1.231762841343879700e-01
7.648090273141860962e-02
-1.192215159535408020e-01
-4.147475212812423706e-02
-1.930733770132064819e-02
-1.165750920772552490e-01
-2.513670595362782478e-03
-1.756638735532760620e-01
1.585153937339782715e-01
-8.314174413681030273e-02
1.437150785932317376e-04
-7.254438009113073349e-03
-5.631512403488159180e-02
-9.196464717388153076e-02
-1.257191002368927002e-01
-1.897557526826858521e-01
5.903794616460800171e-02
-1.263793110847473145e-01
2.031394839286804199e-01
2.859208919107913971e-02
2.035958915948867798e-01
-1.706136912107467651e-01
-1.504233032464981079e-01
-9.584529697895050049e-02
2.002951800823211670e-01
-1.450901478528976440e-01
-3.561179712414741516e-02
-8.135115355253219604e-02
-6.459022313356399536e-02
-1.653389781713485718e-01
-1.131205037236213684e-01
-9.491492062807083130e-02
-1.544669121503829956e-01
1.147079467773437500e-01
1.556082814931869507e-01
-9.939184784889221191e-02
-1.791830211877822876e-01
-3.031756170094013214e-02
1.901615113019943237e-01
-1.671254336833953857e-01
1.075482144951820374e-01
1.206972450017929077e-01
7.741520553827285767e-02
-5.811801552772521973e-02
-7.389709353446960449e-02
5.454095080494880676e-02
-4.358870908617973328e-02
4.901170730590820312e-02
-1.985289454460144043e-01
1.668978035449981689e-01
-9.696419537067413330e-02
-1.995009779930114746e-01
-1.499751210212707520e-01
-8.336268365383148193e-02
1.111777499318122864e-01
-1.264957487583160400e-01
-1.121128327213227749e-03
-1.632225513458251953e-01
7.336428016424179077e-02
-2.888755686581134796e-02
9.056410635821521282e-04
1.937730163335800171e-01
-1.194120850414037704e-02
1.854453533887863159e-01
6.174595281481742859e-02
3.152265399694442749e-02
-7.090275734663009644e-02
-1.730573624372482300e-01
-1.847804486751556396e-01
-1.662713885307312012e-01
-9.122570604085922241e-02
1.895989291369915009e-02
9.970296919345855713e-02
1.298779435455799103e-02
-8.837901055812835693e-02
1.004758179187774658e-01
-4.558534920215606689e-02
1.264725625514984131e-01
-1.268141567707061768e-01
4.308730713091790676e-04
1.952083110809326172e-01
-4.131831601262092590e-02
-4.155724123120307922e-02
1.492545604705810547e-01
-2.294128201901912689e-02
-1.443319916725158691e-01
-1.024222299456596375e-01
-9.063787758350372314e-03
-1.998959854245185852e-02
-6.684372574090957642e-02
2.019946724176406860e-01
-2.000407427549362183e-01
4.443820938467979431e-02
-3.281107917428016663e-02
5.359451845288276672e-02
1.120450571179389954e-01
-1.169023960828781128e-01
-5.027076601982116699e-02
4.030645266175270081e-02
-3.810403496026992798e-02
-1.369355320930480957e-01
-6.221490353345870972e-02
-1.739530563354492188e-01
-7.340473681688308716e-02
3.728386014699935913e-02
-5.780592560768127441e-02
2.093418873846530914e-02
-5.044046044349670410e-02
4.912624135613441467e-02
-6.233353540301322937e-02
5.736406147480010986e-02
3.787409886717796326e-02
-2.037229388952255249e-01
-1.774886697530746460e-01
-1.631444245576858521e-01
-5.117752775549888611e-02
1.941575855016708374e-01
-1.182790007442235947e-02
1.307820156216621399e-02
-1.107423156499862671e-01
-6.807978451251983643e-02
1.778713464736938477e-01
-1.853964030742645264e-01
-1.507796533405780792e-02
1.678125113248825073e-01
-1.525707691907882690e-01
-1.399398446083068848e-01
1.089732199907302856e-01
6.384819746017456055e-02
2.018901258707046509e-01
1.188106313347816467e-01
1.197673678398132324e-01
1.973287947475910187e-02
1.422577947378158569e-01
8.994162082672119141e-02
6.061803922057151794e-02
-8.665217459201812744e-02
-7.898017764091491699e-03
-1.180749759078025818e-01
-2.034071087837219238e-02
1.503032445907592773e-02
9.692588821053504944e-03
-5.174472928047180176e-03
6.570108979940414429e-02
-9.112653136253356934e-02
1.690350323915481567e-01
2.790401317179203033e-02
7.935597747564315796e-02
-1.304397433996200562e-01
1.626786589622497559e-02
-1.380005329847335815e-01
-1.599615216255187988e-01
-7.743591442704200745e-03
-9.731356799602508545e-02
1.610655635595321655e-01
-9.049768000841140747e-02
1.322150677442550659e-01
1.491097062826156616e-01
6.483797729015350342e-02
1.135811284184455872e-01
-3.779639257118105888e-03
1.459056138992309570e-01
9.585442952811717987e-03
1.040586754679679871e-01
8.508594334125518799e-02
-1.912567615509033203e-01
-1.132192835211753845e-01
-1.256752312183380127e-01
2.280816249549388885e-02
1.853433549404144287e-01
1.515779346227645874e-01
8.184745907783508301e-02
-2.446806430816650391e-02
-1.563299261033535004e-02
-7.963773608207702637e-02
2.040813118219375610e-01
-1.624777764081954956e-01
-1.418310105800628662e-01
1.705002486705780029e-01
-1.919604241847991943e-01
1.228051036596298218e-01
6.670287996530532837e-02
1.117764338850975037e-01
-4.709831625223159790e-02
1.652217656373977661e-01
1.714379787445068359e-01
1.056462526321411133e-01
4.867173265665769577e-04
-4.318495467305183411e-02
-1.602191776037216187e-01
1.061908081173896790e-01
-2.657058648765087128e-02
-1.264003515243530273e-01
-3.526703640818595886e-02
-7.885099202394485474e-02
-2.948015369474887848e-02
1.163208484649658203e-01
6.086314842104911804e-02
3.415691107511520386e-02
1.025674045085906982e-01
-1.910721510648727417e-01
-2.283050678670406342e-02
-1.964132636785507202e-01
-1.741262525320053101e-01
-1.308244466781616211e-01
-1.984671801328659058e-01
-1.750046163797378540e-01
8.909277617931365967e-02
1.695057451725006104e-01
6.461416184902191162e-02
-1.724207401275634766e-01
1.589218229055404663e-01
1.175019145011901855e-01
2.970577590167522430e-02
1.299147009849548340e-01
2.042268216609954834e-01
-8.580154180526733398e-02
-1.756348758935928345e-01
1.094950437545776367e-01
1.754306852817535400e-01
-1.985255256295204163e-02
-1.633730679750442505e-01
1.813972145318984985e-01
7.702419906854629517e-02
-4.549018666148185730e-02
1.972589790821075439e-01
-1.715166121721267700e-01
8.897390961647033691e-02
-1.822477579116821289e-01
6.323745101690292358e-02
1.474371254444122314e-01
7.393208891153335571e-02
1.071137413382530212e-01
-9.182805567979812622e-02
1.650308817625045776e-01
-8.556581288576126099e-02
-1.415264904499053955e-01
1.285184621810913086e-01
-1.167717948555946350e-01
6.830668449401855469e-02
-6.954045593738555908e-02
-1.545778363943099976e-01
-6.524240225553512573e-02
-1.123972684144973755e-01
-9.612045437097549438e-02
1.805145293474197388e-01
-9.966190904378890991e-02
1.729428395628929138e-02
1.851864606142044067e-01
-1.042136028409004211e-01
2.765887044370174408e-02
-1.854128949344158173e-02
1.629349589347839355e-01
1.709254682064056396e-01
8.576673269271850586e-02
-1.420478671789169312e-01
-9.626789391040802002e-02
8.467245846986770630e-02
1.591746360063552856e-01
-1.364542990922927856e-01
1.400967985391616821e-01
-3.202616423368453979e-02
1.059360504150390625e-01
-6.049520894885063171e-02
6.098430976271629333e-02
-7.477112114429473877e-02
3.220566082745790482e-03
-6.119582056999206543e-02
7.773933559656143188e-02
1.826150715351104736e-01
3.536307811737060547e-02
1.536669433116912842e-01
7.951494306325912476e-03
-2.431128919124603271e-02
1.980041116476058960e-01
-1.857229471206665039e-01
2.300010435283184052e-02
-4.348429292440414429e-02
-1.755560189485549927e-01
-9.522434324026107788e-02
-1.723759323358535767e-01
7.458531856536865234e-02
-1.964496225118637085e-01
6.436952948570251465e-02
-1.859826296567916870e-01
1.887311935424804688e-01
-1.012316569685935974e-01
-7.765360921621322632e-02
-1.220101490616798401e-02
-8.987975120544433594e-02
5.580614134669303894e-02
-4.450782388448715210e-02
-1.061058603227138519e-02
-7.260859757661819458e-02
-2.746479772031307220e-02
1.613135337829589844e-01
-4.329361021518707275e-02
-1.072219163179397583e-01
7.065773755311965942e-02
1.626594364643096924e-01
-8.652851730585098267e-02
-3.150456771254539490e-02
1.401061862707138062e-01
1.305721402168273926e-01
-1.258032321929931641e-01
6.157276034355163574e-02
-1.997531950473785400e-01
1.378262788057327271e-01
1.353273242712020874e-01
1.959000714123249054e-02
1.815222352743148804e-01
-8.821555227041244507e-02
-8.526495099067687988e-02
4.032789170742034912e-02
-9.273134171962738037e-02
-4.166818782687187195e-02
5.389781668782234192e-02
8.998160250484943390e-03
-7.623223960399627686e-02
-1.982654333114624023e-01
-3.493880853056907654e-02
3.492573276162147522e-02
1.420323252677917480e-01
-1.674997806549072266e-01
-1.599615216255187988e-01
3.606693586334586143e-03
-3.149027377367019653e-02
-9.519895911216735840e-02
8.902039378881454468e-02
2.245593816041946411e-02
1.331406086683273315e-01
1.939830780029296875e-01
-5.588513985276222229e-02
-8.240842074155807495e-02
1.174471676349639893e-01
9.939737617969512939e-02
-5.962929129600524902e-02
-1.596406698226928711e-01
1.090152412652969360e-01
-1.996366679668426514e-01
-1.106878668069839478e-01
5.394240468740463257e-02
-1.590529084205627441e-01
-1.825651675462722778e-01
1.159740015864372253e-01
-1.913361251354217529e-01
7.671973668038845062e-03
-6.176059320569038391e-02
-2.701102942228317261e-02
-1.173378676176071167e-01
-1.873981058597564697e-01
-8.582910150289535522e-02
-1.152450442314147949e-01
2.036808431148529053e-01
-1.979164779186248779e-01
-1.560911536216735840e-01
-1.290688514709472656e-01
1.812589764595031738e-01
1.876640468835830688e-01
1.392391473054885864e-01
-1.054425612092018127e-01
-1.338660717010498047e-01
-1.391267329454421997e-01
1.832537055015563965e-01
1.812518388032913208e-01
-1.674890369176864624e-01
-1.284807026386260986e-01
-8.805396407842636108e-02
-1.803474873304367065e-01
-1.348246354609727859e-02
-5.863768607378005981e-02
-1.993095725774765015e-01
-1.441855877637863159e-01
1.858609765768051147e-01
1.191878393292427063e-01
-9.676910936832427979e-03
9.533328562974929810e-02
6.138096377253532410e-02
-6.357436627149581909e-02
5.025023221969604492e-02
1.706822216510772705e-01
1.564462929964065552e-01
-1.201973408460617065e-01
1.612894237041473389e-01
-1.862285733222961426e-01
-1.335002202540636063e-02
1.669673621654510498e-01
1.696083098649978638e-01
-1.404713094234466553e-01
4.216952249407768250e-02
-1.601435393095016479e-01
1.649533510208129883e-01
-1.337293833494186401e-01
-1.032148897647857666e-01
1.390245258808135986e-01
-1.849422454833984375e-01
1.827574074268341064e-01
-1.911924481391906738e-01
-1.521123945713043213e-01
7.112717628479003906e-02
5.697140004485845566e-03
-3.271744400262832642e-02
7.339922338724136353e-02
6.108497455716133118e-02
1.361078768968582153e-01
-1.697142720222473145e-01
1.039386820048093796e-02
5.877458956092596054e-03
1.844363957643508911e-01
1.360865682363510132e-01
-1.253451406955718994e-01
-1.828458309173583984e-01
1.845878362655639648e-01
1.229764521121978760e-01
-1.638653874397277832e-02
1.078594997525215149e-01
1.298698484897613525e-01
-1.376115381717681885e-01
1.261384785175323486e-01
1.586991176009178162e-02
-2.086613327264785767e-02
-1.617106646299362183e-01
-1.092017516493797302e-01
1.250790059566497803e-01
1.057678014039993286e-01
1.314166933298110962e-01
5.607667192816734314e-02
-1.758742518723011017e-02
2.037800401449203491e-01
-1.006695628166198730e-01
-2.603145316243171692e-02
-6.588801741600036621e-02
1.392693519592285156e-01
-6.902723014354705811e-02
-3.134148195385932922e-02
1.064234599471092224e-01
-1.145161762833595276e-01
-5.370115116238594055e-02
1.206989660859107971e-01
-1.370769143104553223e-01
1.251429878175258636e-02
6.666494160890579224e-02
-5.987362191081047058e-02
-9.541372954845428467e-02
-5.851893499493598938e-02
7.082054764032363892e-02
-6.142943724989891052e-02
1.766118407249450684e-02
3.940785676240921021e-02
1.336689591407775879e-01
2.002579122781753540e-01
-9.019072167575359344e-03
-2.608223259449005127e-02
2.037733346223831177e-01
1.878179311752319336e-01
1.003101691603660583e-01
4.592469707131385803e-02
-1.356756538152694702e-01
-1.245215982198715210e-01
-1.995895504951477051e-01
-3.878231719136238098e-02
-9.070172160863876343e-02
6.433428823947906494e-02
7.193574309349060059e-02
-1.700671166181564331e-01
-1.187102794647216797e-01
1.569172441959381104e-01
-1.631201654672622681e-01
-1.789868026971817017e-01
1.556587815284729004e-01
-1.541140675544738770e-01
1.015156954526901245e-01
1.359662623144686222e-03
-1.324514597654342651e-01
-4.162949696183204651e-02
-8.383385837078094482e-02
-1.972689181566238403e-01
1.513480395078659058e-01
-6.302627921104431152e-02
7.259333133697509766e-02
-3.524252772331237793e-02
1.190799549221992493e-01
-1.384069323539733887e-01
-1.201616949401795864e-03
-2.304845489561557770e-02
-7.886039465665817261e-02
-1.921961456537246704e-01
1.993794441223144531e-01
-1.201766356825828552e-01
1.189307346940040588e-01
8.546710945665836334e-03
-1.788416057825088501e-01
-1.102330833673477173e-01
-1.346894204616546631e-01
-1.048884168267250061e-01
-1.976076662540435791e-01
2.101027779281139374e-02
4.379827901721000671e-02
-3.716926276683807373e-02
-1.366625577211380005e-01
-1.899442523717880249e-01
1.869543194770812988e-01
-1.800344735383987427e-01
3.383300825953483582e-02
8.407569676637649536e-02
1.862072348594665527e-01
1.758955419063568115e-01
2.751275897026062012e-02
2.425299212336540222e-02
-4.781143367290496826e-02
-5.751325190067291260e-02
-7.234053313732147217e-02
-1.420984715223312378e-01
-1.407144963741302490e-02
-1.095533743500709534e-01
2.006717585027217865e-02
-2.841406268998980522e-03
3.670938685536384583e-02
5.529220774769783020e-02
3.685180842876434326e-02
1.994108259677886963e-01
-2.536834590137004852e-02
1.051957383751869202e-01
3.407677635550498962e-02
-6.538136303424835205e-02
1.878626048564910889e-01
-4.392398055642843246e-03
-5.391263868659734726e-03
-1.811792403459548950e-01
-1.392689198255538940e-01
-1.019345670938491821e-01
-1.670671254396438599e-01
1.121013611555099487e-01
-1.118335127830505371e-01
-1.810564249753952026e-01
-3.419230878353118896e-02
1.541016250848770142e-02
-7.017279416322708130e-02
-1.871477067470550537e-01
-4.625781998038291931e-02
1.856444329023361206e-01
6.944754719734191895e-02
-2.722898684442043304e-02
1.651217788457870483e-01
5.132834613323211670e-02
-3.397676348686218262e-02
4.901359602808952332e-02
-3.567120432853698730e-02
-1.208317205309867859e-01
-1.012770310044288635e-01
2.044576257467269897e-01
1.968501061201095581e-01
-1.624418795108795166e-01
1.064631193876266479e-01
-6.416061893105506897e-03
-1.320544164627790451e-02
-1.273819208145141602e-01
9.406994096934795380e-03
1.783476769924163818e-01
-6.476663798093795776e-02
6.924914568662643433e-02
-4.526878148317337036e-02
-1.980574578046798706e-01
-8.102642744779586792e-02
1.655051298439502716e-02
-5.086311325430870056e-02
2.039841264486312866e-01
1.560595631599426270e-01
-1.956532150506973267e-01
5.830500647425651550e-02
-9.835510700941085815e-02
-2.443807944655418396e-02
3.359655151143670082e-03
-4.980776086449623108e-02
9.428972005844116211e-02
8.924514800310134888e-02
1.528781056404113770e-01
1.598455756902694702e-01
1.258522719144821167e-01
5.744461715221405029e-02
-4.743869230151176453e-02
-1.340142339468002319e-01
-5.403176322579383850e-02
1.471339762210845947e-01
1.183682680130004883e-01
1.962579935789108276e-01
7.193536311388015747e-02
-1.320468336343765259e-01
-1.778169721364974976e-01
3.583798184990882874e-02
8.724057674407958984e-02
1.807577759027481079e-01
2.036304920911788940e-01
-1.870660781860351562e-01
8.576979488134384155e-02
-1.156045645475387573e-01
-1.729109883308410645e-01
7.417825609445571899e-02
1.857782900333404541e-01
-1.621221303939819336e-01
1.075035855174064636e-01
-1.814820915460586548e-01
8.716918528079986572e-02
1.415409445762634277e-01
1.363366693258285522e-01
8.110755681991577148e-02
-8.875404298305511475e-02
-1.734221167862415314e-02
-2.641455456614494324e-02
8.439759165048599243e-02
-8.141639828681945801e-02
-2.023303061723709106e-01
1.793276667594909668e-01
1.436588317155838013e-01
9.744667261838912964e-02
-6.407727301120758057e-02
-1.431630253791809082e-01
1.426098644733428955e-01
3.730299696326255798e-02
-1.359113305807113647e-01
-1.463089585304260254e-01
-3.886947408318519592e-02
1.445682495832443237e-01
-7.466976344585418701e-02
-7.326327264308929443e-02
1.210524216294288635e-01
8.373741060495376587e-02
-2.592475153505802155e-02
-6.549965590238571167e-02
1.275240210816264153e-03
8.581943809986114502e-02
8.150793612003326416e-02
3.678717184811830521e-03
1.923303753137588501e-01
-7.894757390022277832e-02
-7.899343967437744141e-02
-3.686087578535079956e-02
4.104648530483245850e-02
1.054133847355842590e-01
1.307068206369876862e-02
-1.043205112218856812e-01
-1.908047311007976532e-02
3.904967755079269409e-02
1.822955906391143799e-01
-1.705253869295120239e-01
-2.114714868366718292e-02
-3.373170644044876099e-02
-4.377086833119392395e-02
-9.651275724172592163e-02
1.463585942983627319e-01
1.245602145791053772e-01
5.655473470687866211e-02
1.231704577803611755e-01
2.160074561834335327e-02
1.714820116758346558e-01
8.889335207641124725e-03
-3.125492110848426819e-02
-1.254599988460540771e-01
1.610817015171051025e-01
1.553698778152465820e-01
1.183156669139862061e-01
-8.276843279600143433e-02
-1.199043239466845989e-03
1.873134449124336243e-02
-1.191246360540390015e-01
7.767447084188461304e-02
1.635613739490509033e-01
-1.285079121589660645e-01
7.437019143253564835e-03
1.680371761322021484e-01
-1.523423641920089722e-01
1.598365902900695801e-01
1.619673371315002441e-01
3.328370675444602966e-02
-6.520114094018936157e-02
1.643045991659164429e-01
-1.633960902690887451e-01
-1.953728795051574707e-01
9.219362586736679077e-02
-1.051174998283386230e-01
-1.102505102753639221e-01
-1.800857186317443848e-01
-5.404568836092948914e-02
7.905620336532592773e-02
-5.530286952853202820e-02
-1.524011492729187012e-01
3.429980948567390442e-02
6.094140931963920593e-02
2.933795750141143799e-02
1.379985362291336060e-01
-5.976588651537895203e-02
-4.127973318099975586e-02
-1.534764617681503296e-01
-1.256007850170135498e-01
6.376011669635772705e-02
1.492078006267547607e-01
3.271501138806343079e-02
-4.030124470591545105e-02
3.747942298650741577e-02
-7.051302492618560791e-02
-3.188949450850486755e-02
1.591776311397552490e-01
-7.625892013311386108e-02
5.883741006255149841e-02
-1.754251718521118164e-01
-1.623332351446151733e-01
-1.648269593715667725e-01
1.489562988281250000e-01
-1.388612985610961914e-01
-2.799776569008827209e-02
-1.449489593505859375e-01
-1.740360409021377563e-01
-1.754865646362304688e-01
-7.222042232751846313e-02
1.196604520082473755e-01
-9.213586151599884033e-02
1.444944292306900024e-01
-1.102532353252172470e-02
1.909617334604263306e-01
5.711892619729042053e-02
-1.479642242193222046e-01
-1.621404290199279785e-01
1.825537532567977905e-01
1.153469458222389221e-01
1.079244762659072876e-01
-1.215960979461669922e-01
6.065463647246360779e-02
-5.040730163455009460e-02
-1.468006074428558350e-01
-3.044796641916036606e-03
7.542499154806137085e-02
1.983768772333860397e-03
1.672447919845581055e-01
-4.665902256965637207e-02
5.760935321450233459e-02
1.338482052087783813e-01
-1.775521039962768555e-02
6.658686697483062744e-02
-1.312765479087829590e-01
-7.043787837028503418e-02
-1.037746593356132507e-01
7.578720338642597198e-03
-9.280999004840850830e-02
-7.428542524576187134e-02
-6.535696238279342651e-02
-7.351100444793701172e-02
1.024378091096878052e-01
-5.967497825622558594e-02
4.120465368032455444e-02
-3.671342879533767700e-02
-1.155347824096679688e-01
1.585363000631332397e-01
4.702708125114440918e-02
4.136853665113449097e-02
-1.575387269258499146e-01
-1.547769308090209961e-01
-8.928681164979934692e-02
1.934384256601333618e-01
-4.207342863082885742e-02
6.501181423664093018e-02
-1.722650825977325439e-01
-5.886612087488174438e-02
1.466191709041595459e-01
-1.824891418218612671e-01
2.252114564180374146e-02
1.117592751979827881e-01
-8.349423855543136597e-02
-1.470480412244796753e-01
9.395667910575866699e-02
-1.716372519731521606e-01
-1.430775821208953857e-01
-1.553494185209274292e-01
-3.363930806517601013e-02
1.114255096763372421e-02
-4.073354974389076233e-02
-1.160687673836946487e-02
-1.912921667098999023e-01
-1.207884848117828369e-01
2.968604862689971924e-02
1.790519952774047852e-01
6.835954636335372925e-02
1.427955627441406250e-01
9.492039680480957031e-02
-2.008887529373168945e-01
1.076036542654037476e-01
1.137116365134716034e-02
1.933787465095520020e-01
1.776487529277801514e-01
1.624863892793655396e-01
5.322783812880516052e-02
1.022964343428611755e-01
1.562120672315359116e-02
1.459217369556427002e-01
9.473203867673873901e-02
-1.466027796268463135e-01
-4.183642566204071045e-02
1.572935581207275391e-01
-1.087967008352279663e-01
-1.545161902904510498e-01
4.867692664265632629e-02
1.154087632894515991e-01
1.067307740449905396e-01
4.555121809244155884e-02
-4.005417227745056152e-02
1.815036386251449585e-01
7.925596088171005249e-02
1.585217267274856567e-01
1.240320503711700439e-01
-6.072582304477691650e-02
1.936886906623840332e-01
1.696148663759231567e-01
1.917260289192199707e-01
1.493764519691467285e-01
-6.789692491292953491e-02
-1.990916393697261810e-02
-1.099959686398506165e-01
5.846654996275901794e-02
-9.426585584878921509e-02
4.176173359155654907e-02
7.574835419654846191e-02
-1.705761551856994629e-01
-1.465142369270324707e-01
-1.295159850269556046e-02
2.848547138273715973e-02
-1.047022938728332520e-01
1.555465012788772583e-01
-6.070761382579803467e-02
-1.988786756992340088e-01
-1.555697768926620483e-01
-6.421722471714019775e-02
2.416604012250900269e-02
1.291870027780532837e-01
1.870400160551071167e-01
-5.640514567494392395e-02
-9.049940854310989380e-02
1.271434128284454346e-01
1.937122941017150879e-01
1.024856269359588623e-01
1.555314660072326660e-01
-1.348105967044830322e-01
1.195105910301208496e-01
1.288623809814453125e-01
1.373974978923797607e-01
-5.423049628734588623e-02
1.929202675819396973e-02
-4.471196606755256653e-02
9.751605242490768433e-02
1.523561030626296997e-02
1.393277198076248169e-01
5.757973715662956238e-02
1.299644261598587036e-01
9.597888588905334473e-02
1.151483654975891113e-01
6.840156018733978271e-02
-1.650688201189041138e-01
9.658068418502807617e-02
-6.316450983285903931e-02
-5.632010102272033691e-02
1.599861532449722290e-01
-2.278392575681209564e-02
4.904891923069953918e-02
-2.504056878387928009e-02
5.584852769970893860e-02
-9.928557276725769043e-02
-1.984071219339966774e-03
-7.478916645050048828e-02
-7.527889311313629150e-02
-1.951598674058914185e-01
-1.891703456640243530e-01
-1.982837021350860596e-01
-1.627390533685684204e-01
-5.059421434998512268e-02
1.436220556497573853e-01
-6.082789599895477295e-02
7.444263249635696411e-02
-6.430938839912414551e-02
-1.207200810313224792e-01
-1.135112345218658447e-01
-2.146154828369617462e-02
-4.850566759705543518e-02
2.358535304665565491e-02
-1.162359640002250671e-01
-1.406373083591461182e-01
1.999557614326477051e-01
1.262423098087310791e-01
-8.576965332031250000e-02
9.415713697671890259e-02
9.643563069403171539e-03
3.865665197372436523e-02
1.706382483243942261e-01
1.241846531629562378e-01
-1.330234408378601074e-01
-9.964388608932495117e-02
-1.073717791587114334e-02
-3.522631153464317322e-02
-7.978455722332000732e-02
1.525541543960571289e-01
8.560346066951751709e-02
-6.095181778073310852e-02
-9.214923530817031860e-02
6.394979357719421387e-02
-3.780207782983779907e-02
-4.865264520049095154e-02
-1.753949970006942749e-01
-1.855037808418273926e-01
-3.042309544980525970e-02
9.918546676635742188e-02
-2.000809907913208008e-01
-6.667743623256683350e-02
-1.272502392530441284e-01
1.322753280401229858e-01
1.565727405250072479e-02
-1.947359889745712280e-01
1.931887418031692505e-01
-2.028152495622634888e-01
-2.168010734021663666e-02
-2.026029527187347412e-01
1.945294588804244995e-01
-5.337672680616378784e-02
-1.860981434583663940e-01
-1.118091568350791931e-01
1.305717676877975464e-01
2.983347512781620026e-02
1.441160142421722412e-01
1.212934330105781555e-01
-1.427489221096038818e-01
-4.452522099018096924e-02
-4.376537725329399109e-02
8.701583743095397949e-02
-1.856091320514678955e-01
1.592490226030349731e-01
-1.483182758092880249e-01
-1.632633060216903687e-01
-1.893150955438613892e-01
3.347977623343467712e-02
1.273017078638076782e-01
-1.402376145124435425e-01
-2.039474993944168091e-02
-1.875211894512176514e-01
-1.320028901100158691e-01
-3.939801082015037537e-02
1.713397055864334106e-01
1.860587894916534424e-01
1.486043930053710938e-01
-8.985225111246109009e-02
-1.219144612550735474e-01
1.915058940649032593e-01
1.197820901870727539e-01
5.098075419664382935e-02
1.862380504608154297e-01
-1.191149875521659851e-01
-6.671664863824844360e-02
-6.008847802877426147e-02
5.715576931834220886e-02
9.984569996595382690e-02
1.750744283199310303e-01
-2.003688961267471313e-01
-1.639081686735153198e-01
3.628847375512123108e-02
5.521052703261375427e-02
-1.402461528778076172e-01
6.745135784149169922e-02
-1.200469434261322021e-01
-9.207065403461456299e-02
-1.131739467382431030e-02
2.570962160825729370e-02
1.815546751022338867e-01
-1.819700300693511963e-01
6.550287455320358276e-02
4.790855944156646729e-02
7.031030207872390747e-02
1.071298718452453613e-01
4.711807519197463989e-02
-1.422002166509628296e-01
-9.283831715583801270e-02
-2.648483961820602417e-02
-1.531620472669601440e-01
-1.208556517958641052e-01
1.702186465263366699e-02
-1.301923245191574097e-01
-1.965509951114654541e-01
-2.327740564942359924e-02
-1.493684947490692139e-01
-5.017390102148056030e-02
1.522458195686340332e-01
-1.679795235395431519e-01
-1.421211510896682739e-01
2.031777203083038330e-01
6.025715172290802002e-02
-1.982917040586471558e-01
-5.161257460713386536e-02
-1.545474380254745483e-01
-6.238446012139320374e-02
-1.798189431428909302e-02
4.759593307971954346e-02
2.155326120555400848e-02
-1.971993446350097656e-01
1.316890716552734375e-01
-6.911446154117584229e-02
-1.096841394901275635e-01
-1.773731261491775513e-01
1.079982221126556396e-01
1.079167053103446960e-01
1.336391568183898926e-01
-1.335927397012710571e-01
-1.721595823764801025e-01
-9.477959573268890381e-02
1.763944178819656372e-01
1.618913710117340088e-01
5.127805098891258240e-02
1.701365709304809570e-01
6.365849822759628296e-02
-1.720672547817230225e-01
6.625895947217941284e-02
-1.418091654777526855e-01
1.565368324518203735e-01
-1.899922341108322144e-01
1.184423565864562988e-01
-1.485945880413055420e-01
6.686437129974365234e-02
-1.340196877717971802e-01
8.162406086921691895e-02
1.046682149171829224e-02
-1.674640178680419922e-01
-1.238223388791084290e-01
-1.837553828954696655e-01
-7.676898688077926636e-02
-1.329258978366851807e-01
1.165378242731094360e-01
-1.032560225576162338e-02
3.382245451211929321e-02
-7.172387838363647461e-02
1.787532567977905273e-01
-1.366269588470458984e-01
-1.032079849392175674e-02
-6.605292856693267822e-02
-1.787137240171432495e-01
5.315233021974563599e-02
8.797702938318252563e-02
4.599683359265327454e-02
-9.052970260381698608e-02
1.700021475553512573e-01
1.463193744421005249e-01
-1.476539522409439087e-01
9.100165963172912598e-02
1.281252503395080566e-01
1.034411489963531494e-01
9.253185987472534180e-02
-1.187779456377029419e-01
1.711827367544174194e-01
-1.950464397668838501e-01
-1.417635828256607056e-01
8.906991034746170044e-02
1.444571465253829956e-01
-1.256087720394134521e-01
6.209141388535499573e-02
3.624641895294189453e-02
-1.232535317540168762e-01
-1.171027049422264099e-01
2.663252502679824829e-02
-4.697990044951438904e-02
1.669788956642150879e-01
-1.927640587091445923e-01
6.299904733896255493e-02
