-1.716960221529006958e-03
-8.030937612056732178e-02
3.410791605710983276e-02
-1.549952104687690735e-02
-3.716908395290374756e-02
7.844644784927368164e-02
-2.480116672813892365e-02
-2.093408256769180298e-02
-2.955355308949947357e-02
8.990688621997833252e-02
6.658352911472320557e-02
-7.512036710977554321e-02
-1.057758461683988571e-03
-4.942925646901130676e-02
-4.819055274128913879e-02
6.998527795076370239e-02
7.965458929538726807e-02
-6.028482317924499512e-02
5.967038124799728394e-02
3.711218014359474182e-02
-5.874253809452056885e-02
-1.263731252402067184e-02
-3.481371700763702393e-02
-3.090089932084083557e-02
-8.963356167078018188e-02
3.501478349789977074e-03
5.143885686993598938e-02
2.756231231614947319e-03
-8.095769584178924561e-02
-5.214779172092676163e-03
6.326428800821304321e-02
-4.776006564497947693e-02
-1.261677592992782593e-02
-1.790323853492736816e-02
8.093637973070144653e-02
3.475475683808326721e-02
-5.523775517940521240e-02
1.312080770730972290e-03
5.060498788952827454e-02
9.066946804523468018e-03
-3.831223770976066589e-02
-2.590015158057212830e-02
-4.371621087193489075e-02
5.784944817423820496e-02
1.983101479709148407e-03
-4.126113280653953552e-02
2.087982557713985443e-02
2.407132834196090698e-02
-1.019790396094322205e-02
4.951278120279312134e-02
2.781314402818679810e-02
1.828300207853317261e-02
-4.495158419013023376e-02
-4.241563752293586731e-02
6.964639760553836823e-03
1.725398190319538116e-02
-1.387139875441789627e-02
4.798481985926628113e-02
-1.884594187140464783e-02
-6.836783140897750854e-02
-2.400537393987178802e-02
1.133978180587291718e-02
-7.755212485790252686e-02
1.822903566062450409e-02
2.425077557563781738e-02
2.485672384500503540e-02
-4.750146716833114624e-02
-7.933053374290466309e-02
7.431711070239543915e-03
-1.735714823007583618e-02
8.609444648027420044e-02
-2.047151559963822365e-03
-9.938020259141921997e-03
-2.363414317369461060e-02
6.572710722684860229e-02
6.908937543630599976e-02
1.432962436228990555e-02
4.627378657460212708e-02
7.174032181501388550e-02
7.968579232692718506e-02
-1.928040944039821625e-02
-4.750970378518104553e-02
-7.017963100224733353e-03
3.173296898603439331e-02
8.754274249076843262e-02
-8.731194585561752319e-02
-5.811307206749916077e-02
-1.589524000883102417e-02
7.387741655111312866e-02
1.793670654296875000e-02
5.072192102670669556e-02
6.632255762815475464e-02
-3.245330229401588440e-02
3.096629679203033447e-02
-8.225239813327789307e-02
3.884407691657543182e-03
-1.152848545461893082e-02
-2.141136862337589264e-02
4.094180837273597717e-02
7.841902971267700195e-02
8.007806539535522461e-02
-6.886603683233261108e-02
4.861869290471076965e-02
-5.280460044741630554e-02
-1.310227089561522007e-03
6.833919137716293335e-02
-8.403616398572921753e-02
-5.691665410995483398e-02
-8.041278272867202759e-02
8.028140291571617126e-03
-2.309364965185523033e-03
9.203925728797912598e-03
-7.770506292581558228e-02
7.806392014026641846e-02
9.063712321221828461e-03
-7.132700830698013306e-02
-8.208197355270385742e-02
-8.899431675672531128e-02
7.647140324115753174e-02
4.193118587136268616e-02
4.481983371078968048e-03
-7.996264845132827759e-02
-2.540123276412487030e-02
5.207327753305435181e-02
-2.512659179046750069e-03
8.799058198928833008e-02
7.049373537302017212e-02
-3.730436041951179504e-02
3.534905239939689636e-02
9.701451286673545837e-03
6.711148470640182495e-02
-4.615786299109458923e-02
6.370232999324798584e-02
5.777404457330703735e-02
2.853910438716411591e-02
7.605122029781341553e-02
6.885726004838943481e-02
-8.633571118116378784e-02
7.053560018539428711e-02
-5.123583972454071045e-02
-4.883142188191413879e-03
5.556204169988632202e-02
-7.033207267522811890e-02
-5.956261232495307922e-02
7.075949106365442276e-03
-2.662330865859985352e-02
-4.107768461108207703e-02
-9.027262032032012939e-02
1.108298636972904205e-02
-5.871287733316421509e-02
3.922589588910341263e-03
-9.674998931586742401e-03
-3.375551430508494377e-03
-7.632277160882949829e-02
-8.579592406749725342e-02
3.099878504872322083e-02
-7.195454835891723633e-02
-4.243559017777442932e-02
-4.170822352170944214e-02
3.093682415783405304e-02
1.608504913747310638e-02
1.488979905843734741e-02
-6.822582334280014038e-02
-1.265616388991475105e-03
6.949887424707412720e-02
-2.670024521648883820e-02
2.202546037733554840e-02
-4.384264815598726273e-03
9.082437306642532349e-02
2.838093228638172150e-02
-5.168696120381355286e-02
-4.056882113218307495e-02
3.429631516337394714e-02
-6.507708132266998291e-02
6.471354514360427856e-02
-5.610594153404235840e-02
8.772125840187072754e-02
-5.844422429800033569e-02
2.686226181685924530e-02
-7.879059016704559326e-02
8.461859822273254395e-02
4.889482259750366211e-02
-8.685304969549179077e-02
-4.610761255025863647e-02
5.329728126525878906e-02
-2.767834253609180450e-02
5.885922349989414215e-03
-3.136756643652915955e-02
8.837942034006118774e-02
3.359936410561203957e-03
6.324847042560577393e-02
2.059125574305653572e-03
3.651406383141875267e-03
-1.893979497253894806e-02
1.819304563105106354e-02
7.298685610294342041e-02
-6.794839352369308472e-02
-8.800555020570755005e-03
8.317726105451583862e-02
-5.264754220843315125e-02
3.523999080061912537e-02
-4.143837466835975647e-02
6.842140853404998779e-02
3.328583389520645142e-02
1.168243773281574249e-02
4.674665257334709167e-02
-3.076383285224437714e-02
-7.868918031454086304e-02
-1.703794114291667938e-02
-3.005544422194361687e-03
7.642678916454315186e-02
7.871271669864654541e-02
5.151982605457305908e-02
-8.305986970663070679e-02
7.186958193778991699e-02
-4.494400322437286377e-02
-7.314025610685348511e-02
3.336643276270478964e-04
-7.598568219691514969e-03
-2.439526095986366272e-02
-5.749334022402763367e-02
-2.310527116060256958e-02
8.164523541927337646e-02
4.304256290197372437e-02
-3.131944686174392700e-02
-6.294171512126922607e-02
7.047587633132934570e-02
-6.204183027148246765e-02
5.660356208682060242e-02
5.443398281931877136e-02
-3.627682104706764221e-02
-6.757634133100509644e-02
5.315286666154861450e-02
7.608418166637420654e-02
5.696021020412445068e-02
-6.634773313999176025e-02
2.578201703727245331e-02
8.446362614631652832e-02
4.709279164671897888e-02
3.530669212341308594e-02
1.621339656412601471e-02
-5.447008460760116577e-02
3.561395034193992615e-02
9.124743752181529999e-03
-3.623412922024726868e-02
-6.699366867542266846e-02
-8.262819796800613403e-02
-7.107046991586685181e-02
-8.901828527450561523e-02
8.105844259262084961e-02
6.190284714102745056e-02
-8.944267779588699341e-02
-7.807046175003051758e-02
-5.654391646385192871e-02
-7.935801893472671509e-02
-7.248371094465255737e-02
3.984462097287178040e-02
1.744159311056137085e-02
-1.845114305615425110e-02
-1.715240254998207092e-02
-3.122387570329010487e-04
-5.497240647673606873e-02
-4.946765303611755371e-02
3.680542111396789551e-02
5.191878974437713623e-02
-5.350171029567718506e-02
-8.116273581981658936e-02
8.158854395151138306e-02
-2.600093930959701538e-02
5.647259578108787537e-02
-1.301900111138820648e-02
5.574455484747886658e-02
-1.198253221809864044e-02
8.944182842969894409e-02
4.441406577825546265e-02
-4.247368127107620239e-02
3.530746698379516602e-02
1.478209719061851501e-02
-7.011388242244720459e-02
3.120488021522760391e-03
-1.139103900641202927e-02
-1.582010276615619659e-02
-2.923496067523956299e-02
-6.549607217311859131e-02
1.581864058971405029e-02
-6.351832300424575806e-02
1.439193077385425568e-02
6.004419550299644470e-02
-4.749135300517082214e-02
4.651812836527824402e-02
4.135667905211448669e-02
4.144824296236038208e-02
7.691456377506256104e-02
-3.102871403098106384e-02
-5.898949457332491875e-04
-5.054876580834388733e-02
-7.463465631008148193e-02
-8.861054480075836182e-02
4.149508476257324219e-02
1.718701981008052826e-02
-4.808479547500610352e-02
-7.896464318037033081e-02
3.264552727341651917e-02
-7.641060650348663330e-02
7.883413881063461304e-02
-4.389963578432798386e-03
6.493247300386428833e-02
4.080793634057044983e-02
-8.298955857753753662e-02
6.836879998445510864e-02
-5.416284315288066864e-03
3.329714387655258179e-02
-7.725014351308345795e-03
-5.865022912621498108e-02
1.798564754426479340e-02
8.071905374526977539e-02
-8.165244758129119873e-02
-6.167143955826759338e-02
-1.067326869815587997e-02
5.602518469095230103e-02
-5.928506329655647278e-02
-1.835118234157562256e-02
6.440768390893936157e-02
-4.985215514898300171e-02
6.350216269493103027e-02
-1.132340542972087860e-02
5.023447424173355103e-02
6.546936184167861938e-02
2.651513181626796722e-02
3.888244181871414185e-02
-7.290683686733245850e-02
1.012798771262168884e-02
7.705931365489959717e-02
-6.075131893157958984e-02
8.037149906158447266e-02
6.580612156540155411e-03
8.324360847473144531e-02
7.917342334985733032e-02
-3.666362911462783813e-02
-8.592808246612548828e-02
1.641886495053768158e-02
4.140544310212135315e-02
3.189735859632492065e-02
-3.054876811802387238e-02
-3.839866491034626961e-03
8.010128885507583618e-02
-8.478271216154098511e-02
4.772657901048660278e-02
-4.751889966428279877e-03
-6.935735791921615601e-02
-6.609410047531127930e-02
4.263378679752349854e-02
-3.252443298697471619e-02
-3.114962019026279449e-03
4.931716248393058777e-02
2.246739529073238373e-02
7.453621178865432739e-02
-9.087556600570678711e-02
2.389317145571112633e-03
-1.629489660263061523e-02
6.765154656022787094e-03
-7.746794074773788452e-02
7.928605377674102783e-02
4.038757085800170898e-02
-2.436926960945129395e-02
-5.462058261036872864e-02
-6.535573303699493408e-02
-4.417406767606735229e-02
-1.026256382465362549e-02
4.892045632004737854e-02
-6.740660220384597778e-02
-7.332272827625274658e-02
-7.342172414064407349e-02
2.890765853226184845e-02
-2.719807997345924377e-02
-4.208294674754142761e-02
4.530504811555147171e-03
-6.146480888128280640e-02
-8.347218483686447144e-02
-8.395959436893463135e-02
-7.647116482257843018e-02
-3.414590284228324890e-02
4.584544897079467773e-02
-1.394634786993265152e-02
-4.500682651996612549e-02
-3.445693850517272949e-02
-3.636658936738967896e-02
-4.801841825246810913e-02
-2.712437883019447327e-03
-5.508503690361976624e-02
-5.851496383547782898e-02
-2.398033626377582550e-02
6.354754418134689331e-02
-8.741774410009384155e-02
6.814713031053543091e-02
-2.979959826916456223e-03
9.092164039611816406e-02
1.055751647800207138e-02
-3.094639442861080170e-02
-1.120964437723159790e-02
4.591598734259605408e-02
-4.330204427242279053e-02
-3.722431510686874390e-02
5.886466428637504578e-02
-8.954449743032455444e-02
1.543342415243387222e-02
-4.316612612456083298e-04
8.296934515237808228e-02
-4.754934832453727722e-02
-6.717473268508911133e-02
3.844806225970387459e-03
3.949726000428199768e-02
-3.397134831175208092e-03
-1.069518737494945526e-02
-6.695733219385147095e-02
-4.024757072329521179e-02
-4.551650024950504303e-03
-8.893949538469314575e-02
1.665283367037773132e-02
-5.651459842920303345e-02
3.798523545265197754e-02
2.464813739061355591e-02
-8.524883538484573364e-02
7.004006206989288330e-02
-7.570908218622207642e-02
1.131007797084748745e-03
6.253455579280853271e-02
4.593153670430183411e-02
-3.942432999610900879e-02
-9.735493804328143597e-04
5.587682500481605530e-02
-2.838793955743312836e-02
6.572000682353973389e-02
-2.567415684461593628e-02
-8.101283013820648193e-02
1.320779323577880859e-03
3.531778603792190552e-02
-6.016019731760025024e-02
1.270814705640077591e-02
-1.756418682634830475e-02
5.621774494647979736e-02
7.958051562309265137e-02
7.778596878051757812e-02
-1.718903332948684692e-02
-8.613585680723190308e-02
-9.381245821714401245e-03
-1.006053667515516281e-02
-2.706595510244369507e-02
4.579629376530647278e-02
6.994712632149457932e-03
-9.236739948391914368e-03
2.378931269049644470e-02
-4.693191871047019958e-02
4.670859873294830322e-02
8.267696946859359741e-02
6.566249579191207886e-02
7.395229302346706390e-03
-4.901868104934692383e-02
4.443994536995887756e-02
2.652433887124061584e-02
8.370489627122879028e-02
-7.961003482341766357e-02
8.468924462795257568e-02
-1.761341094970703125e-02
-3.776880353689193726e-02
7.960413396358489990e-02
-8.007265627384185791e-02
4.376455768942832947e-02
8.321662247180938721e-02
-8.960926532745361328e-02
2.732995711266994476e-02
6.956225633621215820e-02
-4.285509511828422546e-02
-2.661375515162944794e-02
-7.805851846933364868e-02
-8.558901608921587467e-04
2.996691875159740448e-02
8.366539329290390015e-02
-2.517911233007907867e-02
1.271600648760795593e-02
4.705159738659858704e-02
3.836683556437492371e-02
1.536702644079923630e-02
5.176696181297302246e-02
6.304076313972473145e-02
1.110871555283665657e-03
4.935986176133155823e-02
7.564133405685424805e-02
6.351301074028015137e-02
-7.392483204603195190e-02
2.500054612755775452e-02
6.062018871307373047e-02
-5.477389320731163025e-02
-8.267693221569061279e-02
-3.998415544629096985e-02
-7.460475713014602661e-02
2.195338159799575806e-02
8.771556615829467773e-02
3.009065613150596619e-02
-2.001971565186977386e-02
-4.897187650203704834e-02
-5.846570059657096863e-02
1.502227503806352615e-02
-6.111224740743637085e-02
-4.765804111957550049e-02
-8.987230062484741211e-02
5.418598651885986328e-02
1.227612025104463100e-03
-2.652422152459621429e-02
-4.892592877149581909e-02
1.823139935731887817e-02
6.606940180063247681e-02
3.121022321283817291e-02
-7.435661554336547852e-02
1.751497946679592133e-02
4.775619506835937500e-02
-3.959822654724121094e-02
4.386837780475616455e-02
8.230938762426376343e-02
3.870143741369247437e-02
4.850026592612266541e-02
-6.203279644250869751e-02
-7.556988298892974854e-02
7.551035284996032715e-02
1.855926401913166046e-02
-1.629779487848281860e-02
-4.838239774107933044e-02
-4.291900247335433960e-02
3.822268918156623840e-02
6.034675613045692444e-02
-7.237184047698974609e-02
4.514500498771667480e-02
4.956831410527229309e-02
3.286759555339813232e-02
-2.073426498100161552e-03
8.274576067924499512e-02
1.857995055615901947e-02
8.200092613697052002e-02
-3.620444610714912415e-02
3.829171881079673767e-02
1.737310923635959625e-02
6.549754738807678223e-02
-2.901221625506877899e-02
-4.040791839361190796e-02
6.722763925790786743e-02
4.189120978116989136e-02
-2.423207974061369896e-03
3.760478648473508656e-07
3.089115023612976074e-02
-4.780705273151397705e-02
8.298808336257934570e-02
3.125896677374839783e-02
2.647672034800052643e-02
2.206660620868206024e-02
-6.209286302328109741e-02
7.804293185472488403e-02
7.954156398773193359e-02
3.011924214661121368e-02
-4.947325587272644043e-02
8.972550183534622192e-02
-4.514123126864433289e-02
-8.819045126438140869e-02
-3.324325196444988251e-03
6.320830434560775757e-02
3.842399269342422485e-02
-7.073679938912391663e-03
4.245975613594055176e-02
-3.108708187937736511e-03
-1.635134778916835785e-02
-4.009186848998069763e-02
1.438093557953834534e-02
1.933323219418525696e-02
-2.326740324497222900e-02
5.628253519535064697e-02
-7.281751185655593872e-02
-3.790824115276336670e-02
-2.177318790927529335e-03
3.089070878922939301e-02
-8.686423301696777344e-02
1.079560723155736923e-02
4.085526615381240845e-02
6.539792567491531372e-02
-6.266275793313980103e-02
8.546306937932968140e-02
4.561004415154457092e-02
-4.487099871039390564e-02
6.357660144567489624e-02
6.709420680999755859e-02
-7.016576826572418213e-02
3.257281705737113953e-02
7.115175575017929077e-02
-3.881289158016443253e-03
4.036318883299827576e-02
2.446630224585533142e-02
7.659779489040374756e-02
-8.188572525978088379e-02
2.076392760500311852e-03
-1.293032802641391754e-02
-9.769163094460964203e-03
-7.995586842298507690e-02
8.203547447919845581e-02
5.701939016580581665e-02
3.328292071819305420e-02
-8.366295695304870605e-02
6.825042515993118286e-02
6.450545787811279297e-02
-7.879327982664108276e-03
6.862418353557586670e-02
8.854305744171142578e-02
1.891484670341014862e-02
-4.579590633511543274e-03
-3.109968639910221100e-02
-8.816099166870117188e-02
6.510905176401138306e-02
-5.066777020692825317e-02
8.696231245994567871e-02
4.740506410598754883e-02
7.966371625661849976e-02
5.096866190433502197e-02
7.172698527574539185e-02
-7.862447202205657959e-02
2.433524839580059052e-02
7.113140076398849487e-02
2.429083548486232758e-02
-3.670943900942802429e-02
3.538483008742332458e-02
3.552850335836410522e-02
-5.877841264009475708e-02
-7.226946204900741577e-02
4.627685621380805969e-02
4.559284821152687073e-02
-8.012300729751586914e-02
2.166639640927314758e-02
-8.773125708103179932e-02
2.808928675949573517e-02
-7.172060757875442505e-02
8.105937391519546509e-02
-2.972050011157989502e-02
1.475267205387353897e-02
6.857266277074813843e-02
-6.299613416194915771e-02
7.316398620605468750e-02
-1.540557015687227249e-02
-6.581452488899230957e-02
7.503735274076461792e-02
-8.799931406974792480e-02
4.352546483278274536e-02
-1.395453792065382004e-02
4.069272056221961975e-02
3.877049684524536133e-02
4.179024323821067810e-02
-5.065606161952018738e-02
-2.148443832993507385e-03
-4.566838219761848450e-02
4.821940883994102478e-02
-5.717537179589271545e-02
4.802121780812740326e-03
1.887431927025318146e-02
-2.533213607966899872e-02
-1.906348019838333130e-02
5.829301103949546814e-02
-3.436163067817687988e-02
7.717680931091308594e-02
3.252430632710456848e-02
5.765970423817634583e-02
7.696463167667388916e-02
7.663582265377044678e-02
3.934605047106742859e-02
5.752497166395187378e-02
9.025561064481735229e-02
3.616804629564285278e-02
5.164588335901498795e-03
-3.871120885014533997e-02
3.050372935831546783e-02
-5.384435504674911499e-02
1.778793707489967346e-02
-9.677408961579203606e-04
-5.923154950141906738e-02
2.325970120728015900e-02
3.416668623685836792e-02
-6.913143396377563477e-02
-5.741670355200767517e-02
2.905047498643398285e-03
5.329267308115959167e-02
-5.913567147217690945e-04
1.211682893335819244e-02
2.674805559217929840e-02
7.943582534790039062e-02
-3.506731986999511719e-02
-2.204617857933044434e-02
4.515230283141136169e-02
-8.947420865297317505e-02
-6.813913583755493164e-02
9.564731270074844360e-03
-2.970475889742374420e-02
-1.147496141493320465e-02
-2.639372088015079498e-02
-3.768404200673103333e-02
-1.750143803656101227e-02
5.103660747408866882e-02
-2.322292886674404144e-02
-8.313515037298202515e-02
-2.421723678708076477e-02
-1.777024939656257629e-02
-4.883003607392311096e-02
6.172346184030175209e-04
2.939780801534652710e-02
-2.084165252745151520e-02
-7.787656038999557495e-02
6.603374332189559937e-02
-7.338293362408876419e-03
2.282509580254554749e-02
2.354896999895572662e-02
-4.301375243812799454e-03
8.585377782583236694e-02
5.964449141174554825e-03
1.917744521051645279e-03
-6.029419228434562683e-02
-1.116811181418597698e-03
9.012743830680847168e-02
-1.875794678926467896e-02
6.173822656273841858e-02
-4.990036785602569580e-02
8.633100986480712891e-02
5.439126119017601013e-02
-5.703803617507219315e-03
-4.406297951936721802e-02
-8.197990804910659790e-02
3.101889975368976593e-03
-6.277481466531753540e-02
4.347220808267593384e-02
-1.003044098615646362e-02
-7.962410897016525269e-02
6.584981083869934082e-02
-5.183244496583938599e-02
6.194802001118659973e-02
-4.893046990036964417e-02
8.804503828287124634e-02
8.173594623804092407e-02
5.476089566946029663e-02
-9.426183067262172699e-03
4.236372560262680054e-02
1.722120307385921478e-02
-8.004742115736007690e-02
5.374331399798393250e-02
1.584713906049728394e-02
7.410424202680587769e-02
9.122008830308914185e-02
2.466878481209278107e-02
2.206217870116233826e-02
3.536133095622062683e-02
2.170745097100734711e-02
5.883883684873580933e-02
-5.044993013143539429e-02
-3.703812882304191589e-02
-8.990030735731124878e-02
-1.660963892936706543e-02
5.379707738757133484e-02
5.359522625803947449e-02
2.038780041038990021e-02
4.162636399269104004e-02
-2.464483026415109634e-03
4.896923527121543884e-02
-1.019709557294845581e-02
7.563799619674682617e-02
-2.876798622310161591e-02
4.485606029629707336e-02
-4.530262574553489685e-02
5.618278309702873230e-02
-2.915230393409729004e-02
3.153319656848907471e-02
-1.347578130662441254e-02
-8.826248347759246826e-02
-8.999675512313842773e-02
2.801104635000228882e-02
-7.832825183868408203e-03
-9.023882448673248291e-02
-9.451602585613727570e-03
-6.940284371376037598e-02
-3.521168977022171021e-02
2.674707677215337753e-03
-4.527695849537849426e-02
3.245896473526954651e-02
-1.196720730513334274e-02
-7.564629614353179932e-02
5.827634781599044800e-02
-8.326046168804168701e-02
9.090771526098251343e-02
3.547445312142372131e-02
-1.232015620917081833e-02
-7.328417152166366577e-02
7.884913682937622070e-02
-7.250366359949111938e-02
-4.338811710476875305e-02
6.894089281558990479e-02
4.384826403111219406e-03
1.526552997529506683e-02
-6.463818997144699097e-02
-8.176495879888534546e-02
-2.735150232911109924e-02
-2.101985551416873932e-02
-3.155661746859550476e-02
6.247114762663841248e-02
-1.668066601268947124e-03
-6.250187009572982788e-02
4.911275580525398254e-02
-5.962403491139411926e-03
-8.564493618905544281e-03
-7.708837836980819702e-02
1.685914210975170135e-02
5.319831520318984985e-02
9.108380973339080811e-02
4.338749125599861145e-02
-2.399815432727336884e-02
-8.544008433818817139e-02
4.360220953822135925e-02
-1.851002871990203857e-02
-6.464594043791294098e-03
1.841908134520053864e-02
6.070957332849502563e-02
6.950513273477554321e-02
3.359367698431015015e-02
-4.679406061768531799e-02
8.237911015748977661e-02
-1.601566001772880554e-02
-7.071351259946823120e-02
-6.640574336051940918e-02
-5.933585762977600098e-02
2.114358916878700256e-02
-6.678260862827301025e-02
5.971911828964948654e-03
6.829447299242019653e-02
3.085342794656753540e-02
-8.474794775247573853e-02
-2.588369883596897125e-03
2.995104156434535980e-02
-6.400262564420700073e-02
-2.421579509973526001e-02
-2.485661581158638000e-02
2.791099622845649719e-02
-5.322416126728057861e-02
5.510105565190315247e-02
-8.526545949280261993e-03
5.392298847436904907e-02
-1.862033829092979431e-02
4.357482120394706726e-02
1.286124158650636673e-02
-5.666432436555624008e-03
-3.823907673358917236e-02
3.109144419431686401e-02
8.841863274574279785e-02
5.433326587080955505e-02
3.517216816544532776e-02
7.297281175851821899e-02
7.882543653249740601e-02
-8.995962142944335938e-02
-6.608708947896957397e-02
6.409163028001785278e-02
3.374112024903297424e-02
4.456841945648193359e-02
-7.612045109272003174e-02
7.117592543363571167e-02
4.737554118037223816e-02
6.870824098587036133e-02
7.010138034820556641e-02
4.666670039296150208e-02
1.731061376631259918e-02
-7.736342493444681168e-03
-3.205686807632446289e-02
-2.695384994149208069e-02
-3.048968128859996796e-02
4.076585546135902405e-02
8.107002824544906616e-02
8.714807033538818359e-02
4.181675240397453308e-02
-8.643566630780696869e-03
-6.625786423683166504e-02
-2.507657743990421295e-02
-5.561598390340805054e-02
-1.228926517069339752e-02
-8.456907421350479126e-02
-1.344140060245990753e-02
-7.514698058366775513e-02
-7.817435264587402344e-02
-5.132127925753593445e-02
-1.800389587879180908e-02
-1.572328992187976837e-02
-6.024196371436119080e-02
6.857515871524810791e-02
3.152075037360191345e-02
4.362882673740386963e-02
2.779124118387699127e-02
1.795208826661109924e-02
5.824802443385124207e-02
1.160580571740865707e-02
-7.101809233427047729e-02
-6.370850373059511185e-03
-1.886099390685558319e-02
3.887187689542770386e-02
2.584537863731384277e-02
-4.774452373385429382e-02
8.157411962747573853e-02
-4.686973989009857178e-02
5.200137570500373840e-02
2.133109234273433685e-02
-6.362433731555938721e-02
3.990708291530609131e-02
-2.150683663785457611e-02
2.924996893852949142e-03
1.812960207462310791e-02
8.554158359766006470e-02
-2.442464791238307953e-02
-1.625022850930690765e-02
2.106150984764099121e-02
-1.903881877660751343e-02
6.336786784231662750e-03
2.300545945763587952e-02
-2.423271164298057556e-02
6.226480752229690552e-02
7.708913832902908325e-02
-1.273541618138551712e-02
-8.656305074691772461e-02
9.042600169777870178e-03
7.135823369026184082e-02
7.530988007783889771e-02
4.068461805582046509e-02
1.894042827188968658e-02
7.782877981662750244e-02
-2.558208443224430084e-02
-5.559885408729314804e-03
1.666876859962940216e-02
-3.393570706248283386e-02
1.339221256785094738e-03
-8.592361956834793091e-02
-2.505620196461677551e-02
5.475015845149755478e-03
3.611283004283905029e-02
-3.974829986691474915e-02
5.671142414212226868e-02
8.851959556341171265e-02
-4.851542785763740540e-02
5.069814249873161316e-02
5.122905224561691284e-02
-7.384259253740310669e-02
-3.821733593940734863e-02
-2.345021627843379974e-02
-3.962343558669090271e-02
7.580643147230148315e-02
-1.109758205711841583e-02
2.959991805255413055e-02
9.916792623698711395e-03
2.552303299307823181e-02
7.814823836088180542e-02
-4.460304602980613708e-02
-5.593449994921684265e-02
2.470468357205390930e-02
-2.214869484305381775e-02
-3.516828268766403198e-02
-3.350066766142845154e-02
2.100000530481338501e-02
-7.069331407546997070e-02
7.243155688047409058e-02
4.508456587791442871e-02
7.115745544433593750e-02
4.746136441826820374e-02
2.459338307380676270e-02
8.238563314080238342e-03
8.853616565465927124e-02
-7.670643925666809082e-02
7.796904444694519043e-02
-7.230696827173233032e-02
-9.431812912225723267e-03
-8.844365179538726807e-02
-8.344115316867828369e-02
-1.639353297650814056e-02
-4.036220908164978027e-02
6.647850573062896729e-02
7.832997292280197144e-02
7.617920637130737305e-02
-5.514732375741004944e-02
6.731516867876052856e-02
8.109049499034881592e-02
-8.375588059425354004e-02
3.995522856712341309e-02
-2.262851037085056305e-02
-2.666426450014114380e-02
7.942983508110046387e-02
-8.662977069616317749e-02
-2.770788222551345825e-02
7.828359305858612061e-02
2.905368246138095856e-02
-2.073495835065841675e-02
2.502737566828727722e-03
-6.214121356606483459e-02
3.301162272691726685e-02
-1.348930690437555313e-02
1.068264245986938477e-02
-2.386508695781230927e-02
-7.649240642786026001e-02
-8.521319180727005005e-02
-1.110831275582313538e-02
-4.561708122491836548e-02
-6.841505318880081177e-02
-7.771126180887222290e-02
5.073701962828636169e-02
-7.112781703472137451e-02
7.874868065118789673e-02
-4.405049979686737061e-02
4.283779300749301910e-03
2.835080400109291077e-02
-7.746051251888275146e-02
3.679411113262176514e-02
-4.045395646244287491e-03
5.466808378696441650e-02
6.271297484636306763e-02
-4.623939096927642822e-02
2.718735300004482269e-02
-4.155255854129791260e-02
-5.283515527844429016e-02
-4.992589354515075684e-03
7.341474294662475586e-02
-1.712435670197010040e-02
2.031519822776317596e-02
-2.195466868579387665e-02
4.393662512302398682e-02
-7.796952873468399048e-02
7.658783346414566040e-02
2.133056148886680603e-02
3.682039305567741394e-02
-6.651160866022109985e-02
-5.598570033907890320e-02
-6.029406189918518066e-02
5.401650071144104004e-02
-3.658137284219264984e-03
5.366487428545951843e-02
-1.681698113679885864e-02
-2.126130275428295135e-02
1.854803599417209625e-02
-8.358813822269439697e-03
-3.269310574978590012e-03
5.141709372401237488e-02
-5.285078659653663635e-02
-7.198960334062576294e-02
6.143549084663391113e-02
-2.764867246150970459e-02
-1.360299997031688690e-02
2.222019992768764496e-02
1.505888998508453369e-03
5.719872191548347473e-02
2.824366651475429535e-02
7.928150147199630737e-02
1.775507628917694092e-02
-1.945770159363746643e-02
3.162838146090507507e-02
8.143737167119979858e-02
2.198349125683307648e-02
-7.874988764524459839e-02
-4.645345360040664673e-02
4.212309792637825012e-02
2.927142567932605743e-02
-6.410421431064605713e-02
3.259013593196868896e-02
9.064974263310432434e-03
2.450008504092693329e-02
4.106223210692405701e-02
-1.087202923372387886e-03
-3.101226314902305603e-02
7.342783361673355103e-02
-5.035940557718276978e-03
4.190761223435401917e-02
-6.384811550378799438e-02
4.970849677920341492e-02
-4.608674347400665283e-02
-5.255682766437530518e-02
7.847228646278381348e-02
1.054409891366958618e-02
1.532581727951765060e-02
3.378068655729293823e-02
5.316029116511344910e-02
-6.092540174722671509e-02
-1.027770712971687317e-02
8.415455371141433716e-02
8.475227653980255127e-02
3.992728888988494873e-02
4.468257352709770203e-02
1.587822288274765015e-02
-9.103561937808990479e-02
-7.130998373031616211e-02
-6.970965862274169922e-02
4.757491499185562134e-02
3.167016059160232544e-02
8.239119499921798706e-02
3.478897036984562874e-03
-8.461774885654449463e-02
6.893759220838546753e-02
1.833179034292697906e-02
2.449745871126651764e-02
-2.360993064939975739e-02
8.885145932435989380e-02
2.576786838471889496e-02
8.148778229951858521e-02
2.660435810685157776e-02
6.728590279817581177e-02
-4.914215952157974243e-02
3.327128291130065918e-02
-5.424641538411378860e-03
-2.154742553830146790e-02
7.654535025358200073e-02
1.161978580057621002e-02
1.959010586142539978e-02
2.865438582375645638e-03
-2.614486217498779297e-02
2.045406959950923920e-02
-3.873430192470550537e-02
-1.467330195009708405e-02
7.484255731105804443e-02
-1.388107519596815109e-02
3.109570778906345367e-02
8.384824544191360474e-02
2.657206542789936066e-02
-7.820740342140197754e-02
7.731691002845764160e-02
-1.453528646379709244e-02
6.249307096004486084e-02
-1.253265421837568283e-02
-9.837656281888484955e-03
2.677912078797817230e-02
-1.315636094659566879e-02
-6.181930005550384521e-02
5.957179144024848938e-02
-2.033711969852447510e-02
-8.672981709241867065e-02
4.760212451219558716e-02
-4.123647883534431458e-02
-5.554101988673210144e-02
4.131190478801727295e-02
1.905556581914424896e-02
8.911321312189102173e-02
2.846162952482700348e-02
-6.287504732608795166e-02
-3.391104564070701599e-02
-1.791547611355781555e-02
7.939265668392181396e-02
-3.287871927022933960e-02
-6.407540291547775269e-02
-3.443021327257156372e-02
8.607126027345657349e-02
6.322839111089706421e-02
-6.832774728536605835e-02
3.084809705615043640e-02
-1.038774102926254272e-02
4.083425551652908325e-02
-1.684743724763393402e-02
-5.038053262978792191e-03
-8.666662499308586121e-03
5.680909380316734314e-03
4.817446321249008179e-02
-6.583691388368606567e-02
-8.152435719966888428e-02
8.210591971874237061e-03
-7.214148342609405518e-02
8.137053996324539185e-02
7.710720598697662354e-02
-4.614935815334320068e-02
3.992963209748268127e-02
-7.884488254785537720e-02
7.616894692182540894e-02
6.546829640865325928e-02
7.807233184576034546e-02
6.385736167430877686e-02
3.610365465283393860e-02
4.858977161347866058e-03
4.651042073965072632e-02
8.404302597045898438e-02
6.010947749018669128e-02
-7.997374236583709717e-02
-3.443308174610137939e-02
-3.803369775414466858e-02
-4.501103237271308899e-02
-7.329832017421722412e-02
8.618499152362346649e-03
5.450146272778511047e-02
1.202278304845094681e-02
8.208126574754714966e-02
-5.223321914672851562e-02
2.246360294520854950e-02
-1.895061694085597992e-02
-2.258726768195629120e-02
6.056749448180198669e-02
-2.686825022101402283e-02
6.573653966188430786e-02
2.660849876701831818e-02
-1.155480556190013885e-02
2.099911682307720184e-02
-5.555425211787223816e-02
-7.141918689012527466e-02
-7.726475596427917480e-02
-6.531570106744766235e-03
-3.742753714323043823e-02
-2.455711551010608673e-02
-6.167319044470787048e-02
2.449586801230907440e-02
6.980587542057037354e-02
-8.482256531715393066e-02
8.941832929849624634e-02
6.851072609424591064e-02
-8.299611508846282959e-02
-5.772843956947326660e-02
-2.446302026510238647e-02
-6.072431057691574097e-02
-7.533582299947738647e-02
2.067141421139240265e-02
1.921546272933483124e-02
8.408936113119125366e-02
8.926534093916416168e-03
9.235109202563762665e-03
3.015332110226154327e-02
8.182429522275924683e-02
-1.230987999588251114e-02
-2.661712840199470520e-02
-7.698149234056472778e-02
2.346629742532968521e-03
-1.531660370528697968e-02
4.600589722394943237e-02
7.405030727386474609e-02
6.411850452423095703e-02
-4.366651922464370728e-02
-1.397559978067874908e-02
7.179187238216400146e-02
8.888795971870422363e-02
-2.909540757536888123e-02
-4.263927042484283447e-02
7.805448770523071289e-02
-8.077614754438400269e-02
5.916660279035568237e-02
-3.085046261548995972e-02
-6.229050084948539734e-02
1.884684339165687561e-02
-5.689979717135429382e-02
-5.943516269326210022e-02
1.087798736989498138e-02
3.951711580157279968e-02
-4.826635587960481644e-03
2.895427122712135315e-02
5.343814846128225327e-03
-2.888078428804874420e-02
2.130538038909435272e-02
8.596271276473999023e-02
-4.160789027810096741e-02
-7.056686282157897949e-02
-4.048093035817146301e-02
-4.312674328684806824e-02
-3.046994470059871674e-02
-3.463300410658121109e-03
-2.013654075562953949e-02
-6.660602986812591553e-02
-5.027485266327857971e-02
2.604834549129009247e-02
-7.817999273538589478e-02
2.966772392392158508e-02
-8.978634327650070190e-02
-5.365650728344917297e-02
-4.406639188528060913e-02
6.819474976509809494e-03
9.888251312077045441e-03
-7.097820192575454712e-02
-2.466019988059997559e-02
2.188718691468238831e-02
-5.559220537543296814e-02
1.579948118887841702e-03
1.135180331766605377e-02
7.331074029207229614e-02
9.091184288263320923e-02
-3.439169004559516907e-02
7.949576526880264282e-02
2.883549081161618233e-03
-6.259384751319885254e-02
6.145454198122024536e-02
-6.491918116807937622e-02
-4.687356203794479370e-02
-4.323213826864957809e-03
-5.639382824301719666e-02
-1.387894991785287857e-02
8.238098025321960449e-02
2.761388197541236877e-02
-6.574048101902008057e-02
-1.788912713527679443e-02
4.415859654545783997e-02
1.547577977180480957e-02
-6.648755818605422974e-02
4.144844412803649902e-02
-1.981949433684349060e-02
-8.745934069156646729e-02
-6.870196014642715454e-02
6.548687815666198730e-02
4.861484840512275696e-02
-7.995469123125076294e-02
-1.569934189319610596e-02
6.620135158300399780e-02
7.366757839918136597e-02
-4.738380759954452515e-02
-1.795103587210178375e-02
-1.112907286733388901e-02
7.607768476009368896e-02
4.379299283027648926e-02
4.441279161255806684e-04
-1.631601154804229736e-02
-6.079103425145149231e-02
-8.617018163204193115e-02
-1.125114317983388901e-02
8.556617051362991333e-02
-2.566143684089183807e-02
4.429417103528976440e-02
-2.130265906453132629e-02
4.107735585421323776e-03
-1.590412482619285583e-02
7.010702043771743774e-02
2.235765103250741959e-03
7.378742843866348267e-02
7.641249150037765503e-02
-2.193726412951946259e-02
8.563072420656681061e-03
-6.533469259738922119e-02
-4.211214557290077209e-02
8.281855285167694092e-02
2.864510053768754005e-03
2.635331125929951668e-03
6.478735059499740601e-02
-5.560429394245147705e-02
7.849407941102981567e-02
3.034482896327972412e-02
4.772137850522994995e-02
6.069577857851982117e-02
5.987754464149475098e-02
5.307338014245033264e-02
7.784623652696609497e-02
4.114559292793273926e-02
-4.093234986066818237e-02
7.558137178421020508e-02
-4.238325729966163635e-02
-2.121981233358383179e-02
5.806482955813407898e-02
3.686443716287612915e-02
-4.438529256731271744e-03
3.288654983043670654e-02
-3.783522173762321472e-02
8.687996119260787964e-02
1.713594608008861542e-02
7.155759632587432861e-02
1.498300815001130104e-03
-2.510236203670501709e-02
-3.455933928489685059e-02
-3.450133651494979858e-02
-1.519386284053325653e-02
3.399422392249107361e-02
4.416391253471374512e-02
-6.539446860551834106e-02
-2.091606892645359039e-02
-5.764336138963699341e-02
2.664524875581264496e-02
-3.515883162617683411e-02
3.651797026395797729e-02
6.177494674921035767e-02
5.297033116221427917e-02
1.374753937125205994e-02
8.192480355501174927e-02
3.509203717112541199e-02
-3.700370341539382935e-02
-2.061196416616439819e-02
-5.764593556523323059e-02
-4.216365888714790344e-02
5.990008637309074402e-02
-2.136020362377166748e-02
5.402046814560890198e-02
-1.574362255632877350e-02
7.152019441127777100e-02
-2.601532731205224991e-03
-1.616591005586087704e-03
6.602792441844940186e-02
8.109398186206817627e-02
-6.637503206729888916e-02
7.833318412303924561e-02
4.911249130964279175e-02
3.897968307137489319e-02
7.105311844497919083e-03
2.483728341758251190e-02
3.315832093358039856e-02
-4.594195634126663208e-02
8.507451415061950684e-02
-1.662891358137130737e-02
-4.972705990076065063e-02
-4.562069848179817200e-02
-4.760980978608131409e-02
4.675554111599922180e-02
-2.904810570180416107e-02
3.232110291719436646e-02
7.018606364727020264e-02
9.319246746599674225e-03
3.861519973725080490e-03
-6.333106756210327148e-02
3.079057671129703522e-02
-6.485251709818840027e-03
-9.007418900728225708e-02
8.407805860042572021e-02
9.030319750308990479e-03
9.130163118243217468e-03
5.565900728106498718e-02
8.818096667528152466e-02
1.069845911115407944e-02
-5.858973041176795959e-02
6.269389390945434570e-02
-3.235905244946479797e-02
7.104010879993438721e-02
6.362374126911163330e-02
3.773081675171852112e-02
1.521266624331474304e-02
4.447943717241287231e-02
4.116059094667434692e-02
2.354318834841251373e-02
-5.152415484189987183e-02
7.651434745639562607e-03
-4.649600386619567871e-02
-3.607069328427314758e-02
-1.721648499369621277e-02
-7.556521147489547729e-02
1.088786590844392776e-02
2.400361374020576477e-02
-1.203030627220869064e-02
-5.957194045186042786e-02
2.298921905457973480e-02
-8.630637079477310181e-02
1.260982546955347061e-02
8.039223030209541321e-03
-6.895293947309255600e-03
-5.457233637571334839e-04
3.621958568692207336e-02
3.992404788732528687e-02
7.604373991489410400e-02
7.898254692554473877e-02
3.746011853218078613e-02
8.409980684518814087e-02
7.590717077255249023e-02
8.993188291788101196e-02
7.777329534292221069e-02
6.778511218726634979e-03
1.391113921999931335e-02
1.767928339540958405e-02
1.308839023113250732e-02
-5.611671879887580872e-02
-6.817261129617691040e-02
5.744639784097671509e-03
-8.137550950050354004e-02
-6.465861946344375610e-02
1.961212605237960815e-02
1.753130555152893066e-02
-7.471036165952682495e-02
3.886649012565612793e-02
-1.772054471075534821e-03
-5.032092332839965820e-02
2.627363801002502441e-02
8.764702081680297852e-02
3.473807498812675476e-02
1.363197434693574905e-02
3.654048591852188110e-02
7.762223482131958008e-02
-2.768336795270442963e-02
4.462251067161560059e-02
-2.374385669827461243e-02
-6.090010865591466427e-04
-2.220657840371131897e-02
-7.892553508281707764e-02
-8.452284336090087891e-02
-7.434125989675521851e-02
-4.312300682067871094e-02
6.160581111907958984e-02
1.122439932078123093e-02
-3.100752644240856171e-02
-5.250135064125061035e-02
-5.473479628562927246e-02
-7.863915711641311646e-02
-1.759286411106586456e-02
1.134477555751800537e-02
-5.375618115067481995e-02
-6.902466714382171631e-02
6.495508551597595215e-02
7.141817361116409302e-02
2.283494686707854271e-03
-6.477125920355319977e-03
-9.471055120229721069e-03
-7.445155829191207886e-02
1.568782702088356018e-02
-2.186097018420696259e-02
7.709985971450805664e-02
1.635298505425453186e-02
7.315799593925476074e-02
-8.684583753347396851e-02
5.176955461502075195e-02
7.877585291862487793e-02
-6.119782477617263794e-02
-7.532686926424503326e-03
-5.060049146413803101e-02
3.277895599603652954e-02
-3.247285634279251099e-02
3.759642690420150757e-02
-2.783988229930400848e-02
5.524890497326850891e-02
3.424421325325965881e-02
1.123345736414194107e-02
-8.671823143959045410e-02
8.798423409461975098e-02
-5.964629724621772766e-02
-8.989924192428588867e-02
-1.362342853099107742e-02
-7.616769522428512573e-02
8.994570374488830566e-02
-2.948981337249279022e-02
-7.674686610698699951e-03
-5.185610055923461914e-02
-6.299339234828948975e-02
7.531576603651046753e-02
4.588498920202255249e-02
8.575122058391571045e-02
-1.957892207428812981e-03
-8.141469210386276245e-02
1.887599937617778778e-02
7.348231226205825806e-02
6.689903140068054199e-02
-6.930832564830780029e-02
7.955813407897949219e-02
9.115205705165863037e-02
-8.905092626810073853e-02
-6.779822707176208496e-02
-3.005220182240009308e-02
8.713377267122268677e-02
2.902049571275711060e-02
7.072500884532928467e-02
-4.560916125774383545e-02
-1.693306677043437958e-02
4.521027207374572754e-02
-1.156569737941026688e-02
1.831748150289058685e-02
-2.360593713819980621e-02
5.331123620271682739e-02
7.414239645004272461e-02
3.086734190583229065e-02
7.382382452487945557e-02
6.675022654235363007e-03
-4.307135194540023804e-02
-4.942964762449264526e-03
2.576069906353950500e-02
-4.773671552538871765e-02
8.624248206615447998e-02
-7.311743497848510742e-02
3.910274710506200790e-03
8.155748248100280762e-02
1.905769854784011841e-02
4.946274310350418091e-02
-1.798059232532978058e-02
-2.024198696017265320e-02
6.683229655027389526e-02
7.791439443826675415e-02
3.881538286805152893e-02
2.318865433335304260e-02
4.034307971596717834e-02
-1.844654232263565063e-02
1.281319092959165573e-02
8.787775784730911255e-02
5.656537041068077087e-02
7.908806204795837402e-02
3.729147836565971375e-02
8.602163940668106079e-02
7.592367380857467651e-02
-4.982491210103034973e-02
-5.331350117921829224e-02
-6.919573247432708740e-02
-1.293186936527490616e-02
4.140101373195648193e-02
-2.512666955590248108e-02
7.049446552991867065e-02
5.117669329047203064e-02
2.861426770687103271e-02
-2.748956531286239624e-02
-3.687792224809527397e-03
-2.601148001849651337e-02
8.143611997365951538e-02
7.800043374300003052e-02
-2.557437121868133545e-02
-1.190389133989810944e-02
7.634773105382919312e-02
-4.350597411394119263e-02
7.490320503711700439e-02
4.969362542033195496e-02
-2.010446973145008087e-02
2.826297841966152191e-02
-5.118277296423912048e-02
-3.615121170878410339e-02
-1.040832884609699249e-02
-4.905626922845840454e-02
-5.330199748277664185e-02
5.631579831242561340e-02
-1.442275661975145340e-02
1.596103422343730927e-02
2.140764147043228149e-02
7.114592939615249634e-02
-4.064232856035232544e-02
4.139898717403411865e-02
1.477823685854673386e-02
6.441929936408996582e-02
-6.913623958826065063e-02
-2.010166458785533905e-02
7.693246938288211823e-03
2.686748653650283813e-02
2.106582559645175934e-02
2.650492824614048004e-02
4.066003113985061646e-02
5.536747351288795471e-02
6.086408160626888275e-03
7.579138875007629395e-02
-7.652700692415237427e-02
-5.988387390971183777e-02
-3.220780193805694580e-02
-8.784101344645023346e-03
1.445206627249717712e-02
1.836438104510307312e-02
6.981114298105239868e-02
-5.200641974806785583e-02
6.561341881752014160e-02
2.914978004992008209e-02
6.680108606815338135e-02
8.682393282651901245e-02
-2.758461609482765198e-02
3.505149111151695251e-02
5.476835370063781738e-02
-4.496651142835617065e-02
4.194251075387001038e-02
-8.218595385551452637e-02
1.778499805368483067e-03
5.364855006337165833e-02
-7.908905297517776489e-02
-9.039665758609771729e-02
1.955747371539473534e-03
-8.131654560565948486e-02
8.547266572713851929e-02
3.265347331762313843e-02
5.375790409743785858e-03
1.040955819189548492e-02
-7.951186597347259521e-02
7.751199603080749512e-02
-7.975518703460693359e-02
4.701736569404602051e-02
-5.112137272953987122e-02
5.995115637779235840e-02
-1.441404689103364944e-02
1.353775430470705032e-02
5.966426432132720947e-02
-8.698186278343200684e-02
8.073474466800689697e-02
-3.951717540621757507e-02
3.755544457817450166e-05
-7.080683484673500061e-03
3.109185956418514252e-02
-5.249558761715888977e-02
5.571877211332321167e-02
-4.527365043759346008e-02
4.547248780727386475e-02
-1.893950253725051880e-02
2.693160623311996460e-02
2.003787644207477570e-02
4.437779262661933899e-02
-9.668987244367599487e-03
-1.378664001822471619e-02
-2.350808493793010712e-02
3.126475960016250610e-02
3.798219375312328339e-03
4.367291927337646484e-02
-5.373165477067232132e-03
1.281604915857315063e-02
-9.140806272625923157e-03
-6.878898292779922485e-02
-1.785814948379993439e-02
-5.967687070369720459e-02
-2.893944270908832550e-02
3.185683116316795349e-02
-8.837125450372695923e-02
-6.231196969747543335e-02
-7.502368092536926270e-02
-3.386295586824417114e-02
-3.550500422716140747e-02
-8.774446905590593815e-04
7.895265519618988037e-02
8.807836472988128662e-02
-3.806172311305999756e-02
-8.730406314134597778e-02
1.000176463276147842e-02
-1.838888041675090790e-02
-4.998309910297393799e-02
7.103803753852844238e-02
1.293588057160377502e-02
-4.265044257044792175e-02
-5.317373573780059814e-02
-2.270889841020107269e-02
-2.881054021418094635e-02
-8.125884085893630981e-02
6.298633664846420288e-02
8.440880477428436279e-02
5.309483781456947327e-02
1.216491498053073883e-02
3.897961974143981934e-02
2.681579813361167908e-02
9.155489504337310791e-03
2.545048110187053680e-02
-5.559036508202552795e-03
2.418985404074192047e-02
2.345595695078372955e-02
-9.463604539632797241e-03
-9.894433431327342987e-03
-2.072386071085929871e-02
-2.860722690820693970e-02
-9.476193226873874664e-03
-3.770424425601959229e-02
-1.927162706851959229e-02
1.129659637808799744e-02
6.043531373143196106e-02
8.270058780908584595e-02
-4.115781560540199280e-02
2.348892204463481903e-02
4.009847715497016907e-02
-5.775625631213188171e-02
-8.848699182271957397e-02
3.354933112859725952e-02
1.528411265462636948e-02
4.515866562724113464e-02
4.140489920973777771e-02
-3.972528502345085144e-02
-2.745352312922477722e-02
6.014687195420265198e-02
-1.037927158176898956e-02
1.243886724114418030e-02
2.916911244392395020e-02
-1.961516030132770538e-02
6.364268809556961060e-02
1.607056707143783569e-02
-3.926379233598709106e-02
1.540960557758808136e-02
6.972131133079528809e-02
-4.919969663023948669e-02
1.084168627858161926e-02
1.715051196515560150e-02
-4.117845743894577026e-02
2.645158022642135620e-02
3.510870411992073059e-02
-7.137244939804077148e-02
5.637388676404953003e-02
6.390111893415451050e-02
-7.762053608894348145e-02
-1.035840902477502823e-02
5.554961785674095154e-02
3.656654432415962219e-02
-5.165759846568107605e-02
2.841895679011940956e-03
-3.347659111022949219e-02
-5.730144307017326355e-02
-9.798813611268997192e-03
5.352297425270080566e-02
7.969857007265090942e-02
-3.460461273789405823e-02
-3.427149355411529541e-02
-3.487750515341758728e-02
6.206252798438072205e-02
6.555186212062835693e-02
4.700619354844093323e-02
-4.335942119359970093e-02
8.681333065032958984e-02
5.717873573303222656e-02
4.572245106101036072e-02
8.578553795814514160e-02
-7.055673003196716309e-02
9.475570172071456909e-03
2.066557109355926514e-02
1.420712564140558243e-02
2.296037040650844574e-03
2.100833505392074585e-02
-4.259826615452766418e-02
-9.911167435348033905e-04
-6.157387513667345047e-03
6.488066911697387695e-02
-4.747603833675384521e-02
2.702706493437290192e-02
-7.548236846923828125e-02
5.939824134111404419e-02
-3.531960397958755493e-02
3.706952556967735291e-02
6.031589210033416748e-02
-2.972376532852649689e-02
-2.261920459568500519e-02
-6.113889440894126892e-02
3.517673537135124207e-02
4.525510221719741821e-02
-4.083597287535667419e-02
3.789488971233367920e-02
-2.792241796851158142e-02
4.033436998724937439e-02
4.980777576565742493e-02
6.563917733728885651e-03
-8.324728906154632568e-02
-7.999955117702484131e-02
-3.220856934785842896e-02
-4.641716927289962769e-02
6.033348385244607925e-03
-5.187162011861801147e-02
1.233197748661041260e-02
7.481241133064031601e-03
8.450581878423690796e-02
-8.649536222219467163e-02
3.829653188586235046e-02
-7.844024896621704102e-02
2.342960052192211151e-02
2.648053877055644989e-02
1.941022463142871857e-02
8.679977804422378540e-02
-7.115516811609268188e-02
4.575870186090469360e-02
6.961382180452346802e-02
9.059960395097732544e-02
-3.901835903525352478e-02
7.750293612480163574e-02
-8.749182522296905518e-02
-9.062141180038452148e-03
6.035242974758148193e-02
-8.075947314500808716e-02
-2.836329676210880280e-02
6.936077494174242020e-03
4.488431662321090698e-02
5.012415722012519836e-02
2.007323317229747772e-03
3.796263411641120911e-02
5.393836274743080139e-02
6.449784338474273682e-02
-2.537097781896591187e-02
-6.329596508294343948e-03
5.696216598153114319e-02
6.158799678087234497e-02
-3.266520798206329346e-02
4.534321278333663940e-02
-5.362850613892078400e-03
3.121327050030231476e-02
8.575616776943206787e-02
2.746257930994033813e-02
-8.111593127250671387e-02
2.416221192106604576e-03
1.712434925138950348e-02
1.860151998698711395e-02
6.517684459686279297e-02
-3.301768377423286438e-02
3.517080470919609070e-02
9.546425193548202515e-03
6.503852549940347672e-03
-2.474824152886867523e-02
-3.250673878937959671e-03
1.319887302815914154e-02
1.958174630999565125e-02
4.114316403865814209e-02
-6.967931985855102539e-02
5.150349810719490051e-02
5.093252658843994141e-02
-7.599230110645294189e-02
-1.966761983931064606e-02
-5.367253348231315613e-02
-7.538501173257827759e-02
-9.933270514011383057e-03
4.899565130472183228e-02
-4.797162115573883057e-02
1.173045602627098560e-03
4.762988910079002380e-02
5.437303800135850906e-03
4.103985056281089783e-02
-5.624711140990257263e-02
-7.356358319520950317e-02
7.130272686481475830e-03
-3.135563805699348450e-02
5.872739478945732117e-03
-6.467235833406448364e-02
6.421661376953125000e-02
4.158184304833412170e-02
3.326753526926040649e-02
7.886495441198348999e-02
-5.746747180819511414e-02
-9.092671424150466919e-02
1.865522935986518860e-02
-6.245041266083717346e-02
-7.325502485036849976e-02
-3.524339199066162109e-02
-2.711518667638301849e-02
3.883596509695053101e-02
1.940827630460262299e-02
6.984008848667144775e-02
-3.227879106998443604e-02
4.245160892605781555e-02
-1.297995075583457947e-02
1.045439508743584156e-03
6.444301456212997437e-02
2.998762577772140503e-02
4.565169569104909897e-03
5.190377309918403625e-02
2.854032814502716064e-02
-7.714582234621047974e-02
6.789933890104293823e-02
-1.567692868411540985e-02
-7.926110178232192993e-02
6.601804867386817932e-03
-3.079421631991863251e-02
-3.828394412994384766e-02
-2.427912876009941101e-02
9.001994132995605469e-02
-3.601704537868499756e-02
1.150475349277257919e-02
-2.019547857344150543e-03
6.521004438400268555e-02
7.724533230066299438e-02
-4.851474985480308533e-02
-7.742929458618164062e-02
5.225685238838195801e-02
-9.129839390516281128e-02
-7.968633621931076050e-02
-4.091229662299156189e-02
-4.618354886770248413e-02
7.866755872964859009e-02
-4.844406992197036743e-02
-5.958252772688865662e-02
-5.367237702012062073e-02
5.901114642620086670e-02
5.612727254629135132e-02
6.216156110167503357e-02
-7.899739593267440796e-02
6.407357007265090942e-02
-7.401190698146820068e-02
-7.666368782520294189e-02
7.313656061887741089e-02
-2.666661981493234634e-03
-8.490568399429321289e-02
4.097225889563560486e-02
-5.304989591240882874e-02
-1.965588424354791641e-03
3.659863770008087158e-02
-1.825191639363765717e-02
-7.179322838783264160e-02
1.872182078659534454e-02
-7.129061222076416016e-02
7.117623090744018555e-02
1.865623146295547485e-02
5.370527505874633789e-02
8.156532794237136841e-02
-1.027220860123634338e-02
4.142956063151359558e-02
6.819980591535568237e-02
5.605309456586837769e-02
-8.459068089723587036e-02
3.685890138149261475e-02
3.891298780217766762e-03
-1.079090032726526260e-02
5.548589676618576050e-02
7.708963006734848022e-02
1.204687729477882385e-02
-7.319077849388122559e-02
1.782886311411857605e-02
-3.913882374763488770e-02
-7.022706419229507446e-02
4.357258602976799011e-02
-6.382784247398376465e-02
6.105387210845947266e-02
-1.788529381155967712e-02
-1.912721991539001465e-02
3.333683311939239502e-02
2.720859460532665253e-02
8.287264034152030945e-03
7.299648970365524292e-02
-6.107651442289352417e-02
-5.384305119514465332e-02
-4.648979008197784424e-02
-3.416744247078895569e-02
7.075334340333938599e-02
-1.581728458404541016e-02
8.913882821798324585e-02
-8.209437876939773560e-02
-1.896746642887592316e-02
1.545056235045194626e-02
-4.185875132679939270e-02
2.549574896693229675e-02
8.905480057001113892e-02
-2.317870967090129852e-02
2.063704840838909149e-02
-2.383369207382202148e-02
7.917734235525131226e-02
-1.036320999264717102e-02
-8.545485883951187134e-02
-4.246654454618692398e-03
-1.121170585975050926e-03
-4.347145557403564453e-02
7.356616109609603882e-02
-8.671786636114120483e-02
-7.788318395614624023e-02
-4.273248091340065002e-02
4.044848307967185974e-02
9.089932590723037720e-02
-8.075124770402908325e-02
-7.430657744407653809e-02
-6.084069237112998962e-02
2.179648540914058685e-02
-8.847603946924209595e-02
2.308176271617412567e-02
-5.409674718976020813e-02
3.204637393355369568e-02
-4.130534082651138306e-02
-3.756729513406753540e-02
-2.164257690310478210e-02
2.049032191280275583e-04
8.793894946575164795e-02
-6.971336156129837036e-02
6.338232010602951050e-02
6.267608702182769775e-02
-2.403487823903560638e-02
-3.189555183053016663e-02
7.632703986018896103e-03
-5.442734807729721069e-02
-5.416170880198478699e-02
-1.556752715259790421e-02
-1.244569849222898483e-02
-3.135220706462860107e-02
8.494561910629272461e-02
3.484267741441726685e-02
-5.262627266347408295e-03
1.857451908290386200e-02
2.378634922206401825e-02
6.199683994054794312e-02
-2.252197265625000000e-02
-2.907690592110157013e-02
-6.784449517726898193e-02
-2.477638795971870422e-02
8.502994477748870850e-02
4.789212346076965332e-02
-5.828323215246200562e-02
-9.410402737557888031e-03
6.417237222194671631e-02
-4.288697987794876099e-02
-3.018683753907680511e-02
-3.394876420497894287e-02
7.734186947345733643e-02
6.400722265243530273e-02
1.140664424747228622e-02
-5.639361962676048279e-02
-6.328640878200531006e-02
-7.002400606870651245e-02
4.879713058471679688e-02
-1.672087423503398895e-02
8.271545916795730591e-02
2.873245440423488617e-02
-8.496244251728057861e-02
2.831968292593955994e-02
1.572835631668567657e-02
-3.217612206935882568e-02
1.764545217156410217e-02
6.754011660814285278e-02
2.139088464900851250e-03
-7.074310630559921265e-02
4.697496816515922546e-02
5.828117206692695618e-02
-4.952835664153099060e-02
-1.264978665858507156e-03
-5.022012814879417419e-02
-5.744622647762298584e-02
-3.325432771816849709e-04
-4.849810153245925903e-02
-2.651883102953433990e-02
7.565464079380035400e-02
5.313891172409057617e-02
-8.594931662082672119e-02
-7.038578391075134277e-02
-7.838425785303115845e-02
-5.416490137577056885e-02
2.824249304831027985e-02
5.491672828793525696e-02
-4.952802136540412903e-02
-8.125596493482589722e-02
-7.423204369843006134e-03
-1.237473357468843460e-02
1.320076733827590942e-02
8.233514428138732910e-02
3.039672970771789551e-02
-8.502006530761718750e-02
8.381158113479614258e-02
-6.497598439455032349e-02
2.977911755442619324e-02
-4.624037444591522217e-02
6.088651716709136963e-02
-7.151820510625839233e-02
-8.951751142740249634e-02
5.918350070714950562e-02
-1.993439905345439911e-02
-3.274780756328254938e-04
6.723006814718246460e-02
-5.501127988100051880e-02
-5.691932886838912964e-02
7.499027252197265625e-02
-4.132623970508575439e-02
-1.014765817672014236e-02
-2.638263627886772156e-02
2.706686593592166901e-02
5.776796862483024597e-02
-5.993567779660224915e-02
-7.687295228242874146e-02
8.444354683160781860e-02
2.788823330774903297e-03
-1.519949641078710556e-02
-6.840868294239044189e-02
-7.628814876079559326e-02
2.822314854711294174e-03
1.692284084856510162e-02
-8.152395486831665039e-02
-3.254154324531555176e-02
1.635638251900672913e-02
-6.349863111972808838e-02
6.407874077558517456e-02
5.865420401096343994e-02
1.582175120711326599e-02
6.956639140844345093e-02
-8.969311416149139404e-02
-4.042448475956916809e-02
-5.796629935503005981e-02
3.909036889672279358e-02
1.258748001419007778e-03
3.122632578015327454e-02
-3.225879743695259094e-02
6.493096798658370972e-02
-8.473609387874603271e-02
-4.644242301583290100e-02
2.549855969846248627e-02
5.278597772121429443e-02
-2.969007194042205811e-02
6.032207235693931580e-02
-1.915390789508819580e-02
3.029046207666397095e-02
7.167548686265945435e-02
-4.169223457574844360e-02
-5.005457624793052673e-02
-5.761140957474708557e-02
-5.712704733014106750e-03
-3.085327707231044769e-02
-2.446952089667320251e-02
9.076049923896789551e-02
-5.836547911167144775e-02
5.277550220489501953e-02
9.046576172113418579e-02
3.389317169785499573e-02
-1.153809763491153717e-02
3.321564942598342896e-02
8.914748579263687134e-02
-6.736819446086883545e-02
-1.160248648375272751e-02
-3.544050827622413635e-02
-5.669082328677177429e-02
-4.830367490649223328e-02
6.720419973134994507e-02
-3.306276351213455200e-02
-3.467215597629547119e-02
-1.943420059978961945e-02
8.008859306573867798e-02
-7.706694304943084717e-02
-5.997370183467864990e-02
-4.093944653868675232e-02
2.594775892794132233e-02
-3.457833826541900635e-02
-6.720342487096786499e-02
8.874243497848510742e-02
-6.146922707557678223e-02
-4.178233444690704346e-02
-5.547128617763519287e-02
-1.651545427739620209e-02
6.034181639552116394e-02
4.274668544530868530e-02
7.686872780323028564e-02
-4.710798710584640503e-02
1.223063562065362930e-02
-5.595716461539268494e-02
9.040305763483047485e-02
-3.994288668036460876e-02
-3.149737790226936340e-02
7.630643248558044434e-02
-2.106336690485477448e-02
-3.159002587199211121e-02
7.274702936410903931e-02
-2.163144014775753021e-02
3.530479595065116882e-02
-6.609252840280532837e-02
-6.624810397624969482e-02
1.604946888983249664e-02
9.987970814108848572e-03
3.635473176836967468e-02
6.728944182395935059e-02
-1.183553598821163177e-03
-1.710083521902561188e-02
7.905334979295730591e-02
8.679182082414627075e-02
7.395754009485244751e-02
-4.887373745441436768e-02
-2.034466154873371124e-02
8.347187936305999756e-02
-7.323092222213745117e-02
1.572859846055507660e-02
4.397206008434295654e-02
-1.073476299643516541e-02
-8.928649872541427612e-02
7.682021707296371460e-02
-5.487934686243534088e-03
-2.586326375603675842e-02
-8.621536940336227417e-02
5.625465512275695801e-02
8.904434740543365479e-02
6.803932040929794312e-02
-6.972861289978027344e-02
2.857026411220431328e-03
-5.511297285556793213e-02
2.829138375818729401e-02
-7.464152295142412186e-03
2.780559659004211426e-02
-6.124275922775268555e-02
-2.896418236196041107e-02
-1.770291849970817566e-02
7.989627867937088013e-02
8.722213655710220337e-02
-8.254336565732955933e-02
-3.477314114570617676e-02
4.344131425023078918e-02
1.146178506314754486e-02
-4.754119738936424255e-02
5.017504841089248657e-02
2.312257140874862671e-02
6.155021488666534424e-02
-7.185752689838409424e-02
-8.557688444852828979e-02
-7.915816456079483032e-02
1.834649778902530670e-02
-5.090769752860069275e-02
3.706036880612373352e-02
6.785050034523010254e-02
2.329008094966411591e-02
3.404451534152030945e-02
7.486518472433090210e-02
5.261954665184020996e-02
5.257148668169975281e-02
-6.724603474140167236e-02
-7.374966889619827271e-02
-4.938613250851631165e-02
8.777389675378799438e-02
-9.082525968551635742e-02
-7.746627181768417358e-02
-8.360327780246734619e-02
7.561233639717102051e-02
-6.693173944950103760e-02
-5.728701129555702209e-02
-2.207237854599952698e-02
-6.494818627834320068e-02
-2.182474173605442047e-02
-2.827604301273822784e-03
-5.541388317942619324e-02
-1.354235503822565079e-02
3.125222399830818176e-03
-4.217128455638885498e-02
5.853297188878059387e-02
-3.684037551283836365e-02
6.492503732442855835e-02
3.457119315862655640e-02
-2.871943823993206024e-02
5.018327012658119202e-02
-1.088182721287012100e-02
-5.842627957463264465e-02
3.932654857635498047e-02
6.376878172159194946e-02
1.296300627291202545e-02
4.289264604449272156e-02
8.658806234598159790e-02
-3.379174321889877319e-02
5.781111493706703186e-02
2.213910035789012909e-02
9.584212675690650940e-03
-1.405320595949888229e-02
8.486380428075790405e-02
6.185524538159370422e-02
-8.216518908739089966e-04
-1.005743164569139481e-03
-3.616281226277351379e-02
1.806387305259704590e-02
3.413094952702522278e-02
-7.068975269794464111e-02
6.690415740013122559e-02
-5.859662219882011414e-02
7.185570150613784790e-02
1.477264147251844406e-02
6.558050215244293213e-02
-2.233587205410003662e-02
2.113563753664493561e-02
3.941407799720764160e-02
-4.844647645950317383e-02
-3.222525119781494141e-02
1.437302865087985992e-02
7.128785550594329834e-02
5.766673758625984192e-02
8.593896403908729553e-03
-1.726205088198184967e-02
6.167821958661079407e-02
-9.000431746244430542e-02
-5.711865797638893127e-02
-1.950762793421745300e-02
-4.685433954000473022e-02
2.675793133676052094e-02
-1.469678129069507122e-03
-3.062358871102333069e-02
6.003077328205108643e-02
-2.632030472159385681e-02
-3.340078517794609070e-02
-6.385736167430877686e-02
6.274811178445816040e-02
3.152647614479064941e-02
4.572290182113647461e-02
-6.562051177024841309e-02
1.481146924197673798e-02
2.383121289312839508e-02
8.507125824689865112e-02
3.978677839040756226e-02
3.848526999354362488e-02
7.138192653656005859e-02
1.493653282523155212e-02
8.445772528648376465e-02
1.943568326532840729e-02
5.645476654171943665e-02
6.468249857425689697e-02
-9.076685644686222076e-03
4.378636926412582397e-02
6.728725135326385498e-02
-2.271922491490840912e-02
7.333760708570480347e-02
-4.407921433448791504e-02
6.756184995174407959e-02
-8.297266066074371338e-02
-2.930279262363910675e-02
6.705922633409500122e-02
-7.797925919294357300e-02
6.425311416387557983e-02
-5.386516079306602478e-02
2.760902279987931252e-03
2.279696799814701080e-02
-2.936751209199428558e-02
6.458377093076705933e-02
1.217756699770689011e-02
9.105483442544937134e-02
-4.638652503490447998e-02
-8.543435484170913696e-02
-3.522441536188125610e-02
3.960523381829261780e-02
4.370967298746109009e-02
5.406586080789566040e-02
-3.077444061636924744e-02
5.351525545120239258e-02
3.857795521616935730e-02
4.855320788919925690e-03
1.654345914721488953e-02
6.282137334346771240e-02
-5.557941272854804993e-02
6.537722796201705933e-02
3.614589944481849670e-02
2.964273467659950256e-02
-6.823132187128067017e-02
3.160949051380157471e-02
-6.638691574335098267e-02
-6.615505367517471313e-02
-7.468006014823913574e-02
1.452639605849981308e-02
-4.789898544549942017e-02
8.443028479814529419e-02
-6.402821093797683716e-02
-7.435508817434310913e-02
-7.908696681261062622e-02
6.144870445132255554e-02
3.145695850253105164e-02
3.923391550779342651e-02
6.379365175962448120e-02
-9.917202405631542206e-03
2.704318985342979431e-02
2.515009976923465729e-02
-4.710806906223297119e-02
1.167033426463603973e-02
-2.903153747320175171e-02
-5.382782779633998871e-03
-1.675768569111824036e-02
-4.720447212457656860e-02
-3.931359574198722839e-02
6.181482598185539246e-02
2.951310575008392334e-02
1.013091020286083221e-02
-1.316794846206903458e-02
-2.965680137276649475e-02
6.724214553833007812e-02
-6.067126989364624023e-02
5.156644061207771301e-02
2.941283956170082092e-02
5.135586485266685486e-02
8.342404663562774658e-02
1.442953012883663177e-02
-6.074417382478713989e-02
9.038938581943511963e-02
1.240282878279685974e-02
2.575233019888401031e-02
6.225014105439186096e-02
-3.698067739605903625e-02
-5.490689724683761597e-02
-2.240742743015289307e-02
-8.212608844041824341e-02
6.805589073337614536e-04
4.540605098009109497e-02
1.142090931534767151e-02
-5.387746915221214294e-02
-1.814504340291023254e-02
7.280396670103073120e-02
2.803924307227134705e-02
-2.310706861317157745e-02
-4.077827557921409607e-02
-8.116601966321468353e-03
4.793107882142066956e-02
-5.257274024188518524e-03
7.913914322853088379e-02
2.936475537717342377e-02
4.436091333627700806e-02
-8.300194889307022095e-02
-1.629334874451160431e-02
-2.845813333988189697e-02
3.087091445922851562e-02
2.377425553277134895e-03
-1.254360377788543701e-02
-2.363990433514118195e-02
-8.260471373796463013e-02
-6.390469521284103394e-02
-8.801070041954517365e-03
7.514801621437072754e-02
6.882614106871187687e-04
1.687469892203807831e-02
7.847282290458679199e-02
-6.648685038089752197e-02
7.746028900146484375e-02
-4.074370488524436951e-02
3.954060084652155638e-04
9.395945817232131958e-03
-5.509323440492153168e-03
7.847472280263900757e-02
8.457034826278686523e-02
3.076770529150962830e-02
7.424830645322799683e-02
5.382025986909866333e-02
7.652267813682556152e-02
-6.522964686155319214e-02
-5.900063365697860718e-02
3.259554505348205566e-02
-7.067576050758361816e-02
-5.625534802675247192e-02
-7.527367770671844482e-02
3.948770463466644287e-02
1.159263402223587036e-02
8.601693063974380493e-02
-8.976776897907257080e-02
1.456006988883018494e-02
2.708613499999046326e-02
7.221391797065734863e-02
-8.453229814767837524e-02
6.827691104263067245e-03
8.285976946353912354e-02
4.564950242638587952e-02
-8.335866779088973999e-02
4.402292519807815552e-02
-6.706542521715164185e-02
7.585638761520385742e-02
5.595616623759269714e-02
8.685255795717239380e-02
-7.417486608028411865e-02
-5.885267257690429688e-02
2.216730965301394463e-03
5.385323613882064819e-02
7.946418225765228271e-02
7.099945098161697388e-02
7.719470560550689697e-02
4.802366346120834351e-02
7.614286243915557861e-02
8.165670931339263916e-02
-2.900593355298042297e-02
-1.911047101020812988e-02
4.918702319264411926e-02
3.632958978414535522e-02
-7.761870045214891434e-03
2.201926335692405701e-02
-4.529859125614166260e-02
7.546272594481706619e-03
5.848941951990127563e-02
-4.377927258610725403e-02
-6.685132533311843872e-02
-2.508857287466526031e-02
-2.995047718286514282e-02
-1.478511281311511993e-02
-2.533480711281299591e-02
-6.824529916048049927e-02
5.686243623495101929e-02
8.958902209997177124e-02
-8.023610711097717285e-02
7.367565482854843140e-02
-6.935929879546165466e-03
-8.276152610778808594e-02
-4.643528908491134644e-02
3.877652809023857117e-02
3.075654618442058563e-03
4.163371399044990540e-02
-4.613895714282989502e-02
-6.187326833605766296e-02
5.889708548784255981e-02
5.774664878845214844e-02
-7.196076959371566772e-02
4.440606757998466492e-02
-8.051175624132156372e-02
9.110910445451736450e-02
3.225157409906387329e-02
-2.478098031133413315e-03
3.371715545654296875e-02
2.672694995999336243e-02
5.436217039823532104e-02
6.157394498586654663e-03
7.859712839126586914e-02
5.086406320333480835e-02
6.875115633010864258e-02
-6.875797361135482788e-02
6.261849403381347656e-02
-7.730515208095312119e-03
3.263492137193679810e-02
4.174080863595008850e-02
6.970751099288463593e-03
-7.588426768779754639e-02
1.438822504132986069e-02
4.672948643565177917e-02
4.672379419207572937e-02
6.949485838413238525e-02
3.828481584787368774e-02
-3.907115757465362549e-02
7.184863835573196411e-02
-8.608100563287734985e-02
7.537695765495300293e-02
-8.328468352556228638e-02
5.163339897990226746e-02
-3.052982874214649200e-02
4.964008182287216187e-02
-4.224066436290740967e-02
-4.868147522211074829e-02
9.656975045800209045e-03
-4.193757474422454834e-02
8.734807372093200684e-02
2.695978619158267975e-03
6.904768198728561401e-02
3.252034261822700500e-02
-8.052924275398254395e-02
5.498377606272697449e-02
-4.428897798061370850e-02
-2.179826609790325165e-02
1.014033704996109009e-02
-4.498492181301116943e-02
4.786852747201919556e-02
-4.747003316879272461e-03
1.215176191180944443e-02
-9.008572995662689209e-02
-4.620660468935966492e-02
-1.924443989992141724e-02
-6.710314750671386719e-02
6.778565049171447754e-02
-8.704163879156112671e-02
-1.074071507900953293e-02
-4.029915668070316315e-03
-6.631126254796981812e-02
7.888742536306381226e-02
2.988210320472717285e-02
-3.630952537059783936e-02
-7.509043067693710327e-02
1.193826179951429367e-02
-2.248675748705863953e-02
-6.555544584989547729e-02
6.773259490728378296e-02
8.884008973836898804e-02
-5.073902010917663574e-02
-4.168312624096870422e-02
8.734380453824996948e-02
-6.397595256567001343e-02
-4.275824129581451416e-02
6.422951701097190380e-04
-8.263034746050834656e-03
5.700443685054779053e-02
9.038911014795303345e-02
-2.430539764463901520e-02
1.318227313458919525e-02
-5.909600108861923218e-02
-3.712535277009010315e-02
-2.091173268854618073e-02
8.707714080810546875e-02
-4.293161258101463318e-02
-1.341931615024805069e-02
4.847479239106178284e-02
5.925313010811805725e-02
1.418053638190031052e-02
9.020976722240447998e-02
1.091809663921594620e-02
-1.702702417969703674e-02
6.532501429319381714e-02
7.861973345279693604e-02
-6.246510520577430725e-02
-4.970620945096015930e-02
5.133025348186492920e-02
1.073802262544631958e-02
-8.810529857873916626e-02
7.063250988721847534e-02
-3.747365623712539673e-02
-7.664532214403152466e-02
7.922390848398208618e-02
-1.960000209510326385e-02
-8.597321063280105591e-02
4.156402125954627991e-02
-5.503040179610252380e-02
4.933660477399826050e-02
8.096019178628921509e-02
7.337742298841476440e-02
-3.129410371184349060e-02
3.954463079571723938e-02
5.234966054558753967e-02
5.161931738257408142e-02
7.379907369613647461e-02
-6.998313963413238525e-02
5.485334992408752441e-02
-2.695560269057750702e-02
7.493884861469268799e-02
-2.821893617510795593e-02
-3.191078081727027893e-02
2.910387329757213593e-02
-6.573472917079925537e-02
-6.242403015494346619e-02
5.717083066701889038e-02
-1.424004789441823959e-02
-8.454881608486175537e-03
3.151691332459449768e-02
-5.391137674450874329e-02
4.144184291362762451e-02
-8.323878981173038483e-03
7.299015671014785767e-02
2.983501553535461426e-02
-7.574949413537979126e-02
-1.107588596642017365e-02
-5.090383440256118774e-02
7.211345434188842773e-02
-2.546324103605002165e-04
7.281260099261999130e-03
3.370381519198417664e-02
3.772148489952087402e-02
5.517684668302536011e-02
-3.057248890399932861e-02
-5.423821136355400085e-02
5.439528729766607285e-03
-3.986496478319168091e-02
7.719326764345169067e-02
-6.597661972045898438e-02
-1.356707513332366943e-02
1.751148840412497520e-03
3.898445144295692444e-02
-6.201786547899246216e-02
2.525451593101024628e-02
-5.503435060381889343e-02
-5.858596041798591614e-02
2.367064123973250389e-03
-3.079761564731597900e-02
8.003161847591400146e-02
-1.213159412145614624e-02
3.688612952828407288e-02
-9.549543261528015137e-03
-3.989527374505996704e-02
-8.043849468231201172e-02
-1.746378652751445770e-02
-6.228261440992355347e-02
4.349076375365257263e-02
-1.808846741914749146e-02
4.290199279785156250e-02
2.758584730327129364e-02
2.191293798387050629e-02
6.281259655952453613e-02
1.088799722492694855e-02
1.894058100879192352e-02
-4.237733408808708191e-02
2.525824680924415588e-02
5.228042230010032654e-02
-3.299775347113609314e-02
-6.562438607215881348e-02
-8.278799057006835938e-02
-9.629848063923418522e-04
-8.836045116186141968e-02
-3.201166912913322449e-02
7.423029839992523193e-02
5.938403308391571045e-02
-5.159709602594375610e-02
4.561504349112510681e-03
-7.150024175643920898e-02
-1.300816331058740616e-02
6.747696548700332642e-02
4.871228709816932678e-02
-4.039092734456062317e-02
-2.343092486262321472e-02
4.473911598324775696e-02
5.495456233620643616e-02
8.304141461849212646e-02
6.833408027887344360e-02
-2.013816498219966888e-03
-7.635618001222610474e-02
-2.909105829894542694e-02
-2.288040332496166229e-02
3.584864363074302673e-02
-8.929038792848587036e-02
3.236319869756698608e-02
-6.334771867841482162e-03
6.559908390045166016e-02
-8.769841492176055908e-02
1.131067331880331039e-02
-2.726237988099455833e-03
-7.434501312673091888e-03
5.964250862598419189e-02
5.935687944293022156e-02
-9.307632572017610073e-04
5.310490354895591736e-02
3.630467876791954041e-02
-7.606917060911655426e-03
4.754303395748138428e-02
7.229322940111160278e-02
5.925605446100234985e-02
3.187374398112297058e-02
-4.677326232194900513e-02
8.618278801441192627e-02
-1.694558002054691315e-02
4.083025082945823669e-02
2.377762086689472198e-02
3.945447131991386414e-02
-8.391091972589492798e-02
2.843127585947513580e-02
-7.757167518138885498e-02
4.251330718398094177e-02
7.465007901191711426e-02
1.057281275279819965e-03
1.132474467158317566e-02
5.710368603467941284e-02
6.032083556056022644e-02
7.168508321046829224e-02
-7.257512211799621582e-02
3.088027983903884888e-02
5.582159757614135742e-02
-8.395665138959884644e-02
8.359842002391815186e-02
-3.973599523305892944e-02
-2.207244047895073891e-03
-6.262032687664031982e-02
-7.419018540531396866e-03
-3.958367183804512024e-02
1.058451645076274872e-02
-7.792539149522781372e-02
-4.315560683608055115e-02
8.581385016441345215e-03
5.828118324279785156e-02
8.175529539585113525e-02
-8.726291358470916748e-02
5.639556795358657837e-02
4.868027940392494202e-02
3.609702456742525101e-03
-4.838459938764572144e-02
4.633569344878196716e-02
-4.255635663866996765e-02
-6.608931720256805420e-02
-5.426588281989097595e-02
3.191628307104110718e-02
5.336497351527214050e-02
4.005187191069126129e-03
-6.420049071311950684e-02
-3.965618833899497986e-02
4.424771666526794434e-02
-4.466091096401214600e-02
-1.942829415202140808e-02
-2.866535447537899017e-03
-4.263513162732124329e-02
-6.280767172574996948e-02
-3.959662094712257385e-02
5.676658824086189270e-02
2.825183235108852386e-02
5.291095003485679626e-02
-5.727715324610471725e-03
2.126545412465929985e-03
-8.892530947923660278e-02
-2.629204280674457550e-02
4.282226786017417908e-02
-6.685023009777069092e-02
-5.033566802740097046e-02
8.056531101465225220e-02
2.738274633884429932e-03
1.445660740137100220e-02
-4.891698062419891357e-02
8.390157483518123627e-03
4.679754376411437988e-03
2.902364730834960938e-02
-6.323289871215820312e-02
-1.508581638336181641e-02
-8.190900832414627075e-02
-2.985386364161968231e-02
-8.174783550202846527e-03
6.308066099882125854e-02
3.933085128664970398e-02
3.090761788189411163e-02
3.946373239159584045e-02
7.958979904651641846e-02
-4.489684104919433594e-02
-1.925272401422262192e-03
1.939377188682556152e-02
6.684107333421707153e-02
-8.056560903787612915e-02
5.204479396343231201e-02
3.698894754052162170e-02
-2.908468060195446014e-02
8.253467828035354614e-02
-3.940685465931892395e-02
-7.009567320346832275e-02
1.687174476683139801e-02
-1.109678298234939575e-02
6.897643208503723145e-02
8.483524620532989502e-02
-8.302776515483856201e-02
2.461964450776576996e-02
-8.406274020671844482e-02
-5.000201612710952759e-02
-8.644340187311172485e-02
8.048243075609207153e-02
-3.155137971043586731e-02
4.185995832085609436e-02
-6.478033214807510376e-02
4.827788844704627991e-02
3.985139355063438416e-02
-3.430115431547164917e-02
-4.500023648142814636e-02
-4.190244153141975403e-02
-7.898533344268798828e-02
3.843684867024421692e-02
5.422070994973182678e-02
2.507336810231208801e-02
2.941974066197872162e-02
-6.632576882839202881e-02
6.654569506645202637e-02
1.264706999063491821e-02
-7.713127881288528442e-02
-2.601931616663932800e-02
1.366680953651666641e-02
4.532459750771522522e-02
-2.013725787401199341e-02
-2.895289100706577301e-02
1.641218923032283783e-02
6.049314141273498535e-02
-1.408560015261173248e-02
-2.824607864022254944e-02
-3.821650147438049316e-02
-9.020615369081497192e-02
7.481280248612165451e-03
7.517572492361068726e-02
-7.599277887493371964e-03
-7.326420396566390991e-02
-1.789891719818115234e-02
8.741074800491333008e-02
-3.472050651907920837e-02
-9.057128429412841797e-02
-2.609358867630362511e-03
2.207044698297977448e-02
7.652571890503168106e-03
-7.623823732137680054e-02
-4.082194343209266663e-02
7.818153500556945801e-02
-4.962952807545661926e-03
5.868598446249961853e-02
-3.143549710512161255e-02
9.669112041592597961e-04
5.387127399444580078e-02
5.606184154748916626e-02
9.950318373739719391e-03
5.040909349918365479e-02
-2.732667699456214905e-02
5.064764525741338730e-03
8.868919312953948975e-02
-4.482369124889373779e-02
3.996393084526062012e-02
-4.163191840052604675e-02
-1.071061007678508759e-02
2.358149923384189606e-02
8.452041447162628174e-02
-6.287723779678344727e-02
2.070163004100322723e-02
-4.863740131258964539e-02
3.341805189847946167e-02
-4.468051716685295105e-02
2.459916844964027405e-02
3.260180726647377014e-02
8.920553326606750488e-02
8.066495507955551147e-02
-4.560464993119239807e-02
2.165631623938679695e-03
-5.300354585051536560e-02
-2.138231694698333740e-02
-4.138521850109100342e-02
-7.503598928451538086e-02
2.054643630981445312e-02
5.628077685832977295e-02
-8.974736183881759644e-02
3.068314306437969208e-02
-6.849902868270874023e-02
6.565860472619533539e-03
-5.295931547880172729e-02
6.943110376596450806e-02
6.480840966105461121e-03
4.037787765264511108e-02
7.069491595029830933e-02
-3.774841502308845520e-02
1.028743479400873184e-02
3.319111838936805725e-02
-4.810331016778945923e-02
6.500114500522613525e-02
3.385357558727264404e-02
-1.853200141340494156e-03
5.724034830927848816e-02
4.037496447563171387e-02
8.271076530218124390e-02
-5.071963369846343994e-02
6.458910554647445679e-02
4.960794374346733093e-02
-6.875659525394439697e-02
-7.830050587654113770e-02
-7.396544516086578369e-02
-8.974167704582214355e-02
6.655180454254150391e-02
-2.153844013810157776e-02
3.491909056901931763e-02
-8.995092473924160004e-03
-5.759206414222717285e-02
2.968906611204147339e-02
4.414578899741172791e-02
8.422598242759704590e-02
-3.236263617873191833e-02
3.512563183903694153e-02
-2.214263007044792175e-02
3.930881991982460022e-02
-7.378955185413360596e-02
2.038759365677833557e-02
8.027125149965286255e-02
2.840845147147774696e-03
8.220027387142181396e-02
-6.442613899707794189e-02
6.123434752225875854e-02
-7.831679284572601318e-02
5.467525497078895569e-02
3.638049215078353882e-02
9.355707094073295593e-03
-1.045041624456644058e-02
7.682399451732635498e-02
-4.683680459856987000e-02
4.232016205787658691e-02
-1.116256602108478546e-02
-9.048448503017425537e-02
7.308894395828247070e-02
-9.501560591161251068e-03
4.965017363429069519e-02
-8.682797849178314209e-02
-6.253316998481750488e-02
2.638455666601657867e-02
4.930289089679718018e-02
-7.944002747535705566e-02
-8.670600131154060364e-03
-3.365757316350936890e-02
-5.581919848918914795e-02
-6.286358460783958435e-03
4.342920612543821335e-03
-5.665386095643043518e-02
-4.833769798278808594e-02
-3.427685424685478210e-02
-2.201608940958976746e-02
5.549788847565650940e-02
-5.552450940012931824e-02
2.318084985017776489e-02
4.262364283204078674e-02
-1.716276817023754120e-02
5.404838174581527710e-02
-6.439788558054715395e-05
8.382145315408706665e-02
3.665672242641448975e-02
3.318908810615539551e-02
-1.324397604912519455e-02
8.524745702743530273e-02
2.423863112926483154e-02
-3.483122587203979492e-02
7.118533365428447723e-03
-2.416233532130718231e-02
-4.323228076100349426e-02
3.261480107903480530e-02
-4.699937999248504639e-02
5.630467459559440613e-02
-3.150165826082229614e-02
3.867768868803977966e-02
2.548518404364585876e-02
-4.891903139650821686e-03
-9.760101325809955597e-03
5.755147710442543030e-02
-6.408736109733581543e-02
-1.962250843644142151e-02
-1.372991967946290970e-02
5.794974416494369507e-02
-6.626959890127182007e-02
-5.465521290898323059e-02
3.883795067667961121e-02
-7.681018114089965820e-02
8.924651890993118286e-02
4.247169569134712219e-02
6.489355117082595825e-02
-7.659585773944854736e-02
3.646136075258255005e-02
9.800677187740802765e-03
-5.203413963317871094e-02
-4.073201119899749756e-02
-6.358752399682998657e-02
-8.023077249526977539e-02
-9.119255840778350830e-02
7.262894511222839355e-02
4.224734380841255188e-02
-5.007850751280784607e-02
6.033449620008468628e-02
6.843844801187515259e-02
-9.100213646888732910e-02
-7.006179541349411011e-02
-2.055925130844116211e-02
3.131012246012687683e-02
-4.039197415113449097e-02
6.603280454874038696e-02
-1.893796579679474235e-04
-6.116447038948535919e-03
-7.191944867372512817e-02
-1.394046749919652939e-02
-1.647037267684936523e-02
-4.948872327804565430e-02
3.649178519845008850e-02
-7.396575063467025757e-02
-4.076726734638214111e-02
-6.366469711065292358e-02
-5.674223229289054871e-02
1.580190728418529034e-03
-8.177412301301956177e-02
-6.884755939245223999e-02
-3.258843719959259033e-02
5.275239422917366028e-02
-3.786989673972129822e-02
-1.609677448868751526e-02
5.883108824491500854e-02
5.191322416067123413e-02
1.119791716337203979e-02
6.276269257068634033e-02
8.945994079113006592e-02
7.747150212526321411e-02
-2.894616127014160156e-02
-8.266525715589523315e-02
2.388544753193855286e-02
7.279605418443679810e-02
5.560340359807014465e-02
-4.366885870695114136e-02
-8.055434376001358032e-02
1.923356391489505768e-02
-8.803452551364898682e-02
7.860546559095382690e-02
-5.919852107763290405e-02
-2.646183408796787262e-02
-6.604511290788650513e-02
4.037653282284736633e-02
8.743719011545181274e-02
5.677003785967826843e-02
-4.350962582975625992e-03
5.849909968674182892e-03
-6.159720569849014282e-02
5.680384580045938492e-03
5.248911678791046143e-02
-7.529918104410171509e-02
7.882662117481231689e-02
5.955105274915695190e-02
-3.291743341833353043e-03
3.338504582643508911e-02
-5.293196439743041992e-02
7.277316600084304810e-02
-4.375350847840309143e-02
-7.032719999551773071e-02
6.494337320327758789e-02
-8.354538679122924805e-02
-8.184273540973663330e-02
3.204042091965675354e-02
1.413206011056900024e-02
5.190741736441850662e-03
2.525605820119380951e-02
-5.151804909110069275e-02
2.714568004012107849e-02
4.635087400674819946e-02
-1.682873629033565521e-02
7.372157182544469833e-03
2.692791819572448730e-02
-4.847504571080207825e-02
6.987588014453649521e-03
-4.455437138676643372e-02
5.845083668828010559e-02
-9.054021537303924561e-02
-5.680968984961509705e-02
8.023293316364288330e-02
-4.844414815306663513e-02
-4.446934163570404053e-02
6.879746168851852417e-02
-6.804020702838897705e-02
6.604420393705368042e-02
3.794419020414352417e-02
3.024335950613021851e-02
-7.080033421516418457e-02
4.545797035098075867e-02
-2.261004969477653503e-02
-1.471604104153811932e-03
8.607646822929382324e-02
-6.919546425342559814e-02
-1.781011559069156647e-02
-2.782869897782802582e-02
4.729105159640312195e-02
-7.066665589809417725e-02
5.081082228571176529e-03
-4.834565892815589905e-02
-6.464363634586334229e-02
-2.206184528768062592e-02
-4.227945953607559204e-02
-5.098247528076171875e-02
-6.034924183040857315e-03
-7.977476343512535095e-03
-9.110735356807708740e-02
7.838537544012069702e-02
-6.021328270435333252e-02
4.159782454371452332e-02
6.064899265766143799e-02
-8.547115139663219452e-03
-4.229515790939331055e-02
-5.000461637973785400e-02
8.650381118059158325e-02
-5.839146673679351807e-02
1.899761264212429523e-03
3.637651726603507996e-02
1.435813307762145996e-02
5.211969465017318726e-02
4.124078899621963501e-02
-5.579913035035133362e-02
-2.833062596619129181e-02
6.139640696346759796e-03
-7.440060377120971680e-02
7.041034102439880371e-02
-8.346502482891082764e-02
-8.176552504301071167e-02
-4.628314450383186340e-02
-7.868930697441101074e-02
-1.483326870948076248e-02
-4.683290794491767883e-02
4.616646096110343933e-02
5.159254372119903564e-02
3.338998556137084961e-02
-5.785889551043510437e-02
2.395857125520706177e-02
-2.489024586975574493e-02
4.265069961547851562e-02
-4.068984091281890869e-02
-3.013144806027412415e-02
2.948117034975439310e-04
6.710918992757797241e-02
-2.146227844059467316e-02
3.033376857638359070e-02
3.257714584469795227e-02
-6.640822440385818481e-02
-6.074778735637664795e-03
-2.037454396486282349e-02
-7.581202685832977295e-02
3.737739101052284241e-02
-4.085740447044372559e-02
-9.877165779471397400e-03
9.115489572286605835e-02
6.008010730147361755e-02
2.022214420139789581e-02
-8.558262884616851807e-02
-6.729869544506072998e-02
7.850684225559234619e-02
-4.496565833687782288e-02
-2.288604853674769402e-03
5.748944357037544250e-03
2.720855176448822021e-02
7.084065675735473633e-02
5.574579909443855286e-02
8.810913562774658203e-02
1.018599607050418854e-02
9.612762369215488434e-03
4.607917740941047668e-02
8.418966829776763916e-02
-4.564739391207695007e-02
6.633721292018890381e-02
-7.348149269819259644e-02
8.084791153669357300e-02
-4.977120459079742432e-02
-7.196368277072906494e-02
1.143845636397600174e-02
8.738796412944793701e-02
2.067973837256431580e-02
-8.930049836635589600e-02
-7.723418064415454865e-03
1.942356675863265991e-02
8.532579056918621063e-03
8.452172577381134033e-02
-1.142058055847883224e-02
9.817011654376983643e-03
-8.542339503765106201e-02
1.479671150445938110e-02
-7.340264320373535156e-02
-5.244555696845054626e-02
3.245419263839721680e-02
-8.246858417987823486e-02
6.239861249923706055e-02
6.944587081670761108e-02
2.531316690146923065e-02
7.661639899015426636e-02
8.882407844066619873e-02
-8.777887374162673950e-02
1.504931692034006119e-02
8.278753608465194702e-02
-5.963962897658348083e-02
-3.457289934158325195e-02
4.798795282840728760e-02
-7.529866695404052734e-02
-8.970583975315093994e-02
-5.395718291401863098e-02
-3.358943387866020203e-03
8.684676140546798706e-02
-7.035904377698898315e-02
2.643886953592300415e-02
-1.233107643201947212e-03
-9.078172594308853149e-02
3.352659195661544800e-02
7.074692845344543457e-02
1.345771551132202148e-02
5.013821180909872055e-03
2.974424324929714203e-02
5.939143151044845581e-02
4.587135836482048035e-02
-3.977921232581138611e-02
-8.230802416801452637e-02
7.633593678474426270e-02
-2.403331600362434983e-04
-1.846322603523731232e-02
1.430116035044193268e-02
-3.532715199980884790e-04
-8.352810144424438477e-02
-5.642221774905920029e-03
-2.659975923597812653e-02
2.559019811451435089e-02
-2.655418962240219116e-02
-8.362779766321182251e-02
5.443271622061729431e-02
-5.317687615752220154e-02
-6.964246276766061783e-04
3.884709998965263367e-02
7.621602714061737061e-02
-4.308411478996276855e-02
3.145031630992889404e-02
5.937007069587707520e-02
4.190388694405555725e-02
-2.328650839626789093e-02
6.883690599352121353e-03
2.354674600064754486e-02
-5.371105298399925232e-02
1.733997836709022522e-02
7.389412075281143188e-02
4.884569719433784485e-02
-8.104646950960159302e-02
1.190195512026548386e-02
1.908619515597820282e-02
-5.904234573245048523e-02
-8.835141360759735107e-02
2.047413960099220276e-02
-2.389662666246294975e-03
-3.111905045807361603e-02
4.831985384225845337e-02
-8.188734948635101318e-02
-8.089906722307205200e-02
3.739455714821815491e-02
-1.592212542891502380e-02
-6.106560304760932922e-02
-2.193625830113887787e-02
-8.812814205884933472e-02
-1.699297316372394562e-02
1.848242059350013733e-02
-1.389315258711576462e-02
-1.099820062518119812e-02
7.815178483724594116e-02
-2.992236241698265076e-02
-2.144120447337627411e-02
7.871219515800476074e-02
-4.354791715741157532e-02
-4.389794543385505676e-02
5.127586051821708679e-02
2.741224016062915325e-04
2.283672365592792630e-04
2.964221872389316559e-02
7.187262177467346191e-02
2.519923262298107147e-02
-7.788596302270889282e-02
1.302754227072000504e-02
-4.865200072526931763e-02
-2.828125096857547760e-02
1.691151224076747894e-02
5.652322992682456970e-02
4.042159393429756165e-02
-4.822055343538522720e-03
7.441899180412292480e-02
5.266259983181953430e-02
-1.447255909442901611e-02
-7.668948918581008911e-02
1.656047441065311432e-02
-3.770541772246360779e-02
-1.637667231261730194e-02
-4.790034517645835876e-02
6.548015773296356201e-02
4.458763450384140015e-02
-5.278461799025535583e-02
1.359810959547758102e-02
-7.678696513175964355e-02
-3.898106515407562256e-02
-8.995721489191055298e-02
-4.971287399530410767e-02
-8.931033313274383545e-02
4.712896794080734253e-02
-8.849611878395080566e-02
1.845867559313774109e-02
-3.274484723806381226e-02
2.629130147397518158e-02
2.839658968150615692e-02
6.204714626073837280e-02
1.245814934372901917e-02
-3.865659609436988831e-02
3.981166705489158630e-02
-9.612948633730411530e-03
-8.086971938610076904e-02
-8.906771987676620483e-02
4.134108498692512512e-02
7.964348047971725464e-02
-2.995757618919014931e-03
-6.865059584379196167e-02
7.574612647294998169e-02
-3.631940484046936035e-02
7.440821826457977295e-02
-6.563590466976165771e-02
6.059402227401733398e-02
-1.427756063640117645e-02
4.846713319420814514e-02
4.961716011166572571e-03
-2.107773162424564362e-02
5.669832229614257812e-02
8.939897269010543823e-02
5.603197589516639709e-02
3.508146479725837708e-02
-2.565390430390834808e-02
-7.251302897930145264e-02
-5.443355813622474670e-02
4.479886591434478760e-02
-4.023153334856033325e-02
6.697324663400650024e-02
-1.304630190134048462e-02
2.732670865952968597e-02
8.889817446470260620e-02
6.112264096736907959e-02
8.124763518571853638e-02
-3.225743537768721581e-03
-4.329640045762062073e-02
5.308221280574798584e-02
5.978643149137496948e-02
6.159980222582817078e-02
3.745044022798538208e-02
-7.246436923742294312e-02
-8.561339229345321655e-02
5.084145348519086838e-03
6.401553750038146973e-02
3.036182187497615814e-02
-7.343717664480209351e-02
8.131159096956253052e-02
7.416090369224548340e-02
-2.183650806546211243e-02
-2.343666180968284607e-02
-8.961697667837142944e-02
1.559510454535484314e-02
3.690803050994873047e-02
-3.554476425051689148e-02
-3.059758432209491730e-02
-3.429436311125755310e-02
-2.213397063314914703e-02
-3.976525366306304932e-02
-5.769401043653488159e-02
4.155230149626731873e-02
5.059393122792243958e-02
-3.144641593098640442e-02
4.420950636267662048e-02
-6.356307864189147949e-02
3.540604934096336365e-02
-7.785852253437042236e-02
1.661443151533603668e-03
-1.163046061992645264e-02
4.618448391556739807e-02
-6.022584065794944763e-02
5.475195497274398804e-02
1.537385117262601852e-02
2.794737368822097778e-02
6.748068332672119141e-02
-8.966434746980667114e-02
7.614827156066894531e-02
-3.741132095456123352e-02
-7.357420772314071655e-02
-8.177408017218112946e-03
3.244385123252868652e-02
-7.736086100339889526e-02
8.428433537483215332e-02
-4.436127841472625732e-02
3.114461526274681091e-02
1.289610844105482101e-02
-8.793102949857711792e-02
-2.752901799976825714e-02
-6.744175404310226440e-02
-3.848667815327644348e-02
-1.768125221133232117e-03
7.694063335657119751e-02
-8.626873046159744263e-02
-7.286611199378967285e-02
-7.320753484964370728e-02
-7.443285733461380005e-02
6.046940013766288757e-02
-3.394909575581550598e-02
8.742969483137130737e-02
3.070523776113986969e-02
8.391648530960083008e-02
4.888508468866348267e-02
-1.656800135970115662e-02
4.406654089689254761e-02
-1.314108632504940033e-02
1.109895668923854828e-02
-4.475749284029006958e-02
1.123229786753654480e-02
5.751564726233482361e-02
-6.376916170120239258e-02
-2.034779451787471771e-02
-2.190091647207736969e-02
-8.667156845331192017e-02
3.724315017461776733e-02
2.049838192760944366e-02
-6.302966177463531494e-02
3.737656772136688232e-02
6.232453882694244385e-02
2.043380960822105408e-02
2.858402393758296967e-02
-6.178412958979606628e-02
4.006330855190753937e-03
-8.161237090826034546e-02
-5.088309943675994873e-02
4.427696764469146729e-02
8.666542172431945801e-02
1.828261837363243103e-02
-3.976566717028617859e-02
2.683420479297637939e-02
7.964541763067245483e-02
8.524843305349349976e-02
-1.329760439693927765e-02
-3.057710127905011177e-03
-8.930065482854843140e-02
-4.827750846743583679e-02
-3.450055420398712158e-02
-1.319262757897377014e-02
-5.238316580653190613e-02
2.855451405048370361e-02
-1.919026137329638004e-03
-7.866583764553070068e-02
-1.118782442063093185e-02
-5.884625762701034546e-02
-4.902461171150207520e-02
1.089705899357795715e-02
-2.904752641916275024e-02
2.691029570996761322e-03
8.504647761583328247e-02
-7.287301868200302124e-02
-4.185847938060760498e-02
-8.442183025181293488e-03
-9.144925512373447418e-03
4.197793081402778625e-02
-8.193939179182052612e-02
-3.259056061506271362e-02
3.522467613220214844e-02
-3.402725979685783386e-02
-8.567271381616592407e-02
3.416006639599800110e-02
-9.891667403280735016e-03
4.973879456520080566e-02
-2.491678856313228607e-02
5.247603403404355049e-04
6.152942311018705368e-03
4.732801020145416260e-02
7.007486373186111450e-02
-1.391816418617963791e-02
-1.860807090997695923e-02
9.615381248295307159e-03
-9.128792583942413330e-02
6.204096972942352295e-02
-7.122261822223663330e-02
7.845398783683776855e-02
4.054266959428787231e-02
3.266352042555809021e-02
5.902112647891044617e-02
-6.443645060062408447e-02
-5.853176489472389221e-02
-8.691933751106262207e-02
3.156198188662528992e-02
6.845751404762268066e-02
4.711284115910530090e-02
-1.484070159494876862e-02
7.032053172588348389e-02
-9.102494269609451294e-02
3.722605761140584946e-04
4.415460303425788879e-02
8.828909695148468018e-02
-8.373403549194335938e-02
8.826912939548492432e-02
-1.763290027156472206e-03
-9.090305119752883911e-02
-1.052159070968627930e-02
2.486618002876639366e-03
3.077575005590915680e-02
5.709988996386528015e-02
-4.573260433971881866e-03
-5.091165006160736084e-02
-5.846615880727767944e-02
-2.915528416633605957e-02
8.456208556890487671e-02
5.562893301248550415e-02
-4.532215744256973267e-02
4.158147051930427551e-02
5.963797494769096375e-02
-6.860726326704025269e-02
-6.782432086765766144e-03
-7.269346714019775391e-02
-6.026109680533409119e-02
-5.953959189355373383e-03
3.618278726935386658e-02
-4.227641329634934664e-04
-6.918985396623611450e-02
8.152719587087631226e-03
-2.181860432028770447e-02
-8.957428485155105591e-02
4.643165320158004761e-02
5.057681351900100708e-03
3.929081372916698456e-03
-8.164358325302600861e-03
4.422332718968391418e-02
-6.616393476724624634e-02
-1.170507539063692093e-02
3.145743161439895630e-02
4.275467991828918457e-02
4.303555563092231750e-02
-6.703358888626098633e-02
4.986489564180374146e-02
-2.638097479939460754e-02
-5.434789881110191345e-02
4.998290538787841797e-02
-8.702849596738815308e-02
-8.136241137981414795e-02
-3.831911087036132812e-02
-9.048385918140411377e-02
6.607768684625625610e-02
5.106838420033454895e-02
-1.808686554431915283e-02
1.060281880199909210e-02
7.905040681362152100e-02
-6.654316093772649765e-03
-8.880060911178588867e-02
2.044581808149814606e-03
-5.635397508740425110e-02
5.865822359919548035e-02
-9.056057780981063843e-02
-3.278885036706924438e-02
-5.349987745285034180e-02
-8.563755452632904053e-02
-4.213835299015045166e-02
1.571088843047618866e-02
-3.790668025612831116e-02
9.087654761970043182e-03
3.463940694928169250e-02
8.859106898307800293e-02
-1.312252786010503769e-02
6.696737557649612427e-02
-8.590175956487655640e-02
1.536679361015558243e-02
-8.599334210157394409e-02
5.677658598870038986e-03
-7.380063831806182861e-02
-4.767001792788505554e-02
5.344021320343017578e-02
-7.173486799001693726e-02
-5.637920275330543518e-02
-7.497080415487289429e-02
2.881255000829696655e-03
3.346901014447212219e-02
5.479250475764274597e-02
-3.726943209767341614e-02
-7.978004217147827148e-02
6.121651455760002136e-02
8.766304701566696167e-02
4.061993956565856934e-02
-3.877110034227371216e-02
7.460720092058181763e-02
-6.818477809429168701e-02
5.926688387989997864e-02
-3.481235727667808533e-02
-2.168836537748575211e-03
-4.622137546539306641e-02
7.200895249843597412e-02
8.471097797155380249e-02
1.731400005519390106e-02
-7.664104551076889038e-02
4.856936633586883545e-02
-7.335428893566131592e-02
5.468440800905227661e-02
-6.580865476280450821e-03
4.317593574523925781e-02
-2.519963122904300690e-02
-2.314485795795917511e-02
9.967510588467121124e-03
3.268109634518623352e-02
2.892814204096794128e-02
6.664814054965972900e-02
-7.027404010295867920e-02
1.834671571850776672e-02
2.384859509766101837e-02
5.504548922181129456e-02
-1.909877918660640717e-02
-8.068118989467620850e-02
-3.646872006356716156e-03
6.376965343952178955e-02
5.328340455889701843e-02
-5.575819686055183411e-02
7.220128923654556274e-02
-8.839745074510574341e-02
4.907580092549324036e-02
-2.312184497714042664e-02
3.240506350994110107e-02
8.841275423765182495e-02
-5.159762129187583923e-02
-6.632032245397567749e-02
4.117021709680557251e-02
1.719506084918975830e-02
6.528074294328689575e-02
2.163278870284557343e-02
-8.241619169712066650e-02
7.649295777082443237e-02
3.008158504962921143e-02
-7.643966376781463623e-02
-2.400563284754753113e-02
4.118106886744499207e-02
8.151520043611526489e-02
-7.425736635923385620e-02
-5.580430477857589722e-02
6.924394518136978149e-02
-7.960952818393707275e-02
-4.943184554576873779e-02
-5.187037587165832520e-02
-8.279309608042240143e-03
3.123492561280727386e-02
6.876070797443389893e-02
-1.006811764091253281e-02
3.239510953426361084e-02
-6.293148547410964966e-02
5.792108830064535141e-03
-1.700726523995399475e-02
-4.299195855855941772e-02
6.432411726564168930e-03
-4.486523568630218506e-02
8.610871434211730957e-02
4.978809505701065063e-03
7.520885020494461060e-02
3.968046605587005615e-02
-4.564895294606685638e-03
3.466583415865898132e-02
-6.306060403585433960e-02
-5.645630508661270142e-02
-2.312536165118217468e-02
2.796618966385722160e-03
-1.724023185670375824e-02
-6.570719415321946144e-04
-6.478973478078842163e-02
-4.850491508841514587e-02
6.538376957178115845e-02
3.105352260172367096e-02
-9.073999710381031036e-03
-6.074925139546394348e-02
-1.331961154937744141e-02
-4.670708999037742615e-02
1.657208427786827087e-02
2.308453992009162903e-02
-6.698785722255706787e-02
-3.800569847226142883e-02
5.916470289230346680e-02
8.803209289908409119e-03
5.307922884821891785e-02
-8.860647678375244141e-02
2.079899981617927551e-02
6.661893427371978760e-02
8.502867072820663452e-02
-1.800223812460899353e-02
-7.318934798240661621e-02
-7.530345022678375244e-02
3.249437734484672546e-02
-4.218894988298416138e-02
5.945980176329612732e-02
1.490382663905620575e-02
5.118406191468238831e-02
-3.036330081522464752e-02
-5.838300660252571106e-02
6.077095493674278259e-02
-8.228593319654464722e-02
-2.114665694534778595e-02
4.798518493771553040e-02
-5.217677727341651917e-02
4.122879356145858765e-02
7.524409890174865723e-02
-3.433162719011306763e-02
8.943969756364822388e-02
-3.306027129292488098e-02
-7.560237497091293335e-02
3.717469796538352966e-02
7.031102478504180908e-02
1.958622969686985016e-02
8.460544794797897339e-02
7.339019328355789185e-02
1.850553974509239197e-02
1.648735022172331810e-03
-1.619060337543487549e-02
3.007026389241218567e-02
-2.721435576677322388e-02
8.883629739284515381e-02
-8.354302495718002319e-02
1.907329633831977844e-02
-3.752031922340393066e-02
-4.480508156120777130e-03
-4.480482265353202820e-02
-7.817597687244415283e-02
9.076099097728729248e-02
6.087913364171981812e-02
-8.334495872259140015e-02
-5.910412222146987915e-02
-2.175621874630451202e-02
-1.704966463148593903e-02
1.685019023716449738e-02
1.452720724046230316e-02
4.266206920146942139e-02
-2.617902122437953949e-02
3.131794556975364685e-02
6.981717795133590698e-02
-7.977487891912460327e-02
-4.798412322998046875e-02
-2.650083275511860847e-03
1.546354684978723526e-02
5.246986076235771179e-02
2.116947621107101440e-02
4.367393255233764648e-02
1.598147675395011902e-02
7.205461710691452026e-02
-1.141665317118167877e-02
4.193457216024398804e-02
6.723932176828384399e-02
2.304788306355476379e-02
-2.662950381636619568e-02
1.486854045651853085e-03
2.900620177388191223e-02
-4.407863691449165344e-02
7.161798328161239624e-02
-1.194877270609140396e-02
6.378709524869918823e-02
-4.023770615458488464e-02
4.045926779508590698e-02
-2.608932554721832275e-03
-5.296349897980690002e-02
4.692466929554939270e-02
-8.971603959798812866e-02
6.311575323343276978e-02
8.564024418592453003e-02
4.246350377798080444e-02
-7.688233256340026855e-02
7.459548115730285645e-02
2.442246302962303162e-03
8.668482303619384766e-02
2.369834808632731438e-03
-5.406933650374412537e-02
5.627630650997161865e-02
3.515797108411788940e-02
6.015462428331375122e-02
9.033837914466857910e-02
-2.383701130747795105e-02
-7.869640737771987915e-02
1.135866157710552216e-02
1.117111556231975555e-02
-7.520457357168197632e-02
2.836492843925952911e-03
-4.171090945601463318e-02
-5.476011708378791809e-02
-8.357056975364685059e-02
-4.937138035893440247e-02
-8.429756015539169312e-02
4.641652852296829224e-02
-2.847373671829700470e-02
-7.860615849494934082e-02
7.950743287801742554e-02
1.720208488404750824e-02
5.526437237858772278e-02
-3.086902014911174774e-02
4.098415374755859375e-03
2.107894420623779297e-02
-6.835620850324630737e-02
5.431955680251121521e-02
-5.757309496402740479e-02
5.560268089175224304e-02
-7.077078521251678467e-02
-5.979301407933235168e-02
-2.623635530471801758e-02
-7.395360618829727173e-02
5.707368627190589905e-02
2.385759726166725159e-02
-9.868091903626918793e-03
-6.888705492019653320e-02
-1.921378821134567261e-02
-6.413721013814210892e-03
-2.676610089838504791e-02
-8.827740699052810669e-02
3.452450409531593323e-02
4.466753825545310974e-02
-8.095309883356094360e-02
6.640158593654632568e-02
-7.386863976716995239e-02
5.368441343307495117e-02
4.885230958461761475e-02
8.660952746868133545e-02
-8.225637488067150116e-03
-5.566873122006654739e-03
-7.259002327919006348e-02
-3.421218693256378174e-02
6.080302968621253967e-02
8.778454363346099854e-02
-6.323969364166259766e-02
3.794522956013679504e-02
-4.378169775009155273e-02
4.185346886515617371e-02
-6.501809507608413696e-02
-8.048699051141738892e-02
5.406265147030353546e-03
-4.689637571573257446e-02
9.813810698688030243e-03
-1.965515501797199249e-02
2.287228219211101532e-02
-5.680415034294128418e-02
1.933380402624607086e-02
2.594602294266223907e-02
5.357868596911430359e-02
-1.369419787079095840e-02
-7.626646012067794800e-02
-4.668458178639411926e-02
-4.694352298974990845e-02
-4.494917020201683044e-02
-8.455915749073028564e-02
4.950847476720809937e-02
1.694049872457981110e-02
-8.311559259891510010e-02
-3.186446055769920349e-02
5.864160507917404175e-02
2.510847290977835655e-03
7.384245097637176514e-02
-5.482470244169235229e-02
-3.795435652136802673e-02
-8.677634596824645996e-02
-4.652094095945358276e-02
3.415227402001619339e-04
-7.922448962926864624e-02
-5.464378744363784790e-02
-8.623017370700836182e-02
-2.242848277091979980e-02
1.090202480554580688e-02
-6.155463308095932007e-02
2.051081694662570953e-02
8.029981702566146851e-02
-6.778632849454879761e-02
-5.367290228605270386e-02
1.952512748539447784e-02
-5.459112301468849182e-02
3.762402385473251343e-02
2.564217895269393921e-02
4.337204620242118835e-02
-3.606018051505088806e-02
-2.589945681393146515e-02
4.193015024065971375e-02
-5.617526918649673462e-02
-1.998607814311981201e-02
4.906844720244407654e-02
1.195216178894042969e-02
-4.282818734645843506e-02
-1.096152886748313904e-02
-6.547813862562179565e-02
-7.286809384822845459e-02
4.544647037982940674e-02
-9.072311967611312866e-02
5.156308040022850037e-02
-1.289662998169660568e-02
