-2.651274800300598145e-01
-9.367682039737701416e-02
-1.161597669124603271e-01
2.733724713325500488e-01
1.219128370285034180e-01
-1.156434267759323120e-01
-1.892229914665222168e-02
-2.650740742683410645e-01
1.583542525768280029e-01
-9.200654923915863037e-02
-1.285798549652099609e-01
-4.671235382556915283e-02
-1.278135180473327637e-02
1.555751860141754150e-01
-2.566908299922943115e-02
-2.562921345233917236e-01
-2.496063411235809326e-01
-1.858106851577758789e-01
-2.438458800315856934e-01
-9.292626380920410156e-02
6.384214758872985840e-02
-2.065361142158508301e-01
-1.758814901113510132e-01
-2.056360542774200439e-01
8.557167649269104004e-02
1.737947762012481689e-01
7.603257894515991211e-02
-2.712344527244567871e-01
-2.610914111137390137e-01
-9.612506628036499023e-02
-1.401405483484268188e-01
-1.853269934654235840e-01
8.720046281814575195e-02
2.176273465156555176e-01
-6.016029417514801025e-02
4.003190994262695312e-02
-4.396167397499084473e-02
2.595527172088623047e-01
3.970295190811157227e-03
-6.990720331668853760e-02
-1.375168561935424805e-02
4.494452476501464844e-02
-2.266389876604080200e-01
1.103050708770751953e-01
9.303420782089233398e-03
8.234041929244995117e-02
1.133707463741302490e-01
8.174604177474975586e-02
2.242461144924163818e-01
4.244974255561828613e-02
-2.666827738285064697e-01
-3.998947143554687500e-02
2.734459638595581055e-01
-1.035830974578857422e-01
-2.088220566511154175e-01
-2.467766404151916504e-02
1.567065119743347168e-01
7.596623897552490234e-02
2.323000431060791016e-01
2.591168880462646484e-01
1.661460697650909424e-01
-3.055068850517272949e-02
1.072122454643249512e-01
-2.678290605545043945e-01
-2.385262846946716309e-01
-2.023653090000152588e-01
-1.543357968330383301e-02
8.139514923095703125e-02
-1.203041523694992065e-01
1.612943112850189209e-01
2.272222042083740234e-01
2.341254353523254395e-01
2.712147235870361328e-01
-1.987889409065246582e-02
9.922429919242858887e-02
1.132161319255828857e-01
-1.346212774515151978e-01
-2.211547791957855225e-01
7.019793987274169922e-02
1.853365898132324219e-01
1.229988932609558105e-01
1.513395607471466064e-01
-1.707399487495422363e-01
2.131102085113525391e-01
-2.678506970405578613e-01
9.205034375190734863e-02
1.472634971141815186e-01
-1.125442683696746826e-01
-1.679753363132476807e-01
-2.416818439960479736e-01
-2.185421139001846313e-01
2.545832395553588867e-01
-1.040666103363037109e-01
-2.725021243095397949e-01
2.594931721687316895e-01
1.750331819057464600e-01
-2.686893939971923828e-01
2.182125151157379150e-01
-7.919096946716308594e-02
1.566850841045379639e-01
7.575887441635131836e-02
-1.286422014236450195e-01
1.433535814285278320e-01
3.619205951690673828e-02
-2.737963199615478516e-01
-1.072005629539489746e-01
-6.415195763111114502e-02
-1.732629537582397461e-01
1.184130609035491943e-01
1.606069505214691162e-01
1.458246111869812012e-01
1.349371075630187988e-01
1.503746807575225830e-01
-1.024342626333236694e-01
-2.482666075229644775e-02
-8.983233571052551270e-02
-1.081716120243072510e-01
2.584969997406005859e-01
1.085619926452636719e-01
2.712872624397277832e-01
-1.726514697074890137e-01
-1.397716403007507324e-01
-1.207449436187744141e-01
-5.474072694778442383e-02
1.083044111728668213e-01
-1.717220246791839600e-01
1.540139317512512207e-02
-3.302538394927978516e-02
2.413380742073059082e-01
3.235030174255371094e-02
6.278797984123229980e-02
-2.111112475395202637e-01
-4.515765607357025146e-02
3.526508808135986328e-02
8.899846673011779785e-02
1.231994032859802246e-01
-2.140457332134246826e-01
2.285786867141723633e-01
1.974059939384460449e-01
2.475619316101074219e-03
-1.501281857490539551e-01
6.573227047920227051e-02
-1.847320348024368286e-01
-1.254519671201705933e-01
-6.810128688812255859e-04
1.256104409694671631e-01
5.681604146957397461e-03
-6.487117707729339600e-02
2.599281668663024902e-01
-1.708350777626037598e-01
-1.745753586292266846e-01
2.649217844009399414e-03
-8.303931355476379395e-02
-8.035463094711303711e-02
1.036364436149597168e-01
1.238375902175903320e-01
-2.263503819704055786e-01
-2.162158489227294922e-02
-9.468318521976470947e-02
2.121101617813110352e-01
-1.009088754653930664e-01
-7.617846131324768066e-02
7.792001962661743164e-02
-1.835051029920578003e-01
-1.683524847030639648e-01
2.328181266784667969e-01
-1.612538248300552368e-01
3.683015704154968262e-02
-4.725351929664611816e-02
-8.982652425765991211e-02
-2.621215581893920898e-01
-1.133888959884643555e-03
-2.138916552066802979e-01
-1.991841197013854980e-02
2.674713134765625000e-01
-1.068389713764190674e-01
9.845769405364990234e-02
1.480697989463806152e-01
-2.633268237113952637e-01
-1.003770530223846436e-01
-9.380212426185607910e-02
7.458567619323730469e-02
-1.384841054677963257e-01
6.612363457679748535e-02
4.652431607246398926e-02
1.394981741905212402e-01
2.732632160186767578e-01
-1.495273411273956299e-01
8.188876509666442871e-02
1.896885037422180176e-02
-2.679593265056610107e-01
2.770891785621643066e-02
-9.492406249046325684e-02
-2.251823544502258301e-01
-1.385632455348968506e-01
-8.275528252124786377e-02
-2.001419961452484131e-01
1.174732744693756104e-01
-6.419120728969573975e-02
2.468444705009460449e-01
9.280964732170104980e-02
2.560081481933593750e-01
2.421723008155822754e-01
-2.235470712184906006e-01
-2.329907417297363281e-01
-8.969253301620483398e-02
2.695953249931335449e-01
1.997155547142028809e-01
-1.105934828519821167e-01
1.659075617790222168e-01
1.576321125030517578e-01
-1.635838299989700317e-01
-2.146631479263305664e-01
-1.258933395147323608e-01
-5.530977249145507812e-02
-1.218181103467941284e-01
1.260667145252227783e-01
1.769577264785766602e-01
-8.954791724681854248e-02
1.118850708007812500e-01
1.759922802448272705e-01
1.511455178260803223e-01
6.694808602333068848e-02
1.869416534900665283e-01
-1.546151041984558105e-01
2.265864610671997070e-02
-2.009535133838653564e-01
-2.272889912128448486e-01
-1.619152426719665527e-01
-8.415551483631134033e-02
-1.821658015251159668e-01
-1.691166758537292480e-01
-8.527843654155731201e-02
1.099608540534973145e-01
1.028908491134643555e-01
-4.848554730415344238e-02
4.673200845718383789e-02
5.587959289550781250e-02
-4.643738269805908203e-03
-7.580648362636566162e-02
-6.629522144794464111e-02
1.943764090538024902e-02
2.506453394889831543e-01
1.874088048934936523e-01
-1.643890291452407837e-01
-1.865114867687225342e-01
-4.305095970630645752e-02
2.583915591239929199e-01
5.284988880157470703e-02
4.180273413658142090e-02
1.603350043296813965e-01
1.718899011611938477e-01
1.745204329490661621e-01
1.096127629280090332e-01
2.900898456573486328e-02
-2.117518484592437744e-01
-8.314359188079833984e-02
-2.014763951301574707e-01
-4.348307847976684570e-03
1.558108031749725342e-01
1.199996769428253174e-01
-1.512759774923324585e-01
1.494103968143463135e-01
-1.378204673528671265e-01
-2.029057443141937256e-01
7.597449421882629395e-02
1.865617036819458008e-01
-1.450584530830383301e-01
-2.165041118860244751e-01
-1.769724190235137939e-01
1.481605470180511475e-01
8.535441756248474121e-02
-2.362133115530014038e-01
2.371996641159057617e-01
-2.485833168029785156e-01
1.726429164409637451e-01
5.512386560440063477e-02
5.078431963920593262e-02
-6.279313564300537109e-02
-8.565236628055572510e-02
2.162910699844360352e-01
2.952262759208679199e-02
1.117403805255889893e-01
1.613724231719970703e-02
-2.105358242988586426e-01
1.651437580585479736e-01
2.074966728687286377e-01
7.245063781738281250e-02
9.928816556930541992e-02
2.376774549484252930e-01
-1.079209446907043457e-01
-1.136208176612854004e-01
-4.618060588836669922e-02
-1.622264385223388672e-01
3.225341439247131348e-02
-2.177395224571228027e-01
-2.604787647724151611e-01
-1.099841594696044922e-01
-1.592363119125366211e-01
-2.566435635089874268e-01
-2.565624117851257324e-01
-1.046165674924850464e-01
2.148085534572601318e-01
-1.066765785217285156e-01
-2.393099367618560791e-01
-6.428672373294830322e-02
2.610464096069335938e-01
6.924119591712951660e-02
1.400932073593139648e-01
1.059675216674804688e-02
1.654694974422454834e-01
-8.084388077259063721e-02
1.445589661598205566e-01
2.651318311691284180e-01
-1.392620801925659180e-02
-1.247875392436981201e-01
1.670273542404174805e-01
-7.611773908138275146e-02
-2.020521461963653564e-01
-4.122260212898254395e-02
5.849367380142211914e-02
2.690317630767822266e-01
-1.903382241725921631e-01
1.885897219181060791e-01
2.323466539382934570e-02
-1.001100689172744751e-01
2.233828008174896240e-01
-3.222781419754028320e-02
6.252568960189819336e-02
3.171578049659729004e-02
2.618216276168823242e-01
-2.249017208814620972e-01
2.565838694572448730e-01
-1.399786174297332764e-01
1.423953175544738770e-01
-1.274281442165374756e-01
-2.404254674911499023e-02
2.612482309341430664e-01
-2.172545939683914185e-01
-4.417100548744201660e-02
-2.348952889442443848e-01
-1.531091034412384033e-01
2.124672532081604004e-01
2.328752875328063965e-01
1.936858296394348145e-01
-1.719700694084167480e-01
1.459659636020660400e-01
8.757212758064270020e-02
1.442003250122070312e-02
-1.746755838394165039e-01
-1.239686161279678345e-01
-6.396757066249847412e-02
4.943445324897766113e-02
1.267041563987731934e-01
2.480948567390441895e-01
-2.276346385478973389e-01
-2.019189596176147461e-01
1.797851920127868652e-02
3.444087505340576172e-02
-2.370616048574447632e-01
-7.940892875194549561e-02
1.304093003273010254e-01
-1.807951629161834717e-01
-2.309330850839614868e-01
-1.516696959733963013e-01
-1.344697922468185425e-01
8.276176452636718750e-02
-1.891757249832153320e-01
-2.640237510204315186e-01
3.938680887222290039e-02
-8.922953903675079346e-02
-9.531536698341369629e-02
-4.901710152626037598e-02
-1.751125901937484741e-01
-2.285531312227249146e-01
2.571006417274475098e-01
2.139998376369476318e-01
1.597191691398620605e-01
-7.431145012378692627e-02
-2.542865872383117676e-01
1.038669347763061523e-01
1.244092285633087158e-01
2.237635850906372070e-01
-1.694563925266265869e-01
-1.788566559553146362e-01
-2.637666463851928711e-01
-2.093034684658050537e-01
2.419060468673706055e-01
2.143214046955108643e-01
-1.392898261547088623e-01
-2.184368073940277100e-01
-2.302164137363433838e-01
-7.168592512607574463e-02
-2.438539713621139526e-01
6.117129325866699219e-02
2.247153818607330322e-01
2.545788884162902832e-01
-2.244242876768112183e-01
1.203042864799499512e-01
6.046867370605468750e-02
-1.496995985507965088e-01
-2.098803967237472534e-01
-2.145605087280273438e-01
2.192753553390502930e-01
1.962561011314392090e-01
1.899271309375762939e-01
-2.070360183715820312e-01
-9.709520637989044189e-02
-1.184323132038116455e-01
-1.995404362678527832e-01
2.429708838462829590e-01
-1.023399829864501953e-01
1.493167877197265625e-02
-2.449428737163543701e-01
2.122160792350769043e-01
-6.725412607192993164e-02
1.481077969074249268e-01
-1.080601513385772705e-01
9.147256612777709961e-02
-9.333266317844390869e-02
-9.615392982959747314e-02
-9.617939591407775879e-02
-2.672314941883087158e-01
-5.891090631484985352e-02
9.275388717651367188e-02
2.244651019573211670e-01
7.108137011528015137e-02
1.814025640487670898e-02
1.651103794574737549e-01
-1.216937303543090820e-01
1.220549941062927246e-01
-1.455804109573364258e-01
1.822142601013183594e-01
1.675849556922912598e-01
-1.671079099178314209e-01
-2.429658472537994385e-01
1.430715024471282959e-01
2.352282404899597168e-02
1.422529816627502441e-01
1.384986639022827148e-01
2.697298526763916016e-01
-1.061874032020568848e-01
-2.481789588928222656e-01
1.916193962097167969e-01
-1.656260192394256592e-01
1.216793656349182129e-01
1.350482404232025146e-01
-2.021411061286926270e-02
9.781727194786071777e-02
2.346726059913635254e-01
9.387904405593872070e-02
2.734825611114501953e-01
1.299163401126861572e-01
5.737239122390747070e-02
1.301887631416320801e-01
-5.753815174102783203e-03
-3.073997795581817627e-02
7.193383574485778809e-02
1.689542233943939209e-01
-1.644535362720489502e-01
-2.484217137098312378e-01
-2.383035421371459961e-02
2.333839535713195801e-01
-2.817355096340179443e-02
1.970105171203613281e-01
6.108278036117553711e-02
-2.185127437114715576e-01
7.229414582252502441e-02
1.056136190891265869e-01
2.604148387908935547e-01
-5.011552572250366211e-02
-2.075016796588897705e-01
-2.689874470233917236e-01
2.184376418590545654e-01
-2.202531397342681885e-01
1.097181439399719238e-01
8.853900432586669922e-02
2.218708395957946777e-01
1.536915898323059082e-01
-9.768931567668914795e-02
-1.172923445701599121e-01
-2.711016535758972168e-01
-3.741794824600219727e-02
-2.654629945755004883e-02
-6.391324102878570557e-02
-1.387298703193664551e-01
-8.176791667938232422e-02
-2.049875557422637939e-01
2.368746995925903320e-01
-6.251811981201171875e-03
2.549579143524169922e-01
-1.736836433410644531e-01
-1.022364944219589233e-01
-2.603935003280639648e-01
-2.565269172191619873e-02
-1.722579598426818848e-01
1.189350187778472900e-01
1.050910055637359619e-01
-2.170916199684143066e-01
-1.792428046464920044e-01
-5.108095705509185791e-02
-1.335780173540115356e-01
5.807703733444213867e-02
2.492195367813110352e-01
2.244347929954528809e-01
-7.562124729156494141e-02
-1.888595819473266602e-01
-7.084769010543823242e-02
1.055704355239868164e-01
-1.882272660732269287e-01
2.193531394004821777e-02
-1.698634326457977295e-01
1.029018163681030273e-01
1.996780633926391602e-01
-8.813737332820892334e-02
-2.622003853321075439e-01
-1.969186365604400635e-01
-7.484072446823120117e-02
-5.163282155990600586e-03
-1.063876599073410034e-01
-8.882099390029907227e-02
-1.828084886074066162e-01
-1.081584841012954712e-01
2.342352271080017090e-01
-1.836520731449127197e-01
9.484472870826721191e-02
-2.463626861572265625e-01
-1.800343543291091919e-01
1.030672192573547363e-01
-1.426604241132736206e-01
-4.536019265651702881e-02
-1.675637960433959961e-01
-6.143391132354736328e-02
6.057459115982055664e-02
-7.002270221710205078e-02
-2.722450196743011475e-01
2.306689023971557617e-01
3.559499979019165039e-02
-1.292950063943862915e-01
-1.901395320892333984e-01
1.957699656486511230e-02
1.756253540515899658e-01
-1.153715997934341431e-01
-1.108060181140899658e-01
1.257568299770355225e-01
2.627323865890502930e-01
-1.600577086210250854e-01
2.052185535430908203e-01
2.722105979919433594e-01
-1.206175535917282104e-01
2.165396809577941895e-01
2.466225624084472656e-01
1.282774209976196289e-01
-2.073976099491119385e-01
1.686699390411376953e-01
-3.045509755611419678e-02
3.471484780311584473e-02
-7.104846835136413574e-02
-1.838890314102172852e-01
-5.880703032016754150e-02
1.996353268623352051e-02
-2.640572488307952881e-01
2.355668544769287109e-01
-2.075163722038269043e-01
1.143862009048461914e-01
7.049295306205749512e-02
-2.658755481243133545e-01
-1.350590586662292480e-02
6.926718354225158691e-02
-1.218636184930801392e-01
-2.245604246854782104e-01
-2.510395646095275879e-02
-9.066599607467651367e-02
2.453381419181823730e-01
-5.173343420028686523e-02
-2.738024592399597168e-01
-8.688850700855255127e-02
-1.403108984231948853e-01
2.436563968658447266e-01
2.433835864067077637e-01
-6.044328212738037109e-02
-1.170990765094757080e-01
-2.476919293403625488e-01
6.341373920440673828e-02
-1.916750967502593994e-01
9.415706992149353027e-02
-4.603643715381622314e-02
7.649630308151245117e-02
6.606617569923400879e-02
5.378660559654235840e-02
-4.763305187225341797e-03
1.888937950134277344e-01
-1.233115792274475098e-02
2.587048411369323730e-01
-2.698979675769805908e-01
1.321878433227539062e-01
8.296057581901550293e-02
-1.750504374504089355e-01
-1.108858734369277954e-01
-1.424689739942550659e-01
-2.389953434467315674e-01
4.731234908103942871e-02
-8.474151790142059326e-02
2.668237686157226562e-02
2.820757031440734863e-02
2.496243715286254883e-01
-1.414795219898223877e-01
8.070212602615356445e-02
2.557340860366821289e-01
-1.798295974731445312e-02
8.145403861999511719e-02
-2.458160519599914551e-01
-2.371201813220977783e-01
-1.940989494323730469e-02
-2.538571655750274658e-01
-1.080076545476913452e-01
-9.387910366058349609e-03
5.028575658798217773e-02
-2.447625398635864258e-01
1.892214417457580566e-01
-2.736870944499969482e-01
-4.715870320796966553e-02
1.728209853172302246e-01
-1.590894162654876709e-01
6.645154953002929688e-02
1.944159269332885742e-01
-1.514460742473602295e-01
-1.695493161678314209e-01
-1.050567775964736938e-01
-1.902107000350952148e-01
1.233491003513336182e-01
-1.823978573083877563e-01
5.487197637557983398e-02
2.160881161689758301e-01
-3.725288808345794678e-02
2.178039848804473877e-01
1.660174429416656494e-01
1.757964789867401123e-01
-2.708118259906768799e-01
-2.352733463048934937e-01
-8.370700478553771973e-02
-1.908794343471527100e-01
-8.818830549716949463e-02
-2.582956850528717041e-02
4.280793666839599609e-02
-1.325752288103103638e-01
-2.717427015304565430e-01
-8.925519883632659912e-02
-1.862837374210357666e-01
-1.151601225137710571e-01
-4.672065377235412598e-02
-2.151073515415191650e-01
5.559477210044860840e-02
4.699644446372985840e-02
-2.517676353454589844e-01
8.096760511398315430e-02
-8.296200633049011230e-02
1.744260191917419434e-01
-1.111237257719039917e-01
2.093789279460906982e-01
-2.645461857318878174e-01
-5.723188817501068115e-02
1.106798648834228516e-02
-2.301054894924163818e-01
-2.360701262950897217e-01
2.793306112289428711e-02
4.165202379226684570e-03
4.374086856842041016e-04
1.931551098823547363e-01
-7.434938848018646240e-02
3.824272751808166504e-02
-1.214612126350402832e-01
-2.353421747684478760e-01
2.269855141639709473e-01
1.004046201705932617e-01
1.538498401641845703e-01
-8.502665162086486816e-02
6.877729296684265137e-02
-5.077937245368957520e-02
1.509833931922912598e-01
1.802615821361541748e-01
-6.110014021396636963e-02
1.469967067241668701e-01
-8.663065731525421143e-02
-1.491462290287017822e-01
2.178666591644287109e-01
-5.513119697570800781e-02
-2.018500566482543945e-01
8.771494030952453613e-02
-1.880751401185989380e-01
-1.900697946548461914e-01
2.132788002490997314e-01
7.333388924598693848e-02
-2.651208937168121338e-01
-2.772158384323120117e-02
1.442750096321105957e-01
9.528893232345581055e-02
1.299430429935455322e-01
-8.408857882022857666e-02
2.626090049743652344e-01
-2.244487702846527100e-01
-5.516089498996734619e-02
2.182784080505371094e-01
2.934217453002929688e-02
-2.716704308986663818e-01
2.076583206653594971e-01
5.622506141662597656e-04
-5.804479122161865234e-02
2.141718864440917969e-01
2.959302067756652832e-02
3.013509511947631836e-02
-1.276266276836395264e-01
1.043521463871002197e-01
1.081472635269165039e-02
-3.764666616916656494e-02
-2.247308492660522461e-01
2.268965244293212891e-01
-2.601967751979827881e-01
2.824541926383972168e-02
-1.090957820415496826e-01
-4.078598320484161377e-02
-1.911361664533615112e-01
1.062444150447845459e-01
5.637919902801513672e-02
1.826583743095397949e-01
-1.317593306303024292e-01
9.852990508079528809e-02
-2.147699147462844849e-01
2.683541178703308105e-01
7.009983062744140625e-02
2.266628146171569824e-01
5.770322680473327637e-02
1.177394688129425049e-01
9.600371122360229492e-03
-5.510213971138000488e-02
-7.198876142501831055e-02
2.182764410972595215e-01
-1.441440284252166748e-01
-2.342620790004730225e-01
-3.354336321353912354e-02
1.676191687583923340e-01
2.363548874855041504e-01
9.363266825675964355e-02
-7.455570995807647705e-02
2.062997519969940186e-01
-2.087322771549224854e-01
7.165172696113586426e-02
-8.355781435966491699e-02
-2.409286946058273315e-01
-8.240433037281036377e-02
1.904276013374328613e-01
1.539919972419738770e-01
-2.053445577621459961e-02
-1.054490059614181519e-01
5.495455861091613770e-02
1.804313957691192627e-01
-2.390165627002716064e-01
2.491633892059326172e-01
1.857316792011260986e-01
3.042429685592651367e-03
1.353559494018554688e-01
2.257777750492095947e-01
-1.078350841999053955e-01
-1.827828884124755859e-01
-2.232171446084976196e-01
5.331873893737792969e-03
-2.732011079788208008e-01
-6.092044711112976074e-02
2.405359745025634766e-01
9.494182467460632324e-02
2.450369596481323242e-01
-2.693808972835540771e-01
1.595313847064971924e-01
-2.161496281623840332e-01
-4.887223243713378906e-03
-2.329278737306594849e-01
-1.413740068674087524e-01
-6.336405873298645020e-02
-1.272801756858825684e-01
2.515689134597778320e-01
-2.465055435895919800e-01
5.486249923706054688e-02
-6.221045553684234619e-02
2.558625936508178711e-01
-1.827027201652526855e-01
-1.941389441490173340e-01
1.545979082584381104e-01
1.523973941802978516e-01
1.454016566276550293e-02
3.199791908264160156e-02
-2.292252629995346069e-01
1.099559664726257324e-01
-2.149394750595092773e-01
-1.115313172340393066e-02
-2.291075438261032104e-01
1.856531202793121338e-01
9.469056129455566406e-02
8.470109105110168457e-02
-1.227386146783828735e-01
-2.361535131931304932e-01
-1.932844519615173340e-01
-6.721198558807373047e-03
-1.945392787456512451e-01
5.266734957695007324e-02
4.327431321144104004e-02
4.800426959991455078e-02
1.999780833721160889e-01
4.735851287841796875e-02
2.374302744865417480e-01
1.885187327861785889e-01
-3.521056473255157471e-02
5.021393299102783203e-02
1.676348447799682617e-01
-1.127279996871948242e-01
9.260135889053344727e-02
2.524249553680419922e-01
9.969532489776611328e-02
-1.659649610519409180e-01
-2.334958314895629883e-02
-2.725238800048828125e-01
-2.137156128883361816e-01
1.448137462139129639e-01
-2.196013778448104858e-01
2.569527626037597656e-01
7.986041903495788574e-02
1.890637576580047607e-01
-1.184210777282714844e-01
-2.329481095075607300e-01
7.737696170806884766e-03
2.393525838851928711e-02
2.435051202774047852e-01
-1.550848186016082764e-01
-7.475022971630096436e-02
-2.239069044589996338e-01
1.360670626163482666e-01
-2.525767385959625244e-01
-1.736148893833160400e-01
-1.916023641824722290e-01
-1.926227062940597534e-01
2.728179097175598145e-01
-1.089115887880325317e-01
1.583393812179565430e-01
-1.747346818447113037e-01
-3.973665833473205566e-02
-1.086960583925247192e-01
1.536712050437927246e-02
2.418911457061767578e-01
2.233411371707916260e-01
-9.812873601913452148e-02
8.515202999114990234e-02
1.157706081867218018e-01
1.664101183414459229e-01
1.976732909679412842e-01
2.556112408638000488e-01
-1.740779578685760498e-01
-1.494705677032470703e-03
2.036499381065368652e-01
1.300441920757293701e-01
3.801563382148742676e-02
2.687181234359741211e-01
-1.921439170837402344e-01
3.864532709121704102e-02
8.493179082870483398e-02
-9.325842559337615967e-02
-2.606907188892364502e-01
1.425274908542633057e-01
6.006929278373718262e-02
-2.039448171854019165e-01
1.051156222820281982e-01
1.018643379211425781e-03
1.548379659652709961e-02
-1.453159153461456299e-01
2.692661285400390625e-01
8.733308315277099609e-02
-4.207755625247955322e-02
6.673178076744079590e-02
2.675490975379943848e-01
-1.635713577270507812e-01
2.530751824378967285e-01
-1.148769259452819824e-02
-1.883842945098876953e-01
-6.226432323455810547e-02
1.524507403373718262e-01
-2.552921175956726074e-01
-5.214217305183410645e-02
1.390762031078338623e-01
-2.218907624483108521e-01
-2.450707256793975830e-01
-2.624795138835906982e-01
-1.207762807607650757e-01
-1.511399745941162109e-01
7.391184568405151367e-03
7.648438215255737305e-03
-1.668170988559722900e-01
-1.625806093215942383e-03
-1.384696811437606812e-01
-2.237243354320526123e-01
-5.978532135486602783e-02
-1.696166396141052246e-02
-7.246710360050201416e-02
-2.553157508373260498e-02
-2.007263004779815674e-01
-1.190399378538131714e-01
1.567178070545196533e-01
2.615460753440856934e-01
-2.249222844839096069e-01
-7.613641023635864258e-02
7.072329521179199219e-03
-2.651700675487518311e-01
1.425385773181915283e-01
2.509042620658874512e-01
1.370140910148620605e-02
-2.011512219905853271e-01
1.195862293243408203e-01
2.317038774490356445e-01
-1.161924749612808228e-01
1.358380913734436035e-01
-1.988196372985839844e-02
2.733985781669616699e-01
-8.357322216033935547e-02
5.698332190513610840e-02
-2.489895075559616089e-01
2.424042820930480957e-01
-1.205757707357406616e-01
7.850319147109985352e-03
-1.777010262012481689e-01
3.830659389495849609e-02
-2.893209457397460938e-04
-2.450592964887619019e-01
-7.794901728630065918e-02
2.502530217170715332e-01
-1.309159249067306519e-01
7.354608178138732910e-02
2.341066598892211914e-01
2.529243826866149902e-01
9.931108355522155762e-02
-1.976890265941619873e-01
1.798009872436523438e-02
-1.138017475605010986e-01
-2.570679783821105957e-01
-1.716983914375305176e-01
-1.446038186550140381e-01
-1.600046157836914062e-01
2.650862932205200195e-01
1.051273941993713379e-02
1.456666588783264160e-01
-2.278964072465896606e-01
-7.472161948680877686e-02
2.452902197837829590e-01
2.278546690940856934e-01
1.498950123786926270e-01
2.525038123130798340e-01
1.545277833938598633e-01
-2.197315692901611328e-01
6.778195500373840332e-02
-9.069505333900451660e-02
2.717247605323791504e-02
4.562762379646301270e-02
-2.507881820201873779e-02
1.804128289222717285e-02
1.573289036750793457e-01
1.980919539928436279e-01
-1.946025490760803223e-01
-1.762750148773193359e-01
2.352552413940429688e-01
1.016080379486083984e-02
1.511344313621520996e-01
1.333189904689788818e-01
-3.445693850517272949e-02
-1.163958609104156494e-01
-1.679902970790863037e-01
2.606707811355590820e-01
9.955084323883056641e-02
-1.220906525850296021e-01
-2.350844442844390869e-01
-2.304914295673370361e-01
1.875405907630920410e-01
-1.870171129703521729e-01
-3.132951259613037109e-02
-2.231625616550445557e-01
-7.916824519634246826e-02
-2.108801007270812988e-01
2.418107986450195312e-01
4.827216267585754395e-02
-2.627968192100524902e-01
-1.618235111236572266e-01
2.019313573837280273e-01
-1.956249177455902100e-01
1.622686088085174561e-01
-1.937857270240783691e-01
-2.367561608552932739e-01
-1.174824237823486328e-01
-2.136785238981246948e-01
-1.711554080247879028e-01
1.635429263114929199e-02
5.513313412666320801e-02
-6.443782150745391846e-02
1.387378573417663574e-02
-1.508808135986328125e-01
-5.409471690654754639e-02
4.517856240272521973e-02
-1.242562383413314819e-01
2.250388264656066895e-01
-9.397031366825103760e-02
1.582301557064056396e-01
-1.934009790420532227e-02
-1.302479803562164307e-01
7.772690057754516602e-02
2.052815854549407959e-01
2.202668488025665283e-01
2.037451565265655518e-01
1.370546519756317139e-01
-4.706776142120361328e-02
-1.962749660015106201e-01
2.454208135604858398e-01
1.499618291854858398e-01
-1.843268275260925293e-01
-7.851321995258331299e-02
6.129032373428344727e-02
-1.692122220993041992e-02
-1.714303493499755859e-01
-1.451352238655090332e-02
-2.591950297355651855e-01
1.134513914585113525e-01
