-6.272871396504342556e-04
2.586574119050055742e-04
-2.390025620115920901e-04
9.065158337762113661e-06
5.100864218547940254e-04
-2.257896198898379225e-07
-8.569421333959326148e-05
1.185844768770039082e-03
-7.684162701480090618e-04
-3.868076601065695286e-05
1.035660854540765285e-03
9.290193556807935238e-04
8.579015266150236130e-04
3.143479407299309969e-04
3.781057312153279781e-04
7.317825802601873875e-04
-4.517502384260296822e-04
6.249469006434082985e-04
1.235156669281423092e-03
1.180176855996251106e-03
-2.053913885902147740e-05
1.466440036892890930e-03
-4.325725021772086620e-04
7.345066987909376621e-04
-5.672301631420850754e-04
-2.498994290363043547e-04
-5.661242757923901081e-04
2.531824575271457434e-04
1.387825614074245095e-04
9.381834533996880054e-04
3.319948154967278242e-04
-5.740714841522276402e-04
-9.798691608011722565e-04
-1.927419216372072697e-04
-1.028445316478610039e-03
3.695546474773436785e-04
2.131062065018340945e-04
6.529809325002133846e-04
-1.631230406928807497e-04
-5.452768527902662754e-04
1.559815132168296259e-06
-7.750152144581079483e-05
-5.921885021962225437e-04
6.670560687780380249e-04
-3.765636356547474861e-04
-6.785951554775238037e-04
5.978500666969921440e-06
8.767246617935597897e-04
-3.933529660571366549e-04
-7.148223230615258217e-04
1.152174663729965687e-03
-8.957172394730150700e-05
-5.024712663725949824e-05
-1.313366694375872612e-03
6.979805766604840755e-04
-2.427061117487028241e-04
9.233957389369606972e-04
-1.406703086104243994e-04
4.929695860482752323e-04
-4.329350485932081938e-04
-5.333884473657235503e-05
-7.843523635528981686e-04
-1.097798813134431839e-03
7.160190725699067116e-04
