2.242969572544097900e-01
7.732990384101867676e-02
1.836170852184295654e-01
-1.129255145788192749e-01
2.527631521224975586e-01
1.769235730171203613e-01
1.866329312324523926e-01
1.738707125186920166e-01
1.717562377452850342e-01
8.675152063369750977e-02
2.041625082492828369e-01
2.699340581893920898e-01
7.072684168815612793e-02
2.528612017631530762e-01
2.376258373260498047e-01
2.315472960472106934e-01
2.432860136032104492e-01
3.727018833160400391e-03
-3.448313474655151367e-02
-1.200105845928192139e-01
-1.868559718132019043e-01
1.664649844169616699e-01
-2.432062625885009766e-01
9.526327252388000488e-02
-1.734818220138549805e-01
-2.350811958312988281e-01
-2.363178431987762451e-01
1.033484935760498047e-01
2.322620749473571777e-01
-1.638531684875488281e-03
2.668327093124389648e-01
-8.438469469547271729e-02
-1.787394583225250244e-01
-2.037213146686553955e-01
7.137846946716308594e-02
8.624079823493957520e-02
9.353286027908325195e-02
-7.234826683998107910e-02
-2.408590167760848999e-01
2.123567163944244385e-01
5.190014839172363281e-02
-4.865825176239013672e-03
-1.448194235563278198e-01
2.362323403358459473e-01
1.923279762268066406e-01
-9.840220212936401367e-03
6.238394975662231445e-02
2.125057280063629150e-01
-5.110597610473632812e-02
-2.397921234369277954e-01
2.206874191761016846e-01
2.195230126380920410e-02
-1.861587166786193848e-02
-1.032456606626510620e-01
-2.592803537845611572e-02
1.179572939872741699e-01
1.090729236602783203e-02
-2.720576524734497070e-02
-9.121401607990264893e-02
-2.693830728530883789e-01
-1.202650964260101318e-01
4.579806327819824219e-02
2.022258937358856201e-01
-2.558213770389556885e-01
-1.524113118648529053e-01
1.367945075035095215e-01
-1.761232614517211914e-01
1.482122838497161865e-01
-5.947993695735931396e-02
1.567651629447937012e-01
-2.695965766906738281e-01
8.161213994026184082e-02
-6.966105103492736816e-02
1.949689090251922607e-01
-8.144457638263702393e-02
2.204127013683319092e-01
-9.206217527389526367e-02
-1.774567067623138428e-01
-1.608785837888717651e-01
1.760731935501098633e-01
-1.395220756530761719e-01
1.995570063591003418e-01
-2.500991821289062500e-01
-3.901153802871704102e-03
-1.553371846675872803e-01
4.309326410293579102e-03
-5.799457430839538574e-02
2.482550740242004395e-01
2.414637804031372070e-02
-1.891437172889709473e-02
-1.641604900360107422e-01
4.262778162956237793e-02
1.929759979248046875e-02
1.384277045726776123e-01
1.921468973159790039e-01
-1.083618402481079102e-02
2.148515284061431885e-01
1.731648147106170654e-01
1.529238522052764893e-01
-6.813108921051025391e-02
1.572248041629791260e-01
-1.934181153774261475e-01
2.419401407241821289e-01
2.461604475975036621e-01
-6.828622519969940186e-02
-1.980151832103729248e-01
-1.347881555557250977e-02
6.406942009925842285e-02
1.258735060691833496e-01
2.559821605682373047e-01
7.318231463432312012e-02
8.457803726196289062e-02
-1.265380531549453735e-01
9.213685989379882812e-04
1.321177780628204346e-01
-1.222747564315795898e-02
1.411953568458557129e-02
6.113082170486450195e-02
-1.145927160978317261e-01
-9.177227318286895752e-02
1.783865392208099365e-01
2.534675002098083496e-01
2.048202753067016602e-01
-5.976742506027221680e-02
-5.668838322162628174e-02
1.337254345417022705e-01
-2.521354258060455322e-01
2.071402072906494141e-01
1.285880804061889648e-01
2.306243777275085449e-01
-2.212557792663574219e-01
-1.020960360765457153e-01
-1.359520256519317627e-01
-1.538928747177124023e-01
8.237358927726745605e-02
-1.256274729967117310e-01
9.157893061637878418e-02
-2.358956038951873779e-01
-7.188111543655395508e-03
1.751112937927246094e-01
-1.297802031040191650e-01
-1.739740073680877686e-01
-7.397858798503875732e-02
2.550782561302185059e-01
-1.841248720884323120e-01
2.420631051063537598e-02
-7.237131893634796143e-02
1.759896874427795410e-01
-1.529598981142044067e-01
-2.458147704601287842e-02
-4.289594292640686035e-02
-2.940092980861663818e-02
-1.166450977325439453e-01
-7.975067198276519775e-02
-2.603897750377655029e-01
4.939898848533630371e-02
6.500422954559326172e-03
2.066917121410369873e-01
2.235195934772491455e-01
-1.931120157241821289e-01
7.209983468055725098e-02
1.087516844272613525e-01
6.618845462799072266e-02
-2.073069214820861816e-01
1.454809010028839111e-01
-1.215284615755081177e-01
-6.803601980209350586e-02
5.133312940597534180e-02
4.194900393486022949e-02
7.971873879432678223e-02
-1.405603885650634766e-01
-2.629231810569763184e-01
3.646773099899291992e-02
-1.641021370887756348e-01
8.103486895561218262e-02
-2.388689965009689331e-01
-2.381189167499542236e-01
2.078775763511657715e-01
-1.424454152584075928e-01
1.566376388072967529e-01
2.294488549232482910e-01
5.346372723579406738e-02
-5.542944371700286865e-02
-1.175152659416198730e-01
-1.241290569305419922e-02
-2.157085686922073364e-01
-2.290469408035278320e-01
-2.558380365371704102e-01
-6.225119531154632568e-02
2.222230434417724609e-01
2.313908934593200684e-02
1.314114332199096680e-01
2.229966521263122559e-01
2.509754896163940430e-01
2.115440666675567627e-01
4.633593559265136719e-02
1.061822474002838135e-01
1.827550828456878662e-01
-9.307508170604705811e-02
-9.136477112770080566e-02
-1.145338863134384155e-01
-1.999136507511138916e-01
1.217116713523864746e-01
2.728828191757202148e-01
1.150775849819183350e-01
1.654183268547058105e-01
-2.243329435586929321e-01
1.128651201725006104e-01
2.059966623783111572e-01
-1.329395025968551636e-01
5.262592434883117676e-02
7.046651840209960938e-02
1.213654279708862305e-01
-5.464553833007812500e-04
1.881124079227447510e-01
1.182656288146972656e-01
-1.381652206182479858e-01
2.504143714904785156e-01
2.270343899726867676e-02
-4.231163859367370605e-02
2.471540570259094238e-01
5.635550618171691895e-02
-1.913915872573852539e-01
5.151548981666564941e-02
-2.174499630928039551e-02
-1.150142550468444824e-01
-2.288277596235275269e-01
2.339758276939392090e-01
-2.264741212129592896e-01
2.517272830009460449e-01
-3.906928002834320068e-02
-1.631671190261840820e-01
-1.893305778503417969e-02
6.871342658996582031e-02
-1.807975172996520996e-01
-7.296776771545410156e-02
1.917541027069091797e-01
-9.747162461280822754e-02
2.208512425422668457e-01
-1.867875456809997559e-01
-2.521424889564514160e-01
-1.339044868946075439e-01
-1.053395867347717285e-02
-1.952507793903350830e-01
-2.341220229864120483e-01
-1.065599024295806885e-01
2.467486858367919922e-01
-2.296266257762908936e-01
4.630565643310546875e-02
-1.702713966369628906e-01
1.418415606021881104e-01
2.350249290466308594e-01
1.368214190006256104e-01
4.475086927413940430e-02
-8.678546547889709473e-02
-1.769992411136627197e-01
-1.674669086933135986e-01
2.263254523277282715e-01
1.700587868690490723e-01
2.595004439353942871e-01
-7.189004123210906982e-02
1.189688146114349365e-01
1.345741748809814453e-02
-6.286799907684326172e-03
2.103531360626220703e-01
1.318548619747161865e-01
-9.576152265071868896e-02
1.494223475456237793e-01
8.800762891769409180e-02
2.194664776325225830e-01
-1.504128575325012207e-01
1.373703181743621826e-01
-2.406084239482879639e-01
1.658942401409149170e-01
3.937244415283203125e-02
-3.978104889392852783e-02
-1.786465346813201904e-01
5.148738622665405273e-03
-2.295475602149963379e-01
8.727365732192993164e-02
-2.710283398628234863e-01
2.459791898727416992e-01
-1.320267021656036377e-01
-2.458795756101608276e-01
-2.244072556495666504e-01
-2.944827079772949219e-02
-2.416806071996688843e-01
-2.106815576553344727e-01
-2.698390185832977295e-01
-1.906155794858932495e-01
5.273172259330749512e-02
2.127890288829803467e-01
-2.556304037570953369e-01
1.153579652309417725e-01
1.009506583213806152e-01
-1.808270215988159180e-01
1.804729402065277100e-01
1.273187696933746338e-01
-2.626034319400787354e-01
-1.386105865240097046e-01
-2.432625442743301392e-01
1.201589405536651611e-01
-2.734152674674987793e-01
1.527434587478637695e-02
-2.315685153007507324e-02
-2.148896455764770508e-02
-3.541487455368041992e-02
1.467138528823852539e-03
-1.740616858005523682e-01
1.893524825572967529e-01
8.331099152565002441e-02
-6.604044139385223389e-02
-2.691472172737121582e-01
2.610153555870056152e-01
2.676773071289062500e-01
-1.504880189895629883e-02
-2.256315648555755615e-01
4.754942655563354492e-02
-2.243147939443588257e-01
1.287658810615539551e-01
-7.683785259723663330e-02
-1.712578535079956055e-02
-2.234085798263549805e-01
2.306215167045593262e-01
1.471117138862609863e-02
-1.672831028699874878e-01
2.503230571746826172e-01
9.881913661956787109e-02
1.954942643642425537e-01
-2.083094418048858643e-01
-2.126698046922683716e-01
-2.464143335819244385e-01
1.412036418914794922e-01
-2.650570869445800781e-01
-1.026033014059066772e-01
-8.847722411155700684e-02
1.908585429191589355e-02
4.890277981758117676e-02
1.828199923038482666e-01
-4.421566426753997803e-02
-7.968734204769134521e-02
-2.987469732761383057e-02
-3.823757171630859375e-02
1.830329596996307373e-01
1.266311705112457275e-01
-2.102778404951095581e-01
4.264554381370544434e-02
-1.878302842378616333e-01
-2.646471858024597168e-01
1.937392354011535645e-02
-7.168650627136230469e-03
-3.457610309123992920e-02
-2.712243497371673584e-01
4.703053832054138184e-02
1.776515245437622070e-01
-6.311549246311187744e-02
1.991904079914093018e-01
-6.936964392662048340e-02
1.650574505329132080e-01
-1.605711877346038818e-01
-8.416229486465454102e-02
2.023852765560150146e-01
4.391133785247802734e-02
2.015736699104309082e-02
-2.714289128780364990e-01
1.213135123252868652e-01
1.034494340419769287e-01
-1.019693017005920410e-01
-7.073093950748443604e-02
-4.937228560447692871e-02
-4.656107723712921143e-02
-2.563446462154388428e-01
9.224662184715270996e-02
-4.607412219047546387e-02
2.293230295181274414e-01
-2.030197381973266602e-01
8.087843656539916992e-02
-1.507459282875061035e-01
1.189745664596557617e-01
6.350901722908020020e-02
1.199876070022583008e-01
-1.200341582298278809e-01
2.726995944976806641e-02
2.234529852867126465e-01
5.000445246696472168e-02
2.407491803169250488e-01
-8.822043240070343018e-02
2.073876857757568359e-01
-2.146128714084625244e-01
-3.448776900768280029e-02
-2.404062747955322266e-01
1.758625507354736328e-01
-3.188006579875946045e-02
2.395041584968566895e-01
-1.225925534963607788e-01
2.308180332183837891e-01
-1.581580638885498047e-01
-2.132079601287841797e-01
3.191387653350830078e-02
2.546081542968750000e-01
2.488678693771362305e-01
-2.042559981346130371e-01
1.311430037021636963e-01
-1.899093687534332275e-01
-4.145668447017669678e-02
1.838269829750061035e-02
1.127060651779174805e-01
6.930011510848999023e-02
-2.574852705001831055e-01
-4.249361157417297363e-02
7.709529995918273926e-02
2.056286036968231201e-01
-2.514476180076599121e-01
-2.024020552635192871e-01
8.525845408439636230e-02
1.878125369548797607e-01
-7.903380692005157471e-02
-1.679857373237609863e-01
-2.467321753501892090e-01
1.686293184757232666e-01
1.765848398208618164e-01
1.202407479286193848e-02
-4.359994828701019287e-02
-5.893683433532714844e-02
-1.154320091009140015e-01
-2.453774660825729370e-01
1.943821609020233154e-01
2.090005576610565186e-01
3.545743227005004883e-02
2.320332527160644531e-01
-2.523767948150634766e-02
2.629223465919494629e-02
1.918652355670928955e-01
-2.247125655412673950e-01
-5.915075540542602539e-03
5.632403492927551270e-02
2.090513706207275391e-01
2.128049731254577637e-01
-5.879223346710205078e-03
-1.599678695201873779e-01
3.277125954627990723e-02
1.233111917972564697e-01
9.055584669113159180e-02
-1.169465482234954834e-01
1.816388964653015137e-01
1.747986078262329102e-01
-1.820071935653686523e-01
2.646099925041198730e-01
-2.022601664066314697e-01
-2.158865630626678467e-01
-2.338059395551681519e-01
2.334770560264587402e-01
-4.490385949611663818e-02
2.535470724105834961e-01
-1.112633347511291504e-01
4.696616530418395996e-02
2.523376345634460449e-01
-1.545336842536926270e-02
-3.583039343357086182e-02
7.775855064392089844e-02
1.847464740276336670e-01
2.541081905364990234e-01
6.412577629089355469e-02
1.824946999549865723e-01
-5.228537321090698242e-02
1.668111085891723633e-01
-6.111665070056915283e-02
2.655591964721679688e-01
-2.343499660491943359e-01
-1.041260808706283569e-01
-1.743722856044769287e-01
-1.902350485324859619e-01
5.574256181716918945e-03
-2.042036950588226318e-01
-2.606544792652130127e-01
-1.672170907258987427e-01
2.495859861373901367e-01
-7.323639094829559326e-02
8.359843492507934570e-02
-2.517786622047424316e-01
2.562726140022277832e-01
-1.478828042745590210e-01
-2.922189235687255859e-02
1.163745820522308350e-01
4.169416427612304688e-02
-1.778618991374969482e-01
1.041836142539978027e-01
9.825927019119262695e-02
-2.662442028522491455e-01
2.637214064598083496e-01
-1.345391422510147095e-01
-8.913134038448333740e-02
1.581286787986755371e-01
2.294591069221496582e-01
-1.977827996015548706e-01
-3.305724263191223145e-02
2.075208723545074463e-01
2.588812708854675293e-01
1.437981724739074707e-01
2.291964292526245117e-01
-2.419114261865615845e-01
5.412232875823974609e-02
-8.422948420047760010e-02
-4.589782655239105225e-02
1.142919659614562988e-01
-2.631516456604003906e-01
-4.855220019817352295e-02
2.368776798248291016e-01
1.099304258823394775e-01
-1.744124293327331543e-02
1.513987183570861816e-01
1.030860841274261475e-01
-2.120744585990905762e-01
-2.559560239315032959e-01
2.719157338142395020e-01
2.091126739978790283e-01
1.309025287628173828e-02
1.767451167106628418e-01
1.099226474761962891e-01
-2.087342441082000732e-01
2.265821695327758789e-01
1.852450370788574219e-01
8.017045259475708008e-02
2.581063508987426758e-01
3.953424096107482910e-02
-1.989586651325225830e-01
-1.289950609207153320e-01
6.793338060379028320e-02
-1.505839973688125610e-01
2.451359629631042480e-01
2.296440601348876953e-01
7.367777824401855469e-02
1.291816532611846924e-01
2.416312098503112793e-01
3.572651743888854980e-02
-1.071675270795822144e-01
1.455646157264709473e-01
5.651527643203735352e-02
-2.097855806350708008e-01
-1.347726285457611084e-01
3.030943870544433594e-02
8.756977319717407227e-02
3.720358014106750488e-02
1.725601851940155029e-01
6.856966018676757812e-02
1.153600215911865234e-02
-2.720644176006317139e-01
-1.452014595270156860e-01
1.030881702899932861e-01
1.552446484565734863e-01
-9.216618537902832031e-02
6.839141249656677246e-02
-1.264032721519470215e-02
9.443795680999755859e-02
-1.797744333744049072e-01
-2.686753571033477783e-01
-1.377747654914855957e-01
-1.986335813999176025e-01
-1.463453918695449829e-01
8.222091197967529297e-02
-1.166264861822128296e-01
1.858940720558166504e-01
7.654640078544616699e-02
1.543742418289184570e-02
1.128288805484771729e-01
-2.906943857669830322e-02
1.941387057304382324e-01
-8.318524062633514404e-02
-6.115752458572387695e-02
-1.949741840362548828e-01
-1.243364214897155762e-01
-1.800687611103057861e-01
2.804276347160339355e-02
-1.824069917201995850e-01
7.583665847778320312e-02
1.105149984359741211e-01
5.245897173881530762e-02
7.555711269378662109e-02
-2.478936910629272461e-01
1.519211530685424805e-01
-6.702892482280731201e-02
-1.257457137107849121e-01
-1.647134721279144287e-01
9.936690330505371094e-02
1.674984991550445557e-01
-2.098282277584075928e-01
1.480507850646972656e-02
1.556277871131896973e-01
2.709424495697021484e-01
-7.107746601104736328e-02
1.445350646972656250e-01
1.154734492301940918e-01
2.588667273521423340e-01
-7.532493770122528076e-02
-1.911692619323730469e-01
2.650871276855468750e-01
-1.340144425630569458e-01
6.437742710113525391e-02
1.960074901580810547e-02
-2.433670163154602051e-01
2.679529190063476562e-01
2.357903122901916504e-02
1.508338749408721924e-01
-9.497740864753723145e-02
-1.152589917182922363e-02
2.094020545482635498e-01
1.149180233478546143e-01
-2.285965532064437866e-01
-2.553428411483764648e-01
7.527074217796325684e-02
-7.877106964588165283e-02
-1.990402191877365112e-01
9.111770987510681152e-02
3.763648867607116699e-02
-1.181852817535400391e-02
-1.353785544633865356e-01
2.930167317390441895e-02
-1.205140054225921631e-01
-1.174269169569015503e-01
-3.709624707698822021e-02
8.249503374099731445e-02
2.891272306442260742e-02
-6.003898382186889648e-02
2.480180859565734863e-01
2.136713564395904541e-01
1.946538686752319336e-03
1.990833878517150879e-02
-1.188546419143676758e-03
2.661464810371398926e-01
-1.066995710134506226e-01
-1.054585278034210205e-01
-7.836213707923889160e-02
4.632705450057983398e-02
8.094862103462219238e-02
4.132264852523803711e-02
4.311951994895935059e-02
-1.589441299438476562e-01
-2.310260683298110962e-01
-2.199456095695495605e-01
-2.263289093971252441e-01
-1.261224001646041870e-01
-6.788310408592224121e-02
1.536955535411834717e-01
-1.279907077550888062e-01
-7.333217561244964600e-02
-1.607605814933776855e-02
-1.760065257549285889e-01
1.935911476612091064e-01
3.387838602066040039e-03
-2.317522615194320679e-01
-1.032790243625640869e-01
-1.930117309093475342e-01
-2.002480924129486084e-01
2.508354783058166504e-01
2.062436640262603760e-01
-2.374004870653152466e-01
-2.677037119865417480e-01
2.295324206352233887e-01
-6.568008661270141602e-02
-1.851260662078857422e-03
1.526942849159240723e-01
-9.571927785873413086e-02
2.395009994506835938e-01
1.104240417480468750e-01
2.661174535751342773e-01
2.133160829544067383e-02
-3.270713984966278076e-02
4.416486620903015137e-02
2.265809178352355957e-01
8.152091503143310547e-02
-2.464797496795654297e-01
-3.870207071304321289e-02
8.943489193916320801e-02
1.701829731464385986e-01
-2.623269855976104736e-01
-6.497858464717864990e-02
1.378546655178070068e-01
6.495448946952819824e-02
-1.554124057292938232e-01
-2.363086342811584473e-01
7.620099186897277832e-02
1.018229126930236816e-01
6.441920995712280273e-03
1.720452904701232910e-01
-1.225075423717498779e-01
1.030473709106445312e-01
9.742683172225952148e-02
2.172028720378875732e-01
1.932916939258575439e-01
2.351412177085876465e-01
3.580558300018310547e-02
-9.004701673984527588e-02
3.003552556037902832e-02
1.100984811782836914e-01
2.534095048904418945e-01
-1.845462024211883545e-01
7.149860262870788574e-02
-1.247687339782714844e-01
-1.756537407636642456e-01
-5.367612838745117188e-02
3.069609403610229492e-02
2.440111637115478516e-01
-5.716383457183837891e-04
1.573993563652038574e-01
-1.264339834451675415e-01
8.945518732070922852e-02
-2.601515352725982666e-01
2.166426479816436768e-01
-2.576289772987365723e-01
5.265951156616210938e-02
-1.523354351520538330e-01
1.818442940711975098e-01
2.125580310821533203e-01
3.880614042282104492e-02
7.307499647140502930e-02
-1.189053654670715332e-01
-2.344072908163070679e-01
3.652870655059814453e-02
1.906773447990417480e-01
-1.481491327285766602e-02
1.471725404262542725e-01
1.622533500194549561e-01
6.536662578582763672e-03
-2.596421539783477783e-01
4.556581377983093262e-02
1.299182474613189697e-01
-1.029337644577026367e-01
7.381188869476318359e-02
-2.567546963691711426e-01
1.533626317977905273e-01
-2.708804905414581299e-01
-9.252536296844482422e-02
-7.251784205436706543e-02
-6.479732692241668701e-02
4.755124449729919434e-02
3.903913497924804688e-02
7.376670837402343750e-02
1.457713246345520020e-01
-1.211327910423278809e-01
-1.102873831987380981e-01
-2.710938751697540283e-01
3.955096006393432617e-02
-1.324053406715393066e-01
-1.103609800338745117e-01
2.709805369377136230e-01
-5.446910858154296875e-03
7.323980331420898438e-03
-4.870511591434478760e-02
-1.170802116394042969e-01
-3.403520584106445312e-02
1.471495628356933594e-01
-1.878380775451660156e-02
2.007571756839752197e-01
-1.527673602104187012e-01
1.737895309925079346e-01
-2.074096798896789551e-01
-1.101581752300262451e-01
-1.231856197118759155e-01
1.796807348728179932e-01
-1.006503105163574219e-01
-2.344666421413421631e-01
-4.004281759262084961e-02
2.725878357887268066e-02
5.996841192245483398e-02
2.526691555976867676e-01
3.542387485504150391e-02
-8.817008137702941895e-02
-5.669653415679931641e-03
-2.086780816316604614e-01
1.896261274814605713e-01
2.376299500465393066e-01
2.980881929397583008e-02
-1.956689804792404175e-01
4.119366407394409180e-03
-1.988920569419860840e-02
-4.659268260002136230e-02
-2.225252240896224976e-01
7.738587260246276855e-02
-5.624555051326751709e-02
6.496089696884155273e-02
1.893940567970275879e-02
-1.043746620416641235e-01
-2.309557497501373291e-01
5.879038572311401367e-02
-1.824047118425369263e-01
5.798831582069396973e-02
-7.902662456035614014e-02
-2.440833449363708496e-01
-1.833329945802688599e-01
4.737210273742675781e-02
5.621036887168884277e-02
-8.441556990146636963e-02
1.503044068813323975e-01
1.802023649215698242e-01
-1.245157122611999512e-01
-1.194605529308319092e-01
8.395284414291381836e-02
-2.255656272172927856e-01
2.960923314094543457e-02
1.921338438987731934e-01
-6.789132952690124512e-02
1.105532050132751465e-01
-2.515717446804046631e-01
1.311419606208801270e-01
1.844338476657867432e-01
-2.666097879409790039e-01
-1.005217432975769043e-01
-1.449871063232421875e-02
2.206437289714813232e-01
-2.333514243364334106e-01
-1.021056324243545532e-01
-2.483063936233520508e-02
-3.334662318229675293e-02
-2.347090840339660645e-01
1.456321179866790771e-01
-7.421678304672241211e-02
-3.314107656478881836e-02
2.368505001068115234e-01
-1.197113394737243652e-01
1.794793009757995605e-01
-2.156548947095870972e-01
1.765780448913574219e-01
6.215685606002807617e-02
-9.449338912963867188e-02
2.747896313667297363e-02
-1.894252747297286987e-01
-2.404570132493972778e-01
-2.039207816123962402e-01
6.579369306564331055e-02
1.956605613231658936e-01
3.753578662872314453e-02
1.946609020233154297e-01
-1.256585121154785156e-03
1.175415515899658203e-02
2.306785583496093750e-01
-2.991002798080444336e-02
2.284386754035949707e-01
-5.972740054130554199e-02
-2.190920859575271606e-01
7.157328724861145020e-02
-1.544647216796875000e-01
-1.881694793701171875e-01
-1.479463279247283936e-01
-2.058725357055664062e-01
1.733460128307342529e-01
-1.329952627420425415e-01
-8.356988430023193359e-03
3.783765435218811035e-02
-1.683094501495361328e-01
8.972510695457458496e-02
-2.342206239700317383e-02
-1.525493264198303223e-01
-1.874524950981140137e-01
-2.842459082603454590e-02
6.326591968536376953e-02
2.572172880172729492e-01
-8.493106067180633545e-02
2.522971630096435547e-01
-1.798732876777648926e-01
-2.709878981113433838e-01
-2.361226081848144531e-02
2.516580820083618164e-01
-8.296252787113189697e-02
-2.325333058834075928e-01
-2.405249178409576416e-01
2.158215939998626709e-01
1.903664767742156982e-01
2.232511043548583984e-01
2.386057376861572266e-02
-3.358788788318634033e-02
2.381924390792846680e-01
2.634865045547485352e-01
2.550272941589355469e-01
-7.299035787582397461e-03
2.623183131217956543e-01
-1.367420107126235962e-01
-2.278345823287963867e-01
-1.728819608688354492e-01
-1.136837601661682129e-01
-1.918765902519226074e-01
-2.263960242271423340e-01
4.954925179481506348e-02
2.931970357894897461e-02
1.172573566436767578e-01
1.330996155738830566e-01
6.217330694198608398e-03
-2.122030258178710938e-01
-9.169614315032958984e-02
-2.389439642429351807e-01
2.728005647659301758e-01
-2.545179128646850586e-01
-1.876349896192550659e-01
1.069750487804412842e-01
-1.654354929924011230e-01
1.560855805873870850e-01
1.203728318214416504e-01
3.504842519760131836e-02
2.127266228199005127e-01
1.575603485107421875e-01
2.554636001586914062e-01
-1.198424547910690308e-01
2.080204486846923828e-01
-1.759002953767776489e-01
-6.452262401580810547e-03
1.699822843074798584e-01
-2.007088661193847656e-01
1.634581983089447021e-01
-9.806892275810241699e-02
-9.713594615459442139e-02
-9.533090889453887939e-02
-2.076755613088607788e-01
-3.651410341262817383e-03
-1.909534782171249390e-01
2.386103868484497070e-01
2.081263363361358643e-01
9.454777836799621582e-02
1.561198532581329346e-01
-5.069416761398315430e-02
2.362411022186279297e-01
4.551061987876892090e-02
2.042119204998016357e-01
2.256665527820587158e-01
-1.717226207256317139e-01
-2.239373326301574707e-01
-1.839817464351654053e-01
-3.367662429809570312e-03
-1.089100837707519531e-01
2.278950810432434082e-02
2.593219280242919922e-01
-1.275551319122314453e-01
2.189808785915374756e-01
1.831038892269134521e-01
-4.346321523189544678e-02
-1.997493803501129150e-01
-1.201757192611694336e-01
2.336828708648681641e-01
-8.434382081031799316e-02
2.293751239776611328e-01
-8.187413215637207031e-03
-6.631618738174438477e-02
-1.261263787746429443e-01
1.044228971004486084e-01
2.124999761581420898e-01
-1.778645813465118408e-01
2.464587688446044922e-01
-2.333462685346603394e-01
1.512235403060913086e-01
-1.838814020156860352e-01
1.102405786514282227e-02
-1.469608545303344727e-01
-2.608280181884765625e-01
-1.046055555343627930e-02
5.767247080802917480e-02
-2.377552837133407593e-01
-5.307190120220184326e-02
1.533973813056945801e-01
2.229938507080078125e-01
-2.168658971786499023e-01
2.325117588043212891e-02
-7.589142024517059326e-02
1.232008337974548340e-01
1.596041023731231689e-01
-2.063801884651184082e-02
2.439808249473571777e-01
-2.479465752840042114e-01
-2.529581189155578613e-01
2.083613276481628418e-01
-2.341124266386032104e-01
2.399308681488037109e-01
1.148405075073242188e-01
-5.037441849708557129e-02
5.748006701469421387e-02
-9.424434602260589600e-02
-5.907845497131347656e-02
-8.426736295223236084e-02
1.654015481472015381e-01
1.202172935009002686e-01
-2.626613974571228027e-01
2.243483662605285645e-01
-1.380822956562042236e-01
5.850058794021606445e-02
-5.322200059890747070e-02
-2.736625969409942627e-01
-2.536504268646240234e-01
6.990212202072143555e-02
1.563833057880401611e-01
-1.298065185546875000e-01
-1.420295536518096924e-01
-1.341253519058227539e-02
2.245236635208129883e-01
1.376083493232727051e-02
-4.814523458480834961e-02
2.728943824768066406e-01
1.882860958576202393e-01
-1.757252365350723267e-01
2.431860566139221191e-01
-1.651207804679870605e-01
-1.095965802669525146e-01
-2.928732335567474365e-02
-8.270552754402160645e-02
-1.329265832901000977e-01
2.084942758083343506e-01
-1.741157472133636475e-01
-5.723293125629425049e-02
-6.358227133750915527e-02
-1.410015076398849487e-01
8.220824599266052246e-02
-2.332920730113983154e-01
3.404101729393005371e-02
-7.985278964042663574e-02
3.287422657012939453e-02
1.189953386783599854e-01
-2.404353916645050049e-01
1.078383624553680420e-01
-1.292411386966705322e-01
-2.323824763298034668e-01
2.976655960083007812e-03
3.484627604484558105e-02
-9.807169437408447266e-03
1.376305818557739258e-01
-6.302362680435180664e-02
2.127644419670104980e-02
-4.182310402393341064e-02
1.358846426010131836e-01
