-1.040329486131668091e-01
-1.448161303997039795e-01
-1.376458704471588135e-01
-1.029789000749588013e-01
1.749103665351867676e-01
-5.026771128177642822e-02
-1.422383934259414673e-01
-1.927421241998672485e-01
7.268145680427551270e-02
7.896029949188232422e-02
5.389150977134704590e-02
-7.607898861169815063e-02
8.118879795074462891e-02
1.407701969146728516e-01
-1.064370572566986084e-02
1.310414373874664307e-01
6.120207905769348145e-02
1.596437990665435791e-01
1.263537108898162842e-01
7.589039206504821777e-02
-4.597504436969757080e-02
4.528476297855377197e-02
1.744443476200103760e-01
-4.436220228672027588e-02
-1.871953159570693970e-01
-8.661234378814697266e-02
-1.591535359621047974e-01
-5.189560353755950928e-02
1.598098874092102051e-02
-1.613708287477493286e-01
-5.519363284111022949e-02
-8.104780316352844238e-02
-1.057814806699752808e-01
-1.489217579364776611e-01
1.209048628807067871e-01
-1.685787737369537354e-01
5.357012152671813965e-03
6.807982921600341797e-03
-1.687622517347335815e-01
4.053877294063568115e-02
3.130891919136047363e-02
9.425759315490722656e-02
-3.125818073749542236e-02
-1.254153549671173096e-01
-1.247761920094490051e-01
-1.052906513214111328e-01
-8.775748312473297119e-02
-1.019286811351776123e-01
-1.655520498752593994e-02
5.629307031631469727e-02
-1.008328795433044434e-02
-5.602967739105224609e-02
-9.957647323608398438e-02
-1.525843441486358643e-01
1.569960713386535645e-01
-4.757076501846313477e-02
-1.266565918922424316e-01
1.890220940113067627e-01
-5.514994263648986816e-03
6.566002964973449707e-03
1.463022530078887939e-01
-1.684638559818267822e-01
-7.532595843076705933e-02
-1.266601383686065674e-01
-8.488241583108901978e-02
-1.291676163673400879e-01
-2.310463786125183105e-02
1.653952002525329590e-01
-1.003910005092620850e-01
-1.472404003143310547e-01
-6.066274642944335938e-02
1.877768337726593018e-01
9.070587158203125000e-02
-3.388051688671112061e-02
-5.334721505641937256e-02
1.637345254421234131e-01
1.414008736610412598e-01
2.379435300827026367e-02
-1.925405561923980713e-01
-1.302096545696258545e-01
-1.651209592819213867e-01
-8.016688376665115356e-02
1.747555136680603027e-01
4.660433530807495117e-02
7.334971427917480469e-02
1.354439556598663330e-02
6.670415401458740234e-02
8.690819144248962402e-03
8.111727237701416016e-02
1.741323769092559814e-01
1.487438380718231201e-01
-2.177061140537261963e-02
-9.161029011011123657e-02
1.306487619876861572e-01
1.797099709510803223e-01
-1.598836183547973633e-01
8.001723885536193848e-02
-1.028434336185455322e-01
-1.763683706521987915e-01
-1.793752610683441162e-02
-1.698449254035949707e-02
1.718414425849914551e-01
1.310934424400329590e-01
-1.627336144447326660e-01
6.762087345123291016e-02
1.223411560058593750e-01
4.446941614151000977e-02
-4.138828814029693604e-02
1.423159241676330566e-01
1.816292405128479004e-01
1.432000100612640381e-02
1.542447507381439209e-01
1.159655153751373291e-01
-6.710426509380340576e-02
1.099368333816528320e-01
-2.329522371292114258e-02
-1.271505057811737061e-01
-1.717460602521896362e-01
-1.363034397363662720e-01
-8.542827516794204712e-02
-9.152337908744812012e-03
1.585946977138519287e-01
6.277194619178771973e-02
1.499227583408355713e-01
5.820870399475097656e-03
-1.622439920902252197e-02
-1.795453876256942749e-01
1.316041648387908936e-01
-1.658363938331604004e-01
-1.856312155723571777e-02
-7.184754312038421631e-02
-1.508819907903671265e-01
-1.023930534720420837e-01
-3.581374883651733398e-03
8.194547891616821289e-02
-1.166004389524459839e-01
-1.323452293872833252e-01
-1.189826950430870056e-01
-1.408872008323669434e-01
-1.805388629436492920e-01
3.284105658531188965e-02
-2.169483900070190430e-02
-1.670513004064559937e-01
-4.125845432281494141e-02
-1.118064671754837036e-01
3.167600929737091064e-02
-3.612630069255828857e-02
5.447357892990112305e-03
-6.429016590118408203e-03
1.472084522247314453e-01
-1.269861906766891479e-01
-9.957426041364669800e-02
7.743656635284423828e-02
6.255653500556945801e-02
1.166141033172607422e-01
3.137290477752685547e-02
-1.012377962470054626e-01
-1.777898818254470825e-01
1.322898864746093750e-01
7.629755139350891113e-02
1.911656260490417480e-01
1.777550578117370605e-01
-3.325298428535461426e-02
1.747067272663116455e-01
-3.940890729427337646e-02
5.420011281967163086e-02
-8.115167915821075439e-02
3.623950481414794922e-02
-2.962714433670043945e-02
9.027534723281860352e-02
-1.209817901253700256e-01
-1.054331660270690918e-03
7.555648684501647949e-03
1.795072853565216064e-02
3.603935241699218750e-02
1.053270399570465088e-01
1.221620738506317139e-01
2.374500036239624023e-04
-1.019763723015785217e-01
-1.232426241040229797e-01
1.830712556838989258e-01
-1.337861418724060059e-01
8.141872286796569824e-02
4.846362769603729248e-02
-1.825477033853530884e-01
-1.180245876312255859e-01
-8.053688704967498779e-02
3.826698660850524902e-02
7.674396038055419922e-02
-8.812134712934494019e-02
-1.898810416460037231e-01
1.739863455295562744e-01
1.212851703166961670e-02
3.032352030277252197e-02
1.315343677997589111e-01
1.702460646629333496e-01
8.388441801071166992e-02
1.662016808986663818e-01
-7.672965526580810547e-02
1.854063272476196289e-01
-8.161249756813049316e-02
6.463220715522766113e-02
-5.254533886909484863e-02
5.459360778331756592e-02
9.588807821273803711e-02
-1.670680642127990723e-01
-1.133471727371215820e-02
-2.515003085136413574e-02
-6.362821161746978760e-02
-5.334758758544921875e-02
1.600256860256195068e-01
-1.265681684017181396e-01
9.663030505180358887e-02
5.198369920253753662e-02
-1.189597025513648987e-01
-8.959800004959106445e-03
-7.384091615676879883e-02
-1.225382089614868164e-02
-8.899787813425064087e-02
-4.750788211822509766e-04
-7.667697221040725708e-02
-6.955033540725708008e-02
-1.712441891431808472e-01
1.510502398014068604e-01
-1.634817570447921753e-01
-6.083412468433380127e-02
2.717077732086181641e-04
1.593750715255737305e-02
7.985931634902954102e-02
-1.151322051882743835e-01
-8.282057195901870728e-02
-2.468524873256683350e-02
-1.412373930215835571e-01
1.505692303180694580e-01
1.127448081970214844e-01
1.680195629596710205e-01
9.474053978919982910e-02
-4.572406411170959473e-02
-1.224225610494613647e-01
-8.849947899580001831e-02
-9.152844548225402832e-03
2.123790979385375977e-02
1.359048187732696533e-01
-1.467769145965576172e-01
-8.606393635272979736e-02
-7.454685121774673462e-02
-1.206835806369781494e-01
1.463204324245452881e-01
-1.346464604139328003e-01
-6.751000881195068359e-03
1.342225372791290283e-01
-1.529107242822647095e-01
1.459628641605377197e-01
-4.273813962936401367e-02
1.911054253578186035e-01
-8.924853056669235229e-02
1.482751965522766113e-01
-9.291591495275497437e-02
-1.702907979488372803e-01
1.827069520950317383e-01
1.434798538684844971e-01
-1.661166548728942871e-01
3.024613857269287109e-02
-7.697758823633193970e-02
-6.095811724662780762e-03
-8.710206300020217896e-02
-1.562944352626800537e-01
-4.021017253398895264e-02
6.291392445564270020e-02
-1.530645638704299927e-01
1.008090674877166748e-01
-1.155332773923873901e-01
-8.946617692708969116e-02
-5.464980006217956543e-02
1.695995032787322998e-01
-4.003547132015228271e-02
-1.609079837799072266e-01
-1.280096769332885742e-01
1.543473899364471436e-01
-1.671502888202667236e-01
-8.421101421117782593e-02
-2.174060046672821045e-02
6.957414746284484863e-02
1.859141886234283447e-01
-8.583595603704452515e-02
-1.646165996789932251e-01
-1.588844656944274902e-01
-1.704773604869842529e-01
-1.757707446813583374e-01
1.289428770542144775e-02
1.702426970005035400e-01
-5.610224604606628418e-02
1.739079356193542480e-01
2.806809544563293457e-02
4.480724036693572998e-02
-7.760803401470184326e-02
-1.155421882867813110e-01
-4.868248105049133301e-02
2.658498287200927734e-02
-4.207335412502288818e-02
-1.479364633560180664e-01
1.727787256240844727e-01
-1.220924034714698792e-01
8.300718665122985840e-02
-9.345638006925582886e-02
-7.742159813642501831e-02
6.130522489547729492e-02
-4.282101988792419434e-02
-1.606033593416213989e-01
3.636758029460906982e-02
-1.277351081371307373e-01
-2.137802541255950928e-02
-1.609939932823181152e-01
-1.443584263324737549e-02
-5.469717085361480713e-02
-8.484527468681335449e-03
-5.663430690765380859e-02
-1.900115609169006348e-01
-1.753054559230804443e-01
-1.885165423154830933e-01
1.701731085777282715e-01
-1.451583504676818848e-01
-8.150150626897811890e-02
-6.244109570980072021e-02
1.053720414638519287e-01
-3.222215175628662109e-02
2.008302509784698486e-02
2.997161448001861572e-02
1.250053644180297852e-01
-5.994696915149688721e-02
9.170934557914733887e-03
-4.297129809856414795e-02
7.540515065193176270e-02
1.491403877735137939e-01
-9.650370478630065918e-02
1.206242442131042480e-01
-1.934770494699478149e-01
1.014458835124969482e-01
8.352157473564147949e-02
3.028081357479095459e-02
-1.525754332542419434e-01
8.791562914848327637e-02
-1.348036676645278931e-01
1.067860722541809082e-01
-3.023689985275268555e-02
2.846977114677429199e-02
-4.135221242904663086e-03
-9.801091253757476807e-02
-1.165322959423065186e-01
-3.800475597381591797e-02
-1.455371081829071045e-02
-1.436350345611572266e-01
1.267305016517639160e-01
2.299207448959350586e-02
3.769047558307647705e-02
1.864086389541625977e-01
2.278505265712738037e-02
-1.360662579536437988e-01
8.561110496520996094e-02
-8.643260598182678223e-02
6.822794675827026367e-02
1.599687933921813965e-01
1.153698563575744629e-02
-1.772141903638839722e-01
1.337535083293914795e-01
-2.635821700096130371e-03
1.733713746070861816e-01
1.594520807266235352e-01
-4.391427338123321533e-02
2.918151021003723145e-02
-1.433297097682952881e-01
2.887310087680816650e-02
1.069593131542205811e-01
-8.310114592313766479e-02
-1.159318163990974426e-01
1.323954164981842041e-01
-1.359055936336517334e-01
-8.313923329114913940e-02
1.351879835128784180e-01
-2.487297356128692627e-02
6.571531295776367188e-02
-6.999799609184265137e-02
8.082059025764465332e-02
-9.381979703903198242e-03
6.323304772377014160e-02
1.397944986820220947e-02
4.184061288833618164e-02
-1.113372519612312317e-01
8.652237057685852051e-02
1.595287024974822998e-01
-1.577073633670806885e-01
1.870611310005187988e-01
1.360028684139251709e-01
-1.394528150558471680e-02
-1.839183270931243896e-02
7.973885536193847656e-02
1.864826977252960205e-01
4.434345662593841553e-02
-1.198510974645614624e-01
1.559384763240814209e-01
-1.468241810798645020e-01
-3.236621618270874023e-03
2.298514544963836670e-02
1.225167512893676758e-01
9.360066056251525879e-02
-1.913603097200393677e-01
-1.432235538959503174e-02
1.362799704074859619e-01
-1.242999732494354248e-02
4.753156006336212158e-02
5.872446298599243164e-02
-1.496614962816238403e-01
-1.162842735648155212e-01
1.547653675079345703e-01
-1.306897699832916260e-01
9.399208426475524902e-02
3.040796518325805664e-02
-2.732074260711669922e-02
1.681056320667266846e-01
4.012972116470336914e-03
-1.270437538623809814e-01
5.121071636676788330e-02
1.362400352954864502e-01
-1.666862368583679199e-01
1.807443797588348389e-01
8.314883708953857422e-02
1.747806370258331299e-01
1.831665039062500000e-01
-9.126521646976470947e-02
1.485801637172698975e-01
4.794339835643768311e-02
2.682326734066009521e-02
-1.076342165470123291e-02
5.404253304004669189e-02
-1.229325011372566223e-01
-1.102805659174919128e-01
1.898151934146881104e-01
-1.741515100002288818e-02
9.752184152603149414e-02
1.931358277797698975e-01
3.730267286300659180e-03
-1.209305450320243835e-01
2.909000217914581299e-02
-1.720152795314788818e-02
-1.068402379751205444e-01
-4.590635001659393311e-02
1.595517992973327637e-02
-1.369588077068328857e-02
-8.656053990125656128e-02
-1.505649089813232422e-02
1.056213676929473877e-01
-6.547956168651580811e-02
1.084323525428771973e-01
5.590875446796417236e-02
5.049836635589599609e-02
-5.573312938213348389e-02
1.296025812625885010e-01
-2.926799654960632324e-02
1.913574934005737305e-01
-1.594033539295196533e-01
-1.828415244817733765e-01
-1.772324740886688232e-02
1.177502572536468506e-01
-1.819307357072830200e-01
-1.194561198353767395e-01
1.055524349212646484e-01
-1.215018928050994873e-01
-7.720169425010681152e-02
-4.024669528007507324e-02
-1.330250352621078491e-01
3.804095089435577393e-02
-2.882762253284454346e-02
1.880924701690673828e-01
-5.615733563899993896e-02
-9.588277339935302734e-02
2.155379951000213623e-02
1.204225420951843262e-01
4.723177850246429443e-02
1.660698652267456055e-01
7.322812080383300781e-02
1.139424443244934082e-01
1.787859499454498291e-01
8.442059159278869629e-02
9.421619772911071777e-02
-1.823370754718780518e-01
-1.419729292392730713e-01
2.408398687839508057e-02
1.312291324138641357e-01
-1.703304052352905273e-01
1.824197173118591309e-01
1.005549132823944092e-01
1.755446195602416992e-01
-1.868325173854827881e-01
1.723404228687286377e-02
8.160710334777832031e-02
1.753981709480285645e-01
1.413758099079132080e-01
-5.387553572654724121e-02
1.662468910217285156e-02
1.853625476360321045e-02
-4.109299182891845703e-02
1.561842858791351318e-02
9.090164303779602051e-02
-1.485671103000640869e-02
-1.773048192262649536e-01
-1.866065114736557007e-01
-1.330135762691497803e-01
-1.407103687524795532e-01
8.811664581298828125e-02
-1.842982620000839233e-01
-2.275854349136352539e-02
-4.852831363677978516e-02
-9.107730537652969360e-02
-1.073957979679107666e-01
-7.832606136798858643e-02
4.287259280681610107e-02
-6.959779560565948486e-02
5.186600983142852783e-02
1.660151183605194092e-01
-9.753943234682083130e-02
-1.323071420192718506e-01
-4.365673661231994629e-02
-1.108846962451934814e-01
-1.589452177286148071e-01
6.742659211158752441e-02
9.036028385162353516e-02
-3.469227254390716553e-02
-1.193364486098289490e-01
8.809068799018859863e-02
-1.869972050189971924e-01
-1.549828052520751953e-01
8.313506841659545898e-02
1.554240584373474121e-01
1.005930900573730469e-01
9.490486979484558105e-02
-8.664202690124511719e-02
1.411108970642089844e-01
-1.262491941452026367e-01
8.789238333702087402e-02
-1.097586676478385925e-01
-5.209723114967346191e-02
-1.416003853082656860e-01
-9.362951666116714478e-02
-1.022009849548339844e-01
-1.571209281682968140e-01
8.302611112594604492e-02
1.822850406169891357e-01
-8.520218729972839355e-02
1.469432115554809570e-01
4.499077796936035156e-03
-2.383241057395935059e-02
-1.751922070980072021e-02
-4.432351887226104736e-02
-6.510448455810546875e-02
1.755513846874237061e-01
-4.952064156532287598e-02
1.695012450218200684e-01
-7.419706881046295166e-02
1.547687351703643799e-01
-6.035377085208892822e-02
-3.896899521350860596e-02
-5.918443202972412109e-04
-2.214665710926055908e-02
-2.233706414699554443e-02
1.774509549140930176e-01
-1.729721873998641968e-01
-1.710498631000518799e-01
1.804912686347961426e-01
-2.705591917037963867e-02
1.740480363368988037e-01
1.109060347080230713e-01
-1.401049047708511353e-01
7.126700878143310547e-02
9.082785248756408691e-02
-1.622025370597839355e-01
-7.561627775430679321e-02
1.822566390037536621e-01
5.814123153686523438e-02
1.088007390499114990e-01
1.240086257457733154e-01
1.369267702102661133e-01
-7.411978393793106079e-02
-1.196086406707763672e-02
-2.142664790153503418e-02
6.346541643142700195e-02
-5.088850855827331543e-03
1.398518383502960205e-01
-7.532887160778045654e-02
1.472647786140441895e-01
1.318337619304656982e-01
1.319116652011871338e-01
-8.792822062969207764e-02
3.086277842521667480e-02
2.356018126010894775e-02
1.051209867000579834e-01
1.637343466281890869e-01
8.807873725891113281e-02
1.507201194763183594e-01
3.676500916481018066e-02
1.010223627090454102e-01
-1.854908764362335205e-01
-1.385182142257690430e-03
8.922013640403747559e-02
7.364049553871154785e-03
-2.768206596374511719e-02
1.687261164188385010e-01
7.730206847190856934e-02
-8.647572249174118042e-02
2.843905985355377197e-02
-1.102007851004600525e-01
-2.941325306892395020e-03
-1.546463668346405029e-01
2.521827816963195801e-02
-8.703414350748062134e-02
7.477501034736633301e-02
1.855473518371582031e-01
-2.931508421897888184e-02
-3.655143082141876221e-02
-1.068443953990936279e-01
1.724250614643096924e-01
1.494632065296173096e-01
1.389920711517333984e-02
-6.671026349067687988e-02
5.069477856159210205e-02
-6.315529346466064453e-03
-1.372131705284118652e-01
-9.719223529100418091e-02
1.861724257469177246e-01
6.546103954315185547e-02
-1.083236262202262878e-01
-1.118108555674552917e-01
-4.360017180442810059e-02
4.436391592025756836e-02
4.159253835678100586e-02
7.930308580398559570e-03
9.298732876777648926e-02
1.799590587615966797e-01
6.872799992561340332e-02
-4.266741871833801270e-02
1.281188130378723145e-01
5.322977900505065918e-03
-1.530141383409500122e-01
9.377664327621459961e-02
1.009956300258636475e-01
1.099801063537597656e-02
7.162606716156005859e-02
1.786600351333618164e-01
-1.147143691778182983e-01
6.716600060462951660e-02
3.783775866031646729e-02
1.238434612751007080e-01
1.143085956573486328e-01
-6.974900513887405396e-02
1.271466612815856934e-01
1.065708696842193604e-02
1.495469808578491211e-01
-3.632694482803344727e-02
-9.988530725240707397e-02
-9.130875766277313232e-02
1.570896208286285400e-01
-7.154674828052520752e-02
5.964830517768859863e-02
-3.185911476612091064e-02
-5.755284428596496582e-02
-8.470550179481506348e-03
-1.210053861141204834e-01
3.121002018451690674e-02
-8.982754498720169067e-02
-1.262654811143875122e-01
2.810886502265930176e-02
1.600182056427001953e-02
6.813883781433105469e-02
1.613449454307556152e-01
-6.433548033237457275e-02
-7.697781920433044434e-02
1.029627919197082520e-01
1.120206117630004883e-01
-1.845649927854537964e-01
2.509361505508422852e-02
7.894957065582275391e-02
-4.952165484428405762e-02
1.322399079799652100e-01
-4.209569096565246582e-02
9.392556548118591309e-02
1.601616442203521729e-01
-1.458843052387237549e-02
-1.724193990230560303e-01
1.914587914943695068e-01
-2.144178748130798340e-02
-5.199149250984191895e-02
1.238865554332733154e-01
1.361444890499114990e-01
8.321225643157958984e-03
3.899957239627838135e-02
1.279724240303039551e-01
1.071684658527374268e-01
-1.156038716435432434e-01
-1.043970882892608643e-01
1.553217470645904541e-01
2.723884582519531250e-02
7.709467411041259766e-02
1.806973218917846680e-01
1.011044979095458984e-01
-1.543357074260711670e-01
-1.426126062870025635e-01
1.904654502868652344e-01
1.832468509674072266e-01
-1.098381206393241882e-01
-8.693146705627441406e-02
-1.116061881184577942e-01
-1.349882036447525024e-01
9.022465348243713379e-02
-1.387981176376342773e-01
1.491992771625518799e-01
1.475432813167572021e-01
-1.312035918235778809e-01
-1.668933629989624023e-01
7.333287596702575684e-02
-1.900362223386764526e-01
-1.171888262033462524e-01
1.647980809211730957e-01
8.507618308067321777e-02
1.899336874485015869e-01
-1.805612444877624512e-02
1.404012143611907959e-01
-3.877149522304534912e-02
1.961924135684967041e-02
1.567922830581665039e-01
-1.851670444011688232e-01
-1.478736251592636108e-01
-2.937561273574829102e-02
-1.032024919986724854e-01
1.425542831420898438e-01
1.252574622631072998e-01
-1.936105340719223022e-01
-1.804524809122085571e-01
2.170610427856445312e-02
3.212441504001617432e-02
-1.843317896127700806e-01
-1.286455690860748291e-01
-5.858543515205383301e-02
1.109965145587921143e-01
-3.375457227230072021e-02
3.613424301147460938e-02
3.777310252189636230e-03
-7.558183372020721436e-02
1.537641584873199463e-01
1.818929314613342285e-01
1.903148889541625977e-01
-1.247478425502777100e-01
-1.329476535320281982e-01
-1.788938045501708984e-01
1.259826123714447021e-01
9.528192877769470215e-02
1.201001405715942383e-01
-3.076046705245971680e-02
1.586762964725494385e-01
9.796506166458129883e-02
-1.934986114501953125e-01
-1.593855023384094238e-01
7.078960537910461426e-02
8.634889125823974609e-02
-1.684918850660324097e-01
-9.624077379703521729e-02
-4.634112119674682617e-02
-1.257432699203491211e-01
-1.871775388717651367e-01
1.413477063179016113e-01
-1.918132454156875610e-01
-1.488810926675796509e-01
5.007292330265045166e-02
1.094419062137603760e-01
9.921833872795104980e-02
9.739118814468383789e-02
-1.028604283928871155e-01
-1.595319807529449463e-02
-1.870872378349304199e-01
-1.894497722387313843e-01
1.819791793823242188e-01
1.297453641891479492e-01
-1.548745483160018921e-01
-8.945790678262710571e-02
2.212315797805786133e-02
-6.184279918670654297e-03
5.575911700725555420e-02
8.575034141540527344e-02
9.610107541084289551e-02
-1.666215658187866211e-01
-1.581856012344360352e-01
1.639674603939056396e-02
5.764824151992797852e-02
1.689359545707702637e-01
-3.504410386085510254e-03
1.902902126312255859e-01
1.490925252437591553e-02
-1.577793955802917480e-01
-1.419975310564041138e-01
-9.718059748411178589e-02
2.382801473140716553e-02
-2.493493258953094482e-02
1.899519264698028564e-01
1.779569685459136963e-01
6.627687811851501465e-02
9.242293238639831543e-02
4.073545336723327637e-02
4.265259206295013428e-02
1.313629150390625000e-01
-1.527236849069595337e-01
-7.836562395095825195e-02
-1.141712740063667297e-01
-1.019909158349037170e-01
-1.688918471336364746e-01
5.412581562995910645e-02
5.585667490959167480e-02
1.136437952518463135e-01
1.782202720642089844e-01
1.068535447120666504e-01
8.829864859580993652e-02
-1.613354235887527466e-01
-7.464034110307693481e-02
3.014780580997467041e-02
4.323202371597290039e-02
-5.015510320663452148e-02
1.291672885417938232e-01
-8.083542436361312866e-02
-2.942177653312683105e-02
-2.308593690395355225e-02
-1.702224165201187134e-01
-1.687972247600555420e-02
-1.641345918178558350e-01
5.578875541687011719e-02
-1.853398978710174561e-01
-1.411553472280502319e-01
-1.519512236118316650e-01
9.380939602851867676e-02
-7.184495776891708374e-02
-1.559973359107971191e-01
1.373101174831390381e-01
2.155952155590057373e-02
6.163886189460754395e-02
-1.442834734916687012e-01
-4.605856537818908691e-02
3.784735500812530518e-02
-3.689022362232208252e-02
1.154119372367858887e-01
9.803181886672973633e-02
-1.055525243282318115e-01
8.308517932891845703e-02
7.373693585395812988e-02
2.513018250465393066e-02
-1.650449633598327637e-01
-9.751343727111816406e-02
1.417978107929229736e-02
1.513036191463470459e-01
-6.365124881267547607e-02
-1.289644539356231689e-01
-9.824799746274948120e-02
1.237649023532867432e-01
6.037130951881408691e-02
-1.114947795867919922e-01
1.344251334667205811e-01
1.669569909572601318e-01
-1.487399488687515259e-01
-1.690353453159332275e-01
-3.582854568958282471e-02
1.776848137378692627e-01
4.516440629959106445e-02
7.786908745765686035e-02
5.617216229438781738e-03
6.407883763313293457e-02
-5.016161501407623291e-02
-6.725020706653594971e-02
-1.091749444603919983e-01
-1.513766497373580933e-01
1.745640039443969727e-01
-1.485878676176071167e-01
6.050479412078857422e-02
-5.521754920482635498e-02
-8.717671781778335571e-02
7.244908809661865234e-02
7.381105422973632812e-02
-6.886333227157592773e-02
1.355541646480560303e-01
-7.344413548707962036e-02
-6.251548230648040771e-02
1.481787562370300293e-01
-1.201048493385314941e-01
5.959087610244750977e-02
3.643345832824707031e-02
-1.516871452331542969e-01
-5.398149788379669189e-02
1.201949715614318848e-01
4.488548636436462402e-02
-1.019169539213180542e-01
1.402471959590911865e-01
1.306422650814056396e-01
-4.126898944377899170e-02
-6.540814042091369629e-02
-1.637597829103469849e-01
-4.775017499923706055e-02
4.443390667438507080e-02
-1.512602120637893677e-01
-7.856979221105575562e-02
-2.838730812072753906e-02
1.342673003673553467e-01
-6.540629267692565918e-02
3.502446413040161133e-02
7.158398628234863281e-03
-6.280681490898132324e-02
1.002259552478790283e-01
1.447443068027496338e-01
8.365717530250549316e-02
-1.767057776451110840e-01
-1.150734722614288330e-02
-1.492278277873992920e-01
1.415549516677856445e-01
4.410693049430847168e-02
-1.366347521543502808e-01
-1.004139482975006104e-01
1.250877082347869873e-01
9.751921892166137695e-02
-1.065564379096031189e-01
1.080458164215087891e-01
-1.644268482923507690e-01
-1.849033683538436890e-01
-1.139484643936157227e-01
6.107050180435180664e-02
1.531201899051666260e-01
-9.893097728490829468e-02
-1.253744065761566162e-01
1.516783237457275391e-01
1.080147624015808105e-01
-1.796511113643646240e-01
-1.340630650520324707e-02
-1.171151399612426758e-01
-1.386730074882507324e-01
-1.206525564193725586e-01
6.039530038833618164e-03
1.836744248867034912e-01
-4.886165261268615723e-03
-1.593062281608581543e-02
1.680513918399810791e-01
4.206798970699310303e-02
1.783886551856994629e-01
1.658005118370056152e-01
-1.093485429883003235e-01
-5.451045930385589600e-02
8.523994684219360352e-02
4.762671887874603271e-02
5.145260691642761230e-02
-1.504176855087280273e-02
-1.709878146648406982e-01
-7.539013773202896118e-02
-1.908573508262634277e-01
-6.739093363285064697e-02
1.803143024444580078e-01
-6.574323773384094238e-02
-7.444328814744949341e-02
1.236338317394256592e-01
1.505378782749176025e-01
-1.404786854982376099e-01
-1.721538603305816650e-02
1.511596143245697021e-02
1.616382598876953125e-02
1.614471971988677979e-01
1.680190265178680420e-01
1.414492130279541016e-01
-1.140696108341217041e-01
7.720574736595153809e-02
1.521163880825042725e-01
-1.265890896320343018e-01
-1.728074550628662109e-01
1.492688357830047607e-01
-1.531060636043548584e-01
6.276711821556091309e-03
1.243642270565032959e-01
8.579745888710021973e-02
1.196772754192352295e-01
2.042135596275329590e-02
-7.548709213733673096e-02
1.145589649677276611e-01
1.561941504478454590e-01
-2.985623478889465332e-02
1.769799888134002686e-01
-1.147438585758209229e-02
6.544330716133117676e-02
-1.902341991662979126e-01
7.150590419769287109e-02
9.319654107093811035e-02
-1.898126602172851562e-01
-9.939868003129959106e-02
-1.733267158269882202e-01
1.049429178237915039e-01
-1.294983625411987305e-01
5.273015797138214111e-02
-1.381599605083465576e-01
8.457309007644653320e-02
1.834565103054046631e-01
-2.858962118625640869e-02
-6.393694877624511719e-02
-2.563537657260894775e-02
-8.856517821550369263e-02
1.255174577236175537e-01
-7.630854099988937378e-02
-3.155149519443511963e-02
-8.754473924636840820e-02
1.082540452480316162e-01
-1.857252717018127441e-01
6.366854906082153320e-02
5.120776593685150146e-02
-9.916104376316070557e-02
1.085202097892761230e-01
1.334533989429473877e-01
-6.626823544502258301e-02
-5.628328025341033936e-02
1.835687458515167236e-01
-1.600887030363082886e-01
-5.627967417240142822e-02
-9.210351854562759399e-02
-1.204431056976318359e-03
1.031943559646606445e-01
-7.475692033767700195e-02
1.225327551364898682e-01
-5.308575928211212158e-02
-1.527278423309326172e-01
1.812799274921417236e-01
-1.270117759704589844e-01
-1.506121158599853516e-01
7.982674241065979004e-02
-7.849522680044174194e-02
1.102491617202758789e-01
1.772603690624237061e-01
2.577871084213256836e-03
-1.040205359458923340e-03
1.265194714069366455e-01
-1.272588223218917847e-01
1.353668868541717529e-01
1.456270217895507812e-01
5.088296532630920410e-02
1.319923698902130127e-01
3.265509009361267090e-02
-7.298327237367630005e-02
1.927843391895294189e-01
-8.119840919971466064e-02
-8.548460155725479126e-02
-2.494034171104431152e-02
-3.542783856391906738e-02
1.401113271713256836e-01
7.434919476509094238e-02
-1.560479402542114258e-03
1.488412916660308838e-01
1.577705740928649902e-01
-1.836101561784744263e-01
-1.532307714223861694e-01
-1.746710389852523804e-01
-1.657293736934661865e-01
-1.282083988189697266e-01
-1.682649254798889160e-01
1.347403228282928467e-02
1.225453615188598633e-01
1.413808763027191162e-01
2.305108308792114258e-02
3.368698060512542725e-02
9.256336092948913574e-02
-1.888277381658554077e-01
1.164868175983428955e-01
-4.974018037319183350e-02
-1.410342901945114136e-01
7.360744476318359375e-02
2.931337058544158936e-02
-3.025999665260314941e-02
5.702251195907592773e-02
-6.291973590850830078e-02
-1.202464997768402100e-01
-8.361579477787017822e-02
-4.850859940052032471e-02
-1.889067739248275757e-01
1.633237600326538086e-01
-1.520807743072509766e-01
-4.359781742095947266e-04
1.270122826099395752e-01
5.330041050910949707e-02
-8.183480799198150635e-02
-1.607231795787811279e-02
-1.544112265110015869e-01
-1.075847223401069641e-01
-9.084886312484741211e-02
-1.928627192974090576e-01
-1.582926660776138306e-01
-6.313474476337432861e-02
5.051711201667785645e-02
2.471026778221130371e-02
-2.477402985095977783e-02
1.431459188461303711e-01
-4.909951984882354736e-02
1.769840419292449951e-01
1.242017149925231934e-01
-1.176381036639213562e-01
-1.438633799552917480e-01
-9.405344724655151367e-03
-3.087243437767028809e-02
-2.335515618324279785e-02
-1.391850113868713379e-01
-1.712327450513839722e-01
-1.171492040157318115e-02
-1.650866568088531494e-01
1.350377500057220459e-01
1.043094992637634277e-01
-5.506487190723419189e-02
1.507980525493621826e-01
1.902189850807189941e-02
7.139992713928222656e-02
-1.543224453926086426e-01
1.216975748538970947e-01
-1.848696619272232056e-01
1.841317713260650635e-01
1.480248272418975830e-01
-9.298568218946456909e-02
-1.271831989288330078e-01
9.502065181732177734e-02
-9.031573683023452759e-02
-1.207123920321464539e-01
7.377928495407104492e-02
-1.424367427825927734e-01
1.515363156795501709e-02
1.694436371326446533e-02
5.119313299655914307e-02
7.323795557022094727e-02
-1.801342368125915527e-01
1.631931960582733154e-01
8.761417865753173828e-02
3.304710984230041504e-02
-1.345060169696807861e-01
1.325037181377410889e-01
-1.781101673841476440e-01
-1.907056272029876709e-01
1.743470728397369385e-01
8.803385496139526367e-02
-1.132309436798095703e-03
-2.858865261077880859e-02
-4.043433070182800293e-02
1.730389297008514404e-01
9.387639164924621582e-02
2.435283362865447998e-02
1.423777937889099121e-01
7.239729166030883789e-02
1.042997539043426514e-01
-8.779276162385940552e-02
-1.618531644344329834e-01
-1.889069974422454834e-01
1.125974059104919434e-01
1.839041113853454590e-01
1.007983982563018799e-01
-1.861436665058135986e-01
-1.505852490663528442e-01
4.632635414600372314e-02
-8.801653981208801270e-02
1.512198448181152344e-01
-1.718073189258575439e-01
8.957111835479736328e-02
3.776386380195617676e-03
1.265921890735626221e-01
-1.365877538919448853e-01
1.265416741371154785e-01
1.595064997673034668e-03
-1.928640604019165039e-01
-1.779550760984420776e-01
-1.154613420367240906e-01
-1.171379461884498596e-01
1.952607929706573486e-02
3.673665225505828857e-02
9.332811832427978516e-02
1.586358249187469482e-02
1.508324444293975830e-01
-2.722194790840148926e-02
1.642659008502960205e-01
1.387960314750671387e-01
-5.633443593978881836e-02
-1.827565729618072510e-01
-9.016587585210800171e-02
2.501752972602844238e-02
-1.730705648660659790e-01
-8.970230817794799805e-03
7.674965262413024902e-02
1.904619932174682617e-01
-1.911168247461318970e-01
-1.521909832954406738e-01
1.645918190479278564e-01
-1.689131855964660645e-01
-1.667889207601547241e-01
-2.569678425788879395e-02
8.391189575195312500e-02
-2.785626053810119629e-02
-2.605320513248443604e-02
-1.014230251312255859e-01
-9.755133837461471558e-02
1.625055372714996338e-01
1.322326660156250000e-01
8.827152848243713379e-02
7.205218076705932617e-02
7.792341709136962891e-02
6.988227367401123047e-03
-9.059377014636993408e-02
1.250885426998138428e-01
-1.906368881464004517e-01
2.515009045600891113e-02
-7.950679957866668701e-02
8.719980716705322266e-02
1.687516272068023682e-01
7.881581783294677734e-02
6.202700734138488770e-02
1.235579550266265869e-01
1.768334805965423584e-01
1.912325322628021240e-01
5.602519214153289795e-02
-1.324371993541717529e-01
-1.584068834781646729e-01
-1.808361113071441650e-01
-6.558145582675933838e-02
1.805261075496673584e-01
1.390679776668548584e-01
-1.262181997299194336e-01
-1.438928395509719849e-01
1.046344935894012451e-01
1.550617814064025879e-02
-2.946913242340087891e-03
4.781037569046020508e-03
2.404722571372985840e-02
1.243810355663299561e-01
-1.175302490592002869e-01
7.532975077629089355e-02
-1.042942702770233154e-01
1.477580964565277100e-01
1.720137894153594971e-01
1.681249439716339111e-01
7.630938291549682617e-02
-5.861775577068328857e-02
1.681249737739562988e-01
-1.655117273330688477e-01
-1.589500308036804199e-01
6.421157717704772949e-02
-7.204532623291015625e-03
-1.772743463516235352e-01
-1.643358916044235229e-01
1.675563156604766846e-01
1.502180993556976318e-01
1.208449602127075195e-01
1.706655919551849365e-01
-6.730468571186065674e-02
1.454424858093261719e-02
-6.628037989139556885e-02
1.636390984058380127e-01
-1.706214249134063721e-02
1.308260858058929443e-02
1.189059317111968994e-01
-1.013861373066902161e-01
-1.729059219360351562e-02
-5.537299811840057373e-02
-5.195875465869903564e-02
1.120926439762115479e-01
-1.598520427942276001e-01
1.519518792629241943e-01
-1.239757537841796875e-01
-7.212641090154647827e-02
5.035783350467681885e-02
8.226960897445678711e-03
-8.232051134109497070e-02
4.420876502990722656e-03
-1.250924170017242432e-01
-1.357232034206390381e-02
-6.151729822158813477e-02
-1.300590038299560547e-01
1.458958089351654053e-01
-8.093145489692687988e-02
1.648748815059661865e-01
6.207272410392761230e-03
1.770162582397460938e-01
-1.114841625094413757e-01
-1.084296777844429016e-01
-3.947192430496215820e-02
1.030521690845489502e-01
-9.237559884786605835e-02
1.462742090225219727e-01
1.537704467773437500e-01
3.144082427024841309e-02
8.990311622619628906e-02
-1.456308364868164062e-01
1.094208955764770508e-01
8.388450741767883301e-02
1.689383387565612793e-01
-5.735939741134643555e-02
-1.853911578655242920e-02
-6.989844888448715210e-02
-3.753419220447540283e-02
-1.762377619743347168e-01
-1.861181855201721191e-01
-8.564347028732299805e-02
-7.965943962335586548e-02
4.272308945655822754e-02
6.354385614395141602e-02
-5.104081332683563232e-02
-1.231917887926101685e-01
-1.480592787265777588e-01
1.507705748081207275e-01
1.574301719665527344e-01
3.583501279354095459e-02
-2.486577630043029785e-02
4.205487668514251709e-02
1.142705976963043213e-02
3.705735504627227783e-02
1.361886262893676758e-01
-1.063691750168800354e-01
1.195777952671051025e-02
-1.445859819650650024e-01
1.240563690662384033e-01
-8.853839337825775146e-02
1.746406555175781250e-01
1.631864607334136963e-01
4.149249196052551270e-02
-6.869545578956604004e-02
5.191457271575927734e-02
-8.706074208021163940e-02
6.915202736854553223e-02
-1.797558218240737915e-01
-2.990998327732086182e-02
3.426331281661987305e-02
-8.753716200590133667e-02
4.078231751918792725e-02
1.662148833274841309e-01
-3.536154329776763916e-02
-6.297799944877624512e-02
1.760233938694000244e-01
-1.632775962352752686e-01
-7.749181985855102539e-02
-1.073624193668365479e-01
7.935929298400878906e-02
-1.679384559392929077e-01
-7.889759540557861328e-02
1.384167671203613281e-01
2.591705322265625000e-02
1.789495646953582764e-01
1.274624168872833252e-01
1.491017937660217285e-01
1.126888692378997803e-01
1.261088848114013672e-01
-1.451847106218338013e-01
1.118947565555572510e-01
-9.893965721130371094e-02
-9.745276719331741333e-02
-1.860358566045761108e-01
4.355664551258087158e-02
7.142528891563415527e-02
1.629957556724548340e-01
-9.381022304296493530e-02
1.309714913368225098e-01
-1.720577031373977661e-01
-8.945287764072418213e-02
-4.062986373901367188e-02
1.236467063426971436e-01
-1.018417850136756897e-01
1.170449256896972656e-01
-1.524245142936706543e-01
-9.473841637372970581e-02
-1.232886090874671936e-01
-4.136450588703155518e-02
-8.082927763462066650e-02
-1.628372669219970703e-01
1.577076017856597900e-01
1.099705696105957031e-03
6.752029061317443848e-02
1.306220889091491699e-01
6.450539827346801758e-02
-3.825032711029052734e-02
-9.998526424169540405e-02
-1.250377297401428223e-02
-7.652992755174636841e-02
-1.351319849491119385e-01
-1.891301423311233521e-01
1.323856413364410400e-01
-6.535190343856811523e-02
3.808955848217010498e-02
1.197337806224822998e-01
-1.717806309461593628e-01
3.144387900829315186e-02
1.533066332340240479e-01
1.732042729854583740e-01
2.935659885406494141e-02
-8.386373519897460938e-03
-4.751041531562805176e-02
1.347879767417907715e-01
-1.282140314579010010e-01
-1.521120369434356689e-01
1.394192874431610107e-01
7.554832100868225098e-02
8.052480220794677734e-02
1.454742848873138428e-01
-9.966022521257400513e-02
-1.912501603364944458e-01
6.439664959907531738e-02
-1.845188587903976440e-01
2.646766602993011475e-02
-1.363808214664459229e-01
-1.365246772766113281e-01
1.119828522205352783e-01
2.042716741561889648e-02
1.858287453651428223e-01
5.611267685890197754e-02
-7.824540138244628906e-03
1.508891284465789795e-01
4.643397033214569092e-02
-1.399592459201812744e-01
-3.707498311996459961e-02
7.529401779174804688e-02
1.288394927978515625e-01
-8.690320700407028198e-02
1.037982106208801270e-01
1.887351572513580322e-01
-8.097723126411437988e-03
1.653228998184204102e-01
1.815010905265808105e-01
1.038286983966827393e-01
-1.043924242258071899e-01
-1.294201016426086426e-01
1.428233981132507324e-01
-1.554426103830337524e-01
1.032979786396026611e-02
1.800025701522827148e-01
1.188881099224090576e-01
-3.781706094741821289e-03
-6.315484642982482910e-03
-1.406150311231613159e-01
4.707604646682739258e-02
4.818767309188842773e-02
-1.535725146532058716e-01
-1.049673259258270264e-01
-1.155426502227783203e-01
1.090805828571319580e-01
3.790885210037231445e-02
4.974003136157989502e-02
-7.265080511569976807e-02
-1.927657425403594971e-02
1.588311791419982910e-01
1.868863403797149658e-01
-1.475560218095779419e-01
1.039253771305084229e-01
1.573953926563262939e-01
2.479752898216247559e-02
-1.710964441299438477e-01
1.785283684730529785e-01
1.397393345832824707e-01
4.103831946849822998e-02
-1.281590759754180908e-01
-8.639691770076751709e-02
1.639043390750885010e-01
1.912461519241333008e-01
1.744776368141174316e-01
-1.199135705828666687e-01
-7.214007526636123657e-02
6.961819529533386230e-02
1.762159764766693115e-01
1.201712489128112793e-01
-1.338909864425659180e-01
-1.609330475330352783e-01
1.174189448356628418e-01
-3.064601123332977295e-02
-3.639689087867736816e-02
2.630606293678283691e-03
-1.556536108255386353e-01
-1.559731066226959229e-01
1.714332103729248047e-01
-1.325578391551971436e-01
1.825884282588958740e-01
-9.561526775360107422e-02
8.860754966735839844e-02
5.501204729080200195e-02
-1.708226203918457031e-01
1.114698350429534912e-01
5.252632498741149902e-02
1.135663092136383057e-01
-7.708229869604110718e-02
-1.787423640489578247e-01
1.663782000541687012e-01
-1.527079939842224121e-01
-2.080543339252471924e-02
6.633883714675903320e-02
-1.898579597473144531e-01
-5.069482326507568359e-02
-1.089116930961608887e-02
-3.326645493507385254e-02
1.477421224117279053e-01
-1.163180246949195862e-01
-5.993694067001342773e-04
-1.299434006214141846e-01
1.532630920410156250e-01
-2.899721264839172363e-03
5.969482660293579102e-02
1.729933321475982666e-01
7.403057813644409180e-02
-1.207685470581054688e-02
1.658407449722290039e-01
-8.979028463363647461e-02
1.056779325008392334e-01
1.093247532844543457e-01
3.234043717384338379e-02
8.371058106422424316e-02
7.723286747932434082e-03
-3.041544556617736816e-02
-7.833215594291687012e-02
-1.171524822711944580e-02
3.972041606903076172e-02
3.411261737346649170e-02
3.426223993301391602e-02
1.152231097221374512e-01
-1.011362671852111816e-02
-1.200616359710693359e-02
-4.162065684795379639e-02
1.743989586830139160e-01
-1.195993870496749878e-01
-1.684716641902923584e-01
-1.138961538672447205e-01
-1.685645133256912231e-01
8.018863201141357422e-02
1.397885382175445557e-02
9.654405713081359863e-02
3.871880471706390381e-02
-1.529951244592666626e-01
1.967008411884307861e-02
1.256453990936279297e-02
3.340871632099151611e-02
8.799335360527038574e-02
1.604753732681274414e-01
1.657097041606903076e-01
-1.605714112520217896e-01
-1.077860221266746521e-01
-2.044826745986938477e-02
-2.826657891273498535e-02
7.424375414848327637e-02
7.533401250839233398e-03
-1.652944087982177734e-02
9.212344884872436523e-02
-1.376243531703948975e-01
4.071965813636779785e-02
-8.850677311420440674e-02
-1.596731841564178467e-01
-4.668688774108886719e-02
3.446370363235473633e-03
-7.567292451858520508e-02
1.498758494853973389e-01
-3.750339150428771973e-02
-7.931783050298690796e-02
1.395520567893981934e-01
-1.574001163244247437e-01
-5.852910876274108887e-02
4.251754283905029297e-02
1.482780575752258301e-01
1.308181583881378174e-01
-1.514112651348114014e-01
-4.990352690219879150e-02
-9.410142898559570312e-03
1.505283713340759277e-01
-1.110452711582183838e-01
-7.097005099058151245e-02
-9.603365510702133179e-02
-8.965621143579483032e-02
1.065322458744049072e-01
-1.460357606410980225e-01
1.013996601104736328e-01
1.613425314426422119e-01
-7.764294743537902832e-03
1.501353681087493896e-01
-1.343555450439453125e-01
1.863218843936920166e-01
5.888968706130981445e-02
-1.281145215034484863e-02
5.915796756744384766e-02
-6.306064128875732422e-02
1.946070790290832520e-02
5.962848663330078125e-04
-1.851206421852111816e-01
-2.553702890872955322e-02
-8.436384052038192749e-02
1.555470824241638184e-01
-6.528721749782562256e-02
6.031259894371032715e-02
-1.647066771984100342e-01
-1.428790986537933350e-01
-1.796252578496932983e-01
-4.826985299587249756e-02
1.712683737277984619e-01
1.334327459335327148e-01
-2.854520082473754883e-02
1.261671781539916992e-01
1.170090436935424805e-01
1.563105583190917969e-01
-4.931782186031341553e-02
3.934210538864135742e-02
-4.249557852745056152e-02
7.994943857192993164e-02
9.460458159446716309e-02
-9.051907062530517578e-02
1.118605434894561768e-01
-1.439745128154754639e-01
8.574378490447998047e-02
-3.403790295124053955e-02
5.609318614006042480e-03
1.685112714767456055e-01
7.239249348640441895e-02
-3.657856583595275879e-02
1.394561827182769775e-01
-1.587846428155899048e-01
-1.269606053829193115e-01
-6.392867863178253174e-02
-1.123287901282310486e-01
-6.489843130111694336e-02
-1.579865068197250366e-01
-1.501872688531875610e-01
-1.053544133901596069e-01
-1.555517613887786865e-01
-7.851812243461608887e-02
-1.765155047178268433e-01
3.951177000999450684e-02
-1.933876276016235352e-01
-2.605657279491424561e-02
1.865683197975158691e-01
-1.743137836456298828e-01
-1.593649536371231079e-01
1.196590363979339600e-01
-1.407101899385452271e-01
-1.530407369136810303e-01
-1.888732016086578369e-01
1.884365081787109375e-02
1.496007740497589111e-01
-8.007459342479705811e-02
1.410113573074340820e-01
-1.366434693336486816e-01
3.745698928833007812e-02
-2.381305396556854248e-02
1.491892337799072266e-01
5.689123272895812988e-02
-1.376007497310638428e-01
1.727352738380432129e-01
1.331796050071716309e-01
1.555672585964202881e-01
-5.458863079547882080e-02
-1.454981118440628052e-01
-1.767615973949432373e-02
-1.301809847354888916e-01
-4.168131947517395020e-02
1.141642034053802490e-01
-1.561021953821182251e-01
-1.924942433834075928e-02
-1.605767160654067993e-01
1.707713305950164795e-01
-9.808689355850219727e-04
6.115776300430297852e-02
-2.239818871021270752e-02
-3.817963600158691406e-02
1.073389649391174316e-01
-2.324151992797851562e-02
-1.031288579106330872e-01
1.737702786922454834e-01
-8.713322877883911133e-02
1.733945906162261963e-01
-9.981309622526168823e-02
-1.405083239078521729e-01
-1.684223562479019165e-01
1.446833610534667969e-01
-2.226124703884124756e-02
-1.372383683919906616e-01
1.353687047958374023e-01
1.313651502132415771e-01
-2.527271211147308350e-02
3.864751756191253662e-02
1.566847562789916992e-01
-1.484465897083282471e-01
-1.337983310222625732e-01
5.031175911426544189e-02
-7.232060283422470093e-02
-3.580205142498016357e-02
-1.593107432126998901e-01
1.928765177726745605e-01
-1.201584041118621826e-01
1.243731379508972168e-01
1.100139021873474121e-01
-1.028035432100296021e-01
5.375388264656066895e-02
1.578048467636108398e-01
8.684453368186950684e-02
-1.214641705155372620e-01
5.131676793098449707e-02
4.275514185428619385e-02
1.012069880962371826e-01
1.086191534996032715e-01
-1.503706127405166626e-01
-2.137646079063415527e-03
-1.305140554904937744e-01
3.253337740898132324e-02
-1.974815130233764648e-02
-1.652121394872665405e-01
-7.562176883220672607e-02
1.552548110485076904e-01
-3.151904046535491943e-02
-1.975105702877044678e-02
-3.274285793304443359e-02
-1.384636610746383667e-01
7.624861598014831543e-02
-3.899753093719482422e-03
1.346410512924194336e-01
6.457728147506713867e-02
-1.531643271446228027e-01
1.280621588230133057e-01
-3.500525653362274170e-02
-1.751741766929626465e-02
-1.591514647006988525e-01
-8.039408922195434570e-02
-5.097812414169311523e-02
-1.531562060117721558e-01
-7.488480955362319946e-02
-1.708270460367202759e-01
2.346125245094299316e-02
2.496632933616638184e-02
7.141259312629699707e-02
-3.932870924472808838e-02
5.162519216537475586e-02
-1.099539622664451599e-01
7.129785418510437012e-02
-1.725018024444580078e-01
1.566562354564666748e-01
3.199855983257293701e-02
-4.193322360515594482e-02
1.445383429527282715e-01
1.867181062698364258e-01
4.382313787937164307e-02
5.324459075927734375e-02
1.846953332424163818e-01
-1.253804117441177368e-01
7.208567857742309570e-02
-1.670453548431396484e-01
-2.591912448406219482e-02
1.160198450088500977e-01
4.663813114166259766e-02
1.486763656139373779e-01
2.273324131965637207e-02
-6.334885954856872559e-03
-4.520262777805328369e-02
-3.284470736980438232e-02
9.588369727134704590e-02
-1.067949458956718445e-01
-2.776356041431427002e-02
4.747657477855682373e-02
-1.809747070074081421e-01
5.375115573406219482e-02
1.791464686393737793e-01
1.515839397907257080e-01
1.485556364059448242e-01
6.864887475967407227e-02
1.445640921592712402e-01
-6.323248147964477539e-03
1.691143810749053955e-01
-1.030921041965484619e-01
-3.151625394821166992e-03
6.821474432945251465e-02
-5.889725685119628906e-02
-1.141209527850151062e-01
-9.482264518737792969e-03
-1.883833557367324829e-01
-1.359974741935729980e-01
-1.766675412654876709e-01
-3.954488039016723633e-02
-2.807995676994323730e-02
-9.792794287204742432e-02
-1.474553346633911133e-01
-2.445994317531585693e-02
-1.662871241569519043e-02
-1.233969256281852722e-01
9.362268447875976562e-02
4.420042037963867188e-03
4.194319248199462891e-02
-1.701191067695617676e-02
9.006479382514953613e-02
1.054093241691589355e-03
3.493387997150421143e-02
6.727463006973266602e-02
6.402152776718139648e-02
2.372755110263824463e-02
-2.664715051651000977e-03
1.456685662269592285e-01
3.900367021560668945e-02
-1.669824123382568359e-01
-1.711529642343521118e-01
-9.461204707622528076e-02
-1.171470880508422852e-01
-8.331080526113510132e-02
6.793901324272155762e-03
1.456347703933715820e-01
-1.423658728599548340e-01
-1.312320828437805176e-01
1.062587499618530273e-01
-9.017981588840484619e-02
8.677923679351806641e-02
-4.842773079872131348e-03
-7.936307042837142944e-02
-9.535422176122665405e-02
-1.027532219886779785e-01
1.714141368865966797e-01
1.336864531040191650e-01
-5.919992923736572266e-03
1.737065911293029785e-01
1.629909276962280273e-01
-1.275478005409240723e-01
7.841208577156066895e-02
-7.682181149721145630e-02
-1.302951574325561523e-01
-1.381919533014297485e-01
-1.659944802522659302e-01
-7.167533785104751587e-02
-6.625774502754211426e-02
1.685141324996948242e-01
1.767463982105255127e-01
1.240628659725189209e-01
8.478623628616333008e-02
1.141248643398284912e-01
9.956690669059753418e-02
1.520466208457946777e-01
7.879698276519775391e-02
-1.395817101001739502e-02
1.481055915355682373e-01
1.288516223430633545e-01
-9.986221790313720703e-02
2.157406508922576904e-02
-8.003848791122436523e-02
-2.959436178207397461e-02
-1.014553010463714600e-02
-6.973598152399063110e-02
5.904090404510498047e-02
-3.841926157474517822e-02
-1.507320255041122437e-01
8.581283688545227051e-02
1.451566517353057861e-01
-2.339190244674682617e-02
9.479519724845886230e-02
1.166510283946990967e-01
-1.103736460208892822e-01
4.220768809318542480e-03
-5.468808114528656006e-02
1.609580218791961670e-01
1.008640527725219727e-01
8.894598484039306641e-02
-5.858248472213745117e-02
-1.377506256103515625e-01
1.240434348583221436e-01
1.275687217712402344e-01
3.488340973854064941e-02
-6.968297809362411499e-02
4.678915441036224365e-02
-3.555107116699218750e-02
-6.484925746917724609e-02
6.100586056709289551e-02
-1.695518046617507935e-01
-3.512950241565704346e-02
1.362279057502746582e-02
1.283999383449554443e-01
5.922383069992065430e-02
1.843056082725524902e-02
-5.957022309303283691e-03
7.289481163024902344e-02
1.852549910545349121e-01
1.803758442401885986e-01
6.950965523719787598e-02
9.462198615074157715e-02
-6.065452098846435547e-02
-5.255176126956939697e-02
1.743292808532714844e-01
1.382729411125183105e-01
1.687204837799072266e-01
1.868807673454284668e-01
-1.398830562829971313e-01
8.657827973365783691e-02
-4.631190001964569092e-02
1.008756756782531738e-01
-9.128696471452713013e-02
-1.460312306880950928e-01
8.423686027526855469e-02
8.275362849235534668e-02
6.977397203445434570e-02
6.714111566543579102e-02
-6.060710549354553223e-02
1.875719726085662842e-01
1.309076547622680664e-01
1.811029314994812012e-01
8.269056677818298340e-02
-1.155592501163482666e-02
-7.249151915311813354e-02
-8.727921545505523682e-02
-1.785371899604797363e-01
2.974395453929901123e-02
-1.795669496059417725e-01
-1.776097267866134644e-01
-9.309907257556915283e-02
9.857532382011413574e-02
-3.573732078075408936e-02
1.480738520622253418e-01
-6.055830419063568115e-02
1.529931724071502686e-01
5.659565329551696777e-02
1.881756186485290527e-01
1.604894995689392090e-01
-1.096961498260498047e-01
5.645155906677246094e-04
2.119861543178558350e-02
-4.794967174530029297e-02
-2.874249219894409180e-02
9.900146722793579102e-02
1.902422606945037842e-01
-9.369064122438430786e-02
-1.356327384710311890e-01
1.639845967292785645e-02
-1.093104034662246704e-01
2.956420183181762695e-03
1.400124728679656982e-01
3.225880861282348633e-02
5.999955534934997559e-02
5.888032913208007812e-02
-2.145162224769592285e-02
-8.985736966133117676e-02
1.731565296649932861e-01
-6.529179215431213379e-02
1.298193037509918213e-01
-6.136792898178100586e-02
-1.404160857200622559e-01
6.880685687065124512e-02
9.080579876899719238e-02
-3.967650234699249268e-02
1.210983395576477051e-01
4.426182806491851807e-02
1.621005535125732422e-01
-1.927599012851715088e-01
-1.683788597583770752e-01
-8.831673860549926758e-02
-1.974870264530181885e-02
2.891811728477478027e-02
5.247734487056732178e-02
7.308331131935119629e-02
1.908908784389495850e-01
-7.421950995922088623e-02
-1.403243541717529297e-01
1.299068331718444824e-01
-8.537703007459640503e-02
-9.522508829832077026e-02
1.545184850692749023e-02
-1.778802424669265747e-01
5.729281902313232422e-02
1.735397577285766602e-01
8.161509037017822266e-02
-9.723784774541854858e-02
-1.439108848571777344e-01
9.911966323852539062e-02
-1.593253314495086670e-01
-6.724140048027038574e-02
-8.442810922861099243e-02
-1.351804584264755249e-01
1.310276091098785400e-01
5.082672834396362305e-02
4.886613786220550537e-02
-1.217929944396018982e-01
1.447567343711853027e-02
-7.771362364292144775e-02
1.865126490592956543e-01
-5.772879719734191895e-02
1.830158233642578125e-01
-9.493421763181686401e-02
-3.602273762226104736e-02
-1.221793889999389648e-02
5.766925215721130371e-02
-1.797207444906234741e-01
5.718317627906799316e-02
1.282767653465270996e-01
-1.839007884263992310e-01
-6.486773490905761719e-04
-7.715653628110885620e-02
1.054960489273071289e-02
1.361560225486755371e-01
-5.916966497898101807e-02
1.859139800071716309e-01
9.746587276458740234e-02
-1.688510924577713013e-01
-9.860063344240188599e-02
-2.262584865093231201e-02
-1.358234137296676636e-01
-1.731706261634826660e-01
-8.869154006242752075e-02
5.603830516338348389e-02
-5.546815693378448486e-02
-6.010016798973083496e-02
1.373328864574432373e-01
1.329507827758789062e-01
5.177298188209533691e-02
-1.669359207153320312e-01
1.213789582252502441e-01
1.856104433536529541e-01
-2.380493283271789551e-02
-1.624710559844970703e-01
7.563591003417968750e-03
2.951411902904510498e-02
1.877427399158477783e-01
-1.817196011543273926e-01
4.409031569957733154e-02
4.490055143833160400e-02
5.958062410354614258e-02
1.266454458236694336e-01
9.371867775917053223e-02
3.096891939640045166e-02
1.254395246505737305e-01
-1.400980651378631592e-01
1.674387156963348389e-01
-4.059901833534240723e-02
5.896729230880737305e-02
-4.776015877723693848e-03
1.727868616580963135e-02
7.762736082077026367e-02
9.802713990211486816e-03
1.443490982055664062e-01
5.644631385803222656e-02
-1.008231490850448608e-01
3.425270318984985352e-03
6.265735626220703125e-02
7.751286029815673828e-02
-1.160261407494544983e-01
1.444205045700073242e-01
-1.491456329822540283e-01
-1.914962828159332275e-01
-3.430329263210296631e-02
-1.858606934547424316e-01
1.153287291526794434e-02
4.370470345020294189e-02
1.519595682621002197e-01
1.071752607822418213e-01
-1.854459047317504883e-01
1.178425848484039307e-01
-6.846821308135986328e-02
1.841435432434082031e-01
1.041657328605651855e-01
1.098157465457916260e-02
1.794230937957763672e-01
-3.982633352279663086e-04
-1.886265277862548828e-01
-1.167609244585037231e-01
1.694561243057250977e-01
-8.637733757495880127e-02
1.334624290466308594e-01
-2.177360653877258301e-02
-1.761736720800399780e-01
-5.311013758182525635e-02
-1.080933734774589539e-01
1.129335165023803711e-01
-6.849239766597747803e-02
3.094570338726043701e-02
1.684742569923400879e-01
-8.342571556568145752e-02
-1.187605261802673340e-01
7.041463255882263184e-02
1.778771877288818359e-01
1.792237162590026855e-02
1.122918426990509033e-01
8.627575635910034180e-02
6.888559460639953613e-02
-1.514601707458496094e-01
-1.100728064775466919e-01
-7.241055369377136230e-03
5.487531423568725586e-03
-5.873978137969970703e-02
1.401011943817138672e-01
1.895511746406555176e-01
-4.966159164905548096e-02
3.141228854656219482e-02
3.948771953582763672e-02
1.301912963390350342e-01
-1.078132167458534241e-01
-7.408109307289123535e-02
7.115185260772705078e-03
1.591112017631530762e-01
-6.048147380352020264e-02
8.479377627372741699e-02
-6.433285772800445557e-02
-1.846871972084045410e-01
1.381993591785430908e-01
1.620829403400421143e-01
5.692955851554870605e-02
-7.382355630397796631e-02
-1.278484463691711426e-01
-3.979395329952239990e-02
1.112159490585327148e-01
1.029388606548309326e-01
1.520876586437225342e-02
-1.088508367538452148e-01
6.806823611259460449e-02
1.487333476543426514e-01
8.065110445022583008e-02
5.268099904060363770e-02
7.596480846405029297e-02
-3.433948755264282227e-02
-1.209993362426757812e-01
2.354532480239868164e-02
7.500264048576354980e-02
1.530466377735137939e-01
9.028366208076477051e-02
1.551153659820556641e-01
-1.005604863166809082e-01
-1.463885307312011719e-01
-1.751670390367507935e-01
1.196571290493011475e-01
-3.451105952262878418e-02
4.408961534500122070e-02
-1.274293363094329834e-01
-1.741731911897659302e-01
-9.954189509153366089e-02
9.403124451637268066e-02
1.576595306396484375e-01
-9.543548524379730225e-02
7.043901085853576660e-02
1.893936395645141602e-01
-8.783227950334548950e-02
-3.586575388908386230e-02
-9.446181356906890869e-02
-2.997826039791107178e-02
3.994715213775634766e-02
7.573485374450683594e-02
1.791705787181854248e-01
-6.546035408973693848e-02
1.883286535739898682e-01
1.488983035087585449e-01
-2.799606323242187500e-02
-1.450687348842620850e-01
-5.050215125083923340e-02
1.759812235832214355e-01
-1.228211820125579834e-02
-4.562278091907501221e-02
1.144329309463500977e-01
-5.423769354820251465e-03
1.000337004661560059e-01
-7.744207978248596191e-03
1.525889337062835693e-01
1.154546439647674561e-01
-1.138807311654090881e-01
-1.879347711801528931e-01
4.955217242240905762e-02
1.006602048873901367e-01
7.401964068412780762e-02
-5.802617967128753662e-02
1.637084782123565674e-01
1.889032721519470215e-01
1.802713572978973389e-01
-1.171036437153816223e-01
-2.771839499473571777e-03
7.978594303131103516e-02
-7.242540270090103149e-02
8.019283413887023926e-02
-1.723551750183105469e-01
-1.807506978511810303e-01
-1.142466068267822266e-02
1.826844215393066406e-01
-4.702484607696533203e-02
-1.761474907398223877e-01
1.803011894226074219e-01
1.458512544631958008e-01
1.249742507934570312e-01
-1.319323331117630005e-01
-5.315957963466644287e-02
1.472664475440979004e-01
1.507287025451660156e-01
1.562596261501312256e-01
-7.104817032814025879e-02
3.824321925640106201e-02
1.036931872367858887e-01
1.498324573040008545e-01
1.202059686183929443e-01
5.468834936618804932e-02
1.195767223834991455e-01
-1.039086133241653442e-01
1.239333152770996094e-01
1.747159063816070557e-01
-4.077792167663574219e-02
1.523389518260955811e-01
1.146409213542938232e-01
-1.233454868197441101e-01
1.530225574970245361e-01
3.958494961261749268e-02
-4.705417156219482422e-02
-1.880771517753601074e-01
1.543042957782745361e-01
1.531837582588195801e-01
-1.292099505662918091e-01
-2.282059192657470703e-02
-6.905101239681243896e-02
-1.323962509632110596e-01
3.959731757640838623e-02
5.622754991054534912e-02
-5.161397159099578857e-02
1.412418782711029053e-01
-1.559443771839141846e-01
1.558072268962860107e-01
1.697387993335723877e-01
6.015652418136596680e-02
1.862761378288269043e-01
9.834286570549011230e-02
-1.763454675674438477e-01
-3.045617043972015381e-02
6.426155567169189453e-03
-8.933980762958526611e-02
-1.063588336110115051e-01
5.973234772682189941e-03
1.624515652656555176e-01
1.313854157924652100e-01
-2.005860209465026855e-02
1.184753477573394775e-01
8.049786090850830078e-02
-8.952736854553222656e-03
1.752449274063110352e-01
6.113040447235107422e-02
6.417098641395568848e-02
-6.711964309215545654e-02
-1.666631549596786499e-01
-1.888457834720611572e-01
-3.040783107280731201e-02
-1.764591038227081299e-02
1.025813817977905273e-02
-1.379311084747314453e-01
-8.699563890695571899e-02
-7.667750120162963867e-03
-1.631767600774765015e-01
1.215968728065490723e-01
1.837202906608581543e-02
1.058953404426574707e-01
-1.164589747786521912e-01
-7.514238357543945312e-03
1.891638338565826416e-01
1.664055883884429932e-01
-5.947098135948181152e-03
1.166639626026153564e-01
-5.908383429050445557e-02
-6.348387897014617920e-02
1.898792982101440430e-01
1.724511086940765381e-01
-1.664050668478012085e-01
-1.260256320238113403e-01
-1.534568071365356445e-01
-1.399236917495727539e-01
-7.172870635986328125e-02
-1.184344291687011719e-03
-1.807357370853424072e-01
1.110358536243438721e-01
-1.801187694072723389e-01
-4.015468060970306396e-02
-1.675914227962493896e-02
-1.895232796669006348e-01
-1.172067373991012573e-01
1.762655377388000488e-01
-1.412275433540344238e-02
2.911037206649780273e-02
6.237822771072387695e-02
1.163590252399444580e-01
-1.425356864929199219e-01
-1.416360139846801758e-01
8.032011985778808594e-02
-1.424537301063537598e-01
9.910762310028076172e-03
-7.277587801218032837e-02
-7.932447642087936401e-02
1.247729957103729248e-01
1.224791109561920166e-01
1.126528084278106689e-01
1.649003028869628906e-01
-8.422089368104934692e-02
9.205564856529235840e-03
1.465663909912109375e-01
6.052002310752868652e-03
2.913101017475128174e-02
4.559530317783355713e-02
-4.524432122707366943e-02
-9.765457361936569214e-02
-7.911985367536544800e-02
-8.593425154685974121e-02
2.548919618129730225e-02
1.323772668838500977e-01
1.756333410739898682e-01
-1.396668404340744019e-01
1.275447010993957520e-01
2.626165747642517090e-03
2.044309675693511963e-02
1.915258765220642090e-01
-2.755260467529296875e-02
1.932999491691589355e-02
5.849269032478332520e-02
6.886744499206542969e-02
1.617590188980102539e-01
-4.836182296276092529e-02
1.295441687107086182e-01
4.496204853057861328e-02
-1.725888401269912720e-01
1.362763047218322754e-01
-1.379176974296569824e-02
9.919482469558715820e-02
1.687695086002349854e-01
1.158905923366546631e-01
-1.622574776411056519e-01
1.885564923286437988e-01
-1.090423017740249634e-01
9.996581077575683594e-02
6.422191858291625977e-03
1.032581329345703125e-01
1.589736044406890869e-01
-4.121986031532287598e-02
1.358216702938079834e-01
1.532344222068786621e-01
-3.820993006229400635e-02
5.932214856147766113e-02
-1.002996787428855896e-01
7.351016998291015625e-02
1.255538761615753174e-01
-3.826390206813812256e-02
4.074424505233764648e-03
-6.194731593132019043e-02
-4.359196126461029053e-02
4.254636168479919434e-02
-1.702646166086196899e-01
5.769312381744384766e-02
-3.373382985591888428e-02
-8.798962831497192383e-02
-8.467540144920349121e-03
2.553731203079223633e-03
1.999899744987487793e-02
2.768705785274505615e-02
-1.792931109666824341e-01
4.844626784324645996e-02
-1.708792150020599365e-01
-8.588932454586029053e-02
-8.693497627973556519e-02
1.936149001121520996e-01
1.370410323143005371e-01
1.201460361480712891e-01
1.839187741279602051e-02
1.437612473964691162e-01
-5.250757932662963867e-02
8.772549033164978027e-02
8.214285969734191895e-02
6.005758047103881836e-02
5.744570493698120117e-02
1.513611674308776855e-01
-8.093274384737014771e-02
-7.792951166629791260e-02
-6.629472970962524414e-02
1.866647303104400635e-01
1.738291382789611816e-01
-1.781335622072219849e-01
9.936496615409851074e-02
-4.241962730884552002e-02
-1.538579761981964111e-01
-1.452570110559463501e-01
1.684437394142150879e-01
-1.479144841432571411e-01
1.200509369373321533e-01
-8.817771822214126587e-02
7.062220573425292969e-02
-4.853297770023345947e-02
-5.766683816909790039e-02
-1.363165974617004395e-01
1.534368097782135010e-01
1.208455860614776611e-02
1.737131178379058838e-01
-1.464604139328002930e-01
1.682211160659790039e-01
7.035586237907409668e-02
1.635220050811767578e-01
1.203556954860687256e-01
1.073679625988006592e-01
-3.313390910625457764e-02
-1.797699034214019775e-01
-1.544479876756668091e-01
3.040158748626708984e-02
-9.862593561410903931e-02
-1.200154647231101990e-01
5.326466262340545654e-02
-3.744341433048248291e-02
1.336857676506042480e-02
-1.181433796882629395e-01
-7.304549217224121094e-04
1.377110183238983154e-01
-7.891564816236495972e-02
1.092469692230224609e-01
-3.065164387226104736e-02
6.150206923484802246e-02
-1.170176267623901367e-01
-1.871132254600524902e-01
1.524680852890014648e-02
1.001463532447814941e-01
1.297956407070159912e-01
-1.074912771582603455e-01
-5.040445923805236816e-02
-6.203979253768920898e-02
-5.689243972301483154e-02
-1.084639802575111389e-01
4.066988825798034668e-02
3.080174326896667480e-02
6.220558285713195801e-02
1.827321946620941162e-01
9.572803974151611328e-04
-1.804730296134948730e-01
4.029577970504760742e-02
-1.430989056825637817e-01
5.237036943435668945e-02
-1.755675077438354492e-01
-1.657007634639739990e-02
8.379739522933959961e-02
-7.472768425941467285e-03
-1.234010756015777588e-01
-8.339422941207885742e-02
1.310393214225769043e-02
1.107579469680786133e-01
-9.046528488397598267e-02
1.821998953819274902e-01
-8.955708146095275879e-02
5.639252066612243652e-02
-6.691038608551025391e-03
8.811944723129272461e-02
-1.476107835769653320e-01
-1.290412843227386475e-01
-1.878699958324432373e-01
6.214454770088195801e-02
-1.069945394992828369e-01
-9.128852933645248413e-02
-1.494418680667877197e-01
1.849853098392486572e-01
5.180524289608001709e-02
1.069014072418212891e-01
-9.601209312677383423e-02
-1.435635089874267578e-01
8.032473921775817871e-02
-1.710540205240249634e-01
-1.270463019609451294e-01
1.151030659675598145e-01
-7.671128213405609131e-02
1.556381583213806152e-03
1.351648867130279541e-01
-6.575492024421691895e-02
-9.037367999553680420e-02
2.525673806667327881e-02
5.125808715820312500e-02
1.647582352161407471e-01
-1.522618979215621948e-01
1.577245891094207764e-01
1.126683056354522705e-01
-2.538692951202392578e-02
1.857506334781646729e-01
-1.036501079797744751e-01
-1.688667833805084229e-01
-1.112912669777870178e-01
6.385976076126098633e-02
9.967291355133056641e-02
-1.851662993431091309e-02
9.869298338890075684e-02
-9.449888765811920166e-02
1.389711499214172363e-01
1.584081649780273438e-01
8.332976698875427246e-02
7.179361581802368164e-02
-5.543935298919677734e-02
1.627949178218841553e-01
1.784189045429229736e-01
8.582052588462829590e-02
-1.921623796224594116e-01
-1.297679543495178223e-01
9.714108705520629883e-02
-1.744962781667709351e-01
1.924918889999389648e-01
-3.436566889286041260e-02
5.669030547142028809e-02
-7.106672972440719604e-02
-1.534311026334762573e-01
4.617838561534881592e-02
-1.498217880725860596e-01
7.914611697196960449e-02
-7.206832617521286011e-02
-8.838590234518051147e-02
-1.893976926803588867e-01
1.274777650833129883e-01
-9.932258725166320801e-02
7.653445005416870117e-02
1.930214166641235352e-01
5.719599127769470215e-02
1.616486310958862305e-01
1.424385607242584229e-02
1.500857770442962646e-01
-1.516170054674148560e-01
-1.017124950885772705e-02
1.888713240623474121e-02
8.095625042915344238e-02
-1.720962971448898315e-01
-1.908985227346420288e-01
1.673368513584136963e-01
1.280221939086914062e-01
-5.722777545452117920e-02
-1.345081329345703125e-01
-5.928005278110504150e-02
2.310393750667572021e-02
2.979016304016113281e-02
1.414454281330108643e-01
-1.437097787857055664e-01
3.868192434310913086e-02
-1.203671842813491821e-01
-9.788528829813003540e-02
2.126024663448333740e-02
4.860076308250427246e-02
-1.100166589021682739e-01
1.559234261512756348e-01
-5.530652403831481934e-02
9.361958503723144531e-02
1.916804909706115723e-01
1.591444909572601318e-01
1.446516215801239014e-01
-1.289250850677490234e-01
1.038743555545806885e-01
-8.446125686168670654e-02
1.599476635456085205e-01
1.736676692962646484e-01
1.168939471244812012e-01
-1.208561211824417114e-01
1.554184556007385254e-01
5.349066853523254395e-02
-4.038806259632110596e-02
-1.537928879261016846e-01
9.595429897308349609e-02
-5.744342505931854248e-02
7.043877243995666504e-02
1.624293625354766846e-01
-1.741302907466888428e-01
-1.739585995674133301e-01
6.763988733291625977e-02
1.690545976161956787e-01
-8.013784885406494141e-02
1.780614256858825684e-03
-2.879305183887481689e-02
1.667380928993225098e-01
-7.078952342271804810e-02
6.815025210380554199e-02
-1.011933311820030212e-01
1.182580292224884033e-01
-1.845321655273437500e-01
-1.152229234576225281e-01
-2.866077423095703125e-02
2.734188735485076904e-02
-9.389623254537582397e-02
-4.501581192016601562e-03
2.120646834373474121e-02
-3.759956359863281250e-02
-7.614441215991973877e-02
-3.365816175937652588e-02
2.346977591514587402e-03
-1.412945538759231567e-01
-6.493328511714935303e-02
7.564374804496765137e-02
-6.164324283599853516e-02
2.412493526935577393e-02
1.392697095870971680e-01
7.771182060241699219e-02
1.459259986877441406e-01
-1.531812846660614014e-01
-1.742894947528839111e-01
9.488251805305480957e-02
1.709880828857421875e-01
-2.669347822666168213e-02
1.126551628112792969e-02
1.145139336585998535e-03
-1.890056282281875610e-01
2.163472771644592285e-02
-1.532148420810699463e-01
-4.841414093971252441e-02
-8.623971045017242432e-02
-1.533126235008239746e-01
8.960568904876708984e-02
2.123333513736724854e-02
1.096115708351135254e-01
1.361998021602630615e-01
1.269988417625427246e-01
4.864087700843811035e-02
-9.102204442024230957e-02
1.224258244037628174e-01
1.488102972507476807e-01
-1.912798881530761719e-01
1.747381091117858887e-01
-6.941381096839904785e-02
1.318600475788116455e-01
-7.373883575201034546e-02
-1.449660509824752808e-01
1.517339646816253662e-01
1.891391873359680176e-01
4.287494719028472900e-02
1.464916765689849854e-01
3.809681534767150879e-02
-4.248717427253723145e-02
1.382954418659210205e-02
5.665153264999389648e-02
1.628940105438232422e-01
-8.329958468675613403e-02
-1.493182182312011719e-01
1.029425561428070068e-01
-1.300525069236755371e-01
-4.530936479568481445e-03
1.742991805076599121e-01
-7.089843600988388062e-02
-8.944354951381683350e-02
1.078508496284484863e-01
4.607944190502166748e-02
-1.933104246854782104e-01
1.476251780986785889e-01
-1.388087421655654907e-01
7.450321316719055176e-02
1.790331006050109863e-01
1.070913672447204590e-01
1.385399401187896729e-01
-1.121836304664611816e-01
1.833338737487792969e-01
8.429041504859924316e-02
-2.084985375404357910e-02
-1.917160600423812866e-01
-1.759550571441650391e-01
1.370648741722106934e-01
-1.885332614183425903e-01
9.885087609291076660e-02
1.032108664512634277e-01
-1.464013159275054932e-01
2.884887158870697021e-02
-4.225914180278778076e-02
7.614070177078247070e-02
-4.079347848892211914e-02
-2.672940492630004883e-02
-9.762227535247802734e-03
-2.578310668468475342e-02
-1.680108904838562012e-01
8.720126748085021973e-02
1.095399558544158936e-01
-5.899292230606079102e-02
-1.737743616104125977e-02
3.659348189830780029e-02
-1.757003366947174072e-01
-1.146498247981071472e-01
1.239946484565734863e-01
3.259801864624023438e-02
-1.195844709873199463e-01
1.062133014202117920e-01
-1.565252840518951416e-01
9.777942299842834473e-02
-6.483401358127593994e-02
-1.868515759706497192e-01
4.442416131496429443e-02
3.422655165195465088e-02
-1.834356784820556641e-01
7.005959749221801758e-02
1.327279210090637207e-01
-1.553718745708465576e-01
-1.282093226909637451e-01
-9.871439635753631592e-02
-2.234672009944915771e-02
6.025946140289306641e-02
-1.875922083854675293e-03
1.197983622550964355e-01
7.169246673583984375e-04
1.568980515003204346e-01
-1.101541072130203247e-01
4.008953273296356201e-02
1.170523464679718018e-02
5.127707123756408691e-02
1.189046800136566162e-01
3.009006381034851074e-03
-1.555411368608474731e-01
-7.375739514827728271e-02
-1.571469157934188843e-01
-1.278600394725799561e-01
6.443479657173156738e-02
1.424185633659362793e-01
-1.340827345848083496e-01
-9.786432236433029175e-02
-1.432717591524124146e-01
1.206636428833007812e-01
-1.149231940507888794e-01
-3.392839431762695312e-02
7.924598455429077148e-02
1.577623188495635986e-01
-5.412125587463378906e-02
3.329232335090637207e-02
-8.251544088125228882e-02
2.344629168510437012e-02
1.612581908702850342e-01
-8.752312511205673218e-02
1.136874556541442871e-01
-1.108635514974594116e-01
1.637383103370666504e-01
7.156199216842651367e-02
1.226354837417602539e-01
8.012175559997558594e-03
1.537542939186096191e-01
1.894138157367706299e-01
1.274821460247039795e-01
1.368094086647033691e-01
1.624059081077575684e-01
-1.269981265068054199e-02
-1.898847371339797974e-01
6.304597854614257812e-02
-1.086840033531188965e-02
1.563583910465240479e-01
-1.558880209922790527e-01
1.699310243129730225e-01
-2.039697766304016113e-02
4.872739315032958984e-03
-2.597221732139587402e-02
1.335776448249816895e-01
1.363934576511383057e-01
-1.847946345806121826e-01
-1.490852534770965576e-01
-1.695906817913055420e-01
-1.045736819505691528e-01
-1.017583608627319336e-01
1.918448805809020996e-01
1.870423555374145508e-03
-1.091036126017570496e-01
-1.098209023475646973e-01
-1.703751385211944580e-01
-1.580236852169036865e-01
-3.658369183540344238e-02
1.649507880210876465e-01
-1.802438348531723022e-01
1.788803935050964355e-01
-1.889719665050506592e-01
-2.748945355415344238e-02
-1.090585961937904358e-01
-1.724772006273269653e-01
-4.398413002490997314e-02
-7.400423288345336914e-03
-1.373706012964248657e-01
-3.176350891590118408e-02
-2.603991329669952393e-02
3.497348725795745850e-02
4.283303022384643555e-02
-8.259217441082000732e-02
5.189140141010284424e-02
1.857503056526184082e-01
1.283971667289733887e-01
7.252350449562072754e-02
1.369945108890533447e-01
1.318107247352600098e-01
-5.141663551330566406e-02
1.087531447410583496e-03
1.125019192695617676e-01
-6.215761601924896240e-02
-9.568904340267181396e-02
-1.595939099788665771e-01
-1.679703593254089355e-02
1.350496113300323486e-01
1.058879494667053223e-01
-3.333516418933868408e-02
-1.445045769214630127e-01
5.158156156539916992e-02
-1.298944056034088135e-01
1.288508474826812744e-01
2.637358009815216064e-02
5.041877925395965576e-02
-1.469053030014038086e-01
-9.065993130207061768e-02
1.852993071079254150e-01
-1.385149657726287842e-01
-1.255715489387512207e-01
1.655550897121429443e-01
1.353170275688171387e-01
1.422719061374664307e-01
1.440046727657318115e-02
-1.633395552635192871e-01
-2.527427673339843750e-02
1.163012981414794922e-01
-9.623144567012786865e-02
4.867693781852722168e-02
1.788232922554016113e-01
9.719824790954589844e-02
-1.078400462865829468e-01
-7.290916889905929565e-02
-1.195769011974334717e-02
1.899210810661315918e-01
-1.635589450597763062e-01
6.337571144104003906e-02
-1.499339938163757324e-01
-6.227649748325347900e-02
-7.004351913928985596e-02
-7.207733392715454102e-02
-1.095221415162086487e-01
5.960738658905029297e-02
1.904965341091156006e-01
3.626161813735961914e-02
1.269391477108001709e-01
-1.073394715785980225e-01
-6.588660180568695068e-02
3.977623581886291504e-02
-1.211434826254844666e-01
-1.183588057756423950e-01
1.049533486366271973e-03
-1.654792279005050659e-01
-1.817121207714080811e-01
4.808832705020904541e-02
-3.102391958236694336e-02
1.659465730190277100e-01
1.849654614925384521e-01
-8.016388863325119019e-02
1.589438319206237793e-02
1.062263846397399902e-01
8.737567067146301270e-02
-6.647631525993347168e-02
-1.550793647766113281e-03
8.808398246765136719e-02
7.718530297279357910e-02
-8.042492717504501343e-02
-6.408649682998657227e-02
1.303335428237915039e-01
8.584943413734436035e-02
-1.860446780920028687e-01
-2.636308968067169189e-02
1.450889408588409424e-01
-2.870693802833557129e-02
1.569608449935913086e-01
-9.796077013015747070e-02
5.231398344039916992e-02
5.530877411365509033e-02
4.381486773490905762e-02
-1.506950408220291138e-01
-2.565383911132812500e-02
-1.479921936988830566e-01
-4.365400969982147217e-02
1.100144982337951660e-01
1.777557730674743652e-01
-1.438626050949096680e-01
1.611959338188171387e-01
1.644367575645446777e-01
-1.030673086643218994e-01
-1.676524281501770020e-01
5.026757717132568359e-02
-3.830458223819732666e-02
-4.161220788955688477e-02
-6.220258772373199463e-02
-5.521306395530700684e-02
-6.136280298233032227e-02
-6.404097378253936768e-02
-5.898563563823699951e-02
1.323548257350921631e-01
-7.552355527877807617e-04
-9.113562107086181641e-02
6.627336144447326660e-02
1.185194849967956543e-01
-2.201542258262634277e-03
8.847385644912719727e-02
2.762745320796966553e-02
3.096024692058563232e-02
1.556008458137512207e-01
-9.070485830307006836e-02
-1.145205497741699219e-01
-1.022949889302253723e-01
-1.033359691500663757e-01
1.948684453964233398e-03
-8.258898556232452393e-02
-1.133915185928344727e-01
-1.719276458024978638e-01
-6.978487223386764526e-02
-1.755457222461700439e-01
9.500950574874877930e-03
2.296105027198791504e-03
1.843807399272918701e-01
7.922527194023132324e-02
-1.046350449323654175e-01
1.478536725044250488e-01
-1.861579716205596924e-02
-6.719051301479339600e-02
-1.868726313114166260e-02
-1.581474542617797852e-01
1.442628800868988037e-01
-9.709028899669647217e-02
-1.040214970707893372e-01
8.959338068962097168e-03
-1.775330901145935059e-01
1.375252306461334229e-01
-7.528726756572723389e-02
1.497105360031127930e-01
6.204247474670410156e-02
-1.218644157052040100e-01
9.807595610618591309e-02
-1.726421117782592773e-01
-1.540421992540359497e-01
1.754876971244812012e-01
-3.351987898349761963e-02
-5.984100699424743652e-02
-1.383109390735626221e-01
-5.627454817295074463e-02
1.458788812160491943e-01
-1.199273765087127686e-01
7.564890384674072266e-02
-3.053313493728637695e-02
-2.860911190509796143e-02
9.863212704658508301e-02
-5.500401556491851807e-02
-2.367067337036132812e-02
-1.510647237300872803e-01
-1.978471875190734863e-02
3.598099946975708008e-02
-1.898884326219558716e-01
1.494445502758026123e-01
-8.005963265895843506e-02
-1.018149629235267639e-01
2.444544434547424316e-02
-1.479069888591766357e-02
1.243099868297576904e-01
1.822381019592285156e-01
-1.711354702711105347e-01
3.714585304260253906e-02
1.282310187816619873e-01
-1.438708156347274780e-01
-1.882689893245697021e-01
-7.042058557271957397e-02
-2.233000099658966064e-02
1.118162572383880615e-01
-1.626297384500503540e-01
2.042776346206665039e-02
-2.976962924003601074e-02
-1.724725812673568726e-01
3.517714142799377441e-02
-1.870098561048507690e-01
1.093782186508178711e-01
1.547241210937500000e-01
1.445139050483703613e-01
1.328233480453491211e-01
1.490963697433471680e-01
3.819611668586730957e-02
-1.480520665645599365e-01
-8.373066782951354980e-02
-1.407746821641921997e-01
3.325191140174865723e-02
1.449920535087585449e-01
-1.195874810218811035e-02
-1.061575338244438171e-01
-7.738175243139266968e-02
-3.296543657779693604e-02
7.633277773857116699e-02
-1.537705808877944946e-01
-7.398068904876708984e-03
1.238628327846527100e-01
1.144216656684875488e-01
-6.601943075656890869e-02
-4.066467285156250000e-02
2.436953783035278320e-02
-1.395148038864135742e-01
8.799737691879272461e-02
3.951390087604522705e-02
-1.110794395208358765e-01
-1.600488573312759399e-01
-3.871050477027893066e-02
7.304057478904724121e-02
9.914782643318176270e-02
2.582541108131408691e-02
-5.047149956226348877e-02
-1.195794865489006042e-01
2.461987733840942383e-02
-7.145104557275772095e-02
3.327408432960510254e-02
1.255123317241668701e-01
-8.613923937082290649e-02
-5.573533475399017334e-02
9.546488523483276367e-02
-4.514075815677642822e-02
1.633245348930358887e-01
1.245754361152648926e-01
-1.441778838634490967e-01
-1.651011407375335693e-01
1.695119440555572510e-01
1.641748547554016113e-01
-7.951825857162475586e-03
-1.427040994167327881e-02
-1.307442188262939453e-01
3.503637015819549561e-02
1.796613335609436035e-01
-1.375407874584197998e-01
-9.482124447822570801e-02
8.076995611190795898e-03
-5.751933157444000244e-02
1.064913272857666016e-01
9.139093756675720215e-02
-9.639779478311538696e-02
-4.102949798107147217e-02
1.233367323875427246e-01
3.999470174312591553e-02
-3.037916123867034912e-02
-1.302511096000671387e-01
-1.645919978618621826e-01
2.647958695888519287e-02
1.602250039577484131e-01
1.892293989658355713e-01
-1.395817101001739502e-01
1.393898725509643555e-01
-8.541636168956756592e-02
1.919938623905181885e-02
-1.873798072338104248e-01
4.794958233833312988e-02
5.094487965106964111e-02
-4.521884024143218994e-02
3.806218504905700684e-03
1.664611697196960449e-02
-1.722990721464157104e-01
6.557136774063110352e-03
1.328037083148956299e-01
-3.783863782882690430e-02
-6.661774218082427979e-02
-1.814303100109100342e-01
-1.763943582773208618e-01
1.816676557064056396e-01
1.625250279903411865e-01
-1.300890594720840454e-01
4.817770421504974365e-02
-1.821423321962356567e-01
-1.255100965499877930e-02
1.072097718715667725e-01
-1.384715139865875244e-01
-1.248210668563842773e-01
-1.694594174623489380e-01
8.155152201652526855e-02
-1.209072321653366089e-01
1.466914415359497070e-01
9.975418448448181152e-02
1.373063325881958008e-01
1.233364343643188477e-01
1.225304603576660156e-01
-1.229437217116355896e-01
-1.048218905925750732e-01
1.270860433578491211e-01
-1.587618291378021240e-01
1.533521413803100586e-01
3.301483392715454102e-02
8.913663029670715332e-02
4.355031251907348633e-02
1.708158850669860840e-01
-3.925263881683349609e-04
1.452403366565704346e-01
-3.169120848178863525e-02
-8.883466571569442749e-02
1.563605666160583496e-02
-1.855430454015731812e-01
-1.662316620349884033e-01
9.645071625709533691e-02
-2.185787260532379150e-02
1.330418884754180908e-01
1.634456813335418701e-01
-2.663516998291015625e-02
4.558256268501281738e-02
-7.553368061780929565e-02
-1.819011420011520386e-01
7.099065184593200684e-02
4.572531580924987793e-02
1.001700460910797119e-01
1.034151017665863037e-01
-2.445726096630096436e-02
-1.482311189174652100e-01
5.744236707687377930e-02
1.760369241237640381e-01
1.527160108089447021e-01
1.555286347866058350e-01
1.371061801910400391e-01
1.183390915393829346e-01
-1.887115836143493652e-02
-1.781380474567413330e-01
3.120042383670806885e-02
1.758535802364349365e-01
-1.837181895971298218e-01
1.435877978801727295e-01
1.314064264297485352e-01
1.387146115303039551e-01
1.664800941944122314e-01
1.200150847434997559e-01
-1.879651844501495361e-01
-5.352741479873657227e-02
-1.411264538764953613e-01
-1.495501399040222168e-02
-6.207668781280517578e-02
1.232990026473999023e-01
-6.994651257991790771e-02
1.591999828815460205e-02
7.924461364746093750e-02
-1.165392994880676270e-02
1.438710987567901611e-01
7.166203856468200684e-02
1.726455688476562500e-01
1.693282127380371094e-01
-8.236040174961090088e-02
-1.225040480494499207e-01
3.927768766880035400e-02
-6.522101163864135742e-02
3.308510780334472656e-02
7.082587480545043945e-02
-1.373282670974731445e-01
1.841016411781311035e-01
-4.316018521785736084e-02
-1.611645519733428955e-02
5.036406219005584717e-02
1.005809307098388672e-01
1.425858736038208008e-01
3.169932961463928223e-02
-1.866247951984405518e-01
9.369146823883056641e-02
1.440222561359405518e-02
-1.225272715091705322e-01
-6.373518705368041992e-02
9.008422493934631348e-03
1.159544289112091064e-02
-8.016439527273178101e-02
-1.604459136724472046e-01
-6.824618577957153320e-02
-1.413324475288391113e-02
4.420791566371917725e-02
1.741317808628082275e-01
1.413471996784210205e-02
-1.362157613039016724e-01
-1.879099756479263306e-01
1.698370277881622314e-02
6.011050939559936523e-02
1.047426462173461914e-02
1.607988774776458740e-01
-4.220770299434661865e-02
-1.806651353836059570e-01
-1.704798042774200439e-01
-1.790255606174468994e-01
1.702223718166351318e-01
-8.511625975370407104e-02
-1.001944541931152344e-01
-5.037514865398406982e-02
1.002073287963867188e-02
-5.526907742023468018e-02
-1.047054976224899292e-01
5.239464342594146729e-02
1.640838980674743652e-01
9.163120388984680176e-02
4.567009210586547852e-02
-4.056157171726226807e-02
-7.256409525871276855e-02
1.884303987026214600e-02
-3.006732463836669922e-02
2.636854350566864014e-02
9.153091907501220703e-02
-6.499621272087097168e-02
-2.983389794826507568e-02
-4.271243512630462646e-02
-1.141946390271186829e-01
1.025633215904235840e-01
-1.012901067733764648e-01
4.455980658531188965e-02
-7.301717996597290039e-03
5.125254392623901367e-04
1.424027681350708008e-01
8.495101332664489746e-02
1.054010093212127686e-01
-1.177587881684303284e-01
1.809616386890411377e-01
2.482417225837707520e-02
-3.839331865310668945e-02
-1.499980688095092773e-01
-1.540910005569458008e-01
-1.781346797943115234e-01
4.887412488460540771e-02
1.856655776500701904e-01
6.536185741424560547e-03
-1.928683072328567505e-01
-7.387351244688034058e-02
7.815921306610107422e-02
-1.575323343276977539e-01
-1.510553956031799316e-01
2.007867395877838135e-02
1.699157953262329102e-01
1.372707784175872803e-01
4.227101802825927734e-03
-6.467242538928985596e-02
1.075712442398071289e-01
2.222122251987457275e-02
-1.599169075489044189e-01
-9.849861264228820801e-03
1.314382255077362061e-02
-8.109584450721740723e-03
1.919859647750854492e-01
1.668440997600555420e-01
-1.329964101314544678e-01
-1.048628911375999451e-01
-1.251695156097412109e-01
1.899679005146026611e-02
-1.471354067325592041e-02
-1.656876355409622192e-01
5.396860837936401367e-02
8.756056427955627441e-02
-3.681449592113494873e-02
7.030090689659118652e-02
6.815809011459350586e-02
7.636243104934692383e-02
8.496931195259094238e-02
-1.851133853197097778e-01
9.926313161849975586e-02
1.134696900844573975e-01
1.055994927883148193e-01
9.393990039825439453e-02
-6.548422574996948242e-02
-1.534988731145858765e-01
-2.941191196441650391e-03
-1.149005219340324402e-01
-9.684116393327713013e-02
-1.524374336004257202e-01
-5.581788718700408936e-02
1.476196050643920898e-01
1.225923597812652588e-01
1.244478821754455566e-01
1.380241811275482178e-01
-1.656719893217086792e-01
1.013875007629394531e-02
-9.959143400192260742e-02
9.568825364112854004e-03
1.918940842151641846e-01
1.616974174976348877e-02
-6.943850964307785034e-02
-2.264280617237091064e-02
1.141130924224853516e-03
-3.010708093643188477e-02
6.233018636703491211e-02
-1.232588291168212891e-02
-1.465980112552642822e-01
3.440560400485992432e-02
-1.446827501058578491e-01
-7.005838304758071899e-02
-1.546900570392608643e-01
-1.076567023992538452e-01
1.886279582977294922e-01
1.545687317848205566e-01
-2.583837509155273438e-02
9.012183547019958496e-02
9.005519747734069824e-02
6.908282637596130371e-02
1.413547694683074951e-01
-2.635584771633148193e-02
1.716068685054779053e-01
-1.761440336704254150e-01
9.257048368453979492e-02
-1.486028283834457397e-01
2.812950313091278076e-02
8.586376905441284180e-03
-1.165119782090187073e-01
5.106718838214874268e-02
2.785335481166839600e-02
1.642307937145233154e-01
-1.119171828031539917e-01
1.653375923633575439e-01
1.305707097053527832e-01
-1.239949539303779602e-01
-1.682355105876922607e-01
-6.078620254993438721e-02
-1.329933553934097290e-01
2.417673170566558838e-02
-8.963575214147567749e-02
-1.300746202468872070e-01
4.592472314834594727e-02
-1.188724413514137268e-01
-7.714259624481201172e-02
5.446985363960266113e-03
-6.247720122337341309e-02
4.040339589118957520e-02
1.509154438972473145e-01
-1.771821975708007812e-01
-1.713231950998306274e-01
9.411290287971496582e-02
-3.724332153797149658e-02
-1.911445260047912598e-01
-3.646665811538696289e-02
-8.275806903839111328e-03
-1.702601760625839233e-01
8.027076721191406250e-02
1.348235607147216797e-01
-3.976446390151977539e-02
1.209571361541748047e-01
5.738142132759094238e-02
-1.532263755798339844e-01
6.683352589607238770e-02
9.295776486396789551e-03
1.364802122116088867e-01
-1.408769041299819946e-01
-1.832385808229446411e-01
1.515600681304931641e-01
-8.210120350122451782e-02
-2.961784601211547852e-03
-7.228232175111770630e-02
3.299923241138458252e-02
7.519716024398803711e-02
5.911967158317565918e-02
-8.566106110811233521e-02
-2.526813745498657227e-02
9.165102243423461914e-02
-8.274305611848831177e-02
-3.355979919433593750e-03
-9.822472184896469116e-02
1.569645404815673828e-01
-1.421293467283248901e-01
1.591220200061798096e-01
4.427236318588256836e-02
-9.389646351337432861e-02
-6.559997797012329102e-03
-1.818491965532302856e-01
2.299858629703521729e-02
7.140800356864929199e-02
1.855004727840423584e-01
1.030911207199096680e-01
1.135591566562652588e-01
-1.930220574140548706e-01
4.198378324508666992e-02
-1.429258137941360474e-01
-1.701994240283966064e-01
-2.799597382545471191e-02
-8.037709444761276245e-02
-8.665154129266738892e-02
-8.750932663679122925e-02
1.678149998188018799e-01
-1.005239710211753845e-01
-1.577215492725372314e-01
-2.697917819023132324e-02
-3.143952786922454834e-02
3.374463319778442383e-02
-2.735874056816101074e-02
-1.693446785211563110e-01
5.779072642326354980e-02
-1.018129736185073853e-01
9.418773651123046875e-02
-1.521138846874237061e-01
1.707719266414642334e-02
1.438994407653808594e-01
-1.540218442678451538e-01
-1.748076081275939941e-01
1.382533311843872070e-01
-1.220031529664993286e-01
-1.131772994995117188e-02
4.522889852523803711e-02
-1.859818845987319946e-01
-9.363061934709548950e-02
1.532436013221740723e-01
6.596475839614868164e-03
-1.538184583187103271e-01
-1.646138280630111694e-01
-1.072769165039062500e-01
9.814220666885375977e-02
1.150670647621154785e-01
4.559862613677978516e-02
7.260257005691528320e-02
2.446372807025909424e-02
9.472891688346862793e-03
1.072886288166046143e-01
-5.621896684169769287e-02
-3.832359611988067627e-02
-1.753171831369400024e-01
1.760908067226409912e-01
1.789871454238891602e-01
-9.386064112186431885e-02
-3.042486310005187988e-02
-1.523133367300033569e-01
-8.861642330884933472e-02
1.281172037124633789e-01
-1.616053730249404907e-01
7.164487242698669434e-02
-6.385380029678344727e-02
1.773931384086608887e-01
3.378614783287048340e-02
-1.152978092432022095e-01
-9.196611493825912476e-02
-5.450533330440521240e-02
1.536627709865570068e-01
-1.785390824079513550e-01
1.534500718116760254e-02
-1.356489807367324829e-01
-1.791848540306091309e-01
-9.401826560497283936e-02
3.258116543292999268e-02
-5.412919819355010986e-02
-1.686383336782455444e-01
6.124886870384216309e-02
1.073362827301025391e-01
-1.093322932720184326e-01
-1.738753914833068848e-01
1.811849176883697510e-01
-1.112912595272064209e-02
6.670758128166198730e-02
-8.219770342111587524e-02
1.299301981925964355e-01
-1.061144545674324036e-01
5.605658888816833496e-02
1.571065187454223633e-01
-6.402084231376647949e-02
-9.683423489332199097e-02
-1.882245242595672607e-01
-5.795826017856597900e-02
-4.198119044303894043e-02
-8.346140384674072266e-02
-5.983750522136688232e-02
1.485049128532409668e-01
2.286967635154724121e-02
9.009292721748352051e-02
-1.932843476533889771e-01
1.822986304759979248e-01
1.876534223556518555e-01
1.448054313659667969e-01
-1.611137688159942627e-01
-5.052335560321807861e-02
-1.160643622279167175e-01
-1.902143359184265137e-01
-6.584545969963073730e-02
8.142861723899841309e-02
1.218909323215484619e-01
1.550469398498535156e-01
1.088162958621978760e-01
1.401858031749725342e-01
-1.525674015283584595e-01
7.568746805191040039e-02
-7.390633970499038696e-02
-1.281871050596237183e-01
1.643368899822235107e-01
8.962899446487426758e-04
-1.766027212142944336e-01
1.639820933341979980e-01
-6.550827622413635254e-02
6.195110082626342773e-02
1.780706942081451416e-01
-1.240926980972290039e-02
1.006805896759033203e-02
1.381406188011169434e-01
-1.033638119697570801e-01
-1.794800609350204468e-01
-1.471229493618011475e-01
-1.827025562524795532e-01
6.198802590370178223e-02
1.923844218254089355e-02
5.753949284553527832e-02
1.169249713420867920e-01
-4.941578209400177002e-02
7.158067822456359863e-02
1.700679659843444824e-01
-1.871112883090972900e-01
3.990352153778076172e-02
-1.069799065589904785e-03
-1.448002457618713379e-02
6.733247637748718262e-02
2.537044882774353027e-02
8.760482072830200195e-03
-2.883026003837585449e-02
3.154978156089782715e-02
3.290966153144836426e-02
-1.755297034978866577e-01
-2.689354121685028076e-02
-8.965482562780380249e-02
1.521529853343963623e-01
-9.407315403223037720e-02
7.074299454689025879e-02
1.015216410160064697e-01
-1.781332045793533325e-01
1.950973272323608398e-02
-1.655060946941375732e-01
1.029186546802520752e-01
7.137244939804077148e-02
-1.510171741247177124e-01
-6.457312405109405518e-02
6.079980731010437012e-02
-1.790132373571395874e-01
4.544986784458160400e-02
-1.337434351444244385e-01
9.550017118453979492e-02
2.327828109264373779e-02
-1.453011929988861084e-01
-1.704976260662078857e-01
1.931272149085998535e-01
-8.956792950630187988e-02
-2.664579451084136963e-02
-1.624517142772674561e-02
-1.921816766262054443e-01
-9.971872717142105103e-02
1.260451674461364746e-01
-6.807890534400939941e-02
1.174551844596862793e-01
-3.613695502281188965e-03
-1.278634071350097656e-01
-5.234968662261962891e-02
1.916216313838958740e-01
-1.050513088703155518e-01
-1.093306764960289001e-01
-7.678819447755813599e-02
1.320371031761169434e-01
-9.468490630388259888e-02
-1.875494867563247681e-01
1.682427525520324707e-01
1.840618848800659180e-01
-5.519241094589233398e-03
-1.513537019491195679e-01
1.421162188053131104e-01
7.198038697242736816e-02
-4.785580933094024658e-02
1.606138944625854492e-01
-1.219983994960784912e-01
1.810466051101684570e-01
-1.332617849111557007e-01
1.134523153305053711e-01
-5.033479630947113037e-02
-6.761042773723602295e-02
1.669144928455352783e-01
9.561771154403686523e-02
-3.363540768623352051e-02
2.076014876365661621e-02
7.141003012657165527e-02
-3.959742188453674316e-02
-1.934516578912734985e-01
-6.265158951282501221e-02
-1.497235894203186035e-01
-9.376285225152969360e-02
-4.724997282028198242e-02
-1.571604907512664795e-01
7.956230640411376953e-02
7.685351371765136719e-02
-1.537189185619354248e-01
8.678585290908813477e-03
-1.825469583272933960e-01
-6.294836103916168213e-02
-8.828838914632797241e-02
-3.403781354427337646e-02
1.583750247955322266e-01
-1.672578155994415283e-01
-1.467189192771911621e-01
-1.117425709962844849e-01
-5.446502566337585449e-02
6.498450040817260742e-02
1.401115953922271729e-01
-1.185154616832733154e-01
-7.296868413686752319e-02
1.252003014087677002e-02
1.847924292087554932e-01
-1.703018248081207275e-01
8.958441019058227539e-02
1.551112234592437744e-01
5.129927396774291992e-02
-6.973852217197418213e-02
5.712112784385681152e-02
1.592983603477478027e-01
-1.545794308185577393e-02
-8.841295540332794189e-02
3.676551580429077148e-02
1.227178573608398438e-01
2.364069223403930664e-03
-2.720868587493896484e-02
-1.188432648777961731e-01
-3.880020976066589355e-02
3.753335773944854736e-02
7.690730690956115723e-02
-9.666442126035690308e-02
-1.215110793709754944e-01
-9.280243515968322754e-02
8.587032556533813477e-03
-1.797029376029968262e-02
-3.548832237720489502e-02
1.366405189037322998e-01
3.441950678825378418e-02
-1.821476817131042480e-01
-1.796188503503799438e-01
3.089907765388488770e-02
1.620892882347106934e-01
-1.585482060909271240e-01
9.398922324180603027e-03
-9.518838673830032349e-02
1.195552051067352295e-01
-1.742750406265258789e-01
-9.017418324947357178e-02
-9.110510349273681641e-02
-1.209654957056045532e-01
-1.698969602584838867e-01
-1.135474294424057007e-01
1.934041380882263184e-01
1.152103543281555176e-01
-1.281557083129882812e-01
-9.751703590154647827e-02
1.204976141452789307e-01
-1.432660371065139771e-01
-6.338110566139221191e-02
-1.669076234102249146e-01
1.851759850978851318e-02
-1.058429330587387085e-01
5.824589729309082031e-02
1.664248704910278320e-01
-2.803212404251098633e-02
1.301011443138122559e-02
-5.071638524532318115e-02
-3.129655122756958008e-02
4.076823592185974121e-02
1.322498321533203125e-01
-2.872955799102783203e-02
4.661093652248382568e-02
1.258869469165802002e-01
1.228449344635009766e-01
-7.459823787212371826e-02
-7.877252250909805298e-02
1.487987339496612549e-01
1.460615098476409912e-01
-3.091213107109069824e-02
3.326004743576049805e-02
1.109089851379394531e-01
1.484613120555877686e-01
-1.864563673734664917e-01
5.301988124847412109e-02
-3.336641192436218262e-02
4.631786048412322998e-02
3.253214061260223389e-02
-5.179657042026519775e-02
-9.302649646997451782e-02
-2.947750687599182129e-02
1.896468400955200195e-01
-1.258134841918945312e-02
-1.913262903690338135e-01
1.161561906337738037e-02
2.448053658008575439e-02
8.043804764747619629e-02
-8.370675146579742432e-02
7.175773382186889648e-02
1.153284311294555664e-01
-5.293917655944824219e-02
-1.813924461603164673e-01
-1.510827243328094482e-01
-9.175964444875717163e-02
-4.074865579605102539e-02
1.753574907779693604e-01
-1.200283020734786987e-01
-1.014336496591567993e-01
-1.175282895565032959e-02
1.020351052284240723e-01
1.441278755664825439e-01
1.419709026813507080e-01
-3.900155425071716309e-02
-4.501388967037200928e-02
-5.793169140815734863e-03
-1.674818843603134155e-01
1.911447942256927490e-01
3.168769180774688721e-02
5.147407948970794678e-02
1.396278440952301025e-01
-5.088232457637786865e-02
-1.054697409272193909e-01
-4.528753459453582764e-02
-3.911887109279632568e-02
5.809050798416137695e-02
1.384138464927673340e-01
-1.630835384130477905e-01
-1.266755163669586182e-01
-6.266567111015319824e-02
-1.383079886436462402e-01
-1.492828577756881714e-01
-1.515159010887145996e-01
-5.578178167343139648e-02
-1.042540520429611206e-01
1.756070256233215332e-01
1.820950210094451904e-02
8.407637476921081543e-02
-1.187064647674560547e-01
1.319668591022491455e-01
-1.192737966775894165e-01
-4.924085736274719238e-02
7.465672492980957031e-02
-5.790115892887115479e-02
1.100161671638488770e-01
1.106321513652801514e-01
1.823690831661224365e-01
5.013644695281982422e-02
-3.293408453464508057e-02
-1.436508595943450928e-01
-1.620532572269439697e-01
1.039788722991943359e-01
4.847817122936248779e-02
-1.001207232475280762e-01
7.980594038963317871e-02
-5.105429887771606445e-02
-4.241828620433807373e-02
6.413730978965759277e-02
1.370446383953094482e-01
-5.398292839527130127e-02
-1.627894341945648193e-01
1.668345332145690918e-01
8.426779508590698242e-02
-1.166206151247024536e-01
1.379435062408447266e-01
5.930295586585998535e-02
2.304793894290924072e-02
-5.433815717697143555e-02
-1.355358958244323730e-02
1.222544014453887939e-01
-5.574895441532135010e-02
9.292680025100708008e-02
-1.423580646514892578e-01
-6.601831316947937012e-02
4.773244261741638184e-03
-8.521986752748489380e-02
-1.373549550771713257e-01
6.720349192619323730e-02
3.717720508575439453e-02
6.804406642913818359e-02
-8.090744912624359131e-02
5.481389164924621582e-02
-1.293138861656188965e-01
-2.908436954021453857e-02
8.523744344711303711e-02
-8.228182047605514526e-02
5.802974104881286621e-02
-1.234031543135643005e-01
1.476013958454132080e-01
-1.327825486660003662e-01
-1.823243796825408936e-01
-1.944616436958312988e-03
-6.730514764785766602e-02
6.106963753700256348e-02
-1.508369296789169312e-01
-1.627932786941528320e-01
-3.785654902458190918e-02
1.125916838645935059e-01
3.073729574680328369e-02
4.832610487937927246e-03
-6.167532503604888916e-02
1.643404364585876465e-03
-1.556489020586013794e-01
9.194585680961608887e-02
1.169258356094360352e-01
-1.365354359149932861e-01
-1.594215035438537598e-01
-1.287721246480941772e-01
-1.623550355434417725e-01
7.774618268013000488e-02
4.856076836585998535e-02
-7.291355729103088379e-02
-7.675223052501678467e-02
-4.204019904136657715e-03
-1.341142207384109497e-01
8.806747198104858398e-02
1.733654439449310303e-01
-1.455665826797485352e-01
-4.360617697238922119e-02
-3.412309288978576660e-02
-1.332018971443176270e-01
2.954657375812530518e-02
4.368932545185089111e-02
-4.915566742420196533e-02
-2.280481159687042236e-02
9.849831461906433105e-02
-2.363011240959167480e-03
1.019960343837738037e-01
-1.111509054899215698e-01
1.745614707469940186e-01
7.505038380622863770e-02
-1.384110748767852783e-01
-6.252960860729217529e-02
-1.123748719692230225e-02
-4.983505606651306152e-02
1.023277342319488525e-01
-1.920167058706283569e-01
-1.666706800460815430e-01
1.849189102649688721e-01
-1.260843575000762939e-01
4.341693222522735596e-02
-3.374324738979339600e-02
5.589148402214050293e-02
-7.480230927467346191e-02
-1.073372587561607361e-01
5.089423060417175293e-02
-1.464883536100387573e-01
1.474013626575469971e-01
6.416577100753784180e-02
2.162231504917144775e-02
1.551408469676971436e-01
-1.254770010709762573e-01
2.110119163990020752e-02
6.813806295394897461e-02
5.740821361541748047e-02
-1.731372773647308350e-01
1.009358465671539307e-02
1.354758441448211670e-02
-1.180653572082519531e-01
6.223002076148986816e-02
-5.750133097171783447e-02
2.790540456771850586e-04
3.097487986087799072e-02
-9.553021937608718872e-02
5.940225720405578613e-02
-1.843358427286148071e-01
-1.421823501586914062e-01
1.115148067474365234e-01
4.917612671852111816e-02
-1.535541415214538574e-01
-1.072874367237091064e-01
5.195949971675872803e-02
1.277871429920196533e-01
1.712394058704376221e-01
1.587073504924774170e-02
8.682698011398315430e-02
-1.806276887655258179e-01
8.050623536109924316e-02
-1.825788170099258423e-01
9.083366394042968750e-02
2.825234830379486084e-02
1.615774929523468018e-01
9.502959251403808594e-02
8.611080050468444824e-02
8.381825685501098633e-02
-1.927661746740341187e-01
9.402245283126831055e-03
-1.006676033139228821e-01
9.829729795455932617e-02
9.617280960083007812e-02
1.199545264244079590e-01
2.492445707321166992e-02
3.332957625389099121e-02
7.860624790191650391e-02
-1.550918668508529663e-01
-7.493808865547180176e-02
1.490091681480407715e-01
-5.318133533000946045e-02
2.516564726829528809e-02
8.050587773323059082e-02
3.216476738452911377e-02
9.046837687492370605e-02
-1.147989481687545776e-01
7.843816280364990234e-02
-1.652294546365737915e-01
-2.178399264812469482e-02
-1.699374020099639893e-01
-1.274132579565048218e-01
1.456283628940582275e-01
-1.640488058328628540e-01
1.856590211391448975e-01
-2.928812801837921143e-02
-1.821745634078979492e-01
1.887029409408569336e-01
1.590038239955902100e-01
4.615664482116699219e-03
8.439657092094421387e-02
-6.813333928585052490e-02
-1.053703427314758301e-01
-2.354638278484344482e-02
-1.376573592424392700e-01
-1.453146338462829590e-03
-1.664377599954605103e-01
-2.211642265319824219e-02
6.228834390640258789e-03
-5.991101264953613281e-03
-1.930820196866989136e-01
-1.208268925547599792e-01
-1.512888818979263306e-01
-3.875865042209625244e-02
-6.331883370876312256e-02
-1.525312662124633789e-02
5.277715623378753662e-02
-1.209407448768615723e-01
1.309504806995391846e-01
1.440050303936004639e-01
-7.667018473148345947e-02
-1.676513254642486572e-01
-1.708459854125976562e-01
7.372412085533142090e-02
1.960545778274536133e-03
1.503442823886871338e-01
-1.460979878902435303e-01
5.391205847263336182e-02
-1.655788719654083252e-02
-7.254078239202499390e-02
-1.003791317343711853e-01
2.588902413845062256e-02
1.874598264694213867e-01
2.580592036247253418e-02
-1.159124672412872314e-01
-4.665641486644744873e-02
8.604565262794494629e-02
1.391883790493011475e-01
1.340654194355010986e-01
8.354875445365905762e-02
1.245333552360534668e-01
-1.418120712041854858e-01
1.703321933746337891e-01
-8.131253719329833984e-02
1.284647285938262939e-01
1.309236288070678711e-01
-1.442436277866363525e-01
7.785832881927490234e-02
6.246384978294372559e-02
9.814253449440002441e-02
6.742730736732482910e-02
6.473153829574584961e-02
-7.595691084861755371e-02
-4.113869369029998779e-02
-4.603400826454162598e-02
1.474121212959289551e-01
4.225969314575195312e-04
-6.743387877941131592e-02
2.542617917060852051e-02
1.648950874805450439e-01
-7.853867113590240479e-02
-1.267668008804321289e-01
8.675569295883178711e-02
3.895491361618041992e-02
3.639473021030426025e-02
-1.650633364915847778e-01
1.177472472190856934e-01
2.371139824390411377e-02
1.118083596229553223e-01
-1.106533408164978027e-01
1.898177564144134521e-01
1.018455624580383301e-01
3.561118245124816895e-02
1.488236188888549805e-01
-1.098610237240791321e-01
-7.580810785293579102e-02
9.792351722717285156e-02
1.388095319271087646e-01
-4.044000804424285889e-02
1.730227768421173096e-01
1.201439499855041504e-01
