1.293297708034515381e-01
-1.302779018878936768e-01
-2.048419415950775146e-02
-4.074948281049728394e-02
1.483381092548370361e-01
5.626755952835083008e-02
2.973070740699768066e-02
1.306591033935546875e-01
-1.522918045520782471e-02
-9.943766891956329346e-02
2.570815384387969971e-02
3.946065902709960938e-02
-2.179901301860809326e-02
1.051772534847259521e-01
-9.038003534078598022e-02
6.149871647357940674e-02
-5.890832841396331787e-02
1.958534121513366699e-02
-6.946003437042236328e-02
-5.083107203245162964e-02
-4.665709286928176880e-02
-5.156934261322021484e-03
-7.117389142513275146e-02
-1.184082701802253723e-01
1.450593471527099609e-01
-3.770215064287185669e-02
3.680667281150817871e-02
-1.085641607642173767e-01
8.470210433006286621e-02
1.392045915126800537e-01
-9.134784340858459473e-02
4.514630138874053955e-02
-2.236537635326385498e-02
-1.030480861663818359e-02
6.922975182533264160e-02
-9.626400470733642578e-02
-7.303480803966522217e-02
6.524860858917236328e-03
-1.082129180431365967e-01
-1.757106184959411621e-02
-1.174496114253997803e-02
7.740762829780578613e-02
-2.937678247690200806e-02
-1.205040886998176575e-01
4.883010685443878174e-02
7.066649198532104492e-02
-1.374949961900711060e-01
1.275969445705413818e-01
-9.836612641811370850e-02
4.888296127319335938e-02
1.228733956813812256e-01
5.597060918807983398e-02
9.322305023670196533e-02
-1.715977489948272705e-02
-4.786945879459381104e-02
1.366134583950042725e-01
1.000368297100067139e-01
1.388192176818847656e-03
6.494934856891632080e-02
9.768256545066833496e-02
3.918930888175964355e-02
-1.325727105140686035e-01
1.094575822353363037e-01
8.494244515895843506e-02
-9.163312613964080811e-02
-9.285634756088256836e-02
2.669353783130645752e-02
-2.065573632717132568e-02
6.387376785278320312e-02
-1.413321793079376221e-01
-4.136115312576293945e-04
1.154923439025878906e-01
-3.131293505430221558e-02
-3.958602249622344971e-02
9.623500704765319824e-02
2.325847744941711426e-03
-4.729636013507843018e-02
-1.106801033020019531e-01
-1.286687552928924561e-01
4.888099431991577148e-02
-7.492527365684509277e-03
8.660247921943664551e-02
-1.467846632003784180e-01
-7.073553651571273804e-02
-1.290115416049957275e-01
9.151023626327514648e-02
-5.953109264373779297e-02
-9.761756658554077148e-02
-1.470168381929397583e-01
-9.745715558528900146e-02
2.582331001758575439e-02
-1.000934466719627380e-01
-1.143241673707962036e-01
-8.857798576354980469e-02
-2.812813967466354370e-02
9.492580592632293701e-02
7.614359259605407715e-02
-1.052085906267166138e-01
-7.761080563068389893e-02
-1.323932409286499023e-01
2.364438772201538086e-02
2.432315051555633545e-02
1.790627837181091309e-03
1.601156592369079590e-02
-6.972092390060424805e-02
-7.715074717998504639e-02
3.446765244007110596e-02
8.925496041774749756e-02
1.491351425647735596e-01
4.690617322921752930e-02
1.761199533939361572e-02
6.334842741489410400e-02
1.372104287147521973e-01
-1.244319677352905273e-01
5.260777473449707031e-02
-1.321399211883544922e-02
-4.834051430225372314e-02
3.146240115165710449e-02
2.313193678855895996e-02
2.675366401672363281e-02
5.454237759113311768e-02
-2.944195270538330078e-02
1.221721172332763672e-01
-7.967360317707061768e-02
-2.716255187988281250e-02
3.506453335285186768e-02
6.552545726299285889e-02
1.497999131679534912e-01
7.342199981212615967e-02
1.154929995536804199e-01
4.385514557361602783e-02
4.506602883338928223e-03
-7.266889512538909912e-02
-1.039300113916397095e-01
-5.296731740236282349e-02
2.638244628906250000e-02
1.303957998752593994e-01
5.900487303733825684e-02
2.175065875053405762e-02
6.993341445922851562e-02
-1.173242628574371338e-01
1.328794360160827637e-01
1.125042140483856201e-02
1.613973081111907959e-02
-3.159216046333312988e-02
-9.698316454887390137e-02
-9.206593036651611328e-02
1.466185152530670166e-01
1.359568238258361816e-01
-4.784651100635528564e-02
-2.515800297260284424e-02
-2.308209240436553955e-02
8.805251121520996094e-02
-1.292028874158859253e-01
-9.007468819618225098e-03
8.356030285358428955e-02
-9.428814053535461426e-03
-8.574954420328140259e-02
9.911221265792846680e-02
-3.968249261379241943e-02
6.572774052619934082e-02
-7.065074145793914795e-02
2.914413809776306152e-02
6.193733215332031250e-02
-1.034874022006988525e-01
6.683751940727233887e-02
1.174711585044860840e-01
2.771452069282531738e-02
7.098096609115600586e-02
-1.456298977136611938e-01
-1.495564132928848267e-01
2.204701304435729980e-03
-1.099937781691551208e-01
-8.679974079132080078e-02
1.398079395294189453e-01
-1.117277219891548157e-01
-6.540317833423614502e-02
-2.579437941312789917e-02
1.255846023559570312e-01
-5.370713770389556885e-02
4.719588160514831543e-02
1.274688541889190674e-02
-5.086404830217361450e-02
5.585749447345733643e-02
-1.085527688264846802e-01
-2.235251665115356445e-02
1.014354825019836426e-01
-5.317896604537963867e-03
-7.562577724456787109e-02
-1.052891314029693604e-01
9.313285350799560547e-02
9.884895384311676025e-02
1.484877765178680420e-01
-3.399521112442016602e-02
-1.985110342502593994e-02
3.450120985507965088e-02
-1.413365751504898071e-01
4.514002799987792969e-02
-1.472434997558593750e-01
6.896062195301055908e-02
-4.142742604017257690e-02
-4.155863076448440552e-02
8.426606655120849609e-04
4.192352294921875000e-03
-6.029573082923889160e-02
-5.916897207498550415e-02
8.474521338939666748e-02
-1.994162797927856445e-02
1.403023898601531982e-01
-1.380524486303329468e-01
-3.528589010238647461e-02
-5.423741042613983154e-02
-2.156797051429748535e-02
-8.052389323711395264e-02
5.981984734535217285e-02
-1.116672456264495850e-01
1.410807669162750244e-01
-4.252962023019790649e-02
6.225036084651947021e-02
1.367570161819458008e-01
1.367653310298919678e-01
1.098486781120300293e-01
1.384411156177520752e-01
-2.579101175069808960e-02
8.512780070304870605e-03
-1.061175018548965454e-01
-6.082113087177276611e-02
-7.666523009538650513e-02
1.081400215625762939e-01
-6.121691316366195679e-02
-1.362263262271881104e-01
-3.672345727682113647e-02
-1.106516718864440918e-01
-8.953253924846649170e-02
-8.874833583831787109e-04
4.268151521682739258e-02
1.211302578449249268e-01
-4.852513223886489868e-02
8.342334628105163574e-02
-3.197509050369262695e-02
-1.247490420937538147e-01
-7.238884270191192627e-02
4.271195828914642334e-02
1.394253075122833252e-01
-1.144896000623703003e-01
1.472719609737396240e-01
1.409811973571777344e-01
1.324257552623748779e-01
-5.221077054738998413e-02
7.960671186447143555e-02
1.494418084621429443e-02
-1.269372701644897461e-01
-4.077777266502380371e-02
1.960080862045288086e-02
-7.090726494789123535e-02
-4.024048149585723877e-02
-4.568298161029815674e-02
-7.704844325780868530e-02
-5.682708323001861572e-02
-7.043600082397460938e-02
2.242729067802429199e-03
-2.357302606105804443e-02
9.086325764656066895e-02
-9.569534659385681152e-02
-1.023082137107849121e-01
-8.716984838247299194e-02
-8.058981597423553467e-02
7.280856370925903320e-03
8.053660392761230469e-03
1.270375251770019531e-01
-1.273937523365020752e-01
1.559244096279144287e-02
-7.531546801328659058e-02
-5.951057374477386475e-02
1.362589001655578613e-02
1.075527667999267578e-01
2.773182094097137451e-02
1.121150851249694824e-01
-9.747645258903503418e-02
-1.084907203912734985e-01
3.734543919563293457e-02
-5.301791429519653320e-02
7.393121719360351562e-03
1.076312363147735596e-01
-1.094011217355728149e-01
1.602455973625183105e-03
-1.338525712490081787e-01
-1.268040388822555542e-01
9.355866909027099609e-02
-1.442965716123580933e-01
9.886492788791656494e-02
1.147293150424957275e-01
2.781507372856140137e-02
6.151024997234344482e-02
-9.308268129825592041e-02
4.654465615749359131e-02
1.380187273025512695e-01
-1.332771182060241699e-01
1.005248725414276123e-01
-7.946728169918060303e-02
-5.904167890548706055e-03
5.530568957328796387e-02
9.421560168266296387e-02
-2.671567350625991821e-02
1.009084582328796387e-01
4.190549254417419434e-02
1.174830794334411621e-01
7.204623520374298096e-02
-1.061038970947265625e-01
-6.006348133087158203e-02
1.091490983963012695e-01
-5.534611642360687256e-02
6.742806732654571533e-02
9.520384669303894043e-02
-8.268004655838012695e-02
-1.993475854396820068e-02
5.654439330101013184e-03
3.497385978698730469e-02
-4.137371480464935303e-02
-1.061424165964126587e-01
3.838293254375457764e-02
-6.899014115333557129e-03
-1.668815314769744873e-02
3.153070807456970215e-03
-8.322283625602722168e-03
1.388812363147735596e-01
1.715977489948272705e-02
-1.176086068153381348e-02
1.451988816261291504e-01
-5.921509116888046265e-02
-1.352121531963348389e-01
5.795255303382873535e-02
1.066811382770538330e-01
1.197335720062255859e-01
1.401835978031158447e-01
3.443868458271026611e-02
2.627208828926086426e-02
-1.645487546920776367e-02
1.020912826061248779e-01
6.736263632774353027e-02
9.283374249935150146e-02
-1.956672966480255127e-02
-1.019903570413589478e-01
-2.854407578706741333e-02
-3.441276401281356812e-02
5.097556114196777344e-02
-1.249954327940940857e-01
1.165801286697387695e-02
-6.223632395267486572e-02
-1.268170028924942017e-01
1.015880703926086426e-01
4.469250142574310303e-02
1.023559570312500000e-01
-1.029512882232666016e-01
-1.231142804026603699e-01
1.298618316650390625e-02
4.485979676246643066e-03
1.342589557170867920e-01
-2.444759011268615723e-03
1.670530438423156738e-02
1.364602148532867432e-02
-1.140400767326354980e-03
-6.475702673196792603e-02
8.545409142971038818e-02
-1.254779696464538574e-01
-2.669543772935867310e-02
-9.662207961082458496e-02
3.015401959419250488e-02
-5.118338018655776978e-02
-1.129528805613517761e-01
-9.199617803096771240e-02
-1.604244112968444824e-02
1.428522169589996338e-02
-4.525325447320938110e-02
1.097011566162109375e-02
-1.476353853940963745e-01
-1.497724056243896484e-01
-1.314497888088226318e-01
-1.341979503631591797e-01
-6.334663927555084229e-02
1.808729767799377441e-02
3.438529372215270996e-02
4.791060090065002441e-02
1.497775614261627197e-01
-7.515053451061248779e-02
7.386490702629089355e-03
-1.214344799518585205e-01
-8.701093494892120361e-02
2.555081248283386230e-02
1.247293055057525635e-01
6.102742254734039307e-02
-5.992515385150909424e-02
-1.123018562793731689e-01
-7.738167047500610352e-02
-9.299549460411071777e-02
9.946987032890319824e-03
3.063112497329711914e-02
8.627219498157501221e-02
1.348546147346496582e-02
-4.542176425457000732e-02
3.114295005798339844e-02
1.139425039291381836e-01
1.509879529476165771e-02
-9.032560884952545166e-02
2.920576930046081543e-02
1.482018232345581055e-01
3.292573988437652588e-02
-7.104981690645217896e-02
-1.865835487842559814e-02
-1.182903200387954712e-01
1.128737330436706543e-01
1.524260640144348145e-02
-9.836093336343765259e-02
-1.108215451240539551e-01
6.617292761802673340e-02
-1.237948387861251831e-01
-3.760854899883270264e-02
2.029372751712799072e-02
-6.969020515680313110e-02
1.311994791030883789e-01
-2.056267857551574707e-02
1.071882843971252441e-01
-1.157284677028656006e-01
7.729548215866088867e-02
-1.373111307621002197e-01
6.939941644668579102e-02
-9.725634753704071045e-02
-9.447266161441802979e-02
8.351042866706848145e-02
-1.325263679027557373e-01
1.385886669158935547e-01
-5.319684743881225586e-03
6.348374485969543457e-02
-6.673210114240646362e-02
1.400267481803894043e-01
-9.401346743106842041e-02
4.961149394512176514e-02
7.037553191184997559e-02
-2.294227480888366699e-02
7.267816364765167236e-02
-9.368456900119781494e-02
1.481686532497406006e-01
7.250496745109558105e-02
6.045202910900115967e-02
1.355223655700683594e-01
-4.260338842868804932e-02
-2.630725502967834473e-02
7.359792292118072510e-02
8.523069322109222412e-02
-2.468642592430114746e-02
-5.232754349708557129e-02
1.450871229171752930e-01
-1.486184000968933105e-01
1.322531998157501221e-01
7.416708767414093018e-02
7.892554998397827148e-02
-3.241011500358581543e-02
-5.823693424463272095e-02
1.662522554397583008e-04
-1.500442624092102051e-03
-1.424597203731536865e-02
5.562350153923034668e-03
6.945681571960449219e-02
7.451194524765014648e-02
5.722762644290924072e-02
1.054033637046813965e-03
1.333079338073730469e-01
-7.911346852779388428e-02
-1.119409576058387756e-01
4.483126103878021240e-02
-1.025640219449996948e-01
-2.391999959945678711e-02
-4.602322727441787720e-02
-1.036438792943954468e-01
-8.786767721176147461e-04
-1.036814749240875244e-01
1.439093053340911865e-01
1.341384649276733398e-02
1.781389117240905762e-03
6.157025694847106934e-02
-1.047837734222412109e-01
-1.093579381704330444e-01
2.581740915775299072e-02
3.760096430778503418e-02
-3.905947506427764893e-02
1.389643549919128418e-01
4.237128794193267822e-02
-2.055369317531585693e-02
-1.500874757766723633e-03
-3.064677119255065918e-02
-3.862455487251281738e-02
9.966805577278137207e-02
9.295742213726043701e-02
-3.700029104948043823e-02
3.218330442905426025e-02
9.232985973358154297e-02
-5.195166915655136108e-02
1.161349117755889893e-01
3.247535228729248047e-02
1.106831729412078857e-01
-1.419942229986190796e-01
1.113893985748291016e-01
1.195601522922515869e-01
9.941682219505310059e-02
1.049418747425079346e-01
-4.167020320892333984e-02
-1.419947147369384766e-01
-1.005217060446739197e-01
-9.577053785324096680e-02
-6.983608752489089966e-02
-1.578347384929656982e-02
8.884277939796447754e-02
9.331345558166503906e-03
-9.440173208713531494e-02
3.880698978900909424e-02
1.014599800109863281e-01
-1.095620393753051758e-01
-7.723765075206756592e-02
6.457437574863433838e-02
1.230217516422271729e-01
-1.216168701648712158e-02
4.634520411491394043e-02
-1.350267082452774048e-01
-9.897260367870330811e-02
3.786665201187133789e-02
-1.010753288865089417e-01
8.703400194644927979e-02
-3.591521084308624268e-02
-1.384290307760238647e-01
-8.976496756076812744e-02
-6.844750046730041504e-02
5.832004547119140625e-02
3.197702765464782715e-02
9.186685085296630859e-03
1.238357424736022949e-01
-7.320095598697662354e-02
-6.095230579376220703e-03
2.677655220031738281e-02
5.136470496654510498e-02
-2.894584089517593384e-02
2.067372202873229980e-02
3.711813688278198242e-02
2.353793382644653320e-02
1.403308808803558350e-01
-1.482705026865005493e-01
6.723313033580780029e-02
8.704867959022521973e-02
1.188101470470428467e-01
1.654370129108428955e-02
-1.074134111404418945e-01
6.964182853698730469e-02
4.922810196876525879e-02
6.829939782619476318e-02
-8.169304579496383667e-02
5.723167955875396729e-02
-5.938574671745300293e-03
-5.298078060150146484e-02
-9.987297654151916504e-02
4.390460252761840820e-02
4.721175134181976318e-02
-1.733189821243286133e-02
2.169343829154968262e-02
-7.599566876888275146e-02
-3.833623230457305908e-02
9.643344581127166748e-02
6.043112277984619141e-02
-7.342210412025451660e-02
1.248529851436614990e-01
1.273166835308074951e-01
-2.357022464275360107e-02
-1.270731240510940552e-01
-1.333816647529602051e-01
-7.111581414937973022e-02
-1.055098101496696472e-01
1.162418425083160400e-01
-5.191761255264282227e-02
-3.671572357416152954e-02
-2.405166625976562500e-02
5.598363280296325684e-02
-1.140679642558097839e-01
3.002128005027770996e-02
9.781812131404876709e-02
-7.856890559196472168e-02
4.486832022666931152e-02
-7.193974405527114868e-02
-5.847372859716415405e-02
-1.377708613872528076e-01
1.232005655765533447e-01
-4.892779141664505005e-02
8.194491267204284668e-02
-8.944585174322128296e-02
-8.359281718730926514e-02
-1.469051539897918701e-01
-4.296035319566726685e-02
1.351941823959350586e-01
-5.379053205251693726e-02
9.152029454708099365e-02
5.689859390258789062e-02
7.804346084594726562e-02
-1.175762414932250977e-01
6.450967490673065186e-02
-4.377239197492599487e-02
-1.092887222766876221e-01
-1.092896908521652222e-01
-7.489719986915588379e-02
1.033208966255187988e-01
9.130057692527770996e-02
1.470266282558441162e-02
6.257420778274536133e-02
7.403162121772766113e-02
2.305421233177185059e-02
1.152847707271575928e-01
1.446234285831451416e-01
-7.404823601245880127e-02
-2.811381220817565918e-02
7.453478872776031494e-02
-8.263030648231506348e-02
5.969126522541046143e-02
-8.418929576873779297e-02
-8.708498626947402954e-02
-9.582382440567016602e-02
7.322362065315246582e-02
1.313179731369018555e-01
-7.769820839166641235e-02
-1.234173551201820374e-01
-2.724068611860275269e-02
3.357596695423126221e-02
4.169222712516784668e-02
1.269663572311401367e-01
6.476755440235137939e-02
-1.331806480884552002e-01
1.239594221115112305e-01
3.191393613815307617e-02
6.855928897857666016e-02
7.680788636207580566e-02
1.215645074844360352e-01
-6.280361860990524292e-02
-4.564277082681655884e-02
1.065430045127868652e-01
2.862103283405303955e-02
1.294485628604888916e-01
-4.227123409509658813e-02
5.273596942424774170e-02
1.145842373371124268e-01
1.227848231792449951e-02
-3.922952711582183838e-02
1.459240913391113281e-01
-1.342753171920776367e-01
1.253208518028259277e-01
1.346112787723541260e-01
-6.710174679756164551e-02
1.243165433406829834e-01
5.476266145706176758e-03
7.178139686584472656e-02
-9.122616797685623169e-02
-9.306065738201141357e-02
5.473358929157257080e-02
-1.168223917484283447e-01
-1.092615425586700439e-01
-1.192848011851310730e-01
1.017576754093170166e-01
-1.156293153762817383e-01
7.166148722171783447e-02
-1.291630417108535767e-01
-7.375694066286087036e-02
-1.179082840681076050e-01
2.912841737270355225e-02
-1.175182759761810303e-01
-2.350921928882598877e-02
-1.253918260335922241e-01
6.088955700397491455e-02
-1.213540509343147278e-01
-1.086373478174209595e-01
-7.735040783882141113e-02
6.815767288208007812e-02
9.542828798294067383e-02
3.975600004196166992e-02
4.307150840759277344e-03
-5.612819641828536987e-02
-5.048774927854537964e-02
-1.069109961390495300e-01
6.250487267971038818e-02
-9.571339190006256104e-02
-4.759678989648818970e-02
1.911705732345581055e-02
-1.168967634439468384e-01
8.053328096866607666e-02
1.489142775535583496e-01
6.568759679794311523e-02
-1.149899736046791077e-01
1.029079854488372803e-01
-1.411251276731491089e-01
-1.481520086526870728e-01
3.060662746429443359e-02
1.839524507522583008e-02
-1.499679535627365112e-01
1.979392766952514648e-02
-6.380572915077209473e-02
-5.358897149562835693e-02
3.922995924949645996e-02
-3.753837198019027710e-02
-1.044762581586837769e-01
1.276225149631500244e-01
1.432613432407379150e-01
-8.758836984634399414e-02
2.979698777198791504e-02
1.730725169181823730e-03
-2.973350137472152710e-02
1.976417005062103271e-02
-2.663789689540863037e-02
-8.734405040740966797e-03
-4.823208600282669067e-02
-1.500919610261917114e-01
7.820917665958404541e-02
6.132781505584716797e-02
-5.024071037769317627e-02
-4.440547525882720947e-02
8.639508485794067383e-02
1.173779070377349854e-01
2.972605824470520020e-02
-7.177825272083282471e-02
6.167761981487274170e-02
-1.017533391714096069e-01
1.122928261756896973e-01
1.164025068283081055e-02
1.492047905921936035e-01
5.625306069850921631e-02
7.295861840248107910e-02
9.251706302165985107e-02
1.876786351203918457e-03
1.367295682430267334e-01
-7.467658817768096924e-02
6.264893710613250732e-02
1.390576958656311035e-01
5.799223482608795166e-02
-9.510974586009979248e-02
-8.340582251548767090e-03
-6.130077689886093140e-02
1.038086414337158203e-01
3.045645356178283691e-02
6.202115118503570557e-02
1.214056909084320068e-01
-1.132765412330627441e-01
7.540021836757659912e-02
2.335231006145477295e-02
-3.882797807455062866e-02
-7.515966892242431641e-03
1.303488910198211670e-01
1.002755761146545410e-02
-1.040875688195228577e-01
4.160192608833312988e-02
1.716296374797821045e-02
-1.285288482904434204e-01
5.215169489383697510e-02
2.414132654666900635e-02
1.039347648620605469e-01
-2.952627837657928467e-02
-1.116562858223915100e-01
9.803824126720428467e-02
1.547782123088836670e-02
-5.445998907089233398e-02
-3.632806986570358276e-02
3.187477588653564453e-03
9.737265110015869141e-02
1.386775076389312744e-01
-7.590783387422561646e-02
-9.596942365169525146e-02
1.488544344902038574e-01
6.918460130691528320e-02
2.798418700695037842e-02
1.231403052806854248e-01
-4.205549508333206177e-02
-1.234668791294097900e-01
3.123405575752258301e-02
-1.364349126815795898e-01
1.096465885639190674e-01
-6.412166357040405273e-02
4.346774518489837646e-02
1.291798055171966553e-02
1.186112761497497559e-01
-1.296502053737640381e-01
-8.481980115175247192e-02
1.349648237228393555e-01
-3.553411364555358887e-02
-1.152756810188293457e-01
1.214410364627838135e-02
-1.111488193273544312e-01
5.014163255691528320e-02
-1.118692308664321899e-01
2.079901099205017090e-02
1.141713559627532959e-02
-4.731146991252899170e-02
-8.969113230705261230e-03
-2.681779861450195312e-02
4.617619514465332031e-02
9.616622328758239746e-02
-8.979547768831253052e-02
-9.186968207359313965e-03
-3.509371727705001831e-02
-1.055775582790374756e-02
1.216463148593902588e-01
7.423025369644165039e-02
5.730240046977996826e-02
-5.975725501775741577e-02
1.493296623229980469e-01
4.366911947727203369e-02
1.085352301597595215e-01
8.235305547714233398e-02
5.414333939552307129e-02
-9.350442886352539062e-02
5.468869209289550781e-02
-7.454410195350646973e-02
-6.488568335771560669e-02
4.713669419288635254e-02
-2.203468978404998779e-02
6.905734539031982422e-03
9.892261028289794922e-02
-9.450381249189376831e-02
-1.134679690003395081e-01
-1.876279711723327637e-03
1.240262389183044434e-01
6.081247329711914062e-02
-3.727804869413375854e-02
9.541472792625427246e-02
-6.534653156995773315e-02
-4.669916629791259766e-02
-1.067372262477874756e-01
3.187182545661926270e-02
-4.055551439523696899e-02
-3.195947408676147461e-02
1.417322754859924316e-01
-4.398695379495620728e-02
-4.681579023599624634e-02
1.093851923942565918e-01
6.566958129405975342e-02
-1.464589983224868774e-01
5.135765671730041504e-02
6.199246644973754883e-02
6.084240972995758057e-02
8.754894137382507324e-02
1.430819332599639893e-01
2.981416881084442139e-02
2.213087677955627441e-02
-3.051131963729858398e-03
1.466199159622192383e-01
8.999367058277130127e-02
-2.704452723264694214e-02
5.418881773948669434e-02
4.286599159240722656e-02
1.485325098037719727e-01
3.156647086143493652e-03
-4.070788621902465820e-03
-7.665950059890747070e-02
6.597048044204711914e-02
1.351618468761444092e-01
-1.345368623733520508e-01
-9.937281906604766846e-02
3.316056728363037109e-02
-4.304140806198120117e-03
6.116814911365509033e-02
9.214451909065246582e-02
7.436792552471160889e-02
1.977373659610748291e-02
2.711510658264160156e-02
1.326159536838531494e-01
-4.581482708454132080e-02
8.194735646247863770e-02
2.611571550369262695e-02
-4.457399249076843262e-03
-1.179848089814186096e-01
-5.155187845230102539e-02
-8.211285620927810669e-02
-6.349484622478485107e-02
3.601561486721038818e-02
4.567027091979980469e-02
-3.575915843248367310e-02
1.226161122322082520e-01
-1.313852220773696899e-01
1.471824347972869873e-01
-8.756201714277267456e-02
1.027570366859436035e-01
-3.473778814077377319e-02
-8.424784243106842041e-02
-1.099315807223320007e-01
-6.216499209403991699e-02
-1.184726506471633911e-01
-1.728679239749908447e-02
-1.227634698152542114e-01
1.207514107227325439e-01
6.945534050464630127e-02
-4.210118204355239868e-02
3.463247418403625488e-02
1.334007084369659424e-01
-8.690089732408523560e-02
1.180661320686340332e-01
9.349060058593750000e-02
-4.798422753810882568e-02
-1.319807022809982300e-01
1.311682164669036865e-02
-6.581234931945800781e-02
-6.809021532535552979e-02
1.451881527900695801e-01
1.339804232120513916e-01
1.118706166744232178e-01
-9.437483549118041992e-02
1.471117734909057617e-01
7.930919528007507324e-02
8.600546419620513916e-02
-4.743471741676330566e-03
1.058864295482635498e-01
6.165027618408203125e-03
1.053573191165924072e-02
-3.912746906280517578e-04
3.043723106384277344e-02
-5.830203741788864136e-02
6.553885340690612793e-02
4.835386574268341064e-02
8.682268857955932617e-02
7.272958755493164062e-02
-6.195336580276489258e-02
-1.258266717195510864e-01
-1.071419864892959595e-01
9.243398904800415039e-03
-8.902371674776077271e-02
9.711618721485137939e-02
6.225645542144775391e-03
-8.022844791412353516e-02
2.941310405731201172e-03
-1.154661774635314941e-01
-1.176714226603507996e-01
2.540872991085052490e-02
-1.075218319892883301e-01
5.427420139312744141e-03
1.235094666481018066e-01
-5.082175135612487793e-03
-1.083889156579971313e-01
-9.081356227397918701e-02
-3.037986159324645996e-02
4.399567842483520508e-03
9.439699351787567139e-02
3.511931002140045166e-02
-1.433481425046920776e-01
1.359240710735321045e-01
4.434965550899505615e-02
6.440751254558563232e-02
-1.796966791152954102e-02
1.402801275253295898e-02
1.010671257972717285e-01
-9.612099081277847290e-02
-1.186407655477523804e-01
-9.652346372604370117e-02
9.270137548446655273e-02
4.794043302536010742e-02
5.169513821601867676e-02
5.664926767349243164e-02
-1.404898315668106079e-01
1.388907432556152344e-01
-4.197610914707183838e-02
-1.079376712441444397e-01
-3.488209098577499390e-02
4.963070154190063477e-03
1.427088081836700439e-01
-9.811783581972122192e-02
-1.381690055131912231e-01
-1.368701905012130737e-01
6.996008753776550293e-02
1.348779201507568359e-01
1.321126818656921387e-01
-1.213179230690002441e-01
-1.046294122934341431e-01
1.150371730327606201e-01
-1.083384603261947632e-01
-7.338092476129531860e-02
-1.593008637428283691e-03
-8.313938230276107788e-02
9.888766705989837646e-02
1.244170069694519043e-01
-1.277405470609664917e-01
1.104622781276702881e-01
-5.191002786159515381e-02
-1.446384936571121216e-01
7.589329779148101807e-02
3.439192473888397217e-02
-2.508488297462463379e-02
-2.155727148056030273e-02
1.694829761981964111e-02
-2.184110879898071289e-02
-8.239591121673583984e-02
-1.074771583080291748e-02
6.602497398853302002e-02
1.497641205787658691e-02
7.082709670066833496e-02
5.523128807544708252e-02
1.019532084465026855e-01
-2.098424732685089111e-02
7.404658198356628418e-02
-8.680167794227600098e-02
-7.955446839332580566e-03
-4.627168178558349609e-03
-1.070119366049766541e-01
2.411460876464843750e-02
7.661764323711395264e-02
6.154283881187438965e-02
1.470781862735748291e-02
4.875883460044860840e-03
1.475942134857177734e-02
-6.796735525131225586e-02
-5.619812756776809692e-02
-1.427663713693618774e-01
-3.005225956439971924e-02
6.327992677688598633e-02
-8.750438690185546875e-03
-2.251373231410980225e-02
2.370786666870117188e-02
1.050239801406860352e-02
-4.363141953945159912e-02
7.482239603996276855e-02
1.425714492797851562e-01
-3.434315323829650879e-02
7.547169923782348633e-02
3.929544985294342041e-02
1.488328874111175537e-01
2.257846295833587646e-02
6.293144822120666504e-02
1.842628419399261475e-02
6.099991500377655029e-02
6.996001303195953369e-02
2.628454566001892090e-02
-5.660682916641235352e-02
1.153324842453002930e-01
1.307700574398040771e-01
-2.476698160171508789e-02
1.222180128097534180e-01
1.217018961906433105e-01
-2.334345877170562744e-02
1.030390262603759766e-01
-4.055511951446533203e-02
-9.469664096832275391e-02
1.127856671810150146e-01
8.174772560596466064e-02
1.132453680038452148e-01
-4.577869176864624023e-02
-1.205653175711631775e-01
4.448832571506500244e-02
1.102961301803588867e-01
1.026903092861175537e-01
1.726014912128448486e-02
-1.462800800800323486e-02
8.361981809139251709e-02
6.590619683265686035e-02
1.184961795806884766e-01
4.678864777088165283e-02
1.090731918811798096e-01
-7.987058162689208984e-02
-8.560270071029663086e-03
-1.132241189479827881e-01
-5.748730152845382690e-02
-1.184951066970825195e-01
1.403826475143432617e-01
-9.287148714065551758e-02
1.474629938602447510e-01
-5.223125219345092773e-02
7.706333696842193604e-02
-7.236875593662261963e-02
-2.807263284921646118e-02
-5.981651693582534790e-02
-5.961488187313079834e-02
1.274527609348297119e-01
9.597614407539367676e-03
-3.769968450069427490e-02
-2.167528867721557617e-02
3.076553344726562500e-03
-1.286052614450454712e-01
-1.215764135122299194e-01
1.290877461433410645e-01
-1.027368009090423584e-01
-6.363650411367416382e-02
-1.378061324357986450e-01
-9.593124687671661377e-02
-2.976235747337341309e-02
1.401085257530212402e-01
-2.962221205234527588e-02
-4.142714291810989380e-02
1.477250754833221436e-01
1.644641160964965820e-03
-1.208113878965377808e-01
-1.141252890229225159e-01
-5.965366959571838379e-03
1.341486573219299316e-01
-3.617721796035766602e-02
3.231938183307647705e-02
4.589110612869262695e-04
-4.615306109189987183e-02
-1.312177777290344238e-01
-9.973268210887908936e-02
9.351198375225067139e-02
1.387143731117248535e-01
1.009999215602874756e-02
7.982517778873443604e-02
1.245189905166625977e-01
1.039679646492004395e-01
-8.867935836315155029e-02
1.091153919696807861e-01
9.203048050403594971e-02
-1.013771444559097290e-01
-6.473633646965026855e-02
1.268854141235351562e-01
7.941386103630065918e-02
-4.596292227506637573e-02
-1.343833506107330322e-01
1.121405065059661865e-01
-3.152996301651000977e-02
3.783814609050750732e-02
-7.437601685523986816e-02
6.630288064479827881e-02
-1.075335443019866943e-01
-5.523926764726638794e-02
9.774744510650634766e-02
1.259830296039581299e-01
-8.539140224456787109e-03
-1.270627081394195557e-01
1.270603239536285400e-01
-1.315848827362060547e-01
9.339775145053863525e-02
-9.108687937259674072e-02
7.451738417148590088e-02
6.226646900177001953e-02
-9.500128775835037231e-02
3.920714557170867920e-02
-9.913431107997894287e-02
6.389349699020385742e-02
8.186370134353637695e-02
-1.261177808046340942e-01
-1.439927518367767334e-01
1.385963261127471924e-01
-1.100258603692054749e-01
1.172164976596832275e-01
-1.047516912221908569e-01
1.964783668518066406e-02
6.540235877037048340e-02
-8.548420667648315430e-02
1.056949198246002197e-01
-9.782904386520385742e-02
-5.317471176385879517e-02
-3.887843340635299683e-02
1.085520684719085693e-01
-6.703421473503112793e-02
-1.686196029186248779e-02
2.101682126522064209e-02
1.094485819339752197e-01
1.552523672580718994e-02
-1.162435263395309448e-01
1.192462742328643799e-01
8.106641471385955811e-02
-8.571964502334594727e-02
-3.107997030019760132e-02
5.113984644412994385e-02
5.277216434478759766e-02
1.327030956745147705e-01
8.708612620830535889e-02
1.252939701080322266e-01
1.066763699054718018e-01
1.012995839118957520e-03
3.666727244853973389e-02
1.128497123718261719e-01
-5.334465205669403076e-02
7.200706005096435547e-02
-1.482822000980377197e-01
-2.692958712577819824e-02
-1.366405189037322998e-01
-6.881742924451828003e-02
1.472687125205993652e-01
-1.370273530483245850e-02
1.431220173835754395e-01
1.458783447742462158e-01
-1.076448708772659302e-01
-1.209627091884613037e-02
5.074301362037658691e-02
1.238041222095489502e-01
-3.087987750768661499e-02
5.785390734672546387e-02
-5.699194222688674927e-02
1.251007914543151855e-01
-2.460098266601562500e-02
-3.483121097087860107e-02
1.108590960502624512e-01
-4.266820102930068970e-02
-1.100047677755355835e-01
9.582817554473876953e-03
-3.025875985622406006e-02
2.494440972805023193e-02
-1.445777416229248047e-01
-1.180055737495422363e-01
1.962441205978393555e-02
6.408736109733581543e-02
-1.214321851730346680e-01
-1.000651270151138306e-01
-7.426895201206207275e-02
7.282200455665588379e-02
-1.116834580898284912e-02
5.954918265342712402e-02
1.353514492511749268e-01
-3.784140944480895996e-02
-1.012701243162155151e-01
-1.454109698534011841e-01
1.402248442173004150e-01
-4.769521951675415039e-02
1.232501566410064697e-01
1.064439713954925537e-01
1.125770211219787598e-01
9.146690368652343750e-03
1.426850855350494385e-01
-1.045000404119491577e-01
7.730171084403991699e-02
8.854722976684570312e-02
3.014822304248809814e-02
1.290629804134368896e-02
-9.577155113220214844e-02
-1.050480008125305176e-01
-1.015889868140220642e-01
-6.882607936859130859e-03
-8.099766075611114502e-02
4.738448560237884521e-02
1.040278375148773193e-01
-1.233027353882789612e-01
-1.436506062746047974e-01
-7.341315597295761108e-02
9.403251111507415771e-02
6.939998269081115723e-02
7.251019775867462158e-02
4.256632924079895020e-02
9.509836137294769287e-02
-9.614111483097076416e-02
9.571819007396697998e-02
-1.061990335583686829e-01
8.514621853828430176e-02
-1.405488401651382446e-01
1.473075747489929199e-01
-2.861347049474716187e-02
-1.452586501836776733e-01
9.669080376625061035e-02
9.194707870483398438e-02
-1.416950076818466187e-01
1.659175753593444824e-02
-3.284940123558044434e-02
1.236082315444946289e-01
-8.689703047275543213e-02
-9.952454268932342529e-02
-2.476261556148529053e-02
1.215018332004547119e-01
1.278066933155059814e-01
8.973969519138336182e-02
9.927149116992950439e-02
1.365934312343597412e-02
-2.419324219226837158e-02
5.649435520172119141e-02
4.557673633098602295e-02
3.844612836837768555e-02
6.785835325717926025e-02
3.907136619091033936e-02
1.206877827644348145e-01
1.876105368137359619e-02
-1.453459560871124268e-01
1.137338280677795410e-01
-9.235242009162902832e-02
-4.464248567819595337e-02
9.098757803440093994e-02
-5.270510911941528320e-03
1.406180560588836670e-01
-1.756805181503295898e-02
-1.140542477369308472e-01
-4.529909044504165649e-02
1.309827864170074463e-01
-6.556839495897293091e-02
-1.255001723766326904e-01
-1.128773242235183716e-01
-5.281484872102737427e-02
-9.266029298305511475e-02
7.834252715110778809e-02
7.260286808013916016e-02
-4.558572918176651001e-02
-6.589159369468688965e-03
3.676563501358032227e-02
-4.291054606437683105e-02
-9.708024561405181885e-02
-1.225262507796287537e-01
-1.038674265146255493e-01
-1.184058710932731628e-01
3.096847236156463623e-02
-3.928936272859573364e-02
-3.122606873512268066e-02
-1.152732074260711670e-01
8.369515836238861084e-02
5.765688419342041016e-02
8.438655734062194824e-02
-1.314051598310470581e-01
-2.397675812244415283e-02
-1.006605327129364014e-01
2.307415008544921875e-02
2.138106524944305420e-02
1.464784145355224609e-05
2.032123506069183350e-02
6.914889812469482422e-02
1.817567646503448486e-02
2.038061618804931641e-03
1.392786502838134766e-01
-4.554497450590133667e-02
-1.225306168198585510e-01
-4.412502795457839966e-02
1.344255805015563965e-01
-5.190866440534591675e-02
1.121532917022705078e-02
5.291227996349334717e-02
-3.095890581607818604e-02
-1.414600759744644165e-01
1.087720096111297607e-01
1.038789153099060059e-01
-7.193318754434585571e-02
7.534325122833251953e-04
2.041533589363098145e-03
-9.304186701774597168e-02
3.776729106903076172e-03
-4.618252813816070557e-02
-1.798066496849060059e-02
-9.164962917566299438e-02
9.499882161617279053e-02
1.281476020812988281e-01
4.438588023185729980e-02
-3.529316186904907227e-02
-1.475462168455123901e-01
-2.208396792411804199e-03
-6.730318069458007812e-03
4.161509871482849121e-02
1.301896870136260986e-01
-7.723654061555862427e-02
6.217065453529357910e-02
-1.100368201732635498e-01
7.327368855476379395e-02
3.712965548038482666e-02
3.565828502178192139e-02
-1.248720735311508179e-01
1.419726312160491943e-01
-7.641712576150894165e-02
5.421710014343261719e-02
-2.189403772354125977e-02
-8.071306347846984863e-02
-3.169310092926025391e-02
-5.367781221866607666e-02
1.310271024703979492e-01
-1.037923693656921387e-01
9.666609764099121094e-02
-6.170690059661865234e-03
1.100465953350067139e-01
-6.992957741022109985e-02
-1.356817781925201416e-01
-5.967321246862411499e-02
-1.194807440042495728e-01
-9.281738102436065674e-02
-1.116319745779037476e-01
-1.472541391849517822e-01
1.027629375457763672e-01
-9.012988209724426270e-02
8.731678128242492676e-03
-6.028302013874053955e-02
4.190893471240997314e-02
-7.654323428869247437e-02
1.239297688007354736e-01
-1.462035030126571655e-01
-7.827241718769073486e-02
-2.771459519863128662e-02
-1.386329531669616699e-01
-2.901677787303924561e-02
-1.816281676292419434e-02
5.416002869606018066e-02
1.241807043552398682e-01
-1.450202465057373047e-01
1.006278097629547119e-01
-6.668902933597564697e-02
1.440709829330444336e-02
3.707975149154663086e-02
-3.226767480373382568e-02
-6.568111479282379150e-02
7.632659375667572021e-02
7.648329436779022217e-02
-9.325201809406280518e-02
6.024678051471710205e-02
-7.879219949245452881e-02
-1.277488172054290771e-01
-4.295268654823303223e-02
9.087941050529479980e-02
6.034192442893981934e-02
-4.619950801134109497e-02
-1.435536742210388184e-01
-9.665504097938537598e-03
6.318211555480957031e-03
1.188061535358428955e-01
-3.261250257492065430e-02
6.028264760971069336e-04
-1.286459118127822876e-01
-1.402443349361419678e-01
-1.456488817930221558e-01
-5.865194648504257202e-02
-8.756741881370544434e-02
-7.540538907051086426e-03
-7.720975577831268311e-02
1.230894923210144043e-01
-1.434960663318634033e-01
-5.383450537919998169e-02
-6.939647346735000610e-02
-7.825272530317306519e-02
-4.555264115333557129e-02
-9.293286502361297607e-02
-2.191570401191711426e-02
1.213786303997039795e-01
-1.420549154281616211e-01
1.003135144710540771e-01
-6.330997496843338013e-02
4.652671515941619873e-02
-1.191264241933822632e-01
-1.417750716209411621e-01
1.482958495616912842e-01
2.742846310138702393e-02
-5.708443373441696167e-02
1.383955776691436768e-01
5.450578033924102783e-02
1.364577710628509521e-01
-1.338075399398803711e-01
-7.982937246561050415e-02
1.030282676219940186e-01
-8.355496823787689209e-02
-9.641303867101669312e-02
-1.445512771606445312e-01
-7.424449920654296875e-02
-1.156727522611618042e-01
8.255729079246520996e-02
6.515543162822723389e-02
-4.576887935400009155e-02
5.437834560871124268e-02
6.874488294124603271e-02
-1.302808523178100586e-02
-3.411702811717987061e-02
1.161010563373565674e-01
5.504985153675079346e-02
6.157341599464416504e-02
-7.944124937057495117e-02
3.402620553970336914e-03
-1.195944324135780334e-01
2.948901057243347168e-02
-3.571175038814544678e-02
6.239719688892364502e-02
-1.278076916933059692e-01
4.923774302005767822e-02
-1.536570489406585693e-02
-1.050502955913543701e-01
-5.854755640029907227e-03
-1.794038712978363037e-02
-1.333988606929779053e-01
1.023828387260437012e-01
-5.604997277259826660e-03
-1.460075974464416504e-01
6.465132534503936768e-02
9.192526340484619141e-03
4.644621908664703369e-02
1.267674267292022705e-01
-5.546793341636657715e-02
7.969598472118377686e-02
-1.052474081516265869e-01
-1.051985695958137512e-01
2.915090322494506836e-02
-5.575013905763626099e-02
-1.359701305627822876e-01
5.866289138793945312e-03
6.870202720165252686e-02
-8.088150620460510254e-02
-7.277939468622207642e-02
9.469419717788696289e-02
-5.600823462009429932e-02
1.525437831878662109e-02
1.398764848709106445e-01
-9.087951481342315674e-02
1.011314392089843750e-01
1.213720142841339111e-01
3.564286231994628906e-02
-1.258890777826309204e-01
-2.698469161987304688e-02
-1.276755332946777344e-02
-3.541781008243560791e-02
6.335623562335968018e-02
1.306962072849273682e-01
1.139976680278778076e-01
-1.050160229206085205e-01
-9.857460856437683105e-03
-4.002165794372558594e-02
-4.080340266227722168e-03
5.291388928890228271e-02
3.901396691799163818e-02
-6.252102553844451904e-02
-1.062536090612411499e-01
-6.110423058271408081e-02
-9.090805053710937500e-02
1.178876757621765137e-01
1.163742244243621826e-01
-4.521003365516662598e-02
7.335388660430908203e-02
-6.999643146991729736e-02
-5.555183440446853638e-02
-1.218324452638626099e-01
-1.131677627563476562e-01
-4.417741298675537109e-02
1.178178489208221436e-01
1.170043349266052246e-01
1.140685975551605225e-01
-8.680851757526397705e-02
1.584109663963317871e-02
1.036178767681121826e-01
3.820374608039855957e-03
5.227655172348022461e-02
1.078777313232421875e-01
-1.277299225330352783e-02
-1.323182284832000732e-01
-7.326644659042358398e-02
-4.375749826431274414e-02
1.058150231838226318e-01
-1.061430647969245911e-01
1.101056039333343506e-01
-7.639145106077194214e-02
4.419013857841491699e-03
5.812413990497589111e-02
-1.046759188175201416e-01
-1.436435580253601074e-01
-9.486059844493865967e-02
-1.214464008808135986e-01
1.199021935462951660e-01
-1.405716538429260254e-01
7.949769496917724609e-05
9.749603271484375000e-02
-1.005038022994995117e-01
-1.257183551788330078e-01
-1.221619099378585815e-01
-3.565968573093414307e-02
1.288266181945800781e-01
8.562105894088745117e-02
1.000175476074218750e-01
-3.319763392210006714e-02
-5.775263905525207520e-02
6.572878360748291016e-02
-1.589033007621765137e-02
-9.462752938270568848e-02
-8.887375891208648682e-02
-1.243845522403717041e-01
3.095641732215881348e-03
-1.276026517152786255e-01
-1.271190643310546875e-01
1.246087849140167236e-01
1.500771641731262207e-01
1.593688130378723145e-02
-1.335758864879608154e-01
4.647447168827056885e-02
-6.470646709203720093e-02
-1.378051936626434326e-01
1.216904222965240479e-01
1.304648518562316895e-01
2.429203689098358154e-02
1.173833608627319336e-01
6.979644298553466797e-03
-1.676882803440093994e-02
5.854649841785430908e-02
-1.162129789590835571e-01
1.239054501056671143e-01
5.597472190856933594e-03
-1.625376939773559570e-02
-5.295643210411071777e-02
1.162447035312652588e-02
-1.310598403215408325e-01
-1.235153228044509888e-01
4.400864243507385254e-03
1.499202251434326172e-01
-1.379588842391967773e-01
-3.120622783899307251e-02
5.245913565158843994e-02
2.489542961120605469e-02
1.348350644111633301e-01
3.265464305877685547e-02
1.387953162193298340e-01
7.511383295059204102e-02
4.300250113010406494e-02
-1.113210543990135193e-01
2.589946985244750977e-02
-9.115226566791534424e-02
1.306417882442474365e-01
1.291984021663665771e-01
4.026143252849578857e-02
-3.314499557018280029e-02
1.035539507865905762e-01
1.226328611373901367e-01
1.467535793781280518e-01
1.131931841373443604e-01
-1.451487541198730469e-01
-8.536383509635925293e-03
4.732188582420349121e-02
3.824169933795928955e-02
6.832489371299743652e-02
7.130157947540283203e-02
-1.026546582579612732e-01
-8.808838576078414917e-02
-7.178843021392822266e-03
-1.126709654927253723e-01
-1.064962372183799744e-01
-5.025002360343933105e-02
-8.014465123414993286e-02
1.379531323909759521e-01
-6.851094961166381836e-02
-8.782058954238891602e-03
5.542695522308349609e-03
-1.343659460544586182e-01
-4.579935222864151001e-02
1.269978284835815430e-01
1.436839997768402100e-02
-3.527629375457763672e-02
-1.757445931434631348e-02
1.119530200958251953e-01
-3.434587270021438599e-02
-6.588826328516006470e-02
2.121369540691375732e-02
-1.058365181088447571e-01
-6.807292252779006958e-02
1.019879579544067383e-01
1.283493340015411377e-01
8.570718765258789062e-02
-1.931034028530120850e-02
-1.198346614837646484e-01
-3.307925164699554443e-02
-2.804456651210784912e-02
-4.187645763158798218e-02
-1.215230971574783325e-01
1.084109246730804443e-01
-1.316666752099990845e-01
8.687949180603027344e-02
-1.608046889305114746e-02
-1.236617788672447205e-01
-1.274800449609756470e-01
1.216003596782684326e-01
1.215222477912902832e-01
1.420296728610992432e-02
-7.273484766483306885e-02
1.510266959667205811e-02
2.149596810340881348e-03
-5.727067589759826660e-03
2.760344743728637695e-02
1.571983098983764648e-03
1.047547757625579834e-01
-1.010277047753334045e-01
-6.310737878084182739e-02
1.241540312767028809e-01
-3.895957022905349731e-02
-5.870447307825088501e-02
-7.998377084732055664e-02
-1.090216711163520813e-01
-6.748402863740921021e-02
-5.469692498445510864e-02
-1.270690560340881348e-01
8.704237639904022217e-02
3.696848452091217041e-02
7.587087154388427734e-02
-1.044294238090515137e-01
-2.890731394290924072e-02
1.040370166301727295e-01
-3.105831146240234375e-02
-1.421006023883819580e-02
-5.629466474056243896e-02
-1.143951714038848877e-01
6.963402032852172852e-02
-1.262735873460769653e-01
-3.124704957008361816e-02
-1.201599836349487305e-03
8.888116478919982910e-02
5.667755007743835449e-02
-4.196292906999588013e-02
-8.840101957321166992e-02
-3.622799366712570190e-02
-1.416318863630294800e-01
1.276694238185882568e-01
9.346503019332885742e-02
2.185741066932678223e-02
-1.343300044536590576e-01
1.079612672328948975e-01
-2.909974008798599243e-02
-8.991478383541107178e-02
-7.312364876270294189e-02
1.447076201438903809e-01
-5.488126724958419800e-02
-8.954603970050811768e-02
1.225383579730987549e-01
-3.888702392578125000e-02
-7.678264379501342773e-02
1.080513596534729004e-01
1.433226466178894043e-01
-1.123723983764648438e-01
-6.553867459297180176e-02
9.585870802402496338e-02
6.337504088878631592e-02
-1.397870332002639771e-01
-1.246335208415985107e-01
7.965366542339324951e-02
-1.333507001399993896e-01
-1.261433064937591553e-01
-6.405442953109741211e-03
-1.726441085338592529e-02
1.019835472106933594e-02
1.180139482021331787e-01
1.071453988552093506e-01
-7.857248932123184204e-02
1.440684199333190918e-01
-6.924060732126235962e-02
-1.305521875619888306e-01
1.116155087947845459e-01
2.671423554420471191e-02
1.251636445522308350e-01
6.342205405235290527e-02
1.865282654762268066e-03
1.074763834476470947e-01
2.561995387077331543e-02
8.091649413108825684e-02
-1.751807332038879395e-02
-8.204102516174316406e-02
5.267183482646942139e-02
-7.384520769119262695e-02
-9.198990464210510254e-02
3.451846539974212646e-02
1.118467450141906738e-01
-9.939269721508026123e-02
1.830135285854339600e-02
8.684758841991424561e-02
1.023693382740020752e-01
9.507168829441070557e-02
1.246908605098724365e-01
-4.806919395923614502e-02
-1.389418393373489380e-01
-5.669563263654708862e-02
-9.432105720043182373e-02
1.094836890697479248e-01
-9.031242877244949341e-02
1.344113051891326904e-01
1.290848851203918457e-01
-6.069788336753845215e-02
-1.127714365720748901e-01
-8.520096540451049805e-03
-7.419028878211975098e-02
-1.221007853746414185e-01
2.319586277008056641e-02
-5.810351669788360596e-02
-4.996796697378158569e-02
-8.857010304927825928e-02
-3.629394620656967163e-02
4.322969913482666016e-02
6.898032128810882568e-02
7.456010580062866211e-02
5.763702094554901123e-02
-1.151113212108612061e-02
2.198287844657897949e-02
-9.840205311775207520e-03
1.235434114933013916e-01
3.225126862525939941e-02
7.877749204635620117e-02
5.631847679615020752e-02
9.372055530548095703e-03
1.206748187541961670e-02
-5.810680985450744629e-02
-1.235665306448936462e-01
1.095743179321289062e-01
2.696478366851806641e-02
-1.364447623491287231e-01
-1.021187230944633484e-01
3.546346724033355713e-02
6.719143688678741455e-02
1.178197562694549561e-02
-2.202925086021423340e-02
-3.724954277276992798e-02
1.252546310424804688e-01
-6.421358138322830200e-02
5.287840962409973145e-03
4.132996499538421631e-02
1.057185232639312744e-01
-5.975188314914703369e-02
-1.173475086688995361e-01
-1.718401908874511719e-04
9.419192373752593994e-02
6.811839342117309570e-02
-1.330813914537429810e-01
7.233412563800811768e-02
4.953719675540924072e-02
1.177194416522979736e-01
-4.162970930337905884e-02
-5.656447261571884155e-02
4.260604083538055420e-02
-1.319890022277832031e-01
1.312525868415832520e-01
-8.151089400053024292e-02
-1.150902658700942993e-01
-5.087465047836303711e-02
-1.408633738756179810e-01
7.980062067508697510e-02
-8.783468604087829590e-02
-6.988346576690673828e-03
8.883532881736755371e-02
1.778733730316162109e-02
5.405615270137786865e-02
-7.854685187339782715e-02
1.022504866123199463e-01
-8.079359680414199829e-02
-7.256849110126495361e-02
-4.479799419641494751e-02
-2.722611278295516968e-02
1.272730529308319092e-02
-2.493256330490112305e-02
1.256762146949768066e-01
1.462036967277526855e-01
4.690867662429809570e-02
-3.245670348405838013e-02
-8.134424686431884766e-02
6.189912557601928711e-02
8.928081393241882324e-02
-2.388784289360046387e-02
8.196489512920379639e-02
-6.340812146663665771e-02
-8.615209162235260010e-02
-3.011327236890792847e-02
1.319737136363983154e-01
-5.990342050790786743e-02
-7.491263002157211304e-02
-1.118057817220687866e-01
-1.105137765407562256e-01
-9.623643755912780762e-02
4.636636376380920410e-02
-1.275651603937149048e-01
6.419381499290466309e-02
1.421392261981964111e-01
4.712201654911041260e-02
1.026976108551025391e-02
2.989792823791503906e-02
8.496575057506561279e-02
1.364978551864624023e-01
-1.245160400867462158e-01
-3.517177700996398926e-02
4.155057668685913086e-02
-9.303666651248931885e-02
8.054982125759124756e-02
-2.592761814594268799e-02
1.970049738883972168e-02
-8.730284124612808228e-02
-1.087601333856582642e-01
8.506816625595092773e-02
1.233428716659545898e-03
9.713172912597656250e-04
-7.890463620424270630e-02
-1.382435858249664307e-01
4.776118695735931396e-02
9.277151525020599365e-02
-1.347222030162811279e-01
2.389146387577056885e-02
-3.603377193212509155e-02
-1.435505151748657227e-01
1.254431009292602539e-01
-1.158527210354804993e-01
1.218046844005584717e-01
6.478939950466156006e-02
-2.861752361059188843e-02
-9.453614801168441772e-02
-8.689871430397033691e-02
-4.948958754539489746e-03
4.788009822368621826e-02
-1.152049601078033447e-01
9.022964537143707275e-02
-1.081349700689315796e-01
-2.479466795921325684e-02
-1.292848289012908936e-01
-1.449822932481765747e-01
1.756519079208374023e-02
-5.629691481590270996e-02
-6.089400500059127808e-02
5.045777559280395508e-02
9.040449559688568115e-02
-1.303002536296844482e-01
-9.908790141344070435e-02
7.814602553844451904e-02
3.824251890182495117e-02
-1.425357758998870850e-01
-7.804067432880401611e-02
1.462078988552093506e-01
-1.438353955745697021e-02
9.817616641521453857e-02
1.404620409011840820e-01
6.264635920524597168e-02
-7.704844325780868530e-02
-1.684373617172241211e-02
-5.602230876684188843e-02
1.039086282253265381e-01
-8.976593613624572754e-02
-1.316070556640625000e-01
1.120916008949279785e-02
6.375363469123840332e-02
-1.478001326322555542e-01
3.269639611244201660e-02
-8.156270533800125122e-02
-4.409512877464294434e-02
-8.514822274446487427e-02
-9.280936419963836670e-02
-2.661487460136413574e-02
1.389083266258239746e-01
-6.511643528938293457e-03
8.209034800529479980e-03
-3.698244690895080566e-03
-7.019290328025817871e-02
1.229411363601684570e-01
1.105676591396331787e-01
5.565334856510162354e-02
1.384204030036926270e-01
-7.557310163974761963e-02
1.047509312629699707e-01
1.178044080734252930e-01
4.947781562805175781e-03
-1.423406898975372314e-01
-3.132171183824539185e-02
-9.966418147087097168e-02
1.122392714023590088e-01
-9.521155059337615967e-02
-1.162859201431274414e-01
-1.135664060711860657e-01
1.032735407352447510e-01
-1.306896656751632690e-01
8.801333606243133545e-02
-1.790481805801391602e-02
7.723139226436614990e-02
5.735832452774047852e-02
-1.057191044092178345e-01
1.862008869647979736e-02
1.475528478622436523e-01
-1.053680777549743652e-01
-1.252946704626083374e-01
1.192313730716705322e-01
-7.638596743345260620e-02
3.826984763145446777e-02
1.124712526798248291e-01
1.178802251815795898e-01
-1.932807266712188721e-02
-2.247820794582366943e-02
5.780355632305145264e-02
1.192761659622192383e-01
5.093626677989959717e-02
5.387668311595916748e-02
-1.277928203344345093e-01
-1.599287986755371094e-02
5.172440409660339355e-02
7.637386023998260498e-02
-1.426690816879272461e-01
1.469011008739471436e-01
-7.269109040498733521e-02
2.920970320701599121e-03
-1.358879208564758301e-01
-3.127393871545791626e-02
3.961682319641113281e-02
-8.433460444211959839e-02
1.008656322956085205e-01
8.802142739295959473e-02
-1.454959064722061157e-01
-1.331895291805267334e-01
-6.472036242485046387e-02
6.531035900115966797e-02
-1.449420005083084106e-01
5.968692898750305176e-02
-1.491115093231201172e-01
-2.429758012294769287e-02
1.208423078060150146e-02
5.162893235683441162e-02
2.508026361465454102e-02
1.073163449764251709e-01
3.550288081169128418e-02
-5.774203687906265259e-02
-2.263160049915313721e-02
-1.385465264320373535e-03
1.308541297912597656e-01
6.875269114971160889e-02
-1.019538342952728271e-01
5.067037045955657959e-02
1.048057973384857178e-01
-2.962592989206314087e-02
8.246517181396484375e-02
-7.265571504831314087e-02
4.583799839019775391e-02
-3.937117755413055420e-02
-3.739739209413528442e-02
-1.359902918338775635e-01
1.317634880542755127e-01
3.975571691989898682e-02
2.861970663070678711e-02
5.175143480300903320e-02
-5.179207772016525269e-02
9.867762029170989990e-02
-3.480850905179977417e-02
-1.251277029514312744e-01
2.285297214984893799e-02
-2.199459075927734375e-02
1.041750311851501465e-01
-1.757535338401794434e-02
1.384620964527130127e-01
-9.468376636505126953e-03
-2.341479063034057617e-02
-1.419007182121276855e-01
-2.105885744094848633e-02
2.236494421958923340e-02
7.912711799144744873e-02
-1.294110715389251709e-02
-1.301598101854324341e-01
1.309667825698852539e-01
7.688039541244506836e-02
1.385852694511413574e-01
-3.265517950057983398e-02
-5.728352069854736328e-02
-5.566526949405670166e-02
-3.860722482204437256e-02
-1.215623468160629272e-01
8.573766052722930908e-02
8.545541763305664062e-02
1.280508637428283691e-01
-6.152335554361343384e-02
2.217735350131988525e-02
-2.543995529413223267e-02
1.012406647205352783e-01
-6.264477968215942383e-02
9.296523034572601318e-02
1.135634481906890869e-01
-1.513464748859405518e-02
-1.099262386560440063e-01
-1.326944530010223389e-01
1.217826008796691895e-01
-8.621532469987869263e-02
4.429626464843750000e-02
-1.481801867485046387e-01
-2.900968492031097412e-02
-3.047478944063186646e-02
8.296382427215576172e-02
-3.231167793273925781e-03
7.753603160381317139e-02
-2.846609055995941162e-02
-7.756744325160980225e-02
-1.093165427446365356e-01
-4.443727433681488037e-02
1.463184058666229248e-01
-4.229823499917984009e-02
-4.899282008409500122e-02
7.337218523025512695e-02
-3.357525914907455444e-02
4.066762328147888184e-02
1.136107146739959717e-01
-1.040578112006187439e-01
-1.209482848644256592e-01
-9.146682918071746826e-02
1.308316290378570557e-01
-6.443540751934051514e-02
-7.465993613004684448e-02
5.690020322799682617e-02
-1.472003459930419922e-01
-9.892232716083526611e-02
1.453694701194763184e-02
-1.151746511459350586e-02
1.206363141536712646e-01
-1.434887945652008057e-01
7.610666751861572266e-02
-9.349851310253143311e-02
5.085127055644989014e-02
-5.631285160779953003e-02
6.166167557239532471e-02
6.400640308856964111e-02
1.197311878204345703e-01
4.081970453262329102e-02
6.088630855083465576e-02
-7.683632522821426392e-02
-5.111756920814514160e-02
-9.676101803779602051e-02
-6.758912652730941772e-02
3.490547835826873779e-02
5.728572607040405273e-03
3.684216737747192383e-02
1.203044950962066650e-01
-7.923421263694763184e-02
1.391571164131164551e-01
1.133328080177307129e-01
-9.355320036411285400e-02
3.512930870056152344e-02
-1.496946364641189575e-01
-6.213777512311935425e-02
-2.220317721366882324e-03
9.949851036071777344e-02
5.465449392795562744e-02
1.117864847183227539e-01
-6.357140839099884033e-02
1.345154345035552979e-01
1.481080055236816406e-02
4.385507106781005859e-02
1.170644164085388184e-01
-8.605902642011642456e-02
8.481141924858093262e-02
5.506649613380432129e-02
9.382243454456329346e-02
-4.695139080286026001e-02
1.157854497432708740e-01
-1.219516843557357788e-01
-1.393753290176391602e-01
-9.837640821933746338e-02
5.934031307697296143e-02
8.524554967880249023e-02
8.661429584026336670e-02
1.350543498992919922e-01
-2.233418822288513184e-02
-8.006863296031951904e-02
-1.188227832317352295e-01
6.267969310283660889e-02
-9.604454040527343750e-02
-8.198857307434082031e-03
-1.339554190635681152e-01
9.784215688705444336e-02
-6.104951351881027222e-02
-1.042213812470436096e-01
1.850169897079467773e-02
8.396747708320617676e-02
6.550014019012451172e-02
1.030048429965972900e-01
4.756438732147216797e-02
1.157518923282623291e-01
-7.574390619993209839e-02
9.197852015495300293e-02
1.037971079349517822e-01
3.126001358032226562e-02
-4.535720497369766235e-02
1.335839629173278809e-01
-1.490065157413482666e-01
7.402363419532775879e-02
1.390485465526580811e-01
9.354116022586822510e-02
-3.550582379102706909e-02
-1.127285435795783997e-01
8.092553913593292236e-02
-1.356249153614044189e-01
-8.632089197635650635e-02
1.390269100666046143e-01
-1.274205744266510010e-02
2.276745438575744629e-02
-6.199798732995986938e-02
5.793035030364990234e-02
-3.036954998970031738e-02
-1.466064900159835815e-01
-9.883921593427658081e-02
-1.638597249984741211e-02
3.683489561080932617e-02
1.176800727844238281e-01
8.983124792575836182e-02
-6.561165302991867065e-02
-2.524953335523605347e-02
-3.490407764911651611e-02
-3.741092979907989502e-02
8.824175596237182617e-02
8.635815978050231934e-02
5.293208360671997070e-02
1.804877817630767822e-02
2.065759897232055664e-02
1.317784190177917480e-03
-5.817760527133941650e-02
6.676414608955383301e-02
4.253244400024414062e-02
-1.133438944816589355e-01
1.296162605285644531e-02
-2.549950778484344482e-02
5.769659578800201416e-02
-3.717488795518875122e-02
1.877899467945098877e-02
1.411617696285247803e-01
-2.042692899703979492e-02
-9.373373538255691528e-02
9.013265371322631836e-03
-9.685547649860382080e-02
1.106040477752685547e-01
-7.699871063232421875e-02
-4.986705631017684937e-02
5.156588554382324219e-02
-1.346994340419769287e-01
3.930558264255523682e-02
1.321425735950469971e-01
-1.203554868698120117e-01
-9.579299390316009521e-02
-1.245195865631103516e-01
-3.535471856594085693e-02
-1.072834283113479614e-01
-5.479113757610321045e-02
1.178179681301116943e-02
-5.338669568300247192e-02
-1.049629896879196167e-01
-9.668166935443878174e-02
-4.783733934164047241e-02
-1.749686896800994873e-02
8.837018907070159912e-02
-2.605617046356201172e-02
1.116797327995300293e-03
-9.312157332897186279e-02
-3.516357392072677612e-02
9.589421749114990234e-02
-1.013428419828414917e-01
-5.587768554687500000e-02
1.271197497844696045e-01
6.132920086383819580e-02
-7.023078948259353638e-02
1.312009990215301514e-01
-2.290703356266021729e-02
3.808948397636413574e-02
1.455939114093780518e-01
1.153653562068939209e-01
9.845644235610961914e-03
9.121900796890258789e-02
8.978341519832611084e-02
-1.533566415309906006e-02
-2.386711537837982178e-02
-1.413601040840148926e-01
-1.230677291750907898e-01
-3.815267980098724365e-02
3.256487846374511719e-02
1.007634103298187256e-01
5.127777159214019775e-02
-1.337656378746032715e-01
-1.329220831394195557e-02
1.246836781501770020e-01
1.463991105556488037e-01
1.446813941001892090e-01
-5.262961238622665405e-02
-7.933894544839859009e-02
-1.679837703704833984e-02
-8.501753211021423340e-03
-6.034073978662490845e-02
-6.105609983205795288e-02
-7.701296359300613403e-02
-4.936055839061737061e-02
1.269605159759521484e-01
3.297305107116699219e-02
-1.153826713562011719e-03
-1.444506198167800903e-01
7.613502442836761475e-02
7.218953967094421387e-02
-1.161148995161056519e-01
-8.124777674674987793e-02
1.341936588287353516e-01
-4.337012767791748047e-03
1.310169696807861328e-03
-7.058521360158920288e-02
-6.707821786403656006e-02
-8.938361704349517822e-02
6.750078499317169189e-02
1.244764029979705811e-02
1.556225121021270752e-02
-5.634991079568862915e-02
1.170903742313385010e-01
-8.139409124851226807e-02
1.313892006874084473e-01
-1.452651023864746094e-01
8.262372016906738281e-02
-1.221781671047210693e-01
3.462775051593780518e-02
-8.850127458572387695e-03
-1.175308227539062500e-02
-5.074298381805419922e-02
3.201988339424133301e-02
1.385889649391174316e-01
8.369937539100646973e-02
3.580452501773834229e-02
-1.347628831863403320e-01
1.002194583415985107e-01
-1.283300071954727173e-01
-7.947845757007598877e-02
7.915437221527099609e-03
5.247890949249267578e-03
-1.353547424077987671e-01
-1.377781927585601807e-01
-1.477338820695877075e-01
-5.275168269872665405e-02
1.318081021308898926e-01
2.841864526271820068e-02
-6.881964951753616333e-02
1.354366838932037354e-01
5.682976543903350830e-02
1.570810377597808838e-02
-9.788319468498229980e-02
6.819441914558410645e-02
1.016294062137603760e-01
1.400710046291351318e-01
1.074304580688476562e-01
9.084804356098175049e-02
-8.744537830352783203e-03
1.011170446872711182e-01
-1.425662487745285034e-01
-3.982429206371307373e-02
-1.277865171432495117e-01
5.265578627586364746e-03
2.035056054592132568e-02
-2.230897545814514160e-02
2.725273370742797852e-04
7.903918623924255371e-03
-1.064580976963043213e-01
4.290570318698883057e-02
-1.264980286359786987e-01
-1.462523043155670166e-01
1.356481611728668213e-01
-9.799781441688537598e-02
-5.503118038177490234e-03
-8.035086840391159058e-02
-1.688091456890106201e-02
1.501361131668090820e-01
-3.413736820220947266e-02
-1.173869669437408447e-01
6.840850412845611572e-02
-1.034659147262573242e-02
-5.961033701896667480e-02
-1.050878912210464478e-01
1.500515341758728027e-01
4.130658507347106934e-02
7.666110992431640625e-03
1.248146891593933105e-01
-9.707193076610565186e-02
1.756396889686584473e-02
-6.457613408565521240e-02
-1.244553774595260620e-01
-8.408739417791366577e-02
-1.494282633066177368e-01
5.959495902061462402e-03
2.426059544086456299e-02
1.093780696392059326e-01
9.811715781688690186e-02
-5.452430248260498047e-02
-1.210226863622665405e-01
2.005019783973693848e-02
-2.500167489051818848e-02
1.323889493942260742e-01
2.078104019165039062e-02
-1.098868548870086670e-01
2.224297821521759033e-02
1.405924558639526367e-01
-1.113124638795852661e-01
1.431753933429718018e-01
8.620122075080871582e-02
3.357976675033569336e-04
2.267771959304809570e-02
8.370657265186309814e-02
-1.678054034709930420e-02
-5.858856439590454102e-02
9.914800524711608887e-03
1.447275280952453613e-01
6.509430706501007080e-02
8.712863922119140625e-02
1.444695889949798584e-01
2.743446826934814453e-02
4.279707372188568115e-02
6.922847032546997070e-02
-1.324966549873352051e-02
1.132977306842803955e-01
1.264062523841857910e-01
-1.636484265327453613e-02
1.352274715900421143e-01
-8.955045044422149658e-02
-3.020018339157104492e-04
7.847273349761962891e-02
-8.227044343948364258e-02
6.231753528118133545e-02
-5.777985602617263794e-02
-1.486766636371612549e-01
-3.764052689075469971e-02
1.042803823947906494e-01
1.125150322914123535e-01
-1.148310899734497070e-01
1.199314296245574951e-01
8.423484861850738525e-02
1.984091103076934814e-02
-7.329871505498886108e-02
1.039462983608245850e-01
7.253000140190124512e-02
1.642085611820220947e-02
-2.566418051719665527e-02
1.156323254108428955e-01
3.983417153358459473e-02
1.158199906349182129e-01
4.228258132934570312e-02
-1.199667230248451233e-01
-9.086293727159500122e-02
-8.147590607404708862e-02
1.379861831665039062e-01
7.883642613887786865e-02
-1.438983529806137085e-01
-8.821256458759307861e-02
3.621190786361694336e-03
-5.203320086002349854e-02
-7.169327884912490845e-02
1.723659038543701172e-02
-1.283789277076721191e-01
2.263361215591430664e-02
1.356343030929565430e-01
1.273196935653686523e-01
-2.633184194564819336e-03
5.847312510013580322e-02
1.008984148502349854e-01
7.856410741806030273e-02
-1.133429259061813354e-01
-2.431309223175048828e-02
6.508481502532958984e-02
-1.243623197078704834e-01
8.259975910186767578e-02
7.245729863643646240e-02
7.543878257274627686e-02
-8.208252489566802979e-02
-7.244588434696197510e-02
1.098593473434448242e-01
4.305474460124969482e-02
1.396342217922210693e-01
-7.304723560810089111e-02
6.394967436790466309e-02
4.318016767501831055e-02
-8.248224854469299316e-02
1.482184827327728271e-01
1.449128985404968262e-02
-3.734658658504486084e-02
1.385846734046936035e-02
1.260276138782501221e-02
-7.842703908681869507e-02
2.559840679168701172e-03
1.000206172466278076e-02
1.256176531314849854e-01
1.418211460113525391e-01
6.967423856258392334e-02
-6.180963665246963501e-02
-1.066868007183074951e-01
-1.336136013269424438e-01
-5.286669731140136719e-02
-1.135117635130882263e-01
-1.322523355484008789e-01
-6.510228663682937622e-02
4.275807738304138184e-02
-1.337527781724929810e-01
1.265899538993835449e-01
-1.064437031745910645e-01
2.729628980159759521e-02
1.342183947563171387e-01
-8.270060271024703979e-02
-1.439781039953231812e-01
-2.424079179763793945e-02
-9.950104355812072754e-02
1.163546442985534668e-01
-5.165281891822814941e-02
3.056423366069793701e-02
1.091992855072021484e-01
5.270692706108093262e-02
1.405208110809326172e-01
4.386939108371734619e-02
-9.372167289257049561e-02
-1.466796696186065674e-01
-2.861128747463226318e-02
-1.228973269462585449e-01
-1.202657520771026611e-01
-8.383655548095703125e-02
6.439669430255889893e-02
-8.735881000757217407e-02
5.418327450752258301e-02
1.073332726955413818e-01
3.512175381183624268e-02
-1.028941422700881958e-01
-1.210394129157066345e-01
5.985350906848907471e-02
-1.239400058984756470e-01
1.388145983219146729e-01
-8.884625136852264404e-02
-2.390897274017333984e-02
7.033054530620574951e-02
4.860669374465942383e-03
1.112613379955291748e-01
-1.429558247327804565e-01
2.420768141746520996e-03
-7.729068398475646973e-02
-1.122789457440376282e-01
-3.851211816072463989e-02
-1.093847602605819702e-01
-4.705831408500671387e-03
-1.249326989054679871e-01
1.326212286949157715e-01
-3.404301404953002930e-02
9.540039300918579102e-02
-4.543974995613098145e-03
-6.229361146688461304e-02
-7.580284029245376587e-02
-1.937253773212432861e-02
-5.512031912803649902e-02
-1.090971231460571289e-01
-1.065560355782508850e-01
5.382369458675384521e-02
-2.728104591369628906e-03
1.798911392688751221e-02
-4.831698536872863770e-02
-9.173800051212310791e-02
5.579762160778045654e-02
-2.148948609828948975e-02
7.595838606357574463e-02
3.013704717159271240e-02
7.558234035968780518e-02
-2.226048707962036133e-02
3.249000012874603271e-02
3.256118297576904297e-02
1.046556532382965088e-01
-5.731048434972763062e-02
1.092804968357086182e-01
1.270728409290313721e-01
-2.787780761718750000e-02
-7.973118126392364502e-02
1.477943360805511475e-02
-1.188913881778717041e-01
3.783214092254638672e-02
-1.413715630769729614e-01
-4.527300596237182617e-03
-9.986288845539093018e-02
5.645819008350372314e-02
2.153366804122924805e-02
-2.182242274284362793e-02
7.637977600097656250e-02
5.952723324298858643e-02
-1.076126098632812500e-01
1.299354135990142822e-01
2.077384293079376221e-02
-4.206033051013946533e-02
-2.302481234073638916e-02
-5.083329230546951294e-02
-1.291583478450775146e-01
-1.443653255701065063e-01
9.723381698131561279e-02
-1.316333711147308350e-01
3.472152352333068848e-02
-3.851766884326934814e-02
2.981950342655181885e-02
-9.165908396244049072e-02
-1.211914867162704468e-01
2.417956292629241943e-02
-1.451701372861862183e-01
3.284542262554168701e-02
1.412379741668701172e-02
6.862579286098480225e-02
-1.129345595836639404e-02
1.002941131591796875e-01
-2.528165280818939209e-02
1.488888561725616455e-01
-1.161320507526397705e-01
-2.656871825456619263e-02
-8.129855245351791382e-02
-1.842722296714782715e-02
-1.314295828342437744e-01
-3.682594001293182373e-02
5.924527347087860107e-02
3.383819758892059326e-02
5.049784481525421143e-02
1.441548466682434082e-01
7.115387916564941406e-02
